<?xml version="1.0"?>
<opencv_storage>
<my_svm type_id="opencv-ml-svm">
  <svm_type>C_SVC</svm_type>
  <kernel><type>RBF</type>
    <gamma>8.9999999999999997e-002</gamma></kernel>
  <C>10.</C>
  <term_criteria><epsilon>1.1920928955078125e-007</epsilon>
    <iterations>2147483647</iterations></term_criteria>
  <var_all>324</var_all>
  <var_count>324</var_count>
  <class_count>2</class_count>
  <class_labels type_id="opencv-matrix">
    <rows>1</rows>
    <cols>2</cols>
    <dt>i</dt>
    <data>
      0 1</data></class_labels>
  <sv_total>268</sv_total>
  <support_vectors>
    <_>
      2.06733108e-001 7.77958259e-002 4.19821255e-002 1.75989475e-002
      2.24148817e-002 7.56769488e-003 1.25891669e-002 2.98871808e-002
      2.11008415e-001 2.83302873e-001 1.71575367e-001 7.34027624e-002
      2.22801194e-002 2.63086464e-002 1.48126367e-003 5.34158992e-003
      2.88841557e-002 1.77047908e-001 1.36987835e-001 2.83302873e-001
      2.83302873e-001 1.53608307e-001 2.09109664e-001 6.11279383e-002
      6.82899281e-002 3.84590067e-002 1.07978746e-001 2.83302873e-001
      2.83302873e-001 2.83302873e-001 2.83302873e-001 2.83302873e-001
      1.22320235e-001 1.14277162e-001 8.13581944e-002 2.18158394e-001
      2.69022316e-001 9.83085856e-002 3.28475274e-002 1.08183967e-002
      1.62520576e-002 1.04814512e-003 4.23686346e-003 5.87098189e-002
      2.02779338e-001 2.69022316e-001 1.93192542e-001 1.58555046e-001
      7.36263469e-002 3.84969786e-002 2.84873624e-003 1.97675638e-002
      1.50281489e-001 2.69022316e-001 2.69022316e-001 1.76351890e-001
      1.89938888e-001 2.01881066e-001 1.24862745e-001 5.07313795e-002
      4.31468077e-002 1.25747576e-001 2.69022316e-001 2.69022316e-001
      2.52282917e-001 2.27609619e-001 1.59327045e-001 8.67053792e-002
      1.58883519e-002 4.90297675e-002 2.18763784e-001 2.69022316e-001
      2.33131513e-001 2.33131513e-001 2.33131513e-001 1.34104252e-001
      1.33239508e-001 1.91005934e-002 2.29838025e-002 9.19803455e-002
      1.56311303e-001 2.33131513e-001 2.13606521e-001 1.54960364e-001
      8.82738754e-002 1.45387799e-001 4.22006287e-002 3.21634449e-002
      5.24760075e-002 1.77155882e-001 2.33131513e-001 2.33131513e-001
      2.33131513e-001 2.14566216e-001 1.81887925e-001 5.07426858e-002
      6.24015257e-002 1.43166482e-001 2.33131513e-001 1.56720683e-001
      1.90612212e-001 2.33131513e-001 1.78364083e-001 2.33131513e-001
      1.60043433e-001 9.88143533e-002 8.39473978e-002 8.88764039e-002
      2.50441916e-002 1.10854946e-001 1.36759937e-001 1.18635386e-001
      2.83164680e-001 1.56225070e-001 5.96445315e-002 1.54534914e-002
      9.82765388e-003 6.57102689e-002 1.65214807e-001 2.46121034e-001
      2.39851788e-001 2.83164680e-001 2.83164680e-001 1.62097901e-001
      1.80060565e-002 3.07293013e-002 4.36314987e-003 1.90013442e-002
      4.63817902e-002 7.28048384e-002 2.83164680e-001 2.83164680e-001
      1.20582581e-001 1.80005301e-002 7.55577954e-003 1.69421863e-002
      2.60700714e-002 1.45130679e-001 2.32573494e-001 2.83164680e-001
      2.83164680e-001 2.83164680e-001 7.30889365e-002 1.55603038e-002
      1.17256947e-001 7.72032961e-002 1.39231801e-001 2.34634772e-001
      2.38667950e-001 2.38667950e-001 1.20361432e-001 7.39816576e-002
      1.06580131e-001 1.57926351e-001 9.15509388e-002 8.23955610e-002
      1.19305715e-001 1.00136332e-001 6.80785701e-002 7.41267279e-002
      1.17665648e-001 1.67156935e-001 7.09757730e-002 6.34899661e-002
      1.89541459e-001 2.38667950e-001 2.38667950e-001 2.38667950e-001
      2.38667950e-001 1.43795386e-001 6.73616752e-002 1.45775139e-001
      1.37709364e-001 2.08210155e-001 1.88383788e-001 2.38667950e-001
      2.25052014e-001 2.38667950e-001 2.04134434e-001 1.36294901e-001
      1.41044244e-001 1.48268521e-001 1.72010645e-001 1.45913422e-001
      1.36248454e-001 7.89417252e-002 1.04102381e-001 1.28968164e-001
      1.79230526e-001 4.17442694e-002 8.28683674e-002 1.55119434e-001
      1.80941582e-001 2.61590332e-001 2.61590332e-001 1.12773009e-001
      6.74746260e-002 6.27959892e-002 1.03411146e-001 1.32265389e-001
      1.45600706e-001 1.47071078e-001 2.61590332e-001 2.61590332e-001
      2.61590332e-001 2.26950467e-001 1.68986380e-001 1.51822949e-002
      5.50310165e-002 9.09970328e-002 2.19729513e-001 2.61590332e-001
      2.61590332e-001 1.81143507e-001 8.35791826e-002 6.25304729e-002
      1.38191078e-002 1.29555529e-002 2.36272309e-002 3.23158018e-002
      1.42983958e-001 3.06313604e-001 1.78156734e-001 7.87250325e-002
      4.58286740e-002 3.38754468e-002 3.26453410e-002 9.57169980e-002
      1.62425786e-001 2.34976843e-001 3.06313604e-001 3.06313604e-001
      3.06313604e-001 1.82192251e-001 4.46715169e-002 6.46625599e-003
      1.70816705e-002 2.32767500e-002 4.77942675e-002 1.18435167e-001
      9.42066386e-002 1.12568721e-001 1.14834845e-001 1.02836333e-001
      3.48091088e-002 6.66469857e-002 7.29004070e-002 1.10422097e-001
      2.52749354e-001 3.06313604e-001 3.06313604e-001 3.06313604e-001
      6.71700612e-002 5.70525974e-002 1.22164443e-001 1.06444687e-001
      8.85353386e-002 1.60654902e-001 2.40019798e-001 2.40019798e-001
      2.02106684e-001 1.46230832e-001 1.07648544e-001 1.76405832e-001
      9.30304080e-002 1.49083987e-001 1.45145759e-001 2.40019798e-001
      2.40019798e-001 2.40019798e-001 1.99022561e-001 6.80385977e-002
      8.48655105e-002 5.11869527e-002 6.92086294e-002 6.40620217e-002
      1.62681744e-001 2.40019798e-001 2.40019798e-001 2.40019798e-001
      1.38252586e-001 1.49172902e-001 5.81257083e-002 1.44026667e-001
      9.55526307e-002 1.81413844e-001 2.40019798e-001 2.40019798e-001
      7.90447816e-002 7.39972964e-002 9.84632000e-002 7.86066800e-002
      2.37083808e-001 2.40776807e-001 2.40776807e-001 1.95557326e-001
      1.51770890e-001 3.84444594e-002 6.29793480e-002 5.54372184e-002
      1.27524197e-001 2.40776807e-001 2.02634960e-001 1.96663931e-001
      1.10951990e-001 6.37850836e-002 1.22345507e-001 1.39748171e-001
      1.22078709e-001 6.48252741e-002 1.95672691e-001 2.40776807e-001
      2.40776807e-001 2.40776807e-001 2.40776807e-001 9.67065692e-002
      1.13903716e-001 5.60267307e-002 5.05570471e-002 1.00350372e-001
      1.80815399e-001 2.40776807e-001 2.40776807e-001 2.17198893e-001</_>
    <_>
      9.42342877e-002 9.17328969e-002 8.36343020e-002 1.07576407e-001
      4.15151678e-002 1.73420832e-002 1.05669172e-002 2.91923084e-003
      3.49623598e-002 3.07753354e-001 3.07753354e-001 3.01860303e-001
      2.32873902e-001 8.65381286e-002 5.61110266e-002 4.20938060e-002
      1.47267943e-002 7.44907632e-002 4.18832712e-002 7.21207783e-002
      1.85631409e-001 3.07753354e-001 1.65441275e-001 3.78556065e-002
      2.73258686e-002 1.05428398e-002 1.97567996e-002 1.62071586e-001
      3.07753354e-001 3.07753354e-001 3.07753354e-001 2.73442388e-001
      1.96855798e-001 1.08664408e-001 1.56240668e-002 5.08851334e-002
      2.35933468e-001 2.35933468e-001 1.59480333e-001 6.51276037e-002
      5.28398752e-002 4.72321734e-002 7.25980699e-002 5.31318523e-002
      1.66819721e-001 2.35933468e-001 2.35933468e-001 1.68316722e-001
      8.45859945e-002 1.22806028e-001 5.12246974e-002 1.25834569e-001
      1.17040545e-001 2.35933468e-001 1.99466005e-001 2.35933468e-001
      2.35933468e-001 1.99596033e-001 1.13168247e-001 1.30716637e-001
      1.43209174e-001 5.93321286e-002 7.11659044e-002 2.35933468e-001
      2.35933468e-001 2.35933468e-001 1.68121815e-001 1.76224470e-001
      1.06781855e-001 1.96311027e-001 1.26249850e-001 1.54399857e-001
      2.39450097e-001 2.39450097e-001 2.39450097e-001 2.23542497e-001
      1.84740826e-001 5.57301044e-002 1.01280019e-001 1.19951308e-001
      1.08213775e-001 1.76324368e-001 2.39450097e-001 2.39450097e-001
      1.62883863e-001 1.01499103e-001 5.10605127e-002 4.59099822e-002
      9.91129726e-002 9.18167606e-002 1.65602475e-001 2.33544543e-001
      2.39450097e-001 2.39450097e-001 2.39450097e-001 9.18049514e-002
      1.04565978e-001 9.11025032e-002 9.25172046e-002 6.71113506e-002
      1.13111183e-001 2.04282209e-001 2.32966319e-001 2.39450097e-001
      1.62155077e-001 5.21982610e-002 6.13439493e-002 5.34048639e-002
      8.44273809e-003 1.24415075e-002 1.02131709e-001 2.70732522e-001
      2.70732522e-001 7.64941499e-002 4.03911732e-002 1.88969094e-002
      8.31450708e-003 1.18307872e-002 5.27030602e-002 2.70732522e-001
      2.70732522e-001 2.70732522e-001 2.12576821e-001 1.23842940e-001
      2.12784670e-002 2.01645438e-002 1.68307796e-002 1.43031999e-002
      6.22449666e-002 1.51625827e-001 2.70732522e-001 1.41362906e-001
      1.69218794e-001 1.37360439e-001 3.75802256e-002 4.10063379e-002
      1.87660325e-002 1.77107900e-001 2.70732522e-001 2.70732522e-001
      2.70732522e-001 2.70732522e-001 2.09601283e-001 8.87667239e-002
      6.00611158e-002 1.05611585e-001 2.34945491e-001 2.34945491e-001
      2.34945491e-001 2.34945491e-001 1.60726741e-001 4.98670787e-002
      6.07906878e-002 1.45898730e-001 1.73098028e-001 2.34945491e-001
      1.83561489e-001 2.08324552e-001 1.66114956e-001 1.72019616e-001
      1.07389629e-001 1.06005587e-001 1.34726375e-001 8.27652887e-002
      1.50900275e-001 2.34945491e-001 2.34945491e-001 2.34945491e-001
      1.79148197e-001 1.06101811e-001 1.60943568e-001 2.34945491e-001
      1.34157479e-001 9.39257890e-002 5.74524626e-002 1.08522639e-001
      1.46180049e-001 1.11855790e-001 1.13270216e-001 2.00368956e-001
      1.66797683e-001 1.99911013e-001 2.51386464e-001 2.51386464e-001
      2.03500494e-001 1.23948708e-001 1.19507447e-001 1.01117060e-001
      7.77127221e-002 5.03744781e-002 6.36800528e-002 1.49918914e-001
      2.51386464e-001 2.51386464e-001 1.92605361e-001 6.71250001e-002
      4.42957804e-002 1.94565915e-002 2.51386464e-001 1.38928011e-001
      1.28032193e-001 7.79392496e-002 1.61526129e-001 1.86265454e-001
      2.21201554e-001 1.66219309e-001 1.62459075e-001 8.04101229e-002
      7.90069401e-002 1.29733443e-001 2.51386464e-001 2.51386464e-001
      2.10434273e-001 1.89226970e-001 9.65011716e-002 5.05637527e-002
      1.24364875e-001 3.53004262e-002 4.43120562e-002 4.67382185e-002
      1.63779825e-001 1.26334831e-001 2.76847154e-001 2.76847154e-001
      1.70026317e-001 2.27436796e-001 6.27841428e-002 8.60334486e-002
      8.29531774e-002 2.60828644e-001 2.76847154e-001 2.76847154e-001
      2.76847154e-001 2.76847154e-001 2.50958651e-001 3.40300687e-002
      8.71436670e-003 8.88343435e-003 2.58960482e-002 1.77116878e-002
      4.06858288e-002 7.74421170e-002 2.76847154e-001 2.05470815e-001
      2.51454152e-002 3.29262810e-003 4.41068737e-003 2.87015736e-002
      2.36319471e-002 7.16148391e-002 1.76688313e-001 2.76847154e-001
      2.74621069e-001 1.20697826e-001 3.62598971e-002 3.38930637e-002
      1.04109980e-001 1.63723364e-001 1.67240575e-001 1.62097946e-001
      2.74621069e-001 2.74621069e-001 2.09653974e-001 4.10020314e-002
      6.81056315e-003 7.93183297e-002 1.49671003e-001 2.30885327e-001
      2.36671314e-001 2.74621069e-001 2.11501688e-001 6.79595619e-002
      6.30587712e-003 2.79712095e-003 1.93088595e-002 1.21910144e-002
      3.99276726e-002 1.07219741e-001 2.74621069e-001 2.74621069e-001
      1.68204546e-001 2.70609725e-002 3.87790613e-003 4.60486673e-002
      7.70164952e-002 1.78856671e-001 2.11254731e-001 2.74621069e-001
      2.34654084e-001 1.26427457e-001 5.11754006e-002 3.83932143e-002
      1.62235543e-001 2.01622412e-001 2.34862611e-001 2.34862611e-001
      2.23355889e-001 7.28205368e-002 7.75674507e-002 7.67605603e-002
      1.31687343e-001 2.19717145e-001 1.53369725e-001 2.34862611e-001
      1.82422683e-001 1.54659241e-001 1.73742712e-001 9.09417644e-002
      1.67257451e-002 3.30660716e-002 1.55536011e-001 1.38967678e-001
      2.34862611e-001 2.34862611e-001 2.34862611e-001 2.04091951e-001
      4.98620272e-002 1.81674454e-002 7.35720992e-002 1.81922272e-001
      9.52657014e-002 1.59479365e-001 2.34862611e-001 2.34862611e-001</_>
    <_>
      1.55544117e-001 1.53687283e-001 2.37603813e-001 1.90985039e-001
      6.57929406e-002 3.40530910e-002 4.28137593e-002 4.62111458e-002
      1.05671763e-001 1.24255694e-001 1.67957947e-001 2.37603813e-001
      1.92176506e-001 9.13996622e-002 1.55877829e-001 1.75621673e-001
      1.56716168e-001 1.18150614e-001 2.37603813e-001 2.37603813e-001
      2.37603813e-001 2.37603813e-001 1.13610514e-001 1.06630281e-001
      1.71946168e-001 9.72222388e-002 1.46612048e-001 2.37603813e-001
      2.37603813e-001 2.37603813e-001 1.36072159e-001 1.13833405e-001
      1.19009845e-001 1.38193458e-001 1.67055175e-001 1.56796902e-001
      1.14093214e-001 9.55548435e-002 2.29149327e-001 1.34589732e-001
      9.48669165e-002 1.46238536e-001 1.46079347e-001 1.20913923e-001
      8.70223865e-002 9.74773616e-002 1.66886061e-001 2.29149327e-001
      2.29149327e-001 2.01523915e-001 9.87455994e-002 2.29149327e-001
      1.37783527e-001 8.15205947e-002 1.44501343e-001 1.33311659e-001
      2.29149327e-001 1.57683417e-001 2.16000438e-001 2.29149327e-001
      1.46703184e-001 1.02828965e-001 8.60479027e-002 4.53293696e-002
      1.62261754e-001 2.29149327e-001 2.29149327e-001 2.29149327e-001
      2.29149327e-001 2.29149327e-001 1.06418721e-001 5.65639921e-002
      4.99655008e-002 1.37762502e-001 1.92823216e-001 1.74758688e-001
      2.04597652e-001 2.09588781e-001 3.12878460e-001 1.32125512e-001
      6.29299507e-002 1.21947102e-001 1.15557261e-001 7.17241243e-002
      6.05142117e-002 4.60301377e-002 1.25599116e-001 2.33392969e-001
      2.51077246e-002 5.12673222e-002 4.01226915e-002 1.29839122e-001
      1.42942905e-001 1.43015891e-001 2.23531768e-001 3.12878460e-001
      3.12878460e-001 1.44381329e-001 7.41073936e-002 6.94854558e-002
      8.29572603e-002 5.11133522e-002 7.90926740e-002 1.82977811e-001
      3.12878460e-001 3.12878460e-001 6.48173913e-002 6.65783137e-002
      1.36560962e-001 1.96919128e-001 2.27871060e-001 2.27871060e-001
      1.52649656e-001 2.27871060e-001 1.32870719e-001 6.62056580e-002
      7.19514042e-002 2.27871060e-001 2.14386329e-001 1.85574278e-001
      1.13577351e-001 1.04560547e-001 1.15653090e-001 7.44519159e-002
      6.82843626e-002 1.07631445e-001 1.30222291e-001 1.30206510e-001
      1.98492631e-001 1.39986202e-001 1.84837386e-001 2.27871060e-001
      1.43625617e-001 2.27871060e-001 2.27871060e-001 2.27871060e-001
      1.75771803e-001 1.02845617e-001 5.82832843e-002 1.02137886e-001
      1.50629640e-001 9.03589278e-002 2.21807241e-001 2.27871060e-001
      1.11685678e-001 8.67967159e-002 1.03922993e-001 8.80192593e-002
      2.74048448e-001 2.74048448e-001 1.21527076e-001 4.75802943e-002
      6.26510531e-002 4.62352782e-002 8.34232941e-002 1.28183827e-001
      1.76603302e-001 2.74048448e-001 2.74048448e-001 1.51546806e-001
      5.49059920e-002 4.01807576e-002 2.41605297e-001 1.72067374e-001
      2.89577115e-002 1.82075761e-002 2.74048448e-001 2.74048448e-001
      1.55690640e-001 5.89630865e-002 1.25503793e-001 8.23772773e-002
      6.27842695e-002 8.12225118e-002 1.49275333e-001 2.74048448e-001
      2.74048448e-001 2.74048448e-001 5.34151234e-002 4.93359566e-002
      4.01690751e-002 7.74624422e-002 1.39102399e-001 2.64562994e-001
      2.64562994e-001 2.64562994e-001 1.83459744e-001 5.67303598e-002
      3.30743156e-002 2.47940533e-002 4.58052978e-002 1.36184216e-001
      2.64562994e-001 2.64562994e-001 2.64562994e-001 1.42819107e-001
      4.10976335e-002 2.47717313e-002 2.94252653e-002 1.50807966e-002
      2.64562994e-001 2.64562994e-001 2.64562994e-001 2.03552634e-001
      1.16985932e-001 2.99898442e-002 1.85445324e-002 1.38236349e-002
      1.28216799e-002 2.64562994e-001 2.64562994e-001 2.23949447e-001
      8.78880918e-002 4.91499379e-002 1.74186248e-002 1.12468228e-002
      2.52701372e-001 1.34976834e-001 1.29940525e-001 7.62202963e-002
      1.41182631e-001 1.82405010e-001 1.14427388e-001 2.52701372e-001
      2.52701372e-001 2.52701372e-001 1.42664760e-001 5.79443276e-002
      6.99209571e-002 1.72602236e-001 2.52701372e-001 1.35798156e-001
      2.52701372e-001 2.52701372e-001 1.80087343e-001 9.30295512e-002
      7.00026527e-002 6.56351447e-002 1.79297000e-001 1.36401981e-001
      4.32557911e-002 6.81469366e-002 1.30537376e-001 9.61655080e-002
      4.37492542e-002 5.47636487e-002 1.63491145e-001 2.52701372e-001
      2.52701372e-001 1.50571838e-001 1.60895526e-001 1.57028288e-001
      2.33184025e-001 1.53427839e-001 3.61462086e-002 4.74572070e-002
      1.77637041e-001 2.33184025e-001 1.73386812e-001 1.02866039e-001
      1.46747574e-001 1.19953804e-001 7.32966140e-002 1.73634410e-001
      2.33184025e-001 2.04899475e-001 2.33184025e-001 2.33184025e-001
      6.15340844e-002 4.17489111e-002 8.70724693e-002 8.42258930e-002
      7.83835799e-002 1.15056559e-001 2.23515242e-001 2.33184025e-001
      1.28500119e-001 1.66297108e-001 1.38473615e-001 1.62343115e-001
      1.12285160e-001 2.33184025e-001 2.33184025e-001 2.07434312e-001
      2.21630871e-001 1.67799875e-001 1.32981554e-001 1.41783401e-001
      4.37329672e-002 2.54493318e-002 2.79705405e-001 2.79705405e-001
      2.32114971e-001 2.07810149e-001 1.27683759e-001 3.11518162e-002
      2.70400532e-002 3.03601678e-002 1.92439072e-002 1.90352857e-001
      2.79705405e-001 1.24661632e-001 6.16189837e-002 3.66229229e-002
      2.15522964e-002 3.75453420e-002 1.09505475e-001 3.75551619e-002
      2.46583700e-001 2.79705405e-001 2.26890460e-001 9.76910144e-002
      1.17195211e-001 2.79705405e-001 2.68583596e-001 8.20938647e-002
      1.47569440e-002 7.01218098e-002 1.65394008e-001 7.26869628e-002
      3.21131125e-002 7.21687600e-002 2.79705405e-001 2.79705405e-001</_>
    <_>
      1.38432980e-001 1.38013795e-001 1.90950930e-001 1.22408405e-001
      1.27241328e-001 1.32018313e-001 1.57856151e-001 7.72424489e-002
      1.78966761e-001 1.92915127e-001 2.61278957e-001 2.66626507e-001
      1.52669087e-001 6.58746734e-002 9.01262462e-002 1.36324838e-001
      1.35748297e-001 2.66626507e-001 9.95202363e-002 1.26725286e-001
      2.66626507e-001 2.66626507e-001 1.79264724e-001 6.71145469e-002
      3.85724083e-002 4.59398404e-002 1.20555587e-001 1.00527324e-001
      2.66626507e-001 2.66626507e-001 2.66626507e-001 1.45418644e-001
      5.31374700e-002 3.58676165e-002 5.51670119e-002 1.26926467e-001
      2.31401160e-001 2.31401160e-001 1.82453215e-001 1.32052988e-001
      9.76173505e-002 7.65898898e-002 1.08506948e-001 1.33020937e-001
      2.31401160e-001 2.31401160e-001 1.49239138e-001 2.31401160e-001
      2.31401160e-001 2.25505069e-001 9.71624404e-002 8.65108445e-002
      9.65905786e-002 2.31401160e-001 2.00893298e-001 2.31401160e-001
      2.31401160e-001 1.74120218e-001 8.81939381e-002 8.18170384e-002
      3.99878733e-002 5.41022196e-002 1.56254947e-001 1.89689204e-001
      1.32837832e-001 1.54814720e-001 1.64645240e-001 9.35503393e-002
      9.35029611e-002 6.46010563e-002 1.63681105e-001 2.31401160e-001
      1.23348527e-001 1.39091492e-001 2.41836190e-001 2.41836190e-001
      2.41836190e-001 7.56872371e-002 8.92465338e-002 1.30382434e-001
      2.23485455e-001 6.14386536e-002 1.59473538e-001 1.31834805e-001
      9.14176702e-002 1.47873133e-001 9.04225186e-002 2.27581963e-001
      1.79917797e-001 9.58095118e-002 1.07508324e-001 1.22128986e-001
      2.24462107e-001 2.41836190e-001 1.23330951e-001 1.35290608e-001
      9.92158502e-002 2.41836190e-001 2.41836190e-001 7.22986981e-002
      1.26240373e-001 1.17004499e-001 1.26772910e-001 8.66720751e-002
      1.84504971e-001 2.34551668e-001 2.41836190e-001 1.64167315e-001
      3.57642472e-002 4.25419621e-002 2.45311335e-001 2.55105048e-001
      2.55105048e-001 1.47895694e-001 1.04100555e-001 4.42889258e-002
      2.95348782e-002 1.78960823e-002 8.41223523e-002 2.55105048e-001
      2.55105048e-001 2.55105048e-001 1.32686853e-001 9.30718780e-002
      3.13487947e-002 8.18362273e-003 4.79084961e-002 3.67122069e-002
      3.79824154e-002 1.62764043e-001 2.55105048e-001 1.83001161e-001
      2.55105048e-001 2.08712459e-001 7.49841928e-002 8.82807896e-002
      2.71275211e-002 4.78541330e-002 2.01335281e-001 2.55105048e-001
      1.28655761e-001 2.55105048e-001 2.53871292e-001 1.77789748e-001
      7.75927156e-002 1.77721739e-001 2.19255909e-001 2.19255909e-001
      2.19255909e-001 1.32336780e-001 1.17718205e-001 6.78302199e-002
      5.25923595e-002 1.14689030e-001 1.75609604e-001 1.65681943e-001
      1.76623106e-001 1.18009575e-001 8.87735486e-002 9.94891748e-002
      1.80429667e-001 1.54539749e-001 2.19255909e-001 1.15992233e-001
      9.70871300e-002 2.19255909e-001 2.19255909e-001 1.31956801e-001
      2.19255909e-001 2.19255909e-001 2.19255909e-001 1.98985562e-001
      2.19255909e-001 1.77593186e-001 2.02399343e-001 1.15800105e-001
      1.17680222e-001 1.88752115e-001 1.57176316e-001 9.98499617e-002
      9.81651470e-002 1.14830382e-001 1.51911706e-001 1.79649234e-001
      1.24517210e-001 1.36940196e-001 1.00515261e-001 2.18323350e-001
      1.84127852e-001 9.96048748e-002 5.50924316e-002 8.41605142e-002
      1.22985139e-001 1.00177743e-001 1.53172478e-001 2.18323350e-001
      2.18323350e-001 1.45595074e-001 2.18323350e-001 1.50623783e-001
      1.75819948e-001 1.32008195e-001 2.00234249e-001 2.15723246e-001
      1.86679527e-001 1.61199585e-001 2.09816635e-001 2.18323350e-001
      1.18635990e-001 1.54035300e-001 1.14221938e-001 1.83146507e-001
      1.52628064e-001 2.18323350e-001 2.18323350e-001 2.18323350e-001
      1.74399748e-001 1.63431317e-002 2.05939841e-002 5.89785799e-002
      1.54421657e-001 5.55425994e-002 2.25260183e-001 2.07615629e-001
      3.02318424e-001 3.20086360e-001 2.81449854e-002 3.56466249e-002
      5.47685809e-002 6.62018135e-002 2.73316428e-002 1.60516262e-001
      2.94417709e-001 3.20086360e-001 3.20086360e-001 1.16195939e-002
      5.53141767e-003 1.35072060e-002 3.66433375e-002 7.50275841e-003
      2.08522081e-002 6.68463558e-002 3.20086360e-001 3.20086360e-001
      2.67657340e-002 6.41150540e-003 6.15709787e-003 6.44675456e-003
      2.92789744e-004 3.49014578e-003 7.19185546e-002 3.20086360e-001
      3.48181576e-001 7.66834840e-002 3.13060805e-002 5.65458797e-002
      4.09234390e-002 1.92047376e-002 6.70265481e-002 1.13451585e-001
      3.48181576e-001 3.48181576e-001 1.32328495e-001 5.09461612e-002
      8.52224901e-002 4.88415398e-002 5.04366122e-002 6.85662702e-002
      6.31300211e-002 2.64299244e-001 3.48181576e-001 3.67222503e-002
      5.02534909e-003 6.09665830e-003 4.52784076e-003 0. 1.23027014e-003
      2.90827602e-002 3.48181576e-001 3.48181576e-001 6.68316782e-002
      6.81374455e-003 1.09978477e-002 1.15414690e-002 7.22261099e-003
      6.62372215e-003 2.14882959e-002 3.48181576e-001 3.37349981e-001
      9.31569934e-002 6.00183718e-002 6.80757239e-002 1.14792377e-001
      2.01833069e-001 1.57194436e-001 9.36220810e-002 2.17427835e-001
      2.46640995e-001 9.69298407e-002 1.00864768e-001 6.38637170e-002
      1.50715649e-001 1.73223123e-001 1.65114537e-001 1.47609934e-001
      2.11750716e-001 3.37349981e-001 7.62301311e-002 1.21034961e-002
      1.77846085e-002 2.72298474e-002 5.53022623e-002 3.65096480e-002
      3.40836607e-002 3.37349981e-001 3.37349981e-001 4.50228825e-002
      2.49490831e-002 1.96015909e-002 5.04610129e-002 7.50305727e-002
      6.45104721e-002 1.30366981e-001 3.37349981e-001</_>
    <_>
      1.39783502e-001 1.07135117e-001 3.70518453e-002 4.45028841e-002
      5.36409691e-002 3.83560583e-002 3.39268297e-002 4.26486209e-002
      6.45861477e-002 2.83536226e-001 1.94755286e-001 1.04145288e-001
      6.95227459e-002 6.79424033e-002 1.80683825e-002 3.96015719e-002
      4.64851260e-002 9.80744287e-002 2.35160217e-001 2.20685020e-001
      1.57050952e-001 2.78859288e-001 2.95919120e-001 7.23607913e-002
      5.22805601e-002 6.63027689e-002 9.68957469e-002 2.95919120e-001
      2.95919120e-001 2.95919120e-001 2.95919120e-001 2.95919120e-001
      8.12889263e-002 7.11465329e-002 4.19491157e-002 1.78515762e-001
      1.41080901e-001 1.11346975e-001 1.56127840e-001 1.15326665e-001
      1.50169745e-001 5.89520484e-002 1.31731490e-002 1.26479417e-002
      4.68741208e-002 1.06976375e-001 9.79710817e-002 1.86575949e-001
      1.87192187e-001 2.50549704e-001 2.29093120e-001 2.53729615e-002
      3.29351798e-002 5.63670695e-002 2.50549704e-001 2.40759745e-001
      2.50549704e-001 2.50549704e-001 2.50549704e-001 1.13200061e-001
      4.76405583e-002 2.31694188e-002 1.19007803e-001 2.50549704e-001
      1.63350657e-001 2.50549704e-001 2.50549704e-001 2.50549704e-001
      2.06245005e-001 7.33489543e-002 8.01868588e-002 1.30085379e-001
      8.56169090e-002 7.92470127e-002 1.52361795e-001 1.54054195e-001
      1.69204921e-001 1.22626752e-001 6.96932152e-002 8.38428736e-002
      7.02450499e-002 1.29077539e-001 1.30115986e-001 2.29281738e-001
      1.95900306e-001 1.79758996e-001 2.23693073e-001 1.84486136e-001
      1.20774694e-001 1.56520858e-001 1.31553099e-001 5.29774427e-002
      1.81581244e-001 1.59993038e-001 2.11528540e-001 1.46680191e-001
      1.51681349e-001 1.63309634e-001 1.10744528e-001 1.73404053e-001
      1.96719289e-001 2.29281738e-001 2.29281738e-001 1.33681685e-001
      2.00698361e-001 2.29281738e-001 2.29281738e-001 2.29281738e-001
      5.84404469e-002 5.80581650e-002 8.40023533e-002 2.58689672e-001
      3.25668395e-001 6.72023818e-002 1.67099051e-002 1.73415747e-002
      2.02686824e-002 1.85437158e-001 1.53738394e-001 1.64313987e-001
      3.10192287e-001 3.25668395e-001 1.79760933e-001 4.58017662e-002
      1.49007970e-002 2.91684512e-002 4.38363710e-003 7.81285111e-003
      1.99357532e-002 1.60806090e-001 3.25668395e-001 2.89497733e-001
      5.51044457e-002 3.10950410e-002 1.91419758e-002 1.27042634e-002
      4.47152257e-002 2.73512080e-002 1.53454542e-001 3.25668395e-001
      3.25668395e-001 1.24806538e-001 7.04663694e-002 4.40109745e-002
      1.07087269e-001 8.02978128e-002 1.41334519e-001 2.33021438e-001
      2.60887504e-001 2.60887504e-001 8.28948244e-002 2.64843535e-002
      4.21664864e-002 8.39008465e-002 5.19351512e-002 1.71213478e-001
      2.53986239e-001 2.60887504e-001 2.60887504e-001 1.39142022e-001
      8.29255432e-002 7.05462322e-002 3.34981680e-002 5.97546771e-002
      3.11381109e-002 7.99909830e-002 2.60887504e-001 2.60887504e-001
      2.60284990e-001 7.16910735e-002 3.51145379e-002 4.63823341e-002
      6.15549572e-002 6.27531782e-002 9.74428728e-002 2.48439059e-001
      2.60887504e-001 2.60887504e-001 1.90455824e-001 1.14146888e-001
      6.34827539e-002 3.89622897e-002 1.42424986e-001 1.12677492e-001
      2.27706105e-001 1.43650293e-001 1.33823380e-001 9.95375440e-002
      6.02069348e-002 1.21119991e-001 1.67946860e-001 2.42292985e-001
      2.42292985e-001 2.42292985e-001 1.01632729e-001 1.66751966e-001
      1.68442562e-001 1.18249118e-001 4.22729477e-002 8.85153264e-002
      1.60786062e-001 1.41806617e-001 2.09291875e-001 1.74689978e-001
      1.79272383e-001 1.57269359e-001 1.27838835e-001 1.77098691e-001
      1.45129085e-001 2.42292985e-001 2.42292985e-001 2.42292985e-001
      1.37202293e-001 1.44107014e-001 2.42292985e-001 1.60244823e-001
      4.62230062e-003 4.21248470e-003 4.58551385e-003 4.46166396e-002
      2.91808248e-001 2.91808248e-001 1.85407326e-001 1.91105783e-001
      8.82310867e-002 4.13356721e-002 7.13115260e-002 6.92122336e-003
      2.91053019e-002 2.91808248e-001 2.91808248e-001 2.91808248e-001
      2.91808248e-001 2.91808248e-001 2.04777755e-002 1.17576597e-002
      1.39763271e-002 2.47712564e-002 5.25920726e-002 1.14232503e-001
      1.33779928e-001 1.76464766e-001 8.49087387e-002 9.85381305e-002
      8.42893869e-002 2.66979951e-002 2.15399675e-002 4.51817438e-002
      1.05808116e-001 1.94004640e-001 2.91808248e-001 2.91808248e-001
      8.71280432e-002 1.50353983e-001 1.77638363e-002 2.48436462e-002
      6.86807409e-002 2.42497236e-001 2.42497236e-001 2.42497236e-001
      2.05028012e-001 7.25746825e-002 2.32987791e-001 9.77553725e-002
      1.02002800e-001 9.85506848e-002 2.32826725e-001 2.42497236e-001
      2.24319294e-001 1.51519001e-001 1.46516487e-001 1.95219189e-001
      5.08014373e-002 3.65396626e-002 2.75185127e-002 2.97787730e-002
      1.72595039e-001 2.42497236e-001 2.42497236e-001 9.89049450e-002
      2.42497236e-001 1.62122056e-001 2.42497236e-001 1.47281691e-001
      1.00646354e-001 1.86066136e-001 1.27551660e-001 1.37260780e-001
      6.10628277e-002 2.32774243e-001 2.32774243e-001 1.63930357e-001
      1.09050974e-001 1.13055348e-001 1.92275167e-001 1.34968460e-001
      1.40143171e-001 2.08619535e-001 2.27244243e-001 2.32774243e-001
      1.70037642e-001 2.25405648e-001 2.27653086e-001 2.32774243e-001
      1.76292047e-001 1.81225210e-001 6.69534132e-002 2.28216499e-001
      1.43977582e-001 1.74647942e-001 1.11621603e-001 9.80509669e-002
      1.06930673e-001 7.32200965e-002 5.84535003e-002 1.10261448e-001
      1.13810368e-001 8.23610201e-002 5.57956994e-002 1.25466242e-001
      2.32774243e-001 2.32774243e-001 2.07012236e-001 9.02959481e-002</_>
    <_>
      2.42427140e-001 9.38580185e-002 5.49991280e-002 1.13580868e-001
      1.35356724e-001 5.27831875e-002 3.87797020e-002 4.61787879e-002
      2.41524279e-001 2.42427140e-001 7.91393667e-002 6.62627891e-002
      5.80783226e-002 5.68668507e-002 5.33814132e-002 3.72296572e-002
      5.28800488e-002 2.42427140e-001 2.42427140e-001 1.09002933e-001
      1.50561303e-001 2.42427140e-001 1.18769065e-001 1.19300105e-001
      1.08897604e-001 6.70706853e-002 2.20481411e-001 2.42427140e-001
      1.79653734e-001 2.42427140e-001 2.42427140e-001 2.42427140e-001
      2.42427140e-001 2.42427140e-001 1.49385601e-001 1.91159651e-001
      2.24912435e-001 8.86543915e-002 1.00936547e-001 3.77698243e-002
      2.33423486e-002 1.97057314e-002 2.95043960e-002 4.22287099e-002
      2.42870197e-001 2.22187087e-001 1.12285465e-001 8.99737552e-002
      2.56083328e-002 3.68964858e-002 3.71339284e-002 3.41903195e-002
      6.25308827e-002 2.42870197e-001 2.42870197e-001 2.42870197e-001
      2.42870197e-001 2.21305698e-001 1.81380168e-001 1.19430751e-001
      1.82972938e-001 1.08046204e-001 2.42870197e-001 2.42870197e-001
      2.42870197e-001 2.42870197e-001 1.87636107e-001 1.48209140e-001
      1.36262253e-001 1.59605473e-001 1.14081226e-001 2.42870197e-001
      2.07872823e-001 7.33212084e-002 5.43931425e-002 2.58399956e-002
      4.72710393e-002 3.22430022e-002 4.75164019e-002 9.70081985e-002
      2.54928261e-001 2.54928261e-001 1.30500391e-001 1.24371693e-001
      5.41844517e-002 4.61749509e-002 3.50188166e-002 2.54928261e-001
      2.54928261e-001 2.54928261e-001 2.36246750e-001 1.80948943e-001
      1.89658850e-001 1.68459296e-001 1.59774661e-001 1.24522984e-001
      1.23979814e-001 1.40717700e-001 1.74307302e-001 2.54928261e-001
      2.54928261e-001 1.43656522e-001 8.89103711e-002 7.93650076e-002
      3.66668664e-002 1.18398137e-001 2.54928261e-001 2.48794988e-001
      7.94964060e-002 4.24334742e-002 7.30974451e-002 2.68749326e-001
      2.38984227e-001 9.83696207e-002 4.15749364e-002 2.13703420e-002
      7.36159980e-002 7.58000165e-002 6.30291402e-002 1.38914570e-001
      2.68749326e-001 2.68749326e-001 2.68749326e-001 1.81302920e-001
      4.71590795e-002 6.54325858e-002 1.88631624e-001 7.55524263e-002
      3.51694115e-002 1.68476224e-001 2.68749326e-001 1.40582398e-001
      9.47255641e-002 1.04719855e-001 2.68749326e-001 6.92957491e-002
      1.10795721e-001 7.73952603e-002 2.05181390e-001 2.68749326e-001
      2.68749326e-001 2.68749326e-001 9.95490551e-002 7.30599314e-002
      1.51009336e-001 1.72378898e-001 1.57882169e-001 1.88672513e-001
      2.36910537e-001 1.79613635e-001 1.44488215e-001 5.58120534e-002
      1.26986593e-001 1.53939381e-001 2.39082396e-001 2.44294211e-001
      2.30721369e-001 1.51824489e-001 1.06468521e-001 1.29143298e-001
      4.99944501e-002 7.60448426e-002 7.19684958e-002 1.98253170e-001
      1.80767521e-001 1.33201599e-001 2.34407857e-001 2.44294211e-001
      2.44294211e-001 6.38354197e-002 5.84573112e-002 7.15665296e-002
      2.35214323e-001 2.44294211e-001 2.44294211e-001 1.39148802e-001
      1.01916902e-001 9.94169340e-002 4.55671884e-002 6.83844239e-002
      1.11806735e-001 1.73923060e-001 2.87249565e-001 2.87249565e-001
      2.11215049e-001 1.43104598e-001 2.07767263e-001 6.42888844e-002
      4.02419604e-002 2.50143498e-001 1.99327841e-001 1.38892487e-001
      1.34731740e-001 1.20044023e-001 7.58702606e-002 9.69753489e-002
      8.81729126e-002 8.52294639e-002 8.06666464e-002 2.58632034e-001
      2.87249565e-001 2.87249565e-001 1.42241016e-001 1.15591399e-001
      1.33287698e-001 3.67803462e-002 5.83184697e-002 9.52590853e-002
      1.45583436e-001 2.87249565e-001 1.87861592e-001 9.61536542e-002
      1.26001060e-001 1.08934112e-001 6.13528751e-002 8.73304829e-002
      1.40936747e-001 6.57868311e-002 7.14904815e-002 1.80927679e-001
      2.33106017e-001 8.91630054e-002 1.83639720e-001 1.82265431e-001
      2.10576504e-001 1.13626823e-001 2.29698822e-001 1.07825004e-001
      1.95958301e-001 2.36567721e-001 1.92144334e-001 2.36567721e-001
      1.64789185e-001 1.08869672e-001 7.86735192e-002 7.81775415e-002
      1.30108878e-001 2.36567721e-001 2.30191663e-001 1.04941353e-001
      2.36567721e-001 1.90876290e-001 7.11689740e-002 7.93716684e-002
      1.78988114e-001 1.37565866e-001 2.36567721e-001 2.36567721e-001
      9.41524357e-002 1.49965018e-001 9.52168480e-002 4.69178371e-002
      1.06700771e-001 2.39285618e-001 1.62172586e-001 1.09893516e-001
      2.39285618e-001 2.25749448e-001 2.39285618e-001 1.06845126e-001
      1.03725553e-001 1.10234082e-001 1.55181661e-001 2.39285618e-001
      2.25418657e-001 1.95882037e-001 1.75372586e-001 8.98738503e-002
      8.94641578e-002 1.44829646e-001 6.09352551e-002 1.69799760e-001
      7.28224218e-002 1.42692208e-001 2.39285618e-001 2.39285618e-001
      1.72003731e-001 8.35776404e-002 6.24784306e-002 1.25256449e-001
      1.27789110e-001 7.65455514e-002 1.11632302e-001 2.39285618e-001
      2.39285618e-001 1.41279280e-001 1.39558583e-001 1.86975911e-001
      2.16033623e-001 2.25734606e-001 2.40130857e-001 2.40130857e-001
      8.90337005e-002 7.24832341e-002 6.79747686e-002 1.08268082e-001
      1.99576110e-001 2.05386758e-001 1.72175884e-001 2.40130857e-001
      1.06915288e-001 3.29942964e-002 5.84242456e-002 5.79703934e-002
      9.82385576e-002 1.70841306e-001 2.40130857e-001 2.08810493e-001
      1.40896454e-001 1.09768465e-001 1.41714782e-001 1.46996200e-001
      1.49349287e-001 2.40130857e-001 2.40130857e-001 2.27148384e-001
      1.69734314e-001 1.41420513e-001 6.96369335e-002 9.11879987e-002
      8.82818848e-002 1.19152509e-001 1.62449211e-001 2.30722964e-001</_>
    <_>
      7.04772398e-002 1.69071823e-001 2.29229584e-001 8.35961550e-002
      1.97268754e-001 2.36265302e-001 1.07601553e-001 6.72436282e-002
      6.44036755e-002 4.95078638e-002 8.82278308e-002 1.40644044e-001
      7.11311623e-002 2.36265302e-001 2.36265302e-001 1.24603309e-001
      1.67376757e-001 7.14711845e-002 2.36265302e-001 1.89234123e-001
      1.87505662e-001 1.01373121e-001 2.36265302e-001 1.77016467e-001
      7.24737048e-002 7.80107528e-002 1.58947065e-001 1.23140521e-001
      1.74282178e-001 2.36265302e-001 2.34730095e-001 2.36265302e-001
      1.93152845e-001 1.19266547e-001 2.36265302e-001 1.17235750e-001
      6.19302653e-002 7.51281977e-002 1.45653680e-001 2.40188345e-001
      2.40188345e-001 1.22491032e-001 7.34497830e-002 1.69682339e-001
      5.64570203e-002 1.49853498e-001 1.15166761e-001 1.08482175e-001
      2.40188345e-001 2.34504938e-001 1.09326877e-001 7.70004988e-002
      1.17584907e-001 1.08238511e-001 1.17082879e-001 1.12081572e-001
      2.40188345e-001 2.40188345e-001 2.40188345e-001 1.20982774e-001
      1.88808054e-001 2.40188345e-001 1.08652562e-001 1.51309550e-001
      9.27910283e-002 1.00407124e-001 1.80820137e-001 1.96046308e-001
      2.40188345e-001 2.40188345e-001 1.85764685e-001 1.17569007e-001
      2.60240793e-001 2.05178156e-001 1.21867806e-001 1.22629665e-001
      1.13458484e-001 1.06221527e-001 1.40184864e-001 1.80988550e-001
      2.27994412e-001 1.91513896e-001 1.30344525e-001 9.97244120e-002
      6.72017187e-002 6.75043166e-002 6.18437044e-002 1.28678501e-001
      1.42540410e-001 2.14294717e-001 2.04573438e-001 1.09556697e-001
      7.51402155e-002 8.11309963e-002 9.81539413e-002 2.60240793e-001
      2.60240793e-001 2.60240793e-001 2.36432180e-001 1.83375031e-001
      1.11281298e-001 6.27291352e-002 7.38376454e-002 4.14713547e-002
      1.37841612e-001 2.60240793e-001 1.99714810e-001 2.26522401e-001
      2.38120124e-001 8.18101689e-002 7.74598271e-002 1.28283337e-001
      2.70751417e-001 1.67085335e-001 2.93283332e-002 6.97555766e-002
      1.53625891e-001 6.02372885e-002 7.43362531e-002 2.70751417e-001
      2.70751417e-001 2.70751417e-001 2.05212265e-001 7.01785311e-002
      8.59472826e-002 5.22853360e-002 8.20423365e-002 2.38512401e-002
      4.49839011e-002 1.17926471e-001 2.52067447e-001 2.70751417e-001
      9.35710445e-002 5.00967652e-002 9.94814858e-002 7.94990137e-002
      6.94099143e-002 1.85159534e-001 2.70751417e-001 2.70751417e-001
      2.70751417e-001 1.78400278e-001 7.47666210e-002 1.03284918e-001
      4.82730493e-002 4.79336232e-002 2.34255821e-001 2.34255821e-001
      2.00584993e-001 1.24017060e-001 1.47644043e-001 1.50882915e-001
      5.50366901e-002 5.17635718e-002 3.47690359e-002 8.81493241e-002
      9.23510566e-002 1.16166405e-001 2.34255821e-001 2.34255821e-001
      1.92729548e-001 5.62085845e-002 1.53762087e-001 7.60806650e-002
      1.52117833e-001 2.14222118e-001 2.34255821e-001 2.21978754e-001
      1.91916600e-001 1.98122784e-001 1.82596669e-001 1.01978362e-001
      6.23771660e-002 1.56518206e-001 1.20758340e-001 1.73743233e-001
      2.34255821e-001 2.34255821e-001 2.34255821e-001 1.90025747e-001
      4.06710133e-002 2.90188808e-002 1.34233400e-001 1.05608299e-001
      1.33283198e-001 2.69680470e-001 2.69680470e-001 2.23086372e-001
      5.74130975e-002 7.20610172e-002 4.62652557e-002 1.01736076e-001
      1.16917007e-001 9.22663733e-002 1.67058185e-001 2.69680470e-001
      1.33814380e-001 7.23133683e-002 5.92542253e-002 8.14113691e-002
      2.34952033e-001 1.47046670e-001 2.40488991e-001 2.69680470e-001
      2.69680470e-001 2.02255741e-001 1.38011694e-001 1.09019391e-001
      1.05951540e-001 1.04736038e-001 7.74667785e-002 1.27014145e-001
      1.46837413e-001 1.41197249e-001 2.55083650e-001 2.69680470e-001
      2.18101844e-001 6.55875430e-002 8.97574350e-002 1.19092196e-001
      1.03147231e-001 2.44788930e-001 1.27896801e-001 1.03564605e-001
      2.44788930e-001 1.71199709e-001 1.51745960e-001 2.28168339e-001
      2.44788930e-001 2.18468755e-001 2.44788930e-001 2.44788930e-001
      1.62360206e-001 2.44788930e-001 2.44788930e-001 5.54658733e-002
      4.10426371e-002 5.62804639e-002 1.75864652e-001 1.44561470e-001
      7.19885603e-002 1.11093797e-001 2.44788930e-001 2.44788930e-001
      6.87872991e-002 3.53640392e-002 4.85065691e-002 5.88950440e-002
      6.40846267e-002 7.64754862e-002 9.47666243e-002 2.44788930e-001
      2.24843130e-001 1.14415012e-001 1.51327685e-001 1.14491709e-001
      1.46570548e-001 1.96823984e-001 2.50229448e-001 2.50229448e-001
      2.50229448e-001 2.50222743e-001 1.15768380e-001 1.49399191e-001
      1.10438675e-001 1.40476704e-001 1.58202767e-001 2.50229448e-001
      2.50229448e-001 2.50229448e-001 2.50229448e-001 5.68984374e-002
      2.70799343e-002 1.38021056e-002 2.25160960e-002 3.70372906e-002
      1.04784325e-001 9.23974067e-002 2.50229448e-001 2.50229448e-001
      7.34555200e-002 3.67626473e-002 3.43155451e-002 4.15484048e-002
      2.38342676e-002 9.57034454e-002 1.06054530e-001 2.50229448e-001
      1.75412536e-001 1.25583932e-001 1.09426618e-001 9.78762954e-002
      1.32252410e-001 1.40161112e-001 1.57817721e-001 1.62293673e-001
      1.99825794e-001 2.32166514e-001 2.66666621e-001 1.10937938e-001
      3.17326598e-002 6.33501559e-002 7.88708776e-002 1.33437201e-001
      2.66666621e-001 2.66666621e-001 2.66666621e-001 1.11963674e-001
      6.18880354e-002 3.71478610e-002 5.67618534e-002 2.53685974e-002
      5.78758344e-002 7.31997862e-002 2.42116034e-001 2.66666621e-001
      2.66666621e-001 2.66666621e-001 4.14970517e-002 6.07853010e-002
      6.51901811e-002 1.36461377e-001 1.39847144e-001 2.66666621e-001</_>
    <_>
      1.36786122e-002 7.52250524e-003 5.19477427e-002 1.74255714e-001
      2.85013050e-001 2.29958385e-001 8.55956003e-002 6.75852522e-002
      2.54911464e-002 3.36779840e-002 3.88636142e-002 6.02232739e-002
      9.69375595e-002 2.85013050e-001 2.85013050e-001 1.47135079e-001
      1.51294172e-001 1.00952908e-001 1.55769577e-002 2.50963457e-002
      7.86387622e-002 2.48767748e-001 2.85013050e-001 1.72531784e-001
      4.14819941e-002 2.20818203e-002 2.57863142e-002 2.24781707e-001
      2.13838965e-001 2.85013050e-001 2.85013050e-001 2.85013050e-001
      1.59975991e-001 1.00409575e-001 8.98895785e-002 1.33428589e-001
      1.12528659e-001 5.22970296e-002 8.87344629e-002 6.63707629e-002
      1.58139259e-001 1.50696084e-001 1.09333940e-001 1.57657355e-001
      2.03105688e-001 2.39139587e-001 1.12302609e-001 1.06235273e-001
      9.10920501e-002 1.20462440e-001 5.31498902e-002 8.81683528e-002
      2.39089489e-001 2.39139587e-001 2.39139587e-001 1.63460642e-001
      2.39139587e-001 2.39139587e-001 1.18542500e-001 9.83690396e-002
      5.89382984e-002 9.44340602e-002 1.23288453e-001 2.39139587e-001
      2.34192654e-001 2.39139587e-001 2.39139587e-001 1.58783957e-001
      7.85629749e-002 1.21259056e-001 1.89793482e-001 2.39139587e-001
      2.44424149e-001 1.33340463e-001 7.11671934e-002 7.70172253e-002
      7.90771395e-002 2.56157573e-002 5.45223095e-002 1.54943228e-001
      2.44424149e-001 2.44424149e-001 2.44424149e-001 2.05020472e-001
      1.20642558e-001 5.00572473e-002 4.27608043e-002 4.22973298e-002
      7.37762898e-002 2.41377801e-001 2.44424149e-001 2.25647762e-001
      1.30651042e-001 2.43855149e-001 1.47325292e-001 1.07222416e-001
      1.48984492e-001 1.68799847e-001 2.44424149e-001 1.54236704e-001
      2.35369295e-001 2.44424149e-001 2.44424149e-001 1.18005179e-001
      8.97408277e-002 5.95895797e-002 5.49367964e-002 1.07007019e-001
      1.21039134e-002 2.75283381e-002 5.92375472e-002 1.68793663e-001
      2.98830599e-001 6.15999997e-002 1.70992315e-002 2.78799888e-003
      9.41527262e-003 8.70408416e-002 9.21139866e-002 2.98830599e-001
      2.98830599e-001 2.98830599e-001 1.45403728e-001 7.81983659e-002
      1.75832678e-002 2.64842194e-002 5.13991490e-002 3.09404563e-002
      6.33644164e-002 1.93212777e-001 2.98830599e-001 1.54132739e-001
      6.86466694e-002 2.99536306e-002 6.82197064e-002 7.87434876e-002
      3.48214954e-002 1.33404702e-001 2.98830599e-001 2.98830599e-001
      2.98830599e-001 2.98830599e-001 5.60003482e-002 6.77308217e-002
      9.99767631e-002 7.26311654e-002 2.11230129e-001 2.77895033e-001
      2.72482485e-001 1.55677974e-001 7.18145072e-002 2.61935089e-002
      2.65867747e-002 1.12331234e-001 8.71343836e-002 9.68256593e-002
      2.77895033e-001 2.77895033e-001 1.33535936e-001 5.77579178e-002
      3.65068056e-002 6.97256997e-002 3.97348404e-002 1.34005472e-002
      6.79469705e-002 2.74897814e-001 2.77895033e-001 2.77895033e-001
      2.44089589e-001 3.92957665e-002 3.17947045e-002 5.21817952e-002
      3.55132706e-002 3.77371237e-002 2.77895033e-001 2.77895033e-001
      2.77895033e-001 7.39894286e-002 3.36197577e-002 3.81635800e-002
      1.75610214e-001 1.21351235e-001 8.27548280e-002 2.65549481e-001
      2.65549481e-001 2.50169843e-001 1.39274761e-001 8.90265629e-002
      1.58734038e-001 6.21786080e-002 7.44653121e-002 9.92281735e-002
      2.65549481e-001 2.61898518e-001 2.10874513e-001 9.55260843e-002
      4.70050760e-002 4.80823629e-002 1.01681873e-001 1.05184644e-001
      8.99414048e-002 2.65549481e-001 2.65549481e-001 2.65549481e-001
      8.33440274e-002 5.98023832e-002 7.86751583e-002 3.27360965e-002
      3.69954184e-002 5.09562194e-002 2.65549481e-001 2.65549481e-001
      2.41252497e-001 7.92721286e-002 3.55408788e-002 5.23600280e-002
      2.25742832e-001 8.05037096e-002 7.43824095e-002 1.58796325e-001
      2.11938575e-001 1.36079013e-001 8.77284929e-002 1.16056666e-001
      2.25634947e-001 2.63617009e-001 4.69455943e-002 7.24498257e-002
      1.52063996e-001 2.63617009e-001 2.63617009e-001 2.63617009e-001
      1.43748462e-001 2.63617009e-001 2.45479256e-001 1.14357002e-001
      9.52746719e-002 1.38322383e-001 1.41567290e-001 8.46522301e-002
      6.86405748e-002 1.03666566e-001 1.85002446e-001 2.63617009e-001
      7.96466246e-002 6.34076595e-002 8.11761171e-002 8.13183337e-002
      1.07230715e-001 1.09374568e-001 1.02466658e-001 2.63617009e-001
      2.36452162e-001 3.73601839e-002 3.88884470e-002 9.86767635e-002
      2.52439767e-001 2.52439767e-001 2.51059949e-001 9.98680294e-002
      2.50582069e-001 2.52439767e-001 1.15276791e-001 3.59216221e-002
      1.80698738e-001 2.52439767e-001 2.52439767e-001 7.82784447e-002
      9.27817374e-002 2.25052789e-001 2.52439767e-001 5.97785749e-002
      3.71205807e-002 4.08417583e-002 8.51515234e-002 1.20056912e-001
      6.40496761e-002 6.91409186e-002 2.52439767e-001 2.52439767e-001
      1.63934022e-001 4.37848642e-002 6.22745566e-002 1.51028961e-001
      1.33530512e-001 6.87480196e-002 8.42723697e-002 2.19997674e-001
      2.34341860e-001 2.23295346e-001 8.15949589e-002 2.34341860e-001
      2.34341860e-001 2.18923792e-001 8.12675282e-002 1.22479521e-001
      1.97135910e-001 3.60163711e-002 7.20603094e-002 4.47270572e-002
      1.82537645e-001 2.34341860e-001 2.34341860e-001 9.91773978e-002
      7.72691816e-002 7.66185075e-002 2.17155784e-001 2.19400957e-001
      5.94089814e-002 6.98997229e-002 1.44087881e-001 2.04836562e-001
      2.03760147e-001 1.99524552e-001 1.89902753e-001 3.64502519e-002
      5.19234687e-002 2.29960568e-002 4.70258407e-002 2.13529021e-001
      2.34341860e-001 2.34341860e-001 2.04998612e-001 8.14859718e-002</_>
    <_>
      2.11826831e-001 1.83172092e-001 2.21201137e-001 1.25623390e-001
      6.74953684e-002 6.22896999e-002 9.40947160e-002 8.96776319e-002
      1.73245728e-001 2.21201137e-001 1.94887862e-001 1.85799196e-001
      1.54653504e-001 1.80271655e-001 9.00487453e-002 9.95649770e-002
      8.73627663e-002 2.21201137e-001 1.89387843e-001 2.21201137e-001
      2.21201137e-001 1.47539347e-001 1.06880903e-001 9.15994719e-002
      1.43873096e-001 1.45487934e-001 2.02072978e-001 2.21201137e-001
      2.21201137e-001 2.03988403e-001 2.21201137e-001 2.21201137e-001
      1.14888005e-001 1.00308940e-001 9.14626941e-002 1.41104788e-001
      1.00654759e-001 1.73488304e-001 2.46936247e-001 2.10952029e-001
      1.96853861e-001 1.10081494e-001 5.28604947e-002 3.64720151e-002
      8.20110291e-002 4.34244350e-002 1.42524779e-001 2.46936247e-001
      2.46936247e-001 2.46936247e-001 1.52173594e-001 5.19167781e-002
      2.54950039e-002 2.63797566e-002 1.86388656e-001 1.96675614e-001
      1.06471516e-001 2.09594309e-001 2.46936247e-001 2.46936247e-001
      1.70096055e-001 5.94551340e-002 5.32391369e-002 2.56683044e-002
      6.28913566e-002 1.99055120e-001 2.46936247e-001 2.46936247e-001
      2.46936247e-001 2.08920226e-001 2.96988823e-002 1.14339450e-002
      7.03706667e-002 1.28685892e-001 2.08772063e-001 2.43646741e-001
      2.17084721e-001 1.33044317e-001 5.26472107e-002 3.66951153e-002
      6.96559623e-002 2.43646741e-001 2.14984223e-001 2.33110264e-001
      2.35568181e-001 2.43646741e-001 2.20051736e-001 1.39381707e-001
      1.17060341e-001 1.28738075e-001 2.11990234e-002 6.15551509e-002
      1.24595620e-001 2.10608840e-001 2.43646741e-001 2.43646741e-001
      8.12659562e-002 3.03784218e-002 2.10931227e-002 9.07836184e-002
      6.98549524e-002 9.62058157e-002 2.18794808e-001 2.43646741e-001
      2.43646741e-001 1.92342713e-001 8.35416242e-002 5.13113737e-002
      1.00829355e-001 1.75769567e-001 2.46447682e-001 2.34030679e-001
      9.08909068e-002 1.53974861e-001 9.45799202e-002 8.32560286e-002
      1.18626662e-001 2.46447682e-001 2.46447682e-001 2.46447682e-001
      1.51236296e-001 8.81188437e-002 8.23566020e-002 4.63852100e-002
      6.92250580e-002 8.52459446e-002 5.43604456e-002 6.45153672e-002
      2.46447682e-001 1.91544041e-001 1.81121990e-001 2.46447682e-001
      2.46447682e-001 1.97033063e-001 8.65190029e-002 1.46096364e-001
      1.08254313e-001 1.80218324e-001 1.07258499e-001 1.75676271e-001
      2.46447682e-001 1.18309118e-001 1.86873615e-001 1.50060400e-001
      1.65178970e-001 1.64624870e-001 7.76147246e-002 7.85642117e-002
      2.58164912e-001 2.63370097e-001 1.23871110e-001 5.92102781e-002
      6.14314787e-002 2.02536229e-002 4.07977030e-002 7.46306032e-002
      1.71742067e-001 2.90321082e-001 2.90321082e-001 2.04756260e-001
      4.67190035e-002 2.08204687e-002 1.25199974e-001 1.04616635e-001
      1.36534482e-001 1.03145689e-001 2.90321082e-001 2.15239212e-001
      4.32735458e-002 1.00073785e-001 1.05771184e-001 3.70144360e-002
      3.69654447e-002 9.46903601e-002 2.90321082e-001 2.90321082e-001
      2.90321082e-001 1.69308826e-001 1.29468530e-001 4.52557094e-002
      6.92899339e-003 1.95088312e-002 4.89689671e-002 1.27290875e-001
      2.56484479e-001 2.56484479e-001 1.64350659e-001 6.79765567e-002
      2.01321375e-002 5.63180596e-002 3.04927509e-002 5.80616817e-002
      1.44778356e-001 2.56484479e-001 2.56484479e-001 2.56484479e-001
      1.09204806e-001 4.89801951e-002 3.05202734e-002 2.58991458e-002
      3.12920883e-002 2.04971895e-001 2.56484479e-001 2.56484479e-001
      2.56484479e-001 1.27711713e-001 5.55167831e-002 2.56484479e-001
      1.96068808e-001 8.12777355e-002 1.58124581e-001 1.61168396e-001
      2.56484479e-001 2.56484479e-001 9.33692306e-002 1.06075384e-001
      4.92690280e-002 3.28750573e-002 1.51665034e-002 3.57397087e-002
      9.50392336e-002 2.60021746e-001 2.49175981e-001 2.60021746e-001
      1.54482499e-001 2.56622463e-001 9.10665020e-002 4.35882434e-002
      2.45585982e-002 9.51598510e-002 1.65530577e-001 1.15865432e-001
      2.60021746e-001 2.60021746e-001 1.79927483e-001 8.42395723e-002
      3.24872024e-002 3.43799964e-002 4.95570190e-002 1.11650839e-001
      2.21114591e-001 2.60021746e-001 2.60021746e-001 2.60021746e-001
      1.49763018e-001 7.18515664e-002 3.05071659e-002 6.42990917e-002
      7.16958717e-002 1.38015911e-001 2.60021746e-001 2.60021746e-001
      2.53964514e-001 1.09556317e-001 7.70497844e-002 6.97988272e-002
      1.67822033e-001 7.02881813e-002 2.60505509e-002 1.55761093e-001
      2.53964514e-001 1.71691701e-001 3.99112329e-002 5.63412830e-002
      2.22680345e-001 2.53964514e-001 2.37326965e-001 1.16761625e-001
      1.61877543e-001 1.37783036e-001 2.53964514e-001 1.59644723e-001
      9.17538702e-002 6.78159371e-002 8.75937119e-002 4.13298793e-002
      6.93393424e-002 1.64054662e-001 2.53964514e-001 2.53964514e-001
      1.52326718e-001 1.07411206e-001 1.41637743e-001 2.53964514e-001
      1.51803181e-001 9.99024361e-002 1.84962392e-001 2.53964514e-001
      3.49730775e-002 1.94136780e-002 3.12029310e-002 1.74903333e-001
      2.43585393e-001 2.43585393e-001 2.43585393e-001 2.16021404e-001
      6.53618276e-002 1.58910826e-001 1.22812338e-001 4.39390875e-002
      1.27517939e-001 1.15166649e-001 1.54037461e-001 2.43585393e-001
      1.76120207e-001 1.02349125e-001 1.76449820e-001 9.75299329e-002
      8.44245031e-002 7.81215951e-002 2.43585393e-001 2.08393574e-001
      2.43585393e-001 2.43585393e-001 1.81932256e-001 1.48327351e-001
      6.94722608e-002 2.10703164e-002 2.69888658e-002 9.05699655e-002
      1.28477886e-001 2.43585393e-001 2.43585393e-001 2.43585393e-001</_>
    <_>
      2.88632363e-001 2.88632363e-001 6.91292509e-002 6.90608099e-002
      1.65526181e-001 5.39765097e-002 4.18835320e-002 3.84152122e-002
      2.36590266e-001 2.88632363e-001 1.80306628e-001 8.98886919e-002
      6.34983405e-002 6.68771639e-002 2.24189349e-002 2.21997630e-002
      5.34213707e-002 2.77143776e-001 2.45738298e-001 2.07563236e-001
      1.28811195e-001 2.81645805e-001 2.88632363e-001 3.51476036e-002
      1.98214706e-002 1.56589858e-002 8.87745321e-002 2.84295946e-001
      2.35747784e-001 1.47987589e-001 1.61963224e-001 1.04051895e-001
      4.30498086e-002 2.42239758e-002 1.11927807e-001 1.24873549e-001
      2.68844485e-001 5.87927550e-002 7.59241432e-002 8.17455202e-002
      3.74495387e-002 5.38454913e-002 5.89207783e-002 7.11230114e-002
      2.68844485e-001 2.68844485e-001 7.47812912e-002 7.91968256e-002
      1.68434560e-001 8.69828463e-002 8.53057653e-002 7.81295076e-002
      1.17971517e-001 2.68844485e-001 1.86895445e-001 1.36803955e-001
      9.77437124e-002 1.12736203e-001 9.87587571e-002 1.06429473e-001
      1.12711556e-001 2.65715390e-001 1.98362321e-001 1.40348732e-001
      9.38405618e-002 1.26259059e-001 2.68844485e-001 2.68844485e-001
      1.98418185e-001 1.53001741e-001 2.62632668e-001 2.52921194e-001
      2.54876882e-001 2.00951293e-001 1.85623556e-001 2.54876882e-001
      2.04102084e-001 8.26869905e-002 5.34392595e-002 9.13727060e-002
      2.24718943e-001 1.84649035e-001 2.54876882e-001 2.48049021e-001
      2.54876882e-001 1.96174443e-001 8.50084126e-002 4.08437848e-002
      3.04040741e-002 8.43058452e-002 9.21091661e-002 1.10380657e-001
      1.40340641e-001 2.54876882e-001 2.54876882e-001 2.16298491e-001
      7.35998973e-002 7.66261518e-002 9.89305675e-002 3.61239389e-002
      1.15947373e-001 1.63980350e-001 2.54876882e-001 1.95372716e-001
      1.24295607e-001 3.16718332e-002 1.60566084e-002 4.36313711e-002
      4.03088666e-002 5.66644967e-002 1.11914650e-001 2.94160545e-001
      2.94160545e-001 1.58658072e-001 2.23410763e-002 1.03119034e-002
      1.77301653e-002 1.09813608e-001 1.48709580e-001 1.36071116e-001
      2.66510069e-001 2.89351583e-001 1.20371170e-001 4.77721058e-002
      7.96600953e-002 6.45167604e-002 1.66179594e-002 8.79529305e-003
      2.45492458e-002 1.06656216e-001 2.94160545e-001 2.94160545e-001
      1.87592492e-001 6.72341362e-002 2.57837866e-002 4.18723598e-002
      4.63815033e-002 8.08772445e-002 1.65838420e-001 2.69752830e-001
      2.94160545e-001 2.94160545e-001 1.64599434e-001 9.58604589e-002
      6.17556646e-002 9.32776332e-002 6.00215979e-002 1.63728639e-001
      2.43641973e-001 1.27348155e-001 7.60322437e-002 1.92197666e-001
      8.88153762e-002 4.93262932e-002 5.60403727e-002 8.31934586e-002
      2.95283914e-001 2.95283914e-001 2.63088644e-001 1.10707566e-001
      1.89044014e-001 9.09790471e-002 7.35665485e-002 4.49363329e-002
      7.39432052e-002 2.06826672e-001 2.95283914e-001 1.50937229e-001
      1.23065308e-001 1.17168814e-001 1.01121210e-001 9.82270837e-002
      2.41580550e-002 9.25686657e-002 2.95283914e-001 2.95283914e-001
      2.95283914e-001 1.08267494e-001 9.12550986e-002 1.01943776e-001
      4.76196036e-002 6.80609792e-002 1.42030835e-001 3.03757727e-001
      3.03757727e-001 3.03757727e-001 1.29903242e-001 6.64673746e-002
      5.35984710e-002 3.04399468e-002 8.87376368e-002 1.56521216e-001
      2.09117681e-001 1.95854485e-001 1.86785951e-001 6.45574629e-002
      1.91611126e-002 5.54826185e-002 9.58176702e-002 3.66948582e-002
      1.15165398e-001 3.03757727e-001 3.03757727e-001 3.03757727e-001
      2.33024627e-001 7.57884234e-002 1.63479134e-001 4.03106064e-002
      5.75576797e-002 7.00768456e-002 1.34318352e-001 1.71242565e-001
      1.81546360e-001 1.46119416e-001 6.22907244e-002 9.08749849e-002
      2.46990640e-002 4.52190824e-003 1.07796965e-002 1.10898977e-002
      2.63501614e-001 2.63501614e-001 2.63501614e-001 1.83430269e-001
      1.09269395e-001 7.41442889e-002 4.12176996e-002 5.68864271e-002
      4.44111563e-002 5.86471297e-002 1.98383644e-001 2.63501614e-001
      2.63501614e-001 2.63501614e-001 1.13307312e-001 2.66209040e-002
      2.15149932e-002 5.82428789e-003 1.20094523e-001 2.32799515e-001
      2.63501614e-001 2.63501614e-001 2.63501614e-001 1.71581313e-001
      4.97129187e-002 3.52766588e-002 1.68577582e-002 1.48110306e-002
      2.53542103e-002 1.22399323e-001 2.63501614e-001 2.63501614e-001
      1.60393476e-001 6.42362088e-002 1.05819397e-001 1.38904676e-001
      1.55893952e-001 9.63502303e-002 1.76634878e-001 2.35649988e-001
      2.35649988e-001 2.35649988e-001 6.96784630e-002 1.19109549e-001
      2.35649988e-001 2.35649988e-001 2.35649988e-001 2.35649988e-001
      1.85179234e-001 1.86173633e-001 2.13123381e-001 9.27105546e-002
      9.52122211e-002 6.34421632e-002 4.06301022e-002 1.84079986e-002
      6.27836585e-002 1.74324602e-001 2.35649988e-001 2.35649988e-001
      1.87256008e-001 1.20415814e-001 1.07256882e-001 1.50348797e-001
      1.07706353e-001 1.77939817e-001 1.58432513e-001 1.71103045e-001
      1.23678729e-001 3.66866961e-002 4.97432128e-002 1.29808456e-001
      2.40281329e-001 2.51100302e-001 2.51100302e-001 1.52955279e-001
      1.48924470e-001 4.86846454e-002 2.45278720e-002 2.29250565e-002
      5.75926304e-002 8.64341334e-002 1.46784291e-001 2.51100302e-001
      2.48052761e-001 1.85687885e-001 1.79663226e-001 1.35553896e-001
      7.41914958e-002 8.30292776e-002 2.06374049e-001 1.74984649e-001
      2.51100302e-001 1.70141578e-001 1.54256716e-001 1.46441013e-001
      7.01592788e-002 5.55281453e-002 9.38141048e-002 2.08525762e-001
      1.19474411e-001 2.51100302e-001 2.51100302e-001 2.51100302e-001</_>
    <_>
      4.56389301e-002 7.06700683e-002 1.60904735e-001 2.44851157e-001
      2.44851157e-001 9.02131721e-002 7.03541860e-002 6.11675084e-002
      5.09511121e-002 9.15037692e-002 1.07274167e-001 1.99631363e-001
      2.17472956e-001 2.44851157e-001 1.22521050e-001 5.37185669e-002
      5.46629168e-002 5.49818948e-002 4.55900021e-002 9.00611728e-002
      2.10947514e-001 2.44851157e-001 2.44851157e-001 1.87130898e-001
      1.62909225e-001 6.07560761e-002 7.32596666e-002 2.44851157e-001
      2.44851157e-001 2.44851157e-001 2.07803071e-001 2.44851157e-001
      2.44851157e-001 1.69883922e-001 7.69182295e-002 1.06956288e-001
      5.43826558e-002 7.84292221e-002 8.83085281e-002 9.67799723e-002
      8.84217843e-002 4.63430993e-002 1.75141394e-002 1.22220227e-002
      1.61275193e-002 1.17934845e-001 2.71416366e-001 2.71416366e-001
      2.66705185e-001 1.55560762e-001 1.10458530e-001 3.54337618e-002
      1.62997302e-002 3.40324305e-002 1.51560098e-001 1.63745999e-001
      1.71146259e-001 1.36716291e-001 6.87614903e-002 5.48129603e-002
      3.14534530e-002 1.66037474e-002 3.36173736e-002 2.69367784e-001
      2.71416366e-001 2.71416366e-001 2.71416366e-001 2.71416366e-001
      2.58116871e-001 2.71416366e-001 2.43763208e-001 1.18519582e-001
      1.99797690e-001 2.71778345e-001 2.87557662e-001 7.86578730e-002
      3.29826102e-002 2.07543150e-002 1.47879105e-002 5.86599251e-003
      2.64338776e-002 2.96919107e-001 2.96919107e-001 1.75227135e-001
      3.31111811e-002 1.79549847e-002 2.31169118e-003 1.24772433e-002
      1.88781377e-002 7.57408142e-002 2.96919107e-001 2.96919107e-001
      2.96919107e-001 1.46344051e-001 9.65195373e-002 6.09069318e-002
      1.14303842e-001 1.15708336e-001 8.78020152e-002 2.96919107e-001
      2.96919107e-001 2.14809984e-001 4.79529314e-002 1.59984268e-002
      6.25932589e-003 2.97722779e-002 3.76280844e-002 1.29436702e-001
      1.75703354e-002 6.86431155e-002 2.26992950e-001 2.43585646e-001
      2.01235682e-001 8.01760182e-002 8.49932134e-002 2.31866892e-002
      2.85633188e-002 2.30199024e-001 2.75582463e-001 2.75582463e-001
      2.08154291e-001 1.24242000e-001 8.43051150e-002 8.72678980e-002
      3.83596420e-002 9.15014669e-002 1.03022410e-002 6.98297620e-002
      2.75582463e-001 2.75582463e-001 2.75582463e-001 6.92581907e-002
      5.65813258e-002 3.24532948e-002 1.78889148e-002 7.77459741e-002
      1.88649341e-001 2.75582463e-001 2.75582463e-001 2.75582463e-001
      8.42577145e-002 9.54904035e-002 6.59178123e-002 7.36637712e-002
      2.18746081e-001 2.03742966e-001 2.04443768e-001 1.23912632e-001
      4.69585545e-002 4.96953651e-002 5.44474684e-002 4.83645760e-002
      1.07291266e-001 2.40010127e-001 1.73189342e-001 2.40010127e-001
      2.40010127e-001 2.35967234e-001 2.40010127e-001 2.40010127e-001
      2.40010127e-001 1.89890534e-001 8.20782408e-002 1.00027874e-001
      1.37257427e-001 1.07917957e-001 1.21357180e-001 9.39027071e-002
      8.20049644e-002 7.29860365e-002 9.39785317e-002 1.15764558e-001
      7.39730820e-002 1.38862237e-001 2.40010127e-001 2.40010127e-001
      2.29565054e-001 1.91691548e-001 1.45063221e-001 8.19994807e-002
      2.53523439e-001 2.25291297e-001 2.50347197e-001 1.46136627e-001
      1.32404119e-001 1.34086221e-001 2.53523439e-001 2.53523439e-001
      1.57779753e-001 2.53523439e-001 2.53523439e-001 1.75126076e-001
      6.75917342e-002 7.74140283e-002 7.57122561e-002 1.60517320e-001
      1.32777646e-001 1.54575631e-001 7.52944872e-002 4.38431725e-002
      7.69317821e-002 2.53523439e-001 1.79863781e-001 1.41792685e-001
      2.12139547e-001 1.28021851e-001 4.42628562e-002 8.85835886e-002
      5.82375191e-002 5.62655143e-002 2.01226652e-001 2.05026492e-001
      1.47276327e-001 1.96968988e-001 1.11264750e-001 5.71093336e-002
      1.05293402e-002 2.39057746e-002 1.27717331e-001 2.49150440e-001
      2.49150440e-001 1.67490870e-001 1.64421111e-001 9.58991125e-002
      2.62115784e-002 8.45613331e-002 5.23073301e-002 1.49068967e-001
      2.49150440e-001 2.49150440e-001 1.77571163e-001 2.49150440e-001
      2.27595359e-001 1.39826238e-001 5.25209047e-002 3.07391435e-002
      6.70309961e-002 1.28296226e-001 1.83883175e-001 1.93908259e-001
      1.95961237e-001 1.94665447e-001 5.67362085e-002 2.37705335e-001
      6.10636100e-002 5.78712039e-002 5.24200387e-002 1.13666415e-001
      1.70623824e-001 2.49150440e-001 2.49150440e-001 2.49150440e-001
      1.09827228e-001 1.12633154e-001 2.13907629e-001 1.23092689e-001
      1.54730409e-001 1.28138155e-001 1.19089201e-001 9.87579897e-002
      1.08699232e-001 1.25935063e-001 2.59084493e-001 2.59084493e-001
      2.59084493e-001 2.59084493e-001 1.68136612e-001 6.81954250e-002
      2.01174486e-002 3.95594314e-002 2.59084493e-001 2.12739542e-001
      2.59084493e-001 9.27489549e-002 7.20530674e-002 5.88922948e-002
      8.60938579e-002 1.48703292e-001 2.59084493e-001 1.33260950e-001
      2.59084493e-001 2.59084493e-001 1.94798887e-001 1.64255917e-001
      4.63040955e-002 2.13366672e-002 1.51778925e-002 5.66550456e-002
      2.06253752e-001 2.36774206e-001 2.36774206e-001 2.36774206e-001
      2.24829987e-001 1.21252619e-001 8.47874805e-002 1.89708043e-002
      7.21889064e-002 1.96877405e-001 2.36774206e-001 1.70249015e-001
      2.36774206e-001 2.36774206e-001 1.21226721e-001 1.01554066e-001
      8.91333818e-002 1.10313594e-001 1.82400867e-001 2.36774206e-001
      2.36774206e-001 1.40877843e-001 1.34278506e-001 3.33014242e-002
      2.15194765e-002 2.95467619e-002 8.10938999e-002 2.19338939e-001
      2.32030153e-001 1.29379719e-001 9.45326909e-002 9.12757143e-002
      6.15077689e-002 5.92509881e-002 1.90365329e-001 2.36774206e-001</_>
    <_>
      4.93345521e-002 1.72596306e-001 1.80367336e-001 1.87091127e-001
      1.48750156e-001 1.16299301e-001 5.98551668e-002 3.46415564e-002
      4.25649136e-002 2.49903202e-001 2.49903202e-001 2.49903202e-001
      1.65994167e-001 9.80407521e-002 5.08844070e-002 5.31367324e-002
      5.30196019e-002 2.04281390e-001 2.60647517e-002 9.24022272e-002
      1.63571775e-001 2.10416883e-001 2.49903202e-001 2.49903202e-001
      1.75461769e-001 2.68764012e-002 1.07675446e-002 1.32724777e-001
      2.19974279e-001 2.49903202e-001 2.09676519e-001 2.49903202e-001
      2.49903202e-001 1.92058623e-001 5.94096035e-002 8.06533769e-002
      2.53966033e-001 1.30776539e-001 8.02760869e-002 5.82417697e-002
      7.38604441e-002 8.17539096e-002 2.53966033e-001 1.84171468e-001
      2.29912013e-001 4.98472042e-002 1.48761785e-002 2.28387341e-002
      5.18955626e-002 1.42386332e-001 1.75332591e-001 2.53966033e-001
      2.53966033e-001 1.26032695e-001 1.11619495e-001 1.08082905e-001
      1.37366220e-001 1.60901457e-001 1.73623830e-001 1.49490073e-001
      2.19833776e-001 1.12485029e-001 1.12573713e-001 4.44191061e-002
      2.78916042e-002 9.71544981e-002 2.37286374e-001 2.53966033e-001
      2.53966033e-001 2.53966033e-001 2.53966033e-001 1.38764516e-001
      7.09952191e-002 3.11282668e-002 2.29818784e-002 3.09409983e-002
      8.28455687e-002 1.28159061e-001 2.42610008e-001 2.42610008e-001
      1.67358369e-001 2.24430561e-001 1.54606923e-001 4.95300405e-002
      5.15036471e-002 5.69240823e-002 9.82247069e-002 1.27802849e-001
      2.05674082e-001 1.89122722e-001 7.32124671e-002 2.26346217e-002
      1.21635050e-001 1.58929139e-001 2.42610008e-001 2.42610008e-001
      2.42610008e-001 2.42610008e-001 2.06195652e-001 1.17609903e-001
      8.69667754e-002 1.45642787e-001 1.40797243e-001 2.42610008e-001
      2.42610008e-001 1.86216757e-001 2.34955579e-001 2.01202899e-001
      1.84637550e-002 2.22566165e-002 3.83317582e-002 7.44264871e-002
      2.60711044e-001 2.60711044e-001 2.60711044e-001 4.92282547e-002
      1.13601964e-002 6.74985647e-002 4.63885628e-002 7.17627779e-002
      7.51701072e-002 2.58765072e-001 2.60711044e-001 2.60711044e-001
      1.98198050e-001 1.02736890e-001 3.58596705e-002 1.73330065e-002
      9.34434384e-002 1.08325630e-001 2.26217225e-001 2.50884980e-001
      2.50331223e-001 7.14760646e-002 2.11908724e-002 9.39984024e-002
      3.17341536e-002 1.03618301e-001 1.09781936e-001 1.28971830e-001
      2.35098243e-001 2.60711044e-001 2.60711044e-001 2.60711044e-001
      7.96104372e-002 5.45158833e-002 6.81777447e-002 7.77914673e-002
      8.67784768e-002 9.89648625e-002 1.00274488e-001 8.98327976e-002
      1.01883985e-001 7.78881386e-002 1.35628834e-001 1.72516018e-001
      2.15728164e-001 2.19451547e-001 2.16789290e-001 1.08864889e-001
      4.94905971e-002 1.26291320e-001 1.00232124e-001 3.69700380e-002
      6.07669242e-002 6.42289445e-002 6.59426525e-002 1.39312133e-001
      1.92161024e-001 2.22341448e-001 2.51069039e-001 2.11668670e-001
      2.51069039e-001 2.51069039e-001 2.51069039e-001 2.51069039e-001
      2.51069039e-001 2.51069039e-001 1.64451793e-001 2.51069039e-001
      4.60334234e-002 1.16291769e-001 1.93540961e-001 1.26680806e-001
      1.49160966e-001 1.81655616e-001 6.45251647e-002 3.06780953e-002
      6.98903799e-002 6.39806837e-002 6.88318014e-002 1.94803923e-001
      1.12478063e-001 1.56927317e-001 1.55634731e-001 4.54920195e-002
      5.48892245e-002 8.16036835e-002 1.76823869e-001 2.77792215e-001
      2.77792215e-001 1.47289619e-001 1.49226353e-001 1.48690179e-001
      2.77792215e-001 2.30921701e-001 2.77792215e-001 1.86326891e-001
      9.20899063e-002 1.62505716e-001 6.65189028e-002 6.71050921e-002
      8.02202895e-002 2.10174724e-001 2.77792215e-001 2.77792215e-001
      6.75104633e-002 5.41565195e-002 1.43065512e-001 1.60335079e-001
      2.48131260e-001 2.48131260e-001 1.89417019e-001 8.64577889e-002
      4.13869917e-002 8.88890177e-002 6.71894327e-002 1.45309210e-001
      2.18485042e-001 2.48131260e-001 1.94410473e-001 2.10544959e-001
      2.48131260e-001 2.17089638e-001 5.70634864e-002 5.79458922e-002
      8.95252749e-002 9.45505872e-002 2.48131260e-001 2.48131260e-001
      2.06704542e-001 8.87998343e-002 4.18347046e-002 5.79927377e-002
      5.28210215e-002 6.63495883e-002 1.38719991e-001 2.48131260e-001
      2.48131260e-001 2.48131260e-001 1.39343962e-001 9.48723331e-002
      2.90974490e-002 1.27063747e-002 2.83000376e-002 5.55081256e-002
      7.66824260e-002 1.26374856e-001 1.51476696e-001 1.52005911e-001
      1.33806050e-001 1.02544740e-001 1.96490765e-001 2.53957093e-001
      2.39592582e-001 2.77034461e-001 2.77034461e-001 2.77034461e-001
      2.77034461e-001 2.48657554e-001 2.33915523e-002 1.62956882e-002
      2.44330410e-002 5.60002401e-002 1.17089212e-001 1.23566069e-001
      1.09689638e-001 9.31967869e-002 6.24921396e-002 5.72328307e-002
      2.41530035e-002 5.46049923e-002 1.23612337e-001 1.96339428e-001
      2.77034461e-001 2.77034461e-001 2.77034461e-001 1.32774025e-001
      6.98789209e-002 8.88412222e-002 9.13758650e-002 5.20366132e-002
      8.95383209e-002 1.28756523e-001 3.00407380e-001 2.77845800e-001
      2.99387068e-001 1.11972883e-001 3.07269860e-002 2.46704482e-002
      5.68196364e-003 1.75225697e-002 4.50692587e-002 1.98566288e-001
      3.00407380e-001 3.00407380e-001 3.47287878e-002 7.52932066e-003
      1.77792013e-002 2.10670028e-002 3.96698378e-002 7.82546252e-002
      3.00407380e-001 2.93670148e-001 2.27999792e-001 7.66902566e-002
      2.29482763e-002 1.19630927e-002 2.61017890e-003 2.55378578e-002
      3.89059037e-002 1.66467324e-001 3.00407380e-001 3.00407380e-001</_>
    <_>
      1.72861248e-001 2.47961029e-001 2.47961029e-001 1.23991229e-001
      7.97252879e-002 6.09071292e-002 6.29248619e-002 7.06289187e-002
      5.54501452e-002 2.47961029e-001 2.47961029e-001 2.08532780e-001
      1.12706684e-001 4.70308438e-002 6.81861192e-002 1.08858138e-001
      1.23295024e-001 2.33392224e-001 1.54307827e-001 2.47961029e-001
      2.47961029e-001 2.37671912e-001 1.32257149e-001 6.90947697e-002
      3.44710574e-002 3.87920067e-002 6.64817840e-002 2.47961029e-001
      2.47961029e-001 2.47961029e-001 1.97690651e-001 1.19754650e-001
      1.21416107e-001 6.12919182e-002 7.38815516e-002 2.12568268e-001
      2.52010912e-001 1.91199034e-001 8.72398317e-002 7.42942691e-002
      3.73104475e-002 3.53704244e-002 6.01992905e-002 8.54090080e-002
      2.52010912e-001 2.52010912e-001 1.71960652e-001 1.03711925e-001
      7.69963264e-002 8.30361992e-002 5.76060489e-002 1.08187102e-001
      1.50995120e-001 2.52010912e-001 2.52010912e-001 2.52010912e-001
      1.66590109e-001 1.47318333e-001 8.79314467e-002 1.03567407e-001
      6.85130507e-002 8.85804296e-002 2.52010912e-001 2.52010912e-001
      2.42387071e-001 1.14350513e-001 1.27338827e-001 9.67166573e-002
      1.46065176e-001 2.11818516e-001 1.66197494e-001 2.52010912e-001
      2.27675676e-001 8.52906927e-002 8.83600041e-002 1.02495447e-001
      1.20151214e-001 1.09988265e-001 2.19846576e-001 2.27675676e-001
      2.27675676e-001 1.95219919e-001 3.14578675e-002 3.95090394e-002
      7.56068826e-002 7.15444908e-002 9.04445648e-002 2.27675676e-001
      2.27675676e-001 2.02336282e-001 2.03788951e-001 8.49226192e-002
      1.20866209e-001 1.82694539e-001 1.35550484e-001 1.94540381e-001
      2.27675676e-001 2.27675676e-001 1.99975178e-001 2.27675676e-001
      4.29183319e-002 1.55833945e-001 1.73971906e-001 8.98118541e-002
      1.10840239e-001 1.26614183e-001 2.27675676e-001 2.10749343e-001
      5.76813035e-002 1.40825912e-001 2.37475783e-001 2.37475783e-001
      2.37475783e-001 1.14154503e-001 6.06289692e-002 1.92740876e-002
      2.56622806e-002 9.21365321e-002 1.75468147e-001 2.37475783e-001
      2.04945832e-001 2.37475783e-001 2.23796710e-001 1.20041206e-001
      9.08427835e-002 7.77681246e-002 7.19482452e-002 5.34801334e-002
      9.43008140e-002 2.37475783e-001 2.37475783e-001 2.37475783e-001
      2.04218715e-001 1.78105429e-001 9.97512117e-002 1.20583862e-001
      5.06817512e-002 7.12601468e-002 1.24084771e-001 1.87111899e-001
      1.88577995e-001 2.32091174e-001 2.37475783e-001 1.63621858e-001
      1.27801478e-001 1.33569926e-001 1.41991913e-001 1.52277470e-001
      1.52614713e-001 2.10321322e-001 1.61697924e-001 1.67452127e-001
      1.76600024e-001 1.13138743e-001 1.35829195e-001 8.09765905e-002
      1.76067859e-001 1.27443895e-001 1.76449537e-001 1.71347499e-001
      1.57437816e-001 1.45280257e-001 2.14228734e-001 1.71444535e-001
      1.66480750e-001 1.19414657e-001 1.48876086e-001 1.53048918e-001
      2.14228734e-001 2.14228734e-001 1.47005975e-001 2.14228734e-001
      2.14228734e-001 1.91962227e-001 2.14228734e-001 1.28152311e-001
      1.62204579e-001 1.79469436e-001 1.72022119e-001 1.43814504e-001
      1.17836103e-001 1.01844192e-001 1.23113602e-001 1.89373910e-001
      1.11129671e-001 1.77285671e-001 1.46768674e-001 1.59745097e-001
      1.57109946e-001 2.14478210e-001 1.00162297e-001 2.14478210e-001
      2.14478210e-001 1.07599385e-001 1.03440098e-001 8.65067020e-002
      2.06794590e-001 2.14478210e-001 2.14478210e-001 2.14478210e-001
      2.14478210e-001 1.74008682e-001 9.72073227e-002 1.28160715e-001
      1.13116235e-001 8.62937644e-002 1.76714644e-001 1.77204564e-001
      2.14478210e-001 2.14478210e-001 1.59861699e-001 1.25883847e-001
      1.12756506e-001 1.86652765e-001 1.98623076e-001 2.07506329e-001
      7.56181255e-002 4.56947647e-002 7.28830919e-002 1.99112386e-001
      2.25866243e-001 2.13242486e-001 2.25866243e-001 2.25866243e-001
      1.75641835e-001 2.25866243e-001 1.39822245e-001 9.22932178e-002
      7.08922967e-002 8.40435624e-002 8.91234055e-002 1.94937482e-001
      2.25866243e-001 2.25866243e-001 5.73868603e-002 7.28166923e-002
      9.87549424e-002 2.25866243e-001 2.25866243e-001 1.74877599e-001
      1.38738543e-001 1.28718540e-001 1.19332641e-001 1.85098037e-001
      1.96998343e-001 1.80914074e-001 2.00093761e-001 1.87387407e-001
      1.19804420e-001 1.02240466e-001 1.60705119e-001 2.09428400e-001
      2.53244400e-001 2.53244400e-001 1.49348482e-001 4.66201343e-002
      5.13576865e-002 4.55733240e-002 9.18378085e-002 1.73720077e-001
      2.49013796e-001 2.53244400e-001 2.53244400e-001 1.68754384e-001
      1.04381599e-001 4.51647826e-002 8.06282535e-002 1.50577605e-001
      1.25281304e-001 2.38683015e-001 2.53244400e-001 2.51368552e-001
      1.16692305e-001 5.56376800e-002 8.70645493e-002 5.28907143e-002
      4.60389145e-002 1.38554916e-001 2.53244400e-001 2.53244400e-001
      1.43867671e-001 1.82651758e-001 9.00032818e-002 7.46785030e-002
      5.56715503e-002 9.37019959e-002 1.41883910e-001 2.53244400e-001
      2.55085737e-001 2.55085737e-001 2.36029372e-001 1.53985187e-001
      6.04482181e-002 6.58350587e-002 1.08358517e-001 6.46267533e-002
      2.18373388e-001 1.28360331e-001 1.86198577e-001 1.92684680e-001
      1.72029704e-001 8.45404789e-002 8.49022418e-002 1.36392415e-001
      1.10276379e-001 1.40010342e-001 2.52247065e-001 1.18529059e-001
      2.55085737e-001 2.55085737e-001 1.28040880e-001 7.52942488e-002
      7.50967339e-002 5.12113944e-002 2.55085737e-001 1.02880478e-001
      1.18523508e-001 2.55085737e-001 2.55085737e-001 1.78937539e-001
      1.49399415e-001 9.24496353e-002 3.34838629e-002 1.08269684e-001</_>
    <_>
      1.19772173e-001 1.16990656e-001 1.35282800e-001 1.57101497e-001
      2.31339142e-001 2.19856158e-001 8.86367559e-002 5.97219206e-002
      5.44246770e-002 2.06093654e-001 1.50723487e-001 1.09875441e-001
      9.62497517e-002 1.45224199e-001 1.54167145e-001 1.59287706e-001
      1.67648494e-001 1.79524064e-001 2.00471327e-001 2.31339142e-001
      2.31339142e-001 2.31339142e-001 2.31339142e-001 2.27195188e-001
      8.13081861e-002 4.87915091e-002 9.70462114e-002 2.31339142e-001
      2.31339142e-001 2.28944749e-001 1.08880535e-001 9.08498988e-002
      8.01595747e-002 1.02310911e-001 1.38136104e-001 2.31339142e-001
      2.52386272e-001 1.20327055e-001 4.36692052e-002 3.99920195e-002
      6.61119446e-002 4.24188301e-002 1.05394550e-001 2.24289477e-001
      2.52386272e-001 2.52386272e-001 1.26592636e-001 7.11614117e-002
      5.24802357e-002 5.54818586e-002 6.88832998e-002 1.44181982e-001
      1.40137821e-001 2.52386272e-001 2.52386272e-001 2.02677548e-001
      1.02777280e-001 6.36782348e-002 5.16146533e-002 5.96004687e-002
      1.74394220e-001 2.52386272e-001 2.52386272e-001 2.52386272e-001
      1.50153115e-001 1.54046163e-001 1.01524442e-001 5.21566905e-002
      1.08681679e-001 1.98457539e-001 2.52386272e-001 2.52386272e-001
      2.42047951e-001 5.13230301e-002 6.24202676e-002 6.24033287e-002
      1.00706324e-001 2.42047951e-001 2.42047951e-001 1.23415150e-001
      2.37050548e-001 9.84381884e-002 3.31423655e-002 8.35619718e-002
      1.11658774e-001 1.41800389e-001 2.42047951e-001 2.42047951e-001
      1.04898043e-001 1.07770681e-001 2.42047951e-001 8.04506689e-002
      1.21255487e-001 7.87523091e-002 8.00395980e-002 1.61562830e-001
      2.42047951e-001 2.42047951e-001 2.42047951e-001 1.63715735e-001
      1.32846460e-001 1.79834738e-001 1.06156565e-001 1.02498807e-001
      1.84577405e-001 2.00121284e-001 2.09717974e-001 1.69674426e-001
      7.25977719e-002 1.31941959e-001 1.54327050e-001 2.06651226e-001
      2.42980719e-001 2.42980719e-001 8.78782347e-002 4.51196209e-002
      6.15170635e-002 1.16093725e-001 2.42980719e-001 1.93737879e-001
      1.78520083e-001 1.74586356e-001 1.26370311e-001 6.32257536e-002
      3.52832414e-002 8.62009227e-002 3.30356210e-002 2.26101242e-002
      5.60238771e-002 1.14175841e-001 2.42980719e-001 2.42980719e-001
      2.42980719e-001 1.82491094e-001 7.39882663e-002 1.03419669e-001
      8.99834335e-002 1.28326744e-001 2.38348693e-001 2.42980719e-001
      2.42980719e-001 2.42980719e-001 2.40557432e-001 1.22368313e-001
      1.30337283e-001 2.09211498e-001 1.92543387e-001 1.57899752e-001
      1.13842867e-001 1.12604693e-001 1.25364184e-001 1.19669944e-001
      1.65772408e-001 1.42106041e-001 1.39224574e-001 1.57319084e-001
      1.29998505e-001 1.07011519e-001 1.74596295e-001 1.51910514e-001
      1.80813551e-001 2.09211498e-001 2.09211498e-001 1.53926894e-001
      1.85698345e-001 2.09211498e-001 1.74460560e-001 1.89093888e-001
      1.56082734e-001 1.96823359e-001 1.67040735e-001 2.09211498e-001
      1.76256344e-001 2.09211498e-001 1.94132626e-001 1.41182184e-001
      1.91222057e-001 8.56533870e-002 1.66563034e-001 1.36027291e-001
      1.66074544e-001 7.69373178e-002 1.07318960e-001 9.13476273e-002
      8.83635506e-002 1.43759847e-001 1.80968761e-001 2.15511233e-001
      2.15511233e-001 2.00264752e-001 1.79417208e-001 1.54009938e-001
      1.07358836e-001 1.04910903e-001 1.46183297e-001 2.15511233e-001
      2.01554045e-001 1.62913337e-001 2.03076199e-001 1.87683508e-001
      1.87286392e-001 1.97420746e-001 1.22009940e-001 2.04532072e-001
      1.43341959e-001 1.04594387e-001 1.33420557e-001 2.15511233e-001
      2.15511233e-001 1.12569913e-001 1.16921723e-001 9.34135541e-002
      2.15511233e-001 2.15511233e-001 1.14120968e-001 2.15511233e-001
      6.50303140e-002 3.40705961e-002 3.20143513e-002 5.28347418e-002
      1.16514094e-001 2.03940675e-001 2.44150430e-001 2.44150430e-001
      1.47458389e-001 2.07411513e-001 7.00380355e-002 5.26697561e-002
      9.25892517e-002 1.06256813e-001 1.75609902e-001 2.44150430e-001
      2.44150430e-001 2.44150430e-001 6.22509792e-002 8.60529691e-002
      7.76861981e-002 6.74299970e-002 9.76401791e-002 1.37548223e-001
      2.44150430e-001 2.44150430e-001 2.06051454e-001 2.44150430e-001
      1.49046212e-001 1.27811357e-001 7.69806132e-002 7.04170316e-002
      1.24299347e-001 2.37253696e-001 2.44150430e-001 2.44150430e-001
      2.64631242e-001 7.95649141e-002 5.82608618e-002 7.66409636e-002
      8.27997848e-002 1.24714807e-001 1.38863951e-001 2.64631242e-001
      2.64631242e-001 2.53811151e-001 1.52354091e-001 1.89648196e-001
      1.13589421e-001 8.72345045e-002 1.10658087e-001 1.16364136e-001
      2.14040816e-001 2.43111268e-001 2.64631242e-001 9.93742645e-002
      6.42781183e-002 3.93137150e-002 5.28187938e-002 8.08369443e-002
      9.61744413e-002 1.87495500e-001 2.64631242e-001 2.64631242e-001
      1.83225036e-001 1.22470565e-001 5.59415631e-002 9.71794575e-002
      8.28648955e-002 1.10976011e-001 1.59486189e-001 2.64631242e-001
      1.91247597e-001 2.01131627e-001 2.19233900e-001 1.52453497e-001
      1.21141605e-001 1.44455984e-001 1.24822170e-001 7.74787217e-002
      1.86838970e-001 1.88520029e-001 2.42428601e-001 1.24185480e-001
      7.06185549e-002 6.46118298e-002 1.30359024e-001 1.46612644e-001
      4.83025238e-002 1.76957816e-001 2.45032743e-001 2.45032743e-001
      2.45032743e-001 1.29338056e-001 1.35465056e-001 1.02139257e-001
      1.00155652e-001 9.55180079e-002 2.45032743e-001 2.45032743e-001
      2.45032743e-001 2.45032743e-001 1.21259145e-001 8.79676193e-002
      7.00106993e-002 5.18030934e-002 4.87119295e-002 2.20897883e-001</_>
    <_>
      1.91948730e-002 7.39361271e-002 4.56808656e-002 2.03686226e-002
      3.75009589e-002 4.76325043e-002 3.21397558e-002 2.69156415e-002
      3.38081382e-002 1.81308776e-001 3.46422225e-001 1.39848381e-001
      3.01540364e-002 3.04598939e-002 4.40937690e-002 5.19572236e-002
      5.94109334e-002 1.01470336e-001 2.61406060e-002 1.94298059e-001
      2.60265529e-001 3.46422225e-001 2.36015946e-001 7.23811537e-002
      5.95358275e-002 2.77075525e-002 3.42703164e-002 2.70498991e-001
      3.46422225e-001 3.46422225e-001 3.46422225e-001 2.17500240e-001
      6.35066703e-002 6.56156838e-002 2.68400926e-002 8.19160864e-002
      2.81749368e-001 2.52952427e-001 5.37564680e-002 1.70556381e-002
      9.05590598e-003 1.19488584e-002 2.65081879e-002 3.90958190e-002
      2.23724306e-001 2.81749368e-001 4.49795946e-002 3.17499153e-002
      5.53016849e-002 5.03364727e-002 4.80877459e-002 4.47095782e-002
      1.30075291e-001 2.81749368e-001 2.81749368e-001 2.81749368e-001
      1.76329866e-001 8.03393647e-002 4.13294546e-002 1.60622951e-002
      2.00105086e-002 2.24786233e-002 2.31107429e-001 2.81749368e-001
      8.77372175e-002 9.90250409e-002 2.81749368e-001 2.52427161e-001
      8.34155083e-002 4.48470488e-002 1.69034824e-001 2.81749368e-001
      1.04907028e-001 4.90969978e-002 1.04939952e-001 1.93917334e-001
      1.51601866e-001 1.12299040e-001 7.27990791e-002 1.52442440e-001
      2.21148610e-001 3.39145064e-002 1.12361938e-001 1.47204652e-001
      2.41741791e-001 2.10566759e-001 1.63674980e-001 9.07735676e-002
      1.01362228e-001 3.56926918e-002 8.75348523e-002 4.82959822e-002
      1.83113545e-001 2.63146520e-001 2.63146520e-001 2.39781395e-001
      1.29301965e-001 2.10260883e-001 2.61962056e-001 3.61432470e-002
      6.29642531e-002 1.12194531e-001 2.63146520e-001 2.63146520e-001
      2.63146520e-001 1.71845213e-001 1.09544709e-001 3.61368433e-002
      1.04750292e-002 5.55553883e-002 1.00002624e-001 2.85885662e-001
      2.85885662e-001 1.43319905e-001 3.05225104e-002 1.47490622e-002
      1.41934110e-002 4.59181815e-002 2.31885985e-001 2.16132045e-001
      2.85885662e-001 2.85885662e-001 1.73611447e-001 4.67391536e-002
      1.09844524e-002 1.14249745e-002 1.25916526e-002 1.96427424e-002
      2.23245081e-002 1.49781942e-001 2.85885662e-001 2.85885662e-001
      1.37730926e-001 3.07732504e-002 2.36417633e-002 2.18245964e-002
      3.05756573e-002 4.80458736e-002 1.65567577e-001 2.85885662e-001
      2.85885662e-001 2.85885662e-001 1.26168132e-001 1.75158251e-002
      1.06753051e-001 2.31622487e-001 1.48796290e-001 1.49647221e-001
      1.06887102e-001 6.08182773e-002 3.63130346e-002 1.66502800e-002
      3.69969532e-002 6.54613078e-002 8.59769061e-002 1.81037918e-001
      3.13193530e-001 3.13193530e-001 1.72560498e-001 4.77333516e-002
      4.63284515e-002 8.92916322e-002 3.80252600e-002 9.87244248e-002
      1.64143533e-001 1.58551067e-001 1.42608523e-001 1.90823078e-001
      1.87789455e-001 1.33287132e-001 1.99282318e-002 5.10476157e-002
      1.08967237e-001 3.13193530e-001 3.13193530e-001 3.13193530e-001
      2.73405761e-001 1.51018769e-001 7.42133632e-002 3.35859396e-002
      3.40860337e-002 5.22704385e-002 1.33288831e-001 2.77167737e-001
      2.77167737e-001 2.48042613e-001 1.15637161e-001 5.66482954e-002
      4.94474843e-002 6.40912950e-002 4.77708839e-002 6.17403574e-002
      1.75017297e-001 1.84821412e-001 2.06251681e-001 1.59526184e-001
      7.07539767e-002 6.10218160e-002 5.74201941e-002 4.42994088e-002
      1.78792134e-001 2.77167737e-001 2.77167737e-001 2.77167737e-001
      2.77167737e-001 1.32010296e-001 6.37558773e-002 7.20053911e-002
      3.97876725e-002 2.93560550e-002 8.52165669e-002 1.43838614e-001
      2.68305600e-001 2.77167737e-001 1.76862553e-001 8.93798843e-002
      2.51267944e-002 3.77705544e-002 3.85099724e-002 8.99375007e-002
      1.63003430e-001 3.31084609e-001 2.75955021e-001 7.74580985e-002
      4.44982350e-002 4.56888750e-002 5.83598241e-002 6.75297454e-002
      6.00355044e-002 1.84395671e-001 3.31084609e-001 3.31084609e-001
      3.31084609e-001 1.47991538e-001 5.63995987e-002 4.09044288e-002
      4.71416935e-002 8.83352011e-002 6.67732358e-002 6.21802881e-002
      1.10315584e-001 4.66414504e-002 6.06046319e-002 1.07751302e-001
      4.04507630e-002 2.39931569e-002 5.96564598e-002 1.07737549e-001
      1.25554025e-001 3.31084609e-001 3.31084609e-001 2.47230753e-001
      1.05805583e-001 1.40703335e-001 1.67536363e-001 1.07012883e-001
      5.72779179e-002 1.05033897e-001 2.36766085e-001 2.50467867e-001
      1.70546621e-001 1.40803680e-001 2.18942106e-001 2.50467867e-001
      2.50467867e-001 1.43016070e-001 9.91528705e-002 9.93369594e-002
      1.15939461e-001 1.39947549e-001 1.73899159e-001 1.19069062e-001
      8.38124454e-002 4.55817953e-002 5.34023866e-002 7.44110197e-002
      1.18817352e-001 2.50467867e-001 2.50467867e-001 2.14498460e-001
      2.50467867e-001 2.50467867e-001 1.97238490e-001 1.57197788e-001
      8.41779262e-002 6.39820173e-002 1.15074776e-001 1.93323895e-001
      4.51319665e-002 7.00230002e-002 1.65082023e-001 2.11210370e-001
      2.07892314e-001 2.16584921e-001 2.49017075e-001 1.17515489e-001
      7.27667436e-002 2.54172143e-002 3.15422751e-002 2.34641191e-002
      7.91501105e-002 1.79583475e-001 1.94734558e-001 2.49017075e-001
      1.78317472e-001 5.74374422e-002 9.76186916e-002 1.87174112e-001
      1.94008559e-001 1.61923766e-001 2.38414183e-001 1.48950353e-001
      2.23887935e-001 1.94444031e-001 9.97941047e-002 6.73634335e-002
      9.51138586e-002 8.68808702e-002 8.41539428e-002 2.49017075e-001
      2.49017075e-001 2.49017075e-001 2.49017075e-001 1.00685053e-001</_>
    <_>
      2.25711558e-002 2.26381421e-002 2.69903522e-002 1.59528971e-001
      1.94143489e-001 1.52323887e-001 4.65252697e-002 2.97181867e-002
      2.65073534e-002 4.46238331e-002 5.23197502e-002 9.09898058e-002
      2.54177064e-001 2.54177064e-001 2.54177064e-001 9.26330164e-002
      1.55193331e-002 2.07026396e-002 9.45089906e-002 2.34512970e-001
      2.47636497e-001 1.80852249e-001 1.56554639e-001 1.54229805e-001
      8.92584249e-002 6.53171092e-002 7.16611296e-002 2.54177064e-001
      2.54177064e-001 2.54177064e-001 2.10564002e-001 2.54177064e-001
      2.54177064e-001 2.30536193e-001 1.25061601e-001 1.72511742e-001
      4.96110246e-002 6.54790699e-002 1.30297214e-001 1.15878060e-001
      1.93239748e-001 8.72083306e-002 5.21201752e-002 4.18047793e-002
      3.34322453e-002 1.11068517e-001 1.10789426e-001 2.36029744e-001
      1.65617585e-001 2.17049733e-001 1.29987136e-001 1.60135552e-001
      2.36029744e-001 1.82723776e-001 2.36029744e-001 2.28583291e-001
      2.36029744e-001 1.83925033e-001 1.16672821e-001 9.22024250e-002
      1.07067347e-001 1.20827422e-001 1.97372004e-001 1.96950376e-001
      1.97423458e-001 2.36029744e-001 2.36029744e-001 1.24910571e-001
      5.08770458e-002 1.41534761e-001 2.36029744e-001 2.36029744e-001
      2.22082064e-001 1.24550983e-001 1.19871840e-001 6.57092258e-002
      1.04521453e-001 1.40261859e-001 1.37952939e-001 2.45059207e-001
      2.45059207e-001 2.45059207e-001 2.45059207e-001 1.35304511e-001
      1.54599203e-002 6.19259737e-002 1.04678102e-001 9.72611755e-002
      2.44804591e-001 2.45059207e-001 2.01580152e-001 1.32093146e-001
      1.37556821e-001 8.55080113e-002 4.13532145e-002 5.26161566e-002
      1.37755215e-001 2.45059207e-001 2.45059207e-001 2.45059207e-001
      2.45059207e-001 7.54623935e-002 9.89842564e-002 5.26210405e-002
      9.50134248e-002 6.97349533e-002 1.45635650e-001 2.45059207e-001
      6.37155324e-002 2.12726161e-001 2.44995758e-001 2.39928260e-001
      1.08579867e-001 8.14314559e-002 4.60926071e-002 4.90767658e-002
      4.66970168e-002 2.44995758e-001 2.44995758e-001 2.44995758e-001
      1.56543210e-001 1.14690654e-001 1.53953999e-001 1.41425729e-001
      1.08531162e-001 1.33463174e-001 5.78978993e-002 8.25168043e-002
      2.24662885e-001 2.44995758e-001 2.44995758e-001 2.44995758e-001
      7.51444474e-002 6.35082722e-002 5.70220910e-002 8.15324709e-002
      9.81949791e-002 1.43747166e-001 2.44995758e-001 2.44995758e-001
      2.44995758e-001 1.66498467e-001 9.03237984e-002 8.92006829e-002
      2.25168020e-001 2.08939955e-001 2.13843241e-001 1.67268038e-001
      1.18973941e-001 1.45788074e-001 1.27692282e-001 1.42346457e-001
      2.25168020e-001 1.39342859e-001 1.04370221e-001 2.11654946e-001
      1.62639305e-001 8.43257904e-002 8.26402307e-002 1.70808107e-001
      2.25168020e-001 2.25168020e-001 6.15755357e-002 7.18416199e-002
      8.86964053e-002 2.25168020e-001 2.25168020e-001 2.25168020e-001
      1.55941218e-001 1.04620844e-001 8.10583234e-002 5.52451275e-002
      9.00929943e-002 1.44796520e-001 1.86223343e-001 2.25168020e-001
      2.20358074e-001 1.90275058e-001 1.68058544e-001 1.40201047e-001
      9.12533700e-002 5.77966087e-002 9.05355737e-002 9.83495340e-002
      4.42889184e-002 5.49197756e-002 2.39508554e-001 2.39508554e-001
      1.90575182e-001 9.67929214e-002 5.93198873e-002 7.06920102e-002
      1.92786202e-001 8.37973654e-002 1.11772232e-001 2.15192094e-001
      2.38428950e-001 1.58381030e-001 4.91888933e-002 7.07676187e-002
      1.83410466e-001 2.39508554e-001 2.39508554e-001 1.33944124e-001
      2.39508554e-001 2.38114759e-001 1.12035125e-001 6.92661479e-002
      5.56130856e-002 2.11955592e-001 2.39508554e-001 2.39508554e-001
      1.33441165e-001 2.31099769e-001 2.16010153e-001 1.53188556e-001
      5.64242974e-002 4.37026434e-002 3.93753126e-002 1.14154302e-001
      2.51344323e-001 2.51344323e-001 2.04689518e-001 1.60003930e-001
      7.80621842e-002 7.61906207e-002 5.50269634e-002 4.43024747e-002
      1.33376509e-001 2.51344323e-001 2.51344323e-001 2.47166663e-001
      1.76526725e-001 1.49892434e-001 8.93822014e-002 5.58021218e-002
      4.51843031e-002 3.94483320e-002 1.29061356e-001 1.66035414e-001
      2.34348968e-001 2.51344323e-001 1.16242416e-001 1.78528264e-001
      8.51680785e-002 4.32516597e-002 4.29227427e-002 1.78738356e-001
      2.31038824e-001 2.51344323e-001 2.51344323e-001 2.51344323e-001
      1.45561993e-001 8.57972726e-002 6.08997717e-002 1.23166196e-001
      2.39753827e-001 2.39753827e-001 1.62617385e-001 6.96460083e-002
      8.88115987e-002 1.53356180e-001 1.77997902e-001 1.58957675e-001
      1.62321642e-001 2.11191356e-001 1.56936109e-001 1.58231676e-001
      9.30661559e-002 6.29929528e-002 2.39753827e-001 1.83380961e-001
      5.90373240e-002 5.56891337e-002 2.26150230e-001 2.38409728e-001
      1.61710143e-001 2.12317795e-001 2.39753827e-001 2.39753827e-001
      2.39753827e-001 1.43486887e-001 1.07999653e-001 2.39753827e-001
      1.36527568e-001 8.06377903e-002 8.60650912e-002 1.03325069e-001
      5.25124148e-002 1.10825010e-001 1.78946763e-001 2.05462590e-001
      1.89799652e-001 1.07796170e-001 1.56783491e-001 1.26365110e-001
      6.00435063e-002 1.38721570e-001 6.17029965e-002 1.39734522e-001
      2.35209689e-001 2.10180461e-001 1.20340325e-001 1.88277796e-001
      1.70732453e-001 2.20230043e-001 1.40952542e-001 1.86451375e-001
      2.11229846e-001 1.09929256e-001 1.69974923e-001 1.58524856e-001
      1.13631360e-001 1.15528524e-001 7.75719732e-002 2.35209689e-001
      2.35209689e-001 2.28365213e-001 1.09097168e-001 1.31586373e-001
      1.87677562e-001 1.81102142e-001 1.84188753e-001 2.35209689e-001</_>
    <_>
      4.67910878e-002 8.27459097e-002 1.61396787e-001 1.88660383e-001
      1.97200194e-001 1.16021708e-001 1.21135123e-001 3.45354155e-002
      4.20316905e-002 1.22315645e-001 2.49973595e-001 1.37127191e-001
      7.80065879e-002 1.05470106e-001 1.98260531e-001 2.08015978e-001
      9.35640559e-002 1.53922647e-001 7.90012255e-002 2.64989793e-001
      2.64989793e-001 1.95393488e-001 1.20724604e-001 2.04271957e-001
      1.92431241e-001 1.10238612e-001 3.75631005e-002 2.49666587e-001
      2.64989793e-001 2.64989793e-001 1.51364967e-001 1.27517521e-001
      1.99493334e-001 1.01194888e-001 9.14207026e-002 1.90033078e-001
      1.61110744e-001 1.62000701e-001 5.63731529e-002 4.28638496e-002
      7.66991451e-002 1.45426661e-001 1.93384647e-001 1.54980808e-001
      2.21120581e-001 2.33232453e-001 6.42749444e-002 2.57078335e-002
      5.01419455e-002 7.20475391e-002 8.29891860e-002 1.98219597e-001
      2.33232453e-001 2.33232453e-001 2.33232453e-001 2.33232453e-001
      1.58891782e-001 6.82275146e-002 8.65942240e-002 1.69873312e-001
      1.55565590e-001 1.99395761e-001 2.33232453e-001 2.33232453e-001
      1.24856301e-001 1.11936435e-001 8.97024721e-002 1.49003029e-001
      1.08983189e-001 2.33232453e-001 2.33232453e-001 2.33232453e-001
      2.43055537e-001 6.75015897e-002 5.33691943e-002 1.10716067e-001
      5.29227927e-002 4.14390117e-002 1.20326459e-001 1.56817600e-001
      2.43055537e-001 2.00464711e-001 7.82277957e-002 2.43055537e-001
      2.43055537e-001 1.61209688e-001 9.44482014e-002 2.11845607e-001
      1.50210485e-001 1.35535926e-001 1.62004635e-001 4.69443984e-002
      1.11948773e-001 1.55828908e-001 1.23384945e-001 9.64123905e-002
      2.43055537e-001 1.56903356e-001 1.72270998e-001 6.49102330e-002
      2.72529349e-002 2.20314056e-001 2.43055537e-001 2.26333007e-001
      1.99778378e-001 2.43055537e-001 2.43055537e-001 7.72876069e-002
      5.47822267e-002 1.65564612e-001 2.58282423e-001 1.86409771e-001
      1.44841060e-001 2.25576013e-001 9.91730541e-002 8.53812620e-002
      3.28168981e-002 9.38976705e-002 2.58282423e-001 2.58282423e-001
      1.53914467e-001 1.72649920e-001 2.58282423e-001 1.06128633e-001
      7.15105236e-002 9.00992379e-002 3.73177081e-002 3.20235826e-002
      9.77311060e-002 1.67451933e-001 2.58282423e-001 2.58282423e-001
      2.58282423e-001 6.52695298e-002 3.52583602e-002 1.93556510e-002
      3.43090557e-002 3.77399921e-002 8.81062970e-002 2.23734617e-001
      2.58282423e-001 2.58282423e-001 2.09749967e-001 6.84854612e-002
      1.07282169e-001 2.28066996e-001 1.63973719e-001 1.23887971e-001
      1.24314450e-001 2.28066996e-001 1.77048370e-001 1.16871305e-001
      1.04875274e-001 8.09711739e-002 9.39714462e-002 2.26601407e-001
      1.94595158e-001 2.28066996e-001 1.67034760e-001 2.28066996e-001
      1.33276507e-001 1.11032151e-001 2.74813287e-002 2.86718663e-002
      1.12914659e-001 1.02784470e-001 1.15291759e-001 2.28066996e-001
      2.28066996e-001 2.28066996e-001 8.74914750e-002 5.54072931e-002
      8.74325484e-002 2.28066996e-001 2.06823021e-001 1.86679751e-001
      2.28066996e-001 2.28066996e-001 2.19508097e-001 8.61174837e-002
      7.50265643e-002 8.36700201e-002 1.69634238e-001 1.70878947e-001
      1.97801322e-001 1.62286207e-001 2.36538157e-001 1.65188864e-001
      1.20531879e-001 7.34721646e-002 6.41512796e-002 1.18113749e-001
      1.62575722e-001 1.75617680e-001 2.36538157e-001 2.36538157e-001
      2.36538157e-001 9.61638466e-002 8.03359970e-002 1.70532301e-001
      2.36538157e-001 2.06361815e-001 1.51104316e-001 1.57710448e-001
      1.44305170e-001 1.18860468e-001 1.04644947e-001 1.17197551e-001
      1.13043226e-001 2.03715235e-001 2.36538157e-001 1.78276107e-001
      1.58546790e-001 2.36538157e-001 1.42820612e-001 1.45114154e-001
      1.73414983e-002 8.56253784e-003 3.78336422e-002 5.69967814e-002
      1.62226349e-001 2.66438663e-001 2.66438663e-001 1.35634840e-001
      3.54348868e-002 1.09928489e-001 1.66530926e-002 1.13096945e-002
      2.23185122e-002 9.73416716e-002 2.38986254e-001 2.66438663e-001
      2.66438663e-001 2.20870227e-001 3.70177925e-002 1.92055497e-002
      3.07206418e-002 2.41230838e-002 1.67207062e-001 2.66438663e-001
      2.66438663e-001 2.58765042e-001 1.07765183e-001 2.49109328e-001
      5.92982993e-002 6.08864725e-002 3.66033353e-002 1.00025371e-001
      6.56308606e-002 2.35178396e-001 2.66438663e-001 2.66438663e-001
      2.18975574e-001 6.72846660e-002 6.63207248e-002 3.14039923e-002
      3.60555425e-002 1.13790624e-001 2.22473279e-001 2.29867622e-001
      2.29867622e-001 2.26699933e-001 2.10633025e-001 2.15092644e-001
      6.11404069e-002 6.05197251e-002 1.28384233e-001 1.87624753e-001
      1.94610611e-001 2.01786488e-001 2.29867622e-001 1.43337056e-001
      9.36175957e-002 4.72559296e-002 4.50471826e-002 2.41039060e-002
      7.38593340e-002 2.08529994e-001 2.29867622e-001 2.29867622e-001
      2.29867622e-001 1.95581526e-001 6.03146702e-002 2.27060959e-001
      1.49540886e-001 1.27365693e-001 1.06762469e-001 2.29867622e-001
      1.43062428e-001 1.70422778e-001 1.84979156e-001 4.91368361e-002
      5.33363484e-002 7.72328898e-002 8.65600929e-002 1.37689278e-001
      2.15992644e-001 1.30998716e-001 1.52839169e-001 1.31985769e-001
      1.23421848e-001 8.89924765e-002 1.14438877e-001 1.77549124e-001
      1.50556222e-001 2.15992644e-001 2.15992644e-001 2.15992644e-001
      1.62670210e-001 4.41847704e-002 2.09169418e-001 1.67407721e-001
      1.49161622e-001 1.30620092e-001 2.15992644e-001 2.15992644e-001
      2.15992644e-001 2.15992644e-001 1.74816146e-001 1.83787376e-001
      1.96853772e-001 2.15992644e-001 1.37613252e-001 2.15992644e-001</_>
    <_>
      3.57810780e-002 3.07914503e-002 1.06372103e-001 2.74616271e-001
      2.74616271e-001 1.86876118e-001 6.46018460e-002 3.97429690e-002
      3.31100002e-002 5.78964762e-002 7.05344230e-002 9.30256993e-002
      1.38301983e-001 1.67759493e-001 9.06996876e-002 1.91163376e-001
      1.27677500e-001 6.92534819e-002 1.16065852e-001 9.31427404e-002
      1.81961849e-001 2.74616271e-001 2.74616271e-001 2.74616271e-001
      4.69015986e-002 3.35758105e-002 8.09309930e-002 2.67142564e-001
      2.32464105e-001 2.47226983e-001 2.32872486e-001 2.74616271e-001
      1.35493189e-001 6.72548264e-002 5.93821146e-002 1.64436474e-001
      4.77558300e-002 5.45496382e-002 4.68046851e-002 1.26416773e-001
      2.21591115e-001 1.04690410e-001 7.81527236e-002 6.26325682e-002
      3.25146355e-002 6.77677840e-002 1.03575729e-001 1.75943539e-001
      3.18339169e-001 3.18339169e-001 3.18339169e-001 7.89152309e-002
      5.92959821e-002 8.38593617e-002 1.05208956e-001 8.76941830e-002
      1.02459721e-001 1.61995307e-001 2.47914359e-001 1.28752872e-001
      2.93402281e-002 3.39931250e-002 8.64122063e-002 2.94917207e-002
      2.42798179e-002 2.41770700e-001 3.18339169e-001 3.18339169e-001
      3.18339169e-001 1.48718297e-001 6.23554960e-002 4.70020697e-002
      8.13097730e-002 9.44414958e-002 2.16286436e-001 2.50313193e-001
