<?xml version="1.0"?>
<opencv_storage>
<my_svm type_id="opencv-ml-svm">
  <svm_type>C_SVC</svm_type>
  <kernel><type>RBF</type>
    <gamma>8.9999999999999997e-002</gamma></kernel>
  <C>10.</C>
  <term_criteria><epsilon>1.1920928955078125e-007</epsilon>
    <iterations>2147483647</iterations></term_criteria>
  <var_all>36</var_all>
  <var_count>36</var_count>
  <class_count>2</class_count>
  <class_labels type_id="opencv-matrix">
    <rows>1</rows>
    <cols>2</cols>
    <dt>i</dt>
    <data>
      0 1</data></class_labels>
  <sv_total>1197</sv_total>
  <support_vectors>
    <_>
      8.44021961e-002 1.51180059e-001 2.44733930e-001 2.44733930e-001
      2.10737586e-001 1.57192975e-001 1.99957043e-002 3.48766930e-002
      4.06344347e-002 9.07878429e-002 1.57091558e-001 2.44733930e-001
      1.42733172e-001 1.23822279e-001 1.30685925e-001 5.56738228e-002
      5.28851077e-002 4.64423187e-002 2.44733930e-001 2.44733930e-001
      2.44733930e-001 2.44733930e-001 1.78831160e-001 1.37693077e-001
      9.89159197e-002 1.05018094e-001 1.10601708e-001 2.12817892e-001
      2.44733930e-001 2.35911623e-001 1.40427008e-001 1.04779534e-001
      9.62717980e-002 1.60220638e-001 2.39858806e-001 1.19045645e-001</_>
    <_>
      1.09503001e-001 1.90498084e-001 2.06583619e-001 1.91378191e-001
      2.18086675e-001 1.65453285e-001 1.13753319e-001 1.16103366e-001
      6.86644539e-002 1.27822772e-001 1.90320641e-001 2.18086675e-001
      2.05970138e-001 1.79271802e-001 1.38010219e-001 8.33014250e-002
      4.16256338e-002 8.30199942e-002 1.99294955e-001 1.10002458e-001
      1.49706364e-001 2.18086675e-001 2.18086675e-001 1.43276840e-001
      1.27465770e-001 1.05309546e-001 1.64037719e-001 2.18086675e-001
      1.49899080e-001 2.18086675e-001 2.18086675e-001 1.92288890e-001
      1.27029866e-001 1.63982898e-001 1.69671074e-001 1.91824183e-001</_>
    <_>
      1.57830983e-001 1.90097228e-001 2.21379265e-001 1.20577812e-001
      2.16625080e-001 2.07291678e-001 1.45676866e-001 7.96210989e-002
      1.43477008e-001 5.47411330e-002 1.32835865e-001 1.47650957e-001
      1.72356099e-001 2.30320811e-001 2.30320811e-001 2.30320811e-001
      9.67638865e-002 8.99329111e-002 1.32207632e-001 1.21344090e-001
      1.22031048e-001 1.49815068e-001 1.72919095e-001 1.23381928e-001
      1.64532155e-001 1.22334085e-001 1.49154127e-001 1.37483150e-001
      2.30320811e-001 2.30320811e-001 2.30320811e-001 2.30320811e-001
      1.85230091e-001 1.37774050e-001 1.08444929e-001 1.05945967e-001</_>
    <_>
      1.29015103e-001 1.09081142e-001 1.25275478e-001 1.03316739e-001
      1.36526480e-001 1.21591069e-001 1.00639507e-001 1.04901664e-001
      1.10010184e-001 8.86232331e-002 8.97403359e-002 1.28794327e-001
      1.65713415e-001 2.31745824e-001 2.31745824e-001 2.31745824e-001
      1.94899306e-001 1.09446496e-001 1.57586202e-001 1.08335637e-001
      1.53603315e-001 2.31745824e-001 2.31745824e-001 1.41407043e-001
      2.31745824e-001 2.31745824e-001 1.83884665e-001 1.08982526e-001
      1.15506232e-001 2.31745824e-001 2.31745824e-001 2.31745824e-001
      1.92204744e-001 1.58308253e-001 1.56488895e-001 5.87037019e-002</_>
    <_>
      2.13222787e-001 2.13222787e-001 2.13222787e-001 1.67192221e-001
      2.13222787e-001 1.72569975e-001 8.03767741e-002 9.61530581e-002
      1.25217766e-001 1.89479724e-001 1.46997109e-001 1.78270489e-001
      1.38779163e-001 2.13222787e-001 1.85554400e-001 1.87960401e-001
      1.16197743e-001 1.19435340e-001 2.09257200e-001 1.95361823e-001
      1.80146396e-001 5.34812175e-002 1.12477832e-001 1.25733063e-001
      1.22535728e-001 2.03518033e-001 2.01931864e-001 1.53637230e-001
      2.10651726e-001 1.75078824e-001 8.46187472e-002 1.57009438e-001
      1.37802869e-001 1.51675686e-001 1.32754430e-001 2.05795899e-001</_>
    <_>
      2.11888894e-001 1.36667281e-001 2.12653086e-001 1.67202681e-001
      1.71515927e-001 1.42781794e-001 1.30799159e-001 1.78234324e-001
      1.19081989e-001 1.72543675e-001 7.81099424e-002 1.73139006e-001
      1.49359211e-001 2.14379624e-001 1.17873572e-001 1.13541633e-001
      1.30382121e-001 7.21925423e-002 1.32227018e-001 1.28799245e-001
      2.14379624e-001 2.03253001e-001 2.14379624e-001 1.96583211e-001
      2.14379624e-001 2.14379624e-001 2.11483136e-001 1.16231427e-001
      1.02465935e-001 2.08300576e-001 1.44544169e-001 1.90202907e-001
      1.59909710e-001 1.62550256e-001 1.71309322e-001 1.29350752e-001</_>
    <_>
      8.85559916e-002 1.58514440e-001 5.39071485e-002 8.65582004e-002
      2.44009659e-001 1.55361921e-001 1.00639090e-001 8.53860006e-002
      4.47281413e-002 1.65715039e-001 1.67713270e-001 7.09627047e-002
      1.35425836e-001 2.44009659e-001 2.44009659e-001 1.97187051e-001
      1.31164581e-001 1.37537464e-001 1.48246273e-001 1.37467399e-001
      5.99291138e-002 9.90223512e-002 2.27665111e-001 1.73876569e-001
      2.16781601e-001 1.63591087e-001 1.50340274e-001 1.89092696e-001
      1.06323592e-001 5.30324802e-002 1.12082303e-001 2.11550444e-001
      2.44009659e-001 2.44009659e-001 2.44009659e-001 2.44009659e-001</_>
    <_>
      1.28377259e-001 1.89399883e-001 9.33240578e-002 1.24986947e-001
      2.38620982e-001 1.00423545e-001 7.05254748e-002 6.37175366e-002
      2.74489950e-002 1.74688458e-001 1.54573753e-001 1.17717884e-001
      1.09659672e-001 1.86950341e-001 5.27931042e-002 1.23529457e-001
      1.32987544e-001 1.21483050e-001 2.38620982e-001 2.38620982e-001
      1.67078882e-001 1.25952229e-001 2.38620982e-001 1.56818435e-001
      1.37222141e-001 2.24126011e-001 1.78891107e-001 2.38620982e-001
      2.38620982e-001 1.57697260e-001 6.86335340e-002 1.32812053e-001
      7.88203180e-002 2.38620982e-001 2.38620982e-001 2.38620982e-001</_>
    <_>
      1.24958627e-001 1.62094474e-001 2.11869627e-001 9.04859751e-002
      1.88435301e-001 2.30698377e-001 8.74193087e-002 9.47209895e-002
      1.26745835e-001 5.31787127e-002 8.35553706e-002 2.10375160e-001
      1.82456225e-001 2.30698377e-001 2.30698377e-001 2.30698377e-001
      6.51032850e-002 4.71710078e-002 2.06765249e-001 6.85480535e-002
      1.20754033e-001 6.49474338e-002 2.16227248e-001 2.30698377e-001
      1.88979477e-001 1.16443217e-001 2.14119226e-001 8.57109949e-002
      2.17462461e-002 2.30698377e-001 2.30698377e-001 2.30698377e-001
      2.30698377e-001 1.80226550e-001 7.63802826e-002 8.64078030e-002</_>
    <_>
      1.39337376e-001 1.78635076e-001 1.27813995e-001 2.12030336e-001
      1.76216841e-001 7.48853311e-002 5.62301315e-002 6.73980489e-002
      9.35072452e-002 1.10828415e-001 1.50809124e-001 2.10925937e-001
      2.27798790e-001 1.92580909e-001 9.54090953e-002 1.14617854e-001
      1.69328034e-001 1.71044588e-001 1.97053656e-001 2.34430224e-001
      1.90691054e-001 1.82890758e-001 2.34430224e-001 5.77468313e-002
      1.24518543e-001 7.19465986e-002 1.40829235e-001 2.34430224e-001
      2.34430224e-001 2.34430224e-001 1.19828612e-001 2.30311692e-001
      1.11528367e-001 1.45877138e-001 1.82941839e-001 1.46283180e-001</_>
    <_>
      6.66044205e-002 7.66033381e-002 1.88377991e-001 1.82592943e-001
      2.15504616e-001 1.76640049e-001 2.22432017e-001 1.74768910e-001
      1.47101983e-001 1.51449993e-001 1.66564077e-001 2.22432017e-001
      2.22432017e-001 1.98564485e-001 1.46924391e-001 7.77526721e-002
      6.33352250e-002 9.80939567e-002 5.59540689e-002 9.43147689e-002
      1.57152951e-001 1.64572895e-001 2.22432017e-001 2.22432017e-001
      2.13778108e-001 1.29554316e-001 1.31502077e-001 6.24721721e-002
      1.52087018e-001 2.22432017e-001 2.22432017e-001 2.22432017e-001
      2.22432017e-001 1.10822670e-001 1.11804485e-001 1.29459605e-001</_>
    <_>
      1.03640713e-001 1.46241263e-001 2.28388339e-001 1.84350729e-001
      1.76927507e-001 1.18734747e-001 1.37967482e-001 1.98277429e-001
      9.75847691e-002 5.03045507e-002 8.79986137e-002 2.28388339e-001
      2.28388339e-001 2.20304206e-001 1.67759985e-001 1.09829396e-001
      1.96716607e-001 8.92624855e-002 4.61603031e-002 1.20971575e-001
      1.74584240e-001 2.10568964e-001 2.28388339e-001 1.96886122e-001
      1.22740932e-001 2.09951475e-001 1.24104425e-001 3.45473848e-002
      8.55527297e-002 1.83733761e-001 2.28388339e-001 2.28388339e-001
      2.11161107e-001 1.46205604e-001 1.46727279e-001 1.58192590e-001</_>
    <_>
      1.03454046e-001 1.69323355e-001 1.09592788e-001 1.69934168e-001
      2.06848651e-001 1.80266291e-001 1.63693264e-001 1.08473323e-001
      4.29146662e-002 1.29981995e-001 1.29253566e-001 1.30604208e-001
      1.85117140e-001 2.34780714e-001 2.34780714e-001 1.83959454e-001
      7.17421845e-002 3.17960791e-002 1.18304662e-001 2.20908538e-001
      1.55300587e-001 1.27850875e-001 2.11659372e-001 1.92943886e-001
      2.34780714e-001 1.55929998e-001 1.30528092e-001 1.02050439e-001
      2.24583909e-001 1.21962659e-001 1.77919254e-001 2.34780714e-001
      2.34780714e-001 2.34780714e-001 9.12173837e-002 6.08705431e-002</_>
    <_>
      1.17083460e-001 1.17808685e-001 1.83212370e-001 2.21930906e-001
      2.21930906e-001 1.49807960e-001 1.28120065e-001 7.11236298e-002
      5.26985005e-002 1.03036270e-001 8.85635540e-002 9.06812549e-002
      2.21930906e-001 2.09879652e-001 2.21930906e-001 2.10039884e-001
      1.17382981e-001 6.48186728e-002 1.64546475e-001 1.96768150e-001
      2.21930906e-001 1.92944214e-001 2.21930906e-001 2.05379248e-001
      2.12418824e-001 9.03375670e-002 6.83247522e-002 1.22881748e-001
      7.07124844e-002 9.03665125e-002 1.47618592e-001 1.96631551e-001
      2.21930906e-001 2.21930906e-001 2.01550663e-001 1.74877882e-001</_>
    <_>
      1.56271100e-001 6.70452341e-002 1.04713827e-001 1.90677166e-001
      2.26958305e-001 1.81001812e-001 1.30960152e-001 1.22127682e-001
      1.98908910e-001 1.58159837e-001 5.14649376e-002 1.23244509e-001
      2.26958305e-001 2.26958305e-001 1.35346070e-001 9.70355645e-002
      1.21461965e-001 1.36001840e-001 1.90093175e-001 5.56967035e-002
      1.04395762e-001 1.36931747e-001 2.19049692e-001 1.54386014e-001
      1.86642542e-001 2.26958305e-001 2.26958305e-001 1.92556411e-001
      4.35798019e-002 8.53263736e-002 1.58042803e-001 2.26958305e-001
      1.63950756e-001 1.65920109e-001 2.26958305e-001 2.26958305e-001</_>
    <_>
      2.21326038e-001 2.07350001e-001 1.63096666e-001 1.56955928e-001
      2.00261414e-001 1.33275717e-001 1.06216244e-001 4.65247147e-002
      1.57237038e-001 2.21326038e-001 2.14380294e-001 1.38750434e-001
      1.52410477e-001 2.21326038e-001 1.51196912e-001 8.18414986e-002
      4.17050309e-002 1.52191877e-001 2.20785707e-001 1.31571352e-001
      1.42805949e-001 2.08250239e-001 2.21326038e-001 2.05037266e-001
      1.33085236e-001 7.70516247e-002 1.89804167e-001 1.54088855e-001
      1.24830648e-001 1.09649144e-001 1.60224706e-001 2.21326038e-001
      2.21326038e-001 1.45977348e-001 6.91451132e-002 1.89908251e-001</_>
    <_>
      1.17790133e-001 1.04151413e-001 1.84301093e-001 2.01291665e-001
      2.52535582e-001 2.15798944e-001 8.93408582e-002 1.43788770e-001
      1.57713130e-001 1.06942460e-001 3.24470997e-002 9.40541029e-002
      2.37432420e-001 2.52535582e-001 1.62600890e-001 7.02607557e-002
      7.19453543e-002 1.01702578e-001 2.52535582e-001 1.25443131e-001
      1.47679090e-001 1.22009002e-001 2.52535582e-001 1.63130060e-001
      5.66961616e-002 1.25671878e-001 2.52535582e-001 1.32161394e-001
      9.02638435e-002 9.77471098e-002 1.48036987e-001 2.52535582e-001
      2.52535582e-001 1.21813953e-001 7.74721354e-002 2.26207465e-001</_>
    <_>
      2.51243979e-001 1.17511384e-001 5.47547974e-002 1.55862674e-001
      2.51660526e-001 1.19368963e-001 1.36361495e-001 1.08918011e-001
      2.14024767e-001 1.65628597e-001 6.24453872e-002 1.06265880e-001
      2.51660526e-001 2.51660526e-001 1.37371838e-001 8.80399421e-002
      6.84078261e-002 1.02720931e-001 1.90414250e-001 1.56792864e-001
      9.48027223e-002 2.36985698e-001 2.51660526e-001 2.35873774e-001
      1.96445823e-001 1.21338569e-001 1.25635475e-001 1.33787319e-001
      8.47407281e-002 7.31242001e-002 1.63581803e-001 2.51660526e-001
      2.51660526e-001 1.05459370e-001 4.27505970e-002 1.31948903e-001</_>
    <_>
      1.64920419e-001 4.16672789e-002 4.02118415e-002 1.40301809e-001
      2.46566758e-001 1.70078829e-001 1.33142665e-001 8.54835659e-002
      1.43108845e-001 3.95637192e-002 4.49737087e-002 4.86814976e-002
      1.66393474e-001 2.46566758e-001 2.46566758e-001 9.25214887e-002
      9.69052389e-002 5.85172959e-002 2.46566758e-001 1.50101200e-001
      3.20563838e-002 1.35040849e-001 2.20063463e-001 1.57004759e-001
      1.93237975e-001 2.46566758e-001 2.45496571e-001 2.34340549e-001
      2.18873233e-001 6.82658851e-002 1.29146963e-001 2.46566758e-001
      2.46566758e-001 7.56655037e-002 1.69915617e-001 1.45029053e-001</_>
    <_>
      2.15319678e-001 2.50710875e-001 1.80300832e-001 1.58666253e-001
      2.10694551e-001 1.33166343e-001 2.98981182e-002 1.25812218e-001
      2.50710875e-001 1.18872188e-001 1.43856198e-001 7.17300698e-002
      2.50710875e-001 2.50710875e-001 1.23756185e-001 5.97917587e-002
      1.87014103e-001 1.93858266e-001 1.65001795e-001 9.10010934e-002
      1.42033458e-001 2.02307373e-001 2.50710875e-001 1.58992484e-001
      4.45761383e-002 3.88298631e-002 1.95275068e-001 7.10548908e-002
      1.21392317e-001 1.12880625e-001 2.50710875e-001 2.50710875e-001
      1.99306697e-001 5.90946898e-002 4.49161939e-002 4.37971950e-002</_>
    <_>
      9.06429663e-002 1.65365010e-001 2.19881684e-001 2.11098939e-001
      1.85693011e-001 1.85811922e-001 2.04018667e-001 9.07581151e-002
      7.30797350e-002 5.92020676e-002 1.43927351e-001 1.75679669e-001
      2.19881684e-001 2.16685608e-001 2.19881684e-001 1.47130966e-001
      8.72367173e-002 8.47656280e-002 1.14146262e-001 1.25918150e-001
      2.19881684e-001 1.69090599e-001 1.77337259e-001 2.19881684e-001
      2.19881684e-001 1.51756793e-001 1.48645997e-001 6.72257319e-002
      1.26456052e-001 2.13720202e-001 2.19881684e-001 2.07520321e-001
      1.85895711e-001 1.48134306e-001 1.07109539e-001 7.26533756e-002</_>
    <_>
      1.20971441e-001 1.32190034e-001 2.20876202e-001 2.06048459e-001
      1.50422052e-001 1.60585955e-001 2.20876202e-001 1.17186554e-001
      9.26549658e-002 5.85243627e-002 9.65365842e-002 1.26254693e-001
      1.71813384e-001 1.77468628e-001 2.20876202e-001 1.73599273e-001
      1.15461841e-001 5.57294413e-002 8.91215801e-002 9.92895812e-002
      2.19451636e-001 1.93033576e-001 1.97558671e-001 2.20876202e-001
      2.20876202e-001 2.10966080e-001 1.06140196e-001 1.03529036e-001
      1.09181613e-001 1.75128162e-001 2.20876202e-001 2.20876202e-001
      2.20876202e-001 1.91769585e-001 1.81578413e-001 6.96632192e-002</_>
    <_>
      1.07394047e-001 1.87070474e-001 1.15485027e-001 8.42870697e-002
      2.43336707e-001 1.75051093e-001 3.27597819e-002 7.22872391e-002
      1.98963936e-002 1.15392841e-001 1.96240723e-001 2.37567008e-001
      1.32647887e-001 2.43336707e-001 2.43336707e-001 1.03972293e-001
      1.60019085e-001 8.19527656e-002 1.43319920e-001 2.26181582e-001
      9.51374620e-002 6.55278340e-002 1.97642386e-001 1.49003208e-001
      1.04798220e-001 2.43336707e-001 8.63884315e-002 1.77008361e-001
      2.36959621e-001 2.43336707e-001 1.21911757e-001 1.86250418e-001
      1.84995264e-001 1.52921394e-001 2.08947003e-001 1.58589244e-001</_>
    <_>
      1.41361773e-001 1.17592432e-001 1.48885354e-001 2.21833572e-001
      2.21833572e-001 2.21833572e-001 9.59239602e-002 8.89221355e-002
      8.21761265e-002 1.77193671e-001 1.15120269e-001 1.53204232e-001
      1.96838170e-001 2.21833572e-001 1.63337842e-001 5.41605987e-002
      1.02148406e-001 1.07340172e-001 2.17485622e-001 1.01633959e-001
      1.29805624e-001 1.71581060e-001 2.20929042e-001 2.21833572e-001
      1.42604962e-001 1.79977700e-001 1.79420263e-001 1.48844913e-001
      7.98024163e-002 1.22047424e-001 1.39901072e-001 2.21833572e-001
      1.94974795e-001 1.72776446e-001 2.21833572e-001 2.15708241e-001</_>
    <_>
      1.50826901e-001 1.22491501e-001 9.73666236e-002 1.79326326e-001
      2.16575891e-001 1.74719766e-001 1.48459509e-001 7.44538605e-002
      1.28007680e-001 1.63520157e-001 1.92844436e-001 2.15373382e-001
      2.21903428e-001 2.11539373e-001 1.90655887e-001 1.46168873e-001
      5.57198338e-002 1.40740305e-001 2.21903428e-001 1.11230463e-001
      4.98010144e-002 1.11144140e-001 1.42999917e-001 1.95698902e-001
      1.77166417e-001 7.93787390e-002 2.02680662e-001 2.21903428e-001
      1.64503366e-001 1.41100258e-001 2.21903428e-001 2.00301766e-001
      2.21903428e-001 9.82652754e-002 1.04207739e-001 2.06799835e-001</_>
    <_>
      2.07841903e-001 1.98841706e-001 2.30278760e-001 2.30278760e-001
      2.30278760e-001 1.26340896e-001 1.42378718e-001 1.48189574e-001
      1.32406995e-001 2.22854689e-001 2.03332648e-001 1.37526900e-001
      7.72077143e-002 1.34407967e-001 1.09050356e-001 1.17020614e-001
      1.21364206e-001 1.50521249e-001 2.30278760e-001 6.95890933e-002
      1.35988042e-001 1.64671093e-001 2.06404865e-001 1.12802595e-001
      1.76019087e-001 2.30278760e-001 2.30278760e-001 2.30278760e-001
      1.09567128e-001 1.22438915e-001 9.72664654e-002 1.08428590e-001
      1.37732491e-001 1.23360015e-001 4.86600399e-002 2.22681299e-001</_>
    <_>
      1.21166714e-001 1.33655965e-001 1.08161330e-001 1.27867371e-001
      2.35238478e-001 2.35238478e-001 9.07262862e-002 4.40019853e-002
      5.07368855e-002 1.76863626e-001 1.04076721e-001 2.21851289e-001
      1.45303205e-001 2.35238478e-001 2.35238478e-001 1.85898826e-001
      7.06779882e-002 1.15940385e-001 5.32654971e-002 5.08366190e-002
      5.97771630e-002 1.12990722e-001 2.35238478e-001 2.35238478e-001
      2.35238478e-001 1.71215504e-001 1.21417955e-001 1.76525742e-001
      7.68246055e-002 1.78339869e-001 1.94452286e-001 2.35238478e-001
      2.35238478e-001 2.35238478e-001 1.10262804e-001 1.44378155e-001</_>
    <_>
      9.32616591e-002 1.41177058e-001 2.09930643e-001 2.35527620e-001
      2.35527620e-001 1.05732121e-001 5.99749759e-002 5.87129667e-002
      4.70193475e-002 1.20765552e-001 9.37258527e-002 2.35527620e-001
      2.35527620e-001 2.11944059e-001 1.73738539e-001 1.61550388e-001
      8.44148770e-002 1.56901687e-001 5.43890111e-002 4.88731600e-002
      8.91644955e-002 2.35527620e-001 2.35527620e-001 1.33404255e-001
      1.28345311e-001 1.67956322e-001 1.53878838e-001 1.26219526e-001
      8.31212625e-002 1.98165610e-001 2.35527620e-001 2.35527620e-001
      1.68219551e-001 2.35527620e-001 1.26525462e-001 2.07521409e-001</_>
    <_>
      1.85372218e-001 2.44485646e-001 1.47697195e-001 9.92069617e-002
      2.44485646e-001 1.64820299e-001 2.40303069e-001 1.28231332e-001
      6.15667142e-002 8.09396729e-002 1.21117711e-001 6.72394782e-002
      1.86609253e-001 2.44485646e-001 9.48188454e-002 7.94513077e-002
      9.33195725e-002 2.54354980e-002 1.82737678e-001 1.37409747e-001
      1.01032048e-001 1.05837770e-001 2.27136001e-001 2.38431439e-001
      2.44485646e-001 2.00375989e-001 1.67701587e-001 2.14778617e-001
      5.70974797e-002 2.16608737e-002 7.40031302e-002 1.77060291e-001
      1.44131958e-001 2.44485646e-001 1.57069832e-001 2.44485646e-001</_>
    <_>
      1.33129939e-001 1.48265496e-001 1.35720432e-001 1.38803735e-001
      2.30719000e-001 1.32771611e-001 1.84284315e-001 1.74803987e-001
      1.16510354e-001 2.30719000e-001 1.43288314e-001 9.27542821e-002
      1.19236633e-001 1.29571185e-001 7.66311884e-002 1.02488443e-001
      1.83358118e-001 2.30719000e-001 1.94523558e-001 1.10968925e-001
      8.85680094e-002 6.39031902e-002 1.79189429e-001 1.80721313e-001
      2.30719000e-001 2.30719000e-001 2.30719000e-001 2.30719000e-001
      2.22171560e-001 1.23877913e-001 6.56216517e-002 9.59529802e-002
      4.91312742e-002 1.66969910e-001 2.30719000e-001 2.30719000e-001</_>
    <_>
      1.49822652e-001 2.00534299e-001 1.10465817e-001 1.01679236e-001
      2.34244898e-001 1.42103866e-001 1.72419846e-001 1.78695634e-001
      1.24319136e-001 1.64096892e-001 1.11254044e-001 8.42026919e-002
      5.34440763e-002 2.06590220e-001 1.22868426e-001 1.66135371e-001
      1.28757730e-001 1.55416533e-001 1.78225771e-001 2.21220389e-001
      1.06069155e-001 1.75799653e-001 2.34244898e-001 2.00301170e-001
      1.83221355e-001 1.57941148e-001 6.61747828e-002 2.34244898e-001
      1.74174145e-001 7.99735710e-002 1.03425547e-001 2.34244898e-001
      1.21420458e-001 2.34244898e-001 2.26227656e-001 1.61885217e-001</_>
    <_>
      6.45272061e-002 1.49259493e-001 1.68617651e-001 1.77281097e-001
      2.27045417e-001 1.55852571e-001 8.90970677e-002 2.00739980e-001
      1.56205729e-001 1.39685676e-001 1.94108859e-001 2.22108319e-001
      1.12437509e-001 2.27045417e-001 9.10955891e-002 6.65968060e-002
      1.51461303e-001 2.16629356e-001 1.63519219e-001 1.79089814e-001
      2.03947321e-001 1.52782738e-001 2.27045417e-001 1.20832093e-001
      1.27228692e-001 2.20755234e-001 1.74567416e-001 1.94067255e-001
      1.35771915e-001 1.95034280e-001 1.28692180e-001 2.20042586e-001
      6.16124235e-002 9.52051803e-002 1.26600310e-001 1.90634727e-001</_>
    <_>
      2.13939548e-001 1.82733595e-001 1.13213807e-001 1.48086712e-001
      1.12051085e-001 5.48129007e-002 4.27491963e-002 1.34723663e-001
      1.29954547e-001 1.94134593e-001 1.18120946e-001 1.11527763e-001
      2.26302072e-001 2.26302072e-001 1.01314045e-001 4.09339704e-002
      2.26302072e-001 2.11454272e-001 2.26302072e-001 1.74555466e-001
      1.28327206e-001 1.17931329e-001 1.83499068e-001 1.24453709e-001
      8.64622220e-002 1.55272394e-001 1.91678673e-001 2.26302072e-001
      2.08590150e-001 1.34805515e-001 2.26302072e-001 2.04058796e-001
      1.27651677e-001 5.49622513e-002 2.26302072e-001 2.26302072e-001</_>
    <_>
      2.04997540e-001 1.49027810e-001 1.38467938e-001 1.42180368e-001
      2.14306310e-001 1.46424338e-001 1.12230636e-001 5.71939647e-002
      1.42187536e-001 1.82384297e-001 1.68129802e-001 2.03858450e-001
      1.38344616e-001 1.98570341e-001 6.36280701e-002 7.32185021e-002
      9.12158787e-002 1.98705450e-001 2.14306310e-001 1.24180511e-001
      1.78154692e-001 1.95071325e-001 2.14306310e-001 2.14306310e-001
      2.14306310e-001 1.66404873e-001 1.45998865e-001 1.98901594e-001
      1.74224764e-001 2.14306310e-001 1.77196011e-001 1.81770146e-001
      1.83763772e-001 1.34747639e-001 6.59789219e-002 1.31994739e-001</_>
    <_>
      1.25062048e-001 1.38098627e-001 2.13974997e-001 2.13974997e-001
      2.13974997e-001 1.94973052e-001 1.42419130e-001 1.00076549e-001
      2.03642055e-001 1.14716701e-001 5.43576293e-002 1.09835185e-001
      1.52838558e-001 1.68191686e-001 1.67921439e-001 2.13974997e-001
      1.67237505e-001 1.73942536e-001 1.87221065e-001 5.77515922e-002
      1.12802088e-001 1.58919275e-001 2.13974997e-001 1.66786894e-001
      1.38391912e-001 1.64358675e-001 2.13974997e-001 2.13974997e-001
      1.12634733e-001 8.41750801e-002 6.95105866e-002 2.13974997e-001
      1.52734235e-001 2.13974997e-001 1.89556032e-001 2.02080920e-001</_>
    <_>
      7.65762776e-002 9.10052508e-002 2.15413421e-001 2.26006076e-001
      2.26006076e-001 9.62387472e-002 1.52980626e-001 1.26685828e-001
      7.34127015e-002 1.06462047e-001 1.92650169e-001 1.54988095e-001
      1.12993032e-001 9.57570672e-002 1.59389496e-001 1.88843399e-001
      1.23762473e-001 8.93366784e-002 1.75408319e-001 2.21925005e-001
      2.11685523e-001 1.79163426e-001 2.26006076e-001 8.16595554e-002
      2.26006076e-001 2.08860248e-001 1.05355479e-001 2.26006076e-001
      2.26006076e-001 1.48365706e-001 4.01847735e-002 1.34365588e-001
      1.95400342e-001 2.26006076e-001 1.67645395e-001 1.43103123e-001</_>
    <_>
      9.69336852e-002 1.64242610e-001 1.40262052e-001 2.04979002e-001
      2.29857743e-001 1.74250230e-001 1.24116302e-001 6.58687577e-002
      7.17638955e-002 4.27679121e-002 1.27047837e-001 1.82201460e-001
      2.46304616e-001 2.46304616e-001 1.96884409e-001 1.27841711e-001
      3.71890664e-002 5.61013781e-002 1.28146768e-001 1.20387360e-001
      5.93971089e-002 2.20014036e-001 2.33586147e-001 2.46304616e-001
      2.06257507e-001 1.84410036e-001 1.04131930e-001 3.96954902e-002
      9.86240804e-002 7.14201108e-002 2.42723927e-001 2.46304616e-001
      2.46304616e-001 2.46304616e-001 1.25964105e-001 2.44019590e-002</_>
    <_>
      9.33893099e-002 1.53636262e-001 1.55258045e-001 1.20852448e-001
      2.17590854e-001 2.11342216e-001 2.01469153e-001 1.64258495e-001
      9.97927338e-002 6.32373095e-002 1.87385991e-001 2.17590854e-001
      2.17590854e-001 2.17590854e-001 1.44052804e-001 1.17989585e-001
      1.19947948e-001 5.73923104e-002 1.07630409e-001 9.33645517e-002
      1.47902191e-001 2.17590854e-001 2.17590854e-001 2.12858230e-001
      2.17590854e-001 1.43240884e-001 1.59638166e-001 8.71963128e-002
      6.77233413e-002 1.60558850e-001 2.17590854e-001 2.17590854e-001
      1.64582223e-001 2.17590854e-001 1.25905141e-001 1.58979475e-001</_>
    <_>
      6.78975582e-002 1.82593048e-001 2.27488756e-001 2.27488756e-001
      1.69687703e-001 1.83043003e-001 1.50161594e-001 1.35651991e-001
      6.51342422e-002 9.98914242e-002 1.32365912e-001 2.27488756e-001
      2.27488756e-001 2.27488756e-001 2.27488756e-001 1.95464879e-001
      1.38423517e-001 1.06937565e-001 9.85687822e-002 1.39891967e-001
      1.46753833e-001 2.27488756e-001 1.61033779e-001 1.28586635e-001
      9.34745073e-002 1.58092543e-001 9.89861339e-002 8.85878503e-002
      1.64034203e-001 2.27488756e-001 2.27488756e-001 2.27488756e-001
      1.84267998e-001 1.09281152e-001 8.84288922e-002 1.14812814e-001</_>
    <_>
      8.26945305e-002 1.40256166e-001 9.12355185e-002 1.23507477e-001
      1.55202359e-001 2.04008967e-001 1.42062679e-001 1.20572805e-001
      8.53928179e-002 9.75308940e-002 7.62046352e-002 1.08450815e-001
      1.61338553e-001 2.25701243e-001 2.25701243e-001 2.25701243e-001
      1.37905061e-001 8.26443508e-002 7.46424869e-002 1.44187599e-001
      1.65339366e-001 1.90611288e-001 1.86812326e-001 2.25701243e-001
      2.25701243e-001 2.08459511e-001 7.65856206e-002 1.25255525e-001
      1.66427612e-001 2.20560163e-001 2.25701243e-001 2.25701243e-001
      2.25701243e-001 2.25701243e-001 1.44619673e-001 1.23729520e-001</_>
    <_>
      1.15723893e-001 1.11880541e-001 1.66460961e-001 1.82079434e-001
      2.46173412e-001 1.35770231e-001 8.70410129e-002 4.95479032e-002
      6.78708479e-002 1.59161031e-001 1.80930704e-001 1.59999326e-001
      1.83148354e-001 2.46173412e-001 1.64577737e-001 7.29143471e-002
      1.04999863e-001 1.38398260e-001 1.57053277e-001 1.22242495e-001
      1.21882126e-001 2.01093644e-001 2.46173412e-001 2.46173412e-001
      1.46286517e-001 9.68960300e-002 1.74280345e-001 1.02713540e-001
      1.75711691e-001 1.36737645e-001 2.28684127e-001 2.46173412e-001
      2.46173412e-001 1.57982066e-001 1.24162532e-001 1.59494132e-001</_>
    <_>
      1.35221228e-001 8.81403387e-002 1.41662955e-001 2.42709190e-001
      2.42709190e-001 1.84423208e-001 1.29038781e-001 1.07646175e-001
      1.33676887e-001 1.21842824e-001 1.11721508e-001 1.38715178e-001
      2.42709190e-001 2.42709190e-001 1.98842406e-001 1.32655352e-001
      1.66467622e-001 8.47131535e-002 7.74678439e-002 5.92198558e-002
      1.03615791e-001 1.43795878e-001 2.42709190e-001 1.90773472e-001
      1.88870713e-001 1.27338588e-001 1.38100043e-001 1.66931450e-001
      1.24738358e-001 9.18069556e-002 1.70335919e-001 2.42709190e-001
      1.78609818e-001 1.92803830e-001 2.01437786e-001 2.01239496e-001</_>
    <_>
      1.30245119e-001 9.93056223e-002 1.46085262e-001 1.19378157e-001
      2.06630871e-001 1.68535039e-001 9.90093946e-002 1.53782353e-001
      1.46934882e-001 7.03197941e-002 1.46999076e-001 2.42055535e-001
      1.72789574e-001 2.42055535e-001 2.37412691e-001 1.46346226e-001
      1.46967486e-001 7.71116316e-002 1.25456169e-001 5.84203638e-002
      1.05656967e-001 1.36282995e-001 2.42055535e-001 2.42055535e-001
      1.13636762e-001 1.98947430e-001 1.77650616e-001 5.76480478e-002
      9.26119760e-002 2.42055535e-001 2.21911356e-001 2.42055535e-001
      2.42055535e-001 1.04555860e-001 1.52296826e-001 9.45234820e-002</_>
    <_>
      1.59698457e-001 1.78707659e-001 1.03993528e-001 2.38101244e-001
      2.10578427e-001 1.22563764e-001 1.01010501e-001 5.68569154e-002
      1.12465791e-001 8.29584152e-002 1.36000589e-001 1.03120737e-001
      2.38101244e-001 2.38101244e-001 1.92844406e-001 2.33709708e-001
      8.71418640e-002 5.16290478e-002 1.66989654e-001 1.61157385e-001
      9.81210619e-002 1.90162987e-001 2.22547710e-001 1.33628786e-001
      1.62847847e-001 1.15465604e-001 1.47932082e-001 8.92798379e-002
      1.62418932e-001 1.55449912e-001 2.38101244e-001 2.38101244e-001
      1.93336427e-001 2.38101244e-001 1.88719973e-001 7.35250562e-002</_>
    <_>
      1.22958057e-001 1.27157927e-001 1.02712601e-001 8.86743516e-002
      2.43417606e-001 1.11332923e-001 6.09628521e-002 5.65853640e-002
      7.07632750e-002 1.67843118e-001 2.11435109e-001 2.10570261e-001
      2.43417606e-001 2.43417606e-001 2.37323493e-001 7.95041621e-002
      4.90643494e-002 5.01856543e-002 2.40126535e-001 1.45272985e-001
      8.90299454e-002 8.62104446e-002 2.43417606e-001 1.61112472e-001
      1.03175573e-001 9.53376442e-002 1.51863456e-001 2.43417606e-001
      1.35181665e-001 1.57495335e-001 2.11434886e-001 2.43417606e-001
      2.43417606e-001 1.07626997e-001 1.99347153e-001 1.48361444e-001</_>
    <_>
      7.39025325e-002 8.67256969e-002 1.48635879e-001 2.22459257e-001
      2.11818412e-001 8.40262026e-002 9.42806154e-002 1.01241998e-001
      4.55138087e-002 8.99177119e-002 7.46618733e-002 1.82497129e-001
      1.54072195e-001 1.44126981e-001 5.39908893e-002 1.80305317e-001
      2.32146978e-001 1.04354896e-001 1.83977231e-001 2.43070304e-001
      2.45340466e-001 1.58016756e-001 2.32857153e-001 1.08048193e-001
      1.27541691e-001 1.96701273e-001 1.21093832e-001 1.67626396e-001
      2.25049287e-001 1.93020225e-001 1.58156231e-001 1.61815986e-001
      5.92021942e-002 2.45340466e-001 2.45340466e-001 2.08479062e-001</_>
    <_>
      1.13539211e-001 1.69351354e-001 2.20545053e-001 1.45046845e-001
      2.20545053e-001 1.43749207e-001 1.36853039e-001 1.12614185e-001
      7.81890228e-002 1.48303017e-001 1.36496395e-001 2.20545053e-001
      1.63122371e-001 1.61521971e-001 1.49821445e-001 2.00155079e-001
      9.04858187e-002 6.77387714e-002 1.43593416e-001 2.20545053e-001
      2.20545053e-001 1.35251924e-001 1.93124384e-001 1.41534746e-001
      1.87668532e-001 1.74356177e-001 1.05306119e-001 1.99451923e-001
      2.20545053e-001 2.20545053e-001 1.02542005e-001 2.20545053e-001
      1.30930334e-001 2.20545053e-001 1.24313273e-001 1.21598624e-001</_>
    <_>
      9.05514136e-002 1.45981610e-001 1.59263998e-001 1.36087999e-001
      1.54031888e-001 1.13415033e-001 2.18830824e-001 2.18830824e-001
      1.33907676e-001 9.82772335e-002 9.94386598e-002 2.02120900e-001
      1.24851234e-001 2.11195543e-001 8.18237886e-002 2.18830824e-001
      2.18830824e-001 1.68815538e-001 9.73398089e-002 1.40886575e-001
      1.54692441e-001 1.74181074e-001 2.18830824e-001 1.64666608e-001
      2.18830824e-001 1.69354081e-001 1.34940028e-001 8.19241107e-002
      1.10945396e-001 2.18830824e-001 1.69983879e-001 2.15443134e-001
      1.71152920e-001 2.18830824e-001 1.41361207e-001 1.72664493e-001</_>
    <_>
      1.78595290e-001 1.29223764e-001 4.32425588e-002 1.24003515e-001
      2.14656070e-001 1.59613311e-001 9.69323590e-002 1.58875600e-001
      1.51433170e-001 2.14656070e-001 6.65926188e-002 1.26994416e-001
      2.13779345e-001 1.71507686e-001 1.35371298e-001 1.43660873e-001
      1.31409064e-001 2.14656070e-001 1.78299338e-001 2.14656070e-001
      9.99656618e-002 1.63052589e-001 2.14656070e-001 2.14656070e-001
      1.08975835e-001 2.14656070e-001 1.08949572e-001 2.03356355e-001
      1.12939157e-001 1.19641781e-001 1.66048139e-001 2.14656070e-001
      2.14656070e-001 2.06215933e-001 1.68552652e-001 1.52693197e-001</_>
    <_>
      1.18490413e-001 1.84182972e-001 1.01327896e-001 2.01448902e-001
      2.15319976e-001 1.39107540e-001 9.15846154e-002 2.11411729e-001
      1.69439659e-001 1.50068372e-001 1.49130344e-001 1.79334030e-001
      2.15319976e-001 2.15319976e-001 1.44022182e-001 1.10758156e-001
      8.81442875e-002 1.94059521e-001 2.15319976e-001 1.38446286e-001
      1.21787123e-001 1.73585355e-001 2.15319976e-001 1.38841331e-001
      6.27912208e-002 1.28900409e-001 1.92518368e-001 2.15319976e-001
      1.36060297e-001 1.58643842e-001 1.39779970e-001 1.83659494e-001
      2.15319976e-001 1.65824994e-001 7.84488618e-002 2.15319976e-001</_>
    <_>
      7.41257593e-002 1.12462319e-001 2.19721273e-001 1.45695359e-001
      1.25332028e-001 1.32934004e-001 9.97879878e-002 8.72883201e-002
      8.18829387e-002 2.12697580e-001 2.16284797e-001 2.19721273e-001
      1.64298519e-001 1.77587211e-001 2.19721273e-001 1.41539752e-001
      1.53310940e-001 1.31842881e-001 1.77958027e-001 1.58906639e-001
      1.69130564e-001 9.73472223e-002 1.09681837e-001 5.85058182e-002
      2.03093156e-001 2.19721273e-001 2.19721273e-001 2.00346917e-001
      2.19396204e-001 2.19721273e-001 1.62484124e-001 1.95624262e-001
      1.56140819e-001 1.50231615e-001 1.55657291e-001 1.54316604e-001</_>
    <_>
      1.40417844e-001 1.16020508e-001 1.28699958e-001 8.64672810e-002
      1.77489758e-001 2.32891113e-001 1.74163744e-001 1.47499830e-001
      1.77131742e-001 6.42164424e-002 5.00783585e-002 9.15294811e-002
      1.81056604e-001 2.32891113e-001 2.32891113e-001 1.67419642e-001
      1.73294604e-001 1.28154308e-001 2.32891113e-001 7.92908892e-002
      1.31713480e-001 3.89121100e-002 1.44800261e-001 2.32891113e-001
      8.49548206e-002 8.74817893e-002 2.32891113e-001 1.95190206e-001
      6.28897846e-002 1.13720700e-001 1.28516689e-001 2.32891113e-001
      2.32891113e-001 1.74036264e-001 2.28666842e-001 2.32891113e-001</_>
    <_>
      1.00465395e-001 1.79047599e-001 1.61501542e-001 1.37224004e-001
      1.35115743e-001 2.34652847e-001 1.12575099e-001 2.35435311e-002
      3.74944918e-002 8.02073181e-002 1.22660309e-001 1.11043721e-001
      1.96846321e-001 2.37283021e-001 2.37283021e-001 1.61367014e-001
      1.79342777e-002 4.06896509e-002 2.13017985e-001 1.03719838e-001
      1.51131079e-001 1.24345221e-001 1.75440669e-001 2.37283021e-001
      2.13900134e-001 1.16306022e-001 2.37283021e-001 1.61158457e-001
      7.39810392e-002 1.07783526e-001 1.85148984e-001 2.37283021e-001
      2.37283021e-001 2.37283021e-001 9.88572836e-002 2.37283021e-001</_>
    <_>
      1.87328279e-001 1.63276806e-001 1.45123452e-001 1.41970292e-001
      2.24931002e-001 2.24931002e-001 6.11261576e-002 2.72960644e-002
      6.68034032e-002 1.68499783e-001 1.41329080e-001 2.24931002e-001
      2.09107921e-001 2.24931002e-001 1.71116486e-001 7.07764626e-002
      2.36857571e-002 6.49489462e-002 2.17634946e-001 2.18864813e-001
      1.93338126e-001 1.50183707e-001 2.24931002e-001 1.93967342e-001
      8.40899423e-002 5.62131815e-002 1.40741020e-001 1.47913620e-001
      2.04394251e-001 1.54948026e-001 1.61020830e-001 2.24931002e-001
      2.24931002e-001 2.24931002e-001 8.50337893e-002 7.89930671e-002</_>
    <_>
      1.28442675e-001 1.54910415e-001 2.38601074e-001 1.77003711e-001
      2.38601074e-001 1.11902103e-001 7.63472393e-002 6.88247308e-002
      7.21650720e-002 1.16018824e-001 9.60675031e-002 2.38601074e-001
      2.12672368e-001 2.38601074e-001 1.67079613e-001 7.98857883e-002
      7.84284696e-002 7.14084581e-002 1.90861791e-001 1.04002580e-001
      1.50006726e-001 9.41738561e-002 2.38601074e-001 1.82912052e-001
      1.74387664e-001 1.46500081e-001 2.38601074e-001 1.39941350e-001
      9.28015187e-002 2.36774802e-001 1.27713725e-001 2.38601074e-001
      2.38601074e-001 1.71149328e-001 9.42164958e-002 1.60938486e-001</_>
    <_>
      9.41061676e-002 1.82176933e-001 1.64309338e-001 1.41948596e-001
      2.43654713e-001 2.24750876e-001 1.24532074e-001 1.05044246e-001
      1.63130373e-001 6.74795061e-002 1.34305865e-001 7.54314736e-002
      1.31159842e-001 2.43654713e-001 2.43654713e-001 1.11383714e-001
      1.02268986e-001 6.87668696e-002 1.53812185e-001 1.31614462e-001
      6.19538687e-002 1.19986758e-001 2.43654713e-001 1.81795895e-001
      1.09159239e-001 1.36694565e-001 2.43654713e-001 1.25874296e-001
      6.23192452e-002 1.04425838e-002 1.16332434e-001 2.43654713e-001
      2.43654713e-001 2.43654713e-001 2.26924673e-001 2.21258521e-001</_>
    <_>
      5.47615625e-002 5.25765270e-002 2.02553377e-001 8.13256577e-002
      1.02082439e-001 1.28555447e-001 2.25245938e-001 2.04630256e-001
      9.93874297e-002 9.23524275e-002 1.47259578e-001 1.01291493e-001
      1.29082158e-001 1.84626013e-001 2.25245938e-001 2.25245938e-001
      2.25245938e-001 1.04953967e-001 6.55989349e-002 5.50827421e-002
      6.44844249e-002 4.46828678e-002 1.08831927e-001 1.81717172e-001
      2.25245938e-001 2.25245938e-001 1.67306378e-001 2.25245938e-001
      2.25245938e-001 1.32815048e-001 1.27642497e-001 2.00938299e-001
      2.25245938e-001 2.11319000e-001 2.25245938e-001 2.25245938e-001</_>
    <_>
      1.41247466e-001 2.26294115e-001 2.06404760e-001 1.61838248e-001
      1.10904567e-001 4.49550636e-002 7.09844530e-002 4.04766537e-002
      6.56421855e-002 1.86761484e-001 2.26294115e-001 1.81868404e-001
      2.26294115e-001 1.96319014e-001 1.31156579e-001 1.30637452e-001
      2.26294115e-001 2.15631545e-001 1.04787655e-001 2.22816944e-001
      2.26294115e-001 1.38380900e-001 1.16925433e-001 9.80867371e-002
      2.26294115e-001 5.77307753e-002 6.18527345e-002 1.10181212e-001
      2.26294115e-001 2.26294115e-001 2.26294115e-001 2.11098760e-001
      1.49518654e-001 1.12532541e-001 1.54025316e-001 9.93404686e-002</_>
    <_>
      7.16286451e-002 1.00365959e-001 1.45098224e-001 1.60254493e-001
      1.71455204e-001 2.13893458e-001 2.44596347e-001 1.48251340e-001
      7.84441605e-002 1.11868210e-001 1.23741105e-001 1.24662653e-001
      1.35710657e-001 2.44596347e-001 2.44596347e-001 2.44596347e-001
      2.44596347e-001 1.29480585e-001 8.61600190e-002 1.30690178e-002
      5.56334369e-002 1.13316007e-001 1.86751798e-001 1.33178994e-001
      2.43020028e-001 2.44596347e-001 1.51903152e-001 1.12763703e-001
      6.88868836e-002 4.80828919e-002 1.10491060e-001 1.80929169e-001
      1.50845587e-001 2.44596347e-001 2.44596347e-001 1.71525836e-001</_>
    <_>
      1.23517536e-001 2.40244016e-001 2.41306290e-001 1.42700657e-001
      1.15443572e-001 1.18326336e-001 1.34806797e-001 6.05970286e-002
      5.29978611e-002 9.43210348e-002 1.19474232e-001 1.53702021e-001
      1.07190147e-001 2.23485470e-001 2.41306290e-001 2.41306290e-001
      1.07934445e-001 6.32529184e-002 1.29508257e-001 1.35409966e-001
      1.21186987e-001 7.16910362e-002 1.25159144e-001 1.64934903e-001
      1.45596907e-001 1.31629616e-001 2.41306290e-001 2.41306290e-001
      1.83920890e-001 1.65324509e-001 9.36192423e-002 1.98626727e-001
      2.41306290e-001 2.41306290e-001 1.29825249e-001 2.41306290e-001</_>
    <_>
      1.26985252e-001 2.43691161e-001 2.27779418e-001 1.17556088e-001
      1.57779589e-001 8.88676122e-002 5.59599996e-002 2.64799669e-002
      7.08373114e-002 1.49249345e-001 2.43691161e-001 2.43691161e-001
      1.46256268e-001 1.64115772e-001 7.95444027e-002 4.40195985e-002
      7.78480992e-002 1.06983908e-001 7.92736262e-002 1.49223775e-001
      2.43691161e-001 2.35371381e-001 1.86512843e-001 1.67573333e-001
      1.68817714e-001 1.30302012e-001 8.65985677e-002 1.46493077e-001
      2.43691161e-001 2.43691161e-001 2.43691161e-001 2.43691161e-001
      1.34009153e-001 1.43820152e-001 1.56564802e-001 1.35007560e-001</_>
    <_>
      8.36237818e-002 1.09880574e-001 2.52845943e-001 1.28778383e-001
      1.21606760e-001 1.31903693e-001 4.00554650e-002 3.95375974e-002
      7.48011842e-002 2.61963278e-001 2.61963278e-001 2.61963278e-001
      1.77543163e-001 1.99625790e-001 2.44281113e-001 1.36166424e-001
      1.27275929e-001 1.71845064e-001 8.41381624e-002 1.05460532e-001
      1.95091635e-001 2.04738170e-001 1.09450489e-001 1.52937844e-001
      7.26602525e-002 8.56152624e-002 7.23324269e-002 1.95782781e-001
      2.61963278e-001 2.44294763e-001 2.30613798e-001 1.62771091e-001
      1.47853136e-001 1.13770992e-001 1.04753189e-001 1.10359140e-001</_>
    <_>
      6.17937185e-002 6.57486469e-002 5.82252890e-002 1.31104574e-001
      9.35126618e-002 1.75630614e-001 1.73749745e-001 9.61457938e-002
      6.89869747e-002 9.93215814e-002 9.51395109e-002 1.06195368e-001
      1.43850669e-001 1.40110940e-001 1.93913430e-001 2.08183393e-001
      2.47474536e-001 1.81150347e-001 8.15490857e-002 3.69982496e-002
      3.84814329e-002 1.46469072e-001 1.33831173e-001 1.32600591e-001
      2.76098639e-001 1.31001383e-001 8.84999037e-002 1.98574141e-001
      1.26471475e-001 1.36831641e-001 2.73119211e-001 2.17755094e-001
      1.89420894e-001 2.82513738e-001 2.82513738e-001 2.82513738e-001</_>
    <_>
      6.29957020e-002 1.03551611e-001 2.51256347e-001 1.97632134e-001
      2.51256347e-001 1.21136591e-001 9.80395600e-002 6.45767227e-002
      1.00707218e-001 1.41025573e-001 2.51256347e-001 2.51256347e-001
      2.51256347e-001 2.51256347e-001 1.00381181e-001 5.66765219e-002
      1.41214684e-001 2.51256347e-001 7.18511567e-002 5.82354665e-002
      1.02930203e-001 1.58064321e-001 2.51256347e-001 1.64037138e-001
      1.19289890e-001 5.74627444e-002 1.05833538e-001 1.82463288e-001
      4.85502034e-002 1.02283292e-001 2.01081201e-001 2.33197838e-001
      1.51045546e-001 7.13337287e-002 1.23495735e-001 2.51256347e-001</_>
    <_>
      9.11937580e-002 5.24290055e-002 9.69398618e-002 1.39591590e-001
      2.34841183e-001 1.41431153e-001 9.17891711e-002 4.61541042e-002
      5.80836125e-002 2.66316056e-001 1.12376139e-001 6.06854334e-002
      1.31837472e-001 2.07244962e-001 1.86791629e-001 9.82766226e-002
      3.81078012e-002 1.50711790e-001 1.06622823e-001 7.08013400e-002
      9.61220711e-002 1.18969724e-001 2.54209042e-001 2.09374219e-001
      2.66316056e-001 1.23516940e-001 7.99331814e-002 2.66316056e-001
      1.33898437e-001 5.33138029e-002 9.69236195e-002 2.66316056e-001
      2.66316056e-001 2.66316056e-001 2.66316056e-001 1.62587002e-001</_>
    <_>
      1.54704332e-001 1.26948670e-001 2.32064351e-001 2.32064351e-001
      1.91251040e-001 1.09061256e-001 1.01574413e-001 9.50151458e-002
      6.78861439e-002 2.09448978e-001 1.50321394e-001 1.39091924e-001
      1.34972692e-001 1.75935701e-001 8.63990411e-002 8.43455419e-002
      1.57358319e-001 1.57833055e-001 9.26717147e-002 9.69386324e-002
      1.31750613e-001 2.32064351e-001 2.13243350e-001 1.46993861e-001
      2.32064351e-001 2.32064351e-001 1.93609372e-001 2.32064351e-001
      1.15836777e-001 1.13624498e-001 1.77761644e-001 1.52630523e-001
      9.04560462e-002 1.60705462e-001 2.32064351e-001 2.32064351e-001</_>
    <_>
      1.57142580e-001 1.37115583e-001 1.17298834e-001 1.39620617e-001
      1.72746912e-001 2.09836617e-001 9.01272893e-002 1.25320300e-001
      7.66416192e-002 1.32337764e-001 1.61151677e-001 1.73854828e-001
      1.55076444e-001 1.05006017e-001 1.86285943e-001 2.15994284e-001
      1.74926147e-001 7.55727887e-002 2.05909446e-001 9.16595384e-002
      8.23798850e-002 1.10515907e-001 2.15994284e-001 2.15994284e-001
      2.08781421e-001 2.15994284e-001 1.24246813e-001 2.05595389e-001
      1.39943182e-001 2.15994284e-001 1.99573800e-001 1.48622632e-001
      2.15994284e-001 2.15994284e-001 1.64621860e-001 1.77335575e-001</_>
    <_>
      1.64718643e-001 1.73757702e-001 1.17039248e-001 1.49402559e-001
      1.85695589e-001 1.53282195e-001 1.38240159e-001 7.09750578e-002
      9.43216160e-002 2.09412321e-001 1.69209152e-001 9.12941024e-002
      1.20870247e-001 9.13831741e-002 1.05770499e-001 2.09412321e-001
      2.09412321e-001 1.49494290e-001 1.73533276e-001 6.24473095e-002
      1.23320282e-001 1.52826190e-001 2.09412321e-001 1.74324155e-001
      2.09412321e-001 1.38476446e-001 2.09412321e-001 2.09412321e-001
      9.50401127e-002 1.77034006e-001 2.09412321e-001 1.88559800e-001
      1.99045390e-001 2.09412321e-001 2.09412321e-001 2.09412321e-001</_>
    <_>
      6.28101751e-002 7.28527382e-002 2.21249387e-001 2.21249387e-001
      2.21249387e-001 1.36650622e-001 1.19153947e-001 6.40766546e-002
      6.38353974e-002 1.04601294e-001 1.03369750e-001 2.15062827e-001
      2.21249387e-001 2.21249387e-001 2.04017013e-001 1.53721571e-001
      1.55644491e-001 1.41787305e-001 9.04649794e-002 1.17962308e-001
      2.21249387e-001 1.86011076e-001 2.21249387e-001 1.17617294e-001
      1.48950413e-001 7.66692013e-002 8.95426124e-002 1.63403630e-001
      1.48768574e-001 2.21249387e-001 2.21249387e-001 1.59865320e-001
      1.70731202e-001 2.21249387e-001 1.46303475e-001 2.21249387e-001</_>
    <_>
      1.25514001e-001 1.17337286e-001 1.33481964e-001 1.26520917e-001
      2.25616455e-001 1.19307481e-001 1.77210987e-001 8.81000832e-002
      1.68457896e-001 1.94101095e-001 1.44572333e-001 2.25616455e-001
      1.82617366e-001 1.60410523e-001 1.11283757e-001 1.72492445e-001
      1.79031700e-001 1.50341257e-001 2.25616455e-001 1.33756042e-001
      1.01218849e-001 8.87820572e-002 2.23817125e-001 7.09857717e-002
      2.06434667e-001 1.70261532e-001 2.25616455e-001 2.25616455e-001
      2.25616455e-001 2.05319688e-001 9.09199193e-002 1.59323052e-001
      9.11741927e-002 1.13055930e-001 1.48980036e-001 2.25616455e-001</_>
    <_>
      6.81653172e-002 6.69158846e-002 1.19913749e-001 9.98867527e-002
      2.27834970e-001 1.85068265e-001 2.27834970e-001 1.01972379e-001
      6.79160729e-002 2.05689579e-001 1.40563160e-001 2.22910002e-001
      1.68684527e-001 1.38807818e-001 1.98368996e-001 2.00544238e-001
      1.35989979e-001 1.29653305e-001 8.19093436e-002 7.53995925e-002
      1.49598405e-001 1.67498782e-001 2.27834970e-001 2.27834970e-001
      2.27834970e-001 7.60319456e-002 6.13986105e-002 1.54518351e-001
      1.70094550e-001 1.52076766e-001 2.27834970e-001 2.27834970e-001
      2.27834970e-001 2.27834970e-001 1.21628158e-001 1.01704732e-001</_>
    <_>
      3.83353010e-002 1.83322340e-001 2.36925676e-001 1.82781294e-001
      2.09022790e-001 1.75011992e-001 9.99996588e-002 2.51811892e-002
      2.50316598e-002 3.26445960e-002 9.29612145e-002 2.36925676e-001
      2.36925676e-001 2.36925676e-001 2.05804467e-001 8.24768990e-002
      1.30938534e-002 2.34612226e-002 3.29989679e-002 8.20016786e-002
      1.71794921e-001 2.06412494e-001 2.36925676e-001 2.36925676e-001
      2.36925676e-001 8.36028829e-002 6.69646636e-002 6.61710948e-002
      2.05960110e-001 2.36925676e-001 2.05621660e-001 2.36925676e-001
      2.36925676e-001 1.64358854e-001 5.76405153e-002 1.08718403e-001</_>
    <_>
      5.04425094e-002 7.06028119e-002 2.37956211e-001 2.37956211e-001
      2.16025680e-001 1.81873783e-001 1.54600367e-001 7.54067823e-002
      2.94287931e-002 8.12208578e-002 4.63726521e-002 1.32091537e-001
      2.37956211e-001 2.37956211e-001 1.85208544e-001 2.37534568e-001
      1.82208076e-001 5.38211837e-002 2.62673013e-002 3.08147036e-002
      9.68028530e-002 1.87335029e-001 2.28922933e-001 2.10194692e-001
      2.37956211e-001 2.35202387e-001 5.14221638e-002 2.38776300e-002
      1.68717783e-002 7.44572580e-002 2.26664767e-001 2.37956211e-001
      2.37956211e-001 2.37956211e-001 1.14684284e-001 4.80326824e-002</_>
    <_>
      6.99816048e-002 1.12708487e-001 1.15319923e-001 2.02521235e-001
      2.15510115e-001 1.34039685e-001 1.42880306e-001 1.50226012e-001
      3.10323611e-002 1.07669450e-001 1.66188508e-001 2.15510115e-001
      2.04895318e-001 2.15510115e-001 1.11342944e-001 1.69805571e-001
      1.52454659e-001 3.06619797e-002 1.77157834e-001 1.90869063e-001
      1.07702844e-001 1.65394649e-001 2.06189111e-001 1.49668142e-001
      1.93393081e-001 2.15510115e-001 1.27640188e-001 1.65902585e-001
      2.08140865e-001 1.95286289e-001 1.76375166e-001 2.15510115e-001
      1.44319534e-001 2.15510115e-001 2.15510115e-001 7.74737671e-002</_>
    <_>
      1.19289152e-001 2.16241106e-001 2.02750772e-001 1.56491593e-001
      2.16241106e-001 9.91935953e-002 6.98642060e-002 1.15094922e-001
      9.91949290e-002 1.60691157e-001 2.09765553e-001 2.16241106e-001
      1.99414656e-001 2.09016636e-001 1.16654098e-001 1.57048047e-001
      1.87926412e-001 1.66134104e-001 1.79069713e-001 2.16241106e-001
      1.70480028e-001 5.43497056e-002 1.63790524e-001 9.71657336e-002
      6.81634471e-002 1.42963275e-001 1.36884823e-001 2.16241106e-001
      2.16241106e-001 2.16241106e-001 1.95810080e-001 1.68401793e-001
      9.46869403e-002 1.16579443e-001 1.52281433e-001 2.04439640e-001</_>
    <_>
      1.25670671e-001 1.11613840e-001 1.99011371e-001 2.19250038e-001
      2.19250038e-001 2.19250038e-001 9.51172039e-002 1.64805323e-001
      6.81367293e-002 1.04778096e-001 1.18403278e-001 1.16073444e-001
      1.93762317e-001 8.56819376e-002 9.00877565e-002 1.24818593e-001
      1.47918493e-001 4.81466465e-002 2.19250038e-001 1.80526137e-001
      1.28715277e-001 2.19250038e-001 2.19250038e-001 2.19250038e-001
      1.80257097e-001 2.19250038e-001 1.42458007e-001 2.19250038e-001
      2.19250038e-001 9.83537212e-002 1.68618172e-001 1.52502701e-001
      1.43795684e-001 2.04036146e-001 2.14279339e-001 7.49383792e-002</_>
    <_>
      8.52473825e-002 2.32148811e-001 2.32148811e-001 2.32148811e-001
      1.18974365e-001 1.08301751e-001 7.59319216e-002 5.39322421e-002
      4.45347913e-002 8.75690132e-002 1.56376436e-001 1.99495494e-001
      2.32148811e-001 1.43875062e-001 1.57484800e-001 8.33775774e-002
      8.62778351e-002 6.82773963e-002 1.69600472e-001 1.53093502e-001
      1.43353552e-001 2.24759206e-001 1.89844891e-001 2.32148811e-001
      2.32148811e-001 1.86351389e-001 1.47537127e-001 1.56368524e-001
      2.18329772e-001 1.39982685e-001 2.13859484e-001 1.19115725e-001
      2.32148811e-001 1.40353218e-001 1.47873357e-001 1.76441953e-001</_>
    <_>
      1.70322046e-001 1.25668794e-001 1.62149057e-001 8.33518803e-002
      1.22238129e-001 1.97590932e-001 1.63434654e-001 1.61357895e-001
      1.21696889e-001 1.93124861e-001 1.25199705e-001 1.01228915e-001
      7.84900263e-002 1.83401853e-001 1.67640552e-001 2.18882963e-001
      2.18882963e-001 1.37426972e-001 1.69503182e-001 1.63466245e-001
      1.00281440e-001 5.08321635e-002 1.42484039e-001 2.15759084e-001
      1.79173499e-001 1.86868548e-001 2.18882963e-001 2.18882963e-001
      2.18882963e-001 1.08636528e-001 1.05276734e-001 2.07411662e-001
      2.18882963e-001 2.18882963e-001 8.94793272e-002 1.92285091e-001</_>
    <_>
      1.30143330e-001 1.95532322e-001 1.57694384e-001 9.42112058e-002
      1.74848244e-001 1.67114809e-001 2.23679230e-001 1.53409287e-001
      9.61339176e-002 1.38145298e-001 1.08267963e-001 9.53436941e-002
      7.94554651e-002 1.59484014e-001 1.17873378e-001 1.93105444e-001
      1.83268726e-001 1.35477021e-001 2.16415301e-001 8.90730843e-002
      9.41334590e-002 5.32784350e-002 1.14124402e-001 2.23679230e-001
      2.23679230e-001 2.23679230e-001 2.23679230e-001 2.23679230e-001
      2.04836056e-001 1.64782897e-001 1.04962841e-001 1.72816023e-001
      1.49270415e-001 2.13783994e-001 1.87365144e-001 2.23679230e-001</_>
    <_>
      2.11173192e-001 1.72447518e-001 1.64373443e-001 1.99770465e-001
      1.34321466e-001 4.65302616e-002 9.22325775e-002 1.47162840e-001
      1.45455286e-001 1.61596000e-001 8.72818530e-002 2.15326816e-001
      2.15326816e-001 1.90694615e-001 8.70911330e-002 9.66789499e-002
      2.15217978e-001 2.15326816e-001 1.40812218e-001 1.90110639e-001
      1.72387019e-001 1.99077144e-001 1.33618817e-001 9.16694105e-002
      1.91506833e-001 1.37677923e-001 1.94409713e-001 1.58238202e-001
      2.15326816e-001 2.15326816e-001 1.72543839e-001 2.08302200e-001
      8.65923166e-002 1.14614531e-001 1.27764672e-001 1.99312001e-001</_>
    <_>
      1.49203897e-001 1.35062814e-001 2.01476872e-001 1.82911351e-001
      2.05371886e-001 1.20361485e-001 1.45682052e-001 1.43863320e-001
      1.07736401e-001 1.84505329e-001 1.89240038e-001 2.05371886e-001
      1.64446488e-001 1.82779655e-001 1.75690368e-001 1.77535102e-001
      1.70005471e-001 1.25193998e-001 7.29654059e-002 1.46775559e-001
      1.68392375e-001 1.74960271e-001 2.05371886e-001 1.09608129e-001
      1.14628069e-001 2.05371886e-001 1.57481343e-001 2.05371886e-001
      1.42168775e-001 2.00260133e-001 1.53953418e-001 1.80341646e-001
      1.14382289e-001 1.41714171e-001 1.98879704e-001 2.05371886e-001</_>
    <_>
      1.27984583e-001 1.97939917e-001 9.88152176e-002 8.61689597e-002
      2.07015470e-001 1.70261487e-001 1.58372089e-001 1.31803438e-001
      6.78450987e-002 1.72312513e-001 1.87194690e-001 1.20777495e-001
      8.39861855e-002 1.48607507e-001 1.62209094e-001 1.94428936e-001
      1.18595317e-001 1.96742490e-001 1.37815371e-001 1.55682459e-001
      1.65172219e-001 1.35534361e-001 2.07015470e-001 2.04274788e-001
      2.07015470e-001 1.55567765e-001 1.53904274e-001 1.47379264e-001
      1.75626755e-001 2.03787372e-001 1.93149447e-001 2.07015470e-001
      1.82672769e-001 2.07015470e-001 1.77249357e-001 1.86620727e-001</_>
    <_>
      9.37036201e-002 1.10888578e-001 1.71651378e-001 2.12636665e-001
      2.17682943e-001 1.83799759e-001 7.51243904e-002 5.56102693e-002
      1.35040894e-001 2.10440934e-001 1.26083866e-001 2.17682943e-001
      2.17682943e-001 2.14815259e-001 1.11787759e-001 1.11037374e-001
      1.34472534e-001 2.17682943e-001 1.20406926e-001 7.94861764e-002
      9.84194204e-002 1.92674816e-001 2.17682943e-001 2.08987057e-001
      1.71304420e-001 9.40136686e-002 9.24352482e-002 2.03181580e-001
      1.23341218e-001 1.83755457e-001 2.17682943e-001 2.17682943e-001
      2.10613623e-001 1.35579050e-001 1.40048459e-001 1.72429726e-001</_>
    <_>
      5.25675751e-002 2.39730343e-001 1.96782917e-001 1.00978859e-001
      1.27617225e-001 3.51379141e-002 9.86554008e-003 1.16773210e-002
      2.11776923e-002 1.69222906e-001 2.39934251e-001 2.39934251e-001
      2.39934251e-001 2.25530922e-001 6.08434677e-002 3.02072447e-002
      3.99381965e-002 7.75146484e-002 1.34966761e-001 2.36247659e-001
      2.39934251e-001 9.74625796e-002 2.39934251e-001 1.03193022e-001
      2.33555600e-001 5.76237366e-002 8.34470764e-002 2.39934251e-001
      2.39934251e-001 2.39934251e-001 1.31051242e-001 2.13385180e-001
      1.05212025e-001 1.48668438e-001 7.43089318e-002 2.39934251e-001</_>
    <_>
      8.20099339e-002 8.43861178e-002 1.50284857e-001 1.78427681e-001
      2.21708104e-001 1.90966785e-001 1.00142606e-001 5.78839518e-002
      1.13814399e-001 1.53926954e-001 1.31691545e-001 1.17122248e-001
      1.84427172e-001 2.16217875e-001 2.21708104e-001 1.64493918e-001
      1.06870905e-001 1.96554959e-001 1.62457764e-001 5.86270764e-002
      7.09348619e-002 2.13023722e-001 2.21708104e-001 2.21708104e-001
      1.70952380e-001 1.20170675e-001 1.14669763e-001 2.21708104e-001
      1.55520350e-001 1.22020900e-001 1.28096268e-001 2.21708104e-001
      2.21708104e-001 2.21708104e-001 1.38395235e-001 2.21708104e-001</_>
    <_>
      3.41252014e-002 9.55566317e-002 9.42975432e-002 5.30439392e-002
      2.05354258e-001 1.21146545e-001 3.07287816e-002 1.06717423e-001
      1.03812464e-001 2.14438930e-001 1.97377041e-001 2.32386321e-001
      7.04336464e-002 1.79636911e-001 1.39497042e-001 3.87785658e-002
      2.57308751e-001 2.57308751e-001 3.68906446e-002 9.13596153e-002
      1.48152009e-001 1.16926126e-001 2.20393822e-001 1.48811877e-001
      9.69470143e-002 9.84074920e-002 1.04026899e-001 2.57308751e-001
      2.42741242e-001 2.11300358e-001 1.96888641e-001 1.75801933e-001
      1.72497839e-001 1.35439128e-001 2.57308751e-001 2.57308751e-001</_>
    <_>
      1.35475099e-001 1.58466727e-001 1.89344302e-001 1.71320036e-001
      2.21883178e-001 9.93220657e-002 8.42346624e-002 3.83021943e-002
      9.89682525e-002 1.32763281e-001 1.00369766e-001 1.64245158e-001
      2.35476241e-001 2.35476241e-001 9.51837897e-002 1.84252918e-001
      9.60714668e-002 1.31824881e-001 7.06661195e-002 4.76139523e-002
      1.62004307e-001 1.66705981e-001 2.35476241e-001 1.63693413e-001
      2.35476241e-001 1.39163822e-001 1.42177194e-001 1.25031680e-001
      6.49850816e-002 2.35476241e-001 2.35476241e-001 2.35476241e-001
      2.35476241e-001 2.35476241e-001 1.48316890e-001 1.36612847e-001</_>
    <_>
      1.09768786e-001 1.13609292e-001 2.29975820e-001 1.47257209e-001
      2.29975820e-001 1.64931059e-001 1.46570057e-001 4.61552925e-002
      5.30753732e-002 1.10295974e-001 1.21428832e-001 2.29975820e-001
      2.02204913e-001 2.29975820e-001 2.29975820e-001 2.27998555e-001
      5.70211709e-002 9.37404335e-002 1.20543852e-001 4.62279469e-002
      8.97228941e-002 9.65096653e-002 2.24094525e-001 1.91125184e-001
      2.07697347e-001 2.04255447e-001 1.58367485e-001 1.56095326e-001
      1.11904360e-001 2.12943703e-001 9.31860283e-002 2.29975820e-001
      2.29975820e-001 1.76689580e-001 1.21189222e-001 1.66870564e-001</_>
    <_>
      9.41896588e-002 8.75517875e-002 8.36719498e-002 1.27756104e-001
      1.87498003e-001 1.06959775e-001 1.31985962e-001 8.81301537e-002
      3.44540477e-002 2.54374444e-001 2.54374444e-001 1.15542680e-001
      1.53005555e-001 1.41212329e-001 1.71960801e-001 1.89393818e-001
      2.20621422e-001 2.54374444e-001 1.18447900e-001 1.18766852e-001
      3.01288683e-002 1.46763042e-001 2.54374444e-001 5.91782667e-002
      9.60497782e-002 1.03906728e-001 3.90723497e-002 2.54374444e-001
      2.54374444e-001 3.64436060e-002 1.80271983e-001 2.19947711e-001
      7.88057372e-002 2.54374444e-001 2.21955836e-001 2.18073770e-001</_>
    <_>
      7.56928772e-002 2.15851903e-001 1.83295220e-001 1.71096697e-001
      1.68085024e-001 1.44987717e-001 8.79886225e-002 1.61874428e-001
      7.81734735e-002 2.15851903e-001 1.84996948e-001 1.37928486e-001
      1.60253644e-001 1.59192368e-001 8.20042789e-002 1.14113025e-001
      1.44842759e-001 1.75475687e-001 1.18466064e-001 1.68085366e-001
      1.21947505e-001 1.38913944e-001 1.96329519e-001 2.15851903e-001
      2.15851903e-001 2.15851903e-001 9.96535271e-002 2.15851903e-001
      1.92265481e-001 1.28576383e-001 1.98451787e-001 2.15851903e-001
      1.40938640e-001 1.44621074e-001 2.15851903e-001 1.81093007e-001</_>
    <_>
      2.09127143e-001 1.27562076e-001 1.69398144e-001 1.92925587e-001
      2.21315861e-001 1.53519630e-001 1.00918353e-001 4.77972403e-002
      6.60363287e-002 2.21315861e-001 1.24096066e-001 1.50539830e-001
      1.65677652e-001 2.21315861e-001 1.66303575e-001 1.02187775e-001
      6.64015487e-002 6.12803102e-002 2.21315861e-001 1.59658089e-001
      2.06089333e-001 2.21315861e-001 2.21315861e-001 1.31519794e-001
      1.44193918e-001 1.20557435e-001 1.76071540e-001 1.87797323e-001
      1.41748935e-001 1.70562476e-001 1.99540898e-001 2.21315861e-001
      1.61656067e-001 2.21315861e-001 1.30215734e-001 9.43472832e-002</_>
    <_>
      8.76927152e-002 2.03567103e-001 2.06383809e-001 2.12343007e-001
      1.67120337e-001 1.30310073e-001 1.18356429e-001 1.64401621e-001
      9.88202915e-002 1.63708910e-001 1.87827349e-001 1.31569847e-001
      1.35183066e-001 1.81350738e-001 1.68547511e-001 1.06422871e-001
      1.70755297e-001 2.12343007e-001 1.05636768e-001 1.88080221e-001
      9.85757709e-002 1.42951980e-001 1.87511295e-001 1.88939944e-001
      2.11218640e-001 2.12343007e-001 8.33150744e-002 2.06859678e-001
      1.59193248e-001 1.30353779e-001 8.74470621e-002 1.87356904e-001
      1.83804259e-001 1.57454669e-001 2.12343007e-001 2.12343007e-001</_>
    <_>
      1.18961774e-001 1.78080216e-001 1.55479461e-001 8.91325325e-002
      1.28438577e-001 9.49338451e-002 8.47271383e-002 1.08516090e-001
      1.12697393e-001 1.57193989e-001 2.08536953e-001 1.07351415e-001
      8.01886097e-002 2.24225178e-001 1.10198341e-001 2.36686617e-001
      2.36686617e-001 2.36686617e-001 2.36686617e-001 1.50385201e-001
      1.22191019e-001 1.06459945e-001 1.54990986e-001 1.27415240e-001
      7.17458054e-002 1.12191156e-001 2.36686617e-001 2.36686617e-001
      2.36686617e-001 2.02218622e-001 7.53296390e-002 1.52679011e-001
      7.87845477e-002 1.94039747e-001 2.12468654e-001 2.36686617e-001</_>
    <_>
      2.15957567e-001 1.58065870e-001 2.15957567e-001 1.73149094e-001
      1.80055171e-001 1.56713650e-001 2.15957567e-001 1.45083830e-001
      2.08846316e-001 1.84524536e-001 1.50826424e-001 1.17477797e-001
      8.88971165e-002 1.37374580e-001 2.15957567e-001 2.15957567e-001
      1.58166930e-001 2.15957567e-001 1.18638210e-001 8.44979435e-002
      1.48642108e-001 1.34740993e-001 1.63746655e-001 1.19751029e-001
      2.15957567e-001 2.15957567e-001 1.58605292e-001 1.37497291e-001
      1.02830365e-001 1.57947779e-001 1.66695759e-001 1.77694112e-001
      1.07753173e-001 1.30924955e-001 1.25987083e-001 1.98875383e-001</_>
    <_>
      1.27227798e-001 1.46828353e-001 1.78544790e-001 2.11061642e-001
      1.25305399e-001 1.64047703e-001 1.64667279e-001 9.88376439e-002
      8.63604024e-002 1.77154854e-001 9.87941474e-002 2.10280344e-001
      1.94406822e-001 1.72547430e-001 2.11061642e-001 2.03796551e-001
      1.47223353e-001 1.66178450e-001 1.86684623e-001 9.54592749e-002
      1.07054107e-001 1.16286337e-001 2.11061642e-001 2.11061642e-001
      1.92097485e-001 1.21403791e-001 1.14241764e-001 2.11061642e-001
      1.42177448e-001 2.11061642e-001 1.37304246e-001 2.11061642e-001
      2.11061642e-001 1.82981402e-001 1.41820148e-001 1.21997230e-001</_>
    <_>
      1.27973810e-001 1.95053592e-001 2.22229347e-001 1.05287783e-001
      1.55118003e-001 1.09566584e-001 1.35893419e-001 8.62425044e-002
      1.04498759e-001 1.77689224e-001 1.09642714e-001 1.22272752e-001
      8.51035044e-002 1.47237867e-001 1.36533633e-001 1.23453304e-001
      9.82878432e-002 1.22752883e-001 2.22229347e-001 1.72095686e-001
      2.22229347e-001 1.69653282e-001 2.11873814e-001 1.67715907e-001
      2.22229347e-001 1.77334085e-001 2.22229347e-001 2.22229347e-001
      1.85183078e-001 2.22229347e-001 2.22229347e-001 1.63399532e-001
      8.80266055e-002 1.15276895e-001 1.67212591e-001 2.12975219e-001</_>
    <_>
      9.98346582e-002 1.01176374e-001 1.66359305e-001 2.10453615e-001
      1.82669014e-001 1.08708829e-001 9.75644365e-002 8.67035389e-002
      1.49569571e-001 1.11720890e-001 1.23395525e-001 1.63437381e-001
      2.04018891e-001 1.84565797e-001 1.18493274e-001 2.10453615e-001
      1.27497390e-001 2.10453615e-001 9.74055976e-002 1.15909569e-001
      1.90657809e-001 1.70663655e-001 1.40150055e-001 2.10453615e-001
      2.10453615e-001 1.62078530e-001 1.45429775e-001 1.70976833e-001
      1.69249132e-001 2.10453615e-001 2.10453615e-001 2.06702903e-001
      2.10453615e-001 2.10453615e-001 1.04465276e-001 1.98558807e-001</_>
    <_>
      1.75079942e-001 2.11448789e-001 2.11448789e-001 1.34447172e-001
      1.12942278e-001 1.32069319e-001 1.99340895e-001 1.35499522e-001
      1.33204982e-001 1.80761009e-001 1.81623667e-001 7.97419399e-002
      1.66492656e-001 1.62462831e-001 1.36905864e-001 2.10670233e-001
      1.83320493e-001 2.11448789e-001 1.49195716e-001 2.11448789e-001
      1.42099947e-001 1.73829690e-001 1.88652501e-001 1.96545005e-001
      1.03280507e-001 7.51101524e-002 1.75160602e-001 1.81433395e-001
      2.11448789e-001 8.63596350e-002 1.52829349e-001 2.06148133e-001
      1.90965816e-001 1.69173300e-001 9.08777416e-002 1.52465403e-001</_>
    <_>
      1.41678721e-001 6.96581304e-002 8.09107795e-002 1.67451605e-001
      1.57669276e-001 1.39404655e-001 1.40277505e-001 2.11323261e-001
      1.27865523e-001 1.42452329e-001 7.72303715e-002 1.48125678e-001
      1.57485187e-001 1.75715536e-001 1.23394758e-001 8.57573524e-002
      1.87330067e-001 1.59912318e-001 1.69269726e-001 1.87058315e-001
      2.07875505e-001 1.53276533e-001 1.26816511e-001 1.44736856e-001
      2.15421349e-001 2.15421349e-001 1.90485194e-001 2.15421349e-001
      2.15421349e-001 2.15421349e-001 1.66999400e-001 1.89053431e-001
      1.76271647e-001 9.86819938e-002 2.12298900e-001 2.02555478e-001</_>
    <_>
      7.41375610e-002 1.42373502e-001 2.16125697e-001 1.98242173e-001
      2.26878479e-001 2.02481583e-001 6.40384853e-002 6.42533600e-002
      2.41877995e-002 1.15379244e-001 1.93411052e-001 2.26878479e-001
      1.92740411e-001 2.26878479e-001 2.26878479e-001 1.44719288e-001
      1.62615553e-001 4.25446518e-002 1.04165971e-001 6.86974600e-002
      1.33195207e-001 1.87570110e-001 2.26878479e-001 2.26878479e-001
      1.26301765e-001 1.25526771e-001 4.60369326e-002 1.35292798e-001
      1.06646225e-001 1.20965056e-001 1.74173966e-001 2.26878479e-001
      2.26878479e-001 2.26878479e-001 2.26878479e-001 8.58407691e-002</_>
    <_>
      6.04279898e-002 1.43181607e-001 2.13689834e-001 2.13689834e-001
      1.39221266e-001 1.26393929e-001 1.91887587e-001 1.92069471e-001
      9.36313272e-002 9.29336399e-002 1.34295255e-001 1.22490637e-001
      2.13689834e-001 1.12165779e-001 8.93532112e-002 2.13689834e-001
      1.77660972e-001 1.30155087e-001 1.14120997e-001 1.67312384e-001
      1.41403809e-001 2.13689834e-001 1.79612428e-001 1.16919599e-001
      2.13689834e-001 2.13689834e-001 1.82892025e-001 1.26300916e-001
      2.12725699e-001 1.58273548e-001 2.13689834e-001 1.77847728e-001
      1.63784057e-001 2.13689834e-001 1.80539459e-001 1.28311917e-001</_>
    <_>
      1.64444834e-001 2.14870363e-001 1.93215892e-001 1.24008246e-001
      1.56904608e-001 1.88249439e-001 1.29193708e-001 1.49597883e-001
      1.01154223e-001 1.08149789e-001 1.69847861e-001 2.14870363e-001
      1.59124359e-001 1.42565906e-001 2.14870363e-001 1.44750297e-001
      1.81491926e-001 1.14817865e-001 1.05193943e-001 2.12451741e-001
      2.14664713e-001 1.41512379e-001 1.70057252e-001 2.14870363e-001
      2.14870363e-001 1.63694263e-001 6.55066222e-002 1.49838910e-001
      2.14870363e-001 2.14870363e-001 1.06635123e-001 1.38239294e-001
      2.14870363e-001 1.35688290e-001 1.42299265e-001 1.10511661e-001</_>
    <_>
      1.17799237e-001 1.20517917e-001 2.22766876e-001 2.22766876e-001
      2.22766876e-001 1.24618068e-001 6.38601705e-002 1.07943721e-001
      1.37011603e-001 9.95344818e-002 9.04085711e-002 2.22766876e-001
      2.14888230e-001 2.22766876e-001 1.37481317e-001 1.13775022e-001
      6.33648112e-002 8.92145634e-002 2.22766876e-001 9.15419608e-002
      1.47539109e-001 2.22766876e-001 2.22766876e-001 1.46379784e-001
      8.33626017e-002 6.99702427e-002 2.22766876e-001 1.84043631e-001
      1.48089096e-001 1.07397936e-001 2.22766876e-001 2.22766876e-001
      2.22766876e-001 2.22766876e-001 4.80513982e-002 1.81853577e-001</_>
    <_>
      5.61801232e-002 6.15253188e-002 2.43504897e-001 1.89114913e-001
      1.71413749e-001 5.80663607e-002 1.02463759e-001 4.10327017e-002
      4.30141613e-002 5.65479547e-002 7.47599006e-002 2.53118366e-001
      2.53118366e-001 2.53118366e-001 1.42716661e-001 2.50721902e-001
      8.30976591e-002 4.89332266e-002 1.59898311e-001 1.24932833e-001
      2.00247556e-001 1.66480809e-001 1.68664202e-001 6.49131909e-002
      1.42771393e-001 7.09211454e-002 3.43711153e-002 2.53118366e-001
      1.09053448e-001 2.53118366e-001 1.72058061e-001 2.24198550e-001
      1.27801508e-001 2.53118366e-001 2.53118366e-001 1.50142670e-001</_>
    <_>
      1.50380060e-001 1.17528766e-001 2.34697178e-001 8.70436206e-002
      2.34697178e-001 8.19907784e-002 4.64667864e-002 8.28515068e-002
      1.48707315e-001 1.47165775e-001 1.60209432e-001 2.34697178e-001
      2.34697178e-001 2.34697178e-001 8.91787708e-002 3.05590928e-002
      1.12778626e-001 2.18244299e-001 8.09198469e-002 7.59180933e-002
      2.17931375e-001 1.65979281e-001 2.34697178e-001 1.64099813e-001
      2.34697178e-001 8.52834731e-002 8.47403854e-002 1.27265275e-001
      1.09675907e-001 2.32999846e-001 2.04345837e-001 2.21649960e-001
      1.41465053e-001 1.66040435e-001 1.51756659e-001 2.02238828e-001</_>
    <_>
      7.57661983e-002 8.03358480e-002 2.20216870e-001 1.39540136e-001
      2.49380141e-001 1.32197738e-001 2.08262965e-001 7.18542710e-002
      7.62801170e-002 1.78681612e-001 1.30879030e-001 1.37322158e-001
      1.20692886e-001 1.82927385e-001 1.73903078e-001 2.16955423e-001
      9.99808833e-002 1.20246746e-001 1.53870419e-001 1.05890013e-001
      4.41672243e-002 7.24697039e-002 2.49380141e-001 1.07234709e-001
      2.49380141e-001 1.46572486e-001 1.80796370e-001 2.24780351e-001
      1.46631330e-001 2.93530747e-002 9.43226591e-002 2.49380141e-001
      2.49380141e-001 2.49380141e-001 1.84724078e-001 1.76045954e-001</_>
    <_>
      1.29888296e-001 1.47340566e-001 9.27700624e-002 2.09215984e-001
      1.54363438e-001 1.31153420e-001 1.13856763e-001 4.03517559e-002
      3.88960056e-002 2.10959539e-001 1.65481389e-001 1.01639688e-001
      2.29409263e-001 1.77667528e-001 1.76854610e-001 2.29409263e-001
      8.91448632e-002 5.02812192e-002 2.26324588e-001 2.29409263e-001
      1.79528400e-001 1.56964213e-001 1.46723211e-001 1.66624919e-001
      1.08771943e-001 1.31133184e-001 1.03414305e-001 2.29409263e-001
      2.29409263e-001 1.47832617e-001 1.76063612e-001 2.29409263e-001
      2.03562811e-001 1.90512136e-001 1.39064819e-001 1.76855862e-001</_>
    <_>
      8.70819092e-002 1.14438973e-001 9.78817716e-002 2.16536865e-001
      2.16536865e-001 1.45472333e-001 1.77911699e-001 1.07044205e-001
      1.08198829e-001 2.16536865e-001 1.77347049e-001 2.16536865e-001
      2.16536865e-001 2.16536865e-001 5.84761426e-002 9.47805643e-002
      1.12878360e-001 1.92009941e-001 7.35153183e-002 1.35433957e-001
      1.51544839e-001 2.00358689e-001 2.16536865e-001 1.59241691e-001
      1.32299036e-001 1.54773831e-001 1.55188248e-001 1.77214593e-001
      2.11133778e-001 2.16536865e-001 2.16536865e-001 2.16536865e-001
      1.10454232e-001 7.51499757e-002 1.03801943e-001 2.16536865e-001</_>
    <_>
      1.51556730e-001 1.17731482e-001 1.25062644e-001 1.45201519e-001
      2.20049009e-001 1.90322205e-001 1.31096646e-001 1.16961285e-001
      6.45673722e-002 2.14004502e-001 8.29793736e-002 6.78287596e-002
      9.87859741e-002 1.93158090e-001 2.20049009e-001 2.20049009e-001
      1.96124867e-001 1.53388694e-001 1.28253534e-001 1.12335503e-001
      2.00597703e-001 1.50160804e-001 2.20049009e-001 2.20049009e-001
      9.39136371e-002 1.28404722e-001 1.13213249e-001 2.20049009e-001
      1.32761046e-001 1.11562081e-001 7.14735463e-002 2.20049009e-001
      2.20049009e-001 2.20049009e-001 1.93044424e-001 2.20049009e-001</_>
    <_>
      1.83060884e-001 8.47493932e-002 1.44746557e-001 9.42405537e-002
      1.54787019e-001 1.08940676e-001 1.67873114e-001 1.70685664e-001
      1.60467714e-001 2.03890592e-001 8.04645941e-002 9.23397616e-002
      1.80191919e-001 2.15380892e-001 2.09555015e-001 1.39281347e-001
      2.15380892e-001 2.15380892e-001 1.28872901e-001 8.41615796e-002
      1.20838612e-001 9.88041610e-002 2.15380892e-001 1.62274972e-001
      2.15380892e-001 2.09665269e-001 8.60894993e-002 2.15380892e-001
      1.67959675e-001 1.70830280e-001 1.90677032e-001 2.15380892e-001
      1.41636640e-001 1.59977332e-001 1.92475423e-001 1.70705944e-001</_>
    <_>
      8.47960189e-002 1.89856246e-001 2.14043736e-001 1.43724367e-001
      2.06888974e-001 8.64401907e-002 1.12464942e-001 7.17121661e-002
      1.19323805e-001 1.59030467e-001 1.74211815e-001 1.25102594e-001
      1.38393521e-001 2.14043736e-001 1.79027513e-001 1.54327154e-001
      1.28147349e-001 2.10399181e-001 1.96860164e-001 1.71155542e-001
      1.70994431e-001 1.25861421e-001 1.80737510e-001 1.11471899e-001
      1.60372302e-001 9.62708071e-002 2.11549312e-001 2.14043736e-001
      2.14043736e-001 1.63723439e-001 2.14043736e-001 2.14043736e-001
      2.04876006e-001 1.01576157e-001 8.30763504e-002 2.14043736e-001</_>
    <_>
      1.68060303e-001 1.24719955e-001 2.01341137e-001 2.30090529e-001
      2.30090529e-001 1.67030379e-001 8.58124867e-002 4.83171754e-002
      4.74688150e-002 1.30425051e-001 7.07098097e-002 2.07430318e-001
      2.30090529e-001 2.30090529e-001 2.19998389e-001 1.40034288e-001
      1.00167379e-001 9.13546234e-002 1.22865312e-001 7.42673352e-002
      1.21577919e-001 1.74567163e-001 1.90830112e-001 2.23543406e-001
      1.55692682e-001 1.29535258e-001 7.79769942e-002 1.11970104e-001
      1.04609489e-001 1.89068004e-001 2.30090529e-001 2.30090529e-001
      2.30090529e-001 2.30090529e-001 1.62559032e-001 1.16387695e-001</_>
    <_>
      6.77536353e-002 1.07188553e-001 1.32426441e-001 2.01004967e-001
      1.63429126e-001 1.61470309e-001 1.12673119e-001 6.94386810e-002
      1.18589938e-001 1.04280807e-001 1.38008118e-001 1.98999614e-001
      2.36113593e-001 2.36113593e-001 2.35675901e-001 1.71478674e-001
      9.60672796e-002 1.07365303e-001 5.34206331e-002 5.21014780e-002
      8.82259086e-002 1.82271063e-001 2.36113593e-001 2.36113593e-001
      2.28827149e-001 1.44776300e-001 1.77437425e-001 9.97688919e-002
      1.06162712e-001 1.60290509e-001 2.27828354e-001 2.36113593e-001
      2.36113593e-001 2.36113593e-001 7.49125257e-002 1.34048551e-001</_>
    <_>
      1.92702249e-001 1.52428269e-001 1.36644229e-001 9.48435962e-002
      2.11761072e-001 1.94768995e-001 1.09153539e-001 1.30182147e-001
      1.04971193e-001 1.92411125e-001 1.24741510e-001 1.73087507e-001
      1.46285370e-001 1.76734820e-001 1.28165141e-001 1.23978950e-001
      1.88314706e-001 1.69749528e-001 1.51100278e-001 1.37651980e-001
      7.79505968e-002 7.95798451e-002 2.14646801e-001 2.14646801e-001
      2.14646801e-001 2.01835871e-001 2.08682656e-001 1.91819355e-001
      2.14646801e-001 1.19141370e-001 1.04261674e-001 1.48312405e-001
      1.28320485e-001 2.01675311e-001 2.14646801e-001 2.14646801e-001</_>
    <_>
      1.59551486e-001 1.88936070e-001 2.14334235e-001 1.46395862e-001
      2.09632248e-001 1.50624648e-001 1.37146428e-001 1.08090088e-001
      1.31886601e-001 1.26487792e-001 1.63797662e-001 1.41222030e-001
      1.15150072e-001 1.37628362e-001 1.90125108e-001 2.14334235e-001
      2.14334235e-001 1.91440538e-001 1.95371926e-001 9.62515548e-002
      9.35273990e-002 1.31013036e-001 2.14334235e-001 1.63548291e-001
      1.79726601e-001 2.14334235e-001 1.69242263e-001 1.74626678e-001
      1.97060868e-001 1.07794449e-001 1.26660436e-001 1.47600591e-001
      2.14334235e-001 2.14334235e-001 1.14916451e-001 1.35598987e-001</_>
    <_>
      1.42000422e-001 1.86982676e-001 1.59468368e-001 1.48963109e-001
      2.16491446e-001 1.18373074e-001 9.63935927e-002 8.85554627e-002
      1.66353092e-001 1.25600800e-001 1.00373216e-001 2.16491446e-001
      1.98608771e-001 1.20829396e-001 1.09312728e-001 1.05290018e-001
      1.80313110e-001 1.47169188e-001 1.47660524e-001 1.12287126e-001
      1.53328612e-001 1.65577143e-001 2.16491446e-001 1.53964996e-001
      2.16491446e-001 2.14220449e-001 1.84224620e-001 2.16491446e-001
      2.16491446e-001 2.16491446e-001 2.15634689e-001 1.69888481e-001
      1.20322675e-001 1.52841866e-001 1.68063611e-001 1.44124970e-001</_>
    <_>
      1.09125145e-001 1.37571111e-001 1.17595501e-001 1.88073963e-001
      2.16594860e-001 1.44194782e-001 1.38732865e-001 1.15603946e-001
      1.37060970e-001 1.93429753e-001 1.86859354e-001 1.94479778e-001
      1.60157531e-001 2.09574014e-001 1.09062925e-001 1.00306615e-001
      1.32484868e-001 1.19103961e-001 7.45470077e-002 6.22579418e-002
      8.75885561e-002 1.47724405e-001 2.16594860e-001 2.06601873e-001
      2.16594860e-001 1.91141486e-001 1.56828210e-001 2.16594860e-001
      2.16594860e-001 2.00823456e-001 1.15297034e-001 1.93589762e-001
      1.46169215e-001 2.16594860e-001 1.69087425e-001 2.16594860e-001</_>
    <_>
      1.44932032e-001 1.59749895e-001 2.14063838e-001 1.83286324e-001
      2.14063838e-001 1.20484963e-001 8.46254453e-002 5.76609112e-002
      6.59212843e-002 2.14063838e-001 1.29293635e-001 2.00749338e-001
      1.23144761e-001 1.75610051e-001 9.67642665e-002 1.88106626e-001
      2.06918657e-001 2.14063838e-001 1.57394350e-001 1.23286754e-001
      1.38804615e-001 1.47949979e-001 2.14063838e-001 1.95689335e-001
      1.48616567e-001 1.77888304e-001 1.32597476e-001 1.39072582e-001
      1.70522392e-001 1.12592913e-001 1.11972056e-001 2.14063838e-001
      1.61142275e-001 2.14063838e-001 2.02202961e-001 2.14063838e-001</_>
    <_>
      1.23732999e-001 2.25632668e-001 1.36325791e-001 6.04023226e-002
      1.55035317e-001 1.55952856e-001 2.25013077e-001 1.39214411e-001
      1.02503538e-001 1.41862676e-001 1.41563609e-001 6.22845441e-002
      1.56835869e-001 1.10895768e-001 1.10344864e-001 1.75340772e-001
      1.63183868e-001 2.21510053e-001 1.50103867e-001 1.62556306e-001
      6.63994253e-002 4.89897728e-002 1.87351346e-001 2.01625079e-001
      2.25632668e-001 2.25632668e-001 2.25632668e-001 2.25632668e-001
      2.24245638e-001 1.11038737e-001 9.89963710e-002 1.65651381e-001
      9.95836481e-002 2.25632668e-001 1.84684128e-001 2.25632668e-001</_>
    <_>
      6.41857311e-002 1.18889682e-001 1.83427766e-001 1.60555199e-001
      1.85111254e-001 1.19360842e-001 6.46560863e-002 4.27321419e-002
      8.82403105e-002 5.70839122e-002 1.11223616e-001 2.60053724e-001
      2.60053724e-001 2.60053724e-001 2.60053724e-001 1.64615154e-001
      6.34343177e-002 5.53100221e-002 1.27493471e-001 1.09465845e-001
      9.71309096e-002 1.13716558e-001 1.86659157e-001 1.40768051e-001
      1.10601731e-001 9.09660682e-002 1.84813216e-001 1.25639856e-001
      1.39060378e-001 2.16066986e-001 2.60053724e-001 2.60053724e-001
      2.60053724e-001 2.60053724e-001 6.96397126e-002 1.41425416e-001</_>
    <_>
      7.35787153e-002 9.12231728e-002 1.07282303e-001 1.48445472e-001
      2.41229102e-001 9.81427431e-002 9.85343158e-002 5.74588887e-002
      3.73941362e-002 1.28896043e-001 9.71208289e-002 1.11077666e-001
      2.39351869e-001 2.41229102e-001 1.54279247e-001 2.26872563e-001
      5.61598763e-002 7.46154413e-002 1.40535623e-001 9.49473754e-002
      1.44305959e-001 1.41555205e-001 2.41229102e-001 2.41229102e-001
      2.41229102e-001 2.41229102e-001 1.47292450e-001 1.55367017e-001
      1.10118665e-001 1.55988008e-001 2.41229102e-001 2.41229102e-001
      2.40792349e-001 2.41229102e-001 9.63960588e-002 6.06797636e-002</_>
    <_>
      2.03626484e-001 2.26486489e-001 1.52508378e-001 1.50453985e-001
      2.26486489e-001 1.48716360e-001 2.44591273e-002 1.03853894e-002
      5.67358844e-002 1.60366416e-001 2.26486489e-001 2.25040585e-001
      1.23451658e-001 1.83355018e-001 1.00276701e-001 4.61700596e-002
      6.30350709e-002 1.52861655e-001 2.19137818e-001 2.26486489e-001
      1.54178068e-001 1.62724346e-001 2.26486489e-001 1.91411361e-001
      6.80414960e-002 8.12989101e-002 1.99163526e-001 2.23313764e-001
      1.49984300e-001 1.38219059e-001 1.40351638e-001 2.26486489e-001
      1.23133808e-001 7.74758011e-002 2.05836743e-001 2.26486489e-001</_>
    <_>
      1.17071837e-001 2.39418194e-001 2.39418194e-001 2.39418194e-001
      2.39418194e-001 1.41306162e-001 1.33776650e-001 8.49343911e-002
      1.27566531e-001 5.31976633e-002 7.76745901e-002 2.39418194e-001
      2.19651401e-001 2.39418194e-001 2.34646708e-001 1.24000534e-001
      1.05459847e-001 1.32483557e-001 3.45411599e-002 5.40664159e-002
      1.02047525e-001 1.10695161e-001 2.39418194e-001 1.77934378e-001
      1.26099288e-001 1.00779429e-001 8.74127373e-002 1.02441192e-001
      5.17061725e-002 2.39418194e-001 1.69463590e-001 2.39418194e-001
      2.39418194e-001 1.35357767e-001 1.30222723e-001 1.54315531e-001</_>
    <_>
      1.67838708e-001 2.00777382e-001 2.18078166e-001 1.98110819e-001
      1.44020930e-001 9.07459930e-002 7.12056756e-002 5.03106192e-002
      8.85406435e-002 2.13469461e-001 1.85231254e-001 1.47342667e-001
      1.70150548e-001 1.16269492e-001 2.17836946e-001 1.52859062e-001
      1.02473080e-001 1.51305959e-001 6.39194772e-002 2.05605090e-001
      2.18078166e-001 2.18078166e-001 2.03300700e-001 1.70705006e-001
      1.07128263e-001 9.39337388e-002 1.11034214e-001 1.63351640e-001
      1.44244850e-001 2.18078166e-001 2.18078166e-001 2.18078166e-001
      2.18078166e-001 1.85212418e-001 1.41835883e-001 1.14558242e-001</_>
    <_>
      1.21002011e-001 1.42981559e-001 1.01850323e-001 2.17609152e-001
      1.28682166e-001 1.04289763e-001 1.30427822e-001 1.22454494e-001
      1.22126028e-001 1.72718436e-001 1.36173412e-001 1.07233696e-001
      2.17609152e-001 2.11368367e-001 2.17609152e-001 1.61730051e-001
      1.48337126e-001 1.28785372e-001 1.24048702e-001 1.23573780e-001
      1.03207901e-001 1.99344963e-001 1.72197297e-001 1.42886043e-001
      2.17609152e-001 1.41107261e-001 2.17609152e-001 1.87037796e-001
      2.12058648e-001 1.01365499e-001 1.33464530e-001 2.17609152e-001
      2.00571567e-001 2.17609152e-001 2.17609152e-001 1.74887508e-001</_>
    <_>
      9.39921141e-002 7.73626789e-002 9.51804742e-002 1.46600559e-001
      1.90464795e-001 2.05859438e-001 2.16971755e-001 1.86169326e-001
      5.38678728e-002 1.18834704e-001 1.21405333e-001 1.74078181e-001
      2.16971755e-001 2.16971755e-001 2.15511695e-001 1.93845585e-001
      1.24634728e-001 1.27449378e-001 1.16537154e-001 5.62829636e-002
      6.94243237e-002 1.01339854e-001 1.48713708e-001 2.11276636e-001
      2.16971755e-001 2.16971755e-001 2.16971755e-001 1.74239099e-001
      1.10506475e-001 1.59971252e-001 2.16971755e-001 1.19582117e-001
      1.77675769e-001 1.58588246e-001 2.16555059e-001 2.16971755e-001</_>
    <_>
      1.39869019e-001 1.84418157e-001 2.08984673e-001 1.19115859e-001
      1.19274549e-001 1.70097694e-001 1.06025524e-001 6.30735382e-002
      6.06348775e-002 1.60995737e-001 2.32412413e-001 2.32412413e-001
      1.31567761e-001 1.51063800e-001 1.69615462e-001 1.62966624e-001
      9.51748416e-002 1.33575559e-001 1.45610243e-001 1.27544269e-001
      1.12889409e-001 1.55928537e-001 1.96924701e-001 1.70091972e-001
      9.85175595e-002 1.22888684e-001 1.41728759e-001 2.32412413e-001
      2.32412413e-001 2.32412413e-001 2.32412413e-001 2.32412413e-001
      1.57916874e-001 1.05633512e-001 1.43364608e-001 2.32412413e-001</_>
    <_>
      1.35064438e-001 1.03827819e-001 9.08218026e-002 1.52730584e-001
      1.79366350e-001 1.26961708e-001 1.07412688e-001 1.14286721e-001
      1.22668631e-001 2.26142317e-001 1.26573220e-001 1.10730052e-001
      1.39352068e-001 2.26142317e-001 2.24092081e-001 2.26142317e-001
      2.26142317e-001 2.26142317e-001 5.95485158e-002 6.31432161e-002
      1.13800921e-001 1.77353621e-001 1.33052006e-001 1.27154261e-001
      2.26142317e-001 2.26142317e-001 1.61852702e-001 1.23023205e-001
      1.04535706e-001 1.82016864e-001 1.85323760e-001 1.78916141e-001
      1.42330840e-001 2.26142317e-001 2.26142317e-001 1.82237491e-001</_>
    <_>
      9.90651473e-002 1.05533056e-001 1.68833941e-001 1.35610580e-001
      1.75519943e-001 1.13841832e-001 6.50755018e-002 7.29619786e-002
      1.17221832e-001 2.10904479e-001 1.63638070e-001 2.18177110e-001
      2.18177110e-001 2.18177110e-001 1.17180586e-001 5.49875349e-002
      9.94558334e-002 1.57225505e-001 2.18177110e-001 2.13312939e-001
      2.18177110e-001 1.36520356e-001 1.30469441e-001 1.36240929e-001
      2.16511950e-001 1.46441430e-001 2.18177110e-001 2.18177110e-001
      2.18177110e-001 2.16884822e-001 2.08406761e-001 1.89168543e-001
      1.48880467e-001 1.17914982e-001 1.28495529e-001 1.12196237e-001</_>
    <_>
      1.11322798e-001 1.41533330e-001 1.51205987e-001 2.17606470e-001
      2.17606470e-001 1.75562799e-001 1.40877217e-001 1.37562126e-001
      1.20537557e-001 1.71731830e-001 2.17606470e-001 2.17606470e-001
      1.91735983e-001 1.83310598e-001 1.25739977e-001 1.64884120e-001
      8.64807293e-002 1.29202336e-001 8.33153799e-002 1.45594835e-001
      9.59947929e-002 1.70560464e-001 2.17606470e-001 2.17606470e-001
      2.15486526e-001 2.07032263e-001 1.09277919e-001 1.14841126e-001
      2.17606470e-001 1.79867804e-001 1.53419510e-001 1.82019532e-001
      1.81668103e-001 1.80874377e-001 1.28595412e-001 8.81625637e-002</_>
    <_>
      9.54145789e-002 1.74658149e-001 1.84020370e-001 2.19579741e-001
      2.19579741e-001 1.59729272e-001 9.12122056e-002 1.34190053e-001
      7.00810254e-002 7.82921538e-002 1.08654313e-001 1.57219023e-001
      1.55787453e-001 1.44483134e-001 1.39235765e-001 1.72388092e-001
      2.19579741e-001 1.04366332e-001 1.44336820e-001 1.43834651e-001
      1.54750317e-001 1.81142777e-001 2.19579741e-001 2.19579741e-001
      1.68549463e-001 1.58423349e-001 1.29119232e-001 1.49407610e-001
      8.74586925e-002 1.82272673e-001 1.23786762e-001 2.19579741e-001
      2.19579741e-001 2.19579741e-001 2.19579741e-001 1.97154894e-001</_>
    <_>
      2.21184507e-001 2.33021334e-001 1.31319389e-001 1.25780120e-001
      2.13970125e-001 1.19372442e-001 1.61091417e-001 9.08564627e-002
      7.18206167e-002 1.33599311e-001 1.52772039e-001 1.58901557e-001
      1.93414122e-001 2.33021334e-001 2.04995394e-001 2.21584350e-001
      2.33021334e-001 1.49546206e-001 2.33021334e-001 1.31263271e-001
      1.02659725e-001 1.06531411e-001 8.92291740e-002 6.98300153e-002
      1.13362998e-001 9.33211446e-002 2.33021334e-001 2.33021334e-001
      1.62243322e-001 1.78564206e-001 1.49748936e-001 1.31795540e-001
      1.60024822e-001 8.70744288e-002 1.18959881e-001 2.33021334e-001</_>
    <_>
      1.39497176e-001 1.82530284e-001 1.72224492e-001 2.14264035e-001
      2.14264035e-001 1.91895381e-001 1.43535107e-001 9.01529342e-002
      1.83170870e-001 1.11810379e-001 9.14069861e-002 9.41375345e-002
      1.51127592e-001 1.85346216e-001 1.42127410e-001 1.91483900e-001
      1.44859955e-001 1.62653968e-001 1.47053376e-001 1.04752265e-001
      1.24705397e-001 2.14264035e-001 2.14264035e-001 1.74622551e-001
      1.79992348e-001 1.50523379e-001 2.14264035e-001 1.70282856e-001
      1.14716940e-001 8.66274908e-002 1.13471948e-001 2.14264035e-001
      1.39329746e-001 2.14264035e-001 2.14264035e-001 2.05372974e-001</_>
    <_>
      1.88928783e-001 1.24363706e-001 1.61904514e-001 1.59037560e-001
      2.11214975e-001 2.11214975e-001 1.20941311e-001 1.00203507e-001
      1.26277983e-001 1.77024871e-001 1.91562727e-001 2.11214975e-001
      1.34004489e-001 2.11214975e-001 1.05336405e-001 7.83304125e-002
      9.45844576e-002 1.34914756e-001 2.00836688e-001 9.86600146e-002
      1.54998720e-001 1.94617271e-001 2.11214975e-001 2.11214975e-001
      2.04335108e-001 2.07610339e-001 1.60485536e-001 1.84220001e-001
      1.38878107e-001 2.00758830e-001 1.38893932e-001 1.82949200e-001
      1.92461625e-001 1.33051172e-001 1.11493275e-001 1.43255472e-001</_>
    <_>
      9.91555452e-002 1.30504921e-001 1.07824162e-001 1.14099801e-001
      1.50700793e-001 1.98216200e-001 1.40676126e-001 1.31363183e-001
      7.00052157e-002 1.05272464e-001 7.55817965e-002 1.15527496e-001
      1.48511663e-001 2.25161672e-001 2.25161672e-001 2.25161672e-001
      1.43001378e-001 7.47450739e-002 9.08378288e-002 1.30061403e-001
      1.80756509e-001 1.86093718e-001 1.84650347e-001 2.25161672e-001
      2.25161672e-001 2.25161672e-001 5.78793846e-002 1.39993563e-001
      1.43108621e-001 2.25161672e-001 2.25161672e-001 2.25161672e-001
      2.25161672e-001 2.25161672e-001 1.50109455e-001 1.17715456e-001</_>
    <_>
      5.49153127e-002 2.06326440e-001 2.26408511e-001 2.26408511e-001
      1.73336878e-001 1.74766019e-001 1.64800018e-001 1.19893894e-001
      8.29316825e-002 9.89494249e-002 1.38194636e-001 2.26408511e-001
      2.26408511e-001 2.26408511e-001 2.05806449e-001 2.15710238e-001
      1.24279179e-001 1.21269666e-001 8.62041041e-002 1.45817950e-001
      1.49583489e-001 2.15855896e-001 1.62362054e-001 1.18868895e-001
      1.08803019e-001 1.47543922e-001 1.18314981e-001 8.60659555e-002
      1.63425654e-001 2.26408511e-001 2.26408511e-001 2.26408511e-001
      1.70269966e-001 1.17134139e-001 8.66572186e-002 1.22635886e-001</_>
    <_>
      1.32948279e-001 1.97854489e-001 1.07682139e-001 1.01255536e-001
      2.35269964e-001 2.05912292e-001 5.90278991e-002 9.58796665e-002
      1.05014890e-001 8.45784470e-002 7.47971162e-002 4.02505472e-002
      2.13673562e-001 2.50555187e-001 2.50555187e-001 9.34711844e-002
      6.51630983e-002 5.10039777e-002 1.53482273e-001 2.50555187e-001
      2.31300756e-001 1.64633349e-001 2.39134297e-001 2.50555187e-001
      5.69139607e-002 1.37208879e-001 1.20555684e-001 7.97920600e-002
      5.98633960e-002 5.39169461e-002 1.51846632e-001 2.50555187e-001
      2.50555187e-001 2.14362055e-001 2.12720260e-001 1.41532600e-001</_>
    <_>
      1.05105646e-001 1.29928574e-001 5.36969006e-002 2.37294525e-001
      2.20907316e-001 1.34671226e-001 2.02673584e-001 2.28267640e-001
      1.40297845e-001 1.14335157e-001 1.65686429e-001 1.83999032e-001
      2.53244162e-001 2.53244162e-001 1.36653930e-001 5.85940443e-002
      5.11359796e-002 6.86621070e-002 1.15260348e-001 1.11630015e-001
      7.99457282e-002 2.22012818e-001 2.53244162e-001 1.20939650e-001
      1.33394793e-001 2.39298478e-001 1.55910730e-001 7.13705495e-002
      8.45862851e-002 1.09512709e-001 2.53244162e-001 2.53244162e-001
      2.53244162e-001 5.71145266e-002 9.35267508e-002 1.01303443e-001</_>
    <_>
      3.99666652e-002 8.32673460e-002 2.23698109e-001 1.91396624e-001
      2.20432729e-001 7.13530183e-002 2.18429863e-001 1.37397692e-001
      3.27416211e-002 7.33633041e-002 1.00920804e-001 1.52738824e-001
      2.64272422e-001 2.64272422e-001 7.91512728e-002 2.64272422e-001
      2.64272422e-001 1.10484086e-001 3.46671343e-002 1.13188915e-001
      1.15789168e-001 1.85244322e-001 2.64272422e-001 8.49928781e-002
      5.36279492e-002 7.36308470e-002 1.99593734e-002 5.50352857e-002
      1.49361342e-001 1.27506837e-001 2.64272422e-001 2.64272422e-001
      1.96831793e-001 2.16084540e-001 1.60097510e-001 6.51609600e-002</_>
    <_>
      1.34178698e-001 1.09949425e-001 4.46988158e-002 1.15274318e-001
      2.41717935e-001 1.15652159e-001 1.38316393e-001 1.06464192e-001
      1.40869215e-001 1.58273280e-001 1.40198961e-001 5.71612939e-002
      1.97082281e-001 2.41717935e-001 1.46127269e-001 1.10820629e-001
      8.49288851e-002 1.17149793e-001 2.41717935e-001 2.41717935e-001
      1.90060541e-001 1.38296917e-001 1.69131532e-001 1.90817446e-001
      7.25447610e-002 1.10363118e-001 2.41717935e-001 2.41717935e-001
      2.18828619e-001 1.38339788e-001 1.84223175e-001 2.41717935e-001
      1.78967208e-001 8.20445418e-002 4.77669202e-002 2.41717935e-001</_>
    <_>
      8.69829655e-002 1.03316799e-001 8.84852260e-002 9.77684632e-002
      2.26438552e-001 1.53182134e-001 1.51107505e-001 1.47781774e-001
      7.64992088e-002 2.26438552e-001 2.26438552e-001 1.24917753e-001
      1.22345835e-001 2.26438552e-001 1.14267424e-001 1.97309241e-001
      1.41453668e-001 1.59298301e-001 1.64277166e-001 2.26438552e-001
      1.18858725e-001 1.66847289e-001 2.26438552e-001 1.11997500e-001
      1.55854866e-001 1.30555809e-001 8.51773843e-002 2.14560866e-001
      2.26438552e-001 1.16574652e-001 2.11804718e-001 2.26438552e-001
      1.15994528e-001 1.79750130e-001 1.82870269e-001 1.90254405e-001</_>
    <_>
      1.01904713e-001 1.00330263e-001 9.32972059e-002 6.22822233e-002
      1.77158043e-001 2.09288865e-001 2.11778671e-001 2.11778671e-001
      1.72842279e-001 1.77500516e-001 1.37559667e-001 1.62078381e-001
      1.77510306e-001 2.11778671e-001 1.77668720e-001 1.69050679e-001
      2.04909191e-001 1.85351238e-001 9.02253240e-002 8.99104699e-002
      1.37671247e-001 8.56990740e-002 2.11778671e-001 1.68104336e-001
      2.11778671e-001 1.50250614e-001 1.60353005e-001 1.52525172e-001
      1.30199328e-001 1.95294902e-001 1.48666769e-001 1.71115369e-001
      1.61512569e-001 1.90637708e-001 1.86425164e-001 2.11778671e-001</_>
    <_>
      3.18492204e-002 6.80334792e-002 1.26821443e-001 2.76199102e-001
      2.76199102e-001 1.31166890e-001 1.24516346e-001 5.04038334e-002
      4.33887020e-002 9.45988894e-002 1.55538842e-001 1.82511941e-001
      2.76199102e-001 2.76199102e-001 1.52861834e-001 9.54366177e-002
      1.19423144e-001 1.00564003e-001 1.38740987e-002 3.95878069e-002
      1.00191966e-001 2.76199102e-001 2.76199102e-001 1.45946294e-001
      1.13821886e-001 8.35719556e-002 1.87586602e-002 5.49277179e-002
      9.61275175e-002 1.38703138e-001 2.76199102e-001 2.76199102e-001
      2.15980619e-001 1.81087509e-001 1.81678146e-001 8.63614604e-002</_>
    <_>
      5.53037524e-002 6.52470812e-002 1.17690496e-001 1.49313003e-001
      2.26852089e-001 1.89158350e-001 1.69341102e-001 9.66922417e-002
      4.60868329e-002 3.57001387e-002 1.23358212e-001 2.12184712e-001
      1.65647343e-001 2.26852089e-001 1.80659324e-001 1.40074283e-001
      1.95094556e-001 5.49931116e-002 1.30673081e-001 1.00352995e-001
      9.76423100e-002 1.34616166e-001 2.26852089e-001 1.96276680e-001
      2.26852089e-001 2.26852089e-001 1.66744068e-001 7.83795416e-002
      2.26852089e-001 2.26852089e-001 1.91847011e-001 2.26852089e-001
      1.80733413e-001 2.26852089e-001 1.63386449e-001 9.72008258e-002</_>
    <_>
      4.72921282e-002 1.50089398e-001 1.92528650e-001 1.21582180e-001
      2.37902358e-001 1.67568341e-001 4.88180928e-002 1.46043990e-002
      1.19005237e-002 1.58581734e-001 1.48300722e-001 2.37902358e-001
      2.13249072e-001 2.37902358e-001 1.28652841e-001 9.94236395e-002
      7.38749206e-002 1.09317474e-001 1.14502072e-001 1.26343891e-001
      2.32750878e-001 1.74572513e-001 2.37902358e-001 1.70863345e-001
      1.25637963e-001 9.01758894e-002 1.12943292e-001 2.37902358e-001
      2.37902358e-001 2.37902358e-001 2.37902358e-001 2.37902358e-001
      1.27884775e-001 1.33996874e-001 7.64900371e-002 1.56856865e-001</_>
    <_>
      1.81713462e-001 1.41250566e-001 1.03887022e-001 1.11008137e-001
      2.11688280e-001 5.74028045e-002 1.67484418e-001 1.81823388e-001
      2.14697361e-001 2.13043109e-001 1.62025988e-001 1.06074251e-001
      1.56866133e-001 1.86498255e-001 1.31494477e-001 1.90836117e-001
      2.14697361e-001 2.14697361e-001 1.19839884e-001 1.11477368e-001
      2.14697361e-001 1.01309843e-001 1.56135008e-001 5.07637449e-002
      6.67973384e-002 1.40038520e-001 1.85220003e-001 2.14697361e-001
      2.14697361e-001 2.14697361e-001 1.70894533e-001 1.61842793e-001
      7.12572858e-002 1.37270093e-001 2.14697361e-001 2.14697361e-001</_>
    <_>
      1.26755744e-001 1.28608987e-001 1.86299369e-001 2.16327697e-001
      2.16327697e-001 1.72627181e-001 9.42263603e-002 1.25540525e-001
      1.42791972e-001 2.16327697e-001 1.49187133e-001 2.16327697e-001
      1.38655573e-001 1.60558969e-001 1.13187984e-001 1.79101564e-002
      1.79839149e-001 2.16327697e-001 1.32882401e-001 8.25556964e-002
      9.85001177e-002 1.02497116e-001 2.16327697e-001 2.08175018e-001
      1.64037094e-001 2.16327697e-001 2.16327697e-001 2.16327697e-001
      1.21326320e-001 2.16327697e-001 1.65538669e-001 2.16327697e-001
      1.34344518e-001 4.44443300e-002 1.49060920e-001 1.69976130e-001</_>
    <_>
      2.12326929e-001 1.21670581e-001 1.58326983e-001 1.98157534e-001
      1.66743636e-001 1.13618940e-001 2.12326929e-001 1.17396079e-001
      2.12326929e-001 2.02689052e-001 1.47367969e-001 6.16790317e-002
      1.38976261e-001 1.76161885e-001 1.32692501e-001 1.96532130e-001
      1.31300658e-001 1.69375122e-001 1.34665370e-001 9.18994024e-002
      1.89606950e-001 2.12326929e-001 2.12326929e-001 2.01196164e-001
      1.95738167e-001 1.21210225e-001 2.12326929e-001 1.75750464e-001
      1.19320862e-001 1.50480762e-001 1.72135130e-001 2.12326929e-001
      1.09194852e-001 1.29669204e-001 1.10808887e-001 1.87407464e-001</_>
    <_>
      1.53368682e-001 1.36667088e-001 1.26968294e-001 1.75464362e-001
      2.29896903e-001 1.69484124e-001 4.31003757e-002 4.48425636e-002
      1.08421400e-001 2.04778075e-001 2.29896903e-001 2.10713640e-001
      2.29896903e-001 2.29896903e-001 2.29896903e-001 1.11627616e-001
      1.11474909e-001 1.20514289e-001 2.29896903e-001 1.61679119e-001
      1.60731286e-001 2.28125200e-001 2.29896903e-001 9.99193341e-002
      3.60384472e-002 4.13995683e-002 1.39042974e-001 1.44249976e-001
      1.77647889e-001 1.21765755e-001 2.29896903e-001 2.29896903e-001
      1.35630071e-001 1.34140924e-001 1.14204064e-001 9.92753729e-002</_>
    <_>
      2.15937167e-001 1.34816423e-001 9.99090374e-002 8.76286551e-002
      2.02730402e-001 2.25849345e-001 1.54794306e-001 9.62903872e-002
      1.92416757e-001 1.65323541e-001 1.73043892e-001 1.95369512e-001
      1.43051088e-001 1.43322602e-001 1.81994870e-001 1.03780501e-001
      8.97852406e-002 1.20245866e-001 2.25849345e-001 2.21744820e-001
      8.55529830e-002 1.52766451e-001 2.16675907e-001 1.11966372e-001
      1.09791376e-001 7.12168664e-002 2.25849345e-001 2.06745774e-001
      1.80276081e-001 1.44317985e-001 2.25849345e-001 2.25849345e-001
      1.11105949e-001 1.09202571e-001 1.35020718e-001 2.25849345e-001</_>
    <_>
      1.59544885e-001 8.67510065e-002 9.72056836e-002 8.92133042e-002
      1.09287314e-001 1.03301063e-001 9.85686406e-002 8.39280188e-002
      2.36900210e-001 1.72317743e-001 1.01827741e-001 1.26717463e-001
      1.73558787e-001 2.35286564e-001 9.61531848e-002 1.39310122e-001
      1.38309225e-001 2.36900210e-001 2.36900210e-001 1.22951634e-001
      1.86267287e-001 2.36900210e-001 2.36900210e-001 5.50821424e-002
      2.83846203e-002 4.15572748e-002 1.37615621e-001 2.36900210e-001
      1.73665300e-001 1.71322405e-001 2.36900210e-001 2.36900210e-001
      1.82368591e-001 6.36777803e-002 2.05544516e-001 2.36900210e-001</_>
    <_>
      2.30883271e-001 8.10327828e-002 1.46554828e-001 1.04005426e-001
      2.30883271e-001 1.22674659e-001 1.00904115e-001 9.83806401e-002
      2.30883271e-001 1.13302074e-001 9.79867429e-002 1.48766860e-001
      9.59749892e-002 1.81964740e-001 1.41237557e-001 1.12589069e-001
      6.56764880e-002 1.73073813e-001 2.01567441e-001 1.92740798e-001
      2.30883271e-001 1.86784983e-001 2.30883271e-001 2.30883271e-001
      7.32062012e-002 1.11665986e-001 2.08061442e-001 1.71837568e-001
      1.08722977e-001 2.14041084e-001 1.43409953e-001 2.30883271e-001
      2.30883271e-001 1.38277754e-001 1.43733248e-001 1.49618328e-001</_>
    <_>
      2.29390770e-001 1.07274093e-001 5.93778379e-002 7.84319788e-002
      1.98895663e-001 7.42752403e-002 1.03297561e-001 1.29153565e-001
      2.29390770e-001 1.92415982e-001 1.19837776e-001 1.00707591e-001
      2.20554069e-001 2.29390770e-001 1.69526368e-001 1.39058098e-001
