<?xml version="1.0"?>
<opencv_storage>
<my_nn type_id="opencv-ml-ann-mlp">
  <layer_sizes type_id="opencv-matrix">
    <rows>1</rows>
    <cols>3</cols>
    <dt>i</dt>
    <data>
      192 192 39</data></layer_sizes>
  <activation_function>SIGMOID_SYM</activation_function>
  <f_param1>6.6666666666666663e-001</f_param1>
  <f_param2>1.7159000000000000e+000</f_param2>
  <min_val>-9.4999999999999996e-001</min_val>
  <max_val>9.4999999999999996e-001</max_val>
  <min_val1>-9.7999999999999998e-001</min_val1>
  <max_val1>9.7999999999999998e-001</max_val1>
  <training_params>
    <train_method>BACKPROP</train_method>
    <dw_scale>1.0000000000000000e-002</dw_scale>
    <moment_scale>1.0000000000000000e-002</moment_scale>
    <term_criteria><epsilon>9.9999997764825821e-003</epsilon>
      <iterations>5000</iterations></term_criteria></training_params>
  <input_scale>
    1. 0. 1.6639002683835625e+002 -4.2328671541257163e+000
    1.2323904000500016e+002 -4.3080896205117334e+000
    1.6547015202719516e+002 -4.5522801884720296e+000
    1.2411420026096854e+002 -4.1910157041967402e+000
    1.6377826750924282e+002 -4.4781912861447424e+000
    1.1813876409846746e+002 -4.1757947382390315e+000
    1.5975445797567917e+002 -4.4011019374966400e+000 1. 0.
    1.3237230799100365e+002 -4.3781317889020963e+000
    1.1808211316547469e+002 -4.4452919723474054e+000
    1.3936880662444005e+002 -4.9880907793730183e+000
    1.3071598754545047e+002 -4.6687360881992577e+000
    1.3809863815667063e+002 -5.0875328015946524e+000
    1.3267125365505942e+002 -4.7677618814476128e+000
    1.3455668673924197e+002 -4.7330876986454724e+000 1. 0.
    1.2647134781028237e+002 -4.1614890793709023e+000
    9.8667616096113363e+001 -3.8444970903535700e+000
    1.3377333229110289e+002 -4.5536437960009346e+000
    1.2140599304084131e+002 -4.2155919889182840e+000
    1.3260063293650330e+002 -4.6632648613569883e+000
    1.1838545097581985e+002 -4.2928891098919850e+000
    1.3005149508259143e+002 -4.4582642350460047e+000 1. 0.
    1.2271029847492342e+002 -4.0911367211836902e+000
    1.0602644883296854e+002 -4.0497195116728841e+000
    1.3151172002037382e+002 -4.6150985437658294e+000
    1.2500582958590547e+002 -4.2631512891161369e+000
    1.2506763406196545e+002 -4.4356584750175161e+000
    1.1823108139902379e+002 -4.4030602399106442e+000
    1.2953858203915991e+002 -4.4951912892969910e+000 1. 0.
    1.2896284496300044e+002 -4.2599044877547927e+000
    9.9524031766467417e+001 -3.8769345475139207e+000
    1.3181646507891858e+002 -4.5485086440548272e+000
    1.2562341971457074e+002 -4.3393781661780739e+000
    1.2636324695794161e+002 -4.5390836491859599e+000
    1.1333547300801490e+002 -4.2434883370351510e+000
    1.3194105560139667e+002 -4.5963110953405542e+000 1. 0.
    1.2335965278802865e+002 -4.0718022527204303e+000
    1.0069583540934308e+002 -3.9165441002686263e+000
    1.2323632550041222e+002 -4.2567724770361659e+000
    1.1901944554396026e+002 -4.1365836877731637e+000
    1.2871317961756176e+002 -4.5246725609275780e+000
    1.0904613862802285e+002 -4.0404600186760762e+000
    1.2967058680987680e+002 -4.4750233068604164e+000 1. 0.
    1.3222541429578010e+002 -4.3839818649838502e+000
    1.1639796169293503e+002 -4.3304749343257836e+000
    1.2626961167539447e+002 -4.4722781949960266e+000
    1.1996268889529972e+002 -4.1245070360420026e+000
    1.2426289661297696e+002 -4.5456631069289219e+000
    1.2414363568842268e+002 -4.4571690276944249e+000
    1.2900693105269818e+002 -4.5257794038186541e+000 1. 0.
    1.5400167410257541e+002 -3.9218840384431428e+000
    1.1701291598885916e+002 -4.1692647744458542e+000
    1.5626520567134037e+002 -4.2328706532997975e+000
    1.1773503159032576e+002 -3.9463200569642396e+000
    1.5021482283709653e+002 -4.0915878606070928e+000
    1.1348269451054985e+002 -3.9906547223129918e+000
    1.5500071649260533e+002 -4.2601838081475405e+000
    1.9784419454095401e-002 -2.2692513805775976e+000
    1.8300801943505581e-002 -2.6369043523914586e+000
    1.6519555848090346e-002 -2.3644658015914328e+000
    1.3896002397364106e-002 -1.9800139928653357e+000
    1.5629712690057376e-002 -2.2952091340675529e+000
    1.8540672308287272e-002 -2.6636287606796523e+000
    1.6920697334179800e-002 -2.1042145445676588e+000
    1.9170804374034903e-002 -1.6274598863898055e+000
    2.0336268428759196e-002 -2.6412853633073028e+000
    1.6896589692210109e-002 -2.9795613798957303e+000
    1.5560460926939548e-002 -2.6782432034612200e+000
    1.3223045704323491e-002 -2.1515957964194126e+000
    1.4418965176382218e-002 -2.4519459000071078e+000
    1.6699760561437176e-002 -3.0038204625249549e+000
    1.7225861447714416e-002 -2.7394410353386744e+000
    1.9558951755834574e-002 -1.9516617386254229e+000
    2.0634692610259603e-002 -2.6028456541269325e+000
    1.7261787661725123e-002 -3.0143923741939802e+000
    1.9899468103876210e-002 -3.0533291488575136e+000
    1.7017495428408337e-002 -2.2246702209845872e+000
    1.7844984700333764e-002 -2.5245194123488379e+000
    1.7852358467215279e-002 -3.0551192210957558e+000
    1.6385500265283997e-002 -2.7386332842421970e+000
    2.0077290044903228e-002 -2.1163454442253857e+000
    1.7967660258997830e-002 -2.1693331742109638e+000
    1.5705951606434981e-002 -2.6148301370750140e+000
    1.7460050614663901e-002 -2.4211875411121877e+000
    1.3437373766050883e-002 -1.5101235856003898e+000
    1.3762712577195482e-002 -1.6985384028917252e+000
    1.5803860873205521e-002 -2.4041704570303088e+000
    1.4582356795653086e-002 -2.3121763775782265e+000
    1.8698554573390477e-002 -1.9335933356248853e+000
    1.7752449345957870e-002 -2.1553362521159052e+000
    1.5453007433546325e-002 -2.5608679073385860e+000
    1.6597992526728861e-002 -2.2705732654581494e+000
    1.2668882425606928e-002 -1.4661466312987272e+000
    1.2466738355558067e-002 -1.5501145486231580e+000
    1.4889894148310654e-002 -2.1314406348524439e+000
    1.3845287542951350e-002 -2.0793646382946944e+000
    1.7287673777223372e-002 -1.7478151749965887e+000
    1.7914413326288684e-002 -2.1218247052647690e+000
    1.4902439067199140e-002 -2.4841771269048514e+000
    1.7470192842326183e-002 -2.4868682199983030e+000
    1.3373529432312419e-002 -1.7129275757166784e+000
    1.3220902556353843e-002 -1.7613215709144918e+000
    1.5915388296882198e-002 -2.2504897904115873e+000
    1.3164898042434613e-002 -1.9163061189710542e+000
    1.6389657235751143e-002 -1.6191673347256397e+000
    1.8692755382271602e-002 -2.0879333097108592e+000
    1.4708529532522033e-002 -2.4311296278975996e+000
    1.7988026627359821e-002 -2.7242833700727815e+000
    1.4634355683410349e-002 -2.1471625754699457e+000
    1.4608788801618509e-002 -2.2458919503802859e+000
    1.7910822254850557e-002 -2.7703558908294013e+000
    1.4080251279699132e-002 -2.0966702979947045e+000
    1.6982183133996857e-002 -1.6653546061594817e+000
    1.8618093853975008e-002 -1.9116437415706071e+000
    1.4031383908343973e-002 -2.2226255042237733e+000
    1.6162672757533681e-002 -2.5529635423284902e+000
    1.4451372226383177e-002 -2.3623677400366341e+000
    1.4524559363160487e-002 -2.5340842410654187e+000
    1.6212177331310522e-002 -2.7888630486683952e+000
    1.4140774770937281e-002 -2.1705114637159051e+000
    1.7594079935287395e-002 -1.6952268322847552e+000
    1.7900360756364624e-002 -1.7543392498088972e+000
    1.3271287954705252e-002 -2.0259944982151716e+000
    1.5648974023476144e-002 -2.3363823604147687e+000
    1.3764340490107227e-002 -2.0746406226843579e+000
    1.3641486776316285e-002 -2.2360359748905223e+000
    1.6484853323161314e-002 -2.7361786785599209e+000
    1.3659770305701596e-002 -2.0968226419661700e+000
    1.6871696501478774e-002 -1.6776994669362857e+000
    1.8144884001383827e-002 -1.7664647942106575e+000
    1.2993971843330865e-002 -1.9513300483208167e+000
    1.6355944492771717e-002 -2.1936466178076941e+000
    1.3737616385040988e-002 -1.6771785742267165e+000
    1.3131200889956587e-002 -1.7495586532303122e+000
    1.6646889077174511e-002 -2.3860930176101069e+000
    1.3343948722993481e-002 -1.9413751178393344e+000
    1.6243344260768126e-002 -1.6721884574636752e+000
    1.8779258977706371e-002 -1.9283324262817769e+000
    1.4089408767488739e-002 -2.2121257676995905e+000
    1.6796698538145621e-002 -2.2575047180829424e+000
    1.2737695348938084e-002 -1.4456467899577381e+000
    1.2304987501644144e-002 -1.4956228738606616e+000
    1.4906521379477141e-002 -2.0628246313716208e+000
    1.3786439983051344e-002 -2.0240160937438971e+000
    1.5679004516708620e-002 -1.7221348380606176e+000
    1.9546698026342256e-002 -2.1012109486600079e+000
    1.5854135478148557e-002 -2.5981419817981131e+000
    1.8093849571073115e-002 -2.5679482684479109e+000
    1.3201834169302130e-002 -1.5250145833064519e+000
    1.2239711315647007e-002 -1.4763252666322146e+000
    1.4416329471414174e-002 -2.0096955973843049e+000
    1.3970239852614762e-002 -2.0858936406396480e+000
    1.5398269859514875e-002 -1.7524013116251387e+000
    1.9446060867474264e-002 -2.0766370804244132e+000
    1.5614694499711765e-002 -2.5834634777118035e+000
    1.8480499873883290e-002 -2.7277351892448158e+000
    1.5345468690485569e-002 -1.8654374807489376e+000
    1.3322326028910826e-002 -1.6563630231601381e+000
    1.6231023649300069e-002 -2.2919461481703540e+000
    1.3913969613956190e-002 -2.0874016503727195e+000
    1.6213977289685880e-002 -1.8213256757809735e+000
    1.9872061342891777e-002 -1.9874127845038680e+000
    1.5492480712337423e-002 -2.4962713831498866e+000
    1.7457241087313426e-002 -2.7839254454918034e+000
    1.7368829800758729e-002 -2.4284396353520803e+000
    1.5571712366676420e-002 -2.1598962997870923e+000
    1.8198512904186483e-002 -2.7843284634266157e+000
    1.4129126120094803e-002 -2.2477372396779982e+000
    1.8819376607167274e-002 -2.1210006341253549e+000
    1.9822794148951214e-002 -1.6867543923784958e+000
    1.5523672875416755e-002 -2.2156392057016219e+000
    1.5038783880765936e-002 -2.4581192301399750e+000
    1.3481179697115703e-002 -2.1911334661619448e+000
    1.2621643936314556e-002 -2.0210502740296477e+000
    1.4538389574073080e-002 -2.4020091686665292e+000
    1.4674315441879946e-002 -2.3062700664680542e+000
    1.8352206927929621e-002 -1.9960188686088969e+000
    2.0547871738067613e-002 -1.4402194617550625e+000
    1.7037119960266408e-002 -1.8621015886536207e+000
    1.7076226224973203e-002 -2.2343508997202122e+000
    1.4480382276023482e-002 -2.0329406143666882e+000
    1.2941887918299045e-002 -1.8219674317058252e+000
    1.5662470653877023e-002 -2.1053542294082610e+000
    1.7317952660194126e-002 -2.1075634277069430e+000
    1.8012746921904469e-002 -1.6454720546066899e+000</input_scale>
  <output_scale>
    5.2631578947368418e-001 4.9999999999999994e-001
    5.2631578947368418e-001 4.9999999999999994e-001
    5.2631578947368418e-001 4.9999999999999994e-001
    5.2631578947368418e-001 4.9999999999999994e-001
    5.2631578947368418e-001 4.9999999999999994e-001
    5.2631578947368418e-001 4.9999999999999994e-001
    5.2631578947368418e-001 4.9999999999999994e-001
    5.2631578947368418e-001 4.9999999999999994e-001
    5.2631578947368418e-001 4.9999999999999994e-001
    5.2631578947368418e-001 4.9999999999999994e-001
    5.2631578947368418e-001 4.9999999999999994e-001
    5.2631578947368418e-001 4.9999999999999994e-001
    5.2631578947368418e-001 4.9999999999999994e-001
    5.2631578947368418e-001 4.9999999999999994e-001
    5.2631578947368418e-001 4.9999999999999994e-001
    5.2631578947368418e-001 4.9999999999999994e-001
    5.2631578947368418e-001 4.9999999999999994e-001
    5.2631578947368418e-001 4.9999999999999994e-001
    5.2631578947368418e-001 4.9999999999999994e-001
    5.2631578947368418e-001 4.9999999999999994e-001
    5.2631578947368418e-001 4.9999999999999994e-001
    5.2631578947368418e-001 4.9999999999999994e-001
    5.2631578947368418e-001 4.9999999999999994e-001
    5.2631578947368418e-001 4.9999999999999994e-001
    5.2631578947368418e-001 4.9999999999999994e-001
    5.2631578947368418e-001 4.9999999999999994e-001
    5.2631578947368418e-001 4.9999999999999994e-001
    5.2631578947368418e-001 4.9999999999999994e-001
    5.2631578947368418e-001 4.9999999999999994e-001
    5.2631578947368418e-001 4.9999999999999994e-001
    5.2631578947368418e-001 4.9999999999999994e-001
    5.2631578947368418e-001 4.9999999999999994e-001
    5.2631578947368418e-001 4.9999999999999994e-001
    5.2631578947368418e-001 4.9999999999999994e-001
    5.2631578947368418e-001 4.9999999999999994e-001 1. 0.
    5.2631578947368418e-001 4.9999999999999994e-001
    5.2631578947368418e-001 4.9999999999999994e-001 1. 0.</output_scale>
  <inv_output_scale>
    1.8999999999999999e+000 -9.4999999999999996e-001
    1.8999999999999999e+000 -9.4999999999999996e-001
    1.8999999999999999e+000 -9.4999999999999996e-001
    1.8999999999999999e+000 -9.4999999999999996e-001
    1.8999999999999999e+000 -9.4999999999999996e-001
    1.8999999999999999e+000 -9.4999999999999996e-001
    1.8999999999999999e+000 -9.4999999999999996e-001
    1.8999999999999999e+000 -9.4999999999999996e-001
    1.8999999999999999e+000 -9.4999999999999996e-001
    1.8999999999999999e+000 -9.4999999999999996e-001
    1.8999999999999999e+000 -9.4999999999999996e-001
    1.8999999999999999e+000 -9.4999999999999996e-001
    1.8999999999999999e+000 -9.4999999999999996e-001
    1.8999999999999999e+000 -9.4999999999999996e-001
    1.8999999999999999e+000 -9.4999999999999996e-001
    1.8999999999999999e+000 -9.4999999999999996e-001
    1.8999999999999999e+000 -9.4999999999999996e-001
    1.8999999999999999e+000 -9.4999999999999996e-001
    1.8999999999999999e+000 -9.4999999999999996e-001
    1.8999999999999999e+000 -9.4999999999999996e-001
    1.8999999999999999e+000 -9.4999999999999996e-001
    1.8999999999999999e+000 -9.4999999999999996e-001
    1.8999999999999999e+000 -9.4999999999999996e-001
    1.8999999999999999e+000 -9.4999999999999996e-001
    1.8999999999999999e+000 -9.4999999999999996e-001
    1.8999999999999999e+000 -9.4999999999999996e-001
    1.8999999999999999e+000 -9.4999999999999996e-001
    1.8999999999999999e+000 -9.4999999999999996e-001
    1.8999999999999999e+000 -9.4999999999999996e-001
    1.8999999999999999e+000 -9.4999999999999996e-001
    1.8999999999999999e+000 -9.4999999999999996e-001
    1.8999999999999999e+000 -9.4999999999999996e-001
    1.8999999999999999e+000 -9.4999999999999996e-001
    1.8999999999999999e+000 -9.4999999999999996e-001
    1.8999999999999999e+000 -9.4999999999999996e-001 1. 0.
    1.8999999999999999e+000 -9.4999999999999996e-001
    1.8999999999999999e+000 -9.4999999999999996e-001 1. 0.</inv_output_scale>
  <weights>
    <_>
      -9.4774394706927459e-003 -9.7805219828911334e-003
      -2.0921956870595290e-004 2.4404954239721638e-003
      1.7826149343995246e-003 -4.0739546956759512e-003
      -1.8086671299757412e-003 4.9711256335304189e-003
      -8.0258741567577879e-003 3.8228825866447661e-004
      -1.9748438002816318e-003 -4.5561885684176637e-003
      -2.9975330284229564e-003 3.1486997294390825e-003
      7.1306952547383750e-004 -2.2670657843549533e-003
      5.0370871195420316e-003 8.3227771892789831e-004
      -2.5485483660139530e-003 -2.5002280115775491e-004
      -5.0968104100118641e-003 4.2008445609326983e-003
      -7.5285901558527447e-003 6.1644744656508691e-003
      -3.8553584354916290e-003 9.6616773526332304e-003
      5.0609761704699793e-003 -1.1293055072537396e-003
      -7.9841650000755451e-003 5.1188453096344174e-003
      7.0869217660411872e-004 -9.1729505242223470e-003
      7.5197821958013266e-003 3.8650389908641497e-003
      -1.3554520088649265e-004 6.9280949925869563e-003
      -7.7265310219992315e-003 2.4390471210455505e-003
      -4.6105022292075868e-003 -4.1998577343580054e-003
      -7.7206269581526739e-003 9.9766978577998551e-003
      4.2544577578334328e-003 1.3754517380714702e-003
      7.1796435332770539e-003 -3.6314002586833017e-003
      7.1302042362966882e-003 5.9848411933615987e-003
      -8.7012957274677314e-003 -7.1911688818492407e-003
      3.5753906382966408e-004 -7.8206324736721719e-003
      7.7840334160302673e-005 -9.7247046973899017e-003
      6.5906532945043820e-004 -6.6883423836866093e-003
      1.0267470172397101e-002 2.4589843309896263e-003
      4.2177802259136879e-003 -2.5745004564537138e-005
      -9.1245559952410783e-003 4.6682843740123679e-003
      -3.2086970244528438e-003 -8.6643351054055979e-003
      -4.4314902091338479e-004 -8.0917907515533228e-003
      -4.7106191796082537e-003 5.4813280656156316e-003
      -2.1113643434525519e-004 -7.1603200584857002e-003
      -1.9313744214374390e-003 8.0881452445791969e-003
      -5.7626970373238790e-003 3.2385791708325500e-003
      -9.0264538523999859e-003 -8.3071699634805346e-003
      6.7234290194826728e-003 -5.2206927062768763e-003
      9.4966577799442207e-003 -7.4237071929381592e-003
      -5.7398595433081779e-003 -2.0103225189369886e-003
      8.8759822239327171e-003 1.3590891472343594e-003
      4.2237535617746019e-003 2.9836713601291928e-003
      3.5702107009188372e-003 1.8901887388650806e-003
      9.1388047665465610e-003 3.8644142153306856e-003
      -8.5457007598703349e-003 4.4538058287786611e-003
      9.4856801867413357e-003 2.8557089696693398e-003
      2.8982475581529957e-003 -6.1692684888342113e-003
      7.3143594555870918e-003 -4.1482498175634524e-003
      3.3752444836027528e-003 -7.4452395656556397e-003
      -6.1845268364962300e-003 6.0264122627934659e-003
      -8.4815390293495399e-003 4.0147813343026474e-003
      4.3837645794166848e-003 3.8368163650613590e-003
      -8.6385474387302586e-003 -9.9415775626384446e-003
      7.5109333721571385e-003 -9.5411738712115005e-003
      -3.4234751243589117e-003 -6.3589078712151977e-003
      -7.7230079999872818e-003 -5.1571929445438803e-003
      3.8867623092827793e-003 8.4313922739099843e-003
      -6.6865057053254783e-003 -2.5348848451417455e-003
      3.7118882088317934e-003 -6.6618591861344672e-003
      -7.3443811874468953e-003 -2.5576058866699451e-003
      3.1610320554713066e-003 6.9403163434145062e-003
      9.1255242269702667e-003 -8.7392895667056745e-003
      -7.9585156868439556e-004 -5.2494145688038851e-003
      -8.0898733159987697e-003 2.1927887959098463e-004
      -9.8332158042401651e-003 -8.9059142405920142e-003
      8.9704192336094463e-003 2.2753640837821255e-003
      1.4789415735889002e-003 -7.5156762652871627e-003
      -8.5957154756025871e-003 -4.2846266567992753e-003
      5.1558259987878521e-003 3.7180267592480453e-004
      -8.2661007363254188e-004 -9.5016089234157570e-003
      5.4214194731074770e-003 7.5946995821700438e-003
      -9.5358673566572887e-003 4.0276062510767128e-003
      -7.9922091987431089e-003 -1.9233252445361767e-003
      -6.0736589670730761e-003 6.9899055328251835e-003
      1.0045558859734034e-004 -2.3930381159207072e-003
      -6.1498343560791027e-003 9.1869368739552031e-003
      -5.0312480841038214e-003 -5.0576352806115795e-003
      -7.1358628471272483e-003 -9.6478922676524886e-003
      2.1329996454838495e-003 2.7190032651601965e-003
      5.2443130122763418e-003 -9.0053141158247044e-003
      -3.2104946150842092e-003 3.3401647501044088e-003
      2.8177639379689343e-003 -4.4751893211692527e-003
      3.0455839087828742e-003 -6.5405593841857722e-003
      -2.0932315025789963e-003 3.7954907859074397e-003
      -5.4419576138871415e-003 -1.0389572524830911e-002
      6.9966178861906715e-004 7.9927233867555635e-003
      5.0507399638574776e-003 -6.1690568077717610e-006
      -3.3827172239549036e-003 -1.0073950853355173e-002
      -3.8259064801943474e-003 -1.0450919271156848e-002
      -9.7928840153109192e-003 8.5487957745100859e-003
      -2.5400033143762779e-003 5.0165710185769690e-003
      7.8777970024318956e-003 4.8212059431027281e-003
      -3.7233622833704092e-004 -9.1814154631758571e-003
      -1.7251515388112776e-003 -5.2734601102399341e-003
      -5.3371935619845223e-004 -4.0506534619315126e-003
      -8.1324658393795518e-002 -3.0269933402620169e-002
      5.3673790333856521e-003 -5.8952668091999803e-002
      5.5107918703289731e-003 2.6732498487426586e-002
      5.9768817523117274e-002 1.6391278228251892e-002
      -6.7771440468719968e-002 -6.0545583396064480e-002
      4.3223595865168373e-003 2.7361969325902506e-002
      9.4150591975118408e-002 -2.1508427569919285e-002
      -2.8681987044219450e-003 9.2745535744698432e-002
      1.8699691993522179e-002 2.9208789062527787e-002
      -3.0228849513291426e-003 8.5512714176687002e-002
      -6.0428153576351368e-003 -8.4346556517723905e-003
      7.7501208883479942e-003 -1.2753885856293989e-001
      6.4783581872106533e-002 7.2691235369988514e-003
      -4.9870311352146632e-002 9.4843328831844695e-002
      -1.4530498894159043e-002 2.2480285001016467e-002
      -3.1974577333851222e-002 -5.1653981891361625e-002
      2.1382954996969596e-002 -5.3229059436983202e-002
      -7.8807703020351810e-002 6.9504060885289071e-002
      -1.0166611878066444e-001 1.5258597168849510e-002
      5.8363795320147210e-002 4.1806392343610513e-002
      4.2122892472455570e-002 -5.3289281878304076e-002
      -1.1549173701201031e-002 4.3868605931744617e-002
      1.5810247887169258e-002 -5.7152727603695273e-003
      6.8558278405822362e-002 -5.6224891982785711e-003
      4.7246325967252633e-003 8.8010096356068240e-002
      5.6240780331167549e-002 -7.0887744716050180e-002
      -1.0534976573834912e-001 3.6311719195652313e-002
      -1.9471316794514359e-002 3.8801236811593802e-002
      -5.1211876341303385e-002 1.9403526161237229e-002
      1.1560497761342834e-002 -3.1676294449783657e-003
      1.0883065891365427e-001 4.6569316521378086e-002
      9.0449571640898757e-002 -5.5675656201717813e-002
      3.1513475088629936e-002 4.0246387964099177e-002
      3.4417407642078887e-002 -1.8747455992175154e-002
      1.0138673985214708e-001 -2.2226578525428073e-002
      -1.2136897885649367e-002 -2.4725988108262528e-002
      8.6831543977495415e-002 -3.8572361786447455e-002
      -2.5705815557335868e-002 2.2355687496087628e-002
      -4.8545275954647304e-002 8.9673369602682219e-003
      -5.9653422700133976e-002 -2.3988593279425766e-002
      -2.3566729274934407e-002 -1.4022666207851458e-002
      -2.9276937186035960e-002 3.9243025741789526e-002
      1.0946010739125499e-002 1.6195188289344627e-002
      8.8746167109867574e-002 8.9137635841492160e-002
      9.5065435574001444e-003 1.5766922338197823e-002
      2.0304230398085338e-002 -7.4978560456465712e-002
      3.7040218159147514e-002 3.1364149488241344e-002
      -3.3123590743229341e-002 -3.6729717798669730e-002
      -5.7190147562840195e-002 1.3173096031608111e-001
      -1.2714521793808376e-002 2.1000606655531013e-002
      2.8890914606236811e-002 1.4146130523292791e-002
      -1.0116272675576124e-001 1.0619555502572289e-002
      1.0455546494046332e-001 7.1329256550742353e-003
      -5.6786626447114685e-002 -5.9953449118956323e-002
      -8.3960789483461917e-002 1.2186140397568818e-002
      -4.2207499284810223e-003 4.5934025179161481e-002
      4.3094833008176139e-002 -1.4867073571490736e-002
      1.0458035362943846e-001 7.3759591501711075e-002
      -6.9314710296152923e-002 1.6595850608707437e-002
      2.4034473115052520e-002 -1.4533429266343265e-001
      2.8890131275124107e-002 -2.3749401065155918e-003
      -6.5214629297076152e-002 -2.2354787782437767e-003
      8.2788466557708648e-002 1.4937071062996016e-002
      5.2545695612577929e-002 5.6906162236517926e-002
      3.7080786062321110e-003 -3.0868851146357085e-002
      -1.3437770876336172e-002 4.5793956849317828e-002
      9.2372870356011771e-002 -3.0983721321762941e-003
      -6.2757746358518371e-002 3.8125711814127980e-002
      1.3396036586309648e-001 -3.0620300115243197e-002
      3.6904662409968224e-002 -1.1320494550802400e-001
      -2.4250705595380111e-003 2.0668355763037178e-002
      6.0983764342051952e-002 -1.2658274512212223e-001
      -9.9530966539855461e-003 -2.4350082143030648e-002
      1.2952093941838563e-001 1.2339313182812120e-001
      6.9741519952639863e-003 1.1320994509180194e-002
      1.4103802897512827e-002 -4.6077770846761771e-003
      1.1203496932371249e-001 -5.2996402991957785e-002
      7.5226201831631048e-002 1.0522701340585416e-001
      -2.4803708587369942e-002 -7.3538483340036223e-002
      3.4629461356602102e-003 -8.8584937468146885e-002
      -8.3494115871082467e-003 1.1219625262709208e-001
      -1.3060543413062087e-002 -4.2555738461240555e-002
      1.7138982728027708e-002 9.7857522049906269e-003
      4.2723989839809327e-004 2.0384878402616539e-002
      -3.8833151341367576e-002 -3.5080401680773183e-004
      3.3523475893718867e-002 5.5033775449564067e-003
      -2.8239575175969225e-002 -3.1925628571154482e-002
      -1.1076195745622654e-001 5.5381972872993214e-002
      5.2810215185275879e-002 -1.3789405768451441e-002
      2.5170359792435988e-002 -4.1486324607992835e-002
      6.3073554321972689e-002 -2.2367493171286380e-002
      -2.3418335825836519e-002 -5.1517060678617492e-002
      -1.8082396674115570e-002 2.4513992192458412e-002
      7.9419907601500625e-002 1.2060640021401886e-001
      -3.7623929668070155e-002 5.3396259340907679e-002
      -5.9209467215477641e-003 2.2393718490838755e-002
      1.0311694675354610e-001 3.7287471412719903e-002
      -5.9716478203116832e-002 -8.2577032753740301e-002
      1.3760712555411811e-001 1.9912339297660425e-002
      -1.4084733900778323e-001 2.8000656964490687e-002
      4.2615602125335487e-002 -8.3065636366731602e-002
      -8.5942766344339921e-002 9.3111628191321447e-002
      1.1554230182585115e-001 -7.9013867601963231e-002
      2.9486636399848627e-002 8.7563580333567911e-002
      6.4514114646245790e-002 6.5784292266053979e-002
      7.5521845391191847e-002 1.8957362067270198e-002
      8.0172285745396157e-002 -9.4602555702456223e-002
      -3.1124186616127716e-002 -9.6627715436452932e-002
      6.7625137104315461e-002 8.4607213638434972e-002
      -6.2025109919578193e-002 1.1179493171363877e-001
      -1.2275684885720952e-002 4.5926114926498035e-002
      -1.4049266440803621e-001 -9.7843326822126792e-002
      -9.4349889996731176e-002 -4.4206960099513630e-002
      -1.4124908513183584e-001 8.4806178096634988e-002
      -7.9804314491008471e-002 1.5023100392478506e-001
      1.4066875393395600e-001 4.3551291977451376e-002
      -1.6808940408736123e-002 -1.0690738255101880e-001
      1.4597879425910490e-001 1.3274985585661286e-001
      -8.0892376803374091e-002 -6.6492464353259589e-002
      7.9037608934793446e-002 -1.0175051725798925e-001
      -2.3464990623014225e-002 3.3481705165913790e-002
      2.3286931949285949e-002 -1.2143972880856706e-001
      -7.7843083022813134e-002 8.7281603904937874e-002
      -1.1303705974567106e-001 3.7019006038495304e-002
      -1.1357603897543506e-001 5.2905817882534859e-003
      -3.2907567363946767e-002 5.4016292603722232e-002
      8.6612613589422877e-002 -5.9447990293468631e-002
      8.3713866536484022e-002 -8.8510829931258264e-002
      5.6524493935736664e-002 1.2630048173537606e-001
      -2.4368142043743334e-004 -7.2064992495510113e-002
      9.5079276118074332e-002 -5.4983329620672587e-002
      8.7189855372832567e-002 1.4003562481057388e-001
      1.5459778930882781e-001 -1.2619239979147620e-001
      -1.3360486497773449e-002 -1.2067555339246096e-001
      -4.6172248557268543e-002 1.1233997306273130e-001
      -9.8597373003208783e-002 -5.2668375346744775e-002
      -6.1946346921325564e-002 -4.7428377764242224e-003
      -1.6380028714291375e-001 7.5352710425091118e-002
      -4.8831695372239220e-002 6.5925683937278143e-002
      4.8879544105758350e-002 1.0246196809314172e-001
      9.9155318435876647e-002 2.9054590583480384e-002
      -1.1734601146460397e-001 -1.9216963203669671e-001
      1.0073569370746119e-002 5.0577168976776665e-002
      -1.2531141341930582e-001 -1.9206761511658429e-001
      -1.4661737493551721e-001 7.4134092241440019e-002
      1.7206127668592075e-001 -4.9312243276204926e-002
      5.6931139493397891e-002 -2.5143231268817054e-002
      -1.0019189189477665e-001 8.4047477688482572e-002
      1.5408052037098999e-001 -4.8650856550200870e-002
      -7.0450562432843811e-002 -4.9750923650268335e-002
      -1.9102274415873427e-001 7.5532908571871851e-002
      -6.0668250868359135e-002 1.3828348467819015e-001
      1.4586299331495220e-001 3.3615780381903472e-002
      9.5627848125430293e-002 6.8762399921206974e-002
      -8.0785932471608771e-002 8.2821901002901918e-002
      8.6194168590947667e-002 -1.6163177811484561e-001
      1.7298213128188791e-001 2.5272952940722744e-002
      -9.1535978089876097e-002 7.5447656622205789e-002
      3.7226991140932052e-002 -5.3506896741988543e-003
      2.4376607189978479e-002 1.3516437793312197e-001
      1.5634714113477524e-001 3.0341536252075089e-002
      6.3363659613875759e-002 1.9870602041876412e-001
      8.2552828149622851e-002 -5.9802393447289943e-002
      -4.7200291121639953e-002 1.0862492933441718e-001
      -5.3445236897455950e-002 -5.7127338997403979e-002
      4.4690151970369192e-002 -9.8818471540243272e-002
      -6.1278115839541658e-003 4.4699092327590687e-002
      4.1476242500578818e-002 -7.2399087193966219e-002
      -1.5128432095702307e-001 4.0895124189708622e-002
      8.7665854787763536e-002 7.6656743958485943e-002
      -4.5540339597033748e-002 1.0133108674541973e-001
      1.3223919170034570e-001 1.0955433156199804e-001
      9.3237207670923264e-002 -1.6612955399042151e-001
      1.1804915909931930e-001 8.1369821789472649e-002
      -3.5382968392629062e-002 -8.9838275028753647e-002
      -7.8334180998435046e-002 -8.5185679993075400e-002
      1.0428752460082877e-001 3.7307527229118051e-002
      -5.0145605532596629e-002 -6.3346386888311373e-002
      1.3476319397794742e-001 -6.4223879978331400e-002
      -7.9573538418639816e-003 7.4388180681608670e-002
      -1.0569880610988783e-001 -6.7789862981637222e-002
      1.2619295987527038e-001 -3.2913894610294397e-002
      -1.0045321290191778e-001 6.6301845368837820e-002
      2.5831604153305696e-002 1.2331829219031802e-001
      9.9945022890230814e-002 -1.3400238289973915e-002
      2.0175752683427033e-003 -2.0351115798225083e-002
      7.3116180688515775e-002 -1.8123922647186836e-002
      -2.0066931201436527e-002 -6.2767942584381370e-002
      1.4812917593260283e-003 6.8750967074166322e-002
      1.0277975363447277e-001 1.5982750330485973e-001
      -6.2042321906986711e-004 1.3798006868795351e-001
      9.5657610625524664e-002 -4.9965185408513732e-002
      2.0703581846367328e-001 -1.7623728937151358e-002
      5.0754969209978830e-002 6.6497690110257510e-002
      -6.6748800923546583e-002 7.9144970705864719e-003
      1.4900136030307466e-002 -2.2549667335426064e-002
      5.4128629477847448e-003 7.7716071877256723e-002
      1.0177896436450079e-001 -1.1267468824973575e-001
      -1.4151336894030581e-001 2.4289073104347675e-001
      -1.4062939390753906e-001 -1.5071067049878922e-001
      -1.0901455446029795e-001 -1.0667338607438924e-001
      -2.9825137061500633e-002 -1.3293926855817212e-001
      -3.7766113246783972e-002 1.0690189777765130e-001
      8.0736634937599486e-002 1.0456477105505700e-001
      -5.3136786586066763e-002 -3.9328710215220969e-002
      -2.8409718827302186e-002 -5.8511097930344251e-002
      -5.0030388456858838e-002 5.1389498512033064e-005
      8.4870024960512699e-003 1.7266328199015812e-001
      1.4094215549171724e-001 1.6068892214247529e-001
      1.4705779469787048e-001 -1.0456894611477270e-001
      1.5817676148891105e-001 -8.5031324747903425e-002
      -3.3966274445410810e-002 -4.1048592654972835e-002
      2.0987961235225689e-002 1.7286835750245411e-001
      -5.3649690259436666e-002 -1.8440420174814556e-001
      3.7844498333074718e-002 1.5389682856670250e-001
      -9.6023293325937134e-002 1.8314268534186756e-001
      1.9062405157686904e-003 -1.3601640091629030e-001
      -7.4865584267519311e-002 4.3875380275268480e-002
      8.6512200521770027e-002 -1.3985459356408417e-002
      8.1279857587220131e-002 -5.8018389755114246e-002
      1.4725788602571119e-001 -6.2748808176759360e-002
      -2.8644727383836589e-002 1.0026541868740451e-002
      -1.5069329465443723e-001 2.7369032065299292e-002
      -1.3002310418499277e-001 -2.2880190914105963e-002
      -7.8093242960706452e-002 -3.1574399188954307e-002
      -1.3911327804057136e-001 4.2724014500087303e-002
      -7.3923051078263149e-002 2.6339379617334298e-002
      -1.0957940341589364e-001 -5.2238630777840175e-002
      -1.1186326442055838e-001 1.8567980080473742e-001
      -2.7506919989111729e-003 1.4354184533393760e-001
      -7.1958929632323101e-002 -7.5278761531603955e-002
      9.9244548259853418e-002 7.8606059615662915e-002
      2.1962691816126402e-002 8.4762847270707202e-003
      2.6080893645245802e-002 -9.4151815748473991e-002
      4.9333468856659721e-002 -1.4446344677957381e-002
      -4.5920840657560413e-002 -1.6739788616857293e-001
      -8.6350424072631562e-002 -7.1977549871879265e-002
      1.2884488071785608e-001 1.5188836434416383e-001
      -2.8614386854196462e-002 4.7718275516221050e-003
      7.3898985425218514e-002 1.3238766101516244e-001
      1.1584456534137627e-001 -9.9758903016872763e-002
      -1.5655375384389542e-001 9.3875884544352861e-002
      -1.5518766714583226e-001 -1.5914981512148773e-002
      1.4858851027406447e-001 -4.4121747555720688e-002
      -1.0977446362829767e-001 1.5067839408757258e-001
      5.7714067162190727e-002 8.1311165244221495e-002
      1.1765816807606497e-001 -9.6787319312618872e-002
      4.2869104831581309e-002 -9.6152593046558141e-002
      -1.1756247978565106e-001 -5.6771570568280937e-002
      -1.4690307473990244e-001 -7.8469463891231203e-002
      8.0588534364341519e-002 -1.1196160497216967e-001
      -1.7132540990253253e-001 5.2871288487329741e-002
      -1.1012787450608207e-001 -8.0607500485131031e-002
      9.8847911276954151e-002 -9.0986003679349184e-002
      -9.8933948408873026e-002 8.9702648477198471e-002
      -1.0009864378371307e-001 -7.1859156697279811e-002
      -2.6761666830694631e-002 8.7315317927941810e-002
      -4.2277976775875144e-002 2.4386122943767935e-003
      -1.1742443052181670e-001 9.4780858916604524e-002
      4.3271353923648684e-002 -1.4042604005093881e-001
      -5.2086633983503133e-002 2.4765280275335203e-002
      1.6822505574048831e-002 8.6072185420865532e-002
      9.3617462407685842e-002 -2.0840209543282421e-002
      -1.6414603394082211e-001 7.3170515240984932e-002
      7.0599085032152134e-002 -6.5038041256596124e-002
      4.5627464157625378e-002 -6.6073648961247303e-002
      1.8649295569957921e-002 -1.5372959974114275e-001
      -8.8331756450854060e-002 -1.0705107122890926e-001
      -8.5069795256913452e-002 4.9197687898659533e-002
      -3.4086876700343320e-002 -1.2372942641263987e-001
      -8.6776770829435305e-003 1.2577423966619239e-001
      1.3318629435135479e-001 3.6947135294139011e-002
      -1.4722373771184050e-001 -6.7870224237746565e-002
      1.4681532017124413e-001 1.3786800321955279e-002
      -2.5725322890661042e-003 6.2908936679564070e-002
      7.0711255775956272e-002 -2.0566233502959972e-002
      9.2435585906649839e-002 1.7509180378493607e-002
      -1.7630505529485083e-001 6.0465392110142159e-002
      1.4113327194516850e-001 -9.5664405253732612e-002
      -2.0218490875224128e-002 -9.5808352639222397e-002
      -8.3376143952150220e-002 -3.3447386738130559e-002
      9.0850536121237169e-002 1.4710485011309596e-002
      -9.9688425756548779e-002 2.2162668466709574e-002
      1.6114338215130314e-001 1.1288894349784030e-001
      -2.2951805498823932e-002 -8.3086379472117736e-002
      -1.5633138735190297e-001 -1.3248447802440469e-001
      -1.1532054080430089e-001 -1.1998525208527915e-001
      -8.5708346834540997e-002 5.2389466653274312e-002
      -2.2382800308855082e-003 -1.3761365764326008e-001
      4.4285410401718760e-002 4.6087798319628698e-002
      -3.5946046793544566e-002 -1.1809428566133323e-002
      5.1360667505059986e-002 8.6377147209088553e-002
      -8.6650008482462335e-002 -6.7903605617148324e-002
      2.7522256128785583e-003 -3.5488892995390903e-002
      1.7367771387340896e-002 4.0077635770222865e-002
      -1.4205259791018048e-002 -6.7716153091670506e-002
      -4.6879304094564443e-002 1.8267987062453760e-002
      1.3002377444585342e-003 -6.3935462803383150e-002
      -8.4389035652352534e-002 2.4299313465370627e-002
      -5.2877324980681102e-002 -2.2470555179770108e-002
      -2.9645049256502571e-003 3.3893960225297504e-002
      -5.7427269760917145e-003 -8.2258623938622662e-003
      3.6293553177061608e-002 -4.2266643269539219e-004
      -2.7269096465767098e-002 -8.1606882981501670e-003
      2.9944122053912590e-002 4.4276145192341507e-002
      4.2964350037061658e-002 -1.6728452572723190e-002
      2.1255179690365795e-002 -2.2639807502937374e-002
      3.1667443215665982e-002 1.7442178861227994e-002
      8.8293989949221538e-003 7.3761442536969438e-002
      1.9901633112999310e-002 2.1438709398089256e-002
      -1.6681139485939748e-002 1.1800442665448575e-001
      -4.6721380118957788e-002 8.0593036377323513e-002
      -6.9093290077889050e-004 -3.0672121659582802e-002
      -1.2444197406019946e-002 -5.1798166490054344e-002
      -6.5093579579622160e-003 3.9908005539587843e-002
      2.0609845372623826e-002 -3.2623744352852290e-003
      1.0367420311881637e-001 -2.6088199928375178e-002
      -3.7217074546549100e-002 7.2050122678402537e-002
      -4.7916829058652126e-002 7.2653963744849864e-002
      -1.9214985156641162e-003 1.3426374971811076e-002
      5.0509920303870902e-003 -1.0322531644045285e-001
      3.4278219217682024e-002 3.4896927363963680e-002
      1.0111527105207904e-002 -2.1993103815431663e-002
      -4.0492184496864411e-002 -4.0559239887694193e-002
      3.1027522398300096e-002 1.1546348112111290e-002
      -4.8647707374136512e-002 2.3935061043210370e-002
      2.5290265651598941e-002 -5.8648327310529678e-002
      -3.0214333536571741e-002 5.2397381419041565e-002
      6.0864063523020429e-002 -6.9195000233426606e-003
      1.8667489187339681e-002 -7.6407504503378340e-002
      -4.0545419160027407e-002 2.2860375574908352e-002
      -7.9698416068213707e-002 2.0571727823851166e-002
      -1.0153293257082766e-001 -8.0398589449432053e-004
      -8.3822559064563665e-002 5.2675114609742175e-002
      1.2234004061458083e-003 -1.0705446398920820e-004
      2.3397846766667438e-002 -6.5881178364350937e-002
      -2.4607002934681189e-002 -9.0543808910533527e-002
      -5.6661364996422846e-002 9.4667453265835384e-003
      1.9097168171677587e-002 2.7250651459459017e-002
      6.7254293065467693e-002 -9.4274516593692015e-003
      -5.1750110984390509e-002 9.6815183811951130e-002
      -8.3266784269755950e-002 6.0591454655832364e-002
      5.4301818493172676e-003 1.6291390538261206e-002
      -2.8576471919205450e-002 -4.3627368171733641e-002
      -3.8761960700564382e-003 2.7564600789236299e-002
      -7.9767683718093806e-003 6.0967213785979524e-002
      1.1995316740970074e-002 -8.1982796944797109e-003
      -1.3642341115424271e-002 -4.0174397019963497e-002
      -5.0012355739872429e-003 -3.1739251351352638e-002
      3.0619543390485050e-002 -2.1084738476224749e-002
      4.7725352107407762e-002 3.3214980750432520e-002
      9.9578534617597077e-003 2.4112621547463450e-002
      2.1499544290931087e-002 -2.6554162194072837e-002
      2.2147417484790266e-002 -2.2248536124338983e-002
      -1.3786377478407788e-002 6.2542550128833838e-003
      4.2741524054551359e-002 -9.1317905444001979e-002
      -1.4538766003992528e-002 5.6249801151517002e-002
      2.4932163117404493e-002 -1.5524063694154837e-002
      -2.2404965066312056e-004 -1.0342077513493577e-002
      1.4908447625522861e-002 -3.2720575005630470e-002
      8.4425208370791593e-002 6.9565962498855202e-002
      6.9551867946900502e-003 1.9719213447073072e-002
      4.0210669575315916e-003 -4.8225828304112407e-002
      -4.6482663390841193e-002 -8.0200416686559278e-003
      -2.4678162354251201e-004 -1.0611931795604207e-001
      -8.1751889870847971e-002 -3.2126570606723089e-002
      6.0721295663836362e-002 -3.3579358327908197e-002
      1.4817218442895689e-002 4.6326660463282092e-003
      -9.8587374944225148e-002 -4.7886255767917059e-002
      3.3440148351608699e-003 1.1283846100901712e-001
      5.6957995758162981e-002 1.1076998215200662e-002
      6.0311384262412622e-002 -7.0137511261829572e-002
      -5.5373688345143203e-002 -3.9231504769403049e-002
      -1.3335514981237527e-002 5.9725035297952964e-002
      3.2704863136063543e-002 -3.0186771559682170e-002
      1.1164187625607297e-001 -6.1531645391406639e-002
      -8.2245461858735311e-002 4.9433211684668304e-003
      6.5694267926912617e-002 -7.4197617144118391e-002
      -7.2657036683447723e-002 -1.4948948172276488e-002
      -2.5973141758485186e-002 5.0079493099870538e-002
      3.5258045742789508e-003 5.4743656081230822e-002
      1.3743722737733003e-002 9.0232552594314598e-003
      -4.7349123913874420e-002 1.5780481598091794e-002
      1.0786442453845951e-002 3.9784321105626547e-002
      1.9305847924282618e-001 -8.5029192573031334e-002
      1.9777463524666587e-002 1.9978764876073335e-002
      -8.0489498284382371e-002 3.7509250735699444e-003
      5.1009754661400491e-003 3.9599313759512717e-003
      -3.5463170453554835e-002 7.7307096299239333e-002
      -1.7285899803338532e-002 7.8773441718592338e-002
      -5.6993346679126269e-002 8.6776888945978630e-004
      2.1989140177881211e-002 -6.4395352370664405e-002
      3.6829714373425634e-003 6.1872406640002799e-002
      2.4185346886543901e-002 -8.3960273174090772e-002
      -7.4115748811131699e-002 -4.2514423043064797e-002
      -2.7905189288988209e-002 6.6000314919269040e-002
      6.8735573234226183e-003 1.7084895487743140e-002
      -3.6622764305403892e-002 -5.3499643696651833e-002
      -2.5183835420800271e-002 2.5774218193901469e-002
      3.9075293786507717e-002 6.4187254715543221e-002
      -6.3001633618776406e-002 6.0698420051501910e-002
      -6.4455716125045207e-002 4.0780709423409250e-002
      4.7117513248303933e-002 -1.6521174765368043e-002
      -7.0694420807823385e-002 -4.6104855673748064e-002
      1.8716257195814864e-002 -4.8135021862074495e-002
      -5.1733274441662751e-002 8.3634135318340269e-002
      -1.1082006180626915e-002 2.4526930982243018e-002
      -1.6289374216605021e-002 -6.9025848765019618e-002
      6.2164805119169254e-003 -5.1196472769247270e-002
      4.2503775799169877e-002 4.2464287435457812e-002
      2.1663663302327593e-002 2.9166117848055508e-003
      -2.1489152712490574e-002 2.6703709520438577e-002
      5.5110552884177100e-002 3.1356783407002022e-002
      1.4463474953379617e-002 -4.1464924245204683e-002
      -5.6679640133290285e-002 -1.9269045600703718e-002
      3.3291623491646861e-002 1.3811422172519329e-002
      2.7787909305115842e-002 4.1435360115965611e-003
      6.6112900365054676e-003 -2.9778279933699969e-002
      -1.8841018432772385e-002 -6.9711763503175914e-002
      -8.6111952306588569e-003 -2.9125498094421602e-002
      -4.1753849053811277e-002 -4.6163682227073448e-002
      -5.1478478947107519e-002 -4.7672269959110919e-002
      3.5755870954923732e-002 -2.8453738714769385e-002
      -1.9718462332315754e-002 1.9530904327207960e-002
      -3.3728159372037776e-002 1.7400430029691733e-002
      2.0559252527520933e-002 -2.8287340549689118e-002
      -6.6725291666096271e-003 -6.9425669999872291e-003
      4.5854679871584099e-002 -9.9010020944779231e-002
      3.7794084919569981e-002 -1.7432005692169655e-002
      3.5292137630269907e-002 1.0737089493971241e-001
      9.3222046751906523e-003 1.0414448748681776e-002
      4.7619314685656687e-002 -2.3647169241987794e-002
      6.2889867228956790e-003 1.7985659776458968e-003
      -5.5162851412499710e-003 -1.8959560019941588e-003
      1.4389151399510981e-002 4.0693999215353681e-002
      -5.8823740451460924e-002 1.6509638623064690e-002
      -6.4783651695333802e-002 -1.0901472561308332e-002
      -4.9573127339359840e-002 7.3141451312039724e-002
      -2.7685212486832957e-002 -4.5625842974301750e-002
      3.5082946734791072e-002 -5.2243018477601426e-002
      3.9193110287587839e-002 4.1291858785890527e-002
      -9.1371050717075963e-002 -2.4584835130190410e-002
      1.6710837905184482e-002 -8.8776563310670291e-003
      -5.2595989803181704e-002 4.9384001706409046e-002
      3.2341241472397149e-002 5.4327087084156754e-002
      -4.8671561583340857e-002 -3.0631064744901695e-002
      -5.8306264448823468e-002 -1.5431329220960655e-002
      -1.1873879547042950e-001 3.0244491609526861e-002
      -4.0555958574722918e-002 -1.5588043906925832e-002
      2.1208494550213380e-002 6.5927957818963726e-002
      -2.4546330848432586e-002 6.3592359530281639e-002
      8.0839418742514504e-002 -7.4865443713319296e-002
      -2.9454951247240430e-002 -4.7900950443749077e-003
      1.9495863733895058e-002 4.3642680184359101e-002
      4.9095678052453028e-003 2.5749891354401415e-003
      -1.3959519054415189e-002 4.9593116815213431e-002
      5.0521494912347933e-002 6.0502325787730099e-002
      7.4950199795200990e-003 -7.0869403549095003e-002
      6.0234927963692458e-004 7.7783112947906021e-003
      3.8865863433365878e-002 2.7546518422805623e-002
      -2.9427521239594884e-002 -7.3542399541698056e-002
      -9.7021389504855796e-002 1.3758437939042807e-002
      8.1370906165461859e-002 1.7731372448595777e-002
      2.3553816090591845e-002 5.1495648940552814e-002
      5.5005153534712213e-002 -6.2452383096061700e-002
      1.7503819265357434e-002 -4.3729423390472949e-002
      -1.0374712786975682e-001 1.8163622749318206e-002
      -3.7627107317950791e-002 -3.9624502612149087e-002
      6.7863839675649977e-003 -4.4310821093647337e-003
      -4.7543082100291997e-002 1.9072447244567008e-002
      6.4924842687652473e-002 -2.2671376766752783e-002
      4.6852447809823644e-002 1.0751844801815923e-002
      1.5874872638454871e-002 1.9103391185390801e-002
      3.3909710203461549e-003 -7.6754021704124362e-002
      3.5572517942619973e-003 2.7948672944792034e-002
      -9.9984135532183143e-003 -4.2749216484736359e-004
      2.5698390381333550e-003 1.1955045915673914e-003
      -1.3729397521005295e-002 -2.1919247861641584e-002
      -2.3210395079705234e-002 2.7450669412149072e-002
      -2.6213400269219558e-002 -4.0646471703752851e-002
      8.1056544335380509e-001 -2.1517916716865870e-002
      4.0320506134787229e-002 2.5213913248539579e-002
      -2.7469916640320113e-002 -9.4310123925163553e-003
      7.3511262335869160e-002 1.0279995630715726e-002
      -1.5149420909768976e-002 8.6919231887771550e-002
      1.5574553434954001e-002 -8.1468078042510522e-002
      -7.0133861606056336e-002 9.0375673249298752e-002
      -7.5237798275247486e-002 -3.1897951209290731e-002
      -6.5681544993026249e-003 -7.3328827269687050e-002
      -6.3386504869910265e-002 -8.6381699809469512e-002
      -5.6650535283154377e-002 1.1732981834569413e-001
      -1.8024291629190867e-002 7.9935937755932357e-004
      1.5233716043882314e-002 2.4520689271757688e-002
      -7.3466552618360631e-002 -2.7093716807120784e-002
      -2.6143780408800148e-002 -1.5342711456085064e-002
      -2.9993938337918805e-003 5.4258426896972640e-002
      -1.5642593624717479e-002 -4.3344375970205326e-004
      8.0837092419593734e-002 -3.0403191515148226e-002
      8.4247735537012550e-002 -9.8259449612384531e-002
      2.2600258460556789e-002 -1.0417809339145394e-001
      -1.2204764194956126e-002 5.2691342323943700e-002
      1.1382024818748913e-002 -1.0249846322968200e-004
      4.7883743680693147e-002 6.3168487887506106e-002
      -4.1425768402272153e-003 1.3151428542783844e-001
      1.7304119307682932e-003 -1.4374797280157683e-002
      -9.3104081905056903e-003 1.1788126240488556e-001
      2.2442920451342604e-002 -4.5647576274615999e-002
      7.2967784215101805e-002 -7.1129206906614274e-003
      6.6545739278855515e-002 -5.5804554537046754e-002
      -8.0109347639969342e-003 4.3625466090776686e-002
      -4.6079059673671895e-002 1.0432433529649621e-003
      -1.1095373900558081e-001 -1.5484086185426625e-002
      -1.4091985776064855e-001 -7.9698455824138859e-003
      -4.1115341528816678e-002 3.0243233277232811e-002
      -3.1081681080053894e-002 2.0969148525922785e-003
      2.4598129130981809e-002 -2.2371423689684696e-002
      -9.1848561802031187e-002 1.3992893224979283e-001
      9.7476339035309389e-002 8.6098145780105606e-002
      -4.5347682246175719e-002 -6.1144139277250334e-002
      1.0737437955780724e-001 6.4762931348842950e-002
      1.4057410516055163e-002 5.4715219901784774e-002
      5.0940249973070222e-002 1.7908238231361621e-003
      4.5648069564080851e-002 -1.7715761337433484e-002
      -1.2939449715630658e-001 -5.2235430037803357e-002
      -6.6250833174423707e-002 3.9509511710188572e-002
      -9.4048849201200744e-003 5.3345809828492047e-002
      -1.1339360367273418e-001 -8.3149183000235556e-003
      6.4609339841496055e-002 9.5835708521274723e-003
      -1.2904194506719384e-002 -1.4047093804271976e-001
      -1.2686425740493326e-001 1.5802529952667167e-002
      -5.7757811828842182e-002 -1.5913233485270602e-003
      1.6629814344852947e-001 -1.2059197205470159e-002
      -6.8473065922328560e-002 1.1262347638517507e-001
      -6.4541886476893479e-003 1.5420737841621493e-001
      -2.1899495874748712e-002 -4.9061440388258937e-002
      3.9949634820232949e-002 -6.5082414021728013e-002
      -9.8536833875525531e-002 1.8432970634439605e-002
      -5.4063570762907014e-002 -1.4579333970963330e-003
      -3.5343535085079103e-003 -1.2548037930466624e-001
      -7.6172362966914639e-002 1.2797355983928488e-001
      -4.9832891610971548e-002 -3.7785333527142036e-002
      8.6030294549837696e-002 -6.1605976221003465e-002
      -5.5332639733487871e-002 3.5079422213273085e-003
      3.9383706786569564e-002 -2.2357738343171705e-002
      2.8285456029509704e-002 1.1232708063561612e-002
      -3.4755739356080943e-002 -3.4943414815064841e-002
      -1.1513306691667137e-001 2.2034871564132249e-003
      8.7566124275920226e-002 -5.1227192410763442e-002
      1.7703669995155338e-002 -2.1902508000883401e-003
      2.3322138905944932e-003 2.1787467854521493e-002
      4.4308568702443332e-002 -1.3657793982907339e-002
      -3.6790502782315167e-002 5.8587692552467020e-003
      7.5593514810759821e-002 -1.5825266737441994e-002
      8.3553169165073743e-002 1.4732320628532239e-002
      -3.4694936745574709e-002 -4.5923603002404140e-002
      -8.3173377578103211e-002 -5.9894524956869401e-002
      -3.3185830420882870e-002 1.1825537143731062e-001
      1.5268855521609082e-002 -7.8339763307457289e-002
      7.4608605905902306e-002 9.5480499739459074e-002
      8.7784541762843005e-002 2.6057805126068583e-002
      -1.0274152426026219e-001 -5.8484770723991802e-002
      1.1078828718656653e-001 5.3178062597622325e-002
      1.0054104368703005e-002 -1.5881852573124654e-002
      -6.1879443780859548e-003 -3.8336224547036023e-002
      4.4542958026680082e-002 6.5112664218690885e-002
      -8.0842290043590226e-002 1.3881308262351297e-002
      5.2388377079773771e-002 1.5322748682305707e-002
      1.5690615170192150e-002 -1.0415205414926709e-001
      -1.6240539527563450e-001 2.0157692234199776e-002
      8.2616361471966340e-002 -4.2423975716783399e-002
      -6.9584690976709787e-002 -2.3213553797553611e-002
      6.4494714491715038e-002 1.1241144648412334e-001
      5.0659084841591470e-002 -5.3012112428392953e-002
      -5.3826982114379217e-002 -1.1444420424267303e-001
      -1.4088375655005977e-001 -3.4708641408267675e-002
      -1.0573460468232503e-001 7.2140431691091300e-002
      1.5136720916931972e-002 2.5415046224725676e-002
      5.6458935737449319e-002 -2.1037575671705517e-002
      -2.0326093964720841e-002 -2.5736081229646778e-002
      -7.6755969364558502e-002 -5.0954350347705776e-003
      4.1503645991861168e-002 -7.2950107431040204e-002
      -6.4987378550620062e-002 4.7654172420706534e-002
      1.1439819120543218e-001 6.3641805521180150e-002
      1.0838579874844538e-001 3.3386876452827013e-003
      4.4935411197647428e-002 2.4429662482411883e-002
      -9.1026926771356868e-003 -1.7981024813041532e-002
      -3.7428871754726721e-002 6.4671351709286576e-002
      -5.0097415792376566e-002 -2.0437076715427792e-002
      -5.2441862175699627e-002 -3.0318901291965343e-003
      -6.4301204122183722e-002 9.4329751602010806e-002
      1.8837822011407827e-002 1.3104806375974351e-002
      -7.7037605007600511e-003 -4.2539670696595151e-002
      2.2925615695238498e-003 -9.4465547543493567e-003
      -1.7977782200352357e-002 1.0456056943093782e-001
      -2.7306844114128169e-002 -2.6791422989015847e-002
      3.4778221778566869e-002 1.7647278424044052e-001
      -3.4617733522648866e-002 6.2685161269321138e-002
      4.3183520621303768e-002 5.3713282261717343e-002
      7.9004940561802975e-002 -4.2516842769978608e-002
      7.0972276872875587e-003 -5.0694209081820589e-003
      1.3916861140386047e-002 -5.8665890517746858e-002
      -2.0587638769731683e-002 -4.2979438691237291e-002
      4.3271128890417787e-002 -9.5161239591947649e-003
      -1.7405624916583450e-002 1.0399468715147228e-002
      8.6622527309841060e-002 4.0593378264807321e-002
      1.5087118322782546e-002 9.2080313646180009e-003
      -2.1984614899573915e-002 5.7471383894122131e-003
      7.2304879125155055e-002 4.5885118921238491e-002
      -5.6539029112975731e-002 -1.2725380690439934e-002
      5.3209845154867860e-002 -5.9642295894080143e-003
      -3.4466362668916090e-002 -2.1464543373706371e-002
      -4.9076184525025220e-002 5.8402914231501811e-002
      -4.4612758408035412e-003 -7.8905090032380318e-002
      5.7742679981833613e-002 3.6310499549858148e-002
      -5.0658985430263937e-004 2.7574453504894157e-002
      -1.9867968901889049e-002 4.9053765315956128e-002
      -1.9362821069621061e-002 8.3872432086334828e-003
      2.8448145595309626e-002 -1.5663091220392431e-002
      1.6485253641706499e-002 3.2380282073060269e-002
      3.9464815453002434e-002 1.0775642586077369e-002
      -3.9070571332130072e-002 1.5618839652481771e-002
      -2.3641493660059888e-002 8.0354434248284326e-003
      -9.0774886565607463e-002 -2.0520247384985750e-002
      -3.5658702201388448e-002 -6.4484933646948434e-002
      8.3251904555760828e-002 1.8240351292520895e-002
      8.3581181396644045e-003 7.8581905704556684e-002
      2.5731349270170047e-002 1.2505210945197427e-002
      -4.9762325565829081e-002 -3.5028568374929403e-002
      -2.0731641861085226e-002 9.3760084528517862e-002
      5.2745952363877247e-002 2.1475098608355871e-002
      -7.0209236426136426e-002 -1.6365510683266599e-002
      7.9550739025160050e-002 -2.9111724448428328e-002
      2.2281981501269189e-002 4.1731269128942795e-002
      -5.3318596775529734e-002 2.9313471881529295e-002
      7.9027579243515188e-003 -9.2492093597730848e-002
      -2.3555333750669514e-002 -4.2610464338464119e-002
      -1.4660427384931833e-002 -5.7865460226206630e-002
      -2.5631114455662331e-002 -8.8226751098534461e-003
      4.3704974063644833e-002 4.0574215827504187e-002
      -6.6421132241415717e-004 2.9943436100676533e-002
      -3.1536189339659050e-003 4.5279694234159000e-002
      -4.2400334185744674e-002 -1.0725348296393124e-002
      -3.0123347581266027e-002 -1.6270140809350003e-002
      -1.6703496547058643e-002 -8.9391033449498461e-002
      -4.7821817890063761e-002 -3.0696094384392417e-002
      -6.0224294647388283e-003 -4.4119917758785210e-002
      3.3472373377184603e-002 1.0876412590804853e-002
      -3.9213769558441282e-002 -9.1266512100330044e-003
      -5.6592471959891564e-003 5.3588176331652746e-003
      -1.1085836347078440e-001 6.0518958077594741e-002
      -2.6096739395312530e-002 -7.3178307097737136e-002
      3.4844104127103766e-002 7.6632954249045648e-002
      -2.6212061541615130e-003 -6.0126448124995666e-002
      1.6566064803412585e-002 -2.3607632859237917e-002
      -3.3390191493889430e-003 5.8804427769209633e-002
      3.5404966031301881e-002 -2.1656632907748118e-002
      2.4912984132371946e-002 3.9877786176577945e-002
      -3.8475188094621110e-002 -2.1424846756159847e-002
      -4.4433199413195087e-003 -5.5067113965064800e-002
      3.2653421629035974e-003 -8.3681498426224646e-002
      2.0735693026467029e-002 -2.0485769201570005e-002
      4.2946098506666731e-002 -9.1535233358549239e-003
      -1.1987505523376789e-002 -2.9994035075013525e-002
      6.8363054641853743e-002 -3.3802260206606774e-002
      3.8283324578544990e-002 1.3040585781138030e-002
      -8.0001075503008404e-002 3.5596481920163160e-002
      6.6623968739228004e-002 -1.3891745861314701e-002
      -1.2797300582965704e-001 9.5215544865500847e-003
      -4.7243054583341375e-002 6.9977588697895582e-002
      -5.3594676666462115e-002 -5.7930408543724637e-002
      2.5387891794683939e-002 -3.5248092108808575e-002
      1.5410878675879825e-002 1.6168757033055328e-004
      -1.9036119039094381e-003 5.0928765345436078e-003
      3.3976846532656783e-003 -9.6307312388558327e-003
      8.7618278966860566e-004 -7.4929469503565334e-004
      4.3028733322259417e-003 -4.6174103055564835e-003
      -5.0243034617089878e-003 4.9164454044062526e-003
      -7.7404082065187412e-003 -7.4930674187775386e-003
      6.4339377500017680e-003 -1.0249067598700149e-002
      -9.7199076358318731e-003 -6.2840798383600877e-003
      -2.4693631986130583e-003 2.5571188699942105e-003
      -4.7997865082905480e-003 -6.1760355151996901e-003
      9.4624460660269714e-003 8.1235187724211701e-003
      7.0765683225005585e-003 4.9675376420954664e-003
      8.6332120947426889e-003 1.8127942481816644e-003
      -9.9802339239919409e-004 1.0905323333965237e-002
      6.6450579072904383e-003 -5.7787412621494406e-003
      -3.8027940099316111e-003 -1.0040033245665159e-002
      -6.7707802530220292e-003 1.2857913738343553e-003
      -8.8117123751824192e-003 -6.0832977297283473e-004
      6.7106294209710602e-003 4.6521707145532193e-003
      8.7850007346562103e-003 6.7175619040486610e-003
      1.8783345810083711e-003 4.4313210829874435e-003
      -9.7247608235000189e-003 6.1026071237459088e-003
      -9.4535085672311763e-003 -9.8141661722331627e-003
      6.8988174487772426e-003 2.1207394604121424e-003
      -5.6388524969387581e-003 1.0796162371533673e-002
      5.2110457235924786e-003 -6.1267492105398606e-003
      9.2751419765964224e-003 -7.0594236170570474e-003
      1.8224208235541341e-003 -4.6849011884824024e-003
      1.7926329089055996e-003 -8.8695806539368927e-003
      -7.3927441834929957e-003 -5.8979470136793482e-003
      -1.1319529825442127e-003 -3.2825713880609226e-003
      7.0965192685047513e-003 8.9259599104669438e-003
      -6.3066233693328463e-003 -2.8247770804946701e-003
      6.7454022530445317e-003 -1.0599055262547105e-005
      5.4289662664442906e-003 -8.4362128755776245e-003
      1.0520879335919626e-003 4.8913385318549100e-004
      5.6996417498903279e-003 -4.7564389920075481e-003
      -9.0168350861027525e-003 -4.1871716037676583e-004
      -5.7445154638083463e-003 2.0568433349091794e-003
      -2.9743094734201460e-003 -4.0279705088277088e-003
      2.7131630292582991e-003 6.3098904729737141e-004
      -1.7679571083467711e-003 -3.9517232403715082e-003
      -4.7816694652116501e-003 1.8938396392028151e-004
      5.9055141575970124e-003 8.7072657622701190e-003
      -1.2897668101217671e-003 3.9040813931868054e-003
      4.2862897199121670e-004 -8.1668190821933186e-003
      -6.0325617281681504e-003 2.3250247359099144e-003
      6.9255599146952748e-003 9.3922577406753745e-003
      -6.6758946596164673e-003 8.6703180572702632e-004
      1.6973685835790279e-003 3.2982301998318248e-003
      -7.9443188645930366e-003 -1.6500742110033923e-003
      -1.5339843336143149e-003 -8.6613951669302063e-003
      -9.0910654542119933e-003 -2.0660247563159756e-003
      8.8878781777671466e-003 6.9884524123242312e-003
      -7.4573252527929115e-003 3.3401159018095275e-003
      3.4230551930663818e-003 -3.6422073164002308e-003
      9.3399271452854725e-003 -4.7086313785963084e-003
      3.2049836077634067e-003 1.7988452121976224e-003
      4.0564193465544279e-003 4.3073525097104730e-003
      2.6862189569708795e-003 7.2963862264340418e-003
      1.8359561515716913e-003 5.2861147524464226e-003
      4.4436802513233070e-003 -8.7307044582460320e-003
      1.4817730019927422e-003 1.0961364021802188e-003
      -5.9370169381947700e-003 -7.0445441850092846e-003
      4.9569756843653359e-003 -6.7625224618853771e-003
      6.4327121987654131e-003 -3.8885740762368108e-003
      -6.4870768216066287e-003 -6.4183339640380118e-003
      -3.7335727750158415e-003 5.7403264480069931e-003
      9.0790255240448640e-003 -4.8269277481782832e-003
      5.6610569969260073e-003 9.2023480677284122e-003
      6.9710486583941507e-004 2.0509418873920697e-003
      -2.0756838578598891e-003 6.4560886669436284e-003
      1.0063617021621514e-002 2.5074619367356729e-003
      -1.2123109072075453e-003 -1.0113253473857067e-002
      7.5485149623311983e-003 -4.0752366588651849e-003
      -6.6319147392033479e-003 4.5016144719902005e-003
      3.7146900780751438e-004 -2.6774715603792450e-003
      -7.2929534474365900e-003 -9.0083288847944507e-003
      -4.6842206041632474e-003 -5.6858097635323658e-003
      -8.6484624414254318e-003 -6.5644920412236017e-003
      -7.9681122466713859e-003 -5.6173946887944654e-003
      -4.4950649741422842e-003 2.3303300290609093e-003
      5.1088348683784503e-003 -8.7515711720763598e-003
      -3.8513691631232808e-003 -1.2818272605237735e-003
      5.0291132899430296e-003 1.6008984824318160e-003
      -3.3587878929641920e-003 -5.9637499528404749e-003
      1.0567208886209057e-002 -3.7788138373922712e-003
      -8.0005714526079248e-003 3.3479654522165316e-003
      -4.0903113030689468e-003 8.8561550368456265e-003
      3.2426543192735097e-003 -3.2159055843531906e-003
      -4.6343275242074202e-003 -1.8107379611075928e-003
      3.9773476333540970e-004 -3.6084208457910095e-003
      -9.0239731569742160e-003 1.1009937959556655e-003
      5.2136992195162832e-003 7.2074510864608837e-003
      5.2823373650158593e-003 7.6135404604556122e-003
      2.5108605961490088e-003 -5.3684217951314051e-003
      -1.8382928464689646e-001 -2.9509147144641285e-002
      -4.3515663947006754e-002 -7.5250752808179167e-002
      5.0860104604061783e-002 -2.8752979065965637e-002
      3.3513018922044446e-002 -7.8514221636559134e-002
      -4.3561224458613977e-003 -7.1738553291168489e-002
      -1.5285855117713959e-002 9.5394346536547658e-002
      1.8484530068742198e-002 -6.8784510329502474e-002
      6.1988601957828120e-002 2.3489110470033107e-002
      3.1682227833231914e-002 5.2183574418232875e-002
      1.5035693337811289e-002 4.5920020578395539e-002
      1.0272802823852307e-002 -1.1344688629146654e-001
      -6.6644221469799467e-002 3.6389261437533944e-003
      9.6926746997469837e-004 3.6811714371719963e-002
      3.9872155654534704e-002 6.8457442723549658e-002
      1.4037486781962486e-002 1.6707464449006899e-002
      1.4086619618698221e-002 -1.4589132936845206e-001
      -2.8432025294030046e-002 -3.6857777745542469e-002
      -6.3190363764621796e-002 6.2948661705820710e-002
      -4.0417853207194640e-002 8.3184151092635467e-002
      1.2029046194150277e-001 4.1115572368608112e-002
      -1.4061099597485553e-002 -4.3935237687322125e-002
      2.0195964668630884e-002 1.6040076392235671e-002
      -1.8988256266385950e-002 -4.5392370637526151e-002
      1.1978821621848681e-001 -2.3918603613559661e-002
      6.0002128915739150e-003 1.1071290161650557e-001
      2.8640085969090207e-002 -9.9456877228193505e-002
      -4.7717405799089424e-002 4.4533737883710310e-002
      2.6388021949029668e-002 1.6172720305792421e-002
      -1.0699918637673911e-001 3.7815814208769408e-002
      2.3816695366615570e-002 -9.8709136776703441e-002
      6.8457835600199399e-002 2.6620905040663077e-002
      5.9743845465755459e-002 1.0168993369799824e-002
      3.3461909323213967e-002 3.8809339981530515e-002
      1.1940390023317167e-001 -1.8130833522169123e-002
      3.5481512518931557e-002 -3.5143466050383390e-002
      5.4153018952487017e-002 -1.5317659438399276e-002
      4.9745638194749815e-002 -1.1520276476203709e-001
      -1.6447379924012059e-002 -5.1360779358953439e-002
      5.8920584764588189e-002 5.1375634341394916e-002
      -1.4818718351443378e-002 -3.0145499222790896e-002
      -8.0446114836491452e-003 -2.6153869990559943e-002
      -5.2368230491416493e-002 6.3117645923095295e-002
      -1.7722322950151852e-002 1.0524868615778327e-002
      -1.1683812817185110e-002 1.3658159782448048e-001
      1.0145094295198341e-001 2.0642772809975729e-002
      -1.0566083757564466e-001 -6.3142709717053047e-002
      6.9314616003013016e-002 1.2038655487075584e-002
      -4.1650025918160902e-002 -5.8857392423443330e-002
      -9.2435913407732297e-003 8.7466097353065972e-002
      1.1875705154321699e-001 -2.1426268132091527e-003
      1.4801775132939254e-001 5.5508021834985988e-002
      1.7106152883777509e-002 1.4423325276600849e-002
      1.2074724991183815e-001 -3.2249093377222642e-002
      -5.6325699138175998e-002 -1.6099296603681415e-001
      -8.7810584378433965e-003 9.0407566771063347e-002
      -2.0445670604127560e-002 3.5781913165091071e-002
      1.1208228042648100e-001 3.4603862026516878e-002
      8.6847198741540094e-002 5.2050795212707772e-002
      -6.0322096384844225e-002 6.8677990359277408e-002
      7.9718342209043030e-002 -1.5921061005243073e-001
      5.6063517728775901e-002 3.0018379580052046e-002
      -4.5637514653040501e-002 2.6509516360119108e-002
      -1.3645815418809026e-002 -1.3085004803438331e-002
      5.1897042074885047e-002 4.0439019705797975e-002
      -3.8054301929604392e-002 1.3713310044131094e-002
      3.9120897649366222e-002 1.4650662000680783e-003
      7.0014306083734587e-002 -3.9455941059715352e-002
      -6.6522949598880332e-002 3.1267225885089379e-002
      1.0869382818551136e-001 -3.1239992576652238e-002
      3.1786960250303420e-002 -1.3287241333406213e-001
      -1.0512134234468867e-001 2.7829817845962588e-002
      7.3730534136768153e-002 -3.4925836261973174e-002
      -6.9486932842000540e-002 3.4093189022676787e-002
      3.4959173748074727e-003 1.7399488668604415e-001
      5.6614631318723473e-004 7.9677641003937913e-002
      1.0883077022216131e-002 3.8288627700234605e-002
      8.3440289030188020e-002 2.0936654930011862e-002
      1.0016856193734286e-001 3.2288817513871172e-002
      -2.0207082470896771e-002 -5.2665320189529248e-002
      -3.8595250675278761e-002 -6.6232445684462807e-002
      6.8342791411791073e-002 1.1167278443473619e-001
      -3.9452250598841741e-003 -2.2010365551521961e-002
      6.0761219923149416e-002 2.3398248713346590e-002
      -2.5760598372678314e-002 1.5614623099128856e-002
      -6.0538506054127264e-002 -3.4524842617015303e-003
      1.0017464274216062e-001 2.6540321120233044e-002
      -7.5080319842304483e-002 3.2901328143545669e-002
      -2.0710907289530376e-002 2.0509151303785715e-002
      1.1562781936925008e-001 -2.2614617834774307e-003
      -6.9058700379425367e-002 -2.7340307580840311e-002
      3.8696666543479953e-002 -7.7155207444776931e-003
      -1.4023954450593436e-002 -1.0114857473079486e-001
      -2.0754970425403661e-002 5.4015395996360752e-002
      8.2120661883875415e-002 2.9438718112662382e-002
      5.2003010567057435e-003 3.3101193727111726e-002
      1.0533398269744193e-001 -2.6441283506067042e-002
      1.3174872369820452e+000 -5.4373775759100330e-002
      -6.4540524656680767e-002 -1.5127457174012199e-001
      1.2283702404978428e-001 -3.2300514483297404e-002
      -2.2066154155907323e-002 -1.4252883002556829e-001
      -9.3264620495947873e-003 -2.0594550957501269e-002
      -1.4191829887907334e-001 1.1737679898935420e-001
      8.1111734022753651e-002 -7.6322866681406393e-002
      9.1331635662670607e-002 6.6896886234252134e-002
      1.3615650034969731e-001 2.3732256723735756e-002
      1.7443710719756811e-001 1.1264502277279231e-001
      4.0955448171254176e-002 -1.5459037685919583e-001
      -4.3828442010968140e-003 -1.6877937813044869e-001
      2.3301514426636506e-002 1.2651251353322665e-001
      5.1316996229320531e-002 3.2659694889499095e-002
      -4.7782301910125523e-002 -3.6145411247363699e-003
      -8.6043382916316441e-002 -1.5935665355299969e-001
      -7.6371351527816614e-002 -8.0212634193452939e-002
      -1.2330545940504120e-001 7.1021855134397613e-002
      -7.6375631383879788e-002 8.2516566998586255e-002
      1.0429853547215216e-001 1.3623540127344019e-001
      -6.4482253211017970e-002 9.0978088385684514e-003
      9.0065235005975436e-002 8.8241234222604062e-002
      -1.0898431682762761e-002 -8.8676512080150038e-002
      1.0824022775246971e-001 -8.4244053824026208e-002
      1.2984641067563410e-002 8.0445974355811758e-002
      3.8354882220153860e-002 -1.3704525725201094e-001
      -4.6644157569731608e-002 2.0741696006979567e-002
      -1.3583065787164483e-001 2.0910206542584898e-002
      -1.5299307737363638e-001 1.0968383456426796e-001
      3.3184402093594301e-002 -1.8168537675791774e-001
      1.1968523849342770e-002 5.6840304963405738e-002
      9.7444285765358338e-002 1.3826463417620413e-001
      1.1223667246871499e-001 1.9066374102946770e-001
      9.2369133109782738e-003 -7.3224566130698998e-002
      1.0150597856117535e-001 -3.1101661452976270e-002
      1.2836194712185200e-001 1.5343571076326274e-002
      4.8133027031497043e-002 -1.1610473324169120e-001
      -8.9856999712001496e-003 -1.5490168833085757e-001
      3.8099409068188143e-002 1.1974460237381797e-001
      -8.4742628602976405e-002 -6.3176883850551091e-002
      -4.4005880009220219e-002 -2.3397427982750390e-002
      -7.0284410021858479e-002 7.3252353852220356e-002
      5.0294298948727820e-003 1.9952185078101262e-002
      1.1860687030987620e-001 1.3929494506842940e-001
      1.0681602992454810e-001 5.8355625939795465e-002
      -6.0124957433643531e-002 -9.3088987314746102e-002
      7.0056266952484222e-002 5.7553851792269059e-003
      -7.3113976709143297e-002 -1.4751631164682855e-001
      -1.0615537983867136e-001 5.1794198405045365e-002
      9.1527260682105788e-002 5.5637392326248654e-002
      2.2016311400203012e-001 1.1418189276058534e-002
      -2.1327408981507259e-001 3.0589542748787519e-002
      4.3700047825954123e-002 -4.6387229517241516e-002
      1.7843984382297694e-002 -1.5312917414435412e-001
      -1.2089627916140726e-001 1.5202845246122551e-001
      -8.5755859402159879e-002 8.4002874592232768e-002
      1.4308889563507846e-001 2.7367087968719769e-002
      6.5451263832250250e-002 8.4139461593318018e-002
      -1.7932798988929152e-001 2.2521521412173281e-002
      9.9474549676371815e-002 -1.1178805959322757e-001
      1.1124249358255156e-001 2.6371237162358334e-002
      -1.6961548170071658e-001 8.4897515374770249e-002
      2.6299372645024460e-001 -4.5921802423546564e-002
      4.1812943358392557e-002 2.2947415205781644e-002
      7.7850618955168066e-002 -6.0739283294719858e-002
      6.1360850444397139e-002 8.2849939265194142e-002
      4.6865502387210607e-002 -2.5900363327086225e-002
      -1.9939782499551770e-001 1.1976116525806002e-001
      -1.8524634339088544e-001 -1.6153805909089355e-001
      -2.4845713059259672e-002 -1.5606956818616988e-001
      -4.5928478288433633e-002 -1.1268030921487170e-002
      1.8525611773165732e-001 -9.2328695851754489e-002
      -2.1788063196632104e-001 9.8483062372729829e-002
      -1.6994601811382984e-001 1.5545299019092995e-001
      -9.5866938410609184e-002 1.0381562311155944e-001
      6.6277908033298069e-002 1.4881368073539095e-001
      5.2346528720776372e-002 -1.1054664269241588e-001
      1.5637098646221470e-001 1.0677409990281229e-001
      -6.7481446669770281e-002 -8.2498783542269638e-002
      -1.2665762278553683e-001 -1.1933610630177309e-001
      6.1328646763105017e-002 1.1048834868233134e-001
      -1.1909388594939038e-001 -9.4627672967633122e-002
      1.2017007423040907e-001 -2.1761858670661941e-002
      -7.9360693593796341e-002 1.6940249764364870e-001
      -6.0027130111192442e-002 -1.1420543166918132e-002
      1.4554165294355059e-001 -6.5083999443727919e-002
      -1.0027084216368591e-001 3.3335937583046121e-002
      -1.5137855197619976e-001 1.2723850730985320e-001
      3.9000139210770515e-002 1.0828027750997575e-002
      -1.1254957936673984e-001 7.6960013454823922e-002
      9.0232997814042384e-002 -1.2431091360709035e-001
      -9.3457103386765619e-002 -8.7294968956462035e-002
      -1.7996752924756654e-002 9.6897107946169198e-003
      1.2765378797900712e-001 8.9860876772730441e-002
      1.1227792588093947e-001 1.4223648784987517e-001
      1.1548280679379569e-001 -9.5297131421928694e-002
      -7.2426781422140796e-001 -2.0305267935327050e-002
      2.3154705310952903e-002 9.6347623175189259e-002
      -5.8065335622967520e-002 1.4326279115388692e-002
      1.4476941311019090e-001 1.5729754301321833e-001
      4.3851037106792883e-002 9.0749363949752568e-002
      1.3224999950184022e-001 -1.8736375973510946e-001
      -6.4818859974176191e-002 1.6119417614057216e-001
      -3.8072940656102047e-002 -1.6787733310401015e-001
      -9.5849532824020992e-002 -6.3626209863275274e-002
      -1.1452944661361049e-001 -1.1767260092050828e-001
      -4.5787959670373662e-002 1.4266037934606571e-001
      6.3011479795889655e-002 1.6094124735892751e-002
      -2.7172831935712613e-002 -1.0272377121713822e-001
      -2.5272803149470408e-002 -6.4078686080418099e-002
      -2.3864583869313144e-002 -3.1120039377551235e-002
      1.0887599269717660e-001 1.7013830387952905e-001
      8.9434321665696009e-002 7.4957440344983320e-002
      1.1907863455347500e-001 -1.0720259557820924e-001
      9.0584029533286092e-002 -9.1380500784738694e-002
      -1.2888852388371386e-001 -6.3514286230688430e-002
      4.9931591626118259e-002 1.0660060614762257e-001
      -1.0614139040822585e-002 -5.7195526600792669e-002
      9.8467615955877816e-002 1.0062089208594413e-001
      -4.9430232479543007e-002 7.0825235161893041e-002
      -4.4129312202079447e-002 -1.5301687081519133e-001
      -3.5265969091893640e-002 6.2327861618204680e-002
      1.5273360527453939e-001 -5.3875361468023485e-002
      7.3285654971258232e-002 1.3475777823148459e-002
      1.2893366727311648e-001 -3.4965527857939015e-002
      -3.3618639765242854e-002 1.0280176909151477e-002
      -1.0050259633849044e-001 3.5875528072865100e-002
      2.6695466710313052e-002 -5.1590733711155426e-002
      -8.1345871291326158e-002 -6.4751831629101031e-002
      -9.0029685733801823e-002 -8.3938047273302572e-004
      -2.6071637673442821e-002 5.6926280777838525e-002
      -6.1601069933717723e-002 -1.0868627853132516e-001
      -1.2969425812475741e-001 5.4012754865753500e-002
      6.0030960028502521e-002 8.1491166803918311e-002
      -1.2881759197693504e-001 -4.8726954040534440e-002
      9.4931929735311393e-002 5.1422495271581756e-002
      2.9217936285558508e-003 3.3474307350496349e-002
      1.3703599827808104e-002 -3.1540472321928761e-002
      6.2250650032457736e-002 -7.1745632165386070e-002
      -4.5394112244346786e-002 -1.0214959271840308e-001
      -8.5171786357922052e-002 -4.0164528044592994e-002
      1.3463976500735975e-001 9.1142677747043974e-002
      -1.3352992566044178e-002 -1.1746414531405527e-001
      4.9000178125625862e-002 6.9516028924332243e-002
      6.1131450198441704e-002 -1.4289373890874320e-002
      -1.3277764108347018e-001 6.2601880130255722e-002
      -2.1268901694735824e-002 -3.5291095259724820e-002
      1.2702889168967357e-001 -5.4847203174249196e-002
      -1.4304905823921066e-001 9.9928856372038605e-002
      -1.6571235954477872e-002 1.7687071918798691e-001
      1.5908293846487207e-002 -4.1459480308769107e-002
      9.0650086541633243e-002 -1.2516416578428369e-001
      -1.6707025112474694e-001 -1.5539720494408594e-002
      -8.9724631778069913e-002 -6.7099929928197175e-002
      3.9699067656753656e-002 -3.1359444543016646e-002
      -1.3286567860506801e-001 2.6151084224571193e-002
      -7.6651781608572417e-002 -2.6064739161691393e-002
      2.9213665401554349e-002 -8.9966509300883846e-002
      -9.0582542515193695e-002 1.0937062810787619e-001
      -8.8146075348346301e-002 -6.9917878593202427e-003
      -1.2161397509779942e-001 1.8777383983094163e-002
      -4.0691753884585742e-002 -9.6077706913404809e-002
      -1.5682472821353993e-001 5.4750071439435645e-002
      2.0825414268151248e-002 -5.3264443418483617e-002
      -4.4031796560292026e-002 -5.6803980540143439e-003
      5.6656932091907086e-002 2.8381121418320533e-002
      1.2646112440303761e-001 1.6145731923334838e-003
      -1.4103266120549116e-001 1.0911504091238977e-001
      1.1032285782596479e-001 -6.2783491608723804e-003
      -1.8203131961917800e-002 -4.2147656317395588e-002
      7.2418449070089638e-002 -1.3655553868303769e-001
      -4.3679153722408291e-002 -1.2089027298804819e-001
      -7.8916250510796593e-002 4.9184394082862959e-002
      -8.8446625213069147e-002 -1.3322584870044604e-001
      4.8174924009462099e-002 3.3774805770893368e-002
      5.1559240768093192e-002 8.4603383548926703e-003
      -1.0297004877229042e-001 -6.8210778035810646e-002
      7.3485269813098636e-002 5.6488069363025487e-003
      -6.4326494468965725e-002 4.3511365785500210e-002
      -2.0607885033597419e-003 -1.4770269436685188e-001
      1.3753362895467269e-001 6.8107694005300173e-002
      -3.2403166904038994e-002 6.5650114233468807e-004
      1.1647377184213506e-001 -4.0644448331489155e-002
      5.5897669471853255e-002 -8.0590659479856830e-002
      -1.0822463900712277e-001 -1.3757040790023572e-001
      1.1655601497894172e-001 1.1415519996311737e-002
      -5.6835264175236135e-002 3.7701390976010912e-002
      5.8477364162342199e-002 8.5217623270749096e-002
      3.6432077729346070e-002 -2.1787312470401662e-002
      -8.3112093652582264e-003 -8.8566200267003278e-002
      -1.1618239487878676e-001 -6.2156059007384544e-002
      -7.3438310075620294e-002 3.8582453526409925e-002
      -5.0102200081763004e-001 2.9594819423836446e-002
      5.3897020595248056e-002 1.2777995524835173e-003
      1.2217655012065724e-003 -1.3530076375051123e-003
      7.4224570157603517e-002 8.2440590209387696e-002
      1.5190244894647750e-002 6.6474687048413167e-002
      -2.7474113621131193e-002 -5.2630769496014834e-002
      -8.0935194306491126e-002 6.2460298453724951e-002
      -1.9659033574350667e-002 -3.4172326849994848e-002
      -5.7174120446408634e-002 1.3814013769247397e-002
      2.5197784640507648e-002 8.4842586565084307e-003
      -7.7530150559433228e-002 1.8929398505906986e-002
      -2.1298329865397082e-002 1.7800255827156556e-002
      -4.1578306885138555e-002 -9.8554337679722256e-002
      -6.4984072591175890e-002 -9.3388353260256851e-002
      -1.5782524205798235e-002 -1.8879149153695388e-002
      -6.6502143879083625e-002 8.2651524228284021e-002
      -8.7974549979541860e-003 1.5930694300610487e-003
      6.6499924342486694e-002 -8.4224508160903322e-002
      -3.5207543086718161e-002 -1.0499805800969665e-001
      -2.7071898400522081e-002 1.2931539842174482e-002
      8.0797150282534824e-003 3.0338259433671910e-002
      -6.0331959955175735e-002 -5.4558142585301089e-002
      1.7723674190826492e-002 1.2779074925422516e-002
      -5.8045115440107965e-002 6.1967505568777011e-002
      -2.5959736806680628e-003 -2.6860280069690854e-002
      -1.4186330087209655e-002 8.5843678725118860e-002
      -3.3051061898499608e-002 -2.0506653207002162e-002
      -6.5819271860867706e-003 -8.6049588392731781e-003
      3.9586769121666344e-002 -2.1219877491803287e-002
      -3.9472372965891005e-002 4.4892139163934539e-003
      -7.4689020615407081e-002 1.3485566141615819e-003
      7.0997915783806978e-003 -7.1138626200236699e-002
      -9.1562014052613966e-003 -1.8783340386368388e-002
      -1.6278408964264520e-002 1.7867746872245537e-002
      -2.1571571446224059e-002 -4.5455541212334846e-002
      -1.9540338824906300e-002 -4.7137777393835255e-002
      -8.7466264691008086e-002 -2.5665313058336102e-002
      -2.6342437874053368e-002 1.2575395321978180e-002
      1.1217336738520328e-001 -3.1775492201457672e-002
      9.8373968993682392e-002 -1.1881775906381585e-002
      6.2850739630531944e-004 1.5398049733524358e-003
      5.3885259159086277e-002 -1.1396071684275365e-001
      -4.2895207161815732e-002 -5.2755497533989656e-003
      -4.2965542307140933e-002 -2.4500657578476037e-002
      -7.0714939293192544e-002 -1.4201213008368732e-001
      -2.6604340301427897e-002 6.2640349325545186e-002
      -6.7369372356758217e-002 2.2153501639743105e-002
      3.3446505374655627e-002 -1.7764592432597753e-004
      -3.5086807825137338e-002 -2.2203280893893583e-002
      -3.4129994473595056e-002 -1.0997691638141779e-002
      -6.9549577317143882e-002 2.8939409513555688e-003
      -4.6053970820454773e-002 1.4987578006927762e-002
      -1.0631988212085675e-001 -1.9633418325036959e-002
      -2.4979723391788906e-002 5.7887754193256993e-002
      5.8078431268873874e-002 -3.1862510391402463e-002
      7.4561442346400233e-002 -5.3311874708470014e-002
      -8.9665304808547883e-002 1.1116922390300503e-002
      -6.3051333311190685e-002 -6.1502704910058430e-002
      5.9712392209848891e-002 -5.5429022113651277e-002
      -6.7824725585895737e-002 4.6792584592484421e-002
      -3.1919233315838534e-003 -1.9397458926164186e-002
      2.1820900059786683e-002 -4.5120574996958165e-002
      -1.6439527832912311e-002 1.1275590616185160e-002
      7.3335014688675135e-003 2.2149833415231756e-002
      9.5495003074112447e-002 -3.4517611998405640e-002
      2.2196041518414533e-002 -1.2787331830866019e-001
      -6.2311599627300290e-002 4.0517096324141792e-002
      4.2419336728591162e-002 -8.7109109039936392e-002
      -2.6407839168053327e-002 5.6932631603100886e-002
      -6.7594985596056900e-003 -1.6090520792819911e-002
      4.5913532649393407e-002 1.5080383547925973e-002
      4.7661047618097488e-002 2.9342783868138520e-002
      3.7282384189186633e-002 -1.0334859572404274e-001
      1.0714533879546198e-001 4.0816971180436368e-002
      7.5443590348376929e-002 3.5714361893013968e-002
      -2.5434418064777316e-002 -3.9879310865240027e-002
      -6.2165981356404464e-002 -8.1326661930784788e-003
      -5.7372452597568645e-002 2.3800990821556858e-002
      5.0488076136405761e-002 2.3198877623787539e-002
      5.2101483867071370e-002 -1.9778801490429238e-002
      -1.7157997263807515e-002 -2.8320491377182816e-002
      4.5012178932399942e-002 4.3942143349390540e-002
      -5.8234064595652703e-002 4.9585031684418593e-002
      1.4742689429700628e-001 -5.9497609361080221e-002
      7.5398828944200025e-002 -1.5896195763602700e-002
      -6.4078985235971470e-002 1.7616515828449000e-002
      1.4647540794723230e-002 -1.5972880985551243e-002
      8.8406758282166778e-002 -5.4094087072304585e-002
      -4.3341275805368215e-002 2.3888745481042136e-002
      6.7367625116418445e-002 2.3271197696482844e-002
      1.5571522821385402e-002 6.0376399209271923e-002
      7.4032786798835820e-002 5.9360673641630946e-002
      2.5314306195480395e-003 1.8916343427019505e-002
      4.1606751231239664e-002 -1.3310617267020073e-002
      -1.1730132453652325e-001 7.3574133995062949e-002
      1.4330857384892759e-002 4.1944645654536712e-002
      1.2606184948622206e+000 5.9560887692997777e-002
      -3.9631413341475311e-002 -5.6587992241045229e-002
      5.5944848091271808e-002 -3.7122139144723114e-002
      -1.0812893581870997e-001 -4.1637884170037158e-002
      -6.9568116801916949e-002 -7.7044020758437845e-002
      -1.6860241816054763e-001 1.5742041774314716e-001
      9.0414470700500321e-002 -2.0981927819252275e-001
      1.0430507667700496e-001 9.4148298990258339e-002
      1.9378523456781438e-001 1.2013584784486449e-001
      3.5666138543068181e-002 1.3632808440705615e-001
      1.7905593594905293e-002 -1.5648129360649612e-001
      -3.4426948990341572e-002 -1.0462334519960992e-001
      9.7380938765497901e-002 1.6536649167511697e-001
      1.0503119787729012e-001 8.7834449764955358e-002
      -2.4839543415450131e-002 3.8542321948209335e-002
      -1.3622153688014563e-001 -1.5271887675567364e-001
      -5.3358555991861838e-002 -1.1891148846386969e-001
      -6.5328370713564246e-002 8.2703637244408490e-002
      -6.4157767608482408e-002 4.4297820413363817e-002
      1.1035304947424980e-001 7.6404774034214668e-002
      -9.0543758678233152e-002 -1.4308499684836526e-001
      2.6068391631946183e-002 1.2427511384190955e-001
      -5.6695759125434939e-002 -8.5811778322868973e-002
      6.3996780265326597e-002 -7.7899045445913015e-002
      2.4567793758227974e-003 1.5854438831712739e-001
      1.1250232769975309e-001 -7.1919551089943648e-002
      -1.2553328120965726e-001 7.4457277522777809e-002
      -1.3749975686864219e-001 1.6895940772003099e-002
      -1.7147446477769221e-001 1.0359743538540121e-001
      7.5535166630113795e-002 -1.4960302535899353e-001
      1.2950784289564643e-001 1.6714733697114140e-002
      6.2988374096302951e-002 1.4764805900462927e-001
      1.2399313090854702e-001 1.2247385951901070e-001
      7.8207599490010410e-002 2.0888711910972208e-002
      2.1514597258164164e-001 -2.6424791577139006e-002
      1.8785053999839335e-001 3.1727626480054644e-002
      7.4490775780401058e-002 -1.1639033203400663e-001
      -1.5920918232713233e-001 -1.2900483639409163e-001
      1.0570230616485270e-001 5.1914401784978748e-002
      -1.6904456311717442e-001 1.0241442837461876e-003
      6.3444619092860796e-002 -5.9529256988665707e-002
      -1.1259039327420649e-001 5.2634855923779901e-002
      -4.2393804205231013e-002 2.5098628598174553e-002
      6.4019094131663651e-002 7.4630030846614751e-002
      8.8816268566260612e-002 1.6753992238113508e-001
      -8.7551633591764627e-002 -1.8797232925273383e-001
      9.6146370915650120e-002 7.5646651758529748e-002
      -3.8952804411760682e-002 -1.8888528604929727e-001
      -1.8156825996285594e-001 1.0124106880622379e-001
      9.6383941386526215e-002 -1.1765765294936288e-002
      1.8990307851600863e-001 6.3230756900062066e-002
      -1.5469436140862322e-001 1.0011959829705842e-001
      1.0741047437672706e-001 -1.3984659603689681e-001
      -1.5183805894022928e-002 -1.9444451759901141e-001
      -7.9988081908991315e-002 1.0992608384594621e-001
      -1.5499632074950345e-001 1.1132721411198046e-001
      2.0681666963924655e-001 1.0566987195309551e-002
      2.2583176309417588e-001 6.5927217734037244e-002
      -2.1229435727870333e-001 1.4616888209826526e-001
      1.2722973680191985e-001 -7.4764018309914471e-002
      1.1384641116609132e-001 5.1585773145872704e-002
      -6.4179850069287989e-002 7.4611573171592407e-002
      2.0870530555119046e-001 -6.2486448977784978e-002
      7.2910619688755798e-002 8.9922007867354770e-002
      1.7419665473083612e-001 -5.8940963263309408e-002
      6.1312152793312417e-002 9.2536265930914643e-002
      4.2663837923955984e-002 -1.4436690544887709e-001
      -5.9842398735052663e-002 1.1980522182935757e-001
      -2.4863797272943591e-002 -2.7526004091768275e-001
      -4.6819347393230029e-002 -1.4666434977593343e-001
      -8.4703175224765226e-002 8.5612582577439637e-003
      6.9326283367699484e-002 -7.0246041281095128e-002
      -1.1654866008282279e-001 9.0207601894798914e-002
      -3.5795172171564624e-002 1.5604526981250272e-001
      -7.5211088683176427e-002 1.1756209616318955e-001
      9.2506833688749457e-002 1.2089798370095757e-001
      1.3432818043149544e-001 -9.4706413702342146e-002
      1.9461671730446529e-002 1.2390316785212757e-001
      -8.1143425423961704e-002 -1.8182369183082754e-002
      -1.9331390194364864e-001 -1.9060008987748125e-001
      1.3437800047186652e-001 1.0957314454995576e-001
      -1.3893908290625914e-001 -3.6886336294491881e-002
      3.5983295877903117e-002 -7.4079215658154713e-003
      -9.1656766128313527e-002 1.1773797709518156e-001
      -6.7857532253584346e-002 -4.9652794532251583e-002
      7.2432487611345242e-002 -7.9783414910613130e-003
      -5.9136029591316683e-002 1.1532486259117854e-001
      -1.5572481727025764e-001 1.8533292335099150e-001
      1.5431325265535387e-001 6.8309587571487904e-002
      -7.1382400141127261e-002 -2.7886519434197735e-002
      1.3085808039167923e-001 -1.1719467334827773e-001
      -5.1189746697778357e-002 -1.5889421346098967e-001
      -8.0428230924044011e-002 4.6808109188832048e-002
      8.2893793726602286e-002 5.0896837614448250e-002
      1.2491060187454821e-001 1.2573122367135472e-001
      9.3984940585739210e-002 -9.4596470057406568e-002
      -2.5930289578141752e-001 -3.8818436522930690e-002
      -5.0519718663237956e-002 -1.5615820764206588e-002
      2.1088053297177806e-002 4.7353762805013369e-002
      2.9451838020746510e-002 4.4554389928504058e-002
      1.1247014846425226e-002 1.2293482406458030e-002
      -7.3047690338011770e-002 3.6856218718134786e-003
      -2.8032672184497700e-002 -3.1406632138866894e-002
      -4.7846211009503932e-002 -2.1553633548436747e-002
      -1.6157755238546408e-002 -5.6843019894326663e-002
      -3.6810175723674137e-004 -2.5228453281786606e-002
      -3.2568925743231371e-002 -1.2020359567181027e-002
      -3.6710370441244973e-003 -6.6022639765199120e-002
      3.2926652755422225e-002 -3.5597430976254854e-002
      -2.1880242046591145e-002 -2.8826171898866614e-002
      -2.2866229664644706e-002 -2.5073114601292811e-002
      2.8140416204878286e-002 4.2804418757729605e-002
      5.6203535433969410e-003 1.4312039851751654e-002
      1.2632528351484911e-002 -9.1472798348062240e-002
      -4.3977190891597226e-002 -4.5763824036328525e-002
      5.6468332433540776e-002 -1.3926668585526348e-002
      -1.7370951549762540e-002 -5.2993283641534286e-003
      -2.3033976609654616e-002 -3.1812153218557078e-002
      4.4224905147354436e-002 5.0571241444475244e-002
      9.1655433928952267e-003 3.3461885193462416e-002
      8.7078993686516386e-003 5.5601470268850567e-002
      1.7250339071077685e-002 -1.6719511200176458e-002
      2.0301097301647149e-002 -9.7582302201364331e-003
      5.7453535767730234e-003 -4.4902088494776287e-003
      5.0779102802753828e-002 4.2817971390678222e-002
      -5.4416140110291368e-002 -3.2975365856492724e-002
      6.7259507560754092e-002 -3.8234111116245292e-002
      -1.1522477681506807e-001 -6.2425425250442486e-002
      -7.8286971466056565e-002 -5.8048650831150760e-002
      1.2734236206022461e-002 -2.3029864257943070e-002
      4.3035159040088145e-002 -1.3721000030132460e-002
      3.6894710986175056e-002 -2.8628610912098462e-002
      -1.4518248812561902e-002 -3.1996781388968810e-002
      -3.4519260064939071e-002 9.1094815301021287e-002
      8.8929261714935180e-003 -2.4566349489533817e-002
      2.4829971041373665e-003 -3.3599821518801656e-002
      1.0646424202140972e-002 -2.5699187026728347e-002
      1.4939360039924296e-001 6.4199220093823686e-002
      1.9992343721763946e-002 1.2307580169931331e-002
      2.8029726091730240e-003 -2.0567350239787004e-002
      -1.4720200214956307e-002 1.7054181156621422e-002
      -4.0744342663354735e-002 1.3863269266065837e-002
      -9.9985463357440737e-003 -4.7898521336540246e-004
      3.1778184662614506e-002 -3.0779498888375507e-002
      -2.1971731837091891e-003 5.6257491822752109e-002
      -9.5191631141487668e-002 1.1589885168200243e-002
      3.2701123060992182e-002 1.5361405428613951e-002
      -3.6552589381626489e-003 -6.3260964644360753e-003
      3.4397749777282972e-002 -3.5976418363576373e-002
      2.8319067433879203e-002 -2.0600075763179018e-003
      7.7344351392422267e-002 3.3352135942467102e-002
      -4.2224511886138884e-002 -1.2640924879351188e-003
      -7.4645378003965590e-002 -2.4878010597315224e-002
      -2.9468493200680099e-003 9.7769795538583879e-003
      1.2914694126950853e-004 6.0176032473200136e-002
      -4.3726903614871006e-002 -7.1151465189667751e-002
      5.2112765901414726e-002 -1.7889024492622679e-002
      2.4574261068218570e-002 7.3012219079510401e-002
      5.0226613233418295e-002 4.2051359778920813e-002
      8.0579229472461600e-002 -2.6260266421812662e-002
      -1.8946866840202886e-002 2.0089878110533296e-002
      4.3689487855601054e-002 3.4637038898338836e-002
      4.7078464836243367e-002 -1.7386890960744736e-002
      -6.4017191751001207e-002 4.1607727023145906e-002
      -7.9416101964849117e-003 -3.6030241661268024e-002
      9.3694733775611758e-002 -3.7645690690054134e-002
      4.1387935742166003e-002 2.3665414578842438e-002
      3.1825538789861392e-002 -1.7800434169646853e-002
      -2.4176701681797370e-002 -1.1068004600190251e-002
      9.3175959530999539e-002 4.9726444577466986e-002
      3.2425121040410435e-003 1.9113385235150250e-002
      -5.1159897752851978e-002 -5.8609484768893633e-002
      3.6271799659620227e-002 7.8466246618623378e-002
      2.2772741743080161e-003 1.1991564307927688e-002
      6.5570732101532123e-002 -2.9028661786643508e-002
      -7.5253493835147752e-003 -9.0529771937156028e-002
      2.2064466295818940e-002 4.4513460133266325e-003
      1.0438327296817807e-002 5.0473710480413561e-002
      -1.6704122585682220e-002 1.9391946523499577e-002
      -2.7197007514278581e-003 6.8334013741496447e-002
      -3.2637979741941908e-002 3.5465474732073949e-003
      1.5823076978810310e-003 2.6806087701748211e-002
      -1.7216153898509962e-002 4.4418951623577375e-002
      -5.4445703263691698e-002 7.6980389033668467e-002
      -9.2766235813791596e-003 -8.4163036794230109e-002
      1.8763542196242211e-002 -4.4984665948055898e-002
      -4.1684547592592852e-002 9.9906586706563424e-003
      8.1174553797080107e-003 7.4825632090792906e-003
      -3.9333567730393823e-003 -3.4809797637184371e-002
      -1.3501677985200394e-002 3.7143471659742563e-002
      2.8724786119649535e-002 -4.4178363198495114e-002
      2.6464951627426709e-004 -2.6202926672220413e-002
      6.8858139954872200e-001 -8.3862186304981788e-003
      3.7063252322841252e-002 -2.1678023781159399e-002
      -1.2354236710096646e-002 -6.0097304052159434e-002
      -3.5675589318510237e-005 2.6127124196825023e-002
      3.0963813869839207e-002 -8.9901102578823611e-002
      -6.5504653321695902e-002 3.5302139016768824e-003
      -3.7677343540924634e-002 2.2929184331017928e-003
      1.1315489655206288e-002 1.6323337630668979e-002
      -2.4203855548820184e-002 -1.0263645129758513e-002
      7.5167483736834656e-002 4.6787294111139251e-002
      5.1408796463681648e-002 -3.3220599347705819e-002
      -4.1041540983735268e-002 5.3020468342288733e-002
      3.2780649787317553e-002 9.4462651888821900e-002
      -5.3228698839408589e-003 -9.4184139928668725e-003
      -1.3824606554328725e-002 4.9404598037425397e-002
      3.5955750522152240e-002 4.6039898056355576e-002
      4.7219248670513303e-002 1.8764504197598560e-002
      1.7429206108305478e-002 1.0729930537510704e-001
      4.7488307738989266e-002 3.3825309743641736e-002
      8.8351708537585755e-002 -2.5640995038675011e-002
      -7.3644670354237662e-002 3.9036706685382977e-002
      2.6761502161003991e-002 -1.1607438543527036e-001
      -1.7869624135388187e-002 -4.7419506703210039e-002
      -1.9989346080058919e-002 5.8635166984489832e-002
      1.1815208290806404e-003 4.8768691542409440e-002
      -4.6413760907126960e-003 1.3262559461660478e-001
      1.8980463885479401e-002 -3.2796083416186546e-003
      -1.7054595656752632e-003 4.0023610967648551e-003
      -1.2379359818231100e-001 -2.1591311945767060e-002
      8.6425807158122675e-003 9.3881880419025756e-003
      1.8584903328019108e-002 2.1949813516132923e-002
      -2.7273216785428715e-002 7.4700991350046811e-003
      5.0090977219260195e-003 3.7887956737888084e-002
      -6.0938176236039920e-002 4.8238074220369048e-003
      -6.8094815095313371e-002 -2.1237315719342266e-002
      -8.0128567141524848e-004 3.6328639924750175e-002
      -1.9056238121538723e-002 -7.4858055839194942e-002
      -2.9913399133241748e-002 1.8329337903571268e-002
      2.1595745976511747e-003 -3.0637814064650003e-002
      -5.9401385013301729e-002 2.4352703302573837e-002
      -3.2167786272655687e-002 6.9592304012287762e-003
      -4.6489465583730606e-002 -5.7168050636549478e-002
      -3.7629152972575713e-002 3.4462393041427966e-002
      -9.3394472884707758e-003 3.0818480500219968e-002
      -7.2055987951949729e-003 -1.2986052115717740e-003
      3.1707411910755018e-002 2.0343528030626352e-002
      1.9531287217340300e-002 1.0905604769200354e-002
      -2.8081221410112513e-002 -5.3462026943659507e-002
      -8.4735669315349871e-002 -2.0561701961386524e-002
      9.9246668735727989e-002 -4.8180627294697097e-002
      -7.0535137082409771e-002 -1.0748423615104823e-002
      -4.4209341388738201e-002 8.5958103554483380e-003
      1.2095821669057698e-001 1.0434461966775504e-002
      3.8602457552866266e-003 -4.7669733309198103e-002
      7.1406453885124149e-002 -5.0807433433692761e-002
      3.5551367549115837e-002 5.9609546306819867e-003
      -2.9295821847106760e-003 -3.5067897186911788e-003
      -8.6044933248797986e-002 -2.5214607909682111e-002
      -5.3563366977745798e-004 -1.0330594045299123e-001
      6.1729318449322862e-002 8.6583216108335068e-002
      5.4184165052319488e-003 2.6480437692963248e-002
      6.8215115183464833e-002 -6.8419148105201374e-002
      -2.0372501127458954e-002 4.4256373321833857e-004
      -5.6204204811336402e-002 -1.9196717788707306e-002
      -2.9764443554284360e-002 7.7261146780826559e-002
      1.8324927610713020e-002 -8.8970543204373906e-002
      -2.4088173112754307e-002 7.5061952118878159e-002
      -1.7215440034484705e-002 4.7628098406550436e-003
      5.8452938754380977e-002 -1.8737118666438027e-002
      3.8912229737602687e-002 -2.2763669721546413e-002
      -3.6366440373291953e-002 -1.7567985147535683e-002
      3.0579328796298853e-002 7.0131606002009683e-002
      -2.2000254859409568e-002 -2.4751874472203735e-002
      5.6703576698198130e-002 8.9289774626442803e-002
      -1.8828132099364445e-002 1.3670856297304428e-002
      8.0741977207583835e-003 5.6060897546487166e-002
      -1.8769684438381267e-002 -1.1848636583393714e-001
      4.9361256051782015e-002 4.7510944055980990e-002
