<?xml version="1.0"?>
<opencv_storage>
<my_nn type_id="opencv-ml-ann-mlp">
  <layer_sizes type_id="opencv-matrix">
    <rows>1</rows>
    <cols>3</cols>
    <dt>i</dt>
    <data>
      364 364 2</data></layer_sizes>
  <activation_function>SIGMOID_SYM</activation_function>
  <f_param1>6.6666666666666663e-001</f_param1>
  <f_param2>1.7159000000000000e+000</f_param2>
  <min_val>-9.4999999999999996e-001</min_val>
  <max_val>9.4999999999999996e-001</max_val>
  <min_val1>-9.7999999999999998e-001</min_val1>
  <max_val1>9.7999999999999998e-001</max_val1>
  <training_params>
    <train_method>BACKPROP</train_method>
    <dw_scale>1.0000000000000000e-002</dw_scale>
    <moment_scale>1.0000000000000000e-002</moment_scale>
    <term_criteria><epsilon>9.9999997764825821e-003</epsilon>
      <iterations>5000</iterations></term_criteria></training_params>
  <input_scale>
    2.3100227182252652e+001 -6.2918789685812113e+000
    1.1464707035615264e+001 -1.7849499611851101e+000
    1.0256629413326314e+001 -1.7917034507248595e+000
    1.7558019525709582e+001 -1.8598735221867981e+000
    1.2945316034644241e+001 -2.5603309692206331e+000
    2.1109470678352160e+001 -1.6601195614203386e+000
    3.3852213258110631e+001 -2.0334918656820191e+000
    4.2826106102017526e+001 -1.1911836277506120e+000
    1.4161706793639601e+001 -3.0302470129134220e+000
    5.4736485194685010e+001 -1.6135626930430366e+001
    2.3015134577862760e+001 -1.0553497668620986e+000
    4.3333214515425396e+001 -8.3566904105776862e-001
    1.1034122734894331e+002 -4.7977218588793147e-001
    5.7001982116815796e+001 -9.0559733604064563e-001
    1.3081363152912962e+002 -4.9559117345113196e-001
    1.1804110208840220e+002 -8.5182437250028720e-001
    3.1307898724338145e+001 -7.6074099549440222e-001
    5.4459816023228512e+001 -1.6081308561315542e+001
    1.5122766498343356e+001 -3.1327941035164808e+000
    4.8084200338633224e+001 -9.5527435851571607e-001
    3.1204333546240356e+001 -1.1426262335727517e+000
    3.4505218638504687e+001 -1.4095253892138819e+000
    1.3879129754929755e+001 -2.6416468175623198e+000
    1.3484785771074547e+001 -2.1776036593500172e+000
    1.8852316145404473e+001 -5.0104031153529434e+000
    1.7802321317621612e+001 -4.5072654529689453e+000
    3.4223176209459041e+001 -9.9264749851685377e+000
    5.2172356589666457e+001 -1.5389028337223577e+001
    2.5789187532488043e+001 -6.3979654942501452e-001
    8.7716726410805705e+001 -4.9134136586048976e-001
    1.8046429421058428e+002 -4.7839644661505903e-001
    5.2004571459333022e+001 -1.0789465694280349e+000
    7.0018190918218536e+001 -5.0086065787976541e-001
    3.6166620469520268e+001 -1.2473599957657437e+000
    1.7641020852884900e+001 -1.4987295725348271e+000
    5.6918065533207617e+001 -1.6819618603271106e+001
    6.9371043097025620e+001 -2.4135516800835223e+001
    3.1846567774766633e+001 -5.3763482770654447e-001
    1.0457029586998515e+002 -2.4061668519781151e-001
    2.8003355952147626e+002 -2.7673828384555249e-001
    7.9752347668003452e+001 -5.4772406159975362e-001
    3.4773866451445627e+002 -3.1024279735763310e-001
    1.6096158286674907e+002 -3.2358153224264885e-001
    3.3081388970456231e+001 -6.3487153943777985e-001
    1.0257953506172913e+002 -3.5838426967805290e+001
    1.0337092597211409e+002 -3.6119123909277050e+001
    3.1072532219877964e+001 -5.6243479688108133e-001
    1.3309499129978991e+002 -3.1805865763676694e-001
    2.3803020697592993e+002 -2.7038009070870672e-001
    8.4143836158690505e+001 -6.2785566627468337e-001
    2.7033644197049006e+002 -2.7817212853662882e-001
    1.2844450921881958e+002 -2.9497308447309856e-001
    2.6494171081259356e+001 -6.0628813785269442e-001
    1.2925989730188880e+002 -4.5237661651816083e+001
    9.8499480063892378e+001 -3.4441138068020393e+001
    2.5940266664704126e+001 -6.1411389366517621e-001
    7.5439678511039233e+001 -2.1919020459674776e-001
    1.6122939492401139e+002 -1.9339421002614138e-001
    6.7738592269714161e+001 -6.8519204747399065e-001
    2.4690468925356183e+002 -2.6104435453020602e-001
    8.8058099183395186e+001 -2.4938691550902711e-001
    2.3916605045319095e+001 -6.0990520554469874e-001
    1.2252748895905216e+002 -4.2886179316702076e+001
    1.1364161798058406e+002 -3.9765331167925844e+001
    2.2311990101634105e+001 -5.9027541560467567e-001
    7.6313972425762103e+001 -2.4457533483042010e-001
    1.7938229995523255e+002 -2.3620832247662460e-001
    7.5759411108352396e+001 -8.4764294386990213e-001
    3.7544542491741413e+002 -3.7783224912123825e-001
    1.1428517642126630e+002 -2.9968929593445570e-001
    2.0525209970338302e+001 -6.0688378977329638e-001
    1.1153408826070670e+002 -3.9041337758963365e+001
    4.7860614554337239e+001 -1.3281826873594085e+001
    4.4396235450192457e+001 -7.0167250182249252e-001
    1.3054652103458076e+002 -8.5797593242457681e-001
    1.1876955095645751e+002 -4.1555634279487552e-001
    5.7881528182282679e+001 -8.1924484776790274e-001
    1.0827086813982855e+002 -4.8915537748222032e-001
    4.6424103298603683e+001 -9.4417885317578065e-001
    2.3793759051271046e+001 -1.1589355804675656e+000
    6.6123849711862775e+001 -1.8518070904328997e+001
    1.4558595545968553e+001 -2.9290456494916093e+000
    4.3874775224644679e+001 -1.1796760984902099e+000
    2.6967911232359253e+001 -1.8161776730518562e+000
    2.0282613550917073e+001 -1.8482456176376187e+000
    1.5980057662466523e+001 -3.6174273718220795e+000
    1.5953151813599680e+001 -2.2376526542885822e+000
    1.1245716574771047e+001 -2.1370787728138345e+000
    1.1959341402663657e+001 -2.0964859800778437e+000
    3.1795108431427803e+001 -8.5697774028620319e+000
    6.7716733938747964e+001 -1.9033959688222854e+001
    1.9495668562994819e+001 -1.6305113524387711e+000
    3.5269916238181686e+001 -1.1729794487496348e+000
    6.5756244490882921e+001 -4.3926011491215328e-001
    5.9023479433674161e+001 -1.1083871985531804e+000
    2.3426946677350699e+002 -5.6796730732466327e-001
    1.4863277101393254e+002 -7.3658239872629006e-001
    3.3477119620715584e+001 -6.4618992226903560e-001
    5.6388736125556775e+001 -1.5793104343548407e+001
    4.4625243868745258e+001 -1.2391257501873442e+001
    2.5671961257670866e+001 -6.7764465988551343e+000
    2.5987171662884396e+001 -6.9141853126610400e+000
    1.5086563036705884e+001 -2.8973280566827997e+000
    1.6283483702378298e+001 -3.6514215210419096e+000
    2.8438439686074648e+001 -1.5909038433161584e+000
    2.5755885922110846e+001 -1.1643231021134492e+000
    4.8820180225266235e+001 -1.0002780851144915e+000
    1.6667514055422192e+001 -3.1949951257277442e+000
    3.6520939296170765e+000 -8.0522524307723109e-001
    2.7883949838906359e+000 -1.1656981863323295e+000
    4.7787838650530041e+000 -3.0906936199377379e+000
    5.9855599480351591e+000 -4.4030910384418407e+000
    6.2968840349811313e+000 -4.5618426294035928e+000
    4.7388474820385236e+000 -2.6466569689524135e+000
    4.3416137012056488e+000 -6.4875755365740284e-001
    1.4667700033804731e+001 -2.4373566488713233e-001
    3.1036432411285446e+000 -1.0125879567404219e+000
    5.8072432270545251e+000 -4.4121897487847219e+000
    3.7917520316965483e+000 -2.5735894211814476e+000
    3.3751251380694876e+000 -1.9075181417828098e+000
    3.4229622711805350e+000 -2.0204864672787211e+000
    4.4066721102362383e+000 -3.2747852220048048e+000
    5.5161661809398099e+000 -3.7464405886265175e+000
    5.9647558135141701e+000 -5.3967579909734664e-001
    4.0351026717935659e+000 -2.0813937425405014e+000
    6.4843743687521158e+000 -4.9228496213240325e+000
    3.8518417387750534e+000 -7.4184364114242807e-001
    7.6286261988393953e+000 -3.1912802288713621e-001
    7.0008893975116750e+000 -3.5186221344573260e-001
    3.6404054834379482e+000 -9.9927012222413614e-001
    7.6517934793749447e+000 -6.1430431209527567e+000
    4.0736816710775097e+000 -1.7827584471532307e+000
    5.2421315857191226e+000 -3.2888256198592996e+000
    7.1872616993506577e+000 -5.1472573274115021e+000
    8.1026327814702022e+000 -3.7160462999049987e-001
    2.0220940213863205e+001 -1.6649729989837569e-001
    1.7503237629307847e+001 -1.8227029963535632e-001
    7.0730171360299279e+000 -3.9462422439577394e-001
    6.6179422254409017e+000 -4.8211133639960346e+000
    5.1451846865685074e+000 -3.2344723258440311e+000
    5.5331334290932794e+000 -3.6126665908463411e+000
    7.8172730589629902e+000 -5.5875738596100968e+000
    9.5825708324869332e+000 -3.3481332716223505e-001
    2.6001082775832717e+001 -1.6464327363527631e-001
    2.5157009753435247e+001 -1.7419719205574394e-001
    9.2736868074794749e+000 -3.1266622732789628e-001
    6.6506325742565613e+000 -4.7180001295740723e+000
    5.9318081442652302e+000 -3.9868357298337456e+000
    5.6132602802300529e+000 -3.6854648479419660e+000
    8.0388810387173670e+000 -5.8240876890397377e+000
    9.9065824541312946e+000 -3.3286902570303889e-001
    3.2034687022371152e+001 -1.7019071278963099e-001
    2.6118778651771585e+001 -1.7069585623748787e-001
    1.0053603651733168e+001 -3.0229431751376867e-001
    6.9956653356140475e+000 -5.0003839325279760e+000
    6.5226155644056751e+000 -4.4701763897807680e+000
    5.6074144649011428e+000 -3.6819870265391303e+000
    8.3854525846895509e+000 -6.1296131939245351e+000
    1.0086071996518076e+001 -3.2255672216288445e-001
    3.2067755101042607e+001 -1.7448771239529823e-001
    2.6386001085323400e+001 -1.7262555704578345e-001
    1.0070786713307296e+001 -2.9954028085898771e-001
    7.1439438543679028e+000 -5.1336791786674789e+000
    6.7432001902889178e+000 -4.6539313408872287e+000
    5.4554253535452490e+000 -3.5775914557299031e+000
    8.4596706428447828e+000 -6.2267520205891920e+000
    1.0344234855540339e+001 -3.1214693915323810e-001
    2.9655316111383996e+001 -1.6769605569550008e-001
    2.3980578443122642e+001 -1.6500990769855897e-001
    1.0111044730094150e+001 -2.8811183892384684e-001
    7.2631222868552756e+000 -5.2550700886820980e+000
    6.7679661930484860e+000 -4.7090724389741290e+000
    5.1811847095998331e+000 -3.3794005617210594e+000
    8.0662765927685971e+000 -5.9411863782348044e+000
    1.0104364130404862e+001 -3.0203062947007586e-001
    3.4740172653385883e+001 -1.6314529558564209e-001
    2.8832813675890005e+001 -1.6805245941728658e-001
    1.0179855130822991e+001 -2.7796190852946306e-001
    7.5477591224392517e+000 -5.4827204434691659e+000
    6.8087017941986172e+000 -4.7821141980578652e+000
    5.0533900186543326e+000 -3.2951343928422214e+000
    8.3348221704976897e+000 -6.1651687342244479e+000
    9.8624991882730164e+000 -3.1831864127061943e-001
    3.1224123032263751e+001 -1.5964817192800104e-001
    2.8388669374757455e+001 -1.7093648678891241e-001
    1.0210424870735997e+001 -2.9236228422148980e-001
    7.3054980573506851e+000 -5.3061828366918435e+000
    6.6699799064872360e+000 -4.7065646889657113e+000
    4.9458218983459430e+000 -3.2214885098827715e+000
    8.2635781467677898e+000 -6.1423363113104550e+000
    9.5690524115916880e+000 -3.2420340739800885e-001
    3.1280917746281496e+001 -1.5961259995555171e-001
    2.5955461371682109e+001 -1.5930565583971912e-001
    1.0007263375489218e+001 -3.0107474690829594e-001
    7.2674377190814692e+000 -5.2788288714525340e+000
    6.4045511294090947e+000 -4.5388345905772178e+000
    4.6895187720126543e+000 -3.0382876340559997e+000
    8.0433945788169599e+000 -5.9768433864638562e+000
    8.9431751914357633e+000 -3.3417117358604326e-001
    2.4134817269877004e+001 -1.5538264010905334e-001
    2.2188213882635267e+001 -1.6065347892647114e-001
    9.3737959044925301e+000 -3.1597632787000740e-001
    6.9583746630956744e+000 -5.0381780492773691e+000
    6.0479108899769081e+000 -4.2658575151256599e+000
    4.5194679404052334e+000 -2.8234450206324739e+000
    7.5527226083596730e+000 -5.7104979842199866e+000
    7.4618994667346090e+000 -3.8217305255267403e-001
    1.8546762605417452e+001 -1.6566109641280416e-001
    1.6781103361146975e+001 -1.7099070169652872e-001
    7.1590793833853841e+000 -3.9738679496945783e-001
    6.8151159314338399e+000 -5.1248124544495353e+000
    5.3242225623898030e+000 -3.5271044986982591e+000
    3.9252386968022366e+000 -2.0432797559802474e+000
    7.0551305009398595e+000 -5.6840368644305928e+000
    3.7922443273213329e+000 -8.1090764335741583e-001
    8.6220210891973910e+000 -3.1171888678569054e-001
    7.9693077396084080e+000 -3.5081895968063526e-001
    3.6211903801314538e+000 -9.3651347868259294e-001
    7.9983565360401894e+000 -6.7132075882717404e+000
    4.0854155966296339e+000 -1.9287995524237449e+000
    3.0847026995292679e+000 -9.3281467663718831e-001
    6.2542309874230595e+000 -5.0295079640522964e+000
    3.9668297316207894e+000 -2.8457227677770840e+000
    3.5868368005343938e+000 -2.1214409278280377e+000
    3.6362094250570474e+000 -2.2214291490872080e+000
    5.5286529570368650e+000 -4.4217990022197018e+000
    5.6073248431903933e+000 -4.2833480502550669e+000
    5.5564964093286973e+000 -6.0493329958665965e-001
    3.5200943421464919e+000 -7.3886586047149772e-001
    2.6227589788889669e+000 -1.1792143934668362e+000
    5.1071145128449587e+000 -3.7321344904619016e+000
    6.7539833756525756e+000 -5.6040620210758361e+000
    6.6138291610114486e+000 -5.4386538165970748e+000
    4.7125352069770816e+000 -3.1199358873556799e+000
    3.9877579538033769e+000 -7.9820263009532377e-001
    1.5939582403685156e+001 -2.4972815979695212e-001 1. 0.
    1.4834323335759436e+002 -3.1475406737346003e+000
    1.6746333887639634e+002 -3.3834112459803460e+000
    1.6746333887639634e+002 -3.3834112459803460e+000
    1.3644176247077925e+002 -4.6183763539682836e+000
    1.4657572983093903e+002 -4.7218563421562543e+000
    1.4398491438943219e+002 -5.4420948938321727e+000
    1.4398491438943219e+002 -5.4420948938321727e+000
    1.5267393045544969e+002 -4.6621036700082525e+000
    1.3420011142051996e+002 -4.7688982613046580e+000
    1.5499216462635599e+002 -5.1703535348206477e+000
    1.5499216462635599e+002 -5.1703535348206477e+000
    1.3341930161328759e+002 -4.6923115866549407e+000
    1.5459811666304864e+002 -5.0107175095748087e+000
    1.6256436715768675e+002 -4.7590373749475310e+000
    1.6256436715768675e+002 -4.7590373749475310e+000 1. 0.
    1.2753865088209697e+002 -3.9253865278447746e+000
    1.6178704035450326e+002 -4.6917324093996928e+000
    1.6178704035450326e+002 -4.6917324093996928e+000
    9.6912260744780198e+001 -4.5690939019500316e+000
    1.3184612675462188e+002 -4.6132268231371985e+000
    1.1079118780776615e+002 -4.6310196359627636e+000
    1.1079118780776615e+002 -4.6310196359627636e+000
    9.7071960624019468e+001 -1.8609276522177263e+000
    8.5059244631094927e+001 -2.0660425166324745e+000
    1.0454349254137260e+002 -1.8917229376584057e+000
    1.0454349254137260e+002 -1.8917229376584057e+000
    9.0931251428512212e+001 -4.5990069669744598e+000
    1.4246677296962926e+002 -5.0652082987411884e+000
    1.2351647285444950e+002 -4.4293969500326718e+000
    1.2351647285444950e+002 -4.4293969500326718e+000 1. 0.
    1.2549825417499902e+002 -3.9186223480180855e+000
    1.5829424042682425e+002 -4.2672245621152651e+000
    1.5829424042682425e+002 -4.2672245621152651e+000
    7.7789559146907393e+001 -3.6983043463894396e+000
    1.1230383709909877e+002 -3.1472496518886932e+000
    1.0404015783169363e+002 -3.6861070484985956e+000
    1.0404015783169363e+002 -3.6861070484985956e+000
    8.6981181249402837e+001 -6.9244224728346704e-001
    8.9599015453015610e+001 -6.7841103795418090e-001
    9.3243661101375096e+001 -6.6255019763102063e-001
    9.3243661101375096e+001 -6.6255019763102063e-001
    8.7837109414191829e+001 -5.3772112693013820e+000
    1.2644366950493270e+002 -3.9504386894533208e+000
    1.0570840647061071e+002 -5.0005082510358640e+000
    1.0570840647061071e+002 -5.0005082510358640e+000 1. 0.
    1.3140070709299343e+002 -4.0046667476350493e+000
    1.5365280938932040e+002 -4.1270439878424483e+000
    1.5365280938932040e+002 -4.1270439878424483e+000
    7.7714653528704744e+001 -3.7761251975519143e+000
    1.1098130756810149e+002 -3.0374712039375913e+000
    1.0332136034786308e+002 -3.7498593088033134e+000
    1.0332136034786308e+002 -3.7498593088033134e+000
    8.6160291553963887e+001 -6.1768368129108620e-001
    9.2439776896091360e+001 -5.8463119600999736e-001
    9.6026171176976277e+001 -6.0608630974006661e-001
    9.6026171176976277e+001 -6.0608630974006661e-001
    8.9862435152633282e+001 -5.5786955482220337e+000
    1.2588078197910468e+002 -3.9069302205017031e+000
    1.0618611016325042e+002 -5.1110548690265789e+000
    1.0618611016325042e+002 -5.1110548690265789e+000 1. 0.
    1.2864009824913046e+002 -3.9034894604045856e+000
    1.5517024454480483e+002 -4.1090207523456170e+000
    1.5517024454480483e+002 -4.1090207523456170e+000
    7.9871524205846043e+001 -3.9135825561699158e+000
    1.0755371443937284e+002 -2.9992820264063078e+000
    1.0583436082603644e+002 -3.8553953805816445e+000
    1.0583436082603644e+002 -3.8553953805816445e+000
    8.7796585534375026e+001 -6.0557831395830608e-001
    9.0442097268581890e+001 -5.8234517487045212e-001
    9.6536072150268367e+001 -5.9722662691709527e-001
    9.6536072150268367e+001 -5.9722662691709527e-001
    8.8664370130300668e+001 -5.5523373979552231e+000
    1.2435465051915075e+002 -3.8700281049758867e+000
    1.0825166897933943e+002 -5.2792337774894724e+000
    1.0825166897933943e+002 -5.2792337774894724e+000 1. 0.
    1.2792041630748470e+002 -3.9286331432674593e+000
    1.5849599394686413e+002 -4.2750289994687067e+000
    1.5849599394686413e+002 -4.2750289994687067e+000
    8.0479771350118142e+001 -3.9653593535646872e+000
    1.1535827636705281e+002 -3.3050375148945528e+000
    1.0378373988442922e+002 -3.7918956370858141e+000
    1.0378373988442922e+002 -3.7918956370858141e+000
    8.5021546481586739e+001 -6.6413559634517672e-001
    8.9428530290716125e+001 -6.4180927972855917e-001
    9.6142988901085516e+001 -6.7330227439791179e-001
    9.6142988901085516e+001 -6.7330227439791179e-001
    8.7139039104582352e+001 -5.4123004645371289e+000
    1.2660191874777301e+002 -3.9648127261279207e+000
    1.0492232994392512e+002 -5.0958325112881635e+000
    1.0492232994392512e+002 -5.0958325112881635e+000 1. 0.
    1.2923686965970606e+002 -3.9257964591069126e+000
    1.5307637991185973e+002 -4.4207342597135124e+000
    1.5307637991185973e+002 -4.4207342597135124e+000
    9.1352926005753446e+001 -4.5483175760779941e+000
    1.1804220068832269e+002 -4.2187666567946156e+000
    1.3017864582769397e+002 -4.3000014178115684e+000
    1.3017864582769397e+002 -4.3000014178115684e+000
    9.8007683689813035e+001 -1.8973570096068784e+000
    7.9615783047823172e+001 -1.9918805007391089e+000
    9.6648660724010554e+001 -2.0822690406600555e+000
    9.6648660724010554e+001 -2.0822690406600555e+000
    8.3490379872590779e+001 -4.3606632384056416e+000
    1.3064886986573282e+002 -4.6665302820446097e+000
    9.6443299387735223e+001 -4.4802610864427148e+000
    9.6443299387735223e+001 -4.4802610864427148e+000 1. 0.
    1.4463064033322823e+002 -3.0772458054461262e+000
    1.6819654918862651e+002 -3.4715123226703088e+000
    1.6819654918862651e+002 -3.4715123226703088e+000
    1.3634538271494964e+002 -4.6521315408554651e+000
    1.3653323171660278e+002 -4.4160030272917448e+000
    1.5389999660142152e+002 -4.5927218405211168e+000
    1.5389999660142152e+002 -4.5927218405211168e+000
    1.4750868730824862e+002 -4.5894505941599322e+000
    1.2542455211222766e+002 -4.6538374744373039e+000
    1.4015381618431135e+002 -5.1847911945501775e+000
    1.4015381618431135e+002 -5.1847911945501775e+000
    1.2583227938754811e+002 -4.6496251873316483e+000
    1.3474610748892951e+002 -4.4059754035378660e+000
    1.3003378136303692e+002 -5.2915834840947031e+000
    1.3003378136303692e+002 -5.2915834840947031e+000</input_scale>
  <output_scale>
    5.2631578947368418e-001 4.9999999999999994e-001
    5.2631578947368418e-001 4.9999999999999994e-001</output_scale>
  <inv_output_scale>
    1.8999999999999999e+000 -9.4999999999999996e-001
    1.8999999999999999e+000 -9.4999999999999996e-001</inv_output_scale>
  <weights>
    <_>
      3.7406610981553387e-002 3.0859447920567128e-002
      -2.4386583409540814e-002 -2.4436849413513598e-002
      3.5002868386884767e-002 -3.3430700790932199e-003
      2.4166972802203195e-002 2.4796737711135698e-002
      2.7211817383445198e-002 7.8305730774944279e-003
      2.9324265685041876e-002 -2.2778410301178997e-002
      -1.9702505580277752e-002 1.9965566786318462e-002
      -8.7905274983496387e-003 1.8078804656393509e-002
      1.6166512377165956e-002 -4.9674091495213336e-003
      3.5933281070752777e-004 -2.8513913662468904e-002
      3.6136703477247082e-003 -3.0813127689481207e-002
      1.4379680210782173e-003 1.6219109890542826e-002
      -2.5624888589599385e-002 -3.6173637981650172e-002
      2.4312553825706896e-002 2.2090086932246077e-002
      -2.6797370553999309e-002 1.0730209736196619e-002
      -8.5968990967112378e-003 -2.5464612357304385e-002
      -1.6148095619684454e-002 -1.1627089723408677e-002
      2.0197679217711942e-002 6.4165615864755759e-003
      -1.2364813457159710e-002 2.0890217540997496e-003
      5.9050047044717641e-003 1.2804379263008188e-002
      -1.9600781509517589e-002 9.4206547086670787e-003
      2.0540967706398202e-003 -4.6011974331650789e-003
      1.7221589533247764e-002 -8.0644835709457133e-003
      -7.9813182255224473e-003 1.2004064942487784e-002
      -1.8430884993891890e-002 1.1765837181199250e-002
      -1.9214579125884919e-003 7.8308614476684975e-003
      -2.9156065798378508e-002 1.1835560162986270e-002
      1.8072169662023806e-002 -1.9971424466076370e-002
      3.1637890959025104e-002 -1.4423955938322243e-002
      -4.2085053767310469e-003 8.8350091754007022e-003
      1.6337765840212699e-003 -1.6782667586138406e-002
      2.8501665991562102e-002 -2.3244051002042646e-002
      2.4129344121024371e-003 3.5611258856018345e-003
      -1.7097241226119341e-002 -1.8916349380842211e-002
      4.5680925161144022e-003 -6.6285054303542642e-003
      -2.4629843882610931e-002 -3.1486888205171100e-002
      1.3858715788743261e-002 -4.6706407266401614e-003
      2.2065198442825167e-002 -2.3816273866465853e-002
      -6.7680620591189875e-003 -2.0245298634872556e-002
      -9.7657392425820437e-003 1.8826324962157226e-004
      -1.5775667547418933e-002 -1.2996953460241300e-002
      -9.6515534036296750e-003 7.8392046817231820e-003
      1.9326045745790418e-003 -2.5781154402097953e-002
      -1.1179598406291029e-002 -1.8411578533099385e-002
      -2.0968353163483777e-002 -1.4359121377283252e-002
      1.2094076412022712e-002 2.9419564728863007e-002
      1.8714688054940958e-002 2.1098539384189229e-003
      2.1323647718274025e-002 2.9435319946046923e-002
      1.6577057166692770e-002 -7.1783491626098133e-003
      5.6544785486920520e-003 -1.1631828367415170e-002
      -1.2597521309389022e-002 -1.8860447236579741e-002
      7.5061884376876799e-003 -6.7349911931942966e-003
      5.9493095162188999e-003 -1.0706931452210425e-002
      6.6017109014798033e-003 2.3177455379485363e-002
      -8.3956718147804570e-003 8.4171993845064443e-003
      5.6224563239717067e-003 -1.5479166957284676e-002
      3.3620708603369362e-003 6.7847178848251316e-004
      -1.7499403356297693e-002 7.5487043779714630e-003
      4.6429649071368133e-004 9.7172857163950674e-003
      2.1013459041156365e-002 -1.1683892609109374e-002
      1.2825977408748178e-002 8.3767575534177269e-003
      -7.0759887501691742e-003 -4.2849563128264951e-003
      3.3994069280946365e-002 2.9099766551808660e-002
      -7.4152182538801551e-003 1.3421514078020169e-002
      9.2797310050054555e-003 1.2428322950794398e-002
      -3.4003757053900803e-003 4.1006794651412340e-003
      -2.9560461224058907e-002 1.3570724103285350e-002
      5.2283546965179101e-004 1.7895175573837883e-002
      -9.2273061769308357e-003 -3.2783363067254950e-003
      8.5419536099428511e-003 2.9536163412083150e-002
      -2.2438885199303850e-002 -5.0235637032952363e-003
      7.2802201709343808e-003 2.0865224450726201e-002
      -2.9222463388274477e-003 -1.6360296915631279e-002
      -4.7221470370534440e-003 2.6316058481460888e-002
      -1.6574071894303367e-002 2.0731840905397855e-002
      -2.1516610614998783e-002 -9.2989120334613928e-003
      -1.7830453720747708e-003 2.1135474373591277e-002
      -7.5373684330116335e-004 1.2411869469671939e-002
      -3.1049283318453309e-002 -2.4976797387284762e-002
      2.9872969156158984e-002 2.7161232049878444e-003
      -4.9933958996646807e-003 -3.2520488829126108e-002
      3.1485491848754765e-002 5.6172635265935300e-003
      -2.2609393077125114e-002 -2.4760868001141984e-002
      1.3760041298268284e-002 1.2600674376662346e-002
      1.0258419011107644e-002 -1.1365468149704390e-002
      1.1410261100419972e-002 2.8673827199316382e-002
      1.9922020502839061e-002 -2.6058192671398736e-002
      1.0489872488598964e-002 2.4731635030249693e-002
      -2.5374402494460619e-002 -2.9602762007545122e-002
      -1.6288344564309488e-002 -6.6116128884199299e-003
      -4.8333851149714524e-003 2.0156328078613384e-002
      -5.4501614431976041e-004 1.4716131217474246e-002
      -5.2189164931706854e-003 -9.3370157602448590e-003
      -2.3349694471686941e-003 1.4090202746975911e-002
      -8.4404952032361858e-003 2.9379080256149472e-002
      3.3237069787547505e-003 -9.3304766807709143e-003
      -1.7830898329062584e-002 3.0758692215783062e-002
      1.8382408810184735e-002 -2.8809504549845946e-002
      -7.0178770670243362e-003 2.0390222446221153e-002
      2.2347174168926242e-002 -1.8314696734040636e-002
      1.4470207741578586e-002 -1.7053767152413646e-003
      -2.9168541983523345e-002 -1.4505367456584079e-003
      -1.0284875899165206e-002 -1.5478260500958864e-002
      -2.5174889684225422e-002 -1.8027537185247872e-002
      -2.6691732625508245e-002 -1.2866766290681911e-002
      -2.8943798038101612e-002 -3.0308111137966970e-002
      -8.2405968564112594e-004 -9.1120731205157138e-003
      -2.4485516179232888e-002 1.6233689759759494e-002
      -2.0213237107772258e-002 2.2511671690411406e-003
      4.2172967800307151e-003 -1.3631849612116116e-002
      7.2680974094602455e-003 4.5038961042783024e-003
      -5.6413055374697320e-003 -1.2148699350392292e-002
      -6.5721860254760317e-003 2.7610081035549249e-002
      -1.1907022680606900e-002 -1.2628253503602749e-002
      -5.8133237240514191e-003 -5.1078569921073347e-003
      1.6006314563401812e-002 -1.7483314408911137e-002
      6.6660744450520205e-003 9.2492335596493406e-005
      -2.3939639377501817e-002 -1.7919588777575587e-002
      1.7510070512310207e-002 -1.5221552471128843e-003
      -2.6103432558606973e-002 1.0320496571052287e-002
      -1.6269137867714688e-002 2.5973467231949970e-002
      4.6958193417833676e-003 2.8284062671045461e-002
      2.1461910936791801e-002 9.8103718093710719e-003
      -3.5747921279473743e-003 6.0409336502049394e-003
      6.4338160145648018e-003 2.6688329762816199e-002
      3.5679499987604354e-003 2.9050169794980842e-002
      1.5629273745081593e-002 3.1712468370117784e-002
      -1.2627505897042124e-002 -1.8329571408886559e-002
      -9.4401509428459415e-003 1.4972902305933291e-002
      2.0927431664689498e-002 4.6591327930322760e-003
      1.1080483226108471e-002 -1.2539964119721581e-002
      1.3666463684211852e-002 -2.6110849676361562e-002
      -3.5590656031890835e-003 2.6100679201850656e-002
      2.1741631980997943e-002 -8.6172300790038035e-003
      4.9032976212729897e-003 -4.5687510414410930e-003
      -3.0125316036087899e-002 -1.6974598702859126e-002
      -2.1194321242179747e-002 1.8265533124602003e-002
      2.5472672883672842e-003 2.3883729620157605e-002
      -7.0985035853355066e-003 -2.5070120821578366e-002
      -2.4288498580058552e-002 2.8352713279370576e-003
      -2.6685054339094350e-002 -1.1944774599738094e-002
      5.2598046787091417e-003 -2.0415430542393136e-002
      -1.0540444816494986e-002 3.1056733531414776e-003
      -7.2771431179406460e-004 -2.6510182797368286e-002
      1.4090522548508472e-002 5.8492499940882526e-003
      -1.0264485378744225e-002 -2.7763453809927442e-002
      4.9419948792754926e-003 -9.5279993785466737e-003
      -2.1356405080571086e-002 2.7035324803511149e-002
      9.9736890025453814e-003 -2.8972746183064873e-002
      -1.5699239065017367e-002 1.4915183137920418e-002
      -2.2553764558109923e-002 -1.2880849777808255e-002
      1.7745557888221991e-002 8.9741416562896647e-003
      1.3855754016857810e-002 -3.0046336038559347e-002
      -2.9806787943073695e-003 2.0034699076944950e-002
      -5.0425808246633685e-003 -1.4863276982311666e-003
      -2.1593508725547647e-002 1.1676515151985528e-002
      2.0026243514261521e-002 -2.6851509395471641e-002
      1.9952726928025147e-002 -1.1660819134626731e-002
      6.3028698042895959e-003 -4.6548754478034334e-003
      1.4731207263527800e-002 2.4734010188562010e-002
      2.9726431255504011e-002 -1.4702888944434563e-002
      9.5639950638814076e-003 9.0075870708484114e-003
      2.4768925286118095e-002 -1.9697342388196749e-002
      -3.2163074827837888e-002 1.8931127547230867e-002
      -1.3370367988178611e-002 -7.8533908854727056e-003
      6.0124325249080301e-003 9.5274954647003619e-003
      -2.6471801218786527e-002 -2.5040334011634663e-002
      7.6508602321639016e-003 2.7841852530648140e-002
      -2.2889994584350704e-002 1.6469566243680164e-002
      1.2549330753368747e-002 2.5632099678727541e-002
      -2.5120683476271392e-002 -2.8591760444886656e-002
      -1.8198222554053137e-002 -1.7012329698640652e-002
      -4.7154999038527537e-003 1.2687141767067787e-002
      -1.2247967904453717e-002 1.3615146006521247e-002
      -5.2689193529427576e-004 4.2361598263347920e-003
      -1.7336331372443201e-002 -6.1154192663513754e-003
      2.6679754987027692e-002 6.7489490782144477e-003
      -5.3162347027864718e-003 6.2404534567726854e-004
      -9.6951688630735298e-003 -1.8168376308264289e-002
      -2.3131115737390007e-002 2.4352218416331957e-002
      -2.0935588453939482e-004 1.2938498066417089e-002
      1.9556581640002305e-002 2.7033903171143112e-002
      -1.7668673181386987e-001 -1.1225618582269792e-001
      1.2351612588674675e-001 1.0836112122366308e-001
      -8.6768809102551525e-002 -1.4923784106256282e-002
      -7.2627795541388651e-002 -6.6595350947426232e-002
      -1.4430388997785640e-001 -4.9824690894029716e-002
      -1.0796371834630465e-001 6.3938606264667783e-002
      2.3237485199502254e-002 -6.7380838376344482e-002
      3.2044112581881201e-003 -6.8042710651821256e-002
      -3.8086575892896345e-002 -2.4970609740257853e-002
      2.1079406381073865e-002 8.5900807620723912e-002
      -1.4022936694893653e-002 8.8135007567077372e-002
      -2.0035875101505445e-002 -2.2468392500350765e-002
      1.2532758600816765e-001 1.1274624770891202e-001
      -5.0974799863222904e-002 -8.2454712176765588e-002
      7.4632812765912812e-002 -2.0890385166282409e-002
      6.2606189805780629e-002 8.1447021129774561e-002
      3.4297085361292612e-002 1.5189786623873497e-002
      -1.0603877265441732e-001 -5.9205237504348925e-002
      4.2795162473978996e-003 4.8881868363170357e-002
      -2.5204643028017702e-002 -3.5519166260299766e-002
      8.2139822609652205e-002 -1.3429861767099491e-002
      -1.3196308301324064e-003 2.6459236589410476e-002
      -9.6510130052439316e-002 6.5838084715825917e-002
      2.0337799208153595e-002 -4.7324862130160773e-002
      7.2414726636860216e-002 -2.1933528229700325e-002
      1.0956744207426407e-002 -2.5376466986970401e-003
      1.3398355813935231e-001 -5.1115861400903427e-002
      -9.4511008869924515e-002 5.5334314559566750e-002
      -9.7936918877396167e-002 8.1921630706645335e-002
      -2.1698624800786893e-003 7.5981279584227575e-003
      2.5575513826631303e-002 7.8862372047452001e-002
      -6.0163673332900909e-002 3.9810602460061802e-002
      3.9557808511374755e-002 1.4810831880793133e-002
      1.1778819919254606e-002 2.7083948827751128e-002
      -5.2996599152449961e-002 -1.9078121434641507e-002
      7.7402394705210875e-002 1.1754842219876077e-001
      -3.7762385987105171e-002 -1.3321068773502842e-002
      -6.1228248536331915e-002 1.0389502197239357e-001
      1.4832358739562793e-002 3.2204579187825849e-002
      5.9775620266956077e-002 -2.7545607104202521e-002
      9.5134502401400631e-002 4.6535871235076397e-003
      1.1514957614346956e-002 -4.1752821819088765e-002
      -1.0266018576851499e-003 9.1618828496348947e-002
      3.8900306547329060e-002 9.7847564716202234e-002
      5.0334131632189250e-002 1.2383377804835328e-003
      -3.0311188557718555e-002 -9.6615900470155711e-002
      -7.7246360486369070e-002 -8.4218100717732957e-003
      -5.5199294159450990e-002 -8.4271678193025445e-002
      -1.1323628402291533e-001 1.3993160615434506e-002
      -8.3220088719645150e-003 1.8356711777468768e-002
      7.3467157928962384e-002 8.8790203998719799e-002
      1.3823807823995636e-002 4.0099082411193081e-002
      -2.1813949299371672e-002 5.2795077055232564e-002
      -2.0686555296006291e-002 -1.2378867512306027e-001
      3.9846878351771841e-003 -3.2879153919074824e-002
      8.5375667103423925e-003 7.9854439558455434e-002
      2.7290918334114657e-002 -5.5752106391355423e-002
      8.4368640450439972e-002 -1.9245052033145201e-003
      -3.8898519204369278e-002 -3.2489254440413159e-002
      -1.0486516863487026e-001 2.2085524617653597e-002
      -3.3864588856610700e-002 1.1658042330077875e-002
      4.2580303785407919e-003 3.0429329926386979e-002
      -1.2317161231531139e-001 -1.4036925307220052e-001
      -2.0019439447722571e-002 -1.5171913007658583e-002
      -5.6212361369342746e-002 -2.1704037627596377e-002
      1.2958833537995483e-002 1.6405996952927058e-003
      1.1638205806670100e-001 -2.4441308745415856e-002
      -6.0304950816853732e-003 -8.3525160438706170e-002
      -6.5643996350781691e-003 3.1512140263002938e-003
      -3.1415659303412974e-002 -1.2294634685049503e-001
      7.0190778796837522e-002 9.1656118289117489e-003
      -1.3277933865249725e-002 -6.6583386263040348e-002
      1.7567427494619033e-002 5.1742955698991157e-002
      -1.5136275020224894e-002 -1.0434549994915875e-001
      5.2053943123449888e-002 -5.1306759603759931e-002
      9.5113802127558864e-002 3.5025249281451523e-002
      -1.3401087515970990e-003 -8.4265882502299980e-002
      2.0731342785813595e-002 -5.5668753386184953e-002
      1.3856684538110273e-001 5.1377165265111574e-002
      -1.4707445171672670e-001 2.0471561172675629e-003
      1.7637390091136299e-002 1.2149330388988805e-001
      -6.5217286184193646e-002 -6.2711275486139390e-002
      1.0330214598951208e-001 6.2821925279774246e-002
      -4.7657176682342858e-002 -3.9466597835875368e-002
      6.9407665277835997e-004 7.1643639271900497e-002
      -1.6429650767415271e-002 -1.0622400220376989e-001
      -5.0090235338348922e-002 5.9966753961940004e-002
      -5.8448570086772469e-002 -4.3197239027087143e-002
      1.0685371135320422e-001 8.6933070015818764e-002
      2.5392826407126756e-002 4.2175901186002666e-002
      -3.2999831639670953e-004 -2.8750883806327770e-002
      2.1544456227744462e-002 -5.8198910390719900e-002
      4.8342427574926079e-002 4.9442424327124951e-002
      4.3787736470756046e-002 -6.8841612119846735e-003
      2.8968944689633281e-002 -1.2497750995521764e-001
      -2.7787299795573119e-002 -1.2820854805914146e-003
      9.6030596230807508e-002 -1.3561942303550428e-001
      -9.4014098689668840e-002 7.4935498844402842e-002
      -1.7562570565247449e-002 -7.6051997395701870e-002
      -1.0729613148844643e-001 1.0809411024499566e-001
      -7.9234867108455093e-002 4.5090991038397421e-002
      8.9626038871605765e-002 -3.6738198202217520e-002
      5.4095440560742176e-002 8.2251007548868549e-002
      7.0103898921862973e-002 8.2028458723273717e-002
      8.1533985604451104e-002 7.7655343665233561e-003
      5.6583918311603643e-002 9.4410530705320919e-002
      2.2852046874863648e-002 3.4969177728433942e-002
      1.0374961438758862e-001 -4.8835679028124183e-002
      6.5734892767734990e-002 -4.1263233838333031e-002
      1.4383740952640080e-002 7.1632247899174745e-002
      -5.8860714815168025e-002 9.6799983639067333e-003
      2.6806856125334382e-002 6.2577682359745077e-002
      7.5555520411778584e-002 -1.3906023615884705e-001
      2.6452481203375774e-002 6.5738977945680177e-003
      -1.1060259192105177e-002 2.4398893686956604e-002
      -4.8579196994011538e-002 6.2857279258776697e-002
      7.1276578197803243e-004 -5.6976807488110549e-003
      6.2674192691466388e-002 6.2579107322514316e-002
      -8.8957190977703715e-002 -1.6932278287202406e-002
      4.9960490779526405e-002 -4.5634017657353180e-003
      7.4599096674231605e-002 -8.3513684742717254e-002
      -6.3172953247600500e-002 -1.5267456343444274e-001
      -6.4032720084483949e-002 -7.6518728495999611e-002
      -2.5619844885272650e-002 -2.6904088769853878e-002
      1.6640276715079769e-002 -1.3890978885194188e-001
      2.2401751103966680e-003 -6.7756145531241582e-002
      -8.6274869532034448e-002 -1.0326053269647723e-001
      7.0076762749037250e-002 5.3705741256412032e-002
      5.1450944651345677e-002 -2.4680859880096155e-002
      -9.2649466508308867e-002 -3.1495004036115597e-002
      -5.0713069336128819e-002 4.6461583006867764e-002
      -5.2328721826495769e-002 1.0035038853897735e-001
      7.6449382492476872e-003 -5.4121016407533362e-002
      -9.6574427849548186e-002 1.0315246824823316e-002
      -5.3092770214429923e-002 4.5475443735848017e-003
      6.9725010103014323e-002 3.9214457801781413e-002
      9.9556035656578626e-002 -8.2215112337920351e-002
      1.1949448574774242e-002 -7.4298730692694617e-002
      6.5875627997265679e-002 9.6826908942230255e-002
      1.1777681421291551e-001 1.6851803308373072e-002
      6.5108519601382614e-002 5.1676368575448696e-002
      -2.1576493945326767e-002 8.0508058603032742e-002
      9.5085322264344824e-003 4.0004612159536490e-002
      4.3841429377222789e-002 5.6027910692243214e-002
      -2.5423834566698941e-002 -3.9053814689752060e-002
      -5.5268421396834555e-003 8.2370790405677782e-002
      -4.1185729431664079e-003 6.9175536806719021e-002
      3.6836374848423538e-002 -1.1334250650131170e-001
      -8.2311482895728774e-002 1.1453572681685732e-001
      3.6369633755204155e-002 -6.3735453568585024e-002
      7.0292673549962104e-002 2.1274948096198258e-003
      -8.1414192430073501e-002 -3.3938577886329681e-002
      -1.5260900605790714e-002 1.2833563133281925e-001
      -6.0125500330523848e-003 -5.8884915483772865e-002
      -1.9885027712890154e-003 -7.7321328075601482e-003
      5.5606947053612348e-002 -2.1125145296330819e-002
      -9.2191214486837619e-002 7.4840355238001213e-002
      -9.1340754593713866e-002 7.7598950553813108e-003
      1.2595694403278320e-003 3.4616170739961719e-002
      -9.9836954319470067e-003 -9.1649993290260703e-002
      -1.4089753440293937e-001 3.4426434129189207e-002
      -3.2245492377631017e-002 -8.0816499102116784e-003
      -1.0186316592692596e-001 1.1105507244787827e-001
      1.0272684899619380e-001 -9.1544022717582399e-002
      3.8645898716073462e-002 3.1130436400306730e-002
      -6.4813525704161323e-002 -2.4522993857268912e-003
      1.3409032189070591e-001 7.4073899728358636e-002
      -5.9395007683720347e-003 -1.3491106227417898e-001
      6.0343813264441042e-002 -6.1139698650542008e-002
      -7.4818311200297916e-002 -1.0970027701097064e-001
      6.0783238043038576e-002 5.7819603009320091e-002
      1.0925822267162100e-001 3.8930725601886047e-002
      1.0147967617314279e-002 -5.5949203504666672e-002
      2.7232278497696782e-002 -3.4731700467889773e-002
      1.9623787935620612e-002 -3.9330600884066265e-002
      2.8721483625963294e-002 6.6567815986861636e-002
      -8.1142382914465627e-002 1.3862091290145893e-002
      3.8077309834184343e-002 -5.5746712827837031e-004
      5.6625438970248243e-002 8.0134259745969882e-002
      5.6262450498668695e-002 -1.2909246722350798e-001
      1.4524773482908948e-002 -1.9906373963118524e-002
      -3.1241315131422184e-002 -9.6162124174430430e-002
      -1.7954475097997435e-001 -1.1094395109669504e-001
      1.2984510396977098e-001 1.1098695058184072e-001
      -9.5045698374813414e-002 -1.5787916012002700e-002
      -7.4143070476058393e-002 -7.3811181932534706e-002
      -1.3971766748981385e-001 -4.6518046524759146e-002
      -1.0881411001985195e-001 6.0960305006657264e-002
      2.8288278437860376e-002 -7.9306292672303283e-002
      8.0416371052521047e-003 -6.0303143537370249e-002
      -3.6507538396412458e-002 -1.6233428677543536e-002
      9.5473847923279211e-003 8.8888001809219575e-002
      -1.0758369514759286e-002 8.9290215259736558e-002
      -2.0612627323753713e-002 -2.9066471587396718e-002
      1.3253563747311309e-001 1.0997354007361269e-001
      -5.0696425864775581e-002 -8.6649941573178083e-002
      7.2835219644375407e-002 -2.3236000554674997e-002
      5.9624009613181136e-002 8.2410550619740355e-002
      2.9987653542497109e-002 3.0259063666217716e-002
      -1.0970730431568766e-001 -5.5874104866961427e-002
      5.3933050099527983e-003 4.6727605789510705e-002
      -2.7509601295332801e-002 -3.6329107385010238e-002
      8.1570016229625023e-002 -1.5770770466818882e-002
      -7.4547279020215134e-003 2.3345736743366267e-002
      -9.3961156141003754e-002 7.2507751146047711e-002
      2.1413714410548106e-002 -4.0085481912201452e-002
      7.4245974823558478e-002 -2.7056699634243966e-002
      1.3975479004000131e-002 -5.7416452516311847e-003
      1.3198136466111554e-001 -5.4090766110866446e-002
      -9.8475519678265497e-002 5.6505022497962125e-002
      -1.1306708422442364e-001 8.2182892901921795e-002
      1.6818117053322089e-004 1.8474188569046601e-003
      1.7884593022370766e-002 7.2718949740686462e-002
      -6.6499131142574150e-002 4.2297313204817256e-002
      3.4965631084910985e-002 1.5956612501751882e-002
      1.8419436123332390e-002 3.2870413041952651e-002
      -4.3060772415056653e-002 -1.0613200979463083e-002
      7.9202859546753518e-002 1.1188718253759820e-001
      -4.2359000480211774e-002 -5.7955384305038446e-003
      -5.8595561478461039e-002 1.0831290782765626e-001
      1.4381716591915606e-002 3.2511169832023415e-002
      5.3268313858512287e-002 -1.6899876577090966e-002
      9.5229226541527046e-002 6.3023599425568585e-003
      1.4358182165445221e-002 -3.8892722575335693e-002
      4.5113218824997230e-003 9.3691326403204947e-002
      3.7742480376546435e-002 9.7298307482496141e-002
      5.4577871855304362e-002 3.1379613671838782e-003
      -3.1823733187685783e-002 -9.8875751225920724e-002
      -7.9654304831207751e-002 -2.4002214817904939e-003
      -6.5582361426004057e-002 -9.8846234884291354e-002
      -1.1485841755441793e-001 1.6122533894025487e-002
      -1.3016694416256098e-002 2.6219363278529324e-002
      6.7376817842649164e-002 9.7701466680720397e-002
      9.9816731479022650e-003 3.6698773719919656e-002
      -1.8654892989567361e-002 5.8247501280130877e-002
      -2.6479930419051233e-002 -1.2902667176922850e-001
      1.1361734921184653e-002 -3.8959171077256688e-002
      -1.5702381301106190e-003 8.6617765720873832e-002
      2.4918739972130191e-002 -4.5670125789716021e-002
      7.7419945564095941e-002 -1.4836040401381720e-002
      -3.7869642387360458e-002 -2.6903927755635239e-002
      -1.1187302536217616e-001 2.4956191382809429e-002
      -3.1313537076945001e-002 3.4650164618577678e-003
      1.3438687106952087e-002 2.9899636341326179e-002
      -1.2446154267087574e-001 -1.4103173943230293e-001
      -1.2345423688223249e-002 -1.6304041043498561e-002
      -5.5251380044855976e-002 -2.8666961492676880e-002
      1.7746382165028402e-002 -1.6782600898836368e-003
      1.1142918390406258e-001 -2.4425513669125706e-002
      -6.3389886586484529e-003 -8.4415746067609806e-002
      4.7482077051560557e-004 4.6465145928031203e-004
      -3.7275848363586571e-002 -1.3373435282286150e-001
      6.9075193125335208e-002 8.8917082082062802e-003
      -2.5755850260918010e-002 -6.9299510807961678e-002
      1.8112672630128442e-002 5.8104791816312340e-002
      -6.3419344271344836e-003 -1.0470925596435857e-001
      5.7663138047554782e-002 -4.7497593197847056e-002
      9.1202883114627126e-002 3.6543545315569116e-002
      -8.3828316889327549e-003 -9.0305112072402854e-002
      1.2081540033258844e-002 -4.7665438351066083e-002
      1.3687000298290805e-001 5.8885192003421724e-002
      -1.4799254406436516e-001 3.0397902740452788e-003
      1.5011748393795446e-002 1.2488667289588593e-001
      -6.9901998695237763e-002 -6.1012995540723959e-002
      1.0730654028287231e-001 6.9354956064025489e-002
      -5.5096008914331127e-002 -4.7937692457039952e-002
      -1.0295798170031890e-002 7.4717566981937142e-002
      -2.6021407311306366e-002 -1.1656443575461281e-001
      -5.8842542670656486e-002 6.6229770007485964e-002
      -5.2674913223217774e-002 -5.0305469466848482e-002
      1.1537732741010716e-001 9.0694663801278594e-002
      3.0713147524560957e-002 4.3522150637120276e-002
      1.6489865120043942e-003 -2.8851648718040839e-002
      1.7147427455458601e-002 -5.6228290212910544e-002
      4.4531240887373126e-002 4.4368250787623742e-002
      4.0164867718844664e-002 -5.2384951452163694e-003
      3.9367963254918099e-002 -1.3116064403811925e-001
      -3.6696514607647918e-002 4.3897773545495018e-003
      9.1516197315564471e-002 -1.3686727312453839e-001
      -9.5088716984484650e-002 8.4095833086806501e-002
      -8.5751480404742016e-003 -8.0450661953398075e-002
      -1.0582315142084989e-001 1.1548727541037163e-001
      -8.0376060426962895e-002 3.8003587350420462e-002
      1.0169858584997886e-001 -3.1075233370883054e-002
      5.7557839456430858e-002 7.2991511445984189e-002
      7.4851973476493305e-002 8.2989918382386951e-002
      8.1652477636109999e-002 1.4763734117830916e-002
      6.8726759884572830e-002 1.0264366402200337e-001
      2.3108179617539019e-002 3.5020493539834191e-002
      1.0915981957035753e-001 -5.5398736411310615e-002
      6.1587377104127025e-002 -4.4301489349834314e-002
      9.5909907053076671e-003 6.3132553654939541e-002
      -4.8643599345956100e-002 7.2973994408388285e-003
      3.0605119881867142e-002 6.0319498127730270e-002
      7.1522643522487855e-002 -1.4078248387341916e-001
      3.4527238735607590e-002 9.3969613533865948e-003
      -5.9001912496884296e-003 2.4684272741412137e-002
      -5.0084210816543316e-002 6.8220368152269908e-002
      3.9540872761776591e-003 -4.9334875309398436e-003
      6.8780925836283521e-002 6.9113904638518964e-002
      -9.4913973813527758e-002 -8.5567077952209795e-003
      5.8501728226062179e-002 -1.1884151361066837e-002
      8.1424928583149828e-002 -9.1149893459444312e-002
      -6.0731579162683208e-002 -1.5048208879086777e-001
      -6.9714471839708664e-002 -6.8282990620961909e-002
      -2.6563112195533447e-002 -1.9613584025073773e-002
      4.3208002243194732e-003 -1.3567808223544220e-001
      -1.3668235125011549e-003 -7.4698514268497565e-002
      -9.2701307616709194e-002 -1.0587572269777785e-001
      6.2977257520910726e-002 5.4210650717987384e-002
      4.8645900167580615e-002 -3.3558783205569834e-002
      -8.7077584745320194e-002 -3.0778279865699934e-002
      -5.9989829655969162e-002 4.6876257778490089e-002
      -5.6235240388249563e-002 1.0101048120242265e-001
      7.2747440099469041e-003 -5.9013435265115939e-002
      -9.9120855936756930e-002 8.6417722265674946e-003
      -4.5291672085528603e-002 3.9887065658961699e-004
      7.8990973130158598e-002 3.7532649798369726e-002
      1.0469213487927766e-001 -8.4987508341752463e-002
      9.1703307982736650e-003 -7.9434059327769313e-002
      6.6763837221190864e-002 9.4069333199314126e-002
      1.1605508201677660e-001 1.1971987143787832e-002
      6.7875316120519613e-002 4.7079621397556261e-002
      -2.4937208078221598e-002 8.5746519273640256e-002
      1.8307699654366787e-002 3.3770067340914374e-002
      3.4916415100747285e-002 6.6618407260298093e-002
      -2.3952863818740629e-002 -3.5529682287327766e-002
      6.6200113113513443e-003 9.5369087924800533e-002
      -4.1503804981274537e-003 7.1596901029118254e-002
      3.5872967110958658e-002 -1.2373340744422054e-001
      -8.0786275057074738e-002 1.1201146448152116e-001
      4.2313016018188307e-002 -6.4587816964997477e-002
      7.0957577786123938e-002 7.8545003911205166e-003
      -9.1485847115686469e-002 -2.4277664595969195e-002
      -2.0113487977664928e-002 1.3600436985111591e-001
      -1.1122937871958892e-002 -5.8849137144810826e-002
      -3.2070854884433111e-003 1.8537078198219733e-003
      6.6935746201123220e-002 -2.5385575883570256e-002
      -8.6335404437114904e-002 8.8183381644421008e-002
      -9.5418644597452223e-002 1.5250288160708387e-002
      -1.0207249886885580e-002 2.3871359142125688e-002
      -1.9145589914142794e-002 -9.0546421908981947e-002
      -1.3566263510721652e-001 3.3449180967963274e-002
      -2.6861187608597181e-002 -6.7889615997712219e-003
      -1.0591724979472412e-001 1.0944943169078085e-001
      1.0468987290950239e-001 -9.2602787801480554e-002
      4.6069644954360181e-002 3.4217098359631694e-002
      -5.5534756192562915e-002 -5.0963515576341253e-003
      1.2843507959918143e-001 8.1635334784837477e-002
      -1.2953833576501452e-002 -1.3453145584144696e-001
      7.1672668886640187e-002 -6.8534035737178339e-002
      -7.1727676418365055e-002 -1.1530032395513479e-001
      6.6659259374314647e-002 6.6107829367054838e-002
      1.1197072576823620e-001 4.2298910411026264e-002
      3.5602056721450014e-003 -5.7330539000380799e-002
      4.0900007615070719e-002 -3.9350952724325136e-002
      1.7381146367801380e-002 -4.0581022661561064e-002
      2.8499212781762671e-002 6.1433718120507338e-002
      -8.9323645510656705e-002 1.4350826996554869e-002
      4.0090686676454441e-002 4.5934520746182652e-003
      6.2336033553885756e-002 7.6969928531992457e-002
      7.0987789357002493e-002 -1.3031215793858411e-001
      9.1973057319854820e-003 -2.4321525211515642e-002
      -3.7862229884678592e-002 -9.7604850645078706e-002
      -4.5517204848899264e-003 9.7913337548124449e-004
      -9.8069742895032382e-004 -5.5053443561734940e-003
      -4.6778217654949612e-003 5.5124638405418076e-003
      -3.3823498238054967e-003 -1.1937461557888489e-002
      4.8764547536473985e-004 2.2121488689345213e-003
      -4.6134981045182393e-003 3.2968613113231382e-003
      6.0510266989412176e-003 -1.1140812740251631e-002
      1.1393099174820277e-002 -3.4799035546457034e-003
      -1.6340121686684536e-003 7.0396646207383272e-003
      -8.7246426773059989e-003 5.0575556279342402e-003
      -3.1067635405675337e-003 5.4125472590526129e-003
      7.7217848057180580e-003 -1.4165993052747048e-002
      -5.2317981558633287e-004 4.8594600818037528e-004
      -4.1700387121201546e-003 -4.1527191852860886e-003
      3.8349818279713368e-003 -1.0341374898351539e-002
      1.7838034616494895e-003 5.7746053172922436e-004
      8.9648998343693012e-003 5.1436995499815836e-003
      -1.0043830422358682e-003 9.7633971974521745e-003
      7.2805507502720296e-003 -9.4040944330040441e-003
      5.7622065013028098e-003 -8.9211546649844414e-003
      -6.1053348388916834e-004 -5.8071610747638955e-003
      -5.5923195269555253e-004 4.3350273540436468e-003
      -9.4555849872835082e-004 -1.4056735711998052e-003
      7.8038239435286707e-003 1.5660475964391443e-003
      -2.4265090976371135e-003 -5.1968250291234835e-003
      -2.7367499838206375e-003 -1.8605324702947116e-003
      1.4443363599701963e-003 -6.7946794728125214e-003
      5.5709450126313152e-003 8.9101169195628868e-003
      -3.9762244604118358e-003 -4.6299130168431330e-003
      9.4960281824108591e-003 -9.6104519193327218e-003
      -9.2536646638306189e-003 -2.7659150377227592e-004
      -5.7081292498916509e-003 5.0648255668032582e-003
      -6.0167938491439655e-003 2.9427952850727510e-004
      8.2404953258049755e-003 8.2686587352937442e-003
      1.8133986476873436e-004 3.9626364684500264e-003
      7.4792580937104759e-003 5.4917441543482701e-003
      -4.7742066621903672e-003 3.8253461362103588e-003
      -3.4057609300506427e-003 -4.8015231704848053e-004
      3.3507767316172201e-003 1.2552929462369316e-002
      4.8525826857116983e-005 3.9983171956163039e-003
      -5.6035082507632974e-003 9.8644372318126387e-003
      4.8689312727198189e-003 1.6563995437873342e-003
      1.8434026927503465e-003 2.9647554042391325e-003
      1.1556510482543625e-003 -2.3871545440514734e-003
      5.1306110060334951e-003 9.8714910688725600e-003
      -2.5553493992740337e-003 -4.1011400507263256e-003
      -2.8561792003031577e-003 5.6755224423961567e-003
      -5.3510990156877894e-003 -9.1910449708616729e-003
      5.4664225397522293e-003 3.0939355509753061e-003
      -9.4231409335959939e-003 8.9055894111208216e-003
      -2.3882030056806176e-003 1.6849725858133922e-003
      -1.5725565940267474e-004 3.1359686400266738e-003
      -5.7071836284051216e-003 5.1128703055817138e-003
      -3.5277849634636821e-003 2.6271893363597368e-003
      6.6483620396480215e-003 3.6326575898662796e-003
      -1.3195230515744398e-003 2.8078436119220221e-003
      -3.0866613791370135e-003 6.5831066987695110e-003
      1.3129980791046581e-003 -9.6436138131623574e-003
      -2.6750622315577840e-003 2.5483168979265869e-003
      -9.2046719598486767e-004 5.6749171812901303e-003
      -9.7370817595476382e-003 -3.5586663272576566e-003
      7.2242153693490982e-003 -7.4137853614272813e-003
      1.1284553223590980e-003 1.2717733396193603e-003
      1.8099031292492926e-003 -9.9123133635922612e-003
      -3.4577303031478024e-003 -5.0290046540638353e-003
      8.6687564866274615e-004 -1.0250019897204395e-002
      1.1857171003695388e-003 -2.8033867541412010e-003
      3.4939779540423305e-003 4.5000585936058298e-003
      5.3650705021987648e-003 1.3816037120261291e-004
      -1.1563273314003470e-002 -6.7433644159351081e-006
      3.6632944395359299e-003 5.5111720430885169e-004
      -3.5129190471789710e-003 2.1014896878037864e-003
      -5.5638377073822989e-003 7.4937316031423000e-003
      1.9133133137137409e-004 3.8397800674419617e-004
      1.0377826334056667e-002 -3.8360524580831751e-003
      4.9855589918122193e-003 -9.4345097425132488e-004
      4.0835647452269275e-003 3.4944318855023642e-003
      -3.9692871850348765e-003 4.2754852181709577e-003
      -8.9945868768794880e-004 3.2662117516474515e-003
      -3.2551641700437521e-003 -2.2381812163454837e-003
      8.4130341915587721e-003 2.4120734731613962e-003
      -6.0769546058155799e-003 4.6297271787933041e-003
      -4.1927494323040198e-003 5.2326963527710600e-003
      4.7501971680324190e-003 -7.4122673179168250e-003
      -5.6978250089679645e-003 -3.3991119206147553e-004
      -7.6853011317840952e-003 -5.2809015042916217e-003
      1.7617625215943719e-003 2.0591713604307380e-003
      2.2204398175322796e-003 -6.9807909569011674e-003
      2.0320398501574950e-003 2.3035536516208366e-003
      2.5424203107734197e-003 1.6992935450515943e-003
      -1.2513721662840002e-003 -7.9300698233934347e-003
      -4.2355821460210857e-003 1.2736044060459705e-003
      -5.8438281007248015e-003 -1.3069137051833948e-003
      -4.8792577451174240e-003 -9.5026552398234706e-003
      -9.6999940770273523e-006 2.5736586344042214e-003
      -4.5251372314905657e-003 1.6307113241432938e-003
      -5.8322093947213386e-003 5.2570489068739579e-004
      -1.2400965919195908e-003 3.4159453712694185e-003
      7.7886418334956464e-003 -2.8614510648219053e-003
      6.3383635094686544e-003 -1.1911852347042579e-004
      1.5068064189534624e-004 -1.9106957003573201e-003
      6.4480144437925550e-003 8.7003999786705206e-003
      -4.4857655379528828e-003 -4.0561810474855449e-003
      4.2246523443207271e-003 -4.3168918083838189e-003
      2.1248424589263306e-003 4.3484459991040185e-003
      1.4165101982440510e-002 8.6455116333013574e-003
      -8.9445798522748109e-003 -8.9081751614672401e-004
      1.1766217145947760e-003 -3.9098221161869848e-003
      -1.1441102761907795e-003 1.6852665721071927e-003
      -8.4439505810298234e-004 -5.2944096220502038e-003
      7.3831878735170125e-003 -1.0949827579087796e-002
      -3.1086092189233192e-003 2.4393163128781656e-003
      -1.9464499600140438e-003 6.4953915221376392e-003
      6.2773181197330503e-003 7.4414259161517532e-003
      1.0283473923473844e-002 5.3836632594965817e-003
      -6.7509469796635194e-003 3.3796479734678050e-003
      -4.1265140106652512e-003 6.9873976818549078e-003
      1.9395459580367285e-003 3.4291759254448874e-003
      5.7234428698406453e-003 1.1291689406808088e-002
      4.5299039853045654e-003 -5.5378374194443780e-003
      2.1381273920198381e-003 -1.5759917982922529e-003
      6.5007084136982198e-003 3.9211939665174190e-003
      -6.2145159352738700e-003 -1.5208677554527691e-003
      1.3205938497219260e-003 -3.4406680219758617e-003
      -7.0232355303056423e-003 4.7791168349407545e-003
      -7.1816144448689665e-004 -7.4492376869444788e-003
      -2.6586747856997138e-003 -5.9424670431974143e-003
      1.0320483447745536e-003 6.1576533174831491e-004
      -4.5897463634845571e-003 -2.4322002378322988e-003
      2.6955846337240741e-003 1.1609774241206192e-003
      -4.8346386522442860e-003 -9.6900678926950740e-004
      -6.9660860804744672e-003 5.1898352545079549e-003
      5.8663615387700985e-004 -6.7150140125425625e-003
      9.0743462161275317e-004 2.7197758350654315e-003
      8.8177542715516411e-003 -2.5799567430576003e-003
      3.0694951152515351e-003 1.0246340947553797e-002
      -6.6076464173152674e-003 7.4961359161736839e-003
      -1.2421519576200745e-003 -1.1200218757305383e-002
      3.4963031935168675e-003 9.4476668975579760e-004
      5.9549487539930388e-003 -1.4113412695269203e-003
      1.5742589010760294e-003 -1.2327461395808461e-003
      -2.5152382094694309e-003 4.1055510171401335e-004
      4.3988953139096169e-003 -8.0588685817744293e-003
      -6.4443919457789940e-003 9.0452424309960290e-003
      -1.8603088006626974e-003 -2.5407487835441044e-003
      2.3883811484157009e-003 9.0930963431061738e-003
      -5.8663001682099257e-003 2.2048865844118907e-004
      1.1728299040228773e-002 -7.8446223309240459e-003
      4.5193899225877141e-003 5.4375787808751399e-003
      1.2952095965890996e-002 -8.5334716095598687e-003
      8.6627000156104320e-003 1.0685044103499459e-003
      1.7725006798190727e-004 6.6950943297363187e-004
      -7.9253135025212276e-003 1.7161938455164504e-003
      3.2820191765702499e-004 -8.2355877356994460e-004
      -1.9487969181383015e-003 1.0548270198002967e-002
      2.9376730735146219e-003 -1.1586637246876284e-002
      -3.0376006067833971e-003 3.2809416473432778e-003
      1.5095503036605441e-003 7.0509397317056752e-003
      -7.3857103759775149e-003 -7.5722364693576885e-003
      -2.6757209530177909e-003 -1.2384805710877629e-003
      5.3060519943292700e-003 5.2750590431222483e-003
      -5.9278518155908913e-003 -7.0301076454833585e-003
      -2.7496529972989986e-003 -4.2276006519989848e-004
      7.1004856992361275e-003 -1.5084778002647887e-003
      -2.4967565819730843e-004 2.0285114299990088e-003
      -1.3036307306225987e-003 1.7453814224914477e-003
      1.0519719784722594e-003 6.1472403117208835e-003
      -4.2348146379634164e-003 -1.2534181220406444e-003
      1.0615034406043587e-002 -4.0964650915516617e-003
      6.9186343355790445e-003 -4.3285235591450383e-003
      2.5197482015562097e-003 1.1136374916391979e-002
      -5.6878636488940032e-003 3.7692732035170358e-003
      -4.1650438181117782e-003 -1.3891835825770560e-003
      2.2336548199689589e-003 -2.7092327510556276e-003
      -4.2814178190734896e-003 -3.1696026865789409e-003
      8.9939835969207824e-003 -2.9872837351507756e-003
      -8.2864945084253142e-003 -5.8244364440404274e-003
      -6.7654832111529407e-003 -3.4482602020484920e-003
      2.6744776776953098e-003 -7.9475636835171239e-004
      4.3823299509608412e-003 5.9009690887149345e-003
      -2.5090001251692889e-003 -7.8686850039333175e-003
      -1.1926948179371948e-002 -3.7845465210333824e-003
      1.0149755652666372e-001 7.0083397329406744e-002
      -7.2431289852204678e-002 -6.4632214532196169e-002
      5.2668226138650388e-002 -2.2123793630779830e-003
      4.2799502900128711e-002 4.4685969552463345e-002
      8.0373998502674168e-002 2.6802242772296977e-002
      6.6810701193130109e-002 -4.0268130707419456e-002
      -2.4635523066707542e-002 4.7304147479111665e-002
      -1.4457637997059090e-002 3.6299710866222870e-002
      2.4792687514408673e-002 -7.8834438837901695e-004
      -4.6052847624344301e-003 -5.5088768412745029e-002
      8.6172444486912348e-003 -5.4698765037662425e-002
      1.4039851783081000e-003 2.3214843040437950e-002
      -7.0478022813667926e-002 -6.5893867514457652e-002
      3.8604959429458637e-002 4.9941544070230645e-002
      -4.3847723719514169e-002 1.9878742595881474e-002
      -3.3310305795889207e-002 -4.6400603768759978e-002
      -2.2913187745912895e-002 -1.4200928414386476e-002
      5.4877320575516003e-002 2.3641526465636567e-002
      -1.0284590505813297e-002 -2.1301149211375367e-002
      9.0783128334308971e-003 1.8920317896687921e-002
      -4.2870488846417941e-002 1.4717399004070408e-002
      -1.7245806952072755e-003 -1.6197408542179291e-002
      4.6938542115891033e-002 -4.1008043850325339e-002
      -1.3752789303777631e-002 2.0300380886248023e-002
      -4.5178695136833598e-002 2.1691640912144552e-002
      -4.4227743698095076e-003 4.8105340847458709e-003
      -7.2850890062713641e-002 3.5589292340459787e-002
      5.4291286664594506e-002 -3.4411308576518848e-002
      6.1283282066704518e-002 -4.1966915487946253e-002
      -1.1031882098488649e-002 1.0681635610045989e-003
      -4.5459887456464221e-003 -4.5105358852160223e-002
      4.3348255501436027e-002 -2.9086451498356734e-002
      -1.7957923372870700e-002 -1.0626461953029619e-003
      -1.3953558088748276e-002 -2.2177215573025631e-002
      2.2398686552836770e-002 -2.3896799383680053e-003
      -4.4180096438612253e-002 -6.8497647460473224e-002
      2.9280944490118494e-002 -7.6584899424021278e-003
      3.7640340455020495e-002 -6.1115362545502712e-002
      -1.4038532795556733e-002 -3.0601302607603659e-002
      -2.3533479205822220e-002 7.3962399151086067e-003
      -4.3338395603230252e-002 -7.8081469284465152e-003
      -1.3674756259095261e-002 1.7478312145274046e-002
      2.8962160163735762e-003 -4.7838939642191602e-002
      -2.4489235634695076e-002 -4.3961881961997885e-002
      -3.6987175520243248e-002 -1.2896599167851458e-002
      2.0863313217796598e-002 6.3543309469659845e-002
      4.8981184488349559e-002 2.5882198330013208e-003
      3.4217573789901805e-002 5.9227370860103185e-002
      5.7473131295208528e-002 -1.4441834037844261e-002
      1.0345897563967588e-002 -2.4358753402948071e-002
      -3.9876130405635243e-002 -5.0789706741626132e-002
      2.3002834428181591e-003 -1.4635579998192818e-002
      2.0959222610547210e-002 -2.9654976889442498e-002
      1.2923688903664502e-002 7.4564055629762704e-002
      -7.3440520953597594e-003 1.7782184829826631e-002
      -1.4705942569355091e-003 -4.2393458288730368e-002
      -4.1409221399043884e-003 1.9225048494542943e-002
      -4.3287589984083941e-002 1.2848078944042787e-002
      1.0306603633549054e-002 1.6550178149742630e-002
      6.2777702241575112e-002 -2.4024676397990954e-002
      2.6064169313729710e-002 6.0330336052352137e-003
      -1.2120388203788029e-002 -1.7195147036652023e-002
      6.9641756864017426e-002 8.5252578790641700e-002
      5.1973373578349611e-003 1.7053658799168411e-002
      2.5436927914003253e-002 1.5320207602153472e-002
      -1.3030741817536671e-002 2.5665726622324382e-003
      -7.0721857035324576e-002 2.3072486994276633e-002
      7.5021257504772300e-003 3.8450079410079635e-002
      -4.1354612529004913e-003 -3.5941814897889907e-003
      2.8241057561451285e-002 7.0111134387017757e-002
      -3.6822479909876048e-002 -7.8405874416909663e-003
      1.6041792217333862e-002 3.8609673306292919e-002
      -3.3521057402210886e-003 -3.4850203018963008e-002
      -3.3770973851988723e-003 6.1441826303519784e-002
      -2.8698839763523418e-002 2.5904708650010627e-002
      -5.8844804394476508e-002 -1.9777338594290452e-002
      -2.8572401107664954e-003 4.3376946438952207e-002
      -2.5354557769277156e-003 2.9917266403791117e-002
      -8.4822946057177565e-002 -3.1300063902097150e-002
      8.9626428881334194e-002 3.9271695824503244e-003
      -9.5998884878683854e-003 -7.5766065335710328e-002
      5.0730787185344399e-002 3.3125437384759156e-002
      -6.2904861615551907e-002 -3.9142573333986297e-002
      2.3687750646846098e-002 2.5779622807107647e-002
      1.4013160946015566e-002 -3.7397665825752727e-002
      1.4026475909903326e-002 6.8060992520678529e-002
      3.4436441492402083e-002 -4.1115677830461515e-002
      2.5282733530590396e-002 3.2866563352004260e-002
      -6.7103283188154367e-002 -4.9044082264177905e-002
      -2.2215708826665018e-002 -2.2838611853074953e-002
      -3.2505697473762989e-003 1.9442837476150235e-002
      -4.9377723225862485e-003 3.1457980799553503e-002
      -2.1392500369341073e-002 -3.0054632987522745e-002
      -1.8920972597330103e-002 6.7212187045177429e-003
      -2.1666843252812727e-002 7.0940239508759287e-002
      2.0994001025246987e-002 -9.1780598591105541e-003
      -5.4352814157952491e-002 7.5946422509744149e-002
      5.7099585827026622e-002 -4.4672217675866779e-002
      -2.4676888519982927e-003 3.9208057203833226e-002
      6.1933378704011159e-002 -6.3748605862984517e-002
      4.3022785036442947e-002 -2.2062194707456115e-002
      -6.0409135890615112e-002 9.4087019405977527e-003
      -2.9837997416316441e-002 -3.3004708467288986e-002
      -4.4925521106507493e-002 -4.4347047949617156e-002
      -4.6625883259164044e-002 -1.0729107240537541e-002
      -3.6688603342495282e-002 -6.0986300769495634e-002
      -2.1415272211455717e-003 -1.6738209570206504e-002
      -6.3290206586025285e-002 3.3257966817771142e-002
      -3.5963427940872462e-002 2.5497708989691368e-002
      -8.5935661889964005e-003 -3.3110550113631974e-002
      2.0096303383587533e-002 -4.4497234102858479e-004
      -1.4068060811823990e-002 -2.7267160934962655e-002
      -3.5144984112750161e-002 8.0291427242838845e-002
      -2.5053510932094337e-002 -6.1487160902366049e-003
      -6.7702184011686863e-004 -2.0655932687140516e-002
      2.6942063565834774e-002 -3.4868535863267228e-002
      8.7348680053737644e-004 3.3367224376678441e-003
      -4.0770571223003760e-002 -3.0621433995099090e-002
      4.5565619911789076e-002 4.6562583138943670e-003
      -3.4816350139466677e-002 4.3922180354090323e-003
      -3.7406448142459837e-002 4.7197601409339388e-002
      3.1107489668137502e-002 8.4989727560063316e-002
      3.9160283815764724e-002 4.2055315152667069e-002
      7.1184433295198397e-003 1.5329122413743570e-002
      3.2158984593730466e-003 8.5273677991889646e-002
      1.3132756789468944e-002 4.4847643858054904e-002
      5.0625092674948094e-002 6.3917480814911581e-002
      -3.0780651674985053e-002 -3.5465646549969296e-002
      -2.5879254508703754e-002 1.9214652987183081e-002
      5.0763773774492364e-002 1.9997090909741073e-002
      3.6356312330175708e-002 -2.2621603904935204e-002
      2.8610056912356616e-002 -5.8574135093285441e-002
      -7.6329180304606217e-003 3.9414260705922029e-002
      4.9949009520314926e-002 -1.1240513696893389e-002
      2.4624727331662131e-002 -1.9140500996730194e-003
      -4.1757505015151811e-002 -2.8816980247359146e-002
      -5.4230807247511885e-002 4.0172359707428822e-002
      -7.0688377278957737e-003 4.2346952864827550e-002
      -3.0805065719935208e-002 -5.0478713585293433e-002
      -6.3970297329837153e-002 -9.0094875424064531e-003
      -4.3320439621510824e-002 -2.7023810150602966e-002
      8.4009038844258706e-003 -5.2764234330708974e-002
      -1.6832637064844062e-002 -1.5570127994982199e-002
      -1.4924943461165328e-002 -3.5397366561511087e-002
      1.8667210375285907e-002 1.4930051621618017e-002
      -6.5616402234202871e-003 -5.3115407183419561e-002
      1.0207044933806494e-002 -3.2094062255130021e-002
      -3.0134892413428514e-002 7.0167359317086023e-002
      3.8282919276618373e-002 -6.4701408378406017e-002
      -2.7722755508284246e-002 3.3312500752892139e-002
      -4.8947122309702516e-002 -1.2726982717364905e-002
      4.6049029039371012e-002 1.6162467123239033e-002
      2.2858834779562132e-002 -8.0918372052541002e-002
      3.9175260002576161e-003 3.6832459438324833e-002
      -6.6945865726235673e-003 1.7812343806319163e-004
      -3.3378148626887705e-002 1.8581276377789790e-002
      4.8776579980455530e-002 -4.9800496394644081e-002
      4.6309588018780788e-002 -1.5822812492703290e-002
      1.1670267941265784e-002 -5.0181156304706445e-003
      2.0526103483482504e-002 4.8164671023627446e-002
      7.9181221206240160e-002 -1.5650589500534835e-002
      1.6998720154536538e-002 4.0422115816047622e-003
      5.8552485781139765e-002 -6.4373658417053656e-002
      -6.2512417307807780e-002 5.2638139760004456e-002
      -2.8690095467320258e-002 -1.8623925229781315e-002
      3.5248709141773207e-002 3.7948719998470931e-003
      -7.6466017898504726e-002 -5.2585129986870892e-002
      1.5913941826777026e-002 8.1585088723778287e-002
      -4.3131047334066884e-002 3.5747077843088351e-002
      3.7930124591303960e-002 6.6936547714534542e-002
      -3.6286230672774478e-002 -3.7435365263117547e-002
      -5.6876891542768468e-002 -3.4878059292345075e-002
      -6.1229699727339288e-003 2.9564031742730309e-002
      -2.7755724374731554e-002 1.9409829908010962e-002
      -1.0280693013810641e-002 1.4678407084727519e-002
      -1.5676326672894564e-002 -3.1191480710192242e-002
      5.6968741832816153e-002 6.5731898565289755e-003
      -2.3852371383284145e-002 4.1191647830574231e-004
      -2.7507926795636396e-002 -4.5741351049587924e-002
      -3.5889965628610000e-002 7.1727304132501488e-002
      -1.2104846982945075e-002 1.6706408238148288e-002
      2.7966561140774244e-002 5.6725775802672580e-002
      9.3587874433666160e-002 6.6433682690704127e-002
      -6.7236170813377780e-002 -5.8968964365685689e-002
      5.0272192254022990e-002 4.6261223038260137e-003
      3.7377210926764923e-002 3.9792255284604457e-002
      6.9717909257648022e-002 2.1438720591324539e-002
      6.0791033200226670e-002 -3.8511243494644215e-002
      -2.0972934062671787e-002 3.9859366058111197e-002
      -1.4218526792799184e-002 2.9098353876844642e-002
      2.6013535149236312e-002 5.5742463292598309e-003
      2.5952075350264285e-003 -5.1048996413438380e-002
      8.9944673424404039e-004 -5.3858520726560360e-002
      4.2749542236078875e-003 2.7398103957138986e-002
      -6.5997563952124749e-002 -6.7372945545626770e-002
      3.2175715283259548e-002 4.3610859456582537e-002
      -4.5592546905434857e-002 1.6296494069386321e-002
      -3.3291231560703682e-002 -5.1275600630922472e-002
      -2.3594786052630597e-002 -2.0431911205105412e-002
      5.2083072697455123e-002 2.5035557034520310e-002
      -1.3206113205733217e-002 -1.4832563071928611e-002
      1.0549769221448364e-002 1.9711879339462647e-002
      -3.6949346411717675e-002 1.7410772210897995e-002
      5.6002609541781672e-003 -1.5480936113716259e-002
      4.1580499743119240e-002 -3.1511394901756550e-002
      -9.9340714233719617e-003 2.5773272871998942e-002
      -3.8862502566416171e-002 1.3330827384474791e-002
      -4.0639810287739428e-003 9.0518031800526609e-003
      -5.8406519553112567e-002 2.5402939317356474e-002
      5.1251563720752021e-002 -3.8746462646510653e-002
      5.5909662206671200e-002 -3.8322851859016349e-002
      -1.2078278424190301e-002 -7.5759491113301159e-004
      -3.5705452067207703e-003 -3.9330338171661122e-002
      3.8676085868627051e-002 -2.4415344995328946e-002
      -7.4743727106285967e-003 9.4087779167455093e-005
      -1.5025094346548104e-002 -2.6727561280502465e-002
      1.9830820272964105e-002 -1.3016742849403450e-003
      -4.1903217722254416e-002 -5.8871571242607550e-002
      3.0064525761447535e-002 -4.5097916163077080e-003
      4.2782485416924955e-002 -5.6572283491184032e-002
      -1.9159050663602076e-002 -2.4253479304709030e-002
      -2.1571515660420731e-002 4.4750158708816608e-003
      -4.5103380140081584e-002 -1.2317020845909779e-002
      -1.7477231168752813e-002 1.0604415343371977e-002
      -2.2191759522389868e-003 -4.1263976151434234e-002
      -1.8984600030203337e-002 -4.5482791187014461e-002
      -2.9168867310113766e-002 -1.5695989584612879e-002
      2.3907978611979918e-002 5.7893982778597350e-002
      3.9984752293576294e-002 3.6493793227840880e-003
      3.2517714365972339e-002 5.8370461923095703e-002
      5.3726661995228228e-002 -1.6258037566117323e-002
      1.4493299249257385e-002 -1.6641574541917548e-002
      -3.0039051070682110e-002 -5.5537157399777284e-002
      -2.8920175116844953e-003 -1.0583096364218572e-002
      1.8535373910744859e-002 -2.8290588107984994e-002
      8.3641662222871879e-003 6.6373395915767963e-002
      -1.1463542576291237e-002 1.6588125720791588e-002
      7.7985973209503314e-003 -4.2054282280246325e-002
      2.6266561192317108e-004 1.8313085339552192e-002
      -4.0672360635977504e-002 1.2718146434805998e-002
      1.0557191463071474e-002 8.4926433412535682e-003
      5.6064181795531791e-002 -2.0320603957188075e-002
      2.1064033364118221e-002 2.0393993496144415e-003
      -1.0592910468783908e-002 -1.0978122737821063e-002
      6.3350933461837969e-002 7.7093657305122354e-002
      -1.7037053933152903e-003 2.4915003042183786e-002
      2.4108170484467787e-002 1.7824053757853446e-002
      -1.6438588435321557e-002 8.1181709692872434e-003
      -6.1363932578726119e-002 2.3427759681985769e-002
      4.3190217225846494e-003 3.8358525675823110e-002
      -3.9351540903688840e-003 -4.1071644447363094e-003
      2.9798807627816198e-002 6.6101930328537034e-002
      -3.1107116020944264e-002 -1.5048037119062165e-002
      1.7066511800192814e-002 4.1535983377827650e-002
      2.8799863719745954e-003 -3.4225099171439247e-002
      -1.4231903140281687e-003 5.3701337316791116e-002
      -3.5426099544371176e-002 2.7571120239433929e-002
      -5.0912065357021877e-002 -1.2561644492014731e-002
      1.1104158572158554e-003 3.8223828599136013e-002
      6.5109342762245019e-004 1.5317915918936453e-002
      -6.6690557583873086e-002 -2.9326811299747908e-002
      7.2007096414168109e-002 7.4620590857970076e-003
      -9.4499299031249595e-003 -6.8368720460328464e-002
      4.5110128224571437e-002 2.5484444832558087e-002
      -4.8716824418698387e-002 -3.8937756113752012e-002
      2.3450881188102225e-002 2.8172707964931959e-002
      9.9795878648682706e-003 -3.0563473345920595e-002
      1.7801025597714123e-002 6.3198585104525792e-002
      2.5364070390920552e-002 -3.2742385450734254e-002
      2.4726626968630545e-002 3.4909999626169849e-002
      -5.6709384160803150e-002 -5.1309193688288637e-002
      -2.5381038775125261e-002 -2.1020643034689177e-002
      -4.4666727758146388e-003 2.6812745531501408e-002
      4.0663383896846457e-003 2.7749624846955034e-002
      -1.3901006545970292e-002 -2.5908664164964342e-002
      -9.4677366436983369e-003 1.6055319647238872e-002
      -1.6044696348422420e-002 6.8583941084789643e-002
      1.0082393776104157e-002 -1.4629060006105511e-002
      -4.5535475729858471e-002 6.7893492084403748e-002
      4.3390054607888265e-002 -4.9079333024208111e-002
      -8.2753071035870701e-004 4.0392717182687124e-002
      4.5965903391232327e-002 -4.8711591438177694e-002
      3.6383410789982744e-002 -1.3108776780335857e-002
      -4.6925876100206231e-002 1.0983242081741276e-002
      -2.7534791988107595e-002 -2.6916933998139311e-002
      -3.9400146361173081e-002 -3.7176236468678944e-002
      -5.1422557385193877e-002 -1.4520851789225391e-002
      -4.0862509302627546e-002 -5.1624562157732715e-002
      -7.3133336880327349e-003 -2.2253275442198527e-002
      -5.8529005264362333e-002 2.3666450571246851e-002
      -3.9378877231786888e-002 1.9080129676138521e-002
      2.6561654619656353e-003 -2.3916414691234858e-002
      2.2944625929267291e-002 9.6604140965660269e-003
      -1.0571885967983693e-002 -2.6869964381121540e-002
      -3.4116406601019562e-002 7.6756882670793003e-002
      -2.7332999020305199e-002 -1.6179861852470945e-002
      -9.0297865645149519e-003 -2.0556834814947168e-002
      3.4189551470995783e-002 -3.0544060752822247e-002
      -2.9352799001502541e-003 -2.9949826942167346e-003
      -3.2751036716912846e-002 -2.6635299397202678e-002
      4.0156464420136720e-002 2.6809844340259740e-003
      -3.3897363082739156e-002 9.0611611464979959e-003
      -3.6852284583100810e-002 5.2674642663054980e-002
      3.0835295028340579e-002 7.1701579560448245e-002
      4.1614103859312586e-002 2.9207340048952198e-002
      3.5807254149983251e-003 1.1259270001250576e-002
      1.0032176912875120e-002 6.8207001924414423e-002
      1.2060652869625110e-002 4.1512800192110927e-002
      4.0749188558488754e-002 5.6439233537599019e-002
      -3.3102924039621007e-002 -3.0750157033394784e-002
      -2.1078604333698465e-002 2.3732661516610853e-002
      4.5097695722121064e-002 2.2987145331054351e-002
      3.0200598973006681e-002 -2.8354987279813722e-002
      2.9131347884915677e-002 -5.0999480735650735e-002
      -1.5369580886520153e-002 3.7872988532878411e-002
      4.5929266107622345e-002 -9.3541225674681015e-003
      1.7688887080989486e-002 -3.5521369724976740e-003
      -4.8046721164132417e-002 -2.4661011761327678e-002
      -4.6163329866189796e-002 3.4960105477200895e-002
      4.5235760337418067e-003 4.5467090142708853e-002
      -2.5719076243761511e-002 -5.2080042576721927e-002
      -6.2947300949240073e-002 -1.1890633332553948e-003
      -3.6025297119912793e-002 -1.6798448501907516e-002
      1.0908970352471143e-002 -5.2158152989306365e-002
      -1.8664579402410963e-002 -1.3383928287508371e-002
      -1.5868376564145498e-002 -3.6963720531586176e-002
      1.9050089854352751e-002 1.0410653103231172e-002
      -1.3050178059037345e-002 -4.6372860871731252e-002
      1.3375059494861624e-002 -3.0977402949820831e-002
      -2.2344160123350925e-002 6.1411022371284998e-002
      4.0285662730897259e-002 -6.2482200353899273e-002
      -2.8928641265478113e-002 3.1865501619792298e-002
      -3.6838525301460492e-002 -1.1241784870779103e-002
      4.6799267914862649e-002 1.0475720758955007e-002
      2.3788434208672812e-002 -6.6619462714833710e-002
      -3.0882566119829024e-003 3.1781702047614740e-002
      5.7943272050500011e-005 -7.9275447337994864e-003
      -3.4125801916761685e-002 2.2629062827665410e-002
      3.8469524209118498e-002 -4.0192527046934982e-002
      3.7572756867868325e-002 -1.2314855797324768e-002
      5.5994127174561030e-003 -8.0235745639064705e-003
      2.0095499499534309e-002 4.8957295793733265e-002
      7.1490181094922348e-002 -1.6362578401283450e-002
      1.1327633977797801e-002 1.1094574259493537e-002
      5.5787561244881885e-002 -5.6261882151911621e-002
      -6.0441045538115003e-002 4.3340472631991797e-002
      -2.5134350641577791e-002 -1.7028950590750519e-002
      2.5959532956256297e-002 9.3690274822759156e-003
      -6.8458970484064116e-002 -4.4985750653911735e-002
      1.3655980347161320e-002 7.3042695456029927e-002
      -4.4769173014458798e-002 3.8995879516255244e-002
      3.0511991563440522e-002 5.2693888936049649e-002
      -3.6804489037992036e-002 -4.0285284652303660e-002
      -4.9238926639973861e-002 -3.5148309963936711e-002
      -2.7228794848712577e-004 2.0148168447613080e-002
      -3.0050496679970354e-002 1.7557337234842912e-002
      -6.3972314141671266e-003 1.8133886298052376e-002
      -1.7898326313862227e-002 -2.0613161582667891e-002
      5.5154235407009873e-002 6.1785160715576715e-003
      -1.0679268678501870e-002 -9.4951967643689132e-004
      -3.0437458978512851e-002 -4.1190387034173499e-002
      -4.2513175508627335e-002 5.8860837702041445e-002
      -1.1588047173924223e-002 2.4058008961402564e-002
      3.0528151167981132e-002 5.0425969554467494e-002
      5.0313464492810864e-002 3.5912608222383860e-002
      -3.9880829250424410e-002 -3.2306254453614645e-002
      3.0435026673210016e-002 4.3221574842496703e-004
      2.1062100841908994e-002 2.0314169218245384e-002
      4.2688603299721538e-002 1.7327735368482908e-002
      3.5541029872290887e-002 -2.2476876387621747e-002
      -9.5685081815367595e-003 2.4743420050228997e-002
      -5.1803282464473396e-003 1.4384411692537886e-002
      1.5112099688276634e-002 -4.3007214942561043e-003
      -2.6342055227174185e-003 -3.0408103578957742e-002
      6.6066407322045301e-003 -3.0065639572301617e-002
      2.0223018955849150e-003 8.3623312771422681e-003
      -3.9835496346717104e-002 -3.8224554872764667e-002
      2.0906942789139550e-002 3.2125215422781732e-002
      -2.3298675109484406e-002 8.7124070802023657e-003
      -1.7843172415640773e-002 -3.3990337298986026e-002
      -1.4443837390370024e-002 -1.7665255495989272e-002
      3.2010200765849761e-002 1.3082028467923095e-002
      -4.9093451173375510e-003 -1.3657951187870784e-003
      6.6380029381187637e-003 1.3876140546345204e-002
      -2.1206786129675231e-002 1.2320819327143209e-002
      4.0188432300084518e-003 -6.7859597943536873e-003
      2.1539203277924242e-002 -1.2399834374442031e-002
      -1.2324868995349375e-002 1.6515278878636207e-002
      -2.0723730321983012e-002 9.0266245988547752e-003
      3.9533037935277696e-003 3.4044198835334639e-003
      -3.4161979340362039e-002 1.5586946427746084e-002
      3.1036580676908086e-002 -2.5345721516430206e-002
      3.8595340019340750e-002 -2.6266006230272334e-002
      -5.1660803347209272e-003 1.0092207313102109e-003
      -1.2811172961254955e-003 -1.4096433381859862e-002
      1.8312764970626789e-002 -1.9335331920689557e-002
      -9.9783231407568187e-005 2.8232912548557957e-003
      -9.3587973783776819e-003 -1.4087385423963837e-002
      7.4739262924761497e-003 -3.3014248993958571e-003
      -2.8627109291584303e-002 -3.7876690872197985e-002
      1.4388440367057106e-002 -2.0352753054924521e-003
      2.6877201142685832e-002 -2.8084688095839284e-002
      -1.3431619604183520e-002 -1.8831884672361358e-002
      -1.3884125979775291e-002 -5.7523922308577091e-003
      -1.8362776030836046e-002 -5.0155795919208466e-003
      -5.7812596986915208e-003 9.6414365231000689e-004
      3.0334610024524583e-003 -2.1211593698835164e-002
      -1.6076762410125178e-002 -2.6748324174251357e-002
      -2.4379216051834122e-002 -7.7401973308308348e-003
      1.0236373868549765e-002 3.3949736042493781e-002
      2.6889453137693906e-002 -4.7062647485329452e-004
      1.5641705424291035e-002 3.4495820977042860e-002
      3.0974986215626155e-002 -1.1518914407663542e-002
      5.5505762493095389e-003 -1.2876123174405662e-002
      -2.0346510918504559e-002 -3.1824620303119243e-002
      -1.5558197104453585e-003 -1.0849502490887118e-002
      1.4971207087442741e-002 -2.1790234498032253e-002
      6.7995015845921372e-003 3.3421372333700225e-002
      -7.9636041366290197e-003 7.3032568274775909e-003
      2.4732978607573679e-003 -2.5122287164911987e-002
      -1.1761525955169896e-003 1.0736411367181679e-002
      -2.4068727749326672e-002 3.3455983436987010e-003
      8.6869926425518806e-004 1.1011461663144588e-002
      3.1688815890575331e-002 -9.0285512509190591e-003
      1.6005527438703572e-002 -1.3428502069513296e-003
      -4.7680266408624246e-003 -7.3971768461898622e-003
      3.9243627878170768e-002 4.4246571080113220e-002
      -5.9871682799573630e-003 1.0748638785675146e-002
      1.5496822689761004e-002 1.4974736437035166e-002
      -6.9380805103820510e-003 7.9609047708374876e-004
      -3.4761849406093386e-002 1.7469826546509738e-002
      6.7669415802419459e-003 1.7058471512980154e-002
      -9.1471821747212446e-003 -7.3642705023795945e-003
      1.6707029389050856e-002 3.6688694744690852e-002
      -1.8843970038139587e-002 -5.5004989495239590e-003
      9.0748147466927030e-003 2.1119035528462518e-002
      -1.0864527211351753e-003 -1.7199111542386961e-002
      -7.5874711927765544e-003 3.1672782615570126e-002
      -2.0286572414578225e-002 1.8372453736914877e-002
      -2.6488823114882869e-002 -3.4451930847490802e-003
      2.9191166511598216e-003 1.9125690702076467e-002
      3.3127817920311904e-004 9.2823170603466443e-003
      -3.7546852212055032e-002 -2.2798902805107515e-002
      4.1521344239933748e-002 7.5933192348287531e-003
      -9.0374879003464366e-003 -3.5424054809632073e-002
      2.5157567954751037e-002 1.3401833878835761e-002
      -2.8800664235053005e-002 -2.1551698087412606e-002
      7.9568365007008698e-003 1.5790416772054186e-002
      7.7375120315802005e-003 -1.7221223169741843e-002
      9.0334460877795029e-003 3.1736528630727262e-002
      2.2042021264106908e-002 -2.4242923543217464e-002
      8.2828044745594121e-003 1.7442524949625879e-002
      -3.0980988719442878e-002 -2.8340263475515607e-002
      -1.6077221987287685e-002 -9.0575637702426139e-003
      2.0475130779679632e-003 1.2785237910994356e-002
      8.3564001502863428e-004 1.2299739199374606e-002
      -8.8644049082072223e-003 -1.3064563538367262e-002
      -3.5119934256818610e-003 8.7228258970249387e-003
      -9.6075476999551157e-003 4.4098158111570154e-002
      9.0299687342326202e-003 -1.3772183110069452e-003
      -2.5877813750660533e-002 4.3207236929404889e-002
      3.0901948579915794e-002 -3.0958439793566869e-002
      2.9246246977342877e-004 2.6607940216627161e-002
      3.3046773594159848e-002 -2.3854949915536054e-002
      1.4291804634573989e-002 -8.7493992423740841e-003
      -2.7244868428702339e-002 5.3495477004151405e-003
      -9.3051060678970461e-003 -1.4165316628357344e-002
      -2.8931212814553686e-002 -1.4619601285826209e-002
      -2.5402146382348403e-002 -9.2510128029605204e-003
      -2.7146798053721787e-002 -3.5876405800651053e-002
      1.1555711452982381e-003 -1.4352101219809080e-002
      -3.6543435429880033e-002 2.0880582284941159e-002
      -1.6773933333487399e-002 8.0942761248127375e-003
      -3.0379178541567911e-003 -1.4424055771413957e-002
      9.5042524566188429e-003 -6.4832316823563291e-004
      -1.1265807897930229e-002 -1.4452499581383485e-002
      -1.0082514775990953e-002 4.5823601241724257e-002
      -1.5753849799089958e-002 -5.1900276232814836e-003
      -1.1612667806097303e-003 -1.2136340539432600e-002
      1.3456650323367861e-002 -1.3958783621286523e-002
      -2.8671252424201173e-003 -1.3193750411221201e-003
      -2.7659001177680009e-002 -1.8775633094703422e-002
      2.3573000355425131e-002 8.7300617461742842e-006
      -2.3662514341565317e-002 8.3547338182521167e-003
      -1.8981327734872929e-002 2.6393411541740672e-002
      1.0158626709558768e-002 4.5859965006053917e-002
      1.9419357725384251e-002 2.0875521485204013e-002
      3.1324385700413020e-004 1.1075809842343161e-002
      6.3174336477566295e-003 4.4163686975889134e-002
      2.2356930058912029e-003 2.7339687815118897e-002
      2.3468651479922890e-002 3.0966318576572914e-002
      -1.5140856521686872e-002 -1.6697656250431087e-002
      -1.5046199004511450e-002 1.0504985325611170e-002
      2.2744259836709187e-002 8.1167567067256356e-003
      1.5302052357848081e-002 -1.2161599835153107e-002
      1.7280233119854535e-002 -2.9598675680994602e-002
      -1.0987103660820565e-002 2.1340236768908494e-002
      1.9882612856016498e-002 -2.3027166595303420e-003
      1.0497144542271915e-002 -4.2784860386502763e-003
      -3.1088324920853800e-002 -1.8036317570944257e-002
      -2.6393853999683237e-002 1.6670588986619314e-002
      6.3444123864422617e-003 2.8778871702952128e-002
      -1.0267850454871812e-002 -3.1925361262588541e-002
      -4.0566529959318753e-002 -1.0184033359002274e-004
      -2.7108394251217215e-002 -1.6357868193016326e-002
      8.5549528580296415e-003 -2.5358733393224229e-002
      -8.3956122756264368e-003 -6.0591273195494547e-003
      -2.9144757341858967e-003 -2.4214955176310171e-002
      1.3462257146406002e-002 8.3121651417631809e-003
      -1.1611335253798231e-002 -2.7329558901874156e-002
      1.1163040556079043e-002 -1.2926636309781865e-002
      -2.0908477285732259e-002 3.6657075898002309e-002
      2.3786167775341496e-002 -3.3379456847073267e-002
      -1.9529912466755395e-002 1.7131133188508951e-002
      -2.2623892856948855e-002 -6.4966428318886721e-003
      2.3826207450572921e-002 6.4939311049983014e-003
      1.6537210813966700e-002 -3.4646207996247069e-002
      2.2588441820610250e-003 1.9351599206706906e-002
      -4.2672267142350893e-003 -5.9723931687774082e-003
      -2.1219078854306996e-002 1.1216527881304558e-002
      1.7894023752025517e-002 -2.5746162602425213e-002
      1.8671535673450004e-002 -9.2968828504737810e-003
      7.7678366980493798e-003 -9.0527430586066630e-004
      6.3446942504570046e-003 3.2562921027642640e-002
      4.4372182710341414e-002 -6.2151786373779022e-003
      1.1150001303074511e-002 8.9540445395205580e-003
      3.0808936094183021e-002 -2.4817741484818457e-002
      -3.3258366648701222e-002 2.7062642901697485e-002
      -1.3498285768248939e-002 -8.7426379810394295e-003
      1.3775242382671351e-002 1.9548277541773787e-003
      -3.4560076220005266e-002 -2.9453252223860769e-002
      7.0019757772925304e-003 3.8278015187477157e-002
      -3.1660030977082768e-002 2.4945836770970314e-002
      1.5303198815681502e-002 3.2161039884751573e-002
      -2.0019968631875544e-002 -2.7317872873728395e-002
      -3.0423126868268445e-002 -2.2556426369425273e-002
      -1.5847963688352174e-003 1.0298477478888972e-002
      -1.4185180982862993e-002 1.3316264949651380e-002
      -4.0435553484263727e-003 9.6500620225171523e-003
      -8.2237310687765415e-003 -1.6779132403364514e-002
      3.5437619132040306e-002 8.0899253279295910e-003
      -3.0875565421473058e-003 -6.9334465868688792e-003
      -1.9050952794649068e-002 -2.0871591873504267e-002
      -1.9875600803932157e-002 3.7554814645057812e-002
      -1.7481548403911965e-003 7.5746085891769052e-003
      1.8475981839920615e-002 3.1833798327248052e-002
      5.9372699365975473e-002 5.3711001948713536e-003
      -1.6635209951471743e-002 -2.5010459029892719e-002
      -7.6953379162408497e-003 3.9612004143765658e-002
      1.2231426959013164e-002 -1.5630184502460610e-002
      2.4617831628724256e-002 1.4336221506248531e-002
      -6.4602300012275727e-003 6.8577059724651238e-004
      3.6133059462095954e-002 -1.7259648942928609e-003
      4.2292361559226728e-002 2.2031519550744279e-002
      -7.1789038538492087e-003 3.3397296110536726e-002
      -4.3274124229535367e-002 1.6211262026581865e-003
      4.9779167105880014e-003 5.2040747163903918e-003
      2.5119996493200951e-002 -5.0252246107051209e-002
      -1.9754174436713016e-002 -6.4578907334183772e-003
      -1.3433678941339190e-002 1.1918321922947032e-002
      5.0815230145804463e-003 -1.8666231999390822e-002
      -2.1565995871197591e-002 4.4660491888258965e-003
      3.2403301929913267e-002 3.2602666539127766e-002
      2.3054268659321548e-002 3.9418901419605003e-002
      4.8473963829176549e-002 -4.4165366951606534e-002
      2.5892097642750495e-002 -9.7872671523560953e-003
      -3.0489127196926924e-002 -5.7209101225537906e-002
      1.1245936765473725e-003 2.3886873970634678e-004
      2.4382135817763259e-002 -2.4709981682688745e-002
      4.7039026273852048e-003 8.9626807167605960e-003
      -2.0305713568725046e-002 -4.0358102054058971e-003
      -1.9122456362767427e-002 -8.5108672455055795e-003
      -3.3956486009171984e-002 6.3002565471389433e-003
      1.7596074657894690e-002 2.6003537316403080e-004
      -6.5216600910833391e-003 -2.5548979039829146e-002
      4.7024438809966686e-002 -3.5829098817000034e-002
      -5.1547297638177211e-002 -2.8290049644423592e-002
      -1.3112886114767497e-002 1.7937660363616534e-002
      -3.6789988359109044e-002 -3.7295725349035441e-002
      2.7151566246972667e-002 2.0473973786076374e-002
      5.0296182515116944e-002 2.0728897096218273e-002
      8.4090486956660149e-003 -6.5988470446816522e-003
      -1.2851981377340647e-002 4.2551776942486561e-002
      -1.7337863930867250e-002 -1.2617769834160453e-002
      2.7318285449243092e-002 3.4167177478019270e-002
      -3.2929622363832678e-002 4.6452735089951507e-002
      -4.2070275239359370e-002 4.3596828865672461e-002
      5.1736033784279309e-002 4.1860180541166629e-002
      -8.6078807595560049e-003 -1.9956016775568939e-002
      2.4328375114649426e-003 -3.6498495009873698e-002
      4.5803169503131807e-003 4.4359305065863816e-002
      -1.1870542021431535e-002 2.4782975805199298e-003
      6.4190091969725830e-003 1.5239949692261322e-002
      3.3607383615783001e-003 -1.3704989193604702e-002
      2.3722753664622315e-002 3.0349448548091001e-002
      -3.9874995157569267e-002 3.8479165000427189e-002
      -2.6599586886191566e-002 -1.1939492436163886e-002
      -3.1892496354014560e-002 -2.6132263946459233e-002
      -2.0948748680178680e-002 -6.3881917993321279e-003
      6.0237387253246123e-004 2.1456855452146581e-002
      3.1848717267718069e-002 3.0300569706165690e-003
      -2.2855715394699661e-002 -1.7918005675240867e-002
      -4.9364186883643496e-002 4.4457130743713442e-002
      -1.1491875807959108e-002 -6.2489003457282519e-002
      3.5478247247300199e-002 8.8689754439671090e-003
      2.8856078807556838e-002 4.8386353802307248e-002
      -2.8875466600958792e-002 -4.6187015710535066e-002
      4.4354411424419780e-002 -3.4261723877767193e-002
      6.6939133482869046e-003 2.3136849475865001e-002
      3.4431826953381768e-002 -4.8976235963312409e-002
      2.2052295229194090e-002 -2.8401460346131797e-002
      1.3785607647894250e-002 -4.5744353110311831e-002
      -6.1849134056143993e-004 -1.5280291288754504e-002
      -4.5746580081371738e-003 2.1541355414289559e-002
      4.1476660909807950e-002 1.1608089002932051e-002
      -3.6961853211140254e-002 1.6075003189236693e-002
      -3.1923717529545761e-003 1.3281547422074718e-002
      -2.9705152060647215e-002 9.6839315902609909e-003
      -3.8054206760023100e-002 1.1522379391101409e-002
      2.8416453799482953e-002 2.8906339829673593e-002
      9.0619825199049122e-003 -5.9130650659925945e-003
      -1.0326720917813914e-002 -1.4257367863652819e-002
      1.4315592249787878e-002 2.4374428466633312e-002
      -2.3988278103307670e-002 3.1107554461335219e-002
      -2.6404625468488339e-002 2.7536051553067521e-002
      2.5383409712038525e-002 -2.6477311201709319e-002
      1.0749683154306413e-002 -2.6243820971476716e-002
      -1.2701675434648780e-002 3.4887324964218876e-002
      -2.8971285459174139e-002 5.8569115781469693e-005
      2.6613930328666675e-002 -1.1374247389830972e-002
      -5.9780589376328040e-002 -3.7280820436975039e-002
      -1.4610938351217675e-002 5.7992063570605316e-003
      1.0617173373434211e-002 1.2191908700763887e-002
      3.9423677942870002e-002 -3.3215421164632851e-002
      -5.6371463009273690e-003 -1.2046184636445766e-002
      4.1133600804420072e-002 -1.3078356495382464e-002
      5.0778614612238303e-003 -1.8587677833103750e-002
      -4.9559495730042182e-002 1.0975019202254842e-002
      -4.4590009738448559e-002 -1.4716720314429154e-003
      -4.8728613969135082e-002 -4.3800236141005512e-002
      -7.1359792288290111e-003 8.6815097318207156e-003
      1.0763161715108473e-002 4.5359048820743660e-002
      -3.9528052614631291e-002 2.2459763222040647e-002
      1.4067523732825209e-002 1.4662596940532797e-002
      3.0015601569744085e-002 1.1857779698631089e-002
      2.2433591528995309e-002 -3.4050318221828399e-002
      3.8574424422662734e-002 -1.9794953946367419e-002
      -1.8365723969072371e-002 5.3142596585296888e-002
      -2.3662446836265918e-002 -4.2904786205752513e-002
      3.0253559260553621e-003 -3.2644433324672484e-002
      2.9761413930036625e-003 6.3830746358191056e-003
      2.6238993458875239e-002 2.2350554564407707e-003
      -3.5682167050109972e-002 -7.9258599231984521e-003
      -1.0902468533670721e-002 6.6210212764625928e-003
      -3.4289484355296230e-003 2.8087600137119480e-002
      -2.6930048091740003e-002 -2.7243842855808876e-002
      4.0019294411535671e-002 -4.8801879824977176e-002
      -1.1090009911679001e-002 -3.1449049759845221e-002
      -3.2848675549030960e-002 1.3274091688271402e-002
      3.0122290963088504e-002 2.5338882993841547e-002
      4.8507243025536294e-002 8.1622336784293887e-003
      -1.0753120806396409e-003 -1.7380959140924093e-002
      -8.3623420562336757e-003 1.7971927186706056e-002
      1.1620590925352623e-002 -1.2235259451885562e-002
      2.5314774031918917e-002 4.2951783254379899e-002
      2.6607549713389717e-002 -2.8463457937593192e-002
      -3.4490210213341456e-002 4.9123914800179068e-003
      2.6024198754610647e-002 2.7730555973750740e-002
      1.1541918378655151e-002 3.6239008909190421e-002
      2.9729085289032356e-002 4.5934995122960589e-003
      -4.7858936099870311e-002 2.5863665649609669e-002
      -5.0926530711411983e-002 -1.6484071556827396e-002
      2.7224170680710976e-002 1.4195808529911246e-002
      -3.2182004403201264e-002 -1.6118831781469060e-002
      -2.5613432349331926e-002 -5.0192913094505451e-002
      2.0766287529513146e-002 2.5990490499192519e-003
      -1.0259630563718269e-003 -6.8204993606907774e-003
      -1.0170420447989506e-002 -1.7992877989765454e-002
      3.3665922473712619e-002 -2.5170701032021119e-002
      3.7946815484967790e-002 2.9413606072172423e-002
      4.3068196788070744e-002 3.5293755366423182e-003
      9.0616951031132868e-003 8.0560573555847007e-003
      -4.1330392935209480e-002 4.0257796096134349e-002
      -1.9315263578985623e-002 -1.0322948296187058e-003
      -2.8352273545372828e-002 -7.7257362762802500e-003
      -9.3312887158275206e-003 -9.3648909975481073e-003
      1.1759816834655157e-002 -2.0362787497951861e-002
      1.2723017835381363e-002 -2.3071012765642934e-003
      2.1621731801732099e-002 -4.7345944393243668e-002
      -3.4759214575457394e-002 1.4241264591843513e-002
      -1.8720555281960875e-002 2.3607737055608161e-002
