<?xml version="1.0"?>
<opencv_storage>
<cascade>
  <stageType>BOOST</stageType>
  <featureType>LBP</featureType>
  <height>20</height>
  <width>60</width>
  <stageParams>
    <boostType>GAB</boostType>
    <minHitRate>9.9900001287460327e-001</minHitRate>
    <maxFalseAlarm>5.0000000000000000e-001</maxFalseAlarm>
    <weightTrimRate>9.4999999999999996e-001</weightTrimRate>
    <maxDepth>1</maxDepth>
    <maxWeakCount>100</maxWeakCount></stageParams>
  <featureParams>
    <maxCatCount>256</maxCatCount>
    <featSize>1</featSize></featureParams>
  <stageNum>16</stageNum>
  <stages>
    <!-- stage 0 -->
    <_>
      <maxWeakCount>4</maxWeakCount>
      <stageThreshold>-1.8302301168441772e+000</stageThreshold>
      <weakClassifiers>
        <_>
          <internalNodes>
            0 -1 7 -18 -1 -2097153 -1 -135266305 -65 -1025 -1</internalNodes>
          <leafValues>
            -8.9399224519729614e-001 6.6587918996810913e-001</leafValues></_>
        <_>
          <internalNodes>
            0 -1 63 1912076287 1911813119 -9437233 -2049 1910502911
            1371665919 -1 -134217729</internalNodes>
          <leafValues>
            -7.7333849668502808e-001 6.6735911369323730e-001</leafValues></_>
        <_>
          <internalNodes>
            0 -1 80 420484348 -579068579 -571203619 -1115938915
            -1093091332 -471140 -1086804996 -1976039416</internalNodes>
          <leafValues>
            -7.5003176927566528e-001 5.8408415317535400e-001</leafValues></_>
        <_>
          <internalNodes>
            0 -1 47 -87034934 -507386676 -387301376 -1068509505
            -515378686 1129281099 -216571377 -201328689</internalNodes>
          <leafValues>
            -7.0391082763671875e-001 5.8713233470916748e-001</leafValues></_></weakClassifiers></_>
    <!-- stage 1 -->
    <_>
      <maxWeakCount>6</maxWeakCount>
      <stageThreshold>-2.2095057964324951e+000</stageThreshold>
      <weakClassifiers>
        <_>
          <internalNodes>
            0 -1 65 -1 -234882049 -1 -67110913 -134219777 1895166455 -1
            -134217729</internalNodes>
          <leafValues>
            -8.6336439847946167e-001 6.4242422580718994e-001</leafValues></_>
        <_>
          <internalNodes>
            0 -1 8 -421531698 -33 -1 -1 1358950383 -1 -528385 -134217729</internalNodes>
          <leafValues>
            -7.9685217142105103e-001 5.5665612220764160e-001</leafValues></_>
        <_>
          <internalNodes>
            0 -1 16 268435921 2002065913 1070219263 2113873720 26292479
            -35069955 989495023 -1078318582</internalNodes>
          <leafValues>
            -6.7710375785827637e-001 5.9783065319061279e-001</leafValues></_>
        <_>
          <internalNodes>
            0 -1 114 -201853182 1909716299 -223395840 -201326593
            1901556998 1426487063 -687352061 2004350967</internalNodes>
          <leafValues>
            -7.8393596410751343e-001 4.8479384183883667e-001</leafValues></_>
        <_>
          <internalNodes>
            0 -1 13 -170590724 2113707516 -136782337 -571433768
            -1141063682 -475142 2112404219 226494600</internalNodes>
          <leafValues>
            -7.6502537727355957e-001 4.5287194848060608e-001</leafValues></_>
        <_>
          <internalNodes>
            0 -1 58 -202375222 40877039 -287900948 -1291846930 389513026
            544702327 1866941251 1937504223</internalNodes>
          <leafValues>
            -7.6042014360427856e-001 4.5887842774391174e-001</leafValues></_></weakClassifiers></_>
    <!-- stage 2 -->
    <_>
      <maxWeakCount>6</maxWeakCount>
      <stageThreshold>-2.1030850410461426e+000</stageThreshold>
      <weakClassifiers>
        <_>
          <internalNodes>
            0 -1 21 1364588535 2004353023 2000158719 -1 1937243135 -4113
            -67108865 -1025</internalNodes>
          <leafValues>
            -8.3761775493621826e-001 5.4736465215682983e-001</leafValues></_>
        <_>
          <internalNodes>
            0 -1 44 -36 -2049 -2106019 -1025 -2228260 -117571585
            -2228259 -2097153</internalNodes>
          <leafValues>
            -7.6683193445205688e-001 5.0889134407043457e-001</leafValues></_>
        <_>
          <internalNodes>
            0 -1 119 -2 -1075204546 2147199544 1073724350 -260
            -1084376340 2135538360 -1149502465</internalNodes>
          <leafValues>
            -6.7277777194976807e-001 5.2934360504150391e-001</leafValues></_>
        <_>
          <internalNodes>
            0 -1 14 285212892 -545711052 2000346111 1065883908
            -760713986 -509764 724086782 235405960</internalNodes>
          <leafValues>
            -7.1730738878250122e-001 4.9034488201141357e-001</leafValues></_>
        <_>
          <internalNodes>
            0 -1 18 -84937490 -1060907317 -353441272 6482474 1892140100
            1078421319 -260185137 1944057855</internalNodes>
          <leafValues>
            -7.6326173543930054e-001 4.4898185133934021e-001</leafValues></_>
        <_>
          <internalNodes>
            0 -1 110 -536883476 2131623823 2017376906 -615526409
            -1049650 1179114447 -220202241 1946155007</internalNodes>
          <leafValues>
            -7.3175585269927979e-001 4.5259022712707520e-001</leafValues></_></weakClassifiers></_>
    <!-- stage 3 -->
    <_>
      <maxWeakCount>7</maxWeakCount>
      <stageThreshold>-2.4706871509552002e+000</stageThreshold>
      <weakClassifiers>
        <_>
          <internalNodes>
            0 -1 30 -1 -1 -1 -1 -131073 -131075 -131073 -131073</internalNodes>
          <leafValues>
            -8.0718034505844116e-001 6.9082331657409668e-001</leafValues></_>
        <_>
          <internalNodes>
            0 -1 84 85 930363381 1073561599 1073684415 352140799 -753670
            1069301503 -1078186070</internalNodes>
          <leafValues>
            -7.4171143770217896e-001 4.8415499925613403e-001</leafValues></_>
        <_>
          <internalNodes>
            0 -1 78 -16450 -1114178 -1414747462 -1075004486 -2097185
            -131076 -1261574 -1</internalNodes>
          <leafValues>
            -6.7297929525375366e-001 5.6599640846252441e-001</leafValues></_>
        <_>
          <internalNodes>
            0 -1 83 1009784308 -189955 -1073741825 -4639235 -1141310465
            -1 -327681 -1431828352</internalNodes>
          <leafValues>
            -6.3599878549575806e-001 5.1225900650024414e-001</leafValues></_>
        <_>
          <internalNodes>
            0 -1 43 -1069031422 -134742033 2139060095 -1 1936718807
            -1208483841 -143392993 -1069549617</internalNodes>
          <leafValues>
            -6.0595619678497314e-001 5.5837994813919067e-001</leafValues></_>
        <_>
          <internalNodes>
            0 -1 137 -268439798 1649344334 -289492960 -525928722
            1700265734 4715079 -202935551 -740821181</internalNodes>
          <leafValues>
            -6.4563786983489990e-001 5.2551859617233276e-001</leafValues></_>
        <_>
          <internalNodes>
            0 -1 41 276827356 -1074718851 1071398399 536354296 939270140
            -230408 -25673985 -1442316184</internalNodes>
          <leafValues>
            -6.7063027620315552e-001 4.6762019395828247e-001</leafValues></_></weakClassifiers></_>
    <!-- stage 4 -->
    <_>
      <maxWeakCount>6</maxWeakCount>
      <stageThreshold>-2.9133570194244385e+000</stageThreshold>
      <weakClassifiers>
        <_>
          <internalNodes>
            0 -1 68 -1 -251658241 -1 -1 -134219785 -252316427 -81 -1</internalNodes>
          <leafValues>
            -8.1553953886032104e-001 5.8330094814300537e-001</leafValues></_>
        <_>
          <internalNodes>
            0 -1 10 -134217730 -65537 -8454186 -65537 -134885377
            -840630273 -2 -1</internalNodes>
          <leafValues>
            -7.4483472108840942e-001 4.9614712595939636e-001</leafValues></_>
        <_>
          <internalNodes>
            0 -1 101 -16386 -537219074 -3626344 -6378562 -1028 -2336848
            -3346436 -1</internalNodes>
          <leafValues>
            -6.4332169294357300e-001 5.1572310924530029e-001</leafValues></_>
        <_>
          <internalNodes>
            0 -1 118 993270269 -245763 -147457 -17411 -1074069509 -16385
            -212993 -1165490136</internalNodes>
          <leafValues>
            -5.4955410957336426e-001 5.6630063056945801e-001</leafValues></_>
        <_>
          <internalNodes>
            0 -1 48 -33554434 -180502 -139414540 1542780926 2013210364
            1039515644 2136260538 2145779711</internalNodes>
          <leafValues>
            -6.7956435680389404e-001 4.5298907160758972e-001</leafValues></_>
        <_>
          <internalNodes>
            0 -1 59 -235936850 49281007 -51464574 -1305493778 1968665927
            578776391 -144703545 -210239657</internalNodes>
          <leafValues>
            -6.3958728313446045e-001 4.5388877391815186e-001</leafValues></_></weakClassifiers></_>
    <!-- stage 5 -->
    <_>
      <maxWeakCount>6</maxWeakCount>
      <stageThreshold>-2.6710441112518311e+000</stageThreshold>
      <weakClassifiers>
        <_>
          <internalNodes>
            0 -1 35 -1 -2049 -1 -131073 -131073 -33751043 -131073
            -33751041</internalNodes>
          <leafValues>
            -8.2263851165771484e-001 4.2375168204307556e-001</leafValues></_>
        <_>
          <internalNodes>
            0 -1 74 -269488402 -1 -16777217 -17 -33558529 -257 -1052673
            -269488209</internalNodes>
          <leafValues>
            -7.1801722049713135e-001 4.9189001321792603e-001</leafValues></_>
        <_>
          <internalNodes>
            0 -1 39 -204474678 -783948348 -524169024 -234883089
            -255332214 -783297565 -473435445 -211291185</internalNodes>
          <leafValues>
            -5.9421151876449585e-001 5.0201934576034546e-001</leafValues></_>
        <_>
          <internalNodes>
            0 -1 87 531635453 -2342923 -2097153 -172035 -196609 -1
            -1076953089 -1364711192</internalNodes>
          <leafValues>
            -5.5463516712188721e-001 5.1280361413955688e-001</leafValues></_>
        <_>
          <internalNodes>
            0 -1 55 -201327362 1911418798 2113701630 -1078083672
            2104877055 424476671 2013087679 -131073</internalNodes>
          <leafValues>
            -5.9339642524719238e-001 4.7806051373481750e-001</leafValues></_>
        <_>
          <internalNodes>
            0 -1 133 -66 -1119879201 2141130292 804156027 -21496396
            494729200 1029537244 2105540047</internalNodes>
          <leafValues>
            -6.3453537225723267e-001 4.4422751665115356e-001</leafValues></_></weakClassifiers></_>
    <!-- stage 6 -->
    <_>
      <maxWeakCount>7</maxWeakCount>
      <stageThreshold>-2.4889781475067139e+000</stageThreshold>
      <weakClassifiers>
        <_>
          <internalNodes>
            0 -1 15 -491782161 -1 -67108865 -1 -201326593 -1025 -1 -1</internalNodes>
          <leafValues>
            -7.8692859411239624e-001 5.5223882198333740e-001</leafValues></_>
        <_>
          <internalNodes>
            0 -1 107 -17410 -16450 -11748452 -17410 -4098 -25684 -1282
            -1</internalNodes>
          <leafValues>
            -6.9055420160293579e-001 5.0941938161849976e-001</leafValues></_>
        <_>
          <internalNodes>
            0 -1 64 -201327633 1911806719 -1050737 -234881041 1373070559
            1884672981 -2065 -167772161</internalNodes>
          <leafValues>
            -6.1973792314529419e-001 5.0427818298339844e-001</leafValues></_>
        <_>
          <internalNodes>
            0 -1 122 -1035015678 -580915637 -581959681 -538968337
            -1048577 -33554693 -33554449 -941102581</internalNodes>
          <leafValues>
            -6.1000883579254150e-001 4.8898109793663025e-001</leafValues></_>
        <_>
          <internalNodes>
            0 -1 88 -1623452228 -1617682951 -114689 -1082369575
            -268902402 -197123 -1342431234 -1079505108</internalNodes>
          <leafValues>
            -6.2292259931564331e-001 4.7720286250114441e-001</leafValues></_>
        <_>
          <internalNodes>
            0 -1 20 289420023 1945581559 939229183 939459583 923156475
            -1081229364 1004879871 998514859</internalNodes>
          <leafValues>
            -7.5210571289062500e-001 3.5467970371246338e-001</leafValues></_>
        <_>
          <internalNodes>
            0 -1 100 -274 -68157785 -486610262 -202379265 -134220289
            929036143 -220203269 2013265919</internalNodes>
          <leafValues>
            -6.0583555698394775e-001 4.4022336602210999e-001</leafValues></_></weakClassifiers></_>
    <!-- stage 7 -->
    <_>
      <maxWeakCount>8</maxWeakCount>
      <stageThreshold>-2.0921566486358643e+000</stageThreshold>
      <weakClassifiers>
        <_>
          <internalNodes>
            0 -1 52 -1 -1 -1 -1 -16388 -2261027 -131074 -1</internalNodes>
          <leafValues>
            -7.7520400285720825e-001 5.4172015190124512e-001</leafValues></_>
        <_>
          <internalNodes>
            0 -1 99 -3151222 -2097233 -9 -81 -1 -1 -134217729 -5201</internalNodes>
          <leafValues>
            -6.2503355741500854e-001 5.3091418743133545e-001</leafValues></_>
        <_>
          <internalNodes>
            0 -1 67 -144703737 -789053449 -4689 -34607105 1360359697
            -797903867 -109203569 -97</internalNodes>
          <leafValues>
            -5.6344538927078247e-001 5.1010710000991821e-001</leafValues></_>
        <_>
          <internalNodes>
            0 -1 123 -17410 -2216978 -1110694664 -1618433874 1879048188
            1339833848 -35717156 -2097665</internalNodes>
          <leafValues>
            -6.0442149639129639e-001 4.2270088195800781e-001</leafValues></_>
        <_>
          <internalNodes>
            0 -1 4 -286332950 -4353 -16781378 -337121619 1626697663
            -2049 2147450877 1744791039</internalNodes>
          <leafValues>
            -6.8627357482910156e-001 3.6055153608322144e-001</leafValues></_>
        <_>
          <internalNodes>
            0 -1 82 968100348 -51715 -1619159041 -1073995811 -1109901825
            -205057 -4292609 -1884805892</internalNodes>
          <leafValues>
            -6.0369837284088135e-001 4.0807631611824036e-001</leafValues></_>
        <_>
          <internalNodes>
            0 -1 36 -8446206 -53369 -169 -445 -788529921 -1291845985
            -285212677 -251714001</internalNodes>
          <leafValues>
            -6.1603391170501709e-001 3.9258965849876404e-001</leafValues></_>
        <_>
          <internalNodes>
            0 -1 91 -67112248 -540019761 -1561598432 -537919569
            -1342177314 1934583663 -352323585 2012739551</internalNodes>
          <leafValues>
            -6.6515356302261353e-001 3.4305644035339355e-001</leafValues></_></weakClassifiers></_>
    <!-- stage 8 -->
    <_>
      <maxWeakCount>10</maxWeakCount>
      <stageThreshold>-2.1238970756530762e+000</stageThreshold>
      <weakClassifiers>
        <_>
          <internalNodes>
            0 -1 28 1970796535 -134742017 -1 -1 -167772161 -524289 -1
            -17</internalNodes>
          <leafValues>
            -7.9595017433166504e-001 4.3108505010604858e-001</leafValues></_>
        <_>
          <internalNodes>
            0 -1 106 -67374341 -69484289 -203689253 -69469441 -235282181
            13717682 -234884865 -203427329</internalNodes>
          <leafValues>
            -6.1851370334625244e-001 4.4843456149101257e-001</leafValues></_>
        <_>
          <internalNodes>
            0 -1 51 -1 -5373970 -1249284 -131620 1440612351 1498738685
            -131073 -33685505</internalNodes>
          <leafValues>
            -5.0382316112518311e-001 5.1148653030395508e-001</leafValues></_>
        <_>
          <internalNodes>
            0 -1 29 -536952872 -721428513 -268439779 -134254689
            -35651668 -774898209 -16630 -1073762497</internalNodes>
          <leafValues>
            -4.7753521800041199e-001 5.0573390722274780e-001</leafValues></_>
        <_>
          <internalNodes>
            0 -1 128 -4194560 288209727 -16777413 816576371 -1048764
            -1652555841 -83970264 -1426063425</internalNodes>
          <leafValues>
            -5.7298529148101807e-001 4.0319085121154785e-001</leafValues></_>
        <_>
          <internalNodes>
            0 -1 98 -1266934275 2138914813 2146959359 -49667 -1157693441
            -102401 -352769 -1359478784</internalNodes>
          <leafValues>
            -4.8317536711692810e-001 4.7649955749511719e-001</leafValues></_>
        <_>
          <internalNodes>
            0 -1 92 -16388 2144976830 -543618536 2069494782 -1540
            534642680 -549584932 1608515582</internalNodes>
          <leafValues>
            -6.1526525020599365e-001 3.6870038509368896e-001</leafValues></_>
        <_>
          <internalNodes>
            0 -1 27 2001168383 2002247663 2008530943 1442721599
            931135470 1743744832 125251577 1865395167</internalNodes>
          <leafValues>
            -5.9232789278030396e-001 3.6664474010467529e-001</leafValues></_>
        <_>
          <internalNodes>
            0 -1 96 -4194326 2142142143 -1388554480 2113895346
            1599470508 2038194164 1048935740 2104852471</internalNodes>
          <leafValues>
            -6.6200357675552368e-001 3.0950680375099182e-001</leafValues></_>
        <_>
          <internalNodes>
            0 -1 0 -360779866 -570429697 -75636737 1339297526 1467956987
            -17025 -9477 1945585527</internalNodes>
          <leafValues>
            -6.5345382690429688e-001 2.9506930708885193e-001</leafValues></_></weakClassifiers></_>
    <!-- stage 9 -->
    <_>
      <maxWeakCount>10</maxWeakCount>
      <stageThreshold>-2.0720112323760986e+000</stageThreshold>
      <weakClassifiers>
        <_>
          <internalNodes>
            0 -1 42 -536879865 -1 -2097153 -1 -1 -5 -1 -1048577</internalNodes>
          <leafValues>
            -7.9081630706787109e-001 3.0126497149467468e-001</leafValues></_>
        <_>
          <internalNodes>
            0 -1 124 -4098 -540033026 -1073772484 -16385 -2097154
            -3215426 -67108934 -1</internalNodes>
          <leafValues>
            -6.3487386703491211e-001 4.0508636832237244e-001</leafValues></_>
        <_>
          <internalNodes>
            0 -1 69 -790636585 -789392417 -9633987 -673185795 -134744843
            -252381450 -4177 -134217793</internalNodes>
          <leafValues>
            -4.8353514075279236e-001 4.7246283292770386e-001</leafValues></_>
        <_>
          <internalNodes>
            0 -1 121 521146876 -50179 1073558525 -8446051 -13713473
            -180869 -1277953 260573320</internalNodes>
          <leafValues>
            -6.8916583061218262e-001 3.2104182243347168e-001</leafValues></_>
        <_>
          <internalNodes>
            0 -1 103 1359057407 1363221343 1427447711 1937728383
            1461042122 -112524408 1356833499 335519931</internalNodes>
          <leafValues>
            -5.6711173057556152e-001 3.6781319975852966e-001</leafValues></_>
        <_>
          <internalNodes>
            0 -1 105 -536873782 -611582558 -218222080 -209715201
            -573320759 1191540055 -622864673 -201328641</internalNodes>
          <leafValues>
            -4.7157779335975647e-001 4.4752001762390137e-001</leafValues></_>
        <_>
          <internalNodes>
            0 -1 53 -100667394 1719217886 -1292567924 292880382
            -136898936 1171619156 368351148 1976958975</internalNodes>
          <leafValues>
            -6.9549649953842163e-001 2.9794684052467346e-001</leafValues></_>
        <_>
          <internalNodes>
            0 -1 127 -4194540 87915903 -2177 469755835 -65604
            -1073743105 -1091112018 -1426063685</internalNodes>
          <leafValues>
            -4.4563651084899902e-001 4.5705652236938477e-001</leafValues></_>
        <_>
          <internalNodes>
            0 -1 86 -203459845 -1276407133 -473184037 -1085560070
            1659486379 12713986 -136322817 -204475557</internalNodes>
          <leafValues>
            -4.0705749392509460e-001 5.0783777236938477e-001</leafValues></_>
        <_>
          <internalNodes>
            0 -1 79 -1657266692 -1613127944 -16385 -1075945987
            -587448324 -221185 -1078173703 -1400371088</internalNodes>
          <leafValues>
            -5.9945380687713623e-001 3.5135260224342346e-001</leafValues></_></weakClassifiers></_>
    <!-- stage 10 -->
    <_>
      <maxWeakCount>10</maxWeakCount>
      <stageThreshold>-2.2797298431396484e+000</stageThreshold>
      <weakClassifiers>
        <_>
          <internalNodes>
            0 -1 9 -17 -1 -118 -1 -134217729 -33554433 -49 -1</internalNodes>
          <leafValues>
            -8.1848561763763428e-001 2.4437956511974335e-001</leafValues></_>
        <_>
          <internalNodes>
            0 -1 77 997392380 -581042756 -908984833 -570558723
            2136341503 -33619976 -8404993 -33555457</internalNodes>
          <leafValues>
            -6.3396978378295898e-001 3.8183322548866272e-001</leafValues></_>
        <_>
          <internalNodes>
            0 -1 108 -69634 -540086290 -22626 -540022789 -35991553
            -548741138 -134221317 -3146753</internalNodes>
          <leafValues>
            -5.0609058141708374e-001 4.4985064864158630e-001</leafValues></_>
        <_>
          <internalNodes>
            0 -1 24 286732799 2012555247 1073561599 1073167278
            1368628733 -950500 1941940223 -607221110</internalNodes>
          <leafValues>
            -4.5838770270347595e-001 4.6421170234680176e-001</leafValues></_>
        <_>
          <internalNodes>
            0 -1 136 -268439574 1137700783 -226496000 -1058869078
            2002220803 1078127367 -1157630461 -261685433</internalNodes>
          <leafValues>
            -5.2866441011428833e-001 3.8877674937248230e-001</leafValues></_>
        <_>
          <internalNodes>
            0 -1 31 -151585008 -1326326820 -33726657 1672007422 -4199800
            -804544809 -317801720 779815439</internalNodes>
          <leafValues>
            -6.3951200246810913e-001 3.2703837752342224e-001</leafValues></_>
        <_>
          <internalNodes>
            0 -1 113 -174329656 -352125525 -218157056 -1413482497
            -723855931 1409449307 -90225189 -489684993</internalNodes>
          <leafValues>
            -5.9077960252761841e-001 3.2541772723197937e-001</leafValues></_>
        <_>
          <internalNodes>
            0 -1 56 -34 265060346 -16991746 966064126 2013211896
            1071402997 -1241694210 2147352575</internalNodes>
          <leafValues>
            -6.1239373683929443e-001 3.0380252003669739e-001</leafValues></_>
        <_>
          <internalNodes>
            0 -1 73 -1979708175 -1074417797 -551572489 -34142209
            -807571529 -16781321 -840437825 -1932653405</internalNodes>
          <leafValues>
            -5.2149659395217896e-001 3.7819299101829529e-001</leafValues></_>
        <_>
          <internalNodes>
            0 -1 131 2147483644 523054876 1064638972 2104064509
            -813891652 1028173788 998055388 2045498359</internalNodes>
          <leafValues>
            -6.1947417259216309e-001 2.9585492610931396e-001</leafValues></_></weakClassifiers></_>
    <!-- stage 11 -->
    <_>
      <maxWeakCount>11</maxWeakCount>
      <stageThreshold>-2.6054816246032715e+000</stageThreshold>
      <weakClassifiers>
        <_>
          <internalNodes>
            0 -1 11 -1 -1 -65537 -327682 -1 -8257 -1 -1</internalNodes>
          <leafValues>
            -7.5682616233825684e-001 3.8368824124336243e-001</leafValues></_>
        <_>
          <internalNodes>
            0 -1 76 -1 285161727 -17891586 1560149247 -2129 -1025 -97
            -570425345</internalNodes>
          <leafValues>
            -5.4384219646453857e-001 4.9589866399765015e-001</leafValues></_>
        <_>
          <internalNodes>
            0 -1 25 -268652612 -33554433 -269533315 -4097 1073741755
            -16385 -5259509 -1355863249</internalNodes>
          <leafValues>
            -5.1913851499557495e-001 4.3627452850341797e-001</leafValues></_>
        <_>
          <internalNodes>
            0 -1 102 -16642 -3196164 -1078089030 -16390 -17410 -2281734
            -16924674 -2</internalNodes>
          <leafValues>
            -5.0284498929977417e-001 4.0720531344413757e-001</leafValues></_>
        <_>
          <internalNodes>
            0 -1 49 -23922 -1320705554 -83987754 -1241974793 -707267636
            1624374261 -470424946 1364590543</internalNodes>
          <leafValues>
            -6.0395187139511108e-001 3.1478640437126160e-001</leafValues></_>
        <_>
          <internalNodes>
            0 -1 112 290828735 827456505 2013182975 871543786 559887359
            -1722433672 -67190817 -1147145302</internalNodes>
          <leafValues>
            -4.2626655101776123e-001 4.5410156250000000e-001</leafValues></_>
        <_>
          <internalNodes>
            0 -1 89 -1073553182 -3147409 -1048577 -262163 -269484049
            -2129 -1310721 -1978957149</internalNodes>
          <leafValues>
            -4.5151832699775696e-001 4.2211183905601501e-001</leafValues></_>
        <_>
          <internalNodes>
            0 -1 38 -3122 -1224364124 -747572860 2063626237 1626729980
            970720452 1977461326 1371930623</internalNodes>
          <leafValues>
            -6.3499462604522705e-001 2.9845553636550903e-001</leafValues></_>
        <_>
          <internalNodes>
            0 -1 134 -12846404 488403772 -4194503 -1078067203
            -1629701192 979107743 1018960776 -1077944872</internalNodes>
          <leafValues>
            -4.6800974011421204e-001 3.9701372385025024e-001</leafValues></_>
        <_>
          <internalNodes>
            0 -1 57 903172581 299497339 -262226 -262657 1953789403
            812770801 -4328449 1979711445</internalNodes>
          <leafValues>
            -6.8697565793991089e-001 2.7768766880035400e-001</leafValues></_>
        <_>
          <internalNodes>
            0 -1 129 -134745622 1081080202 305620544 368041467
            1889989906 1178926498 304086007 1873805311</internalNodes>
          <leafValues>
            -6.4536786079406738e-001 2.5673732161521912e-001</leafValues></_></weakClassifiers></_>
    <!-- stage 12 -->
    <_>
      <maxWeakCount>11</maxWeakCount>
      <stageThreshold>-2.4387230873107910e+000</stageThreshold>
      <weakClassifiers>
        <_>
          <internalNodes>
            0 -1 22 -7602181 -6029525 -787469 -6029405 -134217729 -1025
            -33554433 -786441</internalNodes>
          <leafValues>
            -7.2241026163101196e-001 5.2145642042160034e-001</leafValues></_>
        <_>
          <internalNodes>
            0 -1 109 -9560 -1 -1159790593 -69 -5264758 -16465 -16777233
            -12401</internalNodes>
          <leafValues>
            -5.9234577417373657e-001 3.8362994790077209e-001</leafValues></_>
        <_>
          <internalNodes>
            0 -1 71 -252202253 282095728 -268509249 -1996622595
            1970616293 -101190157 -1612742897 -100671777</internalNodes>
          <leafValues>
            -5.1326698064804077e-001 4.0811741352081299e-001</leafValues></_>
        <_>
          <internalNodes>
            0 -1 26 -52625444 -101201921 -12157987 -268448049 -524353
            -16777218 -1212154104 -1342239221</internalNodes>
          <leafValues>
            -4.6429169178009033e-001 4.3511423468589783e-001</leafValues></_>
        <_>
          <internalNodes>
            0 -1 61 -1 2113273852 532458416 1039941628 -537108484
            1595693044 -1078454280 -196706</internalNodes>
          <leafValues>
            -5.4489415884017944e-001 3.5368269681930542e-001</leafValues></_>
        <_>
          <internalNodes>
            0 -1 19 515637725 -50209 2147450879 -537037865 -1363215365
            -16385 -23136257 -1410717552</internalNodes>
          <leafValues>
            -4.2889696359634399e-001 4.2260444164276123e-001</leafValues></_>
        <_>
          <internalNodes>
            0 -1 104 -33554680 1930362639 -146833888 859832187
            1338994663 1192066903 2012705526 1929377791</internalNodes>
          <leafValues>
            -6.8624228239059448e-001 2.7900975942611694e-001</leafValues></_>
        <_>
          <internalNodes>
            0 -1 54 70256856 530516533 935215039 395843007 1169956286
            -1073840645 -14668033 -1419071697</internalNodes>
          <leafValues>
            -4.5807906985282898e-001 3.7436750531196594e-001</leafValues></_>
        <_>
          <internalNodes>
            0 -1 6 -758122802 -184680721 -218107921 -35668242 1078460366
            1390345951 -220201884 1917320263</internalNodes>
          <leafValues>
            -4.5265665650367737e-001 3.8647654652595520e-001</leafValues></_>
        <_>
          <internalNodes>
            0 -1 81 4462047 1536703471 -102776833 1065041851 1556979165
            -859113548 889175295 -1375982804</internalNodes>
          <leafValues>
            -4.6897691488265991e-001 3.6796122789382935e-001</leafValues></_>
        <_>
          <internalNodes>
            0 -1 132 -2360830 1365504779 2078237559 1718616031
            -545259774 -340787337 1446973970 273119103</internalNodes>
          <leafValues>
            -6.4070510864257813e-001 2.7294978499412537e-001</leafValues></_></weakClassifiers></_>
    <!-- stage 13 -->
    <_>
      <maxWeakCount>12</maxWeakCount>
      <stageThreshold>-2.7167277336120605e+000</stageThreshold>
      <weakClassifiers>
        <_>
          <internalNodes>
            0 -1 12 -17895681 -69634 -16781569 -4370 -143130625 -524289
            -1 -2049</internalNodes>
          <leafValues>
            -7.4412184953689575e-001 3.2745492458343506e-001</leafValues></_>
        <_>
          <internalNodes>
            0 -1 23 -268489956 -33554433 -9502721 -4097 2147481595
            -16387 -5242981 -4331585</internalNodes>
          <leafValues>
            -6.1436587572097778e-001 3.4320533275604248e-001</leafValues></_>
        <_>
          <internalNodes>
            0 -1 111 -806465956 -11534450 -62480 -2113 1338986495
            252641231 -43521 -16778241</internalNodes>
          <leafValues>
            -5.2403581142425537e-001 3.9060944318771362e-001</leafValues></_>
        <_>
          <internalNodes>
            0 -1 66 -8650977 -756554377 -268472593 -67112979 825308624
            -1867157419 -2099217 -2057</internalNodes>
          <leafValues>
            -4.0806108713150024e-001 4.6163514256477356e-001</leafValues></_>
        <_>
          <internalNodes>
            0 -1 32 -754976786 -1220165692 1759802090 2000761615
            1090356206 363446215 -260260657 -169478149</internalNodes>
          <leafValues>
            -4.6863374114036560e-001 3.7930503487586975e-001</leafValues></_>
        <_>
          <internalNodes>
            0 -1 93 -540094468 526188516 -644019784 -8421377 1339838460
            1598881784 1073691647 2147479535</internalNodes>
          <leafValues>
            -5.2632927894592285e-001 3.3299010992050171e-001</leafValues></_>
        <_>
          <internalNodes>
            0 -1 125 -20973056 1364241163 -218104329 921695798 -16449
            -337776785 -1355958726 537914159</internalNodes>
          <leafValues>
            -6.2700778245925903e-001 2.7208051085472107e-001</leafValues></_>
        <_>
          <internalNodes>
            0 -1 62 -98533 -58785970 2011063095 -838897881 805001610
            -268959761 -1175552769 -281022601</internalNodes>
          <leafValues>
            -4.0446385741233826e-001 4.2535227537155151e-001</leafValues></_>
        <_>
          <internalNodes>
            0 -1 97 -67444481 -206994754 -69144354 -75237143 -1247772438
            1134704 -171065089 -211980037</internalNodes>
          <leafValues>
            -4.3373686075210571e-001 3.9242663979530334e-001</leafValues></_>
        <_>
          <internalNodes>
            0 -1 117 511188541 -182785 -2228225 -2277891 1073724415
            -114689 -134349825 -1348982600</internalNodes>
          <leafValues>
            -4.7533750534057617e-001 3.5601371526718140e-001</leafValues></_>
        <_>
          <internalNodes>
            0 -1 2 -353440050 -922816786 -1939411282 -532222866
            1893140311 544438257 1383556944 -134218890</internalNodes>
          <leafValues>
            -4.9044185876846313e-001 3.3471038937568665e-001</leafValues></_>
        <_>
          <internalNodes>
            0 -1 115 -598 -716701840 524508432 1335327583 1927510490
            516028407 252166143 2104885111</internalNodes>
          <leafValues>
            -5.4752242565155029e-001 3.1020554900169373e-001</leafValues></_></weakClassifiers></_>
    <!-- stage 14 -->
    <_>
      <maxWeakCount>12</maxWeakCount>
      <stageThreshold>-2.4464137554168701e+000</stageThreshold>
      <weakClassifiers>
        <_>
          <internalNodes>
            0 -1 37 -572532513 -1 -787457 -1 -587215665 -513 -50594593
            -33555201</internalNodes>
          <leafValues>
            -7.2337877750396729e-001 3.9785447716712952e-001</leafValues></_>
        <_>
          <internalNodes>
            0 -1 34 -4 -1073758274 -2187 -65538 -4 -1073938452 -131172
            -1</internalNodes>
          <leafValues>
            -6.1503058671951294e-001 3.1535035371780396e-001</leafValues></_>
        <_>
          <internalNodes>
            0 -1 94 -170143616 -1065 -168296457 -2093 -9221 -1049617
            -152305921 -68158705</internalNodes>
          <leafValues>
            -4.7971919178962708e-001 4.0681758522987366e-001</leafValues></_>
        <_>
          <internalNodes>
            0 -1 46 2013262847 1440219055 1073685435 1072378539
            2009071599 1954971406 2147478207 -7689590</internalNodes>
          <leafValues>
            -4.2861473560333252e-001 4.1228535771369934e-001</leafValues></_>
        <_>
          <internalNodes>
            0 -1 130 -547361284 1359870796 2134836112 2104328111
            -539206151 1548550142 -41987 1567620095</internalNodes>
          <leafValues>
            -5.8636796474456787e-001 3.0082601308822632e-001</leafValues></_>
        <_>
          <internalNodes>
            0 -1 50 285221048 -67248131 1040138237 -2113537 -16991298
            -82211 939441663 134742152</internalNodes>
          <leafValues>
            -7.3430120944976807e-001 2.4298010766506195e-001</leafValues></_>
        <_>
          <internalNodes>
            0 -1 135 -4150 15724267 -876876118 15138542 -202936571
            84338435 -159948992 -529336458</internalNodes>
          <leafValues>
            -5.5250525474548340e-001 2.9285663366317749e-001</leafValues></_>
        <_>
          <internalNodes>
            0 -1 33 -143196400 1910699931 -71827659 1642693574 -9978488
            -2115351049 2113929128 29336557</internalNodes>
          <leafValues>
            -5.6024920940399170e-001 2.6951059699058533e-001</leafValues></_>
        <_>
          <internalNodes>
            0 -1 59 -205532209 66042879 -16796030 -218122513 2086605383
            334978375 -136882233 -77595817</internalNodes>
          <leafValues>
            -4.3411263823509216e-001 3.7853729724884033e-001</leafValues></_>
        <_>
          <internalNodes>
            0 -1 85 -9431024 362094419 1068763289 2102769583 1036343708
            2103049565 -1084412483 -1073741925</internalNodes>
          <leafValues>
            -4.6980535984039307e-001 3.5852468013763428e-001</leafValues></_>
        <_>
          <internalNodes>
            0 -1 1 -285212690 -285214993 -268763249 -1360069649
            1894774341 -16779265 2097116509 -773324897</internalNodes>
          <leafValues>
            -5.2664577960968018e-001 3.1104233860969543e-001</leafValues></_>
        <_>
          <internalNodes>
            0 -1 75 556828664 -36051076 -10489889 -1647235599 443990015
            -122323211 -1073758209 433495789</internalNodes>
          <leafValues>
            -5.8808183670043945e-001 2.7958375215530396e-001</leafValues></_></weakClassifiers></_>
    <!-- stage 15 -->
    <_>
      <maxWeakCount>13</maxWeakCount>
      <stageThreshold>-2.3894405364990234e+000</stageThreshold>
      <weakClassifiers>
        <_>
          <internalNodes>
            0 -1 17 -2097187 -10485761 -35 -1 -67108982 -1076102245
            -262216 -1</internalNodes>
          <leafValues>
            -7.1693241596221924e-001 3.6169224977493286e-001</leafValues></_>
        <_>
          <internalNodes>
            0 -1 45 -246678566 -1 2001164255 -2237441 -204735526 -1
            -76808353 -9437185</internalNodes>
          <leafValues>
            -5.0577509403228760e-001 4.1505143046379089e-001</leafValues></_>
        <_>
          <internalNodes>
            0 -1 116 -67374337 -69483907 -373110561 -7608121 -1326862085
            30474403 -136449793 -203427585</internalNodes>
          <leafValues>
            -4.3266764283180237e-001 4.3499553203582764e-001</leafValues></_>
        <_>
          <internalNodes>
            0 -1 70 -84462089 284221680 -1073816433 -1661404111
            1047885045 -1158153227 -9998561 -117442185</internalNodes>
          <leafValues>
            -4.4079902768135071e-001 4.0455797314643860e-001</leafValues></_>
        <_>
          <internalNodes>
            0 -1 95 -209866565 -1082805249 1907636469 1976958453
            -235621633 -585851459 -1086539777 1296305343</internalNodes>
          <leafValues>
            -4.8029550909996033e-001 3.4261724352836609e-001</leafValues></_>
        <_>
          <internalNodes>
            0 -1 126 -4197360 427798311 -1098907841 2139095039 -67108937
            -4737 688848698 675015936</internalNodes>
          <leafValues>
            -5.2837651968002319e-001 3.0929768085479736e-001</leafValues></_>
        <_>
          <internalNodes>
            0 -1 5 -151060994 -4390914 -1074077697 -810414744 -4686337
            -1073807364 -65537 -895856641</internalNodes>
          <leafValues>
            -3.9709907770156860e-001 4.1127914190292358e-001</leafValues></_>
        <_>
          <internalNodes>
            0 -1 60 -545263634 49278951 -16777566 -83886353 1475834694
            1131902791 -153356345 -210241721</internalNodes>
          <leafValues>
            -4.9739095568656921e-001 3.4396505355834961e-001</leafValues></_>
        <_>
          <internalNodes>
            0 -1 90 4198997 525626589 805273599 2008481726 500004828
            -1612908578 503266814 -1378481756</internalNodes>
          <leafValues>
            -4.9862599372863770e-001 3.1566700339317322e-001</leafValues></_>
        <_>
          <internalNodes>
            0 -1 3 -353370450 1722797803 -403706296 -1060376913 88307524
            1346895573 2001190468 -184682980</internalNodes>
          <leafValues>
            -5.0914084911346436e-001 3.0920636653900146e-001</leafValues></_>
        <_>
          <internalNodes>
            0 -1 72 731044782 -537297419 -1073972481 1543468791
            927037343 -862977 -524289 -2663937</internalNodes>
          <leafValues>
            -4.0113702416419983e-001 4.0966770052909851e-001</leafValues></_>
        <_>
          <internalNodes>
            0 -1 40 -33576722 -211038301 -1266765172 1912601282
            -170985585 71583520 -1317062705 272748271</internalNodes>
          <leafValues>
            -5.6097507476806641e-001 2.8236237168312073e-001</leafValues></_>
        <_>
          <internalNodes>
            0 -1 120 1055399292 1039937084 -1343315969 -1078449171
            -1074250027 -1118290755 -1680986115 -1149752136</internalNodes>
          <leafValues>
            -5.4225534200668335e-001 2.6598471403121948e-001</leafValues></_></weakClassifiers></_></stages>
  <features>
    <_>
      <rect>
        0 1 3 2</rect></_>
    <_>
      <rect>
        0 1 3 4</rect></_>
    <_>
      <rect>
        0 2 1 1</rect></_>
    <_>
      <rect>
        0 2 1 2</rect></_>
    <_>
      <rect>
        0 2 3 2</rect></_>
    <_>
      <rect>
        0 14 4 2</rect></_>
    <_>
      <rect>
        1 0 1 4</rect></_>
    <_>
      <rect>
        1 0 3 6</rect></_>
    <_>
      <rect>
        1 1 3 4</rect></_>
    <_>
      <rect>
        1 4 3 3</rect></_>
    <_>
      <rect>
        1 4 3 5</rect></_>
    <_>
      <rect>
        1 5 2 5</rect></_>
    <_>
      <rect>
        1 7 2 1</rect></_>
    <_>
      <rect>
        1 14 18 2</rect></_>
    <_>
      <rect>
        2 0 16 1</rect></_>
    <_>
      <rect>
        2 1 1 3</rect></_>
    <_>
      <rect>
        2 3 13 1</rect></_>
    <_>
      <rect>
        2 4 7 1</rect></_>
    <_>
      <rect>
        2 6 1 3</rect></_>
    <_>
      <rect>
        3 0 3 1</rect></_>
    <_>
      <rect>
        3 1 10 2</rect></_>
    <_>
      <rect>
        3 2 10 2</rect></_>
    <_>
      <rect>
        3 3 1 2</rect></_>
    <_>
      <rect>
        3 3 2 1</rect></_>
    <_>
      <rect>
        3 3 10 1</rect></_>
    <_>
      <rect>
        3 4 2 1</rect></_>
    <_>
      <rect>
        3 5 2 1</rect></_>
    <_>
      <rect>
        4 1 8 3</rect></_>
    <_>
      <rect>
        4 2 3 2</rect></_>
    <_>
      <rect>
        4 5 2 1</rect></_>
    <_>
      <rect>
        4 5 3 5</rect></_>
    <_>
      <rect>
        4 6 2 1</rect></_>
    <_>
      <rect>
        4 7 1 3</rect></_>
    <_>
      <rect>
        4 7 2 1</rect></_>
    <_>
      <rect>
        4 8 2 3</rect></_>
    <_>
      <rect>
        4 8 12 4</rect></_>
    <_>
      <rect>
        5 0 5 4</rect></_>
    <_>
      <rect>
        5 3 1 2</rect></_>
    <_>
      <rect>
        5 6 1 4</rect></_>
    <_>
      <rect>
        5 8 1 2</rect></_>
    <_>
      <rect>
        5 12 1 1</rect></_>
    <_>
      <rect>
        5 17 13 1</rect></_>
    <_>
      <rect>
        6 1 1 3</rect></_>
    <_>
      <rect>
        6 1 1 4</rect></_>
    <_>
      <rect>
        6 2 5 6</rect></_>
    <_>
      <rect>
        6 3 1 4</rect></_>
    <_>
      <rect>
        6 3 7 1</rect></_>
    <_>
      <rect>
        6 8 1 2</rect></_>
    <_>
      <rect>
        6 8 1 4</rect></_>
    <_>
      <rect>
        6 10 1 2</rect></_>
    <_>
      <rect>
        7 0 1 1</rect></_>
    <_>
      <rect>
        7 5 2 5</rect></_>
    <_>
      <rect>
        7 8 1 4</rect></_>
    <_>
      <rect>
        7 9 1 3</rect></_>
    <_>
      <rect>
        7 16 11 1</rect></_>
    <_>
      <rect>
        8 7 2 4</rect></_>
    <_>
      <rect>
        8 8 1 4</rect></_>
    <_>
      <rect>
        9 4 6 4</rect></_>
    <_>
      <rect>
        9 5 1 3</rect></_>
    <_>
      <rect>
        9 8 1 2</rect></_>
    <_>
      <rect>
        10 8 1 2</rect></_>
    <_>
      <rect>
        10 11 1 3</rect></_>
    <_>
      <rect>
        11 2 3 3</rect></_>
    <_>
      <rect>
        11 3 5 4</rect></_>
    <_>
      <rect>
        11 6 5 3</rect></_>
    <_>
      <rect>
        12 4 4 4</rect></_>
    <_>
      <rect>
        13 3 3 4</rect></_>
    <_>
      <rect>
        13 5 3 3</rect></_>
    <_>
      <rect>
        14 5 3 3</rect></_>
    <_>
      <rect>
        14 7 3 2</rect></_>
    <_>
      <rect>
        16 3 2 4</rect></_>
    <_>
      <rect>
        16 4 2 4</rect></_>
    <_>
      <rect>
        16 5 1 3</rect></_>
    <_>
      <rect>
        17 0 3 2</rect></_>
    <_>
      <rect>
        17 2 4 2</rect></_>
    <_>
      <rect>
        17 4 1 4</rect></_>
    <_>
      <rect>
        17 4 2 4</rect></_>
    <_>
      <rect>
        17 5 1 3</rect></_>
    <_>
      <rect>
        17 8 4 4</rect></_>
    <_>
      <rect>
        17 17 6 1</rect></_>
    <_>
      <rect>
        18 17 13 1</rect></_>
    <_>
      <rect>
        19 3 5 1</rect></_>
    <_>
      <rect>
        19 17 7 1</rect></_>
    <_>
      <rect>
        20 0 5 1</rect></_>
    <_>
      <rect>
        20 3 12 1</rect></_>
    <_>
      <rect>
        21 11 13 2</rect></_>
    <_>
      <rect>
        23 9 3 2</rect></_>
    <_>
      <rect>
        25 0 3 1</rect></_>
    <_>
      <rect>
        26 17 8 1</rect></_>
    <_>
      <rect>
        27 0 2 3</rect></_>
    <_>
      <rect>
        27 3 5 1</rect></_>
    <_>
      <rect>
        27 7 3 2</rect></_>
    <_>
      <rect>
        27 10 3 3</rect></_>
    <_>
      <rect>
        28 11 2 2</rect></_>
    <_>
      <rect>
        29 2 2 2</rect></_>
    <_>
      <rect>
        29 12 4 2</rect></_>
    <_>
      <rect>
        30 5 2 5</rect></_>
    <_>
      <rect>
        31 10 3 2</rect></_>
    <_>
      <rect>
        33 0 3 1</rect></_>
    <_>
      <rect>
        34 2 3 2</rect></_>
    <_>
      <rect>
        34 7 3 2</rect></_>
    <_>
      <rect>
        34 8 3 4</rect></_>
    <_>
      <rect>
        34 11 3 3</rect></_>
    <_>
      <rect>
        36 2 4 2</rect></_>
    <_>
      <rect>
        36 12 2 1</rect></_>
    <_>
      <rect>
        37 5 2 3</rect></_>
    <_>
      <rect>
        38 10 3 2</rect></_>
    <_>
      <rect>
        40 10 4 3</rect></_>
    <_>
      <rect>
        41 11 3 2</rect></_>
    <_>
      <rect>
        42 2 3 2</rect></_>
    <_>
      <rect>
        42 7 3 2</rect></_>
    <_>
      <rect>
        43 13 2 1</rect></_>
    <_>
      <rect>
        44 3 4 1</rect></_>
    <_>
      <rect>
        44 5 2 3</rect></_>
    <_>
      <rect>
        45 4 2 4</rect></_>
    <_>
      <rect>
        45 6 2 4</rect></_>
    <_>
      <rect>
        46 10 3 2</rect></_>
    <_>
      <rect>
        47 0 2 1</rect></_>
    <_>
      <rect>
        48 0 3 1</rect></_>
    <_>
      <rect>
        48 11 4 3</rect></_>
    <_>
      <rect>
        48 17 2 1</rect></_>
    <_>
      <rect>
        49 0 2 1</rect></_>
    <_>
      <rect>
        49 1 3 3</rect></_>
    <_>
      <rect>
        49 8 3 4</rect></_>
    <_>
      <rect>
        49 12 3 2</rect></_>
    <_>
      <rect>
        50 2 3 2</rect></_>
    <_>
      <rect>
        51 0 3 2</rect></_>
    <_>
      <rect>
        51 2 3 1</rect></_>
    <_>
      <rect>
        51 3 3 1</rect></_>
    <_>
      <rect>
        51 7 2 3</rect></_>
    <_>
      <rect>
        51 11 2 2</rect></_>
    <_>
      <rect>
        52 11 2 3</rect></_>
    <_>
      <rect>
        53 1 2 4</rect></_>
    <_>
      <rect>
        53 8 2 4</rect></_>
    <_>
      <rect>
        54 17 2 1</rect></_>
    <_>
      <rect>
        57 2 1 2</rect></_>
    <_>
      <rect>
        57 2 1 5</rect></_>
    <_>
      <rect>
        57 7 1 3</rect></_></features></cascade>
</opencv_storage>
