<?xml version="1.0"?>
<opencv_storage>
<my_nn type_id="opencv-ml-ann-mlp">
  <layer_sizes type_id="opencv-matrix">
    <rows>1</rows>
    <cols>3</cols>
    <dt>i</dt>
    <data>
      192 192 39</data></layer_sizes>
  <activation_function>SIGMOID_SYM</activation_function>
  <f_param1>6.6666666666666663e-001</f_param1>
  <f_param2>1.7159000000000000e+000</f_param2>
  <min_val>-9.4999999999999996e-001</min_val>
  <max_val>9.4999999999999996e-001</max_val>
  <min_val1>-9.7999999999999998e-001</min_val1>
  <max_val1>9.7999999999999998e-001</max_val1>
  <training_params>
    <train_method>BACKPROP</train_method>
    <dw_scale>1.0000000000000000e-002</dw_scale>
    <moment_scale>1.0000000000000000e-002</moment_scale>
    <term_criteria><epsilon>9.9999997764825821e-003</epsilon>
      <iterations>5000</iterations></term_criteria></training_params>
  <input_scale>
    1. 0. 1.6639002683835625e+002 -4.2328671541257163e+000
    1.2323904000500016e+002 -4.3080896205117334e+000
    1.6547015202719516e+002 -4.5522801884720296e+000
    1.2411420026096854e+002 -4.1910157041967402e+000
    1.6377826750924282e+002 -4.4781912861447424e+000
    1.1813876409846746e+002 -4.1757947382390315e+000
    1.5975445797567917e+002 -4.4011019374966400e+000 1. 0.
    1.3237230799100365e+002 -4.3781317889020963e+000
    1.1808211316547469e+002 -4.4452919723474054e+000
    1.3936880662444005e+002 -4.9880907793730183e+000
    1.3071598754545047e+002 -4.6687360881992577e+000
    1.3809863815667063e+002 -5.0875328015946524e+000
    1.3267125365505942e+002 -4.7677618814476128e+000
    1.3455668673924197e+002 -4.7330876986454724e+000 1. 0.
    1.2647134781028237e+002 -4.1614890793709023e+000
    9.8667616096113363e+001 -3.8444970903535700e+000
    1.3377333229110289e+002 -4.5536437960009346e+000
    1.2140599304084131e+002 -4.2155919889182840e+000
    1.3260063293650330e+002 -4.6632648613569883e+000
    1.1838545097581985e+002 -4.2928891098919850e+000
    1.3005149508259143e+002 -4.4582642350460047e+000 1. 0.
    1.2271029847492342e+002 -4.0911367211836902e+000
    1.0602644883296854e+002 -4.0497195116728841e+000
    1.3151172002037382e+002 -4.6150985437658294e+000
    1.2500582958590547e+002 -4.2631512891161369e+000
    1.2506763406196545e+002 -4.4356584750175161e+000
    1.1823108139902379e+002 -4.4030602399106442e+000
    1.2953858203915991e+002 -4.4951912892969910e+000 1. 0.
    1.2896284496300044e+002 -4.2599044877547927e+000
    9.9524031766467417e+001 -3.8769345475139207e+000
    1.3181646507891858e+002 -4.5485086440548272e+000
    1.2562341971457074e+002 -4.3393781661780739e+000
    1.2636324695794161e+002 -4.5390836491859599e+000
    1.1333547300801490e+002 -4.2434883370351510e+000
    1.3194105560139667e+002 -4.5963110953405542e+000 1. 0.
    1.2335965278802865e+002 -4.0718022527204303e+000
    1.0069583540934308e+002 -3.9165441002686263e+000
    1.2323632550041222e+002 -4.2567724770361659e+000
    1.1901944554396026e+002 -4.1365836877731637e+000
    1.2871317961756176e+002 -4.5246725609275780e+000
    1.0904613862802285e+002 -4.0404600186760762e+000
    1.2967058680987680e+002 -4.4750233068604164e+000 1. 0.
    1.3222541429578010e+002 -4.3839818649838502e+000
    1.1639796169293503e+002 -4.3304749343257836e+000
    1.2626961167539447e+002 -4.4722781949960266e+000
    1.1996268889529972e+002 -4.1245070360420026e+000
    1.2426289661297696e+002 -4.5456631069289219e+000
    1.2414363568842268e+002 -4.4571690276944249e+000
    1.2900693105269818e+002 -4.5257794038186541e+000 1. 0.
    1.5400167410257541e+002 -3.9218840384431428e+000
    1.1701291598885916e+002 -4.1692647744458542e+000
    1.5626520567134037e+002 -4.2328706532997975e+000
    1.1773503159032576e+002 -3.9463200569642396e+000
    1.5021482283709653e+002 -4.0915878606070928e+000
    1.1348269451054985e+002 -3.9906547223129918e+000
    1.5500071649260533e+002 -4.2601838081475405e+000
    1.9784419454095401e-002 -2.2692513805775976e+000
    1.8300801943505581e-002 -2.6369043523914586e+000
    1.6519555848090346e-002 -2.3644658015914328e+000
    1.3896002397364106e-002 -1.9800139928653357e+000
    1.5629712690057376e-002 -2.2952091340675529e+000
    1.8540672308287272e-002 -2.6636287606796523e+000
    1.6920697334179800e-002 -2.1042145445676588e+000
    1.9170804374034903e-002 -1.6274598863898055e+000
    2.0336268428759196e-002 -2.6412853633073028e+000
    1.6896589692210109e-002 -2.9795613798957303e+000
    1.5560460926939548e-002 -2.6782432034612200e+000
    1.3223045704323491e-002 -2.1515957964194126e+000
    1.4418965176382218e-002 -2.4519459000071078e+000
    1.6699760561437176e-002 -3.0038204625249549e+000
    1.7225861447714416e-002 -2.7394410353386744e+000
    1.9558951755834574e-002 -1.9516617386254229e+000
    2.0634692610259603e-002 -2.6028456541269325e+000
    1.7261787661725123e-002 -3.0143923741939802e+000
    1.9899468103876210e-002 -3.0533291488575136e+000
    1.7017495428408337e-002 -2.2246702209845872e+000
    1.7844984700333764e-002 -2.5245194123488379e+000
    1.7852358467215279e-002 -3.0551192210957558e+000
    1.6385500265283997e-002 -2.7386332842421970e+000
    2.0077290044903228e-002 -2.1163454442253857e+000
    1.7967660258997830e-002 -2.1693331742109638e+000
    1.5705951606434981e-002 -2.6148301370750140e+000
    1.7460050614663901e-002 -2.4211875411121877e+000
    1.3437373766050883e-002 -1.5101235856003898e+000
    1.3762712577195482e-002 -1.6985384028917252e+000
    1.5803860873205521e-002 -2.4041704570303088e+000
    1.4582356795653086e-002 -2.3121763775782265e+000
    1.8698554573390477e-002 -1.9335933356248853e+000
    1.7752449345957870e-002 -2.1553362521159052e+000
    1.5453007433546325e-002 -2.5608679073385860e+000
    1.6597992526728861e-002 -2.2705732654581494e+000
    1.2668882425606928e-002 -1.4661466312987272e+000
    1.2466738355558067e-002 -1.5501145486231580e+000
    1.4889894148310654e-002 -2.1314406348524439e+000
    1.3845287542951350e-002 -2.0793646382946944e+000
    1.7287673777223372e-002 -1.7478151749965887e+000
    1.7914413326288684e-002 -2.1218247052647690e+000
    1.4902439067199140e-002 -2.4841771269048514e+000
    1.7470192842326183e-002 -2.4868682199983030e+000
    1.3373529432312419e-002 -1.7129275757166784e+000
    1.3220902556353843e-002 -1.7613215709144918e+000
    1.5915388296882198e-002 -2.2504897904115873e+000
    1.3164898042434613e-002 -1.9163061189710542e+000
    1.6389657235751143e-002 -1.6191673347256397e+000
    1.8692755382271602e-002 -2.0879333097108592e+000
    1.4708529532522033e-002 -2.4311296278975996e+000
    1.7988026627359821e-002 -2.7242833700727815e+000
    1.4634355683410349e-002 -2.1471625754699457e+000
    1.4608788801618509e-002 -2.2458919503802859e+000
    1.7910822254850557e-002 -2.7703558908294013e+000
    1.4080251279699132e-002 -2.0966702979947045e+000
    1.6982183133996857e-002 -1.6653546061594817e+000
    1.8618093853975008e-002 -1.9116437415706071e+000
    1.4031383908343973e-002 -2.2226255042237733e+000
    1.6162672757533681e-002 -2.5529635423284902e+000
    1.4451372226383177e-002 -2.3623677400366341e+000
    1.4524559363160487e-002 -2.5340842410654187e+000
    1.6212177331310522e-002 -2.7888630486683952e+000
    1.4140774770937281e-002 -2.1705114637159051e+000
    1.7594079935287395e-002 -1.6952268322847552e+000
    1.7900360756364624e-002 -1.7543392498088972e+000
    1.3271287954705252e-002 -2.0259944982151716e+000
    1.5648974023476144e-002 -2.3363823604147687e+000
    1.3764340490107227e-002 -2.0746406226843579e+000
    1.3641486776316285e-002 -2.2360359748905223e+000
    1.6484853323161314e-002 -2.7361786785599209e+000
    1.3659770305701596e-002 -2.0968226419661700e+000
    1.6871696501478774e-002 -1.6776994669362857e+000
    1.8144884001383827e-002 -1.7664647942106575e+000
    1.2993971843330865e-002 -1.9513300483208167e+000
    1.6355944492771717e-002 -2.1936466178076941e+000
    1.3737616385040988e-002 -1.6771785742267165e+000
    1.3131200889956587e-002 -1.7495586532303122e+000
    1.6646889077174511e-002 -2.3860930176101069e+000
    1.3343948722993481e-002 -1.9413751178393344e+000
    1.6243344260768126e-002 -1.6721884574636752e+000
    1.8779258977706371e-002 -1.9283324262817769e+000
    1.4089408767488739e-002 -2.2121257676995905e+000
    1.6796698538145621e-002 -2.2575047180829424e+000
    1.2737695348938084e-002 -1.4456467899577381e+000
    1.2304987501644144e-002 -1.4956228738606616e+000
    1.4906521379477141e-002 -2.0628246313716208e+000
    1.3786439983051344e-002 -2.0240160937438971e+000
    1.5679004516708620e-002 -1.7221348380606176e+000
    1.9546698026342256e-002 -2.1012109486600079e+000
    1.5854135478148557e-002 -2.5981419817981131e+000
    1.8093849571073115e-002 -2.5679482684479109e+000
    1.3201834169302130e-002 -1.5250145833064519e+000
    1.2239711315647007e-002 -1.4763252666322146e+000
    1.4416329471414174e-002 -2.0096955973843049e+000
    1.3970239852614762e-002 -2.0858936406396480e+000
    1.5398269859514875e-002 -1.7524013116251387e+000
    1.9446060867474264e-002 -2.0766370804244132e+000
    1.5614694499711765e-002 -2.5834634777118035e+000
    1.8480499873883290e-002 -2.7277351892448158e+000
    1.5345468690485569e-002 -1.8654374807489376e+000
    1.3322326028910826e-002 -1.6563630231601381e+000
    1.6231023649300069e-002 -2.2919461481703540e+000
    1.3913969613956190e-002 -2.0874016503727195e+000
    1.6213977289685880e-002 -1.8213256757809735e+000
    1.9872061342891777e-002 -1.9874127845038680e+000
    1.5492480712337423e-002 -2.4962713831498866e+000
    1.7457241087313426e-002 -2.7839254454918034e+000
    1.7368829800758729e-002 -2.4284396353520803e+000
    1.5571712366676420e-002 -2.1598962997870923e+000
    1.8198512904186483e-002 -2.7843284634266157e+000
    1.4129126120094803e-002 -2.2477372396779982e+000
    1.8819376607167274e-002 -2.1210006341253549e+000
    1.9822794148951214e-002 -1.6867543923784958e+000
    1.5523672875416755e-002 -2.2156392057016219e+000
    1.5038783880765936e-002 -2.4581192301399750e+000
    1.3481179697115703e-002 -2.1911334661619448e+000
    1.2621643936314556e-002 -2.0210502740296477e+000
    1.4538389574073080e-002 -2.4020091686665292e+000
    1.4674315441879946e-002 -2.3062700664680542e+000
    1.8352206927929621e-002 -1.9960188686088969e+000
    2.0547871738067613e-002 -1.4402194617550625e+000
    1.7037119960266408e-002 -1.8621015886536207e+000
    1.7076226224973203e-002 -2.2343508997202122e+000
    1.4480382276023482e-002 -2.0329406143666882e+000
    1.2941887918299045e-002 -1.8219674317058252e+000
    1.5662470653877023e-002 -2.1053542294082610e+000
    1.7317952660194126e-002 -2.1075634277069430e+000
    1.8012746921904469e-002 -1.6454720546066899e+000</input_scale>
  <output_scale>
    5.2631578947368418e-001 4.9999999999999994e-001
    5.2631578947368418e-001 4.9999999999999994e-001
    5.2631578947368418e-001 4.9999999999999994e-001
    5.2631578947368418e-001 4.9999999999999994e-001
    5.2631578947368418e-001 4.9999999999999994e-001
    5.2631578947368418e-001 4.9999999999999994e-001
    5.2631578947368418e-001 4.9999999999999994e-001
    5.2631578947368418e-001 4.9999999999999994e-001
    5.2631578947368418e-001 4.9999999999999994e-001
    5.2631578947368418e-001 4.9999999999999994e-001
    5.2631578947368418e-001 4.9999999999999994e-001
    5.2631578947368418e-001 4.9999999999999994e-001
    5.2631578947368418e-001 4.9999999999999994e-001
    5.2631578947368418e-001 4.9999999999999994e-001
    5.2631578947368418e-001 4.9999999999999994e-001
    5.2631578947368418e-001 4.9999999999999994e-001
    5.2631578947368418e-001 4.9999999999999994e-001
    5.2631578947368418e-001 4.9999999999999994e-001
    5.2631578947368418e-001 4.9999999999999994e-001
    5.2631578947368418e-001 4.9999999999999994e-001
    5.2631578947368418e-001 4.9999999999999994e-001
    5.2631578947368418e-001 4.9999999999999994e-001
    5.2631578947368418e-001 4.9999999999999994e-001
    5.2631578947368418e-001 4.9999999999999994e-001
    5.2631578947368418e-001 4.9999999999999994e-001
    5.2631578947368418e-001 4.9999999999999994e-001
    5.2631578947368418e-001 4.9999999999999994e-001
    5.2631578947368418e-001 4.9999999999999994e-001
    5.2631578947368418e-001 4.9999999999999994e-001
    5.2631578947368418e-001 4.9999999999999994e-001
    5.2631578947368418e-001 4.9999999999999994e-001
    5.2631578947368418e-001 4.9999999999999994e-001
    5.2631578947368418e-001 4.9999999999999994e-001
    5.2631578947368418e-001 4.9999999999999994e-001 1. 0.
    5.2631578947368418e-001 4.9999999999999994e-001 1. 0. 1. 0. 1. 0.</output_scale>
  <inv_output_scale>
    1.8999999999999999e+000 -9.4999999999999996e-001
    1.8999999999999999e+000 -9.4999999999999996e-001
    1.8999999999999999e+000 -9.4999999999999996e-001
    1.8999999999999999e+000 -9.4999999999999996e-001
    1.8999999999999999e+000 -9.4999999999999996e-001
    1.8999999999999999e+000 -9.4999999999999996e-001
    1.8999999999999999e+000 -9.4999999999999996e-001
    1.8999999999999999e+000 -9.4999999999999996e-001
    1.8999999999999999e+000 -9.4999999999999996e-001
    1.8999999999999999e+000 -9.4999999999999996e-001
    1.8999999999999999e+000 -9.4999999999999996e-001
    1.8999999999999999e+000 -9.4999999999999996e-001
    1.8999999999999999e+000 -9.4999999999999996e-001
    1.8999999999999999e+000 -9.4999999999999996e-001
    1.8999999999999999e+000 -9.4999999999999996e-001
    1.8999999999999999e+000 -9.4999999999999996e-001
    1.8999999999999999e+000 -9.4999999999999996e-001
    1.8999999999999999e+000 -9.4999999999999996e-001
    1.8999999999999999e+000 -9.4999999999999996e-001
    1.8999999999999999e+000 -9.4999999999999996e-001
    1.8999999999999999e+000 -9.4999999999999996e-001
    1.8999999999999999e+000 -9.4999999999999996e-001
    1.8999999999999999e+000 -9.4999999999999996e-001
    1.8999999999999999e+000 -9.4999999999999996e-001
    1.8999999999999999e+000 -9.4999999999999996e-001
    1.8999999999999999e+000 -9.4999999999999996e-001
    1.8999999999999999e+000 -9.4999999999999996e-001
    1.8999999999999999e+000 -9.4999999999999996e-001
    1.8999999999999999e+000 -9.4999999999999996e-001
    1.8999999999999999e+000 -9.4999999999999996e-001
    1.8999999999999999e+000 -9.4999999999999996e-001
    1.8999999999999999e+000 -9.4999999999999996e-001
    1.8999999999999999e+000 -9.4999999999999996e-001
    1.8999999999999999e+000 -9.4999999999999996e-001 1. 0.
    1.8999999999999999e+000 -9.4999999999999996e-001 1. 0. 1. 0. 1. 0.</inv_output_scale>
  <weights>
    <_>
      -9.4774394706927459e-003 -9.7805219828911334e-003
      -2.0921956870595290e-004 2.4404954239721638e-003
      1.7826149343995246e-003 -4.0739546956759512e-003
      -1.8086671299757412e-003 4.9711256335304189e-003
      -8.0258741567577879e-003 3.8228825866447661e-004
      -1.9748438002816318e-003 -4.5561885684176637e-003
      -2.9975330284229564e-003 3.1486997294390825e-003
      7.1306952547383750e-004 -2.2670657843549533e-003
      5.0370871195420316e-003 8.3227771892789831e-004
      -2.5485483660139530e-003 -2.5002280115775491e-004
      -5.0968104100118641e-003 4.2008445609326983e-003
      -7.5285901558527447e-003 6.1644744656508691e-003
      -3.8553584354916290e-003 9.6616773526332304e-003
      5.0609761704699793e-003 -1.1293055072537396e-003
      -7.9841650000755451e-003 5.1188453096344174e-003
      7.0869217660411872e-004 -9.1729505242223470e-003
      7.5197821958013266e-003 3.8650389908641497e-003
      -1.3554520088649265e-004 6.9280949925869563e-003
      -7.7265310219992315e-003 2.4390471210455505e-003
      -4.6105022292075868e-003 -4.1998577343580054e-003
      -7.7206269581526739e-003 9.9766978577998551e-003
      4.2544577578334328e-003 1.3754517380714702e-003
      7.1796435332770539e-003 -3.6314002586833017e-003
      7.1302042362966882e-003 5.9848411933615987e-003
      -8.7012957274677314e-003 -7.1911688818492407e-003
      3.5753906382966408e-004 -7.8206324736721719e-003
      7.7840334160302673e-005 -9.7247046973899017e-003
      6.5906532945043820e-004 -6.6883423836866093e-003
      1.0267470172397101e-002 2.4589843309896263e-003
      4.2177802259136879e-003 -2.5745004564537138e-005
      -9.1245559952410783e-003 4.6682843740123679e-003
      -3.2086970244528438e-003 -8.6643351054055979e-003
      -4.4314902091338479e-004 -8.0917907515533228e-003
      -4.7106191796082537e-003 5.4813280656156316e-003
      -2.1113643434525519e-004 -7.1603200584857002e-003
      -1.9313744214374390e-003 8.0881452445791969e-003
      -5.7626970373238790e-003 3.2385791708325500e-003
      -9.0264538523999859e-003 -8.3071699634805346e-003
      6.7234290194826728e-003 -5.2206927062768763e-003
      9.4966577799442207e-003 -7.4237071929381592e-003
      -5.7398595433081779e-003 -2.0103225189369886e-003
      8.8759822239327171e-003 1.3590891472343594e-003
      4.2237535617746019e-003 2.9836713601291928e-003
      3.5702107009188372e-003 1.8901887388650806e-003
      9.1388047665465610e-003 3.8644142153306856e-003
      -8.5457007598703349e-003 4.4538058287786611e-003
      9.4856801867413357e-003 2.8557089696693398e-003
      2.8982475581529957e-003 -6.1692684888342113e-003
      7.3143594555870918e-003 -4.1482498175634524e-003
      3.3752444836027528e-003 -7.4452395656556397e-003
      -6.1845268364962300e-003 6.0264122627934659e-003
      -8.4815390293495399e-003 4.0147813343026474e-003
      4.3837645794166848e-003 3.8368163650613590e-003
      -8.6385474387302586e-003 -9.9415775626384446e-003
      7.5109333721571385e-003 -9.5411738712115005e-003
      -3.4234751243589117e-003 -6.3589078712151977e-003
      -7.7230079999872818e-003 -5.1571929445438803e-003
      3.8867623092827793e-003 8.4313922739099843e-003
      -6.6865057053254783e-003 -2.5348848451417455e-003
      3.7118882088317934e-003 -6.6618591861344672e-003
      -7.3443811874468953e-003 -2.5576058866699451e-003
      3.1610320554713066e-003 6.9403163434145062e-003
      9.1255242269702667e-003 -8.7392895667056745e-003
      -7.9585156868439556e-004 -5.2494145688038851e-003
      -8.0898733159987697e-003 2.1927887959098463e-004
      -9.8332158042401651e-003 -8.9059142405920142e-003
      8.9704192336094463e-003 2.2753640837821255e-003
      1.4789415735889002e-003 -7.5156762652871627e-003
      -8.5957154756025871e-003 -4.2846266567992753e-003
      5.1558259987878521e-003 3.7180267592480453e-004
      -8.2661007363254188e-004 -9.5016089234157570e-003
      5.4214194731074770e-003 7.5946995821700438e-003
      -9.5358673566572887e-003 4.0276062510767128e-003
      -7.9922091987431089e-003 -1.9233252445361767e-003
      -6.0736589670730761e-003 6.9899055328251835e-003
      1.0045558859734034e-004 -2.3930381159207072e-003
      -6.1498343560791027e-003 9.1869368739552031e-003
      -5.0312480841038214e-003 -5.0576352806115795e-003
      -7.1358628471272483e-003 -9.6478922676524886e-003
      2.1329996454838495e-003 2.7190032651601965e-003
      5.2443130122763418e-003 -9.0053141158247044e-003
      -3.2104946150842092e-003 3.3401647501044088e-003
      2.8177639379689343e-003 -4.4751893211692527e-003
      3.0455839087828742e-003 -6.5405593841857722e-003
      -2.0932315025789963e-003 3.7954907859074397e-003
      -5.4419576138871415e-003 -1.0389572524830911e-002
      6.9966178861906715e-004 7.9927233867555635e-003
      5.0507399638574776e-003 -6.1690568077717610e-006
      -3.3827172239549036e-003 -1.0073950853355173e-002
      -3.8259064801943474e-003 -1.0450919271156848e-002
      -9.7928840153109192e-003 8.5487957745100859e-003
      -2.5400033143762779e-003 5.0165710185769690e-003
      7.8777970024318956e-003 4.8212059431027281e-003
      -3.7233622833704092e-004 -9.1814154631758571e-003
      -1.7251515388112776e-003 -5.2734601102399341e-003
      -5.3371935619845223e-004 -4.0506534619315126e-003
      5.5517736243234062e-001 -5.1218469994922647e-002
      1.0404791783006952e-001 6.8360997577292054e-002
      3.4866042365136185e-002 9.0199291870173368e-003
      -5.2696422971579636e-002 -3.4754276655887616e-002
      -1.1173066610415454e-001 2.9350305527782932e-002
      -6.8182328603106496e-004 8.4717219123891629e-002
      8.4056799909031782e-002 1.9973480682667015e-002
      8.4919982742612282e-002 5.6395253945976616e-002
      3.4468205828985091e-002 -7.6495871797103529e-002
      5.7770350010511527e-002 3.4796633633768316e-002
      -5.6182655095058397e-002 1.9968546379280864e-002
      1.8115853292819586e-002 2.6876044279144414e-002
      5.6340024124138695e-002 -5.8388377987631475e-002
      -4.4443071837745853e-002 -4.5651475884475587e-002
      -2.3123460460612401e-002 7.9994518101305603e-002
      1.1632090167004767e-002 8.8874673823891776e-002
      -2.5025184024114102e-002 -1.0839785884758840e-001
      1.0336431897796984e-001 8.5743875418633764e-002
      -4.9166241786531822e-003 9.8615386453091244e-002
      -3.9930079136781323e-002 1.6219607035666661e-002
      -2.6920293140247877e-002 8.3174704512141006e-004
      1.8703744389062558e-002 7.5187980356854964e-002
      -4.5555819097996775e-002 -2.3475643750807938e-002
      3.8761534426043270e-002 -6.9879741852790084e-002
      9.6468383905482114e-003 -2.0966024056770522e-002
      2.1389600437301707e-002 7.1133380009353181e-002
      7.0926479918993743e-002 -2.7398482306407498e-002
      5.8995683422316827e-002 9.8032486113233758e-002
      -5.7947181903749374e-002 1.1138079866104249e-001
      -7.7032241264494233e-002 -6.7531928957687741e-003
      1.5987082342233141e-002 9.5962962837736615e-003
      -1.1351906106613363e-001 2.5469409326182482e-002
      2.9242277751558375e-002 2.3531233361228760e-003
      5.2163413924340617e-002 3.5887862974585016e-002
      7.0712753888742375e-002 7.1495792230898428e-002
      6.5182771569180328e-002 -3.2271774445988437e-002
      6.4028335374897521e-002 1.5710499951571439e-002
      2.7096023742515817e-003 -7.2272893995319554e-002
      -2.7202751300103530e-002 -5.1319637313935991e-003
      7.5376439748984867e-003 -3.5809439810372622e-002
      -2.5595699271519688e-002 -8.5086018892777449e-002
      -2.4098282539723119e-002 1.8835569616257531e-002
      2.9967815588754342e-002 3.1742077686978884e-002
      -3.3072532604988256e-002 -8.0371588427030224e-002
      -3.6387288287290445e-002 5.8217905319189404e-002
      5.1796885996703698e-004 -4.1388542349285885e-002
      1.3209434480065041e-002 -7.0893125042553989e-002
      -5.2597655449120172e-002 7.3786561087595737e-002
      -1.8285028628755746e-004 3.6939671361688110e-002
      3.8543342579584805e-002 1.4013215314131713e-002
      5.0566758982915377e-002 -5.5061628056165962e-003
      -5.4520707254871043e-002 1.5049369730197363e-002
      -5.9197411786828302e-002 5.1903650960719298e-002
      1.1481011538815988e-002 6.7964008696102168e-002
      5.4489949977854397e-002 -1.1037671163217990e-002
      -1.9583988394882772e-003 -6.1363967889877108e-003
      1.0760408764046839e-001 2.7777427004039797e-002
      8.7974822087498100e-002 -6.2109265025856633e-002
      -4.9563561539036349e-002 -5.7064725660845229e-002
      5.3604868624699729e-002 -9.8445672162587580e-002
      -3.0372327488363222e-002 4.4422564294168451e-002
      4.8718159914422014e-002 4.7173362730240059e-002
      -7.7207631665171500e-002 3.4320789491441232e-002
      -9.9193012165902893e-003 -8.5164714820975554e-002
      -1.1001398685715763e-002 -5.6410285475889041e-002
      -3.3731262527086726e-002 3.2179116279127756e-002
      -1.3609457460732241e-002 8.0388008524222478e-003
      -1.8058508895616641e-002 5.8656773737652587e-002
      1.5262190095304258e-002 -3.5964567924871349e-002
      -7.8596534116582253e-002 -6.4611361978444526e-002
      -4.5452282445101196e-002 2.0153560629350621e-002
      7.9589199860220349e-003 2.7451869757764223e-002
      -1.2309762137087363e-001 6.3324310477914938e-002
      4.2102102623806467e-002 -6.6792643562404344e-002
      5.4256093445181092e-002 6.6055560438330718e-002
      1.1938881069405995e-002 5.8254431077195801e-002
      7.7081474617652662e-002 1.4971928593128630e-002
      -1.3213131193874708e-001 -5.0008636296653919e-002
      5.3865776776040847e-002 5.6824865504761284e-002
      4.6006570215070035e-002 -4.3953620326368098e-002
      3.3958329957323959e-002 4.9632347704757079e-002
      -1.9183791190259574e-002 1.4479985544634734e-003
      -5.6421508444887483e-002 8.1081279741535756e-002
      1.4618207696919299e-002 9.9285681946876536e-002
      -1.7379515076233211e-003 -2.8298267590186353e-002
      8.2774132369535965e-003 -4.0808943274673347e-002
      1.7783411854294936e-002 6.2452520839575885e-002
      -8.6609340284312331e-002 4.5450270320409054e-002
      -7.3317608831962963e-002 -5.1412237905011579e-002
      -4.1538368036017528e-002 4.1699777977215795e-002
      1.7952480296513237e-004 2.4105958929685374e-003
      6.1289624668891041e-002 -1.3129822463574144e-002
      9.6974016007307980e-003 -2.7352089191990422e-003
      -1.1960623617343509e-001 -2.1112787850841138e-002
      5.9217028853275150e-002 -8.0097299993729762e-002
      -4.5340628492734264e-002 -2.7681739136365215e-002
      1.7622635343522769e-001 -4.0369852862792016e-002
      1.0592326607252593e-001 -9.1944116979218564e-004
      1.4081672990735897e-001 1.1771203983700602e-001
      -5.3778291669184700e-002 -8.9321321915810700e-002
      -3.6524962829420519e-002 8.7648623916389057e-002
      5.0094830426245913e-002 6.7241335369165087e-002
      -7.1519853059319752e-002 -1.4395865446923528e-002
      1.2992475465494407e-001 1.1120922919733794e-001
      7.9544113584692391e-002 -1.0097172702940788e-001
      6.2477565548151029e-003 6.8657058613246766e-002
      5.7512650435144384e-002 1.4545451058046197e-002
      8.5894290753406946e-002 1.5553285766056021e-002
      2.6248005821409418e-002 -1.3453908235504056e-001
      -1.6425484615462123e-002 2.9443378523356319e-002
      1.1525480035518607e-001 1.6615795640537563e-002
      -2.9894791749355228e-002 8.3528405269319053e-002
      -1.0959190071801000e-001 -2.2937743495080945e-002
      1.2471006149956332e-001 1.3124937354266511e-001
      -6.7177622875426155e-002 1.0867517709839114e-001
      -1.3086364849005372e-001 7.1985935847660706e-002
      -9.1720708532636391e-002 -1.0091014260401222e-001
      -1.8258506125751767e-002 1.4614382254038952e-001
      1.3942041622415824e-001 -2.7272981816279344e-003
      -2.7315371914014789e-002 -1.0168183657478708e-001
      -3.6539105381750286e-002 2.4251494970047128e-002
      5.8390378073053972e-002 1.0152710584700397e-001
      5.0594953014095750e-002 4.1517057514493466e-003
      -4.5568042889214976e-002 9.1694071189415777e-002
      -7.1348012271674435e-002 8.2584638587654260e-002
      -4.4107186671439993e-002 -1.8934394861814630e-002
      -7.6816321697987591e-002 4.3157541038076177e-003
      -6.4079491534581298e-002 -1.0449343436213834e-001
      1.4992254683607445e-001 1.1881841172298577e-001
      5.9122876014938618e-002 1.5253875487589882e-001
      7.1003426786945989e-002 5.5756403414383544e-002
      9.5618793468127905e-002 -4.4072267284135158e-002
      6.2586185696760041e-002 8.8069714353580089e-002
      -4.0179239088785124e-002 -9.8392147604128094e-002
      3.0021422988545269e-002 -4.6450375483587721e-002
      -5.6304783680499369e-002 -8.0541283699230040e-002
      -6.7952442098737686e-002 -9.8561784753686543e-002
      6.1032812693715563e-002 1.9638945504578142e-001
      8.3515579494579675e-002 -1.0881381089934720e-002
      -1.0889207357740820e-001 -6.9583461533242366e-002
      -1.4400786750396657e-001 3.0930551934451697e-002
      -1.0829656866812490e-001 -1.7499130778632146e-001
      -9.9429094655247824e-002 -3.0461445927018019e-003
      -4.5581539657219630e-002 4.8383831499764399e-002
      -8.2712645550334862e-002 7.6525234541898926e-002
      6.5523010439682380e-002 4.7514080467552379e-002
      9.5054057714604720e-002 9.3515684864261414e-002
      8.8915635109335256e-002 1.1716675051933639e-001
      -1.2308090983346681e-001 1.1383969539873624e-001
      9.4597056995357531e-002 1.6511456017377321e-001
      1.6038252717658470e-002 -7.3506548037163180e-002
      -6.2943840287635278e-002 5.0366411658830011e-002
      8.4426047852813726e-002 5.5378963592030782e-002
      7.2698462892241425e-002 -5.1935565465570446e-002
      1.3154550568449366e-001 -1.1055448009579905e-001
      -1.5519400586855563e-002 -1.2639650199547264e-001
      7.8253789084046954e-002 1.1463118469246131e-002
      1.1826077254752586e-001 1.9973040555431587e-002
      -8.1771652532032363e-002 3.2456597346247743e-002
      1.0680994719751691e-001 -1.0510689814297673e-001
      -7.8838608363575285e-002 -7.4909398904920012e-004
      3.0880292933757981e-002 -5.3375183084454540e-002
      -8.9139779609556477e-002 -2.7597858755220701e-002
      -1.0773270978891772e-001 6.6174639013690376e-002
      -9.7847888717997183e-003 9.1223503201488268e-002
      -3.3804396234165805e-002 -8.8803464272698852e-003
      -4.9833670421446645e-002 -1.6311506633101606e-002
      9.6132529875616116e-002 6.9591154656206827e-002
      -2.8293171493334015e-002 9.0742572448609338e-002
      2.2358591095423239e-002 3.7673768458874837e-002
      7.6432451217625361e-002 3.9962441677323405e-003
      3.8172367585334365e-003 9.6809924134602335e-002
      1.4509871757054024e-001 2.0460209474843928e-002
      -7.4506516050960578e-002 -9.7871039736201523e-002
      1.2719118795874432e-001 1.4112165833233922e-001
      -1.0626786030293342e-001 -6.2249169130540911e-002
      5.3995705566537260e-002 3.3785801945734099e-002
      -1.6973666161574717e-002 5.8860237972139670e-002
      -5.7216548705650898e-002 7.7493777320090690e-002
      -1.8875374944053291e-001 1.4952947616532161e-001
      1.6624833265702861e-002 5.3872722274853325e-002
      1.1728058281066438e-001 -5.8685486843298787e-002
      5.5671053896619728e-002 7.3322583225217314e-002
      -4.4012033022731274e-002 4.8339894840732422e-002
      -1.4631124116513497e-001 -5.5139802582213175e-002
      -8.3139785908796338e-002 3.8936284981326320e-002
      -1.0423861851447659e-001 3.7994248280177202e-002
      7.0840890746026883e-002 3.4637490901695952e-003
      7.4009882625371379e-002 6.1287339859494347e-002
      -8.2470460255897021e-002 1.4139118194397287e-002
      7.5669363610877977e-002 -2.6346460342698066e-002
      -8.9006752975169703e-002 5.8133123495603006e-005
      2.4343302429011859e-001 9.9601188016051001e-002
      -7.8053261886604983e-002 -6.0148628332784559e-002
      -8.5891393761478890e-002 -7.7494110272720268e-002
      4.6253524387714615e-002 7.3912101279975911e-002
      1.0247703951300804e-001 -1.1795188768408497e-001
      -8.1311957447761221e-002 -6.4185500807020082e-002
      -7.5263602826305120e-002 -4.4983518770353040e-003
      -1.1865231048186783e-001 -1.5056744553378382e-001
      -7.6504090734229271e-002 1.4353864774711761e-002
      -7.5606439330434275e-002 -1.3214142670685741e-001
      -1.2914179536821002e-001 -3.3532235573127338e-002
      -9.2845138372372502e-002 -7.4368407873038203e-003
      -8.9946127490190417e-002 4.6671834722260032e-003
      -1.3901368718245755e-002 3.5910307791652565e-002
      -9.3511366309253552e-002 -3.6293426985023497e-002
      4.5573827747661388e-002 -1.2536780307718134e-001
      8.2954559256198102e-002 4.3064774159358395e-002
      -1.0759520146932279e-001 -1.0840926294324779e-001
      9.1532466593974668e-002 -1.5942500856773001e-001
      6.6830900168434348e-002 -9.4919277023614593e-002
      2.8521458439015712e-002 9.9552884671584602e-002
      2.4857183491404051e-002 -5.6718278487319383e-002
      9.1620197361732200e-002 3.4595145567411160e-002
      -8.7524994029902853e-002 1.1738263635474999e-001
      -1.1542188927057156e-001 -9.1620599427980468e-002
      -8.4295617541461129e-002 -8.8783195569592285e-002
      3.6168498820794209e-003 5.9619418657237015e-002
      -7.4952728382848294e-003 -8.3278057720049065e-002
      1.0478292810139631e-001 -2.7958367160834646e-002
      3.4684407295042026e-002 1.4994804832545730e-001
      1.8677950853171917e-002 1.5671319274553532e-003
      5.0188810051740321e-002 7.5678973215885917e-002
      -9.7916094832343967e-003 -2.8767521749880797e-002
      1.0745124070674137e-002 -6.9685164572973662e-002
      -4.8399673918304659e-002 -1.5940545524694480e-001
      -3.5360508951302501e-002 1.7329277114143667e-002
      -5.0196449937110740e-002 -1.0253499022336032e-001
      1.3360033036101056e-002 1.3187618627623399e-001
      -2.6939385771838867e-002 1.8858329576887492e-001
      8.8206220604957863e-002 7.7770704151989667e-002
      3.4084192493212741e-002 9.4742717326221748e-002
      -4.2436278641878454e-002 -1.4393356956627798e-001
      -6.5452818797991391e-002 -1.0190594484797311e-002
      1.1550398657153821e-001 6.6193830458666753e-002
      1.0025599735433981e-001 -1.1352633087943659e-001
      1.6832405799505172e-002 1.0975464188222592e-001
      6.5156599928864120e-002 2.3786202366358387e-002
      5.2772683557150764e-002 -7.0100728132856727e-002
      1.0109543271754422e-001 -1.2320262382236423e-001
      -1.6551425375894624e-001 2.7531127055591503e-002
      -8.9276357211778165e-002 -1.4169133509461818e-001
      -3.1428178776176396e-003 -4.2289118498635862e-002
      1.3708060614770706e-001 -1.2365110275375375e-001
      -9.9783973708682389e-002 -8.8190624582807797e-002
      1.0242888444822186e-002 1.8501096873363770e-001
      3.3434923497691567e-002 -1.3791021661406264e-001
      -1.2957813870146123e-001 -1.1287035376300157e-001
      -2.7367284706093262e-002 9.6058716965309390e-002
      -5.7588836711506249e-003 1.2026540737244788e-001
      -8.4575821747558358e-002 1.3944871150690152e-001
      -3.2972980668158292e-002 -3.2283547484369984e-002
      -1.1842537149141158e-001 -1.0582331420924877e-001
      1.1551246754083658e-001 -1.5096274526235653e-001
      -2.0506225497393497e-002 2.0860775420238977e-002
      1.1896685679559006e-001 1.2795478911281422e-001
      3.1034275677533940e-003 9.3157605276843011e-002
      1.0938543201726490e-001 5.8073474904446240e-002
      1.7786182349927801e-001 -1.0590857079638634e-001
      -5.9279135655005422e-003 -9.3402972458884487e-002
      1.0749595220985204e-001 2.4228805959146931e-002
      2.9254774264458948e-003 1.6412568046880533e-002
      -4.8695433071285148e-002 -7.8851742884561996e-002
      6.7457954975533599e-002 -1.0071485650194749e-001
      -3.4057471901977041e-002 5.5825790704464966e-002
      -1.5273878608205160e-001 -3.5173561112571049e-002
      1.5637342155978062e-002 -4.8794077354179295e-002
      -1.0286018347864756e-001 -8.7491202964493628e-002
      1.5048842491374098e-001 6.5484049279201054e-002
      -1.1133643749321691e-001 -4.9372349750879334e-002
      6.7936336457271387e-002 3.1436647131733990e-002
      -1.7751611076271964e-001 -7.9139183805983962e-002
      7.0337374695739710e-002 -6.7199742308878513e-002
      1.2951978821526516e-001 -1.2883718419572224e-001
      1.2969552447017108e-001 -1.4601561790975681e-001
      -8.4559879848313067e-003 5.8688247736177701e-002
      -1.3643829727522294e-001 4.1537800635242074e-002
      -1.0394894030506957e-001 -1.2446109982129877e-001
      1.0905370290935670e-001 -5.7926056900240400e-002
      1.3468193629347136e-001 5.4379592143412564e-002
      5.5300447446246154e-002 -4.7670285081370445e-002
      6.0037903551342260e-002 -4.9140916702476264e-002
      -1.8349557698634783e-001 -1.7560810330746305e-002
      -2.0675800008648590e-001 -6.0336785300672227e-002
      8.6168494586803174e-002 -4.4333416398846852e-002
      -5.9505060458520380e-002 5.9299560840285113e-002
      3.7922053657143080e-002 -2.4258472371470999e-002
      -1.5505088336089941e-002 -3.4243895592763942e-003
      -9.2927256060212418e-002 -2.7243240111650795e-002
      4.8819716876994636e-002 -3.1769294728028072e-002
      4.6745270075964976e-002 -3.6537689942879273e-002
      1.2130489269270784e-002 2.7760634111196138e-002
      -2.4376401427088565e-002 -8.7835413129047774e-002
      4.9097492044588964e-002 7.7234531935061537e-002
      -2.5491649619541958e-002 -2.5379224383606503e-002
      -2.9006152583859971e-002 7.1895290268960410e-002
      -1.6259743804593677e-002 -1.7864718009532637e-002
      -7.1559120704251661e-002 -4.4173083572536569e-002
      -4.9926695287203844e-002 -8.1132121387176487e-002
      -5.1024825850347337e-002 7.1746590307667377e-002
      8.0088727059583434e-002 9.8999140669723595e-002
      -1.3263888513252416e-002 -9.9487888629198641e-003
      3.9920622258240196e-002 1.2971676566198595e-002
      6.8295483865424583e-002 -5.3758430461189319e-002
      -2.2480060420073694e-002 -4.1518972309942219e-002
      6.9937523465709417e-002 1.0883820561774945e-002
      8.6272460628748198e-003 -2.2463706927973330e-002
      -9.8576828875425390e-003 9.7210656003604456e-002
      -7.9348357752121595e-002 -3.4796747858308790e-003
      -8.5549166090714113e-002 -5.0191272943340436e-002
      -5.9255787854540443e-002 1.4140391702737273e-004
      6.4792392078859382e-002 1.2419180281222627e-002
      -4.3990773608063215e-002 6.3894441458318997e-003
      -3.0347936785624727e-002 -3.0371214016433626e-002
      2.0258413227185381e-002 -2.7061498143000365e-002
      -4.6215421554296414e-002 5.7873807065689908e-003
      -7.0874220251914477e-002 -6.8049667350894974e-002
      -6.7315425537842782e-002 5.1215811030728704e-002
      -4.7491042361386168e-002 1.2185888851663858e-002
      -1.8446055688163356e-002 2.2212942863712028e-002
      -5.6014109189313566e-003 -5.5080192631663319e-002
      1.2004841840865610e-001 4.6688186521271269e-002
      -4.3317129999144969e-004 -2.9497120547526508e-002
      5.8052673676286881e-003 1.2240891731640098e-002
      9.5150189401175796e-004 2.5059404814300780e-002
      1.5882012088563616e-002 -1.0830695292181185e-002
      -8.2485282279925812e-003 -1.4082556588735405e-002
      2.0505512180716431e-002 1.6785543652665168e-002
      -3.4168268085628672e-002 4.1068745701690777e-003
      3.5344916894251878e-002 5.2904197546335088e-002
      7.6067435782291401e-002 -5.5694437492569700e-002
      2.4152060709205902e-002 -6.0234434904610737e-002
      -3.4807158533006755e-002 2.5325059037896685e-003
      1.0321240271429664e-002 6.6510845792010803e-002
      -7.7434302152837198e-002 2.8162411830271881e-002
      -3.7623449748562493e-002 2.5306839540836398e-002
      -4.4343478006521546e-002 -1.1171027116510858e-002
      -3.0199375623004072e-002 1.9019872361896107e-002
      5.5840237824485904e-002 3.6856129907943631e-002
      -4.4979075232533680e-002 3.3655792477125274e-002
      3.5130907544146509e-002 1.2526538150361559e-002
      -6.6541270874502026e-002 5.1835917931238214e-003
      2.7033455098812442e-002 1.6347105993712488e-002
      -1.1204637035557614e-001 -4.2875695307481004e-002
      6.0026311235418881e-003 4.8940636857978961e-002
      2.5700599913198283e-003 4.0941035111524179e-002
      5.9574004457596474e-002 2.8889087738332032e-002
      9.0041215591203955e-002 3.1159898152672835e-002
      -1.7839712092140775e-002 -2.1933527601892325e-002
      -1.3418491322029556e-003 5.1558851669893074e-002
      -7.7217614020519312e-002 8.9125421124489596e-002
      -3.6817412965217025e-002 4.0939647637484901e-002
      1.3820944628691474e-002 -1.1190508069610622e-001
      -2.7081504715824982e-003 -4.5413162324501315e-002
      4.2376618663629254e-002 2.7534702518722937e-002
      -9.7891382997654236e-003 -5.0480554654652739e-002
      9.4561061083806887e-003 -4.3889230626924826e-003
      5.4821315059667218e-002 8.6832564469639332e-003
      1.3577893793503010e-002 3.6512878089803850e-002
      3.7857729093617773e-002 -5.7902190674390432e-002
      -4.9240246500109310e-002 3.5920082189528010e-002
      -4.5280233895101447e-002 -1.4773760844943093e-002
      -6.3611470043585796e-003 2.0554184111803320e-002
      -4.0594319085992717e-002 -6.7795040010921653e-002
      -1.4875478936104624e-002 -8.3612235371967880e-002
      4.1482141336604541e-003 4.9331444450284506e-002
      -4.6899148581559344e-002 2.0148685748190533e-002
      -4.1241710989330091e-002 2.8364349315597747e-003
      -7.6420066998030486e-002 7.5571288903358387e-003
      6.2608947427285094e-002 -1.1040123230252730e-001
      -5.2780863586396908e-002 -1.8847878437619234e-002
      -2.3068509738881256e-002 -6.2795875474387169e-002
      1.8964047573657609e-002 -1.5099561531658982e-002
      -1.9257699595274343e-002 -3.4153658259973796e-002
      4.4966086930618050e-002 8.5771743744231341e-002
      2.3354583289790842e-002 4.5541640315966553e-002
      -5.3918564734323382e-002 -4.5559657412428664e-002
      2.9947388203026580e-002 1.3784654706972615e-003
      -2.7656656074735476e-003 5.4607971958181609e-002
      -1.7235285609582974e-002 -2.3543198811241347e-003
      -7.0443944975873557e-002 -6.9471280311324988e-003
      4.4935671588997889e-002 5.8231308775681022e-002
      -2.2112963609983532e-002 2.4294021162750954e-002
      1.0619715090608742e-001 4.9228336365285591e-002
      -4.4189845138314116e-002 -8.6242289976705883e-002
      -5.6771886622781667e-002 5.2876629789343418e-003
      -1.6918781629158792e-002 1.9273476495500159e-002
      5.4263284998814991e-002 -9.5487344921713124e-002
      1.4275201222005452e-002 -1.4751769933891370e-002
      -1.0107421782939988e-001 -7.6710510874675791e-003
      2.6082121905253951e-002 -1.9451573539560299e-002
      2.9754383513388962e-002 4.5689146691194074e-002
      -1.2189895204976329e-002 -7.9323999381205768e-002
      -7.0985246647695000e-003 6.5028471367504235e-004
      -6.9448176871293621e-002 -7.6334045488661627e-004
      -1.6557458103723510e-002 2.8808204565261685e-003
      -8.1866954296831509e-003 4.7959226311516966e-002
      -9.4566404602466306e-002 -3.6036122481529008e-002
      -3.8955152352357060e-002 1.0372212265856755e-002
      -3.3489818454588482e-002 6.5240969991797694e-003
      -4.1336609751515055e-002 7.1267739024536397e-002
      7.4465275438144490e-002 -1.2486720039963716e-002
      9.1508249606278860e-002 -3.8137620973103366e-002
      3.4364646227497415e-002 -1.2922587291647631e-002
      5.5627151890666497e-003 -1.4702725564048150e-001
      -2.7434767858187433e-002 9.9883946570342406e-003
      -5.0636235685446999e-002 2.7399971824561189e-002
      -7.8546563205869321e-002 -8.7096238009255672e-002
      3.7354564500339499e-002 1.3677174797872341e-002
      7.7792275065471747e-002 -4.1629058546155173e-002
      -3.6684440087366474e-002 -5.3483178063297783e-002
      -6.3325724815947815e-005 3.0937404891151130e-002
      3.1250108380197560e-002 1.3340583006055865e-002
      3.0512411675588703e-002 8.1626809455076360e-003
      2.0558266595909418e-002 6.0214641200344574e-002
      -3.5064319816760975e-002 -4.8684392844021838e-002
      1.8099722056163274e-002 -7.2263124976071286e-003
      -3.6683942053637807e-002 -4.8855068459949448e-002
      -1.4610809118771179e-002 -3.9731058404782624e-002
      -4.8006946411861408e-002 -3.5030374262097472e-002
      -9.7570768833467429e-003 4.2644124168176555e-002
      -3.8278115521863556e-003 -1.7005743963067386e-003
      4.0548607912535610e-002 6.9200880198680384e-002
      -6.6074360434948262e-003 -3.7850101321455228e-002
      -1.8980160408238921e-002 -2.4382676034277101e-002
      -2.4261848968085076e-002 1.6867904429273422e-003
      -7.2123072125317447e-002 6.8630354208384939e-002
      6.4380366334860939e-002 -3.1022611288048337e-002
      -2.6956157881249487e-004 3.7437056842966339e-002
      7.6422787668435271e-002 2.8661279453700363e-002
      4.0914437263128836e-002 -1.0427578729147527e-001
      -1.0183700890666182e-002 -9.8263392985975073e-004
      1.4885178679368866e-002 1.1344667266808391e-002
      -5.5547387322682296e-003 -2.7503771724932562e-002
      -2.6454848920658046e-002 1.1554435942611949e-002
      1.4020535430419171e-002 -1.9553792192608905e-002
      -3.7524753904681858e-002 -1.8911355648345080e-002
      -4.5621086201441008e-002 4.3829993733010698e-002
      -1.4921264007591676e-002 -8.7856907383978208e-002
      1.0560168163870956e-001 -5.2798678403304648e-002
      1.8179179989421229e-002 3.6495440127930420e-002
      -3.5723898462690008e-002 -4.3000663847486062e-002
      -2.4286126481716221e-002 3.6998675890942741e-003
      8.4457298375893192e-002 -1.8088495418516221e-002
      2.9860002773450363e-002 -1.9385159473488223e-002
      -3.7463658143386314e-002 -3.0639237496381328e-002
      -1.7953460368295995e-002 5.1703162506318651e-002
      1.0652655363458093e-001 2.1258797745849829e-002
      -1.1039480088347211e-003 1.3341331765841494e-001
      5.9278456375501221e-002 -2.8841335937034869e-002
      1.0687434371579116e-001 -3.1707473229954796e-003
      -1.2824482406009393e-002 6.1979476644641707e-002
      -3.1025789976515061e-002 6.9879560319558526e-002
      7.9563082405283550e-002 4.0443962206949766e-003
      -3.6694733012096289e-002 -3.9409008055114526e-002
      1.8820861706300217e-002 -2.1528680513243990e-002
      6.2355822692492244e-003 5.3440115833855578e-003
      -6.7383092050333554e-003 -9.5077830499261801e-003
      -4.0403408903212333e-003 -4.8300018597440632e-002
      -6.1128415144417539e-002 6.3359728859203643e-002
      -1.6415521784824524e-002 -6.8159038075754838e-003
      -7.9123729115134642e-002 2.8476732548699177e-002
      4.0141613864563740e-002 1.9314778184597588e-002
      -2.4881302590744184e-002 -6.2725855409830722e-002
      -8.8424611036733401e-003 2.0466683713551936e-002
      9.6427846052613925e-002 -9.7068081449699813e-003
      4.3766987806862528e-002 1.7824609899808132e-002
      6.9146986450412794e-003 -1.4178871375959102e-002
      -7.5427528224102980e-002 9.2915748099309942e-002
      8.2735500868297914e-004 -9.2599099544359333e-003
      -4.5777931851290928e-002 -3.8849228798134919e-002
      9.8208245972966901e-002 2.8882172731911362e-002
      2.9884355851021387e-002 7.4110778300122901e-002
      8.1030446964816150e-002 -5.5309828034076372e-002
      -2.1003922282594799e-003 -3.1972185810310957e-002
      -4.8582144382593229e-002 -3.2090700709237828e-002
      2.3099167739813038e-002 -2.1644374671877476e-003
      6.6528205659098366e-003 8.8665476660772843e-003
      5.4232532601782138e-002 -1.1244958663562385e-002
      1.6124315612915163e-002 4.1099374462080736e-002
      -1.0308738294136771e-001 -2.9111350188283331e-002
      -6.8983872357564674e-002 -4.6374157061862750e-002
      1.1081370229372248e-001 1.7628519224018247e-002
      5.4050196512199680e-002 -3.0311285140332635e-002
      -3.1117810919464611e-002 -1.0694318482316308e-001
      -9.9399253785839040e-002 6.0602481002376217e-002
      4.0053653769028065e-002 -5.8661613025057117e-002
      -5.3973240253872186e-002 3.6696365382742381e-002
      -8.9484568330030406e-002 -5.6414909198978146e-002
      -3.0536365726552172e-002 4.9862598194723978e-003
      -4.6984411575928718e-002 -3.9285976822225184e-002
      -2.2746375117729801e-002 1.1078675371154022e-001
      1.1666764308385379e-002 5.6991161447131400e-002
      -3.8363620419051656e-002 -3.7792596128581345e-002
      1.0758812858772339e-002 -7.4352974270709242e-003
      -3.3103787145306950e-002 3.7365611188298523e-002
      -7.7001883002588501e-003 -2.6006316221195040e-002
      9.1812348664984098e-002 -1.4276043792331494e-002
      4.8692261011870720e-002 -3.2435498744160518e-002
      7.0640999506199162e-002 -1.7803600034210420e-003
      6.7108059459634273e-002 4.5957543569661620e-003
      -3.5882837664266524e-002 7.0965829682772805e-002
      -1.2509804109489986e-001 6.6447971536099271e-002
      1.1648991615371938e-003 -2.1937594571419389e-002
      -3.9532968568755281e-002 2.1261559061996980e-002
      -6.8375549219907933e-002 -1.2679233796185687e-002
      1.0256008078517088e-001 -5.9250378873117328e-002
      1.0225727161001591e-001 -2.5850489844490520e-002
      4.1186416472027976e-002 3.6406039781828485e-002
      6.3969580990088176e-002 6.2020383783502045e-003
      -1.2663011379739098e-002 4.4330118141240590e-002
      -3.3235855059364529e-002 2.7867023133682956e-003
      9.9650735209462424e-003 -1.3585348087441562e-001
      2.0937510196220789e-002 -3.3759287277673640e-002
      -2.1626774524902071e-002 -9.8216132370349374e-002
      -5.5159901982121867e-002 -5.6246174162579926e-003
      1.1733673402579898e-003 7.6542519837446199e-002
      -2.0438506196623234e-002 3.4465108679020293e-002
      1.2687473586079367e-002 1.0916550233096368e-001
      2.0443669033954247e-002 6.7794802609836419e-004
      -5.7520167384698716e-003 -8.7813906808475228e-002
      -1.0717940398008985e-001 -2.3129418410858069e-002
      1.0250802689890078e-001 9.2016524120558912e-002
      8.3306819442501262e-002 -4.6196406740705688e-003
      4.9504343593419146e-002 3.5866150335203808e-004
      -8.6558896656865301e-003 -4.2469555301192646e-002
      1.0413418765960808e-001 -4.4036495908197713e-002
      -2.4331022874492559e-002 -1.3848092363233247e-001
      -8.1949091254492387e-002 -1.6873698413581384e-002
      -8.5344996882418089e-002 -3.7134734175199170e-002
      -2.7154778347731973e-002 -5.5720988666593061e-003
      6.8057213567073512e-004 -4.1904811208347569e-002
      9.3317167629508035e-003 -1.0096968616812017e-001
      -7.1187318337808753e-002 -1.1368805782589322e-002
      2.7128079202970633e-002 -6.0323212193043090e-002
      -8.5017462676248122e-003 -3.5705771731398418e-002
      -3.7639372823162660e-002 5.3003651787296206e-002
      -1.5979615749426659e-002 1.0228818951260644e-001
      -4.6394094080011647e-002 2.7974076288993965e-002
      6.6654373383679731e-003 -2.9830055123130576e-002
      -7.1610099510688571e-002 -3.0655089813782285e-002
      5.2500751646820817e-002 -6.6583976274382103e-002
      -7.5317788850733827e-002 1.2206216702110510e-001
      4.5173421650954858e-002 8.5175293977719196e-002
      5.2700350814189674e-002 3.5149276753796220e-002
      1.7275482199545099e-003 -9.8328792366322373e-003
      6.8640579696370926e-002 -9.8528621025970164e-003
      8.2323732119184822e-003 -1.0611032360860506e-001
      9.7672516742012772e-002 3.2123177927071728e-002
      1.2001933852405805e-001 5.8534712659357403e-003
      -6.0557084590819127e-002 -4.8666320161964774e-002
      4.0620266605996345e-002 -8.6515195099942793e-002
      -9.8720817054618465e-002 3.0600329006104016e-002
      -6.3371069630197424e-002 -1.0409215775425189e-001
      1.8670489988798018e-002 -9.9833221136054903e-002
      -6.7413672427245580e-002 -4.8224122596879103e-002
      7.0397620764610952e-002 3.9940919109680964e-002
      5.2553682080808571e-003 -4.6901960075283321e-002
      -9.0632061279726575e-003 1.3219800389467798e-001
      -7.9015301386868464e-002 -1.5236194794620525e-002
      2.4897805452928311e-002 -2.0016113976418552e-002
      9.0658298435091639e-004 -2.6787570156416675e-002
      7.1745472655969492e-002 -7.1615713509819767e-002
      -3.7790164308022602e-003 1.2773190985406246e-001
      9.2945025492933778e-003 7.5935610077016005e-002
      -1.0068051264015315e-001 -1.7588708521512671e-002
      1.2576295821761915e-001 -9.1453458025383086e-002
      2.6246955347194002e-002 8.9134771095991494e-002
      1.1044788354549135e-002 -2.6058165097881534e-002
      4.3854342736655040e-002 -8.0313556105114328e-002
      -2.2401933537730755e-002 -4.7681078573214929e-002
      -4.3913324396548326e-002 -5.6161602505635115e-002
      4.9824665057837746e-002 -3.8653543122877006e-002
      -5.4654519170696365e-002 8.4204499449820058e-002
      5.2381813955517775e-002 3.8472285510943192e-002
      -1.3237770689230446e-001 2.5671153700679550e-003
      1.5371722075369163e-002 -3.6587845939462411e-002
      -7.2181343387814334e-004 -3.1618791410725995e-002
      1.7894707594748274e-002 -2.3801683148037597e-002
      -1.9846291675096840e-003 9.3473752122144857e-002
      -4.5043525426279082e-002 4.2571772216997317e-002
      -5.9871082651912766e-002 1.6756550995892579e-002
      5.4911422465123073e-002 8.3210106710957521e-003
      6.1972947638800922e-002 5.8614728131415501e-003
      2.0711040069943693e-002 -1.2348020975446047e-001
      -4.5231230323353301e-003 -6.2442546031893378e-002
      -1.9482612857462188e-002 -3.9422035600367833e-002
      6.1008556558225931e-004 -6.7033935494168542e-002
      2.3539115535254198e-002 1.3491975315993176e-002
      -2.7440302051437047e-004 2.0114334268640136e-002
      5.8626440669513225e-002 -3.6236312751958800e-002
      3.1478290466325679e-002 -2.9131330236266448e-002
      4.0686535115478623e-002 -2.1574552372562804e-002
      -4.3833430670267917e-002 6.0780250473261802e-003
      -1.7461090961849182e-002 1.0564192636054444e-001
      5.0412855258274845e-002 -4.7348003121288748e-003
      -2.2194663753886540e-002 1.3786011244916858e-002
      9.0201161186811880e-003 -9.8398305051042093e-002
      4.5501251950622108e-002 -4.9299373166191908e-002
      9.8417748442680614e-002 -6.7051690689104507e-002
      -3.2660060806084620e-002 -3.2214941691116473e-002
      -6.3771322918155177e-003 5.1609361210986759e-003
      8.1123190928444375e-002 4.1228624335250243e-002
      3.3449089873237435e-002 4.2239825321302174e-002
      -8.0902006110822017e-002 -2.2392433812396880e-003
      -5.0712976644142906e-002 4.7710041612628790e-002
      2.9266665089270534e-003 -9.5813657657939713e-003
      -2.4443682284544858e-002 -1.6184837538203996e-002
      3.1400940400485217e-002 2.6192070698443568e-002
      2.6353925898791791e-002 1.7985771207961972e-002
      -2.9482542681034249e-003 -9.8581213988125999e-002
      -3.6570214024048774e-002 -4.6994796131471284e-002
      3.5314767109582215e-003 3.2439255446171884e-002
      1.8888482835352723e-002 3.5295139074011224e-002
      3.1320766577263930e-003 1.3591080606170820e-002
      -3.7604008633581341e-002 7.7265825900327883e-003
      6.5705782719123446e-002 7.3691673244507441e-002
      1.8591032292318822e-002 2.5024142008209745e-002
      4.8550482466539591e-002 -7.4888575702283561e-004
      -2.2376204155584875e-002 6.0187389863010074e-002
      -7.6537635297715852e-003 -3.2499198486658928e-002
      -4.7773132396436296e-002 8.0700428470217911e-002
      -1.1384057800664611e-002 -3.0125281423674610e-002
      5.2920242812606919e-002 8.3938233710179375e-002
      1.8663525227849299e-002 -4.7238187905135016e-002
      -2.2144051457289298e-002 4.4610780951031319e-002
      1.1094951927851445e-003 2.7630641055108617e-002
      -7.5903395537641624e-002 -2.0273133587458868e-002
      2.1723705802924934e-002 5.0213906278710314e-002
      9.6025477882122224e-003 3.4920815084583778e-002
      4.9879437988320674e-002 2.2918671303453576e-002
      6.2361338970412489e-002 1.1170263690514140e-002
      -2.7879220588808745e-002 -8.5005468581494101e-004
      -2.6212389361703493e-003 1.3049915994916333e-003
      4.4210320674556478e-002 -3.5129770210565577e-002
      2.3787391671163484e-002 2.8138544326644681e-002
      8.3617006733018362e-002 3.3434497436463359e-002
      1.2373469218954821e-002 4.5931807857500340e-002
      -7.1228745540405800e-002 4.0714233854015618e-002
      -2.8639664615627270e-002 3.1727356815671105e-002
      1.9221102583645910e-002 2.4785494296898831e-003
      -4.5172634208580963e-003 -5.1201922189870470e-002
      1.5323576565873367e-002 1.8926321720416211e-004
      -6.7294621632014353e-003 3.5549063189274588e-002
      1.8832913063394109e-002 -5.5997383366706427e-002
      1.7372266338684061e-002 2.5810528991817758e-003
      -3.4499059457939033e-002 -5.7068067625899714e-002
      -3.9604550598960474e-002 1.1740945916351400e-002
      8.0848052906549225e-003 -1.3152608902282269e-002
      3.2859385331514841e-002 7.0523679600786732e-002
      -1.5735829399807923e-002 4.1960297836703637e-002
      -3.9109543509154319e-002 -6.3117940430457542e-002
      -9.5296111770436197e-003 -1.9679156234548866e-002
      -5.0252371014508539e-003 -5.6519669708762856e-002
      -3.8374726454709421e-002 -6.3792804696655422e-002
      1.0426538455145892e-002 -3.6273375007058335e-004
      -1.8930833225770813e-002 -9.3451000187678407e-002
      3.5302745693304709e-002 3.7101439135532099e-002
      3.8145047779464279e-002 1.7005517022537379e-002
      -5.8299993414639102e-002 1.6026663755196617e-002
      -6.9648360354423428e-002 -5.4221135155199725e-002
      -7.2577557355004750e-003 1.1279437207997055e-002
      3.9226954694352653e-003 8.6357520023531892e-002
      3.1413562882797112e-002 -5.1806794730157132e-002
      -9.3530932483861781e-002 -1.3489726527015749e-002
      -2.0199532627962345e-002 8.5480785425369101e-003
      9.1338418677699179e-002 4.6375650886202852e-002
      9.3070450007427238e-002 -3.0837766258403287e-003
      -1.8918193374193992e-002 -2.6133583610700398e-002
      5.7606551169729972e-002 -3.5075180372160564e-002
      -9.7343832363844876e-003 -3.2835369502229268e-002
      -1.9036119039094381e-003 5.0928765345436078e-003
      3.3976846532656783e-003 -9.6307312388558327e-003
      8.7618278966860566e-004 -7.4929469503565334e-004
      4.3028733322259417e-003 -4.6174103055564835e-003
      -5.0243034617089878e-003 4.9164454044062526e-003
      -7.7404082065187412e-003 -7.4930674187775386e-003
      6.4339377500017680e-003 -1.0249067598700149e-002
      -9.7199076358318731e-003 -6.2840798383600877e-003
      -2.4693631986130583e-003 2.5571188699942105e-003
      -4.7997865082905480e-003 -6.1760355151996901e-003
      9.4624460660269714e-003 8.1235187724211701e-003
      7.0765683225005585e-003 4.9675376420954664e-003
      8.6332120947426889e-003 1.8127942481816644e-003
      -9.9802339239919409e-004 1.0905323333965237e-002
      6.6450579072904383e-003 -5.7787412621494406e-003
      -3.8027940099316111e-003 -1.0040033245665159e-002
      -6.7707802530220292e-003 1.2857913738343553e-003
      -8.8117123751824192e-003 -6.0832977297283473e-004
      6.7106294209710602e-003 4.6521707145532193e-003
      8.7850007346562103e-003 6.7175619040486610e-003
      1.8783345810083711e-003 4.4313210829874435e-003
      -9.7247608235000189e-003 6.1026071237459088e-003
      -9.4535085672311763e-003 -9.8141661722331627e-003
      6.8988174487772426e-003 2.1207394604121424e-003
      -5.6388524969387581e-003 1.0796162371533673e-002
      5.2110457235924786e-003 -6.1267492105398606e-003
      9.2751419765964224e-003 -7.0594236170570474e-003
      1.8224208235541341e-003 -4.6849011884824024e-003
      1.7926329089055996e-003 -8.8695806539368927e-003
      -7.3927441834929957e-003 -5.8979470136793482e-003
      -1.1319529825442127e-003 -3.2825713880609226e-003
      7.0965192685047513e-003 8.9259599104669438e-003
      -6.3066233693328463e-003 -2.8247770804946701e-003
      6.7454022530445317e-003 -1.0599055262547105e-005
      5.4289662664442906e-003 -8.4362128755776245e-003
      1.0520879335919626e-003 4.8913385318549100e-004
      5.6996417498903279e-003 -4.7564389920075481e-003
      -9.0168350861027525e-003 -4.1871716037676583e-004
      -5.7445154638083463e-003 2.0568433349091794e-003
      -2.9743094734201460e-003 -4.0279705088277088e-003
      2.7131630292582991e-003 6.3098904729737141e-004
      -1.7679571083467711e-003 -3.9517232403715082e-003
      -4.7816694652116501e-003 1.8938396392028151e-004
      5.9055141575970124e-003 8.7072657622701190e-003
      -1.2897668101217671e-003 3.9040813931868054e-003
      4.2862897199121670e-004 -8.1668190821933186e-003
      -6.0325617281681504e-003 2.3250247359099144e-003
      6.9255599146952748e-003 9.3922577406753745e-003
      -6.6758946596164673e-003 8.6703180572702632e-004
      1.6973685835790279e-003 3.2982301998318248e-003
      -7.9443188645930366e-003 -1.6500742110033923e-003
      -1.5339843336143149e-003 -8.6613951669302063e-003
      -9.0910654542119933e-003 -2.0660247563159756e-003
      8.8878781777671466e-003 6.9884524123242312e-003
      -7.4573252527929115e-003 3.3401159018095275e-003
      3.4230551930663818e-003 -3.6422073164002308e-003
      9.3399271452854725e-003 -4.7086313785963084e-003
      3.2049836077634067e-003 1.7988452121976224e-003
      4.0564193465544279e-003 4.3073525097104730e-003
      2.6862189569708795e-003 7.2963862264340418e-003
      1.8359561515716913e-003 5.2861147524464226e-003
      4.4436802513233070e-003 -8.7307044582460320e-003
      1.4817730019927422e-003 1.0961364021802188e-003
      -5.9370169381947700e-003 -7.0445441850092846e-003
      4.9569756843653359e-003 -6.7625224618853771e-003
      6.4327121987654131e-003 -3.8885740762368108e-003
      -6.4870768216066287e-003 -6.4183339640380118e-003
      -3.7335727750158415e-003 5.7403264480069931e-003
      9.0790255240448640e-003 -4.8269277481782832e-003
      5.6610569969260073e-003 9.2023480677284122e-003
      6.9710486583941507e-004 2.0509418873920697e-003
      -2.0756838578598891e-003 6.4560886669436284e-003
      1.0063617021621514e-002 2.5074619367356729e-003
      -1.2123109072075453e-003 -1.0113253473857067e-002
      7.5485149623311983e-003 -4.0752366588651849e-003
      -6.6319147392033479e-003 4.5016144719902005e-003
      3.7146900780751438e-004 -2.6774715603792450e-003
      -7.2929534474365900e-003 -9.0083288847944507e-003
      -4.6842206041632474e-003 -5.6858097635323658e-003
      -8.6484624414254318e-003 -6.5644920412236017e-003
      -7.9681122466713859e-003 -5.6173946887944654e-003
      -4.4950649741422842e-003 2.3303300290609093e-003
      5.1088348683784503e-003 -8.7515711720763598e-003
      -3.8513691631232808e-003 -1.2818272605237735e-003
      5.0291132899430296e-003 1.6008984824318160e-003
      -3.3587878929641920e-003 -5.9637499528404749e-003
      1.0567208886209057e-002 -3.7788138373922712e-003
      -8.0005714526079248e-003 3.3479654522165316e-003
      -4.0903113030689468e-003 8.8561550368456265e-003
      3.2426543192735097e-003 -3.2159055843531906e-003
      -4.6343275242074202e-003 -1.8107379611075928e-003
      3.9773476333540970e-004 -3.6084208457910095e-003
      -9.0239731569742160e-003 1.1009937959556655e-003
      5.2136992195162832e-003 7.2074510864608837e-003
      5.2823373650158593e-003 7.6135404604556122e-003
      2.5108605961490088e-003 -5.3684217951314051e-003
      3.9231960929087090e-001 -3.4154032017739040e-002
      1.3269831538914986e-001 -2.6858144346626096e-003
      1.7822718992606245e-002 8.4927792349278525e-002
      -2.8364386951205196e-002 -5.9479136375708598e-002
      -7.1448750870724859e-002 -5.4056845064638009e-002
      -1.0565801475769703e-002 1.4574173603457323e-002
      6.1661364919068283e-002 -2.6224834533820955e-002
      4.2248248816007979e-002 7.2819939966380920e-002
      1.0478408677988425e-001 -3.5482030129516159e-002
      2.8138266955317352e-002 1.3305461376085465e-003
      6.4424751821147624e-002 4.0150192572173032e-002
      8.3089425492023417e-002 3.4723931797960017e-002
      1.1473446356662706e-002 -8.5834086887738664e-002
      -1.7072109608635420e-003 -1.6679143183676460e-002
      -2.1348495957073301e-002 2.3170329325770626e-002
      1.0378782297726019e-002 1.9563583502764093e-002
      -8.7034209368004392e-002 -1.3034776907020190e-002
      9.2356820054117286e-002 5.4394289320137873e-002
      -9.2870640786846384e-002 1.1405406019386002e-001
      -6.5238142964683582e-002 8.1153698834949495e-002
      -1.2904433110445110e-001 -3.1525932884783149e-002
      -4.1130482721309931e-002 1.0764973995584605e-001
      -4.1547204559099537e-003 -1.7146938671293681e-002
      5.3813998348510424e-002 -4.3677518062165979e-002
      -1.8672816230435620e-002 1.0007781731006316e-001
      2.0767143859433877e-002 7.6607190607173969e-002
      2.4755913663878998e-002 -5.5719616802991638e-002
      2.2997913583238910e-002 1.1165323483061030e-002
      -3.4117774675110124e-002 4.3007616245552348e-002
      -8.5104085353414113e-002 -1.8040722272202839e-002
      2.1111235858658477e-002 -9.5031351368432375e-003
      -8.0509753469122161e-002 -5.4637167131116299e-002
      3.9145193823244363e-002 -9.2824990105274934e-003
      6.1915063487256505e-002 1.8869214369131415e-002
      1.1605669232228956e-001 5.8678126747731110e-002
      -6.6651851802512060e-003 -9.6006560827339618e-002
      -1.3857924778323207e-002 5.7384323780237494e-002
      4.6360885767941541e-002 -9.5738517773606188e-002
      2.2070545233952580e-002 -6.1084653119363175e-002
      -8.6366524558288790e-002 -7.4201294026657441e-002
      -1.7674944220358712e-002 -4.9724088308235069e-002
      3.7267849657321155e-002 7.5988806114216170e-002
      6.2010826961709828e-002 -2.1299891083372182e-002
      -2.7491680149463023e-002 -7.5095033523073104e-002
      -7.8023129144544359e-002 1.2502851263621592e-001
      -5.9887885956299340e-002 -9.1013174224965337e-003
      -3.3324873029167604e-002 -4.5720518381183112e-004
      -9.3125148878518346e-002 3.6459479600672202e-002
      -1.3099928073064693e-001 8.9984103235105972e-002
      6.5203524236412611e-002 4.1542435576410984e-002
      8.5748520291938940e-002 6.0382031551717778e-002
      6.5295590212904667e-002 -3.7785614740082428e-002
      -5.0106046834749757e-002 1.6971012279217018e-001
      3.1810128978671137e-002 2.1607548583848012e-002
      1.5327671663818990e-002 -8.4929284118995418e-002
      -1.3481171282336188e-002 1.8224810579513889e-001
      1.6135475258889173e-001 -2.2298438501567792e-003
      5.3567324432922281e-002 -9.2709645610237035e-002
      -5.6276259989734449e-002 -7.5513970788301021e-002
      -2.7720649744454842e-002 -1.1815102184326805e-001
      8.0344507214842709e-002 2.5279471696460484e-002
      -1.0903476593073171e-002 -4.2166138725215817e-002
      1.3837009179034359e-002 1.0588911945505591e-001
      3.7743477113125416e-002 2.1141919558272250e-002
      -3.3591170418375521e-003 -1.3493804277900442e-001
      2.3942387075094784e-002 -5.3481737925823683e-002
      -4.8030604326469779e-002 -2.3831493940909047e-002
      -1.4607752343683202e-002 -4.5499190908442094e-002
      1.8587798175193120e-002 7.7501813936754343e-002
      1.2362444881068075e-002 -1.6208193211016655e-002
      -6.4803923220651052e-002 3.2786799817883398e-002
      4.8939642381106943e-002 1.3859898676611042e-002
      -7.3369191511503590e-002 4.8282458839334838e-002
      1.9352738949001656e-002 -6.0098455725129639e-002
      1.7256306755106213e-002 9.8916972273261614e-002
      -1.4576335436197655e-002 -2.6411150633384398e-002
      7.3596921387715702e-002 5.1104029488596645e-002
      -8.0130392828341654e-002 -5.7370583347877757e-002
      -1.2579984396738091e-004 1.1932271791627574e-001
      -9.8610955711471229e-003 5.8709358209889347e-003
      6.8598288131835161e-002 4.1185731949008604e-002
      3.5807531300739919e-005 -1.3190692306929206e-002
      -4.1456508733786201e-002 1.7876598691531423e-003
      -6.0900312764056649e-002 5.6791771399658256e-002
      3.4051300220620993e-002 1.2129286292606744e-002
      1.3937963231117259e-001 3.8633554125059429e-002
      4.4243972130466186e-002 6.5270558091550079e-002
      4.7355166074360543e-002 4.5924982966062684e-002
      -1.5921422113927974e-001 -7.6527456920080186e-002
      6.1995939191560930e-003 4.5207806365255628e-002
      2.8681182542782825e-002 9.1256003121626295e-002
      -2.2656167570712767e-002 6.0770483400987146e-002
      9.6011195185760831e-002 2.5871253321750300e-002
      8.1785825643053563e-005 2.8756058354236069e-002
      3.2241485897810770e-002 -3.6258602929825398e-002
      -4.9478049314275125e-003 -5.0084955950418654e-002
      1.6202702683326535e+000 -1.3311216675101498e-001
      1.1714406477773280e-001 1.4535467165488375e-001
      1.1861081474568771e-001 8.4174968578315953e-002
      -4.7353176359028739e-003 -9.1674414717891090e-002
      -1.1355238775108942e-001 1.5372629269528582e-001
      1.8661034466226821e-002 1.7119425223257370e-001
      1.7835795851767483e-001 -2.5989291374108821e-002
      1.5231791520516150e-001 1.3712567412290597e-001
      1.6299325786155558e-001 -9.3697671989063161e-002
      1.8268535085636597e-001 1.0821524743962979e-001
      7.7577333032613549e-002 9.5371456816489342e-002
      1.4530474387860831e-001 1.0309557908918775e-001
      8.0099234809791905e-002 -1.4143329529516896e-001
      1.9078242415066168e-002 -1.2242068729110719e-001
      1.0400076726865029e-001 6.8634822921210675e-002
      -4.2097321732494287e-002 1.1239719620811034e-001
      -1.1590569775126176e-001 -6.5915034881920090e-002
      7.9816666572576869e-002 8.4001649727705394e-002
      -1.9153794925553608e-001 1.1555718364315436e-001
      -9.0714685235214157e-002 1.2449260444125067e-001
      -1.9037428460875092e-001 -9.2456782201589149e-002
      -7.4951618958109548e-002 1.1943147242749311e-001
      -3.8812557744871507e-003 1.9831192022422277e-002
      6.5800365589467252e-002 -9.4029388047550108e-002
      1.6748627037661817e-001 1.5671920460175792e-001
      2.8147174445396501e-002 1.0748516520165520e-001
      3.9745770904299059e-002 -7.5471115889934479e-002
      -1.2063493259803916e-001 1.5263594536451233e-001
      -1.1006680504758942e-001 1.4276548544409814e-001
      -9.4383425425730375e-002 -5.6272819606258281e-002
      -1.3007130444650610e-002 -6.0923078160947594e-002
      -1.0974999736355247e-001 -8.9885942156022441e-002
      1.7210873350091649e-001 5.6909870282242515e-002
      3.6488185185506679e-002 4.5065764491456752e-002
      3.4459203669998939e-002 1.9716774005882351e-001
      6.3518649817274980e-002 -1.8821142031153407e-001
      1.4245932234504641e-001 8.0157139343648265e-002
      -2.8978818244278871e-002 -1.3245856590809610e-001
      2.1881811486158687e-003 -9.6737193144600331e-002
      -6.2045130484568105e-002 -7.9706433211164024e-002
      -5.9873184181274235e-002 -2.7358484142267221e-002
      7.9803753413510176e-002 6.9525398608713193e-002
      7.8358295082901989e-003 7.8466776010380740e-002
      -1.8268749380933255e-001 -8.8707988295180840e-002
      -1.5179898415290566e-001 9.6574116703710536e-002
      -5.7953031415307107e-003 -5.2493423038626114e-002
      -1.1514212146700208e-001 3.2961483132224655e-002
      -7.2548486312872959e-002 5.1123784791977385e-002
      -4.0840670936443439e-002 4.8934587240893668e-002
      9.3530591094571500e-002 -6.3333396141665235e-002
      5.2040065247067537e-002 2.0785975118137096e-001
      4.0616774432314318e-002 9.7120143752467705e-002
      -1.2455599696301185e-001 1.6724482592531700e-001
      5.4167790938678878e-002 1.6938667872245622e-001
      5.1625321864626497e-002 -1.3197431734530507e-001
      -1.3893316003739853e-001 6.4433362305790720e-002
      1.0734653992894455e-001 1.6590220038631720e-001
      6.9817647822861081e-002 -1.9195070202002759e-001
      9.3124148757043959e-002 -9.8429747176801169e-002
      1.8048868451760149e-002 -1.8439899881838728e-001
      -9.2205568626693712e-003 2.5822835138228643e-002
      3.6089521847174622e-002 1.3009936261780075e-001
      -2.2044420528620165e-001 5.6379575496993233e-002
      -5.3713118011862654e-002 -1.4318361644804584e-001
      -1.1528733507723365e-001 -1.6009509313724518e-001
      5.6719433044119597e-002 -7.0393110225562619e-002
      -1.4840587057751911e-002 5.4891487957334395e-002
      -1.2275383236089461e-001 1.1814870618396476e-002
      7.7269292411120379e-003 1.3436810100581850e-001
      -1.6586863207223532e-001 -2.7106780793110868e-001
      -6.5586935574993580e-002 -4.3049937901797628e-003
      1.5046627654735056e-001 8.4015542350399805e-002
      -1.0998184826051483e-001 1.1979556778754995e-001
      6.8967709369252395e-002 -6.8600809636617757e-002
      4.9542600678407440e-002 1.0186459419076181e-001
      -4.2762406195052727e-002 4.4025959915461488e-002
      1.3279847949153667e-001 1.0905821857437559e-001
      -1.3356254849457719e-001 -1.3975519155082392e-001
      1.5552843631067231e-001 1.2480667913355339e-001
      -3.4003339761123560e-002 -8.6534756217589465e-002
      1.6895427241963512e-001 1.5039414481501967e-001
      -4.3376310513361389e-002 8.3437180640790698e-002
      -1.4508523834039327e-001 1.6791239089070401e-001
      -1.1878608943474657e-001 1.1853554614260424e-001
      6.0634521444036117e-002 -1.1977204695263954e-001
      1.1984881742171082e-001 -2.0855883095478217e-001
      1.0342702754960580e-001 9.6473126044951812e-002
      -1.5663294747200104e-001 4.2637234074628459e-002
      -1.7908322820798200e-001 -8.9284338592658552e-002
      -1.1863717956706331e-001 7.0506465051248010e-002
      -1.4909226110743479e-001 9.5952414005254283e-002
      8.7489169829178981e-002 6.3008435726942702e-002
      6.0962335404439870e-002 4.7334237634315830e-002
      -1.2615120942228017e-001 1.3278615746712710e-001
      1.9637225131715988e-001 -1.0106571379130415e-001
      -6.6119921349734795e-002 5.0497262400863475e-003
      -7.3014559348459407e-001 6.2740492369583414e-002
      -9.9703620035192647e-002 -7.7639336399347073e-002
      -7.6256042277900074e-002 -1.1590323438758757e-001
      5.5606412539659138e-002 6.1985552302211394e-002
      -1.9286339130135537e-002 -5.2992709229763027e-002
      -6.1613669706180110e-002 -1.3642014903230451e-001
      -2.5019684327752523e-002 5.2075591469020216e-002
      -1.5085746175192394e-001 -1.7058706411127050e-001
      -5.3695083933910537e-002 6.8418146055868892e-002
      -8.3640201217390187e-002 -4.2144759966490634e-002
      -1.1089498183485745e-001 7.0009497532983432e-003
      -1.1903008469045938e-001 -1.8253626098195006e-002
      1.3508206210388365e-002 6.3230273174007007e-002
      7.7410961052375771e-002 -2.0042798394800321e-002
      3.3644202739632409e-002 -7.1567724676512373e-002
      5.0308185722992477e-002 -6.1933794883236630e-002
      4.3626569762418195e-002 1.1411400239445213e-001
      -1.4666374543645150e-001 -3.1956912657587384e-002
      8.5222208851495646e-002 -1.0296917968759160e-001
      9.3508637333366326e-002 -8.3163890796973158e-002
      5.8629352483163102e-002 1.2047592483714349e-001
      2.1658920842337604e-002 -4.7708997205742447e-002
      -1.0651355441970897e-001 8.2100998093730976e-002
      -1.0696353153898903e-001 1.2660826086360907e-001
      -6.8225491486769152e-002 -7.8784605796527046e-002
      -1.6970947659084575e-002 -1.2277059990643754e-002
      -8.7224030945653841e-002 -2.7326980993124576e-002
      7.3519963203093883e-002 -1.6278148129675804e-002
      1.1685122249820455e-001 -7.8782661011839936e-002
      4.2742352067101322e-002 4.1578058606920779e-002
      6.0909883673594331e-002 -1.7824194292357255e-002
      6.5411277192350084e-002 1.4479107490630805e-001
      -6.2317060757344646e-002 -6.0405878149569193e-002
      -4.6533212504301459e-002 -4.3581420783557938e-003
      5.3499492373969768e-003 -1.7092304520749130e-002
      4.0932082440789712e-002 2.6958456822275711e-002
      -2.2744515638764670e-002 -8.1729509834815070e-002
      5.5783173295328198e-002 6.9484995302788968e-002
      -1.2273618141181493e-001 2.8955099336172213e-002
      6.3531151849206866e-002 7.5093040490734217e-002
      4.6060978189201428e-002 1.3942795166306185e-001
      -3.9812709003975127e-002 -5.8559015086233686e-002
      -9.6412784951628430e-002 -2.9082151446278237e-002
      1.6228352469184837e-001 6.4268802278331146e-003
      1.1136624236927925e-001 -4.6911259076176416e-002
      6.2786597241548947e-002 8.1962687142066989e-002
      -1.6409633072806570e-002 -1.1796897875412544e-001
      7.4094541530251107e-002 -1.3228303629464364e-001
      5.2229092715031913e-002 -8.7694893639087987e-002
      -1.0767392651004527e-001 -8.7450695579701088e-002
      -9.5044711955806396e-002 -6.0313067634095281e-002
      -9.7786093751692477e-002 -1.2409560661052232e-001
      1.3322779554177097e-001 -3.6208425956444815e-002
      -3.7985081059418356e-002 -2.5784010316284137e-002
      -1.1834267501972839e-002 1.1281879959668131e-001
      5.8263121590165882e-002 -1.1846141209811788e-001
      -1.7455995080999204e-001 -1.3801493297241288e-001
      -9.5882312300137301e-002 1.1076217772569380e-001
      -1.4348340507315913e-001 1.1145234320877549e-001
      -1.5718682649110614e-002 1.0142744360507584e-001
      -4.7270962003405366e-002 -2.9534172451656678e-002
      -5.1756016646077152e-002 -2.1037085439050130e-002
      9.9860295543838119e-003 -6.4027754225445127e-002
      -5.3139796881373678e-002 5.8810757502376701e-002
      1.3558418738689679e-001 6.8719315710235929e-002
      -5.6932148059761392e-002 4.7641250756926469e-002
      5.5786788068319153e-002 2.6361776040697241e-002
      5.2658230782968017e-002 8.5950932574081623e-002
      5.6080189410785677e-003 -8.9816296853111363e-002
      8.9719491208799879e-002 1.7586294668340521e-002
      2.2476727725429624e-003 -1.1200879613871855e-002
      -1.5205702588203338e-002 1.8095665169308595e-002
      6.3668450951423969e-002 -6.1102751077280172e-002
      -4.9440632047177198e-002 3.7364033661718567e-002
      -1.0664626543693985e-001 -4.4080323524419318e-002
      3.5488502317135122e-002 -5.0929688760953842e-002
      -1.6617956078670389e-002 -7.7523839663690253e-002
      1.6446961373473423e-001 -1.8931431210476544e-002
      -2.8310614377739028e-003 -8.3413858820569758e-002
      6.9566038838542593e-002 8.3403009254418112e-002
      -1.2292622527232364e-001 -1.6628897560864642e-001
      2.2786578808972276e-002 -1.7941455576542437e-002
      8.9979529394388025e-002 -7.1782763689028070e-002
      5.0521332088397777e-002 -5.4241569556699606e-002
      -2.2437399777905882e-002 7.2534195789791922e-002
      -5.5136629565055491e-003 6.5391928605794986e-002
      -1.3579919306955965e-001 -1.7675744009739613e-001
      7.8287952424445764e-002 -4.8023224753871684e-002
      1.6817901762120432e-002 5.3934377163587913e-002
      4.1698439504585391e-002 -8.1516181267909632e-002
      4.2014233400123932e-002 -1.5791445798116782e-001
      -1.9203259731403258e-001 -4.9216809408235106e-002
      -9.0012182770306190e-002 3.5423227321571854e-002
      6.7084319503207465e-002 -6.2312468676415517e-002
      -5.3523641686689112e-002 3.4789128062816317e-002
      8.1119543147053622e-002 1.2473994102513141e-002
      -6.1793522383475474e-001 9.2593931028406559e-002
      -5.6520226175851397e-003 -2.5152065823073378e-002
      -1.2262318271144217e-001 -9.9830007853793132e-002
      1.0229032444624248e-002 -3.9072481884185647e-002
      1.5655604011464364e-002 1.1305412258876364e-002
      3.0726033063088944e-002 -3.7397416168019363e-003
      -1.0341587304073303e-001 -7.3430780238720655e-002
      -7.8392537996759229e-002 -9.1188632634782649e-003
      -1.5491550919944965e-002 2.0127729781455002e-002
      -3.5104338777206638e-002 -7.2389329316637219e-002
      1.0021282858474452e-001 2.1647371776881051e-002
      -1.0284694870174868e-002 3.2204422806569294e-002
      -4.0391909555134040e-002 -8.7197553017257148e-003
      5.1658336838518150e-002 2.1522098626833141e-002
      -6.8865517733023893e-002 7.7343497318574275e-002
      -5.6396581047564225e-002 -5.5538008381059073e-002
      9.0058068141252778e-002 1.0125774177633129e-002
      -2.5113814793290373e-002 -7.0966346716905299e-002
      -2.0816584133031498e-002 -2.3526762882413493e-002
      4.2516256735971647e-002 4.2395016677296407e-002
      7.0965190022664784e-002 -1.5989604957904826e-002
      -6.0974306991325835e-003 -4.6732415723409221e-002
      -5.8228647178541156e-002 -2.9781238373814321e-002
      -2.8209117837950864e-002 4.4957236151195491e-002
      -6.4457308447905398e-003 -8.4088845281893448e-002
      9.5135937115401557e-003 -4.0615733637139786e-002
      -3.9368989720691618e-002 -4.7680150844987904e-002
      -3.5418907737181808e-002 -3.8600106953959622e-002
      3.0299222531845436e-002 -9.5921259718688312e-002
      3.4356112659263763e-002 2.4612233831441516e-003
      -2.6488202545856054e-002 -4.2248955842539425e-002
      9.0384324839309402e-002 -2.1002410578164592e-002
      4.2482987126563907e-003 5.1577168180413940e-002
      -3.4774883391107861e-002 -3.1634767599043538e-002
      1.7320261964631507e-002 -7.0804612839487163e-002
      -3.2537411308654993e-002 -6.9100257662261466e-002
      3.7141955843728508e-002 -8.5809353748456281e-003
      -1.0554099537743002e-002 2.6086230383742089e-002
      1.4674963018736517e-002 1.2794930310404717e-001
      -3.5647743283305930e-002 7.2184972132285355e-003
      5.4090343974476353e-002 -1.3908670437207808e-002
      -2.1879441702867857e-002 -5.7029316418003975e-002
      1.5683094144517663e-002 -3.6067001230405307e-002
      5.5765459802087282e-002 -2.9130239313408628e-003
      4.0832234744029437e-002 -4.4954598766112679e-002
      -3.8535456763739875e-003 4.9751819783053229e-002
      8.3163798830634215e-003 3.0523705608206709e-002
      -9.8669261804552322e-002 -5.4364241017061748e-002
      2.4426340681163755e-002 -5.3534697252740480e-002
      -4.6043129347271304e-002 2.5069158747268214e-002
      -1.6224265585817365e-002 -7.7686270691083456e-002
      5.5109504579285880e-002 -8.4927781023353036e-002
      1.2011736461219835e-001 -1.1198840997108711e-001
      9.9686098564590025e-003 -1.0095241705819162e-001
      -5.7495715747592768e-002 3.4361032326198873e-002
      8.9630644303634238e-002 -1.0997032430025786e-002
      -7.0297083012091172e-002 -7.6337756568698859e-002
      3.0981540411774894e-002 4.8753305703071535e-002
      4.7209124550850516e-002 2.2773141472701170e-003
      -1.9315894265454554e-002 1.7684093745198956e-002
      -2.9159473197863359e-002 -2.5030955721470422e-002
      -2.4644318911596776e-002 -7.6424997043197523e-002
      -3.0169250973442769e-002 -1.1544222511229550e-001
      -1.7043934395455304e-002 5.5710439480758024e-002
      6.3539853147925110e-002 -1.4073033909783018e-002
      -3.3845327280399864e-002 -8.4849427406430089e-002
      2.5550094592559337e-002 7.8008741101052825e-002
      3.9123682994233099e-002 1.7265668696321117e-002
      -5.8557617123506768e-003 -3.1012708317777971e-002
      3.3590993415010477e-002 5.8129824065969067e-002
      1.6640910051215166e-002 4.4864284172626955e-003
      -3.2881231858404018e-002 5.1854226007554205e-003
      6.7214577410114981e-002 -2.3045221071531879e-002
      -2.3985005680571901e-002 -2.2895169907890161e-003
      -5.9590515838794343e-002 -5.8385587015959998e-003
      4.7154196993920615e-002 5.6289955876766301e-002
      -2.2413311606119840e-002 -4.8645236510700907e-002
      7.3755075243768467e-002 8.1551994735199560e-003
      -1.2531107156864052e-001 -4.9242910820472795e-002
      -2.2573569073588047e-002 3.1871398301617782e-002
      -1.9931151307987102e-002 -9.1168452274022899e-002
      4.7679925310223296e-002 -8.8433911046495478e-002
      1.1513990950286783e-001 -4.7685214330885108e-002
      9.0047804716004792e-002 -5.2078273909916747e-002
      -1.2309645524379204e-002 -1.2206008957810578e-001
      9.4936664365049932e-003 7.6087560266239182e-002
      -2.5567843826655567e-002 -8.8038704485514666e-002
      1.0063874107437107e-001 -4.4865279388134741e-002
      1.0212990645575472e-001 3.5053886850435027e-002
      1.9294597019545046e-002 6.1113030874856485e-002
      4.2324110808402510e-002 3.1607801089045040e-002
      -9.0964194686660949e-002 2.0893389502883331e-002
      -5.4362570452973796e-002 2.8296865900673932e-002
      5.5121659335647367e-002 -4.1724914243575790e-003
      -1.4879306644461901e-001 6.7391698967678826e-002
      -6.7264537856947137e-002 5.1350832290452848e-002
      6.8473709128725002e-001 -2.1107228038286224e-001
      1.3605319405134500e-001 1.0100835873107618e-001
      1.5546600661854337e-001 1.2953640006737202e-001
      -4.7551424753697891e-002 -2.6088398661615980e-002
      -1.2486029313709161e-001 8.7924190113868997e-002
      1.0663203874807002e-001 1.3207046018968743e-001
      1.3998825345195740e-001 1.6605172388116606e-002
      1.5271640072184470e-001 7.3471394974752302e-002
      1.0762747368312527e-001 -8.8081848419963096e-002
      1.2718148881770847e-001 1.1075186839263100e-001
      1.2450543005658472e-001 1.1434718654086763e-001
      1.0088969490131051e-001 -1.0266373559555350e-003
      8.6671529555332832e-002 -2.5055981564390600e-001
      -6.9253603149935075e-002 -5.0063027225927009e-002
      1.4479445697051185e-001 1.2294767420700710e-001
      -5.8488630363606069e-002 1.8729876917349611e-001
      -1.4113526317080910e-001 -6.2604160669139070e-002
      1.5057210465671736e-001 1.1561977375334545e-001
      -4.5670875031885834e-002 1.1311439058595145e-001
      -6.5919505304469758e-002 1.2614446007628616e-001
      -1.4412565567676275e-001 -1.2483847483907798e-001
      -7.8964687097952971e-002 1.0287573731727558e-001
      2.3396342457264761e-002 -6.2277756886465023e-002
      6.1312673386696388e-002 -1.1921646145698728e-001
      1.0462833267174067e-001 1.1232739922248851e-001
      3.2215522100243130e-002 7.4940266159182201e-003
      6.7201038913421662e-002 -5.8082200582100237e-002
      -1.4351376565141283e-001 1.3523488273693687e-001
      -1.0001189408973557e-001 7.3939498999679984e-002
      -1.0092660132910222e-001 -5.1804289029690441e-002
      -8.3171128814052975e-002 -7.2277557750245663e-002
      -1.2559639983224741e-001 -1.7209653039288092e-001
      1.3254497184345693e-001 1.1196647602758640e-001
      8.2777678319420987e-003 1.0099074855190104e-001
      7.3585576608193148e-002 1.5333554356057255e-001
      3.3811537710179806e-002 -7.8096664900747625e-002
      1.6297996514236543e-001 9.0370121722032737e-002
      -8.5460927741181220e-002 -1.7429892207091863e-001
      1.5301914586691900e-002 -1.5789562378083186e-001
      -1.2833576658709508e-001 -6.8053422882913925e-002
      -2.7662821632201556e-002 -1.4721636416539646e-001
      2.9835491160078241e-002 1.3330315906056375e-001
      4.3690416368751060e-002 9.2099052861204608e-002
      -1.0546933248812940e-001 -7.2015929740367871e-002
      -1.8220748003491732e-001 1.2379382994777401e-001
      -2.0274727594062479e-002 -1.2525599899886586e-001
      -1.6360536006849186e-001 1.2735105328659208e-001
      -7.0290823502604238e-002 9.1630471818487533e-002
      -1.1794633830329215e-001 9.3205847337242936e-002
      1.4762582123382315e-001 6.6393066451501295e-002
      1.1503976578737070e-001 2.5224577520758074e-001
      1.1940090107037135e-001 1.2880682482026506e-001
      -9.3715752318990445e-002 6.6435482350367003e-002
      1.0637351858701280e-001 1.8111908034699631e-001
      9.4134941260701321e-002 -1.0762758796728761e-001
      -1.7826946790773265e-001 8.2969260262285904e-002
      1.3300794986785733e-001 1.8141135088026944e-001
      1.5356993435031593e-001 -1.7422539750738406e-001
      6.7897492938004525e-002 -8.2401133851263686e-002
      6.2197767852368031e-002 -1.3623843495918281e-001
      1.3717675565302939e-001 5.0371820661287876e-002
      8.4913832152387042e-002 4.9349238905730113e-002
      -1.5653565407103170e-001 1.5227756884508431e-001
      1.2026603928879376e-001 -3.4020288090855832e-002
      -1.6344310676287799e-001 -8.7048542872992823e-002
      1.1370900531761828e-001 -1.6640547698777991e-001
      -6.1594920537912871e-002 -1.1755494721559269e-001
      -7.1668721493981360e-002 1.2253184502880428e-001
      -7.4679011554003713e-003 1.5258939264673332e-001
      -1.2418900647298070e-001 -9.9654064232535464e-002
      -1.1798832444643104e-001 1.4138354467512614e-002
      5.0587538316720110e-002 5.0879101039183756e-002
      -7.8755779538305704e-002 1.9299836828392003e-001
      1.7738608134176373e-001 -5.2836415910162617e-002
      5.6502066458385750e-002 1.1510519046326978e-001
      -8.3865558178421507e-002 3.8017808225485762e-002
      1.2813872206986188e-004 1.7440395287518332e-001
      -1.7595356568802492e-001 -1.2844147180482718e-001
      1.4864921742836992e-001 7.4270498781844677e-002
      -7.4351510860768952e-002 -1.5578980379911103e-001
      4.7661701439250574e-002 1.3929318856072037e-001
      -6.9271566544625365e-002 1.5069742333323441e-001
      -1.6903454179848559e-001 9.7769454967681912e-002
      -1.8920811574915611e-001 1.4500234314913715e-001
      1.0828564851967590e-001 -4.3584736454939849e-002
      1.1238460568293679e-001 -1.3951902352763967e-001
      8.3365867690936887e-002 1.5411802930038071e-001
      -1.5570852773500785e-001 1.0073070407906809e-001
      -1.6807853162140768e-001 -1.2182732898807451e-001
      -1.0955110432461621e-001 8.2064972433454217e-002
      -8.5287529322520747e-002 1.0694344612394763e-001
      1.4889127613088307e-001 1.1191234319617943e-001
      2.3614819813147386e-001 1.5293485081911607e-002
      -1.0044639938716811e-001 1.3340264193367335e-001
      1.8470272329767973e-001 -1.4828420180398363e-001
      -1.0726097704892285e-001 -1.2024899613342585e-001
      -1.1191810084400349e+000 4.7373509714281080e-002
      5.5279658598855044e-002 8.2110904015970272e-003
      -4.0129285829294085e-002 2.9688049770140609e-002
      -1.7596848024183123e-002 -2.8690266175391381e-002
      4.9115944673329285e-004 4.5575455061239195e-002
      2.7018688684015281e-002 7.0749891768525754e-003
      2.8515380158461164e-002 3.8552847942014717e-002
      -2.8942152566319369e-002 4.0480403907377220e-002
      -4.2014076277654674e-002 -5.2371268605213586e-002
      1.8560706891084099e-002 1.6191692831034419e-002
      -1.7681035459676812e-002 -8.7535390911292060e-003
      5.3556170390953624e-002 7.5523480863832213e-003
      1.1089780319436401e-002 -3.5677052061684394e-002
      -3.5421138297462430e-003 -4.7761749219418281e-002
      5.7771191287530013e-002 1.0637898259691210e-001
      -2.3152838901330228e-002 4.0877752670203321e-003
      -1.5490719244252289e-002 4.1175594416869549e-002
      -3.7499990461400720e-002 3.7536057581992445e-002
      2.7588679779126695e-002 -1.5629891917235964e-002
      -3.1681153314660634e-003 7.3727821675195593e-002
      -7.6413444869612027e-003 3.1496565822487469e-003
      1.6854052443998839e-002 -1.6200192975450382e-002
      5.8013723635467362e-002 1.0917568568487641e-002
      5.9912622168255304e-002 1.6826758285061749e-002
      -1.5101026441855212e-002 1.1561037123176611e-002
      2.5029215800416567e-002 -8.5246954461937627e-002
      -2.4520018374765386e-002 -1.0415184754395962e-001
      -8.3490371374521141e-003 -2.7433633362291380e-002
      3.9655485450478152e-002 1.3088053635557004e-003
      1.1779119108732788e-002 2.1099471549844068e-002
      2.8381777351889632e-002 -3.9156443988689400e-002
      9.3894288579111067e-003 1.1283240428569358e-001
      -2.6540699044465207e-002 -2.4602633308147798e-002
      1.9127085472471043e-002 -1.7075911039057427e-002
      -3.0421538828682770e-002 3.2540718974458871e-002
      4.1225620317958275e-002 -5.1774225670286944e-002
      8.2732973436049531e-002 -4.8503864348626198e-002
      1.3216964632810135e-002 5.5843978874949608e-003
      -2.4330992412837874e-003 -2.5646131019037104e-004
      -1.1113485341262856e-002 -5.9712260658013806e-002
      -2.0633382603863479e-002 -3.1047841595883426e-002
      -1.4623563442664298e-002 1.1978236604722445e-002
      1.5786519199803502e-002 2.9004117816331023e-002
      -2.5294442826776887e-002 8.2369976907911840e-003
      -4.8522968776963743e-002 -8.6496600998072666e-003
      9.8571845068152232e-003 7.0821043551763593e-002
      2.3585050056019484e-002 -7.7848960062985306e-002
      -1.3711870947757920e-002 1.5967110060987461e-002
      -3.6894724311008621e-003 4.3498699652336256e-002
      2.7947151247469004e-002 4.5593501620066083e-002
      -5.3472947452988971e-003 -1.8155474517323366e-002
      -2.4653319717336537e-002 2.5646620725781250e-002
      -3.0839324169877173e-002 -3.9699114970916272e-002
      1.9332897706888820e-002 4.7773485560440119e-004
      1.3091960952518513e-002 -9.6233184311442607e-002
      3.9186622093089069e-002 -3.1825990378894727e-002
      4.6111408884272904e-002 6.0284455516016661e-002
      3.0912670748611756e-002 -1.5812778529453699e-002
      -1.1758819512025222e-001 5.2558357310724467e-002
      -9.5596403902627122e-003 2.5392860998885883e-003
      -8.7522547706615477e-003 2.4659883485840545e-002
      -1.2432892201905787e-001 1.4540610895233621e-002
      -5.5436815248297473e-002 -5.9751219341819047e-002
      5.4282002740126366e-003 2.7206273092832713e-002
      2.0828205670167244e-002 4.1442153989522328e-002
      2.5512320482539226e-003 1.6857298211306677e-002
      -2.7345641087841023e-002 1.2077780741984422e-001
      1.8482490113835140e-002 8.9745504882677522e-003
      2.0257302382607742e-002 3.2941046143934873e-002
      5.5330758434594222e-003 -5.2459214513805183e-002
      3.5177370417911059e-002 6.4135631442013043e-003
      5.2916332198651141e-002 -8.3297252460762500e-002
      5.0626478277114230e-002 3.9982832749780574e-002
      3.0932160132807231e-002 2.5391901591080117e-002
      2.1263769421587024e-002 1.8786276806581799e-002
      -8.5727209264461739e-003 -2.6966875397338064e-003
      1.7697787118978982e-002 1.4857647241401182e-002
      -2.7197687694457535e-002 -4.2532987910414904e-002
      -3.2058920698110054e-002 4.3879715578502933e-002
      1.3193110139550882e-002 -4.8203055151360905e-002
      -3.0889830444941563e-002 -1.1615006658025193e-001
      -5.2508169352004599e-002 -5.6070175825667524e-003
      -4.0489203745706123e-002 2.4301809315237715e-002
      -5.3990875743153047e-002 -1.3046765482685126e-002
      -2.5792371109839823e-002 2.7975498008826066e-002
      5.8271335736444496e-002 3.4081196948661874e-003
      7.7234851537269250e-002 -1.0237506846733106e-003
      6.2374514575497628e-002 6.7920015340712195e-002
      -8.9256373589277072e-002 5.6440012622563790e-002
      5.7826127840582574e-002 -6.3070296329565010e-003
      -6.2490187828333184e-003 -1.7338851011900264e-002
      3.6498288169266838e-003 -3.6282448635193637e-003
      -7.8140601207650658e-003 -5.0242944498242362e-002
      6.0314757819622859e-002 4.5446674467164404e-002
      -1.1525132744603315e-002 -3.0564085570196915e-002
      2.6613046552735654e-002 7.8862034659575794e-003
      1.4825060469740303e+000 -1.3273303427618328e-002
      8.1409262402344931e-002 2.4383829109156339e-002
      -1.0555395121007751e-002 -7.6198985407473930e-003
      2.9446054267557087e-002 5.0782145927178508e-002
      6.3461595327842413e-004 -8.4486587576252589e-002
      -5.0343457135801394e-003 1.3397024371647116e-002
      -5.8220380089754505e-002 4.4553203022289010e-002
      4.2726416507017258e-002 1.7010494642569804e-002
      -4.7314649013581817e-002 7.0245722862146934e-002
      -1.1010740168370265e-002 1.0053522709648370e-001
      3.9174677432904696e-002 2.4001000017879574e-002
      2.2690086539776784e-002 -1.1104201371811593e-002
      -3.7862243076934879e-002 -1.4974481283693615e-002
      -5.4111262714768536e-002 -9.1930215585401976e-003
      -8.1511453915635145e-003 -3.6105170678699334e-003
      -4.5053969783838345e-004 2.1601886086926734e-002
      -3.3855724888652496e-002 5.2417822901444616e-002
      2.3706100091326506e-002 5.3206422008672809e-002
      9.0138269165654036e-004 9.5286483616934800e-002
      -2.9877752863334075e-002 4.6325861021682742e-002
      2.5571795409106934e-002 6.7090293459082920e-002
      -2.8221912554851633e-003 3.2309183754679720e-002
      9.4305383447258057e-003 -1.7977898308289803e-002
      8.8242705699275795e-003 -5.3544150128553864e-003
      7.1356831790284000e-002 -1.1925230023584608e-002
      -3.9103923685833993e-002 -1.1019612690288333e-001
      8.6140118177087291e-002 -5.7170749793410596e-003
      -2.1501094171628151e-002 -2.2923016821548216e-002
      2.1583111514638719e-002 -2.8309483891804432e-002
      2.6412476685453167e-004 6.5015801598187373e-002
      -4.4193368635457773e-002 7.4304585988343552e-002
      3.3328770625579898e-003 1.1064481563479637e-002
      4.1901499110839520e-002 -3.5703450165168404e-002
      -4.6131157950567202e-003 -7.1238452357813481e-002
      -4.2309373598320554e-003 -1.0048735074810081e-001
      -1.3732797558471153e-002 -1.0644389143029651e-001
      -4.7202084523881062e-002 -2.1213465951125093e-002
      -2.3992037369302274e-002 1.1112055856431475e-002
      3.9788091851498703e-002 -5.9620035291554616e-002
      2.1334932097680703e-003 -3.3271679077870264e-002
      2.0395499193293785e-002 -7.8020159309054149e-002
      -8.5521550521942755e-003 -3.0785287152957717e-002
      1.2790968768824530e-002 4.1435594594471527e-002
      1.2186612049571962e-002 7.5253756841713523e-002
      1.8451957508535233e-002 -2.7715461221702882e-002
      5.9533944935142580e-003 -1.6692338936391746e-002
      2.6253464569524518e-002 1.3680199728614376e-002
      7.2045489329322712e-002 -1.0405135013294075e-002
      -8.4602438675823219e-002 6.6440691572948338e-002
      -1.5356195168648721e-002 4.3477990638774319e-002
      -5.9651092164445849e-002 -2.0186861810421335e-002
      -2.8940532903923715e-002 1.4828391642126885e-003
      -1.7978489944134087e-002 -8.4548074613751106e-002
      -1.1040636016438347e-002 -1.9845166652261662e-002
      -7.1760312483582500e-003 -2.5261170413941533e-002
      1.1585736275849044e-002 2.7473531509289221e-002
      3.3932992394409632e-002 2.6868507697964363e-002
      3.1480361530222337e-002 5.9097222415516751e-002
      3.3093483517760189e-002 -2.2284280795685119e-002
      7.2469242048479099e-002 -8.8956833144264627e-002
      6.3413613018251422e-002 6.9398386615003582e-002
      -7.2604248379843472e-002 -2.7865289761331607e-002
      7.1565159788826729e-002 -3.4727859526639794e-002
      2.2104607107627620e-003 -7.5158683504447210e-002
      5.7716027457468372e-002 -2.3206995410816680e-002
      4.8034259623705680e-002 -8.0913939612405721e-003
      -7.0602643423488043e-002 2.1069121789749040e-002
      -2.8891257551434422e-002 -4.9702946461537473e-002
      4.5881912550273848e-003 1.0886022834524584e-002
      -1.0468885434772819e-002 8.0939536904997816e-003
      1.8214092637013474e-002 -3.7387436760438391e-003
      -6.8813879551842877e-003 -7.4747143737491379e-003
      -2.1949948897018762e-002 -5.9047081576107378e-002
      -2.2684158857101320e-002 4.8012374484098515e-002
      -1.3340714183478224e-002 1.8464580079693562e-002
      -1.6114212202104732e-002 -4.2969318388641643e-003
      -7.6502772393392177e-002 -7.1658975324587704e-002
      -8.9274924189309671e-002 -3.8201804859401564e-003
      -1.6616723086021894e-002 6.2119685165832696e-002
      -2.9557111111278103e-003 3.1802301160532058e-002
      4.4485692099397282e-003 -1.0130193632556839e-001
