<?xml version="1.0"?>
<opencv_storage>
<my_nn type_id="opencv-ml-ann-mlp">
  <layer_sizes type_id="opencv-matrix">
    <rows>1</rows>
    <cols>3</cols>
    <dt>i</dt>
    <data>
      192 192 34</data></layer_sizes>
  <activation_function>SIGMOID_SYM</activation_function>
  <f_param1>6.6666666666666663e-001</f_param1>
  <f_param2>1.7159000000000000e+000</f_param2>
  <min_val>-9.4999999999999996e-001</min_val>
  <max_val>9.4999999999999996e-001</max_val>
  <min_val1>-9.7999999999999998e-001</min_val1>
  <max_val1>9.7999999999999998e-001</max_val1>
  <training_params>
    <train_method>BACKPROP</train_method>
    <dw_scale>1.0000000000000000e-002</dw_scale>
    <moment_scale>1.0000000000000000e-002</moment_scale>
    <term_criteria><epsilon>9.9999997764825821e-003</epsilon>
      <iterations>5000</iterations></term_criteria></training_params>
  <input_scale>
    1. 0. 1.0418271953464418e+002 -2.4449286387648339e+000
    8.3793226658441284e+001 -3.0267915890754331e+000
    1.1019743375797007e+002 -3.1345640749239831e+000
    1.0215433329964924e+002 -3.3798350237563626e+000
    1.0559518937185808e+002 -3.0141733635968007e+000
    8.6935076214487751e+001 -3.1096057918247602e+000
    1.0951541936500450e+002 -3.1307984738317316e+000 1. 0.
    8.6836101360232206e+001 -2.7010551673576795e+000
    7.0261802062270277e+001 -2.9461286886096416e+000
    9.2924576352698438e+001 -3.3570289352598182e+000
    9.0919916296553581e+001 -3.0548257163006540e+000
    9.0486446171436754e+001 -3.2990944273356835e+000
    8.0968511170013116e+001 -3.0075854733509844e+000
    8.9808915257879860e+001 -3.1884168843027694e+000 1. 0.
    8.2580017046086056e+001 -2.4876953741036929e+000
    6.4357813154251872e+001 -2.7794621946973459e+000
    8.5143640186083445e+001 -2.9328207560199848e+000
    7.9110702565481333e+001 -2.5755910266070989e+000
    7.7009678014279032e+001 -2.5626564565744219e+000
    6.9779359086185835e+001 -2.6206779408276195e+000
    8.4190466112050075e+001 -2.8946933257746408e+000 1. 0.
    8.1741151076541541e+001 -2.4420594553503840e+000
    7.2061120080063390e+001 -2.9645645678167130e+000
    8.4460948055585618e+001 -3.0773095705959679e+000
    8.0143061909286388e+001 -2.7317071192534357e+000
    7.3290052524096893e+001 -2.7253405723071467e+000
    7.2726735816956023e+001 -2.7823112255725033e+000
    8.2228742326084813e+001 -2.9158982955402064e+000 1. 0.
    7.9931877794639703e+001 -2.4325084098577401e+000
    7.4755289126260010e+001 -3.1666048418174269e+000
    8.7432699095827743e+001 -3.1942104640152387e+000
    8.1092753034889412e+001 -2.7216447894715530e+000
    7.5352941571669490e+001 -2.7186217919355595e+000
    7.2859988696578000e+001 -2.8011175589236612e+000
    8.3140742159619961e+001 -2.9242936580243697e+000 1. 0.
    7.5993923499007877e+001 -2.3986981450400857e+000
    6.7260462893885389e+001 -3.0244485689454370e+000
    8.0738792313986806e+001 -2.8488355126521623e+000
    7.5771229883541025e+001 -2.4855366473993921e+000
    7.2807820704392611e+001 -2.3940579636506572e+000
    6.8511817301733132e+001 -2.5778886044145799e+000
    8.3467543031055556e+001 -2.8162892228150755e+000 1. 0.
    7.4575677589940810e+001 -2.4013545482946586e+000
    7.2345636350092889e+001 -3.2784802790395426e+000
    7.4376771907698654e+001 -2.8029664440784980e+000
    8.3108309821029792e+001 -2.8212471023627188e+000
    6.4838123330158894e+001 -2.4106686071721435e+000
    7.4421969224482240e+001 -2.6835049634862420e+000
    7.2108523305325576e+001 -2.5426796467245714e+000 1. 0.
    9.5757458861896708e+001 -2.3082943982576163e+000
    8.1243063609890299e+001 -3.2148149129681762e+000
    9.5874317047043007e+001 -2.7689501984420679e+000
    9.0730505740762823e+001 -3.0218554721936730e+000
    7.9095021353517225e+001 -2.3071654916123623e+000
    7.2447257504267398e+001 -2.5102537903459887e+000
    7.8001162934351214e+001 -2.2098371029872688e+000
    1.2630750362503740e-002 -1.1223721921386596e+000
    1.3634148875688574e-002 -1.4099526487297482e+000
    1.2607810857543533e-002 -1.3104161830106702e+000
    1.1385217015315675e-002 -1.2567568453762967e+000
    1.1692148066586742e-002 -1.3187432810752973e+000
    1.3869504542472016e-002 -1.4897952779892567e+000
    1.4648215171037968e-002 -1.4154453995712335e+000
    1.3004506663856578e-002 -1.0135704844100013e+000
    1.3065617600631433e-002 -1.3764412943857676e+000
    1.4289984162257118e-002 -1.8700739079652438e+000
    1.3597601276246121e-002 -1.5068657770316807e+000
    1.2559286427500824e-002 -1.2307535531061571e+000
    1.2496111540655571e-002 -1.3130719214593918e+000
    1.4134562736029253e-002 -1.7665650884295412e+000
    1.5594303614076830e-002 -2.0500074308990279e+000
    1.3554198742495114e-002 -1.2517127131416395e+000
    1.3438734875839974e-002 -1.4873450258615568e+000
    1.3653834610049409e-002 -1.7480221363673036e+000
    1.6779058838282460e-002 -1.3871623002923317e+000
    1.6470282915379900e-002 -9.3203490221809016e-001
    1.5387498983731217e-002 -9.9074991875700724e-001
    1.5799499584717297e-002 -1.5701612390966688e+000
    1.3804343078298986e-002 -1.8322626370853403e+000
    1.4096820343807524e-002 -1.3966499385852653e+000
    1.2450789787846235e-002 -1.3781885414079893e+000
    1.3048400962250828e-002 -1.5422565192862343e+000
    1.5731431020621217e-002 -1.0556340814922558e+000
    1.5072509887372588e-002 -7.2183047807033118e-001
    1.3840503865282740e-002 -7.6338113216253145e-001
    1.4261740133751664e-002 -1.1364631216128609e+000
    1.3277281218051057e-002 -1.5508778252038053e+000
    1.2847879138547154e-002 -1.2501148889689604e+000
    1.2021315280760812e-002 -1.2966144697976068e+000
    1.3173210241873892e-002 -1.5062787142389085e+000
    1.4973562996274085e-002 -1.0333863574226829e+000
    1.3104380256561110e-002 -7.7520541641777008e-001
    1.2106587159779103e-002 -7.8137444656413957e-001
    1.3722074662830330e-002 -1.0333198457820125e+000
    1.3353979927253306e-002 -1.3461475538026539e+000
    1.2258245709310660e-002 -1.0706232825421222e+000
    1.2006173096051504e-002 -1.2466623959194603e+000
    1.3120318783715498e-002 -1.5126716521294166e+000
    1.5394599446721488e-002 -1.1777008939266305e+000
    1.2234819977607924e-002 -8.9710629988576995e-001
    1.1656739922457698e-002 -8.8534722506583774e-001
    1.4648251429689086e-002 -1.1511539493174126e+000
    1.3137559788021674e-002 -1.2421910538510057e+000
    1.2261981291095639e-002 -9.4532374306969291e-001
    1.2181191774337487e-002 -1.2048241231527521e+000
    1.2637177294894310e-002 -1.5164519833451886e+000
    1.4705249856260016e-002 -1.3591612634498471e+000
    1.2735815049509429e-002 -1.2053343925113731e+000
    1.2521716035655092e-002 -1.2224479959829901e+000
    1.5188404291938603e-002 -1.4798692173696122e+000
    1.3514663280830988e-002 -1.3649992759083684e+000
    1.3057711476415997e-002 -9.2457238385619944e-001
    1.2192663231066846e-002 -1.1454035278606238e+000
    1.2129847187895323e-002 -1.5013861060902001e+000
    1.2745484907930586e-002 -1.4045078276567728e+000
    1.2628061623001586e-002 -1.5008882078686876e+000
    1.2432175789124290e-002 -1.5656669001804258e+000
    1.3427311278280903e-002 -1.6656354535783089e+000
    1.3378612575468589e-002 -1.5367760432733466e+000
    1.3335638345331064e-002 -9.4288964138746023e-001
    1.2047877590496225e-002 -1.0910802446998602e+000
    1.1894274243309398e-002 -1.3986281177014102e+000
    1.2958835057571234e-002 -1.2847751161173318e+000
    1.2582424425705922e-002 -1.2975343934816186e+000
    1.2058535826079336e-002 -1.3437354918599640e+000
    1.4127401823448594e-002 -1.6017382259862281e+000
    1.3210223553243210e-002 -1.4881957917106796e+000
    1.2991391541637061e-002 -9.7227001147984937e-001
    1.1881489860965449e-002 -1.1089176204142810e+000
    1.2059037774143300e-002 -1.3476776283939538e+000
    1.4921315967754197e-002 -1.1625293820168852e+000
    1.3127933962529653e-002 -9.4472358116699739e-001
    1.2283548223815898e-002 -9.7943088531094125e-001
    1.5212140044127248e-002 -1.3322362731398341e+000
    1.2747177862457963e-002 -1.3161633604805985e+000
    1.2076045497476822e-002 -9.8241080848854323e-001
    1.1720312160362815e-002 -1.1536430804018629e+000
    1.2593019497870004e-002 -1.4117963786306043e+000
    1.5173606550018563e-002 -1.0607850487816155e+000
    1.2829198330619653e-002 -7.5425800154741729e-001
    1.2484332465625620e-002 -8.1671988929374217e-001
    1.4203612469657590e-002 -1.1128772666895321e+000
    1.2768504444777680e-002 -1.3009006736880036e+000
    1.1400038293751486e-002 -1.0171124224542394e+000
    1.2195281679067471e-002 -1.3143066689536622e+000
    1.3585334051609443e-002 -1.6316158010501831e+000
    1.4762721155873917e-002 -1.0641516498232049e+000
    1.3332222656249107e-002 -7.5384661052166368e-001
    1.2917303104488204e-002 -7.9844433949462490e-001
    1.3550475596277723e-002 -1.0714062146426877e+000
    1.2530289559303893e-002 -1.3387707790812802e+000
    1.1180172168089480e-002 -1.0667229157303466e+000
    1.2892174770675889e-002 -1.5429320639199922e+000
    1.4330741922403932e-002 -1.9258919687478948e+000
    1.5106484677858325e-002 -1.2086893886438512e+000
    1.3101152420360531e-002 -7.5989959326196166e-001
    1.2635337780128231e-002 -7.8339242887827742e-001
    1.3653187894437886e-002 -1.1480644448952950e+000
    1.1779766951625649e-002 -1.3574009084137186e+000
    1.1644413967452166e-002 -1.1139358060579754e+000
    1.3254686805250533e-002 -1.5344140039481045e+000
    1.4052186933094037e-002 -2.0044514735923369e+000
    1.6689778988756267e-002 -1.6158808396504565e+000
    1.4415980107071163e-002 -1.0081336568541364e+000
    1.4436286755904863e-002 -1.0453158139183072e+000
    1.5460000918604352e-002 -1.5394937050032496e+000
    1.1840888154775060e-002 -1.4774792078237755e+000
    1.3897279774790879e-002 -1.1987617774019812e+000
    1.2749127564922127e-002 -1.2220732473507128e+000
    1.3802488755910107e-002 -1.8453992419540077e+000
    1.3339114174430983e-002 -1.6097713604543058e+000
    1.2170208470189074e-002 -1.3396471516699167e+000
    1.2379146788588008e-002 -1.3678068815561391e+000
    1.3403713620996406e-002 -1.6343837915105528e+000
    1.3303040724218840e-002 -1.6240070404675728e+000
    1.4464534775268007e-002 -1.0621818398471365e+000
    1.2784023275860005e-002 -9.2131034142893342e-001
    1.3923415798321712e-002 -1.3832098666296189e+000
    1.2663159817723185e-002 -1.4433447213488266e+000
    1.0853951315522286e-002 -1.3861546109328666e+000
    1.0846340793274534e-002 -1.3619916019326965e+000
    1.2788738419288860e-002 -1.4058912157698975e+000
    1.3720106949234895e-002 -1.2349193862867343e+000
    1.3060374179764769e-002 -8.0277741016377291e-001</input_scale>
  <output_scale>
    5.2631578947368418e-001 4.9999999999999994e-001
    5.2631578947368418e-001 4.9999999999999994e-001
    5.2631578947368418e-001 4.9999999999999994e-001
    5.2631578947368418e-001 4.9999999999999994e-001
    5.2631578947368418e-001 4.9999999999999994e-001
    5.2631578947368418e-001 4.9999999999999994e-001
    5.2631578947368418e-001 4.9999999999999994e-001
    5.2631578947368418e-001 4.9999999999999994e-001
    5.2631578947368418e-001 4.9999999999999994e-001
    5.2631578947368418e-001 4.9999999999999994e-001
    5.2631578947368418e-001 4.9999999999999994e-001
    5.2631578947368418e-001 4.9999999999999994e-001
    5.2631578947368418e-001 4.9999999999999994e-001
    5.2631578947368418e-001 4.9999999999999994e-001
    5.2631578947368418e-001 4.9999999999999994e-001
    5.2631578947368418e-001 4.9999999999999994e-001
    5.2631578947368418e-001 4.9999999999999994e-001
    5.2631578947368418e-001 4.9999999999999994e-001
    5.2631578947368418e-001 4.9999999999999994e-001
    5.2631578947368418e-001 4.9999999999999994e-001
    5.2631578947368418e-001 4.9999999999999994e-001
    5.2631578947368418e-001 4.9999999999999994e-001
    5.2631578947368418e-001 4.9999999999999994e-001
    5.2631578947368418e-001 4.9999999999999994e-001
    5.2631578947368418e-001 4.9999999999999994e-001
    5.2631578947368418e-001 4.9999999999999994e-001
    5.2631578947368418e-001 4.9999999999999994e-001
    5.2631578947368418e-001 4.9999999999999994e-001
    5.2631578947368418e-001 4.9999999999999994e-001
    5.2631578947368418e-001 4.9999999999999994e-001
    5.2631578947368418e-001 4.9999999999999994e-001
    5.2631578947368418e-001 4.9999999999999994e-001
    5.2631578947368418e-001 4.9999999999999994e-001
    5.2631578947368418e-001 4.9999999999999994e-001</output_scale>
  <inv_output_scale>
    1.8999999999999999e+000 -9.4999999999999996e-001
    1.8999999999999999e+000 -9.4999999999999996e-001
    1.8999999999999999e+000 -9.4999999999999996e-001
    1.8999999999999999e+000 -9.4999999999999996e-001
    1.8999999999999999e+000 -9.4999999999999996e-001
    1.8999999999999999e+000 -9.4999999999999996e-001
    1.8999999999999999e+000 -9.4999999999999996e-001
    1.8999999999999999e+000 -9.4999999999999996e-001
    1.8999999999999999e+000 -9.4999999999999996e-001
    1.8999999999999999e+000 -9.4999999999999996e-001
    1.8999999999999999e+000 -9.4999999999999996e-001
    1.8999999999999999e+000 -9.4999999999999996e-001
    1.8999999999999999e+000 -9.4999999999999996e-001
    1.8999999999999999e+000 -9.4999999999999996e-001
    1.8999999999999999e+000 -9.4999999999999996e-001
    1.8999999999999999e+000 -9.4999999999999996e-001
    1.8999999999999999e+000 -9.4999999999999996e-001
    1.8999999999999999e+000 -9.4999999999999996e-001
    1.8999999999999999e+000 -9.4999999999999996e-001
    1.8999999999999999e+000 -9.4999999999999996e-001
    1.8999999999999999e+000 -9.4999999999999996e-001
    1.8999999999999999e+000 -9.4999999999999996e-001
    1.8999999999999999e+000 -9.4999999999999996e-001
    1.8999999999999999e+000 -9.4999999999999996e-001
    1.8999999999999999e+000 -9.4999999999999996e-001
    1.8999999999999999e+000 -9.4999999999999996e-001
    1.8999999999999999e+000 -9.4999999999999996e-001
    1.8999999999999999e+000 -9.4999999999999996e-001
    1.8999999999999999e+000 -9.4999999999999996e-001
    1.8999999999999999e+000 -9.4999999999999996e-001
    1.8999999999999999e+000 -9.4999999999999996e-001
    1.8999999999999999e+000 -9.4999999999999996e-001
    1.8999999999999999e+000 -9.4999999999999996e-001
    1.8999999999999999e+000 -9.4999999999999996e-001</inv_output_scale>
  <weights>
    <_>
      -9.4774394706927459e-003 -9.7805219828911334e-003
      -2.0921956870595290e-004 2.4404954239721638e-003
      1.7826149343995246e-003 -4.0739546956759512e-003
      -1.8086671299757412e-003 4.9711256335304189e-003
      -8.0258741567577879e-003 3.8228825866447661e-004
      -1.9748438002816318e-003 -4.5561885684176637e-003
      -2.9975330284229564e-003 3.1486997294390825e-003
      7.1306952547383750e-004 -2.2670657843549533e-003
      5.0370871195420316e-003 8.3227771892789831e-004
      -2.5485483660139530e-003 -2.5002280115775491e-004
      -5.0968104100118641e-003 4.2008445609326983e-003
      -7.5285901558527447e-003 6.1644744656508691e-003
      -3.8553584354916290e-003 9.6616773526332304e-003
      5.0609761704699793e-003 -1.1293055072537396e-003
      -7.9841650000755451e-003 5.1188453096344174e-003
      7.0869217660411872e-004 -9.1729505242223470e-003
      7.5197821958013266e-003 3.8650389908641497e-003
      -1.3554520088649265e-004 6.9280949925869563e-003
      -7.7265310219992315e-003 2.4390471210455505e-003
      -4.6105022292075868e-003 -4.1998577343580054e-003
      -7.7206269581526739e-003 9.9766978577998551e-003
      4.2544577578334328e-003 1.3754517380714702e-003
      7.1796435332770539e-003 -3.6314002586833017e-003
      7.1302042362966882e-003 5.9848411933615987e-003
      -8.7012957274677314e-003 -7.1911688818492407e-003
      3.5753906382966408e-004 -7.8206324736721719e-003
      7.7840334160302673e-005 -9.7247046973899017e-003
      6.5906532945043820e-004 -6.6883423836866093e-003
      1.0267470172397101e-002 2.4589843309896263e-003
      4.2177802259136879e-003 -2.5745004564537138e-005
      -9.1245559952410783e-003 4.6682843740123679e-003
      -3.2086970244528438e-003 -8.6643351054055979e-003
      -4.4314902091338479e-004 -8.0917907515533228e-003
      -4.7106191796082537e-003 5.4813280656156316e-003
      -2.1113643434525519e-004 -7.1603200584857002e-003
      -1.9313744214374390e-003 8.0881452445791969e-003
      -5.7626970373238790e-003 3.2385791708325500e-003
      -9.0264538523999859e-003 -8.3071699634805346e-003
      6.7234290194826728e-003 -5.2206927062768763e-003
      9.4966577799442207e-003 -7.4237071929381592e-003
      -5.7398595433081779e-003 -2.0103225189369886e-003
      8.8759822239327171e-003 1.3590891472343594e-003
      4.2237535617746019e-003 2.9836713601291928e-003
      3.5702107009188372e-003 1.8901887388650806e-003
      9.1388047665465610e-003 3.8644142153306856e-003
      -8.5457007598703349e-003 4.4538058287786611e-003
      9.4856801867413357e-003 2.8557089696693398e-003
      2.8982475581529957e-003 -6.1692684888342113e-003
      7.3143594555870918e-003 -4.1482498175634524e-003
      3.3752444836027528e-003 -7.4452395656556397e-003
      -6.1845268364962300e-003 6.0264122627934659e-003
      -8.4815390293495399e-003 4.0147813343026474e-003
      4.3837645794166848e-003 3.8368163650613590e-003
      -8.6385474387302586e-003 -9.9415775626384446e-003
      7.5109333721571385e-003 -9.5411738712115005e-003
      -3.4234751243589117e-003 -6.3589078712151977e-003
      -7.7230079999872818e-003 -5.1571929445438803e-003
      3.8867623092827793e-003 8.4313922739099843e-003
      -6.6865057053254783e-003 -2.5348848451417455e-003
      3.7118882088317934e-003 -6.6618591861344672e-003
      -7.3443811874468953e-003 -2.5576058866699451e-003
      3.1610320554713066e-003 6.9403163434145062e-003
      9.1255242269702667e-003 -8.7392895667056745e-003
      -7.9585156868439556e-004 -5.2494145688038851e-003
      -8.0898733159987697e-003 2.1927887959098463e-004
      -9.8332158042401651e-003 -8.9059142405920142e-003
      8.9704192336094463e-003 2.2753640837821255e-003
      1.4789415735889002e-003 -7.5156762652871627e-003
      -8.5957154756025871e-003 -4.2846266567992753e-003
      5.1558259987878521e-003 3.7180267592480453e-004
      -8.2661007363254188e-004 -9.5016089234157570e-003
      5.4214194731074770e-003 7.5946995821700438e-003
      -9.5358673566572887e-003 4.0276062510767128e-003
      -7.9922091987431089e-003 -1.9233252445361767e-003
      -6.0736589670730761e-003 6.9899055328251835e-003
      1.0045558859734034e-004 -2.3930381159207072e-003
      -6.1498343560791027e-003 9.1869368739552031e-003
      -5.0312480841038214e-003 -5.0576352806115795e-003
      -7.1358628471272483e-003 -9.6478922676524886e-003
      2.1329996454838495e-003 2.7190032651601965e-003
      5.2443130122763418e-003 -9.0053141158247044e-003
      -3.2104946150842092e-003 3.3401647501044088e-003
      2.8177639379689343e-003 -4.4751893211692527e-003
      3.0455839087828742e-003 -6.5405593841857722e-003
      -2.0932315025789963e-003 3.7954907859074397e-003
      -5.4419576138871415e-003 -1.0389572524830911e-002
      6.9966178861906715e-004 7.9927233867555635e-003
      5.0507399638574776e-003 -6.1690568077717610e-006
      -3.3827172239549036e-003 -1.0073950853355173e-002
      -3.8259064801943474e-003 -1.0450919271156848e-002
      -9.7928840153109192e-003 8.5487957745100859e-003
      -2.5400033143762779e-003 5.0165710185769690e-003
      7.8777970024318956e-003 4.8212059431027281e-003
      -3.7233622833704092e-004 -9.1814154631758571e-003
      -1.7251515388112776e-003 -5.2734601102399341e-003
      -5.3371935619845223e-004 -4.0506534619315126e-003
      -1.2088609259823773e+000 -3.4665362046499892e-002
      -4.5754788342065984e-002 1.5789554159023914e-001
      9.1252830857731795e-002 4.2672235970018339e-002
      4.9304966036266398e-002 -5.6379453605966169e-002
      9.8777671909654238e-002 8.4358796910084674e-002
      -1.8651980936863471e-002 2.0658257603936431e-002
      -2.4088351433370094e-002 1.1208969043206155e-001
      -1.1235514839708166e-002 -4.9140590335448105e-002
      -1.8851229533686127e-002 1.2916890622636967e-002
      1.4081101573282595e-002 -4.4619166551787277e-002
      8.5551109986113524e-002 -7.5883713306204650e-002
      5.7540270341730704e-002 1.6843656611477572e-002
      -1.7639898062469155e-003 3.7775019349039846e-002
      6.1056899108083741e-002 -6.4259412803279722e-002
      7.5244461140909213e-003 -3.3160363091207859e-002
      -2.7852338282409904e-003 -3.5761979610515419e-003
      5.1807164344629016e-002 7.6628237158883367e-002
      -6.0094875368811869e-002 -5.6128384454811601e-002
      3.6487896215702573e-002 -1.5142067701949316e-001
      -9.8788430019843984e-002 1.1735039017841699e-001
      -1.5643120567248696e-002 -1.8661746226149464e-001
      -1.4378036399621002e-002 1.6484733387811222e-002
      -5.9697301446608817e-003 -6.6060547097020000e-002
      -5.9391624693172593e-002 1.6284589300285555e-002
      -3.9711695551287653e-002 -9.6737975804573162e-002
      -5.7674189459061206e-002 -5.2625442160845158e-003
      7.5384083037188770e-002 -1.7224904941756911e-002
      5.3855506495475949e-002 1.4652312504171995e-002
      2.7901470521532939e-002 3.0980086323614760e-002
      -1.1749553054193788e-001 -3.7932982607402875e-002
      -1.7072409077042851e-002 1.0151697565501440e-002
      -5.8755976206701838e-002 -2.6081673505162347e-003
      -8.5767403457295277e-002 1.6179707499046847e-002
      -1.1299406666198443e-001 -1.4802298823085275e-001
      1.1139823528565010e-001 -7.7515558103580781e-002
      -4.2645190078604137e-002 9.1801231635789418e-002
      -6.7230547662199699e-002 -7.4461656978074983e-002
      1.0025421596253030e-001 -7.3682625385596751e-002
      2.5617995377510566e-001 1.8258161580930087e-002
      -3.3148553558680044e-002 -3.7544252497014444e-002
      -6.9844510759380127e-002 1.2220671237317152e-001
      -2.4914301423014422e-002 -5.1514260893699294e-002
      3.1267292377330745e-003 -2.1748675919377740e-003
      -1.2171396307625327e-002 -4.1716695773225142e-002
      -9.2084778568840564e-002 -9.3501974541697869e-002
      -3.7483631524787259e-002 -2.2563008453582827e-002
      2.6947752497316093e-002 5.7257776891588660e-002
      1.1762074034380025e-003 -5.9867002053204645e-002
      1.0995474731422410e-002 2.8411789121250506e-002
      -3.3651091753964753e-002 3.2731700582478789e-003
      5.9814085322363264e-002 1.9188570192849867e-003
      4.4057281885795177e-002 -3.9717679829121950e-002
      -1.2168462042894652e-001 2.0431261900540943e-002
      -2.0949965783922376e-002 -1.2888025264890918e-001
      -4.0739853147049324e-002 1.3743542192781613e-001
      -2.9251629933762974e-002 -5.7878013832996907e-002
      -1.4845442939468735e-004 6.9971716772236773e-003
      -1.8720105312898480e-003 -2.0899172498987137e-002
      7.2855735287984599e-002 1.0309960394318531e-001
      -1.0922502457640419e-001 6.1104129566359869e-002
      9.2603819225158632e-002 6.4069989643448746e-002
      1.9958006542073251e-002 -1.3886640518484612e-003
      3.7261321240256620e-002 2.3546082621874707e-002
      -1.4876862558786971e-002 -8.7978204019385792e-003
      -7.3583606646047432e-003 9.4229246111099813e-002
      1.6438232619134505e-001 9.1421441816687987e-002
      -6.5564497737421373e-002 -3.0465047077292553e-002
      -4.7623721195279883e-002 2.4923117613139252e-003
      3.0105508406296672e-001 -3.0621970278481875e-002
      -6.3334400778621847e-002 3.4908500860193162e-002
      3.7087946935727045e-003 1.3992492277270917e-002
      -1.5167495568498208e-002 -5.7846834496634504e-002
      7.9505228700555125e-002 8.5503111701946161e-002
      6.1578905664050020e-002 -6.9093083882917697e-003
      7.0080278777373856e-002 -1.0799142072281838e-002
      -3.8197607139027465e-002 5.4292254572063763e-002
      9.5628859303008643e-002 -1.0617233596538866e-001
      5.3702789610543818e-002 -8.3505258707039315e-002
      2.5791109399135724e-002 -2.9634909419514254e-002
      2.7216883138344423e-002 2.6166394784103271e-002
      -2.3171972988501096e-002 6.3210334503338600e-002
      -5.4201968310160699e-002 -1.8592753196697068e-002
      -5.0833616437596908e-002 3.8706635191060323e-003
      -1.3719324152334724e-002 6.9676695377017496e-003
      -1.6603347373998001e-001 1.0336319695804447e-002
      -2.8614309919866715e-002 -3.3130383340879282e-002
      -5.7825677398859618e-002 1.0335249304494049e-002
      2.2664524177163723e-002 2.2108872117117075e-003
      3.3694158907222600e-003 -9.7428546264918519e-003
      -5.5253874104209691e-002 -4.2843347125531978e-002
      -5.9958682360854054e-002 2.1132593332661802e-002
      5.1429274838701231e-002 3.3623342061200844e-002
      5.7564611238042705e-002 5.4411971472158302e-002
      -6.3170821215329270e-002 -1.1641873879538481e-002
      3.8387904914950532e-002 1.9241240621855109e-002
      5.2330542609579381e-002 3.2881207914635079e-002
      -8.6833579683270379e-001 2.6059852864007488e-002
      -6.2873884927914644e-003 -7.0550488865912073e-002
      -2.4725885675621014e-002 5.8077591164584823e-002
      1.9194180627415031e-002 -6.3168605023650640e-002
      1.4321032762314192e-002 -4.4086987312350813e-002
      1.6017867739613025e-002 -6.1839323131793023e-002
      -4.7691188661477500e-002 8.1415253416129901e-002
      6.7515587642862612e-002 -1.1202174197057770e-002
      -6.3323864836408464e-002 8.2785650409962497e-002
      6.4874129636921475e-003 -1.5928732980955502e-002
      -1.0368096465482495e-002 -4.3586216404700340e-002
      -1.9261002656762054e-002 -3.5333901139809894e-002
      1.0189082138674558e-002 6.4094996987093686e-002
      2.7006281968681056e-002 5.9691952134133981e-002
      -2.2299683449389016e-002 -2.9966668672890277e-002
      -3.3526993694045826e-002 -4.7818267941919089e-002
      3.5785013596571366e-002 6.9546557382095017e-002
      -3.0075614613538264e-003 -9.2410328957290788e-002
      -3.0334906901178078e-002 -8.4064032257134561e-002
      -3.8976054275223264e-002 6.4612313865679394e-002
      -1.3375738792243562e-002 -3.9290413725005260e-002
      1.7607663045580348e-002 5.6712148604765658e-002
      -2.1871169977140260e-002 -2.6006130533988817e-002
      -2.3659095859327111e-002 3.6496458959867931e-002
      -2.4851297193629794e-002 -1.9456237564056057e-002
      -7.9747928627793896e-002 7.1914735201481584e-003
      -3.3543856293889895e-002 1.9640574857828812e-002
      -1.0539550348101010e-002 1.2939910358115630e-002
      8.5334612300610110e-002 4.5923584246147821e-002
      -4.4107816832643434e-002 -6.9957378002228510e-002
      2.1245272051135428e-002 -6.9492162080380171e-002
      1.4705439857114772e-001 6.7495889747368407e-002
      -6.8595050786904102e-002 5.5932136218395934e-002
      1.5778480187746212e-002 -7.3669223271397313e-002
      9.1902749131266542e-003 -6.7688062345417035e-002
      -3.3562385023581137e-002 1.8643799671078088e-002
      1.0073444945499921e-002 -1.1715152261038536e-002
      6.6326936402063483e-002 2.4747738831592862e-002
      1.2026215923994503e-001 -2.2714445648549443e-002
      2.1549546985969966e-004 -1.6385282331710976e-002
      7.5809035924615485e-003 -5.4390062002810366e-002
      -2.2169432724273307e-002 2.2768237143831482e-002
      -9.0670453317025675e-003 -3.8353998253467525e-002
      3.5957722063643865e-002 -1.1490072185346113e-001
      1.7303986765633821e-002 8.3352262178641015e-002
      9.1609373842478289e-003 -1.6821604851040232e-002
      -4.3038085753054102e-003 8.5925141230688867e-002
      -2.8246949799040477e-002 4.5955729860061453e-002
      8.3975045690371630e-003 5.0553025797871534e-002
      -2.8488592000593844e-002 -5.6599699772167819e-002
      1.6784894711744800e-002 -2.3762034275811895e-003
      1.6759295149840168e-002 -4.6984540855178211e-002
      -3.0276500288396714e-002 1.2180035168688637e-003
      5.1635996762771574e-005 -9.0007262675559266e-002
      8.9087767840819884e-002 6.8791824361755127e-002
      -1.8438659249844305e-002 -4.5430971086280851e-003
      3.1967817830078293e-002 -2.5878011737185784e-002
      -2.4588291741550080e-002 -3.1672683874697322e-002
      1.6101612007300437e-001 6.4879560924948038e-002
      -4.8335258014991056e-002 -9.9888811892112216e-004
      1.0308411580921985e-001 7.1538773510402137e-002
      3.0607855854113127e-002 4.6639243650440455e-002
      -1.1352773083463746e-002 2.0077823289879889e-002
      -7.1506754039206089e-002 -1.6945829289963726e-002
      -5.1404513183123411e-002 7.2468379625668128e-002
      6.1186604238705283e-002 1.1333257126354810e-002
      -8.0069670722421188e-002 -4.0366305625795303e-002
      1.4555434309448275e-002 4.9977159897513362e-003
      -1.4337827101101271e-002 -6.4268935113792939e-004
      -2.2090779876485230e-002 2.2029988162313420e-002
      -7.0866568945682898e-002 3.4007315648543215e-002
      -2.9063352666167951e-002 4.0133071785574397e-002
      7.4235455621802102e-002 4.2728467185001333e-002
      -3.4119288750035497e-002 -7.5004170821819122e-002
      -1.3224663140613492e-002 -1.6581778927084135e-003
      -2.6875367934974304e-002 6.2579016186284420e-002
      3.5904065598836320e-002 -2.7134584933228146e-003
      1.1921193582682293e-002 -3.3062639728482467e-002
      4.7223399664897359e-002 -2.4596507252314041e-002
      -2.4216067432596487e-002 8.6582104650753712e-005
      6.9597292396044461e-003 1.1934720540833490e-002
      -6.3733499839892918e-002 4.8782935750435040e-002
      -3.1815855625803628e-002 -8.1882394727179161e-002
      4.0366290926096060e-002 6.4341473024209358e-003
      -6.2323773273548169e-002 5.2337500994022235e-002
      3.4022747543287685e-002 -2.6536738463760760e-002
      -1.6621441447559879e-002 4.7069041888357227e-002
      -4.1019192781057187e-002 -8.9730906785203315e-003
      -2.7195184528813345e-002 -6.6497709689409157e-002
      -6.9435712114676792e-002 -1.6142794926157892e-002
      -1.6053018445937588e-002 3.6496978464406055e-002
      -1.2194974036234955e-002 7.0571135255074885e-002
      -6.4367788377814881e-003 5.2645031875874847e-002
      -4.5221514154461309e-003 3.6324516478425439e-002
      5.3809353528050941e-003 -1.6184242078240769e-002
      4.2566056344070548e-002 -4.4264848259342182e-002
      -2.1443947097359806e-001 -3.2229684936046187e-003
      -1.1903052840475352e-001 2.3139905262513791e-002
      7.1550465413664679e-002 1.2746905276066447e-002
      1.6184021075918098e-002 -5.0899357101931594e-002
      -8.4266699329756126e-002 -8.4547269941603512e-002
      9.1320303200031608e-002 -8.0374744641836374e-002
      -9.4372349554666612e-002 1.0122680820992137e-001
      -1.9032038217568322e-002 1.7235914849582331e-003
      -3.4667142236056742e-002 5.4638054511694241e-002
      4.4414166906266012e-002 -7.4688348446676212e-002
      3.3697711843013047e-002 -3.6653605910519867e-002
      1.8420257482980679e-002 1.3087420033790221e-002
      4.1024386703412101e-004 7.7816867073478957e-002
      4.0695174184180734e-002 3.1636908333104445e-002
      -6.9451751468555423e-002 -2.8997141163030090e-002
      -3.2398400791831670e-002 -6.7833067629820817e-002
      3.5318331958659625e-002 8.1239151029647752e-002
      -1.0992065385434653e-001 -1.0549465236819038e-001
      -8.9083350064277936e-002 1.1986400892666090e-002
      -4.1888996806355827e-002 3.2798702104686626e-002
      -3.3019877212404403e-002 -3.1129500558790033e-002
      9.9801787889962496e-003 -1.2290536834632966e-002
      -6.4880201159018880e-002 -4.4754443169686811e-002
      -4.9595132891261967e-002 1.2473560855444492e-001
      -4.1491511828365954e-002 -8.7231095905663567e-002
      -5.8463965944806282e-003 5.4693057367481944e-002
      8.7470219273825936e-002 -6.0664223754738110e-003
      7.9887012224582714e-003 4.6059197184894179e-002
      5.7655626787492011e-002 1.1852450656298840e-002
      7.4836517564933244e-002 -6.8954272142555117e-002
      9.0586620946561142e-002 3.2856494178506924e-002
      2.0176310447486911e-002 -4.3644697845651977e-003
      -1.4189301142378090e-002 6.5644104059317573e-002
      -6.6683682328163990e-002 -8.3443114464416934e-002
      1.0260781483609931e-001 -4.3548456993700163e-002
      -8.3540579114382632e-002 -3.4530977949988537e-002
      -4.6041835096009141e-002 -6.3332928585872778e-002
      4.4311231709974731e-002 -1.4192636103806765e-002
      -5.4138595334043117e-002 4.2373332068578601e-002
      -5.8369785284351404e-002 -4.7342054003124301e-002
      -3.8350777519074751e-002 -6.4874374967087613e-003
      -1.3576295133628161e-001 1.9436530644671414e-002
      2.2630620988865539e-002 4.1286970540742714e-002
      7.9138327033229497e-002 -6.3991547835352408e-002
      1.9124845753650942e-002 2.6341545660018992e-002
      -7.9276603671008222e-002 -3.2488968733299498e-002
      6.4531713328843970e-002 6.1783287909526821e-002
      4.3325962974874128e-002 -4.2963710826690753e-002
      -7.7734485781198764e-002 -4.9378769292255757e-002
      -1.6208423047703263e-001 -2.2173724428109425e-002
      -2.9864684740312686e-003 1.8103342004538289e-003
      6.4255797944436185e-002 -1.2027124339820269e-001
      6.0781880515043192e-002 8.8466717191515012e-002
      -8.7741977848968228e-002 -5.9232446564897602e-002
      -1.5062942623658425e-002 5.0556563989194815e-002
      1.4828323927495772e-002 -7.0544960479774460e-002
      7.6232644464640359e-004 -4.9007926861893272e-002
      3.6527782790794654e-002 -1.3284853449849957e-001
      5.3824324462495535e-002 1.8726143792004640e-002
      3.9835682817026763e-002 1.9604042785211006e-002
      8.1715537948638201e-002 6.6069310294596381e-002
      2.2591365147366132e-002 9.7070639601892328e-002
      -8.4818193560169786e-002 8.6323896211358372e-002
      -8.9537210564567496e-002 -6.6773730740946830e-003
      -8.5422404349288425e-002 4.9442683859692915e-002
      9.3406772874369964e-002 3.7561521238644757e-002
      -7.6379906342587373e-002 -4.2616143675981571e-003
      -4.8561985615474111e-002 -5.8354553350890279e-002
      1.6479359099879711e-002 -5.7196884570812193e-002
      -9.0793346924877769e-002 8.5714703043287002e-002
      -4.2048378795277716e-002 5.3341314785267713e-002
      -6.1328918897645392e-002 1.0896904058959268e-001
      -3.6120592413555801e-002 7.5123195149490979e-002
      2.2739324318745535e-002 1.0783847379350080e-002
      4.8010368104925032e-002 4.0023552042527930e-002
      -3.0865843149271838e-002 7.5024463856316032e-002
      -8.0756960671890421e-002 2.2898581628373435e-003
      4.4153642050886406e-002 -2.9528824700648704e-002
      7.5150587283074735e-002 -3.3050192330680718e-002
      -4.1592810283394677e-002 5.4696441371090594e-002
      -4.5257075357036304e-002 1.8102281467831823e-003
      -2.3476253128290377e-002 3.9845276728300690e-002
      -1.1070616763381544e-002 -6.7128708912615923e-002
      6.3119412141637951e-002 2.7193445767923492e-002
      -6.4535378102050678e-002 9.6678721191126082e-002
      -1.6737017406284322e-002 -4.4179026642415742e-002
      2.6237643723196161e-002 5.3759246765210246e-002
      -7.9215450562512127e-002 -7.3616742450516040e-002
      -2.4002941727847729e-004 -8.6277948672310339e-002
      -9.1134341985138548e-002 -5.6412124296141279e-002
      -7.2313852873449116e-002 8.4243359115522970e-002
      4.4152592881498566e-002 1.3594803774656650e-001
      4.2398558511776548e-002 -7.2473037515190090e-004
      -3.4965911302811396e-002 7.6912866888756426e-002
      3.3708275581828387e-002 -6.2087070400044429e-002
      8.7402861218824818e-002 -1.0340763845652066e-001
      6.6648291134851795e-002 4.4325635411023086e-002
      1.1019033614156695e-001 -5.1991097811932719e-003
      -4.9183945202472053e-002 -2.6551309473020642e-002
      1.1708238500359340e-002 6.0440597300376764e-002
      8.5007580172090605e-002 -5.9405339192825528e-002
      3.4360123196388669e-002 -1.8061752865293476e-002
      8.1515130938717678e-002 -4.7243905178758379e-002
      -5.0729276011421749e-002 -1.3529477427221281e-002
      2.9591494700677491e-002 -7.5084895009199681e-002
      -1.9601371940282813e-002 2.5360558812690670e-003
      -6.1513453091497021e-002 3.8211286905369353e-002
      1.5173239963760202e-002 3.8449676498525695e-002
      5.3641279666184337e-002 -3.1469788104934851e-002
      -7.6419656359000485e-002 -3.1674269515405043e-002
      6.1743953857355711e-002 7.3374775382965343e-002
      5.6551562355359283e-002 2.1990262760268119e-002
      -6.5794523888836845e-002 -3.9784660231443558e-002
      3.2713338519064918e-002 3.6975003017897023e-002
      -3.1786745767770422e-002 3.3719579473932816e-002
      4.4258236726576076e-002 -7.3187793032470277e-002
      3.3466984996153221e-002 2.4192573603043450e-002
      1.9138571353785338e-002 -1.0642103336193913e-002
      -1.0426759562306936e-002 9.3183000329673832e-002
      4.3783134175068718e-002 3.1549507082637200e-004
      7.2512922460629695e-002 2.7372758832632047e-002
      -1.0820259432259064e-002 -2.6288591996862291e-002
      -4.6715119370401265e-002 -3.9753541039797738e-002
      -8.8387878242141300e-003 -6.5972125387834327e-002
      -4.8885875191635932e-002 -5.8307947190232953e-002
      -3.3322384460356694e-002 3.6198114514762854e-002
      -8.9537905326502222e-003 -3.5188087970424581e-002
      2.8604856305120240e-002 3.1594560883376845e-002
      1.0730786629915837e-002 -1.8244379709885784e-002
      -8.4575890868001366e-002 -3.6698389016442306e-003
      -7.0722167526668323e-002 -1.1901870967186234e-003
      8.5426570074459057e-002 -6.7353020952688997e-002
      2.9788982047087829e-002 7.3584921282863966e-002
      -7.0336520486149736e-003 6.3075033528285265e-002
      -7.6519482872846864e-002 1.9247510820628498e-002
      1.6632482172734886e-002 1.4263706212498671e-002
      4.5004639565007810e-002 -2.0217239725591026e-002
      -8.4747026923519368e-003 1.2268508369538880e-001
      2.4460380510328294e-002 3.3272011940133413e-002
      -1.7875120999920853e-004 3.1573381018700365e-002
      1.8793378555373476e-002 -7.6744101762449418e-003
      -1.0728573302470755e-002 3.6509768165256841e-002
      -5.1517295696476395e-002 4.1178154529570039e-003
      4.0731625426950581e-003 9.4809609968806330e-002
      4.4890621575443025e-002 -4.5920562098278418e-002
      -1.8379914701781912e-004 4.5764904342584296e-002
      -1.0191764666736164e-001 2.9269722484818617e-003
      -1.5754370560935434e-002 3.8419891223240500e-002
      -5.2453414930376106e-002 -1.9145598783147089e-002
      -4.5091246673016781e-003 8.8985936349901384e-003
      7.0225689950461452e-003 1.2464402448836884e-002
      7.4942387012619016e-002 3.1803420024367916e-002
      -5.7524632977915338e-003 1.4514511982036482e-002
      -2.2657866206384485e-002 -3.6916273002170967e-003
      -3.9759641741516659e-002 -2.4727677676591190e-004
      -3.5554357325410936e-002 -1.4020116370576850e-002
      -1.8080457766111912e-003 -5.0498596284152583e-002
      -6.5216449331878243e-002 -9.1680774115016711e-002
      1.8374806434875263e-003 -7.3335754586145413e-002
      7.0382512334916505e-002 3.9261040637037524e-002
      -3.3456827748028654e-002 -7.6014383478474140e-002
      -1.1577470669934303e-001 -9.4724896694991650e-002
      2.1241300183409802e-002 -2.7985567168765907e-002
      2.5622691394769838e-002 2.0972960745603179e-002
      -7.0156989540671108e-002 2.4821900908087346e-002
      8.6334865099410629e-002 2.0380428238011380e-002
      2.0261379253767656e-002 -2.7742662017225569e-002
      2.2140812149321936e-002 3.3630364899448026e-002
      -8.3647944334673645e-003 3.0804138713330490e-002
      -1.9058749421502156e-002 6.6978388269723133e-002
      -4.9862284551962607e-002 6.7744511718630281e-003
      -1.5572548269953863e-002 -7.1951089777496563e-002
      4.5678804754497204e-002 6.5053876007800909e-002
      9.8820833275529187e-003 5.7486404529931208e-002
      -4.4547414548255115e-002 8.8339228384804978e-003
      3.2733778610880934e-002 -7.3790962992333647e-002
      2.4907909349642984e-002 -5.6484124765728297e-002
      1.0390826461275048e-002 -3.0706126323568880e-002
      7.2037849513224561e-002 7.8779665983323630e-003
      -2.3374433723368036e-002 -1.7978041678246643e-002
      2.5996923464035367e-003 -2.9848903306833974e-002
      1.4732931953972765e-002 1.3343725623010061e-002
      8.3597063160328805e-002 -4.1462593476651745e-002
      5.0815078522252116e-002 -2.4356962244542094e-002
      5.7069466142984721e-002 3.3798422895471018e-002
      3.5020953884522844e-002 3.2802218156560863e-002
      2.9657134290418313e-002 -4.6820460617440378e-002
      5.2311595021007932e-003 -1.9489019548218967e-002
      5.0253642143887898e-003 -6.8971667539353909e-002
      5.7903081709974283e-002 -2.8111020789670940e-002
      -3.5447133326986291e-002 -2.7377342707830068e-002
      -9.8514328058000325e-002 1.1205482524738885e-002
      3.3196625787863138e-001 8.1756441180028339e-002
      6.8540756432967115e-002 -9.4971628961796034e-002
      -4.6125675422706930e-002 -1.1465846659806921e-002
      6.4980633234401716e-002 3.4756877706677361e-002
      -5.3469697754171847e-002 -1.0156841203653341e-001
      1.7228432786859666e-002 -5.4598777125619308e-002
      9.3365451120269005e-002 -4.4056593277291355e-002
      -2.8988635294561020e-002 -6.6929443195863402e-003
      9.1600101377346990e-002 -7.8180979378122795e-002
      -1.3006790789415782e-002 4.5935097105848678e-002
      -9.5352011584919683e-002 2.6981249410856507e-002
      -1.3741098159164738e-003 7.6050467620039058e-002
      1.1265177105913538e-002 -5.7482747796094094e-003
      -4.6533701546574456e-002 -4.2082931352080293e-002
      6.9623692836466525e-003 9.4915238945909336e-002
      5.0677311715109995e-002 -3.9420520925062350e-003
      -6.2031118618702974e-002 -5.5620589478979562e-002
      5.3016345129617802e-003 -1.3351193696457871e-002
      -4.0843570375923344e-002 8.7681392239780248e-003
      7.7470786892788093e-002 -6.7585546169611377e-002
      6.8267521455282086e-003 5.1170263013187667e-002
      -1.2418714675852219e-002 -6.0465114360982397e-002
      -1.3858444933201215e-002 4.7402782455239649e-002
      2.8531500645674949e-002 -7.7680901089963016e-003
      1.9776570462915155e-001 6.9276373198121632e-003
      6.7949440598056451e-002 3.2819704736718622e-002
      -6.2198988256975028e-002 3.7728730617406000e-003
      1.6207768316145021e-002 -1.8215140150357912e-003
      -3.5275556659233973e-002 2.1253157968617282e-002
      6.0751598567667188e-002 5.3820779523270747e-003
      4.1041780105670202e-002 -2.9945618395928932e-002
      6.4462063877056941e-002 -1.3551709041246697e-002
      9.9670108218848863e-002 3.5057064206545467e-002
      -6.1556041272830986e-002 6.0330041863158677e-002
      -2.7840927645986075e-002 8.6774426431460813e-002
      -3.3198589576590803e-002 -5.7779382285291746e-003
      1.4217083236599757e-002 2.0038836156327630e-001
      -8.6316067560982521e-002 6.4277716900296128e-002
      -8.3561769754701615e-002 5.1295634560162083e-002
      -2.0734491156489940e-002 3.9160120797728272e-002
      6.3102560274569064e-002 -6.1574758593126486e-002
      1.2586149788578084e-002 1.0469196572186496e-002
      2.5701667995941844e-002 4.8807059615645701e-003
      -5.0567851106822327e-003 -1.4451900680749027e-002
      -1.9506510749266216e-002 -3.3286031908741839e-002
      8.6904437073381663e-003 2.3991915228632368e-003
      -2.2958306528906076e-002 -7.6406542565086180e-002
      9.2968782872068986e-003 4.8064991108439918e-002
      -1.5721221826191938e-002 -1.0978674115821585e-001
      -3.4918715301364533e-002 3.5058538677498530e-002
      -4.1268053970510456e-002 -2.3769512290693676e-003
      -5.1792669394350149e-002 1.4328015814621415e-002
      3.7017919264013550e-002 -5.6575439016529214e-002
      6.6139586259218841e-002 1.1911132409785696e-002
      1.4750426573058896e-003 -1.8315845282427655e-002
      5.9221144886002108e-002 2.4753429862655822e-002
      4.3317079569192361e-002 5.4256355216082911e-003
      -3.7593789100804138e-002 -3.3651845456365716e-002
      6.3059277641486736e-002 -3.8773779458152899e-002
      2.1955580888519802e-002 2.9163803284764495e-002
      -3.1230013914402069e-002 -6.5608158370936184e-002
      -1.0744809244219282e-001 -2.9445204044859258e-002
      -2.7694056553691351e-002 1.5412738586846260e-002
      1.7934714584762170e-002 5.2611617579292252e-002
      -9.0998933559806195e-003 -2.5753939811719105e-002
      -7.3429981675358427e-002 -9.8101208503237614e-002
      -2.8630542702517886e-002 9.0457609215209775e-003
      9.4949487151414639e-004 -4.5854489547500293e-002
      2.2840828387948385e-003 -3.7814804468493751e-002
      1.8751739795575029e-002 6.1554442470464196e-002
      1.8507413099556180e-002 -4.3464458109655719e-002
      2.7742319944181918e-002 2.6702986044951551e-002
      -3.1308404978675819e-002 -9.0821306016815196e-003
      1.9973922747544181e-002 1.9915057904742843e-003
      2.1218003284302938e-002 -1.2634953246778493e-002
      -6.1508644443044908e-002 -2.7485146435008097e-002
      -2.7411647251721401e-002 2.3159501494021458e-002
      1.4143197170435953e-002 -2.2956856948918036e-002
      -2.8533114188725780e-002 -2.8395068842102075e-003
      1.5216452306248690e-002 -5.2042913633196138e-003
      4.1940810235612622e-002 -3.4664314350297841e-002
      7.8537250107076489e-002 -3.3507204934297284e-002
      8.9372100984584896e-002 -4.4334876434327705e-003
      -1.9073361756573495e-002 7.9471623142443854e-002
      1.8359807737907005e-002 2.4353256190333978e-002
      4.5651809178822713e-003 3.0385564012280306e-002
      3.6371034991504431e-002 -2.0331083673073611e-002
      2.5183132608859064e-002 -1.2365059694235573e-002
      4.8029824158968247e-002 4.8052140847776797e-004
      -2.1687080898878070e-002 -3.0645921840373063e-003
      6.6218609156392366e-003 -2.1458043819474706e-002
      4.9088334409465358e-003 -6.5743239711341023e-002
      -9.4912417344851230e-003 -4.0481533304279532e-002
      2.7175019017224685e-002 5.8759814995825721e-002
      -5.1470317882750957e-002 -4.0632523046720638e-002
      7.3927098254839311e-003 -3.4503282762140430e-002
      4.3893531405704567e-001 -7.4321900868205074e-002
      -4.0503746738203388e-002 1.2761544069781120e-002
      -4.6101971468350003e-002 1.3742254338959687e-002
      3.1605504535036293e-002 6.7351998135254137e-002
      -2.7925644186936646e-002 1.0439122292114179e-002
      -6.7615547166712753e-002 4.2630553282215565e-002
      -3.7849863483719395e-002 -1.4227894309770964e-001
      -8.2287051049155790e-002 7.2919500150120220e-002
      -7.6387195694307616e-002 -6.2924734246698213e-002
      -4.6080407752010721e-002 7.2741360072026010e-003
      -9.8646068303776868e-002 2.3963256970284740e-002
      2.4751778687196881e-002 -1.9170750373009075e-002
      -4.8190086139082926e-002 -5.4610260948943071e-002
      -8.6984263040337448e-003 2.9407235379264790e-002
      8.8702648774081058e-002 2.9148335003270354e-002
      1.8657842293663816e-002 3.8945012263120915e-002
      1.1049262040472452e-002 -5.7156005523751587e-002
      1.1240307901926330e-002 6.8074535262398372e-002
      4.1977740606185754e-002 6.1965209235045851e-002
      8.9741321605894778e-002 -1.0622708816325857e-001
      5.4507306781051798e-002 3.1455991388086135e-002
      6.9015476793827191e-002 6.3258692148232694e-004
      9.5061779081721625e-004 1.8157960705289685e-002
      9.7489935239243319e-002 -1.8294402375722073e-002
      -1.3574144704146725e-002 -7.6055764104583463e-003
      -5.0661747311917193e-002 3.8221518361379334e-003
      -4.8534001713929471e-002 -2.3285451281777055e-002
      7.5419446673351499e-003 1.5814724330686571e-002
      -5.3109143598496215e-002 -2.2093908673251521e-003
      1.1150797637815180e-001 5.3295753759821193e-002
      -4.8959745812600541e-002 3.0368324457633575e-002
      -6.9618397118570124e-002 5.5171203670687619e-002
      6.2425559243431843e-002 -2.9584033033347907e-002
      2.3593913882013186e-002 -7.9925186131153819e-003
      -9.0594961955782982e-002 -1.6751169296760376e-002
      2.7378776161637253e-002 -4.6165585481068708e-002
      6.2561140891425338e-002 1.8105922326802238e-002
      1.2958408308655505e-003 9.3289462147632396e-002
      -1.0127351685452252e-001 2.4649899301638398e-002
      3.5569469198892124e-002 3.6043085825364023e-002
      4.4966074522532831e-002 -8.6314818001860444e-002
      1.5770347673462498e-002 -4.8523282655364527e-002
      3.5213632017614821e-002 6.3796961598772087e-002
      1.1798286168604902e-002 5.9385142539514192e-002
      6.2098756159595335e-002 1.5944785054854877e-002
      7.6669198640355119e-003 5.6095361285616346e-002
      -3.9325095546811351e-002 3.5711671949678642e-002
      -1.6788063386500678e-003 7.0868056754514533e-002
      2.6631815288323653e-002 4.9970082917175293e-002
      8.0499654809488647e-002 -3.6248914145883934e-003
      -5.3326159121128210e-002 3.7984016434168110e-003
      -5.7782029677149904e-002 4.6003476155919598e-002
      -2.4279522275325663e-003 -2.4629369887382978e-002
      -1.4115339085874316e-003 6.8760836718010171e-002
      -2.0850434614594932e-002 -8.8637310714118511e-002
      7.7195224193995535e-002 5.5774776697469691e-002
      -2.8880856879329970e-002 5.8404255989685960e-002
      5.7231469795416719e-002 1.4047741814792068e-002
      -9.2762456058673323e-002 -3.3268712216894085e-002
      -3.1726491181669925e-002 -9.2750793507717245e-003
      9.9670203307332880e-003 -6.3273554354217776e-002
      3.2637638599071039e-002 -7.1820527711188867e-002
      9.1708749527773789e-002 -9.4345821209732644e-002
      4.6565062532086435e-002 -8.4340295537001925e-002
      1.3723286098426298e-002 -5.8252877931102232e-002
      -2.2688576960610669e-002 -3.9347499965904573e-002
      5.3077951056152171e-002 -1.1306858865179596e-002
      2.4081681576846432e-002 2.6975412444471428e-004
      -4.1435692137694560e-002 -7.2670760486413721e-003
      5.3614749231873884e-002 -5.1547882513608749e-002
      9.5383166298279393e-002 9.7686224752596400e-003
      5.5049279342703809e-002 -6.9696340745735733e-002
      -1.2925299432158915e-001 -5.8033378333758136e-002
      -5.7456437043542488e-002 6.8384212268589178e-002
      -4.2693846089593653e-002 3.3046679553777943e-002
      3.2944017935270845e-003 -3.1048683152880858e-002
      -1.1064080534487757e-002 4.9592663115318625e-002
      -6.4326460292717200e-002 7.8675535336325167e-002
      -4.6618149303570444e-002 1.7882262859376323e-003
      5.0253682691670781e-003 -3.3793989977851671e-002
      6.6429927761649521e-002 -2.1230203250769807e-002
      -4.5778911272129623e-002 -8.4674254711918126e-002
      -3.1284775948881613e-004 3.4995249976988364e-002
      -2.2896640992749857e-003 -2.4608554730423813e-002
      6.7089168508935731e-002 -4.6528012063887715e-002
      1.7705835455914178e-002 -3.1485304141907595e-002
      -2.0517169942811516e-003 -4.3739056228589902e-002
      1.7920087859692561e-002 5.4536822702121450e-002
      6.3253562951575110e-002 6.7555292292820437e-002
      2.7128128840846189e-002 3.2172613848849320e-002
      7.4650440579427421e-002 -2.1033533017489675e-003
      -4.0379917396746859e-002 -4.0093454050256203e-002
      4.1494087373394944e-003 -8.5386850843520878e-002
      7.2174771675173388e-002 -5.9204672222283442e-002
      -6.6503955725290068e-002 4.5229260765511148e-002
      -5.8567262333089148e-002 3.4025725111066940e-002
      6.1249936912532366e-001 -7.1889124536764701e-002
      9.0766414834927131e-002 2.8340115087889346e-003
      1.2449122916054938e-002 5.6409649343364364e-002
      -5.7714553399684668e-004 -2.3917041256652481e-002
      -6.1896482627955940e-002 2.9024917277317337e-002
      -8.3995136438181784e-003 -1.0249025157378687e-002
      7.4955684990662588e-002 -5.2664599864809175e-002
      -2.3788729693985367e-002 -5.7985360380765488e-002
      -1.1804668090120239e-001 -4.9838127346343818e-002
      1.9638782193622330e-002 3.0320104931795045e-003
      -1.2026880901896376e-002 7.3047665632697770e-003
      -9.3666333467391470e-003 1.6484989715420187e-002
      -8.7023866845414272e-002 -2.4297886412733592e-002
      -1.1036615414128395e-001 7.9628817763836637e-003
      1.1624723659651164e-003 4.9289586147483980e-002
      -1.8875152446778697e-002 7.6298668203077704e-003
      -6.9256486538775142e-002 -3.1295838675442084e-002
      5.0828046203412823e-002 -2.5357587888146332e-002
      1.7144556278256763e-002 3.1405866886547229e-002
      4.9519714797994989e-002 -1.4426219805508603e-002
      -1.0895537878167825e-002 4.1456189102713814e-002
      5.9234376185472566e-002 -7.2017731789697323e-002
      2.7411111573171977e-002 5.1057582786226137e-002
      -1.0175193654884047e-002 -1.6671992516908103e-002
      3.9445244526995590e-002 1.4712856124203923e-003
      -5.8916166150240840e-002 -1.4597719128073134e-003
      -3.0805032487310664e-002 -4.3644162576755199e-002
      -1.1666300356265644e-001 -9.0482018489784224e-002
      -1.0597343526682563e-002 -8.1546350355683264e-002
      -1.5360542106066620e-002 1.9402039063634368e-002
      -1.7806713313874570e-002 1.1740097580169499e-001
      -1.4766860225985067e-002 8.4065271585603965e-002
      1.6142306710451901e-002 -6.0781386927059942e-004
      1.2361272799817992e-001 2.2043209612457756e-002
      -5.1375705823335938e-003 -4.5156680029812810e-002
      6.5314964187847116e-002 -1.6639475105946841e-005
      1.1623312171959740e-002 -1.4416497507681275e-001
      9.0942136286389971e-003 -1.2079255375672563e-002
      -6.3904907894353546e-002 3.7798654389138715e-002
      3.5038533424487900e-002 1.1332196778321372e-002
      4.1542306092548151e-003 -7.9734076848111610e-002
      1.5329120541751428e-005 9.8942165582097799e-002
      6.0720925632383342e-002 -2.0861039706708894e-002
      -1.7487977424301197e-002 4.7629947994523809e-002
      -2.6893854913079111e-002 1.1407768304019166e-002
      4.1614076669517497e-002 3.1308808853150148e-002
      -2.3452918482779060e-003 6.0750306298851753e-002
      -2.6567893069800150e-002 3.1461775737048350e-002
      -1.5308831769281446e-002 -4.0674101027146206e-002
      6.7132539204856406e-003 8.7771903967280088e-002
      -2.9200644375969625e-002 2.1128839026616111e-003
      5.1385635255003267e-002 4.7182088456754166e-002
      6.5978585403437026e-002 -3.2443190703819173e-002
      2.0571993420203140e-002 1.8774155151606770e-001
      5.2746483746079105e-003 -1.2356733381641233e-001
      -9.8933497342757540e-003 5.8582338524132152e-002
      -1.0256321817363553e-001 -3.8227663453413462e-002
      6.0141262767788958e-002 8.3926915779657992e-003
      2.1158837012361806e-002 -4.5507088454494277e-002
      8.8805804577770792e-002 5.6692856739137586e-003
      -2.5944063547748464e-002 -9.1133250629613256e-003
      -2.9341917211191094e-002 -4.4586802253526028e-002
      -1.9649787328962165e-002 -1.5389180301305426e-002
      1.7707116801638716e-002 -4.6511419738682655e-002
      3.6927197581753508e-002 -2.6719264614256527e-002
      2.4992171821215426e-002 2.9512882267077840e-002
      1.5330298566787772e-002 3.8018023232405537e-002
      2.0996919988358818e-002 -1.0347543974929757e-002
      -9.3564605886129804e-002 -7.7456058842915966e-003
      9.4048054011551821e-002 -6.6515792894596562e-003
      1.1452720070205803e-002 -2.0903721320178516e-002
      5.7491861906513314e-002 -3.4726591423944228e-002
      -1.9227018183794967e-002 -1.5879456583600829e-001
      1.9446689502392034e-002 -3.2845754188884344e-002
      2.9338622622366719e-002 7.3577639554568267e-002
      1.1004622960963505e-002 -3.3295600732092673e-002
      -1.2090797960405279e-001 -1.6675443658347645e-002
      -5.9087460386680907e-003 2.1190431228374551e-002
      -8.2866451268199484e-002 9.1222440901525502e-003
      -2.3960140115477285e-002 -4.4549905789581359e-002
      4.7460490392271279e-002 -9.7644132817060705e-002
      -1.2504374083858361e-001 -4.7255919717112405e-002
      6.8441258050464207e-002 -3.7504467386649826e-003
      -1.1122533982854876e-001 -1.0134764419389243e-001
      1.6293490744057690e-001 2.3072371870437560e-002
      2.3643114093176081e-002 2.7590203705218114e-002
      5.7596186102940747e-002 2.6285703139860513e-002
      -9.1947146815480173e-003 1.8724669826564292e-002
      -1.2698218772160557e-005 -3.2004552164466215e-003
      6.2041032878748523e-003 5.4061182420661637e-002
      -1.7084936834945292e-002 -8.7751912791901046e-002
      2.7186274759594727e-002 -9.4675127235231693e-002
      -3.1193553215999287e-002 5.0886781115382411e-002
      8.7122604341569876e-003 -3.1169998544258719e-002
      -1.8449752822816721e-002 -1.9210201814544650e-002
      -3.9178436830083332e-002 -1.1013440394140935e-002
      -1.9036119039094381e-003 5.0928765345436078e-003
      3.3976846532656783e-003 -9.6307312388558327e-003
      8.7618278966860566e-004 -7.4929469503565334e-004
      4.3028733322259417e-003 -4.6174103055564835e-003
      -5.0243034617089878e-003 4.9164454044062526e-003
      -7.7404082065187412e-003 -7.4930674187775386e-003
      6.4339377500017680e-003 -1.0249067598700149e-002
      -9.7199076358318731e-003 -6.2840798383600877e-003
      -2.4693631986130583e-003 2.5571188699942105e-003
      -4.7997865082905480e-003 -6.1760355151996901e-003
      9.4624460660269714e-003 8.1235187724211701e-003
      7.0765683225005585e-003 4.9675376420954664e-003
      8.6332120947426889e-003 1.8127942481816644e-003
      -9.9802339239919409e-004 1.0905323333965237e-002
      6.6450579072904383e-003 -5.7787412621494406e-003
      -3.8027940099316111e-003 -1.0040033245665159e-002
      -6.7707802530220292e-003 1.2857913738343553e-003
      -8.8117123751824192e-003 -6.0832977297283473e-004
      6.7106294209710602e-003 4.6521707145532193e-003
      8.7850007346562103e-003 6.7175619040486610e-003
      1.8783345810083711e-003 4.4313210829874435e-003
      -9.7247608235000189e-003 6.1026071237459088e-003
      -9.4535085672311763e-003 -9.8141661722331627e-003
      6.8988174487772426e-003 2.1207394604121424e-003
      -5.6388524969387581e-003 1.0796162371533673e-002
      5.2110457235924786e-003 -6.1267492105398606e-003
      9.2751419765964224e-003 -7.0594236170570474e-003
      1.8224208235541341e-003 -4.6849011884824024e-003
      1.7926329089055996e-003 -8.8695806539368927e-003
      -7.3927441834929957e-003 -5.8979470136793482e-003
      -1.1319529825442127e-003 -3.2825713880609226e-003
      7.0965192685047513e-003 8.9259599104669438e-003
      -6.3066233693328463e-003 -2.8247770804946701e-003
      6.7454022530445317e-003 -1.0599055262547105e-005
      5.4289662664442906e-003 -8.4362128755776245e-003
      1.0520879335919626e-003 4.8913385318549100e-004
      5.6996417498903279e-003 -4.7564389920075481e-003
      -9.0168350861027525e-003 -4.1871716037676583e-004
      -5.7445154638083463e-003 2.0568433349091794e-003
      -2.9743094734201460e-003 -4.0279705088277088e-003
      2.7131630292582991e-003 6.3098904729737141e-004
      -1.7679571083467711e-003 -3.9517232403715082e-003
      -4.7816694652116501e-003 1.8938396392028151e-004
      5.9055141575970124e-003 8.7072657622701190e-003
      -1.2897668101217671e-003 3.9040813931868054e-003
      4.2862897199121670e-004 -8.1668190821933186e-003
      -6.0325617281681504e-003 2.3250247359099144e-003
      6.9255599146952748e-003 9.3922577406753745e-003
      -6.6758946596164673e-003 8.6703180572702632e-004
      1.6973685835790279e-003 3.2982301998318248e-003
      -7.9443188645930366e-003 -1.6500742110033923e-003
      -1.5339843336143149e-003 -8.6613951669302063e-003
      -9.0910654542119933e-003 -2.0660247563159756e-003
      8.8878781777671466e-003 6.9884524123242312e-003
      -7.4573252527929115e-003 3.3401159018095275e-003
      3.4230551930663818e-003 -3.6422073164002308e-003
      9.3399271452854725e-003 -4.7086313785963084e-003
      3.2049836077634067e-003 1.7988452121976224e-003
      4.0564193465544279e-003 4.3073525097104730e-003
      2.6862189569708795e-003 7.2963862264340418e-003
      1.8359561515716913e-003 5.2861147524464226e-003
      4.4436802513233070e-003 -8.7307044582460320e-003
      1.4817730019927422e-003 1.0961364021802188e-003
      -5.9370169381947700e-003 -7.0445441850092846e-003
      4.9569756843653359e-003 -6.7625224618853771e-003
      6.4327121987654131e-003 -3.8885740762368108e-003
      -6.4870768216066287e-003 -6.4183339640380118e-003
      -3.7335727750158415e-003 5.7403264480069931e-003
      9.0790255240448640e-003 -4.8269277481782832e-003
      5.6610569969260073e-003 9.2023480677284122e-003
      6.9710486583941507e-004 2.0509418873920697e-003
      -2.0756838578598891e-003 6.4560886669436284e-003
      1.0063617021621514e-002 2.5074619367356729e-003
      -1.2123109072075453e-003 -1.0113253473857067e-002
      7.5485149623311983e-003 -4.0752366588651849e-003
      -6.6319147392033479e-003 4.5016144719902005e-003
      3.7146900780751438e-004 -2.6774715603792450e-003
      -7.2929534474365900e-003 -9.0083288847944507e-003
      -4.6842206041632474e-003 -5.6858097635323658e-003
      -8.6484624414254318e-003 -6.5644920412236017e-003
      -7.9681122466713859e-003 -5.6173946887944654e-003
      -4.4950649741422842e-003 2.3303300290609093e-003
      5.1088348683784503e-003 -8.7515711720763598e-003
      -3.8513691631232808e-003 -1.2818272605237735e-003
      5.0291132899430296e-003 1.6008984824318160e-003
      -3.3587878929641920e-003 -5.9637499528404749e-003
      1.0567208886209057e-002 -3.7788138373922712e-003
      -8.0005714526079248e-003 3.3479654522165316e-003
      -4.0903113030689468e-003 8.8561550368456265e-003
      3.2426543192735097e-003 -3.2159055843531906e-003
      -4.6343275242074202e-003 -1.8107379611075928e-003
      3.9773476333540970e-004 -3.6084208457910095e-003
      -9.0239731569742160e-003 1.1009937959556655e-003
      5.2136992195162832e-003 7.2074510864608837e-003
      5.2823373650158593e-003 7.6135404604556122e-003
      2.5108605961490088e-003 -5.3684217951314051e-003
      -1.0076138909296621e+000 1.1073870373635579e-002
      6.0520670230003744e-002 2.3749215216576580e-002
      1.3364282508047320e-001 2.6508701468584091e-002
      4.3282162353775085e-002 -1.2445061132306447e-001
      8.5716314372739112e-003 -6.9894137043503216e-004
      5.9831862695249184e-002 -6.2693076611920251e-002
      5.9091107097837504e-003 9.0173921507214858e-002
      1.3210045503609383e-001 -1.0323701066487588e-001
      2.5535522801722943e-002 1.4688337468094015e-001
      5.5216222868395524e-002 -1.1236616801389637e-001
      1.2347779985058235e-001 -1.1034081547612702e-001
      7.7701743022348446e-002 2.6245682463287970e-002
      3.7177960733850539e-002 8.4698506542757873e-002
      -1.4802098885697433e-002 -1.1004811239526799e-003
      -1.1365614889819133e-002 6.0305381065953574e-002
      -1.0496199280028454e-001 -9.7129937942046995e-002
      3.4087290214051998e-002 1.4571703197908992e-001
      3.6463815408369814e-002 -7.0687123155638909e-002
      -1.0336739190093297e-001 -8.2155165548117595e-002
      -1.0129645758088685e-001 6.4239204990593449e-002
      -5.0855779247103973e-002 -1.2083827668946688e-001
      -5.6438228978509586e-002 7.4926255020743224e-002
      -4.1959700559756827e-002 -1.1057894746147610e-001
      -1.3451808788689720e-001 1.1414331779093673e-002
      -1.1697327391769104e-001 -1.5777811844249703e-001
      1.3874574447616901e-002 1.0319576595141559e-001
      9.9753142047923474e-002 -2.8108781142359703e-002
      9.6814664546213181e-002 -2.3056724998533971e-002
      1.6288627932550215e-001 2.4738239946129064e-003
      -1.9133871889755162e-002 -9.6203838803511521e-002
      1.0342507236443592e-001 -1.0172896564709875e-002
      6.6479995459288482e-002 -3.7409964233019170e-002
      -1.0141346360636841e-001 7.0041699084836526e-002
      -1.3673696668556756e-001 -8.4949781834734409e-002
      6.9286844787337001e-002 -5.2447661743119316e-002
      2.7247707281339531e-002 1.4957030714760861e-001
      -7.3183092056390689e-002 -8.8417683100397410e-002
      2.1530346803277679e-002 -8.1446693909399043e-002
      7.1545945425542892e-002 -4.5590128279382747e-002
      -6.4773241525382996e-002 -8.7774647164496913e-002
      -1.4075709085078805e-001 1.0368572806515404e-001
      -9.5462611427205343e-002 -5.2911672390625129e-002
      4.4268167794158549e-002 -9.7698678434937736e-002
      1.1280870539418618e-001 -6.9244529488624126e-002
      -7.3531726696488553e-002 1.2249804382483031e-002
      -5.7667317619961557e-002 -9.9966437764340776e-002
      5.9764573555183401e-002 7.3196907536526223e-003
      5.4920196611871488e-002 -9.5449627989106542e-002
      -9.3595653422252359e-002 -1.8226694452493062e-002
      -7.2141676425464499e-002 3.9789173660928531e-002
      1.3709243626751426e-002 -1.4704698761887654e-002
      9.1216484702697179e-002 -1.1131361598259747e-001
      -4.4062344240360964e-003 8.5600843834187326e-002
      -8.0499515986273737e-002 -6.3203760009298074e-002
      -2.9877699838527116e-002 6.8595788706281413e-002
      -6.2680215692334160e-002 -9.1942830420607358e-002
      7.4263807331791970e-002 -1.3274895889452273e-001
      -3.9532540649311415e-002 -1.1336568177738386e-001
      1.3784359104907390e-001 1.2779222449215297e-002
      -3.5008753649780663e-002 3.7285610377354603e-002
      5.9046898904783471e-002 1.2645595158049960e-001
      3.7851244988626985e-002 1.0634771027768489e-001
      -6.8703702085649004e-003 4.5528425978293700e-002
      -8.1762691968174261e-002 -3.5666323720860059e-002
      -9.0425845981314840e-002 1.7660305558251327e-001
      1.5862750466995856e-001 1.4711019738400444e-001
      -6.8119455971444712e-002 -8.4318931773699965e-003
      -1.4050735376809162e-001 -5.8448606668427459e-002
      1.1478375503798886e-001 -8.4387167809746338e-002
      -4.1173427250070956e-003 4.7597252403949145e-002
      -3.9180313941546023e-002 2.2062577290100898e-002
      -7.1050859895208943e-002 8.3777012986278904e-002
      6.3645749242064190e-002 4.0383892205403768e-002
      7.4792630501343299e-002 -1.4289112258289874e-001
      9.2106673642310399e-002 -5.2774317177119355e-002
      -6.4338675656820138e-002 4.8292976397981024e-002
      2.8369842536888536e-003 -1.4000961085028343e-001
      1.1006300708061360e-001 -1.0620959272101836e-001
      -5.0336329553198521e-002 -7.6693747934618750e-002
      -1.2896174518008915e-001 -1.7601904655306831e-002
      -1.0480845998622053e-001 1.2349629698627936e-002
      1.2562667257599368e-003 7.3215925613507468e-002
      -5.7268939742429234e-002 -1.4613161180937096e-002
      -2.6489024076980787e-003 -1.2209826889788501e-003
      -6.9304983223689970e-002 1.2822175066769589e-001
      2.0356817171529450e-002 -4.1515379343522979e-002
      -2.0556831063299259e-002 8.6733543447491235e-002
      -9.1363367706825641e-002 -9.3373047611707852e-002
      -1.1680805221752602e-001 -4.5045594469878755e-002
      -1.1923912638038633e-001 3.7468689347458103e-002
      -1.5001466203780425e-001 -6.3631519626848806e-002
      4.0041627181010953e-002 -4.9762497337498462e-002
      7.3074171088349751e-002 1.2616250830336273e-001
      -1.1498955498475393e-001 5.5425028262384463e-002
      1.1535718535417919e-001 -8.6983621278387283e-002
      9.5130965820340807e-002 -9.9543932503099064e-002
      -7.0672775960474354e-001 4.1471813341865817e-002
      -2.8300888526561173e-003 -3.1013163687885661e-002
      -3.1517071790799433e-003 2.7794517100276733e-002
      -1.0915491648225809e-002 -1.2984888976054806e-001
      4.6468533654836990e-002 5.9145113383818108e-002
      7.2586121264877818e-002 5.3752044453036990e-003
      -4.3519843604600254e-002 1.4586086388608491e-001
      1.4991603815695489e-001 -5.7921269105917370e-002
      -1.0739138101627038e-001 1.4109712604366575e-001
      1.0060121803783606e-002 1.9031754220148068e-002
      -1.8634411840533171e-002 5.0077498383569889e-002
      -2.8283510242922118e-002 1.2640421718366704e-002
      3.8678091716820816e-002 -1.8340363784298704e-002
      -5.5856819086999238e-003 5.9525372294273286e-002
      -8.2127863717796304e-002 -4.3379402762510087e-002
      -2.8541972019530838e-002 -6.7198433488994597e-002
      2.2135328553301446e-002 8.5631372978021023e-002
      -4.9008606718477073e-002 -1.0360199684906765e-001
      7.9417399027399242e-003 8.0385145207121696e-003
      -4.0170298859672535e-002 -3.2384513823744757e-002
      -3.3427936219598955e-002 -4.7794151454967739e-003
      1.0221372620190873e-001 -1.3542782494796973e-001
      -9.5310692640410200e-002 -2.9844972555329780e-002
      -8.0307269767039044e-002 1.4722857695789907e-001
      -1.4605523547347068e-001 -3.7094173071117661e-002
      -5.5554209935004730e-003 -1.3444371377489888e-002
      -4.8843636086752268e-002 -1.5050243468669093e-002
      -1.5416079502944076e-002 1.2653685421903935e-002
      1.1114253460496204e-001 1.9880776421583334e-002
      -7.2795428736743800e-002 -3.8934755959335030e-002
      1.0227453948692986e-002 -7.7158545921221677e-002
      -1.9991558671609792e-002 9.3564645107649419e-002
      -5.9869478837165722e-002 8.7502516128446395e-002
      1.8034514168532190e-001 -3.5779970167827850e-002
      2.1933176841964871e-002 -2.2641163894701961e-002
      -9.9642741461398506e-003 2.5550085123608009e-002
      1.6080122491087489e-002 4.1039849553369888e-002
      3.4483919992163259e-003 6.2094283044831326e-003
      3.5006102370905880e-002 6.6791630376443839e-002
      2.3255784080697155e-002 4.4017477084776824e-002
      -1.5200416012664236e-002 -7.1336612953218387e-002
      1.1637044827109991e-002 -4.8210097405384969e-002
      -1.4230113698412481e-002 -6.5806708492609639e-002
      4.4505329080910018e-002 -1.2818818787780453e-001
      4.2823499202142524e-003 3.2978151328901528e-002
      8.3120394988657059e-002 -1.7727237816661450e-002
      7.7686990025557290e-002 2.9209282510326215e-002
      -5.1399398072089590e-003 -6.3607586683862016e-002
      -3.3351385407886333e-002 1.8637425809582667e-002
      -6.4481065424812578e-002 -3.4618500177126962e-002
      4.3978530842532313e-003 -1.1994740496292943e-002
      1.3446730171892901e-001 -3.7216127360703496e-002
      2.6870474234695910e-002 2.5956102014234886e-002
      -2.8490920442717279e-002 -1.3392211260925160e-001
      7.7612856019411466e-002 2.5830297019562718e-002
      1.5251225687288287e-002 2.6015478121770030e-002
      2.2349006349846094e-002 -1.4615256311918711e-002
      -4.9879383536652125e-002 -7.4393652303416810e-002
      -8.5386403990188098e-002 9.5879130278756376e-003
      -1.4125073524221446e-001 3.0882011975992035e-002
      2.7621535831827297e-002 2.1441263963553597e-002
      7.2245062270119828e-002 1.5633787109527261e-001
      -7.8741953432939521e-002 4.9006689807682073e-002
      -1.0231959890131145e-001 -2.2224555707299077e-003
      -1.0067303451669229e-002 5.2365635400348554e-002
      1.0921199070428582e-001 8.7638589351118401e-002
      5.4484367093988594e-002 -5.3853111229315992e-003
      -1.7954283681940960e-002 6.0327697143131801e-003
      -1.8109175643389677e-001 6.5061590017950520e-003
      9.1046279217073863e-003 2.7334549085409231e-002
      -7.3109429829000289e-002 3.5189757950462690e-002
      -3.6113047070166777e-002 -2.3428870766883827e-003
      7.0274879103584875e-002 1.0372994572842920e-001
      -3.4980336162152785e-002 -9.2166647055596435e-002
      -3.6290141944127122e-002 4.0760529353780765e-002
      -3.9355433419955517e-002 8.7857243287488788e-003
      1.9285908743972353e-002 -8.6102697126742705e-002
      7.3250609250058177e-002 -6.6033763291276248e-002
      4.5572223139989767e-003 5.1609420814946176e-002
      -5.3901166717251252e-002 3.0593850232352290e-004
      2.0727475726669605e-002 6.7878653365417083e-003
      -1.1596954689943192e-001 5.3957487168072797e-002
      -3.0474515792848364e-002 -6.8395153167345915e-002
      -1.1515974408598259e-003 -5.0240149989959739e-003
      -8.8313145556121048e-002 -1.5615350583011882e-002
      6.6735540350484568e-002 -4.1242147205458150e-002
      1.3918349297750049e-002 6.2339639813584889e-002
      -3.7698668687366786e-002 -2.0928055131767154e-002
      1.6956041487086286e-002 9.1247795956081908e-003
      -1.0189737893123113e-002 -2.3108469917748110e-002
      -6.5550030287808425e-002 6.8674430214953576e-003
      -3.8020405362269374e-002 8.9306757867532560e-002
      -4.7834229123318701e-002 3.6299554017659285e-003
      -6.4872140418608809e-002 5.2857132001879352e-002
      5.5658073705892701e-002 -1.1679124442706775e-002
      9.6314160909470425e-002 -2.3239561979351741e-002
      -2.5123789736079477e-001 9.4941626910197714e-003
      -7.4228259853692052e-002 8.0477765804030030e-002
      1.3151392984411635e-002 1.3148481345181032e-003
      2.0512974776476962e-002 -2.0688041371511409e-002
      4.0366310268858188e-003 -1.0450426791120784e-001
      6.0354569741628672e-002 -8.9204012460552904e-003
      -8.2356926208403888e-002 -1.7074043079590671e-003
      -3.8422776226730362e-002 1.6610622452923423e-002
      -1.8966469532227396e-003 4.3343423782574185e-002
      -4.6061575337056446e-002 -2.4795396291456804e-002
      -4.6215303148496284e-002 -7.2160947272285596e-003
      -2.1587848722219888e-002 7.2556894670886942e-003
      1.5379590942830250e-002 4.2413995183865398e-002
      1.0164824290561955e-001 3.7602776351800737e-003
      5.9676375878534263e-002 -6.1761148856675871e-002
      5.1303429710383340e-002 -6.1528739749713478e-002
      6.4495538812860076e-002 8.1482389136444358e-002
      -1.2941490852620688e-001 -3.5376683063807562e-002
      -8.0627201512629185e-002 -8.2059621561335949e-002
      -5.7458571555092271e-002 -1.7232111705781424e-002
      -9.9372749519456207e-003 -1.0260556304607810e-001
      -8.6494705425477249e-003 -2.2854602203114159e-002
      -4.9508735658912728e-002 -1.2725027389393571e-002
      -2.2754330464245850e-002 7.9118742115726753e-002
      -5.1398890569869689e-003 -6.5572653651382679e-002
      -3.1835609263054392e-002 4.0633200065081199e-002
      5.4462448275144987e-002 4.8135600826407075e-002
      -2.9979670021014430e-003 6.8368124190284665e-002
      1.0451577050664507e-002 4.6226139445910051e-002
      -6.7244983248680709e-002 -1.8628314631461369e-002
      4.2775146882569892e-002 1.3143658193540254e-002
      1.5038750878908941e-001 2.0830353178361285e-003
      1.6789717263722786e-002 5.3557187731531897e-002
      -4.4686988363046659e-002 -5.2683576191516333e-002
      2.8493351768240520e-002 -2.8864595191200802e-002
      -8.5398562781897641e-002 -2.1198357475154899e-002
      -6.5929116429641971e-002 9.4688409355974862e-002
      3.5640337432617561e-002 -1.2987370876193024e-002
      8.1532971559909892e-002 6.2681775883184687e-002
      2.1776672221562026e-002 -3.4651543841660137e-002
      -4.1407672392159166e-002 -2.3607369346437364e-002
      -3.9360839598502513e-002 8.9683965359838459e-003
      -3.2249264867732587e-002 4.2351159695165522e-002
      -6.4892870389402528e-003 -2.0384678573769296e-002
      1.3820525093473344e-004 1.3909592243864550e-002
      2.2489768362849511e-002 -1.5717611961124294e-002
      3.8150048475096510e-002 4.9781001543111186e-002
      1.5142856672416735e-002 -3.6400418441011515e-003
      -1.5182390270210724e-002 3.2073565856797881e-002
      -4.7655543381329837e-002 -4.3232142796081910e-002
      7.4428311256184668e-002 9.4483803030239897e-004
      -4.3429530312553408e-002 -4.8259740916675523e-002
      1.2652536893357710e-002 3.9246555458051245e-002
      -1.9937290518673562e-002 -1.2443777570452472e-001
      5.6459937731053629e-002 1.0142885078825620e-001
      2.2106432199356638e-002 3.4001215700627403e-004
      1.0727023076109682e-002 -4.9113439852721492e-002
      -1.2871778947729390e-002 -1.8885331241958073e-002
      4.8399671007000336e-002 -5.5228721192749474e-003
      -4.3081682369609919e-003 5.1556234316602889e-002
      5.4343376123950786e-002 5.1388203152094775e-002
      2.2285777392175642e-002 3.2188915777671877e-002
      -2.8523989686555805e-002 4.1461074883850646e-002
      -7.1132164220755245e-002 -6.2907332829418199e-003
      -7.7582031121058020e-002 3.8465991487764271e-002
      7.6399475266025849e-002 4.3479908506584937e-003
      -4.5112197947084286e-002 -7.8332465828349157e-002
      -1.0242542350983083e-003 2.6377443138115480e-003
      9.3693864273471442e-002 -9.2618020101049539e-002
      -1.1386561725631392e-001 9.3343950219186914e-002
      -3.9897233583905548e-003 5.7026245742385281e-002
      -1.9032490883309958e-003 3.6969022297240695e-002
      1.0498206976918362e-001 6.8767926956797357e-002
      3.9279128504025061e-002 1.7262560744689060e-002
      -4.4793900237907070e-003 -4.7411858296057791e-002
      -4.4298972289706771e-002 2.9443223896714131e-002
      5.4260582350788698e-002 -1.6492425771530921e-002
      -1.3233241675434972e-002 -8.6920372852574510e-003
      4.3568336562249392e-002 -3.6579137603555675e-002
      2.4942793254619958e-002 8.5209494934635185e-002
      -3.5201866093587511e-002 8.9753035910893994e-002
      -9.7232023566994827e-003 7.2308179010681831e-002
      -6.5905174928491878e-002 2.6937560991709464e-002
      9.1597551177950709e-002 1.4458913528883881e-002
      -1.2946423794432657e-001 4.5785130433816844e-002
      9.9763190000391397e-003 -3.4058978923297629e-002
      -9.0185626948219980e-002 2.7520625629031657e-002
      7.8736406827014348e-003 -6.7003966206438101e-002
      7.7862273504741087e-003 -4.1809038890680404e-002
      -4.4044537940382718e-002 -4.1236032997931417e-002
      -1.9409935231104763e-002 9.4884494319438809e-002
      -1.3239755208019231e-002 7.6218654415161041e-002
      5.0130139195179543e-002 -6.6213742983810286e-004
      -3.5112851919957763e-002 8.0607783889064602e-002
      1.5459790629761518e-002 -8.0686119670114621e-003
      2.8991855854060014e-002 -6.3627798857776141e-002
      2.6018310828087904e-001 2.0917925634251756e-002
      5.3973535227967058e-002 1.0611298072490004e-001
      -9.3509155253439682e-002 1.2611006039966469e-002
      -2.3730492025482105e-002 1.6821748074841164e-001
      8.9472446160261690e-002 -1.2780124219554004e-002
      -6.8890679229402146e-002 1.0933880698933832e-001
      9.4223610854653833e-002 -1.1752493728529977e-001
      -9.1639463816467037e-002 8.5257498791383571e-002
      -4.5247885958191847e-002 -1.4357714247957809e-001
      -8.1007832436276975e-002 7.5549913278886771e-002
      -9.4834868709166575e-002 4.1382868179326328e-002
      7.5510035075228134e-003 1.9489437526616273e-002
      1.9445368389086750e-002 -4.4459497491884430e-002
      -2.5508231756430962e-002 9.0207523014776544e-004
      4.8789702842847935e-002 5.0604796521990569e-002
      4.0838004149384627e-002 8.4730463886500601e-002
      -4.6415266555321535e-002 -1.6911522687458841e-001
      1.8448313592539296e-002 4.0795569920017385e-002
      8.5748761631133374e-002 -4.2375698677197648e-002
      1.2027008543539795e-001 -2.8012021256474187e-002
      7.8312042678654159e-002 -6.4266119415310380e-002
      7.2006792966223435e-002 3.3298067255602803e-002
      1.3043048259186485e-001 8.6205453383610187e-002
      5.8049926587029281e-002 9.4624709359564990e-002
      3.0830626047846175e-002 1.3087096098739576e-001
      -5.0329540185248857e-003 -7.4152400193633242e-002
      -7.3183682033126751e-002 -2.2353875200577807e-002
      -9.8756321048081602e-002 -4.4948333340012241e-002
      -1.4039006953217625e-001 -4.1034319641993069e-002
      -5.6734499635209532e-002 9.5638816493792023e-002
      -6.7076202899157680e-002 -3.1524198997282836e-002
      -1.4231945441088901e-002 -3.2868516965860142e-002
      1.1369359505805368e-001 -7.7740164735052492e-002
      2.6640121959425951e-002 1.8584610214270995e-002
      -9.5783679367716215e-002 -2.2930960451940749e-002
      4.4748979490758130e-002 -2.4199522965637436e-002
      7.9479448183645773e-002 -1.9580593910716395e-002
      2.1851575945310078e-002 2.4091869944037426e-002
      -1.2625556488911503e-002 1.2594094514038295e-001
      7.4698486557821367e-002 8.3789057578550152e-002
      8.9384149586010486e-002 -1.7734026819103795e-002
      2.8554158691304937e-002 1.3288322332165270e-001
      5.0905274431066988e-002 2.0402076251564275e-002
      -1.2142114572323720e-001 4.4261049299843966e-002
      4.1993971243730652e-002 -2.3429920737795790e-002
      7.4502917603064975e-002 6.4959219699015816e-002
      -3.8953408487300355e-002 2.3151314789252447e-002
      -5.8255242781615216e-002 5.2458005047406574e-002
      7.9203581990626562e-002 -5.5422829034802799e-002
      7.9593192166570667e-002 2.3189436574451661e-002
      -1.8106729622814698e-002 1.7741267620545280e-003
      -3.9830305647731615e-002 6.2010891058782047e-002
      -1.0937223728528971e-001 -8.2201203226411293e-002
      7.1210888812410458e-002 -7.4517138298980753e-002
      4.4247509065860592e-002 6.1344919612175072e-002
      6.0281760284438698e-002 3.5995184948629896e-002
      3.6426265697297101e-002 8.9933828813089395e-002
      1.7945929662942675e-003 1.1508277686854770e-001
      -4.4992053222767094e-002 -7.9733711837573907e-004
      -4.5275637165146369e-002 -8.0522679063838309e-002
      3.9278803929220632e-002 -6.5291202365348106e-002
      -4.4732838785010633e-003 -1.2795882538974371e-001
      4.8475837845030512e-002 -7.7467658040815596e-002
      1.1491764183766827e-001 3.7714436760893727e-002
      7.7393818254396757e-002 -1.2564370632881205e-001
      -7.4401501244569207e-002 -6.0598234636991877e-002
      1.8702505033804995e-002 5.7701281256414855e-002
      8.7362447681898076e-002 4.9139896647934868e-002
      -6.0375768630719556e-002 9.4841077254374698e-002
      -1.7081202960371539e-002 -7.1091958337658523e-002
      1.0396642874316636e-001 -2.9849953334172823e-002
      7.3050217334167306e-002 -8.7540621299521088e-002
      6.1669153922723908e-004 8.0860584243398703e-002
      -9.2771311083031452e-002 6.7349089509911793e-005
      -4.7000205982141302e-003 1.0848117177055265e-002
      1.1715593859695197e-002 -4.0269512707536800e-002
      6.4358175362160860e-002 1.1416231752442614e-001
      -8.6244299506137656e-002 1.2541536735911343e-001
      2.3618360904076603e-002 2.2324250193829293e-002
      1.7468220796683798e-001 -3.8085827979547182e-002
      5.7373066794783156e-002 -1.9963220130672220e-002
      -2.7667206104837784e-002 -2.0224782780631184e-001
      1.4253930308803658e-002 9.6079541018231018e-002
      -3.2188786844930754e-002 -1.0342570167126775e-002
      -8.6624645429931188e-002 -5.4965445309514999e-002
      -6.9569005533369227e-002 5.0307170076965883e-002
      2.2529566047860553e-002 -4.2251518564151186e-002
      9.9726966577009732e-002 3.7785012813377532e-002
      -7.8388455017745114e-003 5.1652342719659933e-002
      9.3148234132269053e-002 7.1842491937100003e-002
      6.2838343407943753e-002 -1.0228858152877612e-001
      7.3712855213046158e-002 -6.1744743937915195e-002
      -4.7924040854743402e-002 -5.7290907918948308e-002
      9.5432103919038808e-002 -7.2264290849690743e-002
      -1.7454338759385679e-002 5.6881391813226045e-002
      -8.0968438697179568e-002 7.4576979488902684e-002
      6.2983384174567308e-002 9.3566309353975655e-002
      8.3503376832120921e-003 1.5020703626372309e-001
      -7.3313604978018643e-002 -3.6651638434842308e-002
      -6.1942214719503140e-002 5.3362590449512332e-002
      1.0070087823964512e-001 5.6550843555268945e-002
      -1.1635396999769383e-001 8.4274103977591941e-002
      3.3877740466806229e-002 -3.5463243778787137e-002
      -6.4170044141649105e-002 9.9433613844610996e-002
      4.8290302443918118e-002 -7.2784203495111957e-002
      -1.5522691522046115e-002 4.6526100415020366e-002
      -6.4205481214305540e-002 8.9103540619605778e-003
      -1.1688994898291968e-001 -4.9539624399473403e-002
      3.5955500669437729e-002 -6.0197356756514817e-002
      -8.8945622821707641e-003 6.5186170785467602e-003
      3.0369572439416397e-002 -1.8218544207527231e-002
      3.4852893869715310e-002 8.3555448097102789e-002
      4.5599090525203299e-002 -1.4693561263225489e-002
      1.1237487186984231e-002 6.1707114121726588e-002
      1.1537028596305908e-001 -8.6166841913591530e-002
      2.4864321832549181e-002 -1.3817006190357082e-002
      3.4715499914976404e-002 -3.0815956755339321e-002
      1.0525543234412837e-001 -5.4173763912078845e-004
      8.0412850504982245e-002 2.8842283747630298e-002
      9.1936347723448331e-003 8.0967208560373261e-002
      3.0108637223149423e-002 6.8112575695164851e-002
      1.0725175299541050e-001 -7.4671864505582247e-002
      -7.0374267933039969e-002 4.3870792897856337e-002
      -1.7047938423523600e-002 -4.3105522630694738e-003
      -9.2428397039434770e-002 3.0482261195888781e-003
      -7.0730948219999062e-002 3.8960053471171298e-002
      -1.0632619585960362e-001 -1.2150114105023320e-001
      -4.6386761040752227e-002 -6.7818831333860366e-002
      9.7457779089670696e-002 -6.0073725862398203e-002
      7.2399067094367567e-002 9.5473990379813259e-002
      -3.9653817308223156e-002 6.9682904497159609e-002
      2.9787255221683052e-002 -5.6347965867838738e-002
      3.0142550028293653e-002 2.6070864194290216e-001
      -5.4200636404566037e-002 1.1829487472973061e-002
      1.9406431523430419e-002 6.0745317103742695e-002
      9.4744890339775595e-002 -2.0436202135990383e-002
      5.3191822025741679e-002 -4.1774619388199485e-002
      1.2179033835641320e-001 3.7257752395352339e-002
      -5.6002720320266486e-002 2.7125061525914561e-002
      -6.7572176429007771e-002 3.9008080365718907e-002
      -7.8780553044759685e-002 1.0505568853280455e-002
      3.6682144720020939e-002 3.1989364014614233e-002
      -1.5450424880644685e-002 -4.7627329829117451e-002
      -1.0613572120594505e-002 6.5709449414769805e-002
      2.7975455789554533e-002 9.2767593944723795e-002
      1.1042660224339552e-001 -4.1610264543308038e-002
      1.4941943728126600e-002 7.8038957186362399e-004
      -2.9467016128994519e-002 8.5872604600914393e-002
      -8.2822398707523948e-002 -1.8538610846356850e-002
      6.5584500880817548e-002 -3.6219422526839885e-002
      -2.0551498201541802e-002 3.5330844029687059e-002
      -2.4377004758060509e-003 1.8183981529192400e-002
      4.4582034341555270e-002 8.0849419076244503e-002
      -6.2154802054070493e-002 1.1855578031523134e-001
      -1.0693416585242867e-001 5.9903432028958564e-002
      -6.3314387698455224e-002 -2.5952268830527064e-002
      -5.8360515615996152e-002 1.1320253849311403e-002
      2.8301604130844166e-002 -8.2340549606411018e-002
      8.8277430947885677e-002 -4.9248257026827801e-002
      9.3557507573716836e-002 6.8160734836976072e-002
      7.3278542933860560e-002 -4.5551494225800300e-002
      -2.7761914208253269e-001 -3.7593563723741494e-002
      2.1835289320528466e-002 3.1887109545861686e-002
      5.2536627155932207e-002 -1.2933075896661583e-001
      1.0580198901034389e-001 3.9733170481604206e-002
      2.8648918292996923e-003 -3.0415439051931756e-002
      5.0299282787997550e-002 -2.0978869732996713e-002
      7.4056228429303789e-002 -8.2799701338953716e-002
      3.6227447015525757e-002 9.9455929472553412e-002
      -5.5305385339882600e-002 3.9570050379810082e-002
      -2.9268235082955816e-002 -4.0725902243690347e-002
      6.3371227451253898e-002 -6.8221156437383041e-003
      9.9780450972874676e-002 5.1381906740603736e-002
      -6.0422825525743865e-002 8.9850060799325587e-002
      4.7910372501463468e-002 1.3584536190405326e-002
      7.0192979081675405e-002 3.1925215620325249e-002
      -3.6727733013655103e-002 5.6069008710993885e-002
      4.1807064716048468e-002 -4.7007996778136288e-002
      -2.5737605816082049e-002 6.4408133430025952e-002
      6.0796206044103898e-003 3.9433274800444992e-002
      -5.6379122071825785e-003 -5.5533707000309643e-002
      -1.7337977639628153e-002 6.5071035393518717e-002
      -1.9465309302261244e-002 -8.9483505713751729e-002
      3.3156302596659512e-002 1.1367838446312718e-001
      2.7904449066246794e-002 3.7407703325135440e-002
      1.0339758010034107e-001 -2.0103737171068680e-002
      7.1120394518251667e-002 -5.3834256772408683e-002
      -3.2015485236880387e-002 -9.4196901755084998e-003
      -5.1698151603987528e-003 -1.0527693406461348e-001
      7.0051333211229139e-002 -8.5099192121970577e-002
      -4.8177363290019266e-002 4.2969504672762011e-002
      -7.9316052311408133e-002 1.3235175767668830e-001
      7.5697170260747337e-001 -2.8738818517295726e-002
      -1.7122045391212311e-002 4.5546919445905422e-002
      -9.4463475406921321e-002 -3.2013754549100543e-003
      -1.5541108429918338e-002 3.1981374833827458e-002
      2.7228032538975273e-002 1.7300763391286493e-002
      -2.5193206799410128e-002 4.3845130614578398e-002
      5.3240208801988856e-003 -7.2935120452922303e-002
      -7.0744387573902653e-002 7.8231465149191187e-002
      -1.4303847353677051e-002 -1.0546273276367375e-001
      -9.8337102878681235e-002 2.7951993387810004e-002
      -6.8356129693511986e-002 -1.6844422873059942e-002
      7.9115695284993244e-003 -2.2168531609147946e-002
      -5.6498439427289472e-002 -4.7383803435601966e-002
      6.5654516496595622e-002 -2.4872802838962562e-002
      -4.0417627252152134e-003 4.4152166464055381e-003
      3.7872500206109300e-002 5.7588589183977516e-002
      -4.0661921886169655e-002 -1.1240950174028232e-001
      1.1474275590867153e-002 2.7893012731102038e-002
      3.8457296466871217e-002 5.4760094691309914e-003
      1.4818881445615261e-002 -6.9427096895606860e-002
      4.5614140951763672e-002 3.9175811049890569e-002
      -2.0221038442792088e-002 -6.6000197080599884e-002
      3.3967492845624857e-002 2.4515715664267950e-002
      5.4029219597259703e-002 -7.2110442693238769e-002
      2.8050308880331703e-002 6.1969451065325198e-002
      -1.7724440819376606e-002 -2.9266849738253622e-002
      -1.3637660957017592e-001 -8.0459287888593328e-003
      -5.2068838490347658e-002 6.5236282217339845e-003
      -4.4644073041844937e-002 -8.2354590550151683e-003
      2.9836166502554010e-002 3.9276713096006999e-002
      9.5702243956191906e-003 2.1654641658387264e-002
      -1.7080976425124808e-001 3.5737410623066165e-002
      6.7276838949478640e-002 -1.5791064751523470e-001
      -1.7210281245563279e-002 -2.0233837727657598e-002
      -7.0851657130442836e-002 -1.9897298320650372e-002
      5.1724380591594420e-002 -6.4616419146428281e-002
      6.2333938030752267e-002 8.2141404707558915e-002
      -2.7303476188088618e-002 7.8695976000409507e-002
      -9.5138546077838705e-003 -5.0357015516119874e-002
      3.2440890743487043e-002 6.2992398136128377e-002
      3.1494015988002222e-002 -1.1279051236089820e-001
      1.2065969086307870e-002 -6.2523940243229201e-002
      -1.2434915658209209e-002 1.6488483513024989e-002
      -7.7170765812614311e-002 4.9977115625758683e-002
      -1.2527031809924233e-002 -6.8901662679783787e-002
      2.6843674469564951e-002 5.0812686469568366e-002
      -4.6422004258236914e-002 1.4908635176333876e-002
      -9.4287385354913891e-002 3.3954815837550785e-002
      8.3878016609289507e-002 8.0206158533771867e-003
      5.9495182178984300e-002 -3.9475322269014890e-003
      -4.0155845982082189e-002 4.9050849978607607e-003
      -2.2324310352792559e-002 9.2545681637593052e-002
      -1.0490584796943286e-002 -8.9069161456940410e-002
      1.6350529803678682e-002 1.0692731637528612e-001
      4.7552468159452414e-003 -6.6522722940795712e-002
      4.2334398266200592e-002 4.5181897136046117e-002
      -3.6320303788402078e-002 1.0674515977364042e-001
      5.1323679732121659e-002 2.8803182700053158e-002
      1.5256761668148572e-002 -5.9574441751577306e-002
      6.0845786460119585e-003 2.3664464712662956e-002
      -3.0055918498146015e-002 -3.1485271244277413e-002
      -8.5889296528062223e-002 -7.9457357983336169e-002
      5.5757292215722336e-002 -6.1081541275896413e-002
      4.5440263650171411e-002 -5.7719138413950204e-002
      6.3661651649453796e-002 -7.9987016249419368e-002
      -1.8775837504240153e-002 -1.0141701755624827e-001
      4.4943235100516142e-002 -1.0650572582864120e-002
      6.4806039114588071e-002 -6.9472908570885436e-002
      -2.8187775179841508e-002 3.1119856926732745e-003
      -2.1682763856781020e-004 -4.8040029931400073e-002
      7.1593466823807295e-002 -1.4375632357719227e-002
      5.1674255858067140e-002 -7.6590148833782677e-003
      -4.8143220442762591e-002 -9.7700516677503180e-002
      -6.7508167082221154e-002 9.8746941112320338e-002
      -3.1949408036169025e-002 4.3422841967807671e-002
      7.9978395277470089e-003 -1.9937430187481384e-002
      -2.8105570590488540e-002 9.0150204913735529e-002
      -7.4273634943988448e-002 5.9647387521748758e-002
      -1.3243872820343559e-002 4.0406213171116687e-002
      4.6640692707690015e-002 -4.0470644583844126e-002
      6.1036292337399413e-002 3.8992775584316020e-002
      -1.9036240683043038e-002 -2.9815277023574869e-002
      4.2785766958987656e-002 1.4835409001898005e-002
      -3.6287366339401708e-003 4.2780896691720438e-003
      1.0529561534879477e-001 -6.3777968045355016e-002
      -1.5900490619246532e-002 -4.1048706114052209e-002
      -1.9714243461746852e-002 -7.9451391801774532e-002
      4.4466786808823960e-002 1.8013175187559752e-002
      1.3936493441229783e-002 1.4400579106386521e-001
      -9.8893068476764451e-003 2.0441698831358782e-002
      1.0376711554869344e-001 -1.1131608911772865e-002
      -1.5886229274466195e-002 -3.3635118765766227e-002
      -2.3972937303828080e-002 -5.4565430749088858e-002
      6.5947744064802125e-002 -4.7398367460893348e-002
      -6.9159500566537219e-002 7.1280201074944871e-002
      -5.6813278483207996e-002 2.8406606223448205e-002
      4.1152544450453904e-001 -3.5125411148649296e-002
      7.3397623075268439e-002 -1.1905614696283613e-001
      -4.5310748373022181e-002 -6.2125174160848957e-002
      1.9901950860055594e-002 7.1750635019558029e-002
      3.0294436016235795e-002 2.0777747979857156e-002
      -6.4989065019987510e-002 2.6547074257881258e-002
      3.8363529342112221e-002 -8.1354642041821676e-002
      9.1717140037847339e-003 2.5195594266706936e-002
      -5.3915589813883509e-002 -2.6979451743180425e-002
      -4.8530871305086321e-002 4.2898444638788780e-002
      -4.0900022236537235e-002 2.7324010373121987e-002
      2.7870128194416005e-002 5.5147297020940761e-002
      -4.7651364321917571e-002 -3.4981382468859894e-002
      -1.1223205014626914e-001 -5.4541228392821356e-002
      -1.6701489584124533e-002 -1.5093929107470476e-002
      1.3535453087894144e-002 5.1062565267189934e-002
      -5.5631170463142664e-002 -8.9752848625412010e-002
      2.0636766947697616e-002 2.0121772997359760e-002
      8.1842844130900774e-002 -1.7231697013818166e-002
      2.6598064321601268e-002 -1.6830172024172894e-002
      1.9056541826642195e-002 1.1680211345323616e-002
      -1.6005860930859187e-003 9.4670378680969652e-003
      4.8248878787093011e-002 1.5271070239013662e-002
      6.7471471542625533e-002 -6.4375047804129518e-002
      -3.6445946276009486e-002 4.8723877395803257e-002
      2.9512225395246072e-002 -6.0954045726151360e-002
      -4.9928379407067867e-002 -4.2565859186664209e-002
      9.5292030990679396e-003 -5.3818232064855760e-002
      -2.1661967824878375e-002 -3.0657487055391001e-002
      -2.2143677627305462e-002 -4.9115246159407390e-003
      -8.1610006829511347e-002 4.1645120625129116e-002
      -8.0841893077996885e-002 -3.0080192658367113e-002
      2.7536996260013019e-002 -1.0081200287402317e-001
      1.0213458270249720e-001 -1.3959486149366531e-002
      8.9176873515091999e-004 9.1943755061711981e-003
      2.8051897238503199e-002 -2.9932677099725472e-002
      1.9742508228429295e-002 7.1703263659536791e-003
      -4.1807910024498083e-003 -2.5750346172640154e-003
      4.7889216689685724e-002 -3.1829034940521757e-002
      5.3037321332204193e-003 6.9536350086527463e-002
      5.2548699298997636e-002 -4.8964049757504900e-003
      1.0487762643448360e-001 -2.9382440371335881e-002
      4.2087035679903767e-002 -1.5754836484327309e-002
      -5.9335732100118228e-002 6.3648442087485227e-002
      2.7890818872348382e-002 -9.6065045752102993e-002
      2.8931693135896313e-002 3.8302126210000183e-002
      -4.0509533386827633e-002 -3.5745630211068254e-002
      -4.9400278260531387e-002 8.4437070556851474e-003
      3.1467197033087098e-002 -5.6105330283171384e-002
      5.7674924311619837e-002 1.1848650839678468e-002
      -5.9125456909984025e-002 5.5598104058127576e-003
      2.5813415050193092e-002 8.8041444825017884e-002
      4.3584053357471141e-002 -1.7264274044595202e-002
      9.2939105131045183e-002 1.1465423130848594e-001
      2.7586287723168131e-002 -7.2314579693087910e-002
      -2.0155699891665223e-002 8.8961469814185859e-003
      -7.3039952624912710e-002 1.5644167664195949e-002
      6.6407660162143292e-002 1.0261677396549308e-001
      5.1502254863444875e-002 -5.2149413948696072e-002
      -1.6747605848680255e-003 -1.8029724523135785e-002
      -1.0850595506479602e-002 -2.7392176515516859e-002
      -3.2760260319323935e-002 -2.4489880511068460e-002
      5.7513484092083428e-002 -2.2062181669305972e-002
      7.7009072186261796e-003 3.3129678461755269e-002
      3.7956423690338865e-002 -7.0479703042916439e-002
      2.9770412320763773e-002 -6.3511159992015065e-002
      3.6856536374177268e-002 4.2698109186862648e-002
      2.4482917976495919e-002 -9.1948373998240809e-002
      -6.9551007685895519e-002 8.8291210668462572e-002
      6.9570759015328068e-002 -8.7051326555381517e-002
      -1.9095619867534629e-002 -4.2651449215951334e-002
      7.2977695120050650e-003 -5.2105398659457111e-002
      -1.2842607441133981e-002 -1.0139025414392287e-001
      -2.3119968519916236e-002 4.6621620129648420e-002
      4.5318838424751454e-004 2.9522545007494089e-002
      1.3749699753316844e-002 -6.5361731276166360e-002
      -3.7703493958182822e-002 1.7779457455446620e-002
      -4.9062608199328381e-002 8.4783292321403358e-002
      -7.3669801202757956e-002 5.4366467298338113e-002
      3.1373415103177905e-002 -6.9940183542290882e-002
      4.5144751990977859e-002 -7.7092896111927017e-002
      -3.3205591065256120e-002 3.6746115828378167e-002
      3.5002937530342636e-002 2.7084640278371559e-002
      -8.4678929331520700e-002 3.1972625674330755e-002
