<?xml version="1.0"?>
<opencv_storage>
<my_nn type_id="opencv-ml-ann-mlp">
  <layer_sizes type_id="opencv-matrix">
    <rows>1</rows>
    <cols>3</cols>
    <dt>i</dt>
    <data>
      192 192 42</data></layer_sizes>
  <activation_function>SIGMOID_SYM</activation_function>
  <f_param1>6.6666666666666663e-001</f_param1>
  <f_param2>1.7159000000000000e+000</f_param2>
  <min_val>-9.4999999999999996e-001</min_val>
  <max_val>9.4999999999999996e-001</max_val>
  <min_val1>-9.7999999999999998e-001</min_val1>
  <max_val1>9.7999999999999998e-001</max_val1>
  <training_params>
    <train_method>BACKPROP</train_method>
    <dw_scale>1.0000000000000000e-002</dw_scale>
    <moment_scale>1.0000000000000000e-002</moment_scale>
    <term_criteria><epsilon>9.9999997764825821e-003</epsilon>
      <iterations>5000</iterations></term_criteria></training_params>
  <input_scale>
    1. 0. 1.6520877446358242e+002 -4.0521108716750680e+000
    1.2608081260610615e+002 -4.4254860967491592e+000
    1.6398101261746049e+002 -4.5062308913464282e+000
    1.3023071724297264e+002 -4.4970347520284024e+000
    1.6669007176237679e+002 -4.5680071577780339e+000
    1.2372239729744508e+002 -4.3428653124839389e+000
    1.6215834916435543e+002 -4.5392146334597081e+000 1. 0.
    1.4098861288204043e+002 -4.5539539547248200e+000
    1.2803576118955220e+002 -4.6492924577837069e+000
    1.4559169482164171e+002 -5.2525271903433088e+000
    1.3354906806754133e+002 -4.6825253177204269e+000
    1.4510928938519936e+002 -5.2247778549598847e+000
    1.2440405017156441e+002 -4.5329772659027006e+000
    1.4646726495648429e+002 -5.2564553355337473e+000 1. 0.
    1.3509597974878261e+002 -4.3769662465391557e+000
    1.1735151072745938e+002 -4.3122580978205054e+000
    1.3475945254175977e+002 -4.8507813629739438e+000
    1.2844387370271272e+002 -4.4980168302592158e+000
    1.3669608533035014e+002 -4.9129260544580706e+000
    1.1388978636663325e+002 -4.1652157055280901e+000
    1.3533584787062640e+002 -4.8565961267263225e+000 1. 0.
    1.3440841696439955e+002 -4.3734122122654195e+000
    1.1100630512730326e+002 -4.0800190625011439e+000
    1.3090930337577788e+002 -4.6419234574874633e+000
    1.2386176716916452e+002 -4.2841945817711720e+000
    1.3191404435423999e+002 -4.7415320175229212e+000
    1.1124634947687171e+002 -4.0691131171930799e+000
    1.3009044195338689e+002 -4.6053080351474360e+000 1. 0.
    1.3566096748814184e+002 -4.3973309840926769e+000
    1.0715376337326424e+002 -3.9978418956417596e+000
    1.3307003558552654e+002 -4.7150043929421592e+000
    1.2548771646923298e+002 -4.4048125804653200e+000
    1.3159154903879818e+002 -4.7086710591578029e+000
    1.1348031397975723e+002 -4.1751816479016863e+000
    1.3415845552876578e+002 -4.7661172560774290e+000 1. 0.
    1.3291072138401398e+002 -4.2683616194803129e+000
    1.0648724721470795e+002 -4.0182525559515829e+000
    1.3094088903530334e+002 -4.5114938606133368e+000
    1.0942995313836607e+002 -3.9617505476425374e+000
    1.2970306579860426e+002 -4.5203489194380371e+000
    1.0366346168577677e+002 -3.8621927433033107e+000
    1.3245138712857724e+002 -4.5530971289632189e+000 1. 0.
    1.3598699848715660e+002 -4.3868175601131947e+000
    1.1142013815682341e+002 -4.1553036240863728e+000
    1.3244415061388821e+002 -4.6444175023983494e+000
    1.1346739353483261e+002 -4.0835762665650908e+000
    1.2767952157556553e+002 -4.5954342256995986e+000
    1.1056961704676088e+002 -4.1364314946685967e+000
    1.3210728258835658e+002 -4.6272532379327247e+000 1. 0.
    1.5607621652426502e+002 -3.8407293945792609e+000
    1.1890054477599320e+002 -4.1889637661748615e+000
    1.5718603036794781e+002 -4.2120921330667338e+000
    1.2102860156841103e+002 -4.1624675732783940e+000
    1.5257846854940530e+002 -4.2121431692932294e+000
    1.1409339080652730e+002 -4.0812748891004604e+000
    1.5628134552751425e+002 -4.3017944554237584e+000
    1.8658007780560898e-002 -1.3421240464705277e+000
    1.7772795917661500e-002 -1.8037446438798872e+000
    1.7159034464103766e-002 -1.8802808622642693e+000
    1.5571726815789395e-002 -1.7426989048339507e+000
    1.6501708493457713e-002 -2.0167054218944962e+000
    1.7931695005805503e-002 -2.2610585295031345e+000
    1.6728292523549005e-002 -1.7585771176459186e+000
    1.9289328513860244e-002 -1.2321360283286913e+000
    1.8332699174285694e-002 -1.7672412514551665e+000
    1.7253661565947195e-002 -2.4471311962473035e+000
    1.6073269500733241e-002 -2.3630196166119686e+000
    1.4646552795769881e-002 -2.1090599683720077e+000
    1.5208580891388603e-002 -2.4193665494556682e+000
    1.7425987986416681e-002 -2.9481518360463452e+000
    1.6585780738452360e-002 -2.4170934267230377e+000
    1.7542596713928934e-002 -1.5612719448223114e+000
    1.7421970582643127e-002 -1.7268044790911472e+000
    1.5629165133414533e-002 -2.2142103645425730e+000
    1.7003704217372517e-002 -2.4676342913241762e+000
    1.6344392255802916e-002 -2.3663725985021733e+000
    1.6486076569622369e-002 -2.6089207985689278e+000
    1.7683481557994270e-002 -2.9732833798146552e+000
    1.6854586044310848e-002 -2.5762644835618991e+000
    1.7682228824464415e-002 -1.7763809395585033e+000
    1.6362160854193633e-002 -1.6765625418414567e+000
    1.4837694323524483e-002 -2.0819539522430670e+000
    1.7201211366336910e-002 -2.4855562526318074e+000
    1.5614847823819712e-002 -2.2804547115314961e+000
    1.5730042016211820e-002 -2.4143099562646206e+000
    1.7202536233236473e-002 -2.7748237598787853e+000
    1.6528935720566743e-002 -2.5174389804296067e+000
    1.7083336339010661e-002 -1.7852748093051862e+000
    1.7783230988907137e-002 -1.8857659545606342e+000
    1.5894199891804774e-002 -2.2631604437401598e+000
    1.7742492930661980e-002 -2.5677298723925688e+000
    1.5818369414368958e-002 -2.3826532816369661e+000
    1.5275116368951777e-002 -2.3780974663846273e+000
    1.7142904087106104e-002 -2.7197464178393695e+000
    1.6383705483123220e-002 -2.4700656845796778e+000
    1.6413822835278001e-002 -1.7391790021269902e+000
    1.8627106552070876e-002 -2.0604280499576091e+000
    1.7366544181718215e-002 -2.6436795304249192e+000
    1.8803966983398909e-002 -2.8662959698486352e+000
    1.6403101854245174e-002 -2.5697144974279751e+000
    1.6804664087701090e-002 -2.7242613345797864e+000
    1.7463093776848303e-002 -2.8737367701052379e+000
    1.5942176672250463e-002 -2.4925601142742186e+000
    1.6402524371896359e-002 -1.7887824262561813e+000
    1.8259760472949915e-002 -1.9501659911909068e+000
    1.6872424613347065e-002 -2.6392644124796880e+000
    1.8722808552300619e-002 -3.0433414003616504e+000
    1.6553835717188208e-002 -2.7375342789620443e+000
    1.6972652220408262e-002 -2.8384628722936811e+000
    1.8345705473573094e-002 -3.0658461227609219e+000
    1.7788519162412184e-002 -2.7832991105308587e+000
    1.7040891817026574e-002 -1.8520166452761806e+000
    1.7166394207555828e-002 -1.6053953902886047e+000
    1.5099985595657893e-002 -2.1833724455155523e+000
    1.8425917825540303e-002 -2.9889821259804488e+000
    1.8031238594985396e-002 -3.1094629227438575e+000
    1.8905905051399670e-002 -3.3027564753709941e+000
    1.9184321482758202e-002 -3.2597686627681175e+000
    1.7950704953401207e-002 -2.7348103994626860e+000
    1.7314505852057311e-002 -1.7862706835256064e+000
    1.7219745696447644e-002 -1.6078437367730658e+000
    1.5723314316744941e-002 -2.3569529213092326e+000
    1.8836139641801256e-002 -3.1954772046788671e+000
    1.9071819090333422e-002 -3.3867743916311843e+000
    1.9499700402543403e-002 -3.5213728581654000e+000
    1.9499295260231038e-002 -3.5189508723808087e+000
    1.7587088479856041e-002 -2.8289975766517195e+000
    1.6983731405181175e-002 -1.7657953497190630e+000
    1.7667557437204159e-002 -1.6921747904832647e+000
    1.6849508045781853e-002 -2.5725969436303293e+000
    1.8589173017705938e-002 -3.0788950063977500e+000
    1.6918240587029933e-002 -2.7401904737247436e+000
    1.7348731733351785e-002 -2.8266596996762803e+000
    1.8666096969332108e-002 -3.2468090820863353e+000
    1.7459645384737776e-002 -2.8217769125456380e+000
    1.6964002730255348e-002 -1.7541688511413160e+000
    1.8008605871791976e-002 -1.7816090834840794e+000
    1.7044156088314600e-002 -2.6072802700065911e+000
    1.7844198223422373e-002 -2.8114305127836823e+000
    1.6158446991158745e-002 -2.3929713272582886e+000
    1.6835005576872421e-002 -2.5253394418233732e+000
    1.7349375780578977e-002 -2.8677226007220042e+000
    1.6777189753690396e-002 -2.6606307130707720e+000
    1.6316896127231105e-002 -1.7260051611717442e+000
    1.8016405148179565e-002 -1.8715770865401353e+000
    1.7655664336454994e-002 -2.7796204791211507e+000
    1.7712795281314822e-002 -2.7978459501062263e+000
    1.5862408796772063e-002 -2.3342267019136336e+000
    1.6364231112452009e-002 -2.4712719060067574e+000
    1.7538071335070449e-002 -2.9086743271869406e+000
    1.7010362336992935e-002 -2.7137558413456366e+000
    1.6419112641274044e-002 -1.7978031568416259e+000
    1.6864454743724579e-002 -1.7682188205717215e+000
    1.6725980281684261e-002 -2.5411996107251511e+000
    1.8185729505261629e-002 -2.7520769662724178e+000
    1.6677679885099137e-002 -2.3777701103313635e+000
    1.6372645513486907e-002 -2.4092421037847536e+000
    1.8129655947532988e-002 -2.9174055113012534e+000
    1.6925697903981272e-002 -2.6419552128494463e+000
    1.6360636981766801e-002 -1.7848902552214452e+000
    1.6415066400453916e-002 -1.7364483195251967e+000
    1.5951448186370103e-002 -2.2545273136672774e+000
    1.6839807414708887e-002 -2.3745148542378356e+000
    1.7352527532392539e-002 -2.4028615250133067e+000
    1.7147774488181500e-002 -2.4685081318747848e+000
    1.6862196873211194e-002 -2.6204004645808188e+000
    1.6042895158919917e-002 -2.4602456809663726e+000
    1.6344315082061443e-002 -1.8167574556170965e+000
    1.6420408275558657e-002 -1.6263378949149887e+000
    1.5447753113097543e-002 -1.8986423763415321e+000
    1.4399481359495382e-002 -1.8250649102955891e+000
    1.4992928083086480e-002 -1.9652363869114282e+000
    1.5705566236112238e-002 -2.1334163559366242e+000
    1.4818622707270425e-002 -2.1043459621649525e+000
    1.5122717274641239e-002 -2.1327506600290667e+000
    1.6214679905516852e-002 -1.7424243500176753e+000
    1.7148444259852381e-002 -1.3692700671320261e+000
    1.7334877541900145e-002 -1.5863013887890665e+000
    1.6346136344190392e-002 -1.5766733175700289e+000
    1.6158753331694739e-002 -1.6449578798808580e+000
    1.5890869033481258e-002 -1.6279524657538467e+000
    1.6453719633061182e-002 -1.6725246855367251e+000
    1.6779113785128266e-002 -1.7487085747011397e+000
    1.6915139446490646e-002 -1.4836240252670809e+000</input_scale>
  <output_scale>
    5.2631578947368418e-001 4.9999999999999994e-001
    5.2631578947368418e-001 4.9999999999999994e-001
    5.2631578947368418e-001 4.9999999999999994e-001
    5.2631578947368418e-001 4.9999999999999994e-001
    5.2631578947368418e-001 4.9999999999999994e-001
    5.2631578947368418e-001 4.9999999999999994e-001
    5.2631578947368418e-001 4.9999999999999994e-001
    5.2631578947368418e-001 4.9999999999999994e-001
    5.2631578947368418e-001 4.9999999999999994e-001
    5.2631578947368418e-001 4.9999999999999994e-001
    5.2631578947368418e-001 4.9999999999999994e-001
    5.2631578947368418e-001 4.9999999999999994e-001
    5.2631578947368418e-001 4.9999999999999994e-001
    5.2631578947368418e-001 4.9999999999999994e-001
    5.2631578947368418e-001 4.9999999999999994e-001
    5.2631578947368418e-001 4.9999999999999994e-001
    5.2631578947368418e-001 4.9999999999999994e-001
    5.2631578947368418e-001 4.9999999999999994e-001
    5.2631578947368418e-001 4.9999999999999994e-001
    5.2631578947368418e-001 4.9999999999999994e-001
    5.2631578947368418e-001 4.9999999999999994e-001
    5.2631578947368418e-001 4.9999999999999994e-001
    5.2631578947368418e-001 4.9999999999999994e-001
    5.2631578947368418e-001 4.9999999999999994e-001 1. 0.
    5.2631578947368418e-001 4.9999999999999994e-001
    5.2631578947368418e-001 4.9999999999999994e-001
    5.2631578947368418e-001 4.9999999999999994e-001
    5.2631578947368418e-001 4.9999999999999994e-001
    5.2631578947368418e-001 4.9999999999999994e-001
    5.2631578947368418e-001 4.9999999999999994e-001
    5.2631578947368418e-001 4.9999999999999994e-001
    5.2631578947368418e-001 4.9999999999999994e-001
    5.2631578947368418e-001 4.9999999999999994e-001
    5.2631578947368418e-001 4.9999999999999994e-001
    5.2631578947368418e-001 4.9999999999999994e-001
    5.2631578947368418e-001 4.9999999999999994e-001
    5.2631578947368418e-001 4.9999999999999994e-001
    5.2631578947368418e-001 4.9999999999999994e-001
    5.2631578947368418e-001 4.9999999999999994e-001
    5.2631578947368418e-001 4.9999999999999994e-001
    5.2631578947368418e-001 4.9999999999999994e-001</output_scale>
  <inv_output_scale>
    1.8999999999999999e+000 -9.4999999999999996e-001
    1.8999999999999999e+000 -9.4999999999999996e-001
    1.8999999999999999e+000 -9.4999999999999996e-001
    1.8999999999999999e+000 -9.4999999999999996e-001
    1.8999999999999999e+000 -9.4999999999999996e-001
    1.8999999999999999e+000 -9.4999999999999996e-001
    1.8999999999999999e+000 -9.4999999999999996e-001
    1.8999999999999999e+000 -9.4999999999999996e-001
    1.8999999999999999e+000 -9.4999999999999996e-001
    1.8999999999999999e+000 -9.4999999999999996e-001
    1.8999999999999999e+000 -9.4999999999999996e-001
    1.8999999999999999e+000 -9.4999999999999996e-001
    1.8999999999999999e+000 -9.4999999999999996e-001
    1.8999999999999999e+000 -9.4999999999999996e-001
    1.8999999999999999e+000 -9.4999999999999996e-001
    1.8999999999999999e+000 -9.4999999999999996e-001
    1.8999999999999999e+000 -9.4999999999999996e-001
    1.8999999999999999e+000 -9.4999999999999996e-001
    1.8999999999999999e+000 -9.4999999999999996e-001
    1.8999999999999999e+000 -9.4999999999999996e-001
    1.8999999999999999e+000 -9.4999999999999996e-001
    1.8999999999999999e+000 -9.4999999999999996e-001
    1.8999999999999999e+000 -9.4999999999999996e-001
    1.8999999999999999e+000 -9.4999999999999996e-001 1. 0.
    1.8999999999999999e+000 -9.4999999999999996e-001
    1.8999999999999999e+000 -9.4999999999999996e-001
    1.8999999999999999e+000 -9.4999999999999996e-001
    1.8999999999999999e+000 -9.4999999999999996e-001
    1.8999999999999999e+000 -9.4999999999999996e-001
    1.8999999999999999e+000 -9.4999999999999996e-001
    1.8999999999999999e+000 -9.4999999999999996e-001
    1.8999999999999999e+000 -9.4999999999999996e-001
    1.8999999999999999e+000 -9.4999999999999996e-001
    1.8999999999999999e+000 -9.4999999999999996e-001
    1.8999999999999999e+000 -9.4999999999999996e-001
    1.8999999999999999e+000 -9.4999999999999996e-001
    1.8999999999999999e+000 -9.4999999999999996e-001
    1.8999999999999999e+000 -9.4999999999999996e-001
    1.8999999999999999e+000 -9.4999999999999996e-001
    1.8999999999999999e+000 -9.4999999999999996e-001
    1.8999999999999999e+000 -9.4999999999999996e-001</inv_output_scale>
  <weights>
    <_>
      -9.4774394706927459e-003 -9.7805219828911334e-003
      -2.0921956870595290e-004 2.4404954239721638e-003
      1.7826149343995246e-003 -4.0739546956759512e-003
      -1.8086671299757412e-003 4.9711256335304189e-003
      -8.0258741567577879e-003 3.8228825866447661e-004
      -1.9748438002816318e-003 -4.5561885684176637e-003
      -2.9975330284229564e-003 3.1486997294390825e-003
      7.1306952547383750e-004 -2.2670657843549533e-003
      5.0370871195420316e-003 8.3227771892789831e-004
      -2.5485483660139530e-003 -2.5002280115775491e-004
      -5.0968104100118641e-003 4.2008445609326983e-003
      -7.5285901558527447e-003 6.1644744656508691e-003
      -3.8553584354916290e-003 9.6616773526332304e-003
      5.0609761704699793e-003 -1.1293055072537396e-003
      -7.9841650000755451e-003 5.1188453096344174e-003
      7.0869217660411872e-004 -9.1729505242223470e-003
      7.5197821958013266e-003 3.8650389908641497e-003
      -1.3554520088649265e-004 6.9280949925869563e-003
      -7.7265310219992315e-003 2.4390471210455505e-003
      -4.6105022292075868e-003 -4.1998577343580054e-003
      -7.7206269581526739e-003 9.9766978577998551e-003
      4.2544577578334328e-003 1.3754517380714702e-003
      7.1796435332770539e-003 -3.6314002586833017e-003
      7.1302042362966882e-003 5.9848411933615987e-003
      -8.7012957274677314e-003 -7.1911688818492407e-003
      3.5753906382966408e-004 -7.8206324736721719e-003
      7.7840334160302673e-005 -9.7247046973899017e-003
      6.5906532945043820e-004 -6.6883423836866093e-003
      1.0267470172397101e-002 2.4589843309896263e-003
      4.2177802259136879e-003 -2.5745004564537138e-005
      -9.1245559952410783e-003 4.6682843740123679e-003
      -3.2086970244528438e-003 -8.6643351054055979e-003
      -4.4314902091338479e-004 -8.0917907515533228e-003
      -4.7106191796082537e-003 5.4813280656156316e-003
      -2.1113643434525519e-004 -7.1603200584857002e-003
      -1.9313744214374390e-003 8.0881452445791969e-003
      -5.7626970373238790e-003 3.2385791708325500e-003
      -9.0264538523999859e-003 -8.3071699634805346e-003
      6.7234290194826728e-003 -5.2206927062768763e-003
      9.4966577799442207e-003 -7.4237071929381592e-003
      -5.7398595433081779e-003 -2.0103225189369886e-003
      8.8759822239327171e-003 1.3590891472343594e-003
      4.2237535617746019e-003 2.9836713601291928e-003
      3.5702107009188372e-003 1.8901887388650806e-003
      9.1388047665465610e-003 3.8644142153306856e-003
      -8.5457007598703349e-003 4.4538058287786611e-003
      9.4856801867413357e-003 2.8557089696693398e-003
      2.8982475581529957e-003 -6.1692684888342113e-003
      7.3143594555870918e-003 -4.1482498175634524e-003
      3.3752444836027528e-003 -7.4452395656556397e-003
      -6.1845268364962300e-003 6.0264122627934659e-003
      -8.4815390293495399e-003 4.0147813343026474e-003
      4.3837645794166848e-003 3.8368163650613590e-003
      -8.6385474387302586e-003 -9.9415775626384446e-003
      7.5109333721571385e-003 -9.5411738712115005e-003
      -3.4234751243589117e-003 -6.3589078712151977e-003
      -7.7230079999872818e-003 -5.1571929445438803e-003
      3.8867623092827793e-003 8.4313922739099843e-003
      -6.6865057053254783e-003 -2.5348848451417455e-003
      3.7118882088317934e-003 -6.6618591861344672e-003
      -7.3443811874468953e-003 -2.5576058866699451e-003
      3.1610320554713066e-003 6.9403163434145062e-003
      9.1255242269702667e-003 -8.7392895667056745e-003
      -7.9585156868439556e-004 -5.2494145688038851e-003
      -8.0898733159987697e-003 2.1927887959098463e-004
      -9.8332158042401651e-003 -8.9059142405920142e-003
      8.9704192336094463e-003 2.2753640837821255e-003
      1.4789415735889002e-003 -7.5156762652871627e-003
      -8.5957154756025871e-003 -4.2846266567992753e-003
      5.1558259987878521e-003 3.7180267592480453e-004
      -8.2661007363254188e-004 -9.5016089234157570e-003
      5.4214194731074770e-003 7.5946995821700438e-003
      -9.5358673566572887e-003 4.0276062510767128e-003
      -7.9922091987431089e-003 -1.9233252445361767e-003
      -6.0736589670730761e-003 6.9899055328251835e-003
      1.0045558859734034e-004 -2.3930381159207072e-003
      -6.1498343560791027e-003 9.1869368739552031e-003
      -5.0312480841038214e-003 -5.0576352806115795e-003
      -7.1358628471272483e-003 -9.6478922676524886e-003
      2.1329996454838495e-003 2.7190032651601965e-003
      5.2443130122763418e-003 -9.0053141158247044e-003
      -3.2104946150842092e-003 3.3401647501044088e-003
      2.8177639379689343e-003 -4.4751893211692527e-003
      3.0455839087828742e-003 -6.5405593841857722e-003
      -2.0932315025789963e-003 3.7954907859074397e-003
      -5.4419576138871415e-003 -1.0389572524830911e-002
      6.9966178861906715e-004 7.9927233867555635e-003
      5.0507399638574776e-003 -6.1690568077717610e-006
      -3.3827172239549036e-003 -1.0073950853355173e-002
      -3.8259064801943474e-003 -1.0450919271156848e-002
      -9.7928840153109192e-003 8.5487957745100859e-003
      -2.5400033143762779e-003 5.0165710185769690e-003
      7.8777970024318956e-003 4.8212059431027281e-003
      -3.7233622833704092e-004 -9.1814154631758571e-003
      -1.7251515388112776e-003 -5.2734601102399341e-003
      -5.3371935619845223e-004 -4.0506534619315126e-003
      4.9699897183321809e-002 1.7035678305070398e-002
      1.1766674667083850e-003 -6.6864348417940466e-003
      4.5749416674287217e-002 4.3457196185273751e-002
      4.6815664977934358e-002 6.6740214059356123e-002
      -3.6903745410990653e-002 1.6132118377148015e-002
      -1.2052846134473940e-002 -2.0322535725628994e-002
      1.1289749795127845e-002 6.2896434880603133e-002
      3.1766035030260500e-002 1.7762271632731665e-002
      -6.3501552787241483e-002 -8.7302539445201083e-002
      2.5435963768245064e-002 5.6306254917597484e-002
      -2.7108419009448378e-002 -6.6420394430040889e-003
      1.1731609607044452e-002 -7.0224889130472673e-002
      8.0569249097323936e-002 4.8496665445026963e-003
      1.3094338075640363e-002 2.4687568388800159e-002
      -1.4172600717456000e-002 7.3018651421502823e-002
      -3.2598015439358807e-002 4.4746997010269213e-002
      1.1861608978126107e-002 2.6009466976474556e-002
      -1.0349065120103886e-002 -4.1186566502066257e-002
      -1.2342715820970133e-002 1.2375272569899502e-002
      -6.1106240108354644e-002 2.4596893906357185e-002
      7.0586576821794714e-002 -1.6291379913585261e-002
      -9.3739041410964580e-003 6.2426883397058069e-002
      8.8134588666562291e-003 3.3940857984533786e-002
      -5.5395770573077374e-002 -2.5866076883430802e-002
      -6.1947543794854815e-003 4.6930988601318821e-002
      -2.0126684827088754e-002 -7.3395977494084995e-003
      5.6228292956304741e-004 -2.5125213371458368e-002
      -1.8545119244023512e-002 2.1255935212850324e-002
      9.2913943814444174e-003 -5.4684195583006814e-002
      -4.9175819716341357e-002 -1.6351284550259054e-002
      4.5497852068226277e-002 -4.1748675702703228e-002
      -1.4186836337836200e-002 -1.9933861615687408e-002
      1.3595657921146299e-002 1.8776370121987254e-002
      -3.0950401661503604e-002 4.6154110199462327e-002
      -3.1987937004031554e-002 -6.2529136081491604e-002
      8.9923965581544078e-003 4.5320966388014208e-002
      -7.9502777610412800e-002 8.8061957588178291e-003
      -2.0721172052761170e-002 -2.8279527710790019e-002
      -2.7161058882339589e-002 4.7920349032331104e-002
      6.8974065749245139e-002 7.8331872496464547e-003
      -3.8778889846346480e-003 6.1252943736867627e-002
      1.6530135099600399e-002 1.0976374576561086e-001
      -5.5688637777538873e-002 3.7101673365672059e-003
      6.6424900661444892e-003 -7.6842737244394971e-002
      1.2263527348720021e-002 -1.1669999700436492e-002
      -6.7921187865030786e-003 -6.3313433759586923e-002
      2.0897337440829895e-002 1.9156453902567313e-002
      -5.3567748556974541e-002 2.5929171903261456e-002
      -4.5875679038895827e-002 -2.5726185476663679e-002
      -6.0966063499806974e-002 1.7136226854166662e-002
      4.6744260180919296e-002 -6.3817036262168803e-003
      -2.8269768555799945e-002 -3.7770277267551521e-002
      -2.2527001218219350e-002 2.0078090737216680e-002
      -5.6630082144276932e-004 1.6224910441442329e-002
      1.6030644295114842e-002 6.8300745603683474e-002
      -7.9813667635714056e-002 6.2858950637945263e-002
      4.5318781691211549e-002 2.2553557217056531e-002
      -9.0934252641438947e-003 -4.9329930132420305e-002
      -5.6146942408826263e-002 -3.3943961499513127e-002
      1.5141990489668050e-002 3.6875845561901689e-002
      6.1797160417821233e-002 -1.0969225604624653e-002
      2.2459321865985968e-002 3.1971543961706032e-002
      1.4979336963919190e-002 -1.5304396422405251e-002
      4.7365125274665886e-003 3.7263698100587481e-002
      -7.6278204318584772e-002 9.6446245496285797e-003
      2.3528630198569229e-002 -3.6209817205552141e-003
      6.8058509145280152e-002 -2.0788303976348933e-002
      1.0896897280308756e-002 -7.2165468824371096e-002
      7.1042557502700677e-003 4.0259049024062937e-002
      -1.2767024258571350e-002 5.6403774505794741e-003
      -7.6422756630446440e-002 2.6415808223783730e-002
      6.8445235268535867e-002 7.4204847568772894e-002
      -3.3306724062836988e-002 3.7340950808660109e-002
      1.8831607009042017e-002 4.4003392683915662e-002
      1.3567888714382740e-003 1.4042906415240680e-001
      -9.4269584527954613e-004 -7.4979670221376901e-002
      -2.9386484558862809e-003 1.0580144171176373e-001
      -2.1552699159626904e-002 -4.6309724028998148e-002
      5.3225228226292907e-003 3.9810532772635070e-002
      -1.9106299627811987e-002 9.2215154132705961e-003
      3.0089180515252500e-002 2.7907903249901545e-002
      4.4038559886138556e-002 4.3810680022260779e-003
      3.7650733341855945e-002 5.8714513308198955e-002
      -1.9733021784736279e-002 2.0721692466523778e-002
      -3.3898585813218890e-002 1.7617491315969833e-002
      -2.1543321410303819e-002 -2.3294734325532168e-002
      6.1792479192966480e-003 -1.3318006781395820e-002
      6.7312734330914697e-002 -5.9787641876351755e-005
      -4.8362263817764629e-002 -1.5370323439942244e-002
      -7.7240718104239683e-003 7.5091408657285037e-003
      -7.5893294710472375e-002 -2.2462837864829690e-002
      1.3283091289378307e-001 -2.6002524820954189e-002
      -8.6002650205112260e-002 1.7797897257316758e-002
      -1.5839010709075282e-002 2.0722137267311831e-002
      -2.7720912713933590e-002 -2.5816887161847647e-003
      1.2939868884436375e-002 -9.5685713715943869e-003
      -2.4435614842222766e-001 -4.1875950024460751e-003
      4.0337350212997268e-003 1.5631350875192442e-002
      5.9923008174796483e-002 8.4883577832782914e-002
      -3.5933670205896529e-003 -4.5701117889550891e-002
      9.8583684978956945e-003 1.3657508932550430e-002
      1.2484416502387317e-001 1.2648174803888357e-002
      4.2051387343369469e-003 3.0858497845012073e-002
      1.0612060822485579e-002 -4.3809184562256076e-002
      2.3898863886657917e-002 -5.6952420504013078e-002
      -8.3317175668630603e-002 -2.3887444536400300e-002
      -1.2410647768349652e-002 3.3458814597955598e-002
      1.4429971380598636e-002 2.3131932927949770e-002
      2.3216671312568066e-002 -5.3559156041224888e-002
      -4.2095664500110680e-002 1.4331553505412644e-002
      -2.4348082732808959e-002 5.1098955064850009e-002
      -1.3853421194586039e-002 2.2586754900571059e-002
      1.9462426920061192e-002 6.8909587150683682e-002
      6.7593588729144671e-002 -8.9993563105618041e-002
      -6.1162498659934658e-002 -5.4130521106845263e-002
      9.9645816425393080e-002 6.5505129738190546e-002
      -8.9743445616176400e-003 6.0877874190043896e-002
      -5.4395351612562225e-002 9.1142834898620718e-003
      5.2167311892999856e-002 3.3087758750724061e-002
      6.2684165489686236e-002 -8.8808777265580674e-002
      -1.2217481507276114e-002 -3.7278639070935878e-003
      -6.4468964028868009e-002 -1.1727579903892846e-002
      2.2697021375588808e-002 4.6790147009143662e-002
      1.0481505480892092e-002 4.2969003114648505e-002
      -3.7532231224782130e-002 7.3009522952339782e-003
      -6.2431103496330236e-002 7.9068288861124505e-002
      -1.1022349163283960e-002 2.4777187506658159e-002
      6.4180316066814055e-002 4.1357393727592839e-002
      -3.3843900329965620e-002 -5.0774007511055874e-002
      6.6315034965070394e-002 -2.9178024444373635e-002
      -1.0970496158712258e-001 -2.3993051474088176e-002
      3.8300564213429693e-002 1.8598817607840171e-002
      -2.5266417884707071e-002 -1.0714995053334720e-002
      2.7580689489199270e-002 -3.2709709970519661e-002
      3.9620119890537479e-002 6.2511911067175121e-003
      -7.6188699411428376e-002 4.8164590895955206e-002
      -7.3048926448506843e-002 4.0315794240570968e-002
      -1.0078756070052336e-001 -1.0184759746455952e-002
      -2.3639808635644130e-003 -6.9252298352247867e-003
      4.1100240726887755e-002 3.4780858538328061e-002
      2.4453239647455712e-002 7.7973221644067406e-003
      -1.8229569899299650e-002 -5.2541757127910024e-002
      -7.4398366571128216e-003 -2.6476243296759978e-002
      1.7777949949653791e-002 1.6615834607221547e-002
      3.0496932587871405e-002 1.5558280498019427e-002
      5.2047933821797572e-002 -9.5285881912015669e-004
      -5.5977364569963807e-002 7.0696899787084369e-003
      -7.1696523797874445e-002 9.3460181282328803e-002
      6.6033450794469178e-002 7.8350948056512021e-002
      2.3463037333609309e-002 3.1038800271536819e-003
      8.3331257552656135e-002 -2.8752186759513826e-002
      7.4743467622218798e-002 -4.8512642509752540e-002
      -3.3830516224941667e-002 6.8194271217470043e-002
      -8.2723752973424373e-003 9.1729194531087258e-002
      4.8176176620032402e-002 7.3247820491799231e-002
      2.2833378387736566e-002 4.6286878202781115e-002
      -4.5056225246669489e-002 9.8914011404423935e-002
      5.9534326985200052e-002 -7.7137691897537039e-002
      -6.5903184299900386e-002 -9.9129283677762914e-002
      7.5527249024381057e-002 5.2864509933360905e-004
      1.6100361545427991e-001 -4.5094287254210268e-002
      -2.0711624130891244e-002 -2.8626791686326095e-002
      -7.6711718441056939e-002 -4.1741391747650257e-002
      2.2548323234932745e-002 -1.6316400429194827e-001
      -3.4607000708741488e-002 9.2781076703996365e-002
      -6.0442465515797954e-002 2.1621123838534186e-002
      2.9625615283542617e-002 -4.4455317324175958e-002
      -3.5838458635654477e-002 -4.4167335057194008e-002
      3.4415516817902024e-002 -1.0090491733205222e-001
      3.5077516450202170e-002 3.4022408343132721e-002
      4.5172878139161425e-002 -7.8498949793548937e-003
      -4.9505111992448975e-002 3.2572337911562742e-002
      -5.7283889641072901e-002 3.7032720146710288e-002
      5.4750798130474024e-002 -2.9608547558108031e-002
      -1.1217245665026120e-001 4.5942965877172502e-003
      -5.8230936519279089e-002 -7.6377080238282519e-002
      9.0917137114658958e-002 -4.9357910204124202e-002
      -4.7768591181242021e-002 -5.0050990560095404e-002
      2.6710778935359801e-002 -2.1074675637925928e-002
      3.8942575108146270e-002 -3.3381180191680820e-002
      3.1018160446446789e-002 -1.7553380958094944e-002
      -7.6673287726583245e-002 -2.8677213051373652e-002
      9.7685983606728713e-002 -4.8470699610275371e-002
      -3.7079851271905245e-002 -3.2858391283167740e-002
      2.9875548790266552e-002 -1.9467227909116529e-002
      9.1173790512891414e-002 -2.2540662838600272e-002
      3.1804057568559085e-002 2.1664546442432726e-002
      -3.0744175635714167e-002 1.9537016829228301e-002
      3.2542588795648260e-002 1.0848182274926396e-001
      3.9529165842822539e-002 2.3619633111070022e-002
      6.0430459756778392e-003 1.5800195126560321e-001
      3.9264920176568401e-002 3.3623220194078346e-002
      -6.4224711254443623e-001 -2.3588747453688590e-002
      -3.0780545689823698e-002 6.5678285519246885e-002
      -1.6333495240840934e-002 6.4935260269713108e-002
      -7.4298619619867531e-004 -1.1182780001409096e-001
      6.4904875216487135e-002 4.7555199196056108e-002
      2.9551323516992124e-002 -1.9873530191477910e-002
      -1.2884334416588577e-002 4.4534414123676806e-002
      -1.4792338910559526e-002 1.6259484706691866e-002
      -3.2646558279149938e-002 2.3733356838575449e-002
      -4.6343957712523046e-002 -2.1878422910707261e-002
      -4.7387062996247870e-002 -2.4444629560464340e-003
      1.7138818649909661e-002 2.5844162742741698e-002
      1.6819403711784284e-002 1.4498057523007195e-002
      -1.1113872473754066e-002 2.7733606732362467e-002
      -4.0527220761666968e-002 6.7555342253465045e-002
      -5.5071752856015919e-002 -6.2569085573760078e-002
      3.5326448628769436e-002 -1.7594519328401250e-003
      -9.4886719410061882e-002 2.6474109118078324e-002
      2.3933515090039364e-002 5.9047948549200363e-003
      4.6038808155161683e-002 -7.8781171361286834e-003
      2.9177042879584055e-002 -3.0051960963430838e-002
      9.1347187295089255e-002 2.1470007904759148e-003
      5.8927757338176512e-002 -4.2470698998999273e-002
      3.8891134628727987e-002 -1.6697511705619113e-002
      -3.5477185264251483e-002 3.5475976709880078e-003
      6.0828216234245121e-003 4.6938588728408634e-003
      1.3668809016276973e-002 -5.9128864167305804e-002
      4.0257066249956702e-002 2.5308917015813000e-002
      3.2893000532770313e-002 2.6832998133181667e-002
      6.8242920437692214e-002 -6.0880064463820095e-003
      3.4402306540083950e-002 -1.9609811574933800e-002
      3.1847931977838403e-002 7.2551432356100093e-003
      6.9110569937936628e-002 4.2338277500241078e-002
      -1.3415413050409660e-002 -9.7351727624990485e-003
      3.7946452453837695e-002 3.2064583526609090e-002
      -2.6287707010999796e-003 -9.3204617861195396e-003
      -5.3931058161457338e-002 -1.1513009838319163e-002
      4.1090936080510468e-002 7.8021349638836843e-004
      -2.7852668813982503e-002 2.6536299683611490e-002
      1.2129877228457391e-001 -4.6040435463759917e-002
      5.8420610253075581e-003 -2.5167044254700618e-002
      2.1740816780349225e-003 -4.5317303019644581e-002
      1.9269825059536449e-003 -6.4439098051136123e-002
      -4.4920223547056312e-002 3.6248541260857745e-003
      7.1699622926054089e-003 -1.4698713889348649e-002
      2.3681616918912379e-002 -3.0871478191327978e-003
      7.7401601432383980e-003 2.7697063454297604e-002
      -7.7434489813748522e-002 2.4531595722482916e-003
      1.3127942294682438e-002 1.1055822921021972e-002
      1.1539316562599782e-003 -4.7819026491958114e-002
      6.5395402536684855e-002 -2.1367896915404857e-002
      4.0622161519221489e-002 5.8780179944589048e-002
      7.3746905459982900e-002 6.6252080843000868e-002
      1.8110683752921793e-002 -5.6306856198389595e-003
      -5.9576229358767755e-003 -4.3572754361112673e-002
      -3.6821366522348853e-002 3.7609943903603220e-002
      1.4335549631924058e-002 2.2124711269284104e-002
      -4.0561217382274306e-004 -7.6488015091929359e-002
      -7.5752068721701954e-002 -5.1107420654301502e-002
      -1.2701468434240859e-004 3.4887207619947021e-002
      -1.2219257033058649e-002 -2.4033242868850394e-002
      1.3533601645078627e-002 -3.3947564474485194e-002
      -2.0321551814995266e-002 4.1845747372882727e-002
      -1.1565548697413814e-002 4.9632200133255026e-002
      -8.2658936805027644e-002 -9.1581297879328935e-003
      -3.4670684336121561e-002 -7.5386222728870314e-002
      -7.5737180003665375e-002 -7.6012863042360046e-002
      4.7676371964240155e-002 2.2564267358994219e-003
      -3.5719651309391058e-003 4.6222550985558601e-002
      -5.9517588998893433e-003 2.8150518726130516e-002
      -2.9797697082323008e-002 -1.2753556898020308e-002
      5.0503987699475457e-002 -2.4586790183962919e-002
      -3.6412411570730503e-002 1.3437637340987709e-002
      -1.3726436962850506e-002 -2.1710948370995620e-002
      5.6511757467180325e-002 1.3481193947762527e-002
      -1.6095820763527866e-002 -8.4540047062254594e-003
      1.2514951918658568e-001 -4.8130189844156667e-003
      9.9423500817190352e-003 -5.1503162569841561e-002
      4.6165682126028784e-002 6.1718430675185842e-002
      2.7173926266027781e-002 2.8319990263523231e-002
      -1.5767699491474302e-002 2.2229038820603099e-002
      1.9439744479433974e-002 -5.2263384792651600e-002
      -1.2641265841458495e-002 -3.7555568124752678e-002
      -3.8929670148805572e-002 6.0928405261321025e-002
      -7.1270695542145268e-002 5.6004178477515300e-002
      2.2470037483585115e-002 -1.0628617617917460e-002
      6.6295813530513380e-003 4.7908042562586298e-003
      -1.1150788991234657e-002 -4.1808073160209465e-002
      -3.6662329632807161e-002 9.7344172384871266e-002
      4.8931514900051411e-002 -5.4674140764615825e-002
      -5.1907511084353895e-002 -2.7214285397970960e-002
      -1.3558364564154853e-002 -3.9636946749067599e-002
      1.4208198777816041e-002 -5.4879607729574349e-002
      5.6270935825264080e-002 7.4851901472030330e-002
      -1.3672913333118888e-002 -2.2729918430688657e-002
      -2.2107538568223575e-002 7.1957478049914189e-002
      4.2165441079795485e-001 3.2158012275075365e-002
      4.2275963929474240e-002 3.2930917158839203e-002
      -5.2717223999488985e-002 -3.3104412082200114e-002
      -2.7500229324896293e-003 -4.2520901823038124e-002
      -1.2786809871475579e-002 -5.0523118700006170e-002
      -9.8237109792895058e-002 1.9073222909929476e-002
      4.4900291719094333e-003 2.8170943994228767e-003
      2.7526665367211899e-002 9.6212719047607004e-002
      -5.8300276723076867e-002 3.0578618895997597e-002
      2.1773870815481804e-002 5.9585491838211907e-002
      4.4983784616784123e-002 -8.9109286282113842e-002
      4.3745680635130721e-002 -1.0993581985348404e-001
      -6.0649825010233912e-003 1.5402213574673768e-002
      7.4904171235004702e-002 -3.5608027410233396e-002
      5.0464759669774262e-002 -5.1115885222301705e-002
      -8.5737412521168024e-002 2.2106245959884155e-002
      -4.0106868157312563e-002 3.1918430111916543e-002
      -6.1863969494100397e-002 7.9331808032657075e-002
      -4.8792233300439464e-003 1.1440265924091410e-001
      -9.8960186094762120e-002 4.5032059948617023e-003
      -2.2269237682697347e-003 -3.5984967032319320e-002
      -5.0727806922759733e-003 9.0140459024876426e-002
      -3.8105655072543924e-002 -2.4090802379093189e-002
      -5.4738140540315110e-002 4.5752634374796160e-002
      1.1667626870103125e-002 9.5952357693174326e-002
      5.9663924560954366e-002 -3.8604666194948199e-003
      -3.5888120240346676e-002 -2.4636103943995808e-002
      -4.7256875079557920e-002 -4.4428457754379647e-002
      8.5189299344307037e-002 7.5897246649480624e-002
      -9.5736461061799255e-002 -6.3278417247436422e-002
      -1.1261891810725393e-002 -6.1637724503505825e-002
      -2.4049778436716216e-002 2.7539241148768958e-002
      -5.5103148769393928e-002 7.4603155872085608e-003
      5.0618075711630656e-002 -7.1261372858254610e-002
      4.6592371998412867e-002 -8.3969821329438407e-003
      -5.1809969451237038e-002 8.2368381900157928e-003
      -4.0783162918198959e-002 3.4286548882546487e-002
      2.5364647105328104e-002 1.7534215850637181e-002
      -5.4888798891883431e-003 -6.0260631728568631e-002
      -4.5176025567267970e-002 6.1465987298636796e-002
      -1.4412202669183466e-002 -3.9382953832923222e-002
      1.1760842449140664e-001 -2.8120656735919472e-004
      1.7690888545981769e-002 -3.8899003275998274e-002
      -1.6163637690381934e-002 -3.1203749930060670e-002
      4.4227100137925537e-002 -3.2451672745726440e-002
      -5.5632997116168689e-002 2.5306502771869539e-002
      7.8867253820226208e-003 2.4794437002045996e-003
      1.0900880378188753e-001 -5.4843805792034132e-003
      -1.1116963217161034e-002 -2.6239407755186445e-003
      -3.2840809564661380e-003 -1.7057944763462579e-003
      3.7808311549937866e-003 3.1249583517873186e-002
      -5.8324072006348378e-002 -6.2908069935480954e-002
      -2.0127658087600715e-002 4.0500572309377855e-002
      -1.0641577887388216e-001 4.1050372065355757e-002
      -3.7558134502874228e-002 2.3893528677620859e-002
      2.4621691792271194e-002 2.6546898467487271e-003
      6.5275038827859136e-002 -3.8067333934683659e-002
      5.3902343868543562e-002 1.2741964168183319e-002
      6.7075537112476213e-002 -3.5282273713271993e-002
      4.8485429648574254e-004 -3.2447973784646977e-002
      1.2839596623038252e-001 -4.1027194534282822e-002
      -2.5514187603110864e-002 7.4326853503156251e-002
      6.3902085651082671e-002 -1.0919837984447357e-002
      -5.8830638973887767e-002 1.9061132147572706e-002
      -7.1738635483672888e-002 4.7895363352156398e-002
      3.9893505335461092e-002 -1.1247883858092103e-002
      1.3676085912445984e-002 7.3263230043726646e-002
      -7.7963393321774405e-002 3.1890803242178953e-002
      3.2902853802887237e-003 -3.9013116029564698e-002
      1.0730011157348653e-001 -6.4620087483935149e-002
      -2.8004844518635542e-002 3.1829092804074803e-002
      1.7523919664796579e-003 1.0910004759279697e-002
      6.4448493951225856e-003 1.3942204435328646e-003
      1.2735431914259805e-002 -1.4543089771268929e-002
      -4.6655878679828663e-002 -6.6826312400262447e-002
      4.3657784565603895e-002 5.2981664169367039e-002
      -5.1623076042105094e-002 -4.7321551657578285e-003
      4.2658070197634399e-003 2.0683216274026209e-002
      9.0248068497023062e-002 -3.9876842931542027e-002
      -7.9274702989626297e-003 -5.3970385510760721e-002
      -7.2070505541135615e-002 6.0293345261278108e-002
      3.2861332528933605e-002 5.3032045608906134e-002
      6.9716963688871980e-002 -7.7429713909010892e-002
      -5.6519620053330291e-002 -2.8533663053055807e-002
      6.4261508800307968e-002 1.2235864084232634e-001
      -6.9191400255899389e-003 2.9494151902430016e-002
      -7.4732563032235300e-002 5.7664001226178027e-002
      -5.0098960483892611e-003 1.2077346927473145e-001
      2.0379779013682667e-002 -1.1697240435489135e-001
      3.7616388820901979e-002 2.6451664733958474e-002
      -1.2748398689030504e-002 -5.3548219599465256e-002
      -1.5562259303349016e-001 -1.4405609249668645e-002
      1.0402538016121971e-002 5.7148131102555608e-002
      -1.6037742670397190e-002 -6.3363499670196166e-002
      -1.5013367214585221e-002 -7.0868032584730052e-003
      -3.1047792491428635e-002 1.7903817453215190e-002
      -3.7428996194337860e-001 2.7923477433919278e-002
      5.0277031891806023e-003 -3.9803802232726664e-003
      -1.1762864258971146e-002 1.2905317391145804e-002
      -3.5701118001768915e-002 -8.1185941217334745e-002
      -6.0375812028324422e-004 -1.4392114275890341e-002
      -9.8513249467805236e-003 -2.8695045874676346e-003
      -6.1329767876030575e-002 -3.3074256464165268e-003
      7.8597914964051146e-003 -4.7128335717102759e-002
      -6.2614409941185454e-004 -3.0006696170402740e-002
      -7.1501517715043053e-002 -3.4904730076137779e-002
      1.4664962862694491e-002 3.8439305701599799e-002
      2.1328449874825899e-002 -6.9195287661700990e-003
      1.0031449870967048e-002 2.8380999950602157e-002
      3.8718613327801403e-002 4.1851597751229187e-002
      -1.6676702705063506e-002 -4.4744908433028960e-002
      6.5244176539589138e-002 -4.4668887015893659e-002
      -2.8470501916651177e-002 -5.0711482222018968e-002
      -3.7807142011434647e-002 -4.9021498622393293e-002
      3.7078719488318787e-003 7.1310502593631446e-003
      1.4901317042557352e-002 -1.9890747191596309e-002
      2.4687315612754834e-002 -2.7597049110646355e-002
      -1.5099566765794749e-002 1.0348194016770252e-002
      9.3197294726430152e-002 -1.3257400865559257e-002
      3.3436089572186592e-002 2.6037078052387617e-002
      -2.2441360183076912e-003 5.4029649543430910e-002
      4.5754350969445759e-002 -2.8524294695170871e-002
      -4.2523511991046870e-002 -4.4002979016515877e-002
      3.3289642864510902e-002 -8.6238410217273326e-002
      -3.4986701478769512e-002 -9.9634948879344362e-002
      -6.8712035984412070e-002 3.1079515415657559e-002
      -3.6427278900110706e-003 -5.0238357702096989e-002
      -8.7854912574683044e-004 2.5527120655764693e-002
      2.5547921306479447e-002 -2.0215047240517595e-002
      -7.8884005108179889e-003 8.0952856692012798e-002
      -1.4688465468537278e-002 -4.1973817836683198e-002
      4.3997621976861731e-002 -3.0485054850252945e-002
      -5.1758204976506975e-002 -2.7182994819887831e-003
      4.0930433203560893e-002 3.6102631271773752e-002
      1.8702184816198182e-002 -3.9705489171122316e-003
      -1.1129291830572456e-002 -6.8839514942858726e-002
      5.2805213843178912e-002 1.8524639017062826e-002
      -8.6068616578508297e-003 -7.9237298310090437e-002
      4.4257345014969883e-002 -3.8398514433786834e-002
      -6.2805800249350188e-002 1.0227882240097595e-002
      -8.9115320620210391e-003 -4.1518077165114842e-003
      -4.5068554024491675e-003 6.8540247189676816e-003
      1.6817115424047169e-002 -1.6486416549675288e-002
      1.0034969884001496e-002 -1.8617035694009375e-002
      5.3252682230060605e-002 2.3989113995777332e-002
      3.6898158319483079e-002 -3.6839701944805590e-002
      2.1209938279545842e-002 -2.0066842625525633e-002
      -4.4953112612003104e-002 -1.5066990926554968e-003
      8.9851651854094047e-003 -2.0216233276760615e-002
      1.3721609914861979e-002 -1.9833456107284366e-003
      2.4287537086502723e-002 2.3261190885244497e-002
      1.9093668535135229e-002 -6.1166104043061227e-002
      -3.6834191975690871e-002 -9.1789712500648987e-003
      1.4554601684473827e-002 -3.7509214456926378e-002
      -4.8068593007622395e-004 5.8078354384997880e-002
      -2.2615280083603671e-002 -1.4295574573291846e-002
      -3.5227558460318789e-002 -2.3582711581861142e-002
      -6.2569552484345384e-002 -1.4973528319383369e-002
      1.6122558808197636e-002 -4.1769481495907155e-003
      3.0235578479745850e-002 -1.6769149768816050e-002
      -1.0087464047205568e-002 6.9657824315168424e-003
      2.0070000903039349e-002 -7.9726870076009204e-002
      1.5408509593616579e-002 -9.0618103400335222e-003
      5.5994034539385304e-004 4.8412133507220803e-003
      -7.5707811002239734e-004 9.5516474601356663e-002
      -3.4090511229045217e-002 8.8011783619720951e-002
      -7.7756422897087146e-002 3.5188018424211917e-002
      -4.5822367703195449e-002 -6.6907122409877118e-002
      -5.3118139093121979e-003 6.1602982665087846e-002
      3.9146084519774742e-002 -2.3996184207522787e-002
      -9.7886251678107605e-002 -6.8863403025091838e-003
      5.5236522775852316e-002 -2.0253750655017291e-002
      5.1755315967009496e-002 -3.5378474748627341e-002
      5.3152129065278518e-002 -3.8664745548781923e-002
      -4.1527942583044895e-002 -1.1476790054621391e-002
      2.8516111934681742e-002 4.2388863185498823e-002
      -5.8213719808559133e-002 -7.6256403326532482e-002
      -2.0017668133312880e-002 2.6032304829525042e-003
      -1.7200641762321816e-002 2.8016462315723058e-002
      -4.8622656875958695e-002 1.0942222100742834e-001
      -1.4736936388422448e-002 -4.6337332590725193e-002
      3.2606790157626749e-002 -3.5008460077969476e-002
      4.8734204276203508e-002 -5.8389682087805608e-002
      -1.2008604095362189e-002 -5.6325484212088862e-002
      -1.1952805288409767e-002 1.2793383051700531e-002
      -3.3690536056584744e-002 6.5232399260526002e-003
      4.1241873940464538e-002 -1.6535439333414802e-002
      4.7986072025243992e-002 -4.9964534669672600e-002
      8.2249342822566498e-004 -8.8653695360700432e-002
      -2.6041171068013753e-002 -7.9575003452319239e-003
      9.6915867971624284e-003 1.0579179879479483e-001
      -2.3346875605140724e-003 -5.3071771328276403e-002
      -2.8314029706949739e-001 3.8411631946620021e-003
      -3.4671488699947357e-002 -1.1122830944351918e-003
      -4.5139399440364852e-002 3.0314866427417198e-002
      3.1174533369714926e-002 -1.0458694430577181e-001
      -5.7455755083820441e-002 -1.5183105639776458e-002
      1.3472190209263818e-001 -2.4746765925532821e-002
      -1.3274843206742153e-002 3.0103017890258904e-002
      2.4875038188630128e-002 -3.1213942322772532e-002
      -1.7271929140845171e-002 -8.1290599519427936e-002
      -2.4543657450636726e-002 -4.0736416650507506e-002
      -9.8883135487740303e-002 -5.5833487536997829e-002
      6.8173891948804192e-003 2.9667113829599891e-002
      -6.4625538923151787e-002 -8.3882162539068526e-003
      7.2197648527748501e-002 1.9443135078085361e-002
      -1.4008446591289745e-002 1.7956789851104149e-003
      7.2606011409796709e-002 8.7584716711317873e-002
      4.9332927121941275e-002 -4.6578054369659741e-002
      3.8478925293538496e-002 -4.7589356817757396e-002
      -6.0373966762262921e-002 1.6845316072006421e-002
      -2.4162060450516165e-002 -5.9227443574709514e-002
      5.9057831598757059e-003 6.7136228943680751e-002
      -4.8888674695427795e-003 4.3502477846079905e-002
      5.7198422483041515e-002 -1.7202362845615048e-003
      -2.9849727814182459e-003 -1.8092964377544426e-002
      -1.7435892112218909e-002 3.1931759812218921e-002
      4.1310039669923075e-002 -4.6778246738427799e-003
      1.8313740849598258e-002 -1.0751252753058635e-003
      2.7715797204079351e-002 -3.4297037145402394e-002
      2.6707789241609724e-002 -6.0358560332013388e-002
      -3.4611276708234474e-002 5.0040879795107809e-002
      8.5701641074343513e-002 -8.1057183103652643e-003
      -1.1487976919255466e-002 7.2280194328992395e-003
      4.7111310870890717e-002 -4.7949539399682892e-003
      -7.7988083146170437e-002 -4.7824238238461700e-002
      -9.4464173343108873e-002 -5.5908534854405036e-002
      8.0156710104069245e-002 -1.3062703217970036e-002
      4.1312427820198849e-003 -2.5076300613057954e-002
      -3.0909472883960541e-002 5.6064768693015472e-002
      -9.3656602827650565e-002 -2.5441450959903310e-002
      -2.2157807939711762e-004 -3.8964871582090707e-002
      4.0790622234442306e-003 3.7166163398715826e-002
      -1.0602759405978487e-002 -2.2549915909714804e-002
      3.9799792261429344e-002 1.5751805024675582e-002
      3.6765212988222065e-002 -2.6500034486587460e-002
      8.7266140059324392e-003 -4.0558984664767643e-002
      -3.8470317208215296e-002 -1.3364195550090255e-002
      1.3133301754015999e-002 1.5730447594337373e-002
      -4.0222440907693849e-002 6.7499715020372400e-002
      3.6832972223985287e-002 -3.7918681231185629e-002
      2.0870121926879724e-002 -8.5064940380325110e-003
      1.2903141522236298e-002 3.0839691541605864e-003
      3.6361705061885234e-002 5.7075374218350815e-002
      5.7376767648609377e-002 -4.0057964599043483e-002
      -7.3729831498509132e-002 -2.0258357648313567e-002
      4.9702670363784771e-002 -5.2062241545159961e-002
      -1.9234436762216485e-002 1.0988514609509946e-002
      -4.0427211243594427e-002 -2.4718670349874357e-002
      -3.3497746606876440e-002 6.1292451455122736e-002
      1.7414319832984262e-002 3.1282330947181143e-002
      -2.4020143496563087e-002 7.3842859418348783e-003
      -4.0751533770019978e-002 2.5286618215142890e-002
      1.2810952999049986e-002 -4.1273048770098374e-002
      -5.6827785059793995e-002 -6.8515814311069720e-002
      2.5204496735422032e-002 -9.0861071587862330e-002
      1.0958788875942918e-002 -5.8289984801532475e-002
      -1.8175427464044467e-002 -1.9928315337874404e-002
      2.8991771470491364e-002 -2.4116418316233096e-002
      -3.0484636875503499e-002 4.5664681389120852e-002
      -8.2982258014632597e-003 3.8853889388261328e-002
      -3.7860166968282434e-002 1.6422510539059781e-002
      4.0308825597251130e-002 -4.9740294856643615e-002
      7.6282915987151024e-003 3.3351620230989247e-002
      3.8607751503882339e-003 2.5982732919361960e-002
      -3.1831416646453045e-002 -5.8302534988411203e-002
      -3.6352878618478295e-002 -2.1543948558850837e-002
      1.1439114990577842e-001 1.2071425094770913e-001
      -4.1190729681736982e-002 -5.3731847608084755e-002
      3.7276206780648732e-002 -1.5757668298134051e-002
      6.9899035262525736e-002 -1.5487477367642909e-002
      5.4102896826308726e-004 -5.0546720304428291e-002
      6.5366598920445232e-002 -6.3900747076107642e-002
      -2.4100781341035996e-002 -2.4292286884324058e-002
      2.7390723022572085e-002 -3.3566264533167078e-002
      -3.2878422331399770e-003 6.9140288789752841e-002
      2.4396255985989660e-002 -8.9879441351397665e-002
      5.7388052455453191e-002 1.5385336227393125e-002
      4.0321045107240133e-002 -7.7977663571002234e-002
      5.4490525373583662e-002 9.6287877268524062e-003
      3.6949001865524897e-002 -3.7121978202035714e-002
      5.6691121116183747e-002 -7.7945751679158362e-002
      -2.4191886890355917e-002 -4.9600790592754677e-002
      -1.1332030896739622e-002 -3.0989513078693513e-002
      -3.5374866347158758e-002 7.6696000797274136e-002
      -2.4582468487348044e-002 1.3157795918038940e-002
      1.0794237336515286e-002 1.6359556233524614e-002
      3.7853355821815982e-002 -3.4462674425559260e-002
      5.3629312534667883e-001 5.4441312230504212e-002
      -8.6624392944668182e-003 5.0850389416540506e-002
      -2.2437378186432610e-002 1.1556655106720097e-002
      6.5016217915961752e-002 6.4555675917271474e-002
      4.6414020655789626e-003 -1.7185832424016990e-002
      -1.0250528562165813e-001 -5.6433668466069793e-003
      2.2093574888816642e-003 -5.8138370157205618e-002
      -2.6751273706912947e-002 6.1606004996619480e-002
      1.2745238262686915e-002 1.6525308641993110e-002
      4.7205954638566222e-002 -2.7499409774181794e-002
      5.4521635251257847e-002 -2.0755531440068978e-002
      2.0925173493307615e-002 -2.7265666159801971e-002
      -8.3303777277775451e-002 3.0313056517568257e-002
      3.0743853544521166e-002 5.1083269896690819e-002
      1.3334813816614177e-002 -1.5639734081189245e-002
      6.8233631538184319e-002 -2.3460123308784539e-002
      7.6257940163299625e-003 3.7368325449316453e-002
      -7.8875684510300553e-002 5.9059474461884004e-003
      1.4505169501818418e-001 1.7261622295711123e-002
      -9.8280108484561784e-002 -5.2250443593767786e-002
      5.0841654745555978e-002 5.4991518448668765e-002
      8.1514624687476066e-003 5.9493306774896275e-002
      1.7051934372099880e-002 -6.6145228934563912e-004
      -7.8421293998980658e-003 2.6441999690305633e-002
      1.6498588792012284e-002 -6.5509127990268654e-003
      4.4485778103203429e-002 1.9662879365823054e-002
      -8.9167738124889873e-002 5.2283866767951050e-003
      -5.0804898885102388e-002 4.4879622801480397e-002
      -1.4949744047042780e-002 4.3099675441114246e-002
      2.0795667232276068e-003 -2.2298100518549600e-002
      -3.7762650900752731e-002 -5.4327996581848191e-002
      -3.0422921625344514e-002 1.0074226075475190e-001
      4.3699875450101740e-002 1.6145653965036231e-002
      8.0981533284091620e-002 6.7803670394230200e-002
      6.7438000487121508e-002 -9.7977855963882476e-003
      -3.0070637763847191e-002 2.1643206102007626e-002
      4.8061224451347237e-002 -2.3484189189187696e-002
      -6.2049462331395383e-003 -5.5171734640857367e-002
      1.0270222549022014e-001 -4.8245499435058341e-002
      2.6811924684877276e-003 1.9446885992129657e-002
      8.8056950195282160e-002 -1.7549053886820761e-002
      3.9552137477270766e-002 9.7589602299584910e-002
      -4.5215388620047873e-004 -1.5857220695788373e-002
      6.5504125589954207e-002 1.3011014867516685e-001
      4.4828919469354918e-002 -5.0001689197490207e-002
      -1.4216125834209722e-002 3.8047257220605597e-002
      2.4098105052470604e-003 -3.8042093156591505e-003
      -4.6848268057060730e-002 -9.6255295691320630e-002
      -6.6369452246299171e-002 7.5874966783713209e-003
      -4.5770717684807206e-002 2.5317464014684911e-002
      1.5066483128830424e-002 -1.9541943138162883e-002
      6.2561973353093409e-002 2.4801373155438112e-002
      1.4371136667216884e-002 -5.3962730530318609e-002
      3.4849693582649062e-002 4.9586241832271449e-002
      -8.1771937864590763e-002 4.0529496753585357e-004
      8.3974985693282198e-002 -2.9669660227865057e-002
      -7.0813323259691675e-003 -1.9759086895687759e-002
      3.6414189001977640e-003 -2.6476868155976181e-002
      5.1238934543031411e-003 -2.4015031379142630e-002
      5.9324046355940525e-002 6.2446610924885709e-002
      5.7131578812919491e-002 -7.4380021770322022e-003
      -3.9097115631086740e-002 9.1011426942667104e-002
      -3.7567774175432328e-003 -5.4036034332139334e-002
      -8.8178281107695149e-003 5.6427551913031886e-002
      -3.3200963511744418e-003 2.4852602310556710e-002
      -3.4375934804317672e-002 -5.1190601717457512e-002
      2.3653430282406223e-002 -7.7288496537340504e-002
      -1.1163465103892534e-002 -1.5718892591888228e-002
      9.2153063534039324e-003 -5.6177204987817884e-002
      -6.7022762326049449e-003 -2.7627262868513101e-002
      5.8770215805807567e-003 -9.8056815013441365e-003
      -1.7974417574503892e-002 -5.8855005208508483e-002
      -4.8889436058149355e-002 -1.3907357455263619e-002
      -9.0069117393334661e-002 1.8873876599991794e-003
      -2.1152410707294823e-002 1.0953649146921197e-001
      -1.3644033242124818e-002 -1.8161164192062065e-001
      -7.4005066031892566e-003 3.2462905553693869e-002
      -7.0663192749349873e-002 -1.0207572406974711e-002
      -3.7111960794949550e-002 -3.7111985790100430e-002
      -4.0875507078459002e-002 -1.6586873436750065e-002
      -7.0568848801449688e-002 3.9736004929009125e-002
      3.9241418801233115e-002 -1.3661258911674139e-003
      7.1754276824040605e-002 6.8291094427069640e-002
      -6.4370411383054785e-002 -4.8642127754943601e-002
      -5.0752662867854563e-002 4.1649867483528259e-002
      -1.6917543186693459e-002 3.0116420828623890e-002
      1.9866094281537076e-002 -5.3182892067868498e-002
      -9.6594677080224040e-002 -8.3278857282754956e-003
      8.9155867799858471e-002 -4.4341261559039662e-002
      -8.7280871317756512e-002 -3.6551339502441595e-003
      -7.4637808799611211e-002 -1.6206940094206135e-004
      3.8215970576144766e-002 -7.7438835801395448e-002
      -9.0366296145591274e-002 -1.6305749747168610e-002
      -3.0845179529060275e-002 9.0158192444946147e-004
      2.0335872012853147e-002 5.8839727114026220e-002
      1.6493534223909968e-002 6.1078905804770385e-002
      -1.9036119039094381e-003 5.0928765345436078e-003
      3.3976846532656783e-003 -9.6307312388558327e-003
      8.7618278966860566e-004 -7.4929469503565334e-004
      4.3028733322259417e-003 -4.6174103055564835e-003
      -5.0243034617089878e-003 4.9164454044062526e-003
      -7.7404082065187412e-003 -7.4930674187775386e-003
      6.4339377500017680e-003 -1.0249067598700149e-002
      -9.7199076358318731e-003 -6.2840798383600877e-003
      -2.4693631986130583e-003 2.5571188699942105e-003
      -4.7997865082905480e-003 -6.1760355151996901e-003
      9.4624460660269714e-003 8.1235187724211701e-003
      7.0765683225005585e-003 4.9675376420954664e-003
      8.6332120947426889e-003 1.8127942481816644e-003
      -9.9802339239919409e-004 1.0905323333965237e-002
      6.6450579072904383e-003 -5.7787412621494406e-003
      -3.8027940099316111e-003 -1.0040033245665159e-002
      -6.7707802530220292e-003 1.2857913738343553e-003
      -8.8117123751824192e-003 -6.0832977297283473e-004
      6.7106294209710602e-003 4.6521707145532193e-003
      8.7850007346562103e-003 6.7175619040486610e-003
      1.8783345810083711e-003 4.4313210829874435e-003
      -9.7247608235000189e-003 6.1026071237459088e-003
      -9.4535085672311763e-003 -9.8141661722331627e-003
      6.8988174487772426e-003 2.1207394604121424e-003
      -5.6388524969387581e-003 1.0796162371533673e-002
      5.2110457235924786e-003 -6.1267492105398606e-003
      9.2751419765964224e-003 -7.0594236170570474e-003
      1.8224208235541341e-003 -4.6849011884824024e-003
      1.7926329089055996e-003 -8.8695806539368927e-003
      -7.3927441834929957e-003 -5.8979470136793482e-003
      -1.1319529825442127e-003 -3.2825713880609226e-003
      7.0965192685047513e-003 8.9259599104669438e-003
      -6.3066233693328463e-003 -2.8247770804946701e-003
      6.7454022530445317e-003 -1.0599055262547105e-005
      5.4289662664442906e-003 -8.4362128755776245e-003
      1.0520879335919626e-003 4.8913385318549100e-004
      5.6996417498903279e-003 -4.7564389920075481e-003
      -9.0168350861027525e-003 -4.1871716037676583e-004
      -5.7445154638083463e-003 2.0568433349091794e-003
      -2.9743094734201460e-003 -4.0279705088277088e-003
      2.7131630292582991e-003 6.3098904729737141e-004
      -1.7679571083467711e-003 -3.9517232403715082e-003
      -4.7816694652116501e-003 1.8938396392028151e-004
      5.9055141575970124e-003 8.7072657622701190e-003
      -1.2897668101217671e-003 3.9040813931868054e-003
      4.2862897199121670e-004 -8.1668190821933186e-003
      -6.0325617281681504e-003 2.3250247359099144e-003
      6.9255599146952748e-003 9.3922577406753745e-003
      -6.6758946596164673e-003 8.6703180572702632e-004
      1.6973685835790279e-003 3.2982301998318248e-003
      -7.9443188645930366e-003 -1.6500742110033923e-003
      -1.5339843336143149e-003 -8.6613951669302063e-003
      -9.0910654542119933e-003 -2.0660247563159756e-003
      8.8878781777671466e-003 6.9884524123242312e-003
      -7.4573252527929115e-003 3.3401159018095275e-003
      3.4230551930663818e-003 -3.6422073164002308e-003
      9.3399271452854725e-003 -4.7086313785963084e-003
      3.2049836077634067e-003 1.7988452121976224e-003
      4.0564193465544279e-003 4.3073525097104730e-003
      2.6862189569708795e-003 7.2963862264340418e-003
      1.8359561515716913e-003 5.2861147524464226e-003
      4.4436802513233070e-003 -8.7307044582460320e-003
      1.4817730019927422e-003 1.0961364021802188e-003
      -5.9370169381947700e-003 -7.0445441850092846e-003
      4.9569756843653359e-003 -6.7625224618853771e-003
      6.4327121987654131e-003 -3.8885740762368108e-003
      -6.4870768216066287e-003 -6.4183339640380118e-003
      -3.7335727750158415e-003 5.7403264480069931e-003
      9.0790255240448640e-003 -4.8269277481782832e-003
      5.6610569969260073e-003 9.2023480677284122e-003
      6.9710486583941507e-004 2.0509418873920697e-003
      -2.0756838578598891e-003 6.4560886669436284e-003
      1.0063617021621514e-002 2.5074619367356729e-003
      -1.2123109072075453e-003 -1.0113253473857067e-002
      7.5485149623311983e-003 -4.0752366588651849e-003
      -6.6319147392033479e-003 4.5016144719902005e-003
      3.7146900780751438e-004 -2.6774715603792450e-003
      -7.2929534474365900e-003 -9.0083288847944507e-003
      -4.6842206041632474e-003 -5.6858097635323658e-003
      -8.6484624414254318e-003 -6.5644920412236017e-003
      -7.9681122466713859e-003 -5.6173946887944654e-003
      -4.4950649741422842e-003 2.3303300290609093e-003
      5.1088348683784503e-003 -8.7515711720763598e-003
      -3.8513691631232808e-003 -1.2818272605237735e-003
      5.0291132899430296e-003 1.6008984824318160e-003
      -3.3587878929641920e-003 -5.9637499528404749e-003
      1.0567208886209057e-002 -3.7788138373922712e-003
      -8.0005714526079248e-003 3.3479654522165316e-003
      -4.0903113030689468e-003 8.8561550368456265e-003
      3.2426543192735097e-003 -3.2159055843531906e-003
      -4.6343275242074202e-003 -1.8107379611075928e-003
      3.9773476333540970e-004 -3.6084208457910095e-003
      -9.0239731569742160e-003 1.1009937959556655e-003
      5.2136992195162832e-003 7.2074510864608837e-003
      5.2823373650158593e-003 7.6135404604556122e-003
      2.5108605961490088e-003 -5.3684217951314051e-003
      5.5590651084498621e-001 4.6177617319896065e-002
      -1.7069649749182129e-002 4.2944112397521751e-002
      -4.3387286499217866e-002 6.7345264533276786e-002
      7.2464589350977882e-002 -2.8620276809261377e-002
      -6.8901123952368583e-003 -3.7910607812396087e-002
      2.1049232810481436e-002 3.5856011044187376e-002
      -9.9889653261814610e-003 1.8940363812496891e-002
      2.0242034720221947e-002 9.3890545562664487e-003
      4.5106502698234768e-002 -4.0356741025687322e-002
      2.1951564125813443e-002 -8.6874108121393664e-002
      3.2809721124103047e-002 -1.8898295164514523e-002
      1.4065501222329030e-002 -4.4066726269368389e-002
      4.3222869772659059e-002 -3.3296223027734002e-002
      -9.8331888689002413e-003 -6.8650936172417479e-002
      4.1235531941924621e-002 -1.0464963759185764e-002
      -2.6615651472782251e-002 -2.0292903125728290e-002
      2.1518206028783141e-002 2.8240065265405612e-002
      -2.1081615816615905e-002 -8.5796299260974887e-002
      -8.7249993183432489e-002 1.1718846611052420e-002
      1.3591210743947238e-001 1.1276150777822998e-001
      9.7158053957690713e-002 -1.2895514070470717e-003
      1.6856479957501239e-002 -4.4309560854687013e-002
      6.7488450500728742e-002 -2.4297135985330218e-002
      -5.7566760195027836e-002 1.8752917569018021e-002
      9.8283311919902683e-003 2.8141854026754912e-002
      5.1830231374313883e-002 -2.5107102073163661e-003
      -2.9593238887277582e-002 -2.6622275649931779e-002
      -2.0279668528495564e-002 -1.8752903758465608e-002
      -2.8234755137147311e-002 -7.5045649080441645e-002
      1.9217226125156802e-002 -1.1706007846306406e-002
      7.2893990369437209e-002 -7.1517092196280857e-002
      5.8654836363916801e-002 -5.8957644058480967e-002
      1.9655073264445568e-002 3.9176989763385940e-002
      8.2509152808848005e-002 7.5680357524208789e-003
      6.2326461389619572e-002 -9.7647470525858648e-002
      -9.2705192314835608e-002 -1.1314883592204845e-002
      -2.5259513023832308e-002 1.1822650395192154e-002
      3.2899579792974434e-002 5.4592881082443742e-002
      7.2531393179692451e-003 2.0989368675668439e-002
      1.0137077378814122e-001 2.8876622015817244e-002
      -2.0818606288730473e-002 -4.6862077413290647e-002
      -1.1277216465076931e-002 -2.3131462760826584e-002
      -7.3556967580197738e-003 -1.6619851564943177e-002
      -8.8958423414464999e-002 -8.8196986813882466e-002
      4.0681047375772297e-003 -1.9815643367259168e-002
      4.8983124830617791e-003 -2.2222846986737359e-002
      2.6707560898877963e-002 3.0290390165539269e-003
      4.4590797548517115e-002 6.0650157136734849e-002
      1.2234491833255440e-001 4.0949802963793448e-002
      -5.0814484324244479e-002 4.7593326489872689e-002
      3.5545732781677754e-002 -3.1294451159225062e-003
      3.5043257021978871e-003 -1.8758449780746846e-002
      7.6387866603964153e-003 5.8543886164667117e-002
      -1.5840779358537144e-002 -3.2972948480274877e-002
      2.1228437896665293e-002 -1.1090571435269632e-002
      -4.9690192324493579e-002 -2.5415387850489912e-002
      -6.9919578025712959e-003 -2.1845012245678360e-002
      2.4012108546775487e-002 -1.3369951687431538e-002
      9.1327610876731739e-003 1.9440727853616380e-002
      1.4202645750827856e-002 7.2728760444165765e-003
      -1.8455998188711322e-002 1.0538316403099849e-002
      3.5130117075178165e-002 -5.5425788148009469e-002
      3.8218344252504581e-002 3.3669299274195978e-002
      -7.9979977827201759e-002 3.5108893326730464e-002
      -9.2325891525475851e-003 -1.8587095403322589e-002
      9.5307562314646363e-002 6.8767352309874366e-002
      1.0807680378984415e-001 1.0827373763676104e-001
      -2.0616072567813375e-002 7.2205127978666574e-003
      -1.0261095017350940e-002 1.1408820860602172e-001
      5.8657982261476206e-002 -3.0093705250502468e-002
      -9.4228317928075206e-003 2.4642270960302606e-002
      5.2195016866347345e-002 -5.3839603838158334e-002
      -2.5853557693584942e-002 -1.0941918772417967e-002
      9.3614772130311844e-002 1.8792355412257229e-002
      2.5673004681600084e-003 3.2781375614230897e-002
      -6.0481131383506538e-003 -1.2068342259590169e-001
      -1.1815056707565608e-002 -4.3105321359047759e-002
      -1.5647519600676622e-002 -1.1268286204855290e-002
      -1.4524448650445210e-002 2.5629873901233675e-002
      4.4870063647685834e-003 -8.1325423978550623e-002
      -4.9000840182358708e-002 -2.3423315181419106e-002
      5.7943268330014890e-002 3.1697019473884403e-003
      6.6101619296125541e-002 7.9170467235913769e-002
      -9.6356497864134374e-002 3.7106332602455253e-003
      -1.7889738878771655e-002 1.2190710607781327e-002
      7.7174849950910895e-002 -3.5373920717882874e-002
      3.3325278281406370e-002 1.8532509156109215e-002
      3.4612645730923618e-002 2.5614728241100702e-002
      -1.4241859132052854e-004 2.3956145918195768e-002
      2.8234668562790489e-002 -1.2797770573195054e-002
      2.1475074260567769e-002 -8.5154837603641682e-003
      -5.3119613823995632e-002 8.5600542996278686e-003
      -4.3713048988514663e-002 -6.5529837397123897e-002
      3.6161334662244038e-003 3.0298705990622000e-002
      -1.2977910933566554e-002 1.6583265697198691e-002
      -9.1099490825692422e-003 -6.6353825106739317e-002
      -3.0111176861545313e-001 4.0572642813586010e-002
      2.7043167877867758e-002 -8.8748991348207323e-002
      1.3982524967209560e-002 1.3177391134396423e-002
      5.7316334501325297e-002 3.5187494821735232e-003
      -4.1523065055440317e-002 -1.6441402858288454e-001
      -1.1234634671772728e-002 -4.6041266226450779e-003
      -3.4158068754118402e-003 3.2113632946907222e-002
      1.2095791834226269e-002 1.1651308826810924e-002
      3.7842419483341244e-002 -4.8368971108055665e-002
      -4.3920466688060121e-002 4.4609253755501767e-002
      -2.2810983429313279e-002 1.1399862224641073e-002
      1.2516984923453306e-001 -1.1582523006415345e-002
      1.8667972302117281e-002 -1.2342557096558043e-002
      1.5741079656277940e-002 -1.3747748741468585e-002
      -6.3043841347114465e-002 1.6594756042575008e-002
      -3.5870102007526640e-002 -4.9187726597118143e-004
      5.4038624481916445e-002 -3.8903344698437495e-002
      -7.2116178075219426e-003 -4.8056946771207493e-003
      2.4865039682368632e-002 2.8462699188123233e-003
      -4.4427585059840522e-003 4.0712540064565955e-002
      1.9412736425022240e-002 2.6550474421334604e-002
      2.5407158482976047e-002 -4.1303785586175187e-002
      6.2168785925842815e-003 -2.6700020118143097e-002
      5.5547946188201991e-003 1.9204506840531835e-002
      -1.3393202154951265e-002 1.0848215722898959e-002
      7.4276673507062158e-002 2.9020929497784585e-002
      -7.1146129690926138e-002 -5.0525829150884133e-002
      -2.2900991393209197e-002 -3.7781601676117188e-003
      -7.1026268741469528e-002 -7.1733550629489357e-002
      1.0379303027047213e-002 1.9307690416523787e-002
      -1.0263293452046483e-001 -4.5826226396031712e-002
      7.7760023419572749e-002 7.4183195493486800e-002
      4.7059508267197001e-002 -2.3274446343970748e-002
      1.6132209730936074e-002 -1.5877566858753338e-002
      3.1473402743555860e-002 8.9541508428628500e-002
      4.4694396549679424e-002 6.2794993596309731e-002
      4.8261795786560188e-002 -1.9877614388732291e-002
      -9.1988789351013719e-003 -2.8927266993071389e-002
      5.4742569724568015e-002 4.2783374961266885e-002
      8.3790083911182249e-003 -8.2446287591191755e-002
      2.7598524036972633e-002 9.9564176978476124e-002
      -1.2883460904388391e-001 6.6171353374801622e-002
      8.5941999459974300e-002 2.2495567709985231e-002
      3.0007981883463420e-002 3.1562978836565225e-002
      1.3486932011914581e-002 -7.9036155672814135e-002
      3.4798816948010361e-002 -5.7417221506409016e-002
      -2.3540086441693701e-002 -6.0201621481589520e-003
      -4.2139906629449782e-002 -2.4837907874408583e-002
      3.9256131396664153e-003 6.8171110741863147e-002
      -1.6703367906777740e-002 -9.6929331063827590e-002
      4.5160880697899301e-002 2.0108864261399000e-002
      4.0218365825375801e-002 3.5042195143252290e-002
      1.4458667883925880e-002 -2.9405714237780465e-002
      3.4161718137940777e-002 9.2673294301778789e-003
      1.9529401002344949e-002 -4.2114486518327098e-003
      6.9267463602650167e-002 7.4778066968553311e-002
      -2.8659239120440619e-002 -1.6794188367574522e-003
      -4.8320806536904327e-002 3.5460887928754063e-002
      8.2247295072544815e-002 2.5215956799611298e-002
      -3.0761972804272859e-002 -3.6748292570577892e-002
      -6.1171081614824589e-003 1.2978729380530921e-003
      3.5079668537591251e-002 4.3633947056042538e-002
      -5.1962114812424347e-002 -1.0019145039616029e-002
      6.1400479352979292e-002 -7.8223466723766552e-003
      -2.8844149456464980e-002 5.0724211612973372e-002
      5.3722840925931430e-002 1.9378806908432425e-002
      9.5159790581853212e-002 8.5731251636383080e-002
      -1.3655128007512019e-004 7.5502982759133282e-003
      4.4916037081612820e-002 -8.1781394543676333e-002
      -6.0652612778215459e-002 1.0060353119631721e-001
      2.5945086413100449e-002 1.0077462859154130e-002
      6.7187747318145710e-002 -4.8349252234687889e-002
      -7.2560543818352655e-002 2.7006825317048667e-002
      5.9456580602685258e-002 -4.0218015640869395e-002
      -8.3209981663547820e-003 1.4585752792486881e-001
      2.3782872741360879e-002 -4.7120948900430261e-002
      -8.8790516737018876e-002 5.4697069674343977e-002
      1.3247340823667127e-002 -4.8071181942469607e-002
      -3.7621271774288936e-002 -3.8963613083604555e-002
      1.1636217044213768e-003 8.2105229114763697e-003
      -2.4161570019548714e-002 -4.4495076131717687e-002
      3.2844863659789350e-002 1.2605020059331984e-002
      5.1885363445759343e-003 5.4203248800655912e-002
      5.1686465273133746e-002 5.1490514865566439e-002
      3.7782076300057012e-002 -6.8337912314111474e-002
      -3.9014566616881068e-002 9.6085578247604483e-002
      6.1453174526872399e-002 -3.5282306152875920e-002
      -4.3510580259107666e-002 -5.6082933389007467e-002
      -1.3569617057390385e-002 -5.7369809044064635e-002
      -5.1042095734853951e-002 1.7060450095144685e-002
      1.1172107603811604e-002 6.6039898991434032e-002
      1.9278790068218258e-002 -2.5598025141617724e-002
      -1.7245397899546135e-002 3.2655171610548088e-002
      2.6059214942188508e-002 -1.9007546945337433e-002
      -3.8791040786004288e-002 6.1264381039098398e-002
      6.5017378135554887e-002 -6.6904093148721769e-002
      -4.1049400001651981e-001 2.9977463415128247e-002
      1.2249611924499701e-002 5.1979092848551213e-002
      -2.3903382328536789e-002 4.4024116554774256e-002
      2.2651886596020592e-003 -2.3896931014629471e-002
      3.1946046149407895e-002 2.4586407595223261e-002
      -9.9882993204084045e-002 4.1985789529048658e-003
      -3.9967562485414998e-002 6.0341121363393015e-002
      -4.8508703698207839e-002 -3.9243541633566465e-003
      -2.3682940976847654e-002 3.2080546757529492e-002
      -7.3889702151263975e-002 1.2139293157540743e-001
      -5.9432978867681677e-003 9.8954641470142294e-004
      -3.3703441988151679e-002 -1.1253834649097389e-003
      -6.2885549560063328e-002 -1.5055379125543540e-002
      -1.3921611804608351e-002 6.4248163124509899e-002
      4.3648544930296192e-002 6.5851985456504267e-002
      3.1942520363747512e-003 4.4278893218719424e-002
      -3.1877585474803391e-002 1.9431765185577373e-003
      8.8656389588917792e-002 -3.8738515689935596e-002
      7.6506226528807618e-003 5.1312688802590413e-002
      4.3642865717571137e-002 4.2999418919969787e-003
      4.4841404766289570e-003 7.2925741582677131e-002
      7.6455041069738994e-002 -4.3055758497829374e-002
      -1.3052325979654722e-002 4.2175364872927300e-002
      -3.8416831159692635e-003 -4.0015313124870111e-002
      -3.6135948981304193e-003 5.3495355648193977e-003
      -1.0239710917288231e-002 2.0858938280868350e-002
      8.4991783946201521e-003 6.8341886388445183e-002
      -4.5204543341201685e-002 5.2993106339010186e-002
      -1.4492295064475766e-002 2.5162002185229852e-002
      4.7310872665766314e-002 -1.5197321585257254e-002
      6.1142487027992083e-002 4.3665808971704231e-002
      -2.4683636168261150e-002 -1.5281564301752970e-003
      1.3782286151845347e-002 -3.3243439054311076e-002
      2.6719000799292472e-002 3.7163094875663952e-002
      2.1513238615248668e-002 -7.7326383591030959e-002
      4.4729567441427004e-002 -4.6883011591829352e-002
      -5.3815880648163478e-002 -8.6769069596570689e-003
      -1.3521072434290232e-003 3.0898235609512242e-002
      3.9830182555110456e-002 1.0706526200780251e-002
      -5.8741257545719978e-003 7.9836415415685091e-002
      -3.1899286685762966e-002 -6.8438589138295897e-002
      -6.2243322372234199e-002 -9.0480273541655339e-003
      -6.7929231341361876e-002 6.2582107704155579e-002
      5.9390383557760218e-002 -1.5127468187213536e-002
      -2.9717106294014112e-002 -4.5044037544338458e-002
      1.0119557294374646e-002 5.3061826081777320e-002
      2.0521700070792018e-002 -2.3174946976004746e-003
      1.2644535069547682e-002 1.4965159313519128e-002
      -3.1306484884111247e-003 7.4390914911577302e-002
      4.5388759214268763e-002 -3.5519814198438283e-002
      5.8396216995571730e-002 -8.2261561273226481e-005
      -2.5477847142767310e-002 -1.7479215368527645e-002
      -1.8955789823723091e-003 -2.5295165026816134e-002
      5.6116583927612786e-003 -1.9619987942398172e-002
      4.6245365524630107e-002 -7.6607899915675542e-002
      -1.4082596610322818e-002 -8.9351405007929412e-003
      2.0163717003664979e-002 4.7246678120642246e-002
      -2.1460912268816343e-003 -5.1736306925477656e-002
      1.9283500897260511e-002 -2.1069494375191768e-002
      8.2993424009614403e-002 4.4563859579200026e-002
      -1.7091757704542677e-002 -7.0934651022896353e-002
      2.9489845346433664e-002 -3.6689623591035321e-003
      4.7207607033978027e-002 -6.4488866161527469e-003
      -6.6396423704599153e-002 -4.2470885142486238e-002
      -7.6249059090563258e-004 -3.7525091982481086e-002
      -5.3769607948340251e-002 5.2300403543991784e-003
      -4.9084113362927423e-002 3.3866879166667370e-002
      -2.9863551129847198e-002 -2.5056651554573567e-002
      4.8113971694085315e-002 5.3411240074032730e-002
      -3.4375022584612447e-002 2.1843773008330962e-003
      3.4290911051767891e-003 -2.7721119950841241e-002
      1.0008325669557800e-002 2.6889198739417964e-002
      -3.6497612933900733e-002 -9.3535102664910108e-002
      -1.5163778570642382e-002 -8.7354456607849282e-003
      3.5388065024234386e-003 -1.1041078622869170e-001
      -1.9041910757129091e-002 -4.9050525369773078e-002
      -9.7560772552366531e-002 8.3966753736022512e-002
      -2.5534231758885541e-003 2.8932313618593615e-002
      1.7003217739900739e-002 -1.0098776822765896e-002
      -1.2288114902212616e-002 -8.6511646586108180e-003
      7.6414107354549177e-002 -1.1671998038615919e-002
      -3.5921315063613880e-002 2.3859044357130110e-002
      4.4653970503514891e-002 -2.3366333596626907e-002
      -1.4854277278065169e-002 -6.3176636206102976e-002
      -3.4338197487704232e-002 -6.9161904961369411e-002
      3.1465435707247115e-002 -4.4802848634733237e-002
      -6.5154171315719572e-003 4.7141655778021714e-002
      -6.6123440516978726e-003 -7.6319009681871108e-002
      5.9613444828157794e-002 2.1504742093788855e-002
      -3.6242582133496584e-002 -5.3013835451023756e-004
      2.8100788392955725e-002 1.0801444104114865e-002
      5.1513981937080178e-002 4.2492263988899081e-003
      1.2150929042850190e-002 -1.1701102825926891e-001
      6.8952198762143507e-002 6.6842707846460894e-003
      -2.4089511368515379e-002 -3.8392178423522480e-002
      -5.4279383383230694e-003 -8.4445033875876999e-002
      4.6141066338363762e-001 -4.9058319829123287e-002
      -2.3722649900884438e-002 9.8554889501288032e-002
      3.7696157999691608e-002 -4.0980709362542500e-002
      3.6046179322692141e-002 -1.0081434433771529e-001
      -4.4569268031283492e-002 1.0187871922233804e-002
      1.4491927975027747e-003 -1.9322075702694192e-002
      3.3913603034020211e-002 -7.1905311190669452e-002
      -2.1353933430499135e-002 -4.2876261354424045e-002
      3.3018028286346431e-002 -3.1691382544184982e-003
      1.6743380084223037e-002 -5.9743927210969119e-002
      1.9681938414826988e-002 -1.4684102402476947e-002
      -1.7176998417072403e-002 3.4538022331262561e-002
      1.6887035379282957e-002 -6.6321571733098564e-002
      5.6962205173414444e-002 -6.7526373437163681e-002
      -1.1799290416520108e-003 -8.1873751905431100e-002
      3.6705664245440556e-002 -5.2977576957611405e-002
      -4.9989400543679292e-002 -6.4912786959322261e-002
      3.4586029488251450e-002 4.2913563742731697e-002
      2.7836705310457458e-002 -4.0202588706439606e-002
      7.3991300492400325e-002 -2.4286212317644940e-002
      -3.9080263117483088e-003 3.4477968784052709e-002
      1.0009974528749187e-001 6.5257418533677010e-003
      3.0157906915030799e-002 2.4173028803624368e-002
      3.5674378373746346e-002 5.1564002695771048e-003
      2.7838390638176232e-002 1.6790391623050262e-002
      -1.8771116924824888e-002 -1.7087689695381193e-002
      3.8329927706311107e-002 2.0755413104199802e-002
      -7.2142420033352334e-002 -5.9940228471679166e-002
      3.0373664269718749e-002 -3.4336410387233202e-002
      -1.8872527733284048e-002 4.2049639192539255e-002
      -7.2974889839317103e-002 -6.0361484861347079e-003
      7.7527367835608270e-003 4.9369070436339070e-002
      -6.3932135343353194e-002 -1.9246204464685179e-002
      1.5628217058436825e-002 4.2853065634305659e-002
      9.6668327686304373e-002 -3.9735650490326530e-003
      -5.9051308877556856e-003 -6.4264077402355665e-002
      1.0484626779940465e-002 7.4855317507229138e-002
      2.6031677373170047e-002 2.5462600747953597e-002
      5.6681755306053176e-003 -2.9465482913943988e-002
      2.5568994776781904e-002 -7.7400924601276178e-002
      4.1711373769095270e-002 4.0988788034934547e-002
      4.6180738525878555e-002 -3.0162897810378012e-002
      -5.4855667663609390e-003 7.3181032075437011e-002
      7.4699780515756237e-002 6.1375184270949339e-002
      -7.9233322194112984e-002 4.9380060934036622e-002
      -2.5049135920715389e-002 -7.7728629333632643e-002
      1.6836990188590500e-003 -7.4907261732486295e-003
      2.3447305563407125e-002 3.3806777012933678e-002
      -1.7527498265383475e-002 5.9033836946190778e-002
      -5.0383775929283815e-002 -1.4257879712124499e-001
      -1.0165084272174535e-001 -6.0189198229971281e-003
      -3.1589945775243454e-002 1.0564305920922822e-001
      -6.7953357271452741e-002 -2.7717642140942765e-002
      3.2238291707825440e-003 3.8386640643874467e-002
      -3.8278845612981456e-002 4.3160573948419198e-002
      1.9193564029699708e-002 -4.0349657331481013e-002
      -4.2593508871442420e-002 5.3986663811567442e-002
      3.5265503936097571e-002 -2.4678339412626187e-002
      6.1368861996766765e-003 -4.5709147882602413e-002
      -1.8271083924112683e-002 2.0732161933133025e-002
      -1.9895307897286513e-002 -3.9931145188065086e-002
      3.3863062403670201e-002 -1.4090381141342050e-002
      8.7612543159556761e-003 -9.0790024823295415e-002
      9.6954209796056151e-003 -1.3200190867260519e-001
      -1.1150550285780983e-001 5.2437341298418871e-002
      3.1377612406529559e-002 3.1485704610207117e-002
      6.7639898323690342e-002 -5.5343790904951624e-002
      -2.3258372769287817e-002 2.3374916820042384e-002
      -4.6047237898024151e-003 3.5256905736145455e-002
      3.7819842271625187e-002 3.5392379241546867e-002
      1.4279465780338885e-002 -4.8592760944519645e-003
      1.0247882677785386e-001 -7.0282613063926677e-002
      -1.7975417119920060e-002 -8.9691754511353906e-004
      -4.0104728580629502e-002 -4.9186071690983664e-002
      -1.9220787358420219e-003 -6.1370708971572813e-003
      7.9833997849547852e-002 1.3888919365573467e-002
      2.0325360326260120e-002 5.4846066399589465e-002
      9.4957020974131515e-002 -4.7685685847256062e-002
      -1.1214964112630073e-002 -1.8067854283690173e-002
      -6.1492490117754208e-003 2.6434628430542839e-002
      -2.7168288174128381e-002 -5.4603551170668979e-002
      -5.1831084869987396e-003 -1.3511157279000806e-002
      -4.0909066394420393e-002 2.6195719631383622e-002
      8.4612970801361993e-003 5.4362725353179937e-003
      -3.5651381520484304e-002 2.8267701783095324e-002
      -7.4870725314926709e-002 -6.5655166747896343e-002
      2.3951503807051504e-002 -1.7249529593131040e-002
      5.0102133029351445e-002 9.2044785727434571e-003
      2.5867418203754936e-002 2.1232530723084619e-002
      -1.3485423752001574e-001 -2.1616815753245776e-002
      -1.1834721567471359e-002 -6.0354382555888798e-002
      -4.1417825219302574e-002 -4.2196579256047993e-002
      8.0868923450297739e-003 3.3870156769590029e-002
      -9.3303223647575367e-004 3.9565986050308297e-002
      -4.3574014426031541e-003 5.7398865873228976e-002
      -3.3366816171572417e-002 -8.9646165413076712e-002
      6.8936258865416239e-002 -9.7716453819879801e-003
      -2.1708623791927940e-002 -3.1041406929893267e-002
      -3.8734884266105982e-002 -2.5288498963961382e-002
      5.6790764264894947e-002 -7.6619626451995715e-002
      -5.7233051200954767e-003 -3.8577783436857770e-002
      9.5743359207452527e-002 -7.7359666752795098e-003
      -3.9305362684170730e-002 5.7756976799008826e-002
      1.1030456578497711e-002 3.6276841676733090e-002
      -1.3426198444482999e-002 6.0751807770173874e-003
      -8.1919045589718506e-002 3.1340352367506520e-002
      -7.4701255103721924e-004 2.5093450839862416e-002
      6.0938020800979393e-003 1.7224392742695875e-002
      4.5601514530772956e-002 7.2843562896527268e-003
      2.2658067977388056e-002 -8.1851511077781311e-002
      -2.9050243757614020e-002 -6.6571600312560111e-002
      -6.8438235818451765e-002 1.0756484999577094e-001
      7.3066882009183362e-002 1.0680345680329566e-002
      5.2018640439183729e-002 -2.8327657045051405e-003
      4.9825352407402615e-002 4.4848077296221048e-002
      -7.0569946508077561e-002 1.0250744992474384e-001
      2.3660237330866186e-002 -4.9521508381513313e-002
      -3.6438303664951309e-003 1.8742960744910733e-002
      8.1817585650652766e-002 1.0333258174173500e-002
      1.6470438179449411e-002 7.5469200155380469e-003
      1.4838899398246171e-002 2.1441356091286014e-003
      2.4030540906369736e-002 5.6693811306993483e-003
      -1.4281241266243519e-002 1.5501849779644729e-002
      2.9411933465281367e-002 -4.4765792917476808e-002
      4.4373146978815461e-002 8.3187678621052447e-002
      2.4315092436696925e-002 -7.7211687003873788e-004
      -9.1173317364436277e-002 1.7856912837701508e-002
      5.3848351163091189e-002 3.3198074679257623e-002
      -3.5345419791080704e-002 1.4161337504284818e-002
      2.8161776366694320e-002 -3.2976649180985480e-002
      2.9085477050487710e-002 -5.5992744861041346e-002
      3.2560341017112901e-002 -4.8037133759776165e-003
      -5.1865570185926711e-002 2.9570651098039465e-002
      -6.3803495160966034e-002 -7.1519374747796224e-002
      -1.5829451281534359e-003 2.5881222778541581e-002
      -1.4236020207647075e-002 -3.7690350095255669e-002
      -1.1675095744073612e-002 -2.4996229168256504e-002
      2.5984352271947595e-002 8.0510248532901743e-002
      1.9655370067496528e-003 8.2752421303046525e-002
      -1.0063262474718722e-001 -6.3028603938854256e-003
      -6.6545597562733441e-002 1.7145419699393573e-002
      4.7522565666653829e-003 -1.6293828092157299e-002
      -2.4511386300002849e-003 2.8792240847595844e-003
      1.4062350135613072e-002 5.3878253716016240e-002
      -7.0895853377537701e-003 3.0204686270201841e-002
      8.2722515193483382e-003 -3.9166533624707435e-002
      -1.4933999767172504e-002 6.5247282944309835e-003
      -5.8380677087314426e-004 4.3160725116209275e-002
      1.0216957862933354e-002 -2.8106939445178919e-002
      2.0001965249243553e-002 1.9927673203987983e-002
      5.8878728588110246e-002 -3.7777679009696613e-002
      -2.0319194131619252e-002 -3.5371409455478828e-002
      1.9988493169950942e-002 -1.3239102640947764e-003
      6.5354743087384579e-003 1.5655340444170444e-002
      -1.3461776650708959e-002 -2.7770213703227770e-002
      8.1684290429524832e-003 3.4101368565965948e-002
      -6.4392422335883326e-002 -8.8921697399258065e-002
      8.7977706708030155e-003 -2.6275167582436816e-002
      4.4124621913444899e-002 -3.4705749215964608e-002
      -4.2620030672572022e-002 -3.7197210302329475e-002
      5.5511351157992724e-002 -4.7097245238069983e-002
      -1.5106163355337271e-002 5.5865530548830811e-002
      -1.1376178213377279e-001 4.2114478188974923e-002
      -1.3037788876810435e-002 -8.1832918070345578e-003
      -2.0951519370350950e-002 -3.0126331761610510e-002
      2.2305347722978888e-002 1.6621676687002949e-002
      -4.6368003784345711e-002 1.1099788757472884e-002
      4.6849308936578529e-002 -1.3121933244830500e-002
      -5.7310734302453641e-002 -9.1198666123585834e-002
      -5.7309178552852481e-002 -1.5152123155630550e-002
      -2.7345550149574151e-002 -5.0663059921028014e-002
      -3.7892088570031221e-002 -1.2473107796138231e-002
      -6.2176129622874582e-002 -2.6604447761812759e-002
      2.8566987705948139e-002 3.7098686577922535e-002
      -3.9329234717477186e-002 4.0103707941560346e-002
      1.0454740839579529e-001 2.7371147848238055e-002
      -2.4298438700299050e-002 -4.0301761866951058e-002
      3.5183651962049270e-002 -5.0572113146037309e-003
      -2.0148349222413242e-003 -2.3988631367907024e-002
      -1.3115663602205061e-002 -9.5221693963928725e-002
      6.7164325193020277e-002 -1.2960306840201040e-002
      7.6836645621663653e-003 1.7288377934619039e-002
      2.1890076147342472e-003 3.3562091105192066e-002
      -1.4126161070413293e-002 7.0100286198238274e-003
      -5.7372922613812383e-002 -4.1593101257576433e-003
      3.7807292549395766e-005 -4.5285235959953943e-002
      5.2863473417090693e-003 -1.2630112441742041e-002
      1.0281920893653416e-001 6.4407763727353615e-002
      1.4102263779723873e-002 -5.4775291414519700e-003
      4.1556395603921537e-003 -4.5809090236004352e-003
      1.3460876447985775e-002 -5.8661322108747083e-002
      -4.2130163799556211e-002 -9.4251832268171132e-002
      -6.4702007503629011e-001 -2.5633098609058887e-002
      8.9304739962644833e-002 -3.3081661221271888e-002
      -3.7819151104513712e-002 -6.6769947994011578e-002
      4.1237997704922771e-002 1.3128356663060512e-002
      -8.9863412569642781e-003 6.1218771103964120e-002
      -7.7566302976601983e-002 1.6374392837913490e-003
      -5.3675825806086923e-002 9.6648829035220263e-002
      3.2135608647990282e-002 2.0767175455297566e-002
      -2.9686940755171327e-002 5.2923663623324561e-002
      -6.6005825090025517e-003 -2.6935894493230125e-002
      2.7256482454298254e-002 1.6657947288440226e-002
      -5.9281997411660230e-002 -8.6871415049376483e-002
      -4.6715206573071377e-002 4.5627042375938884e-002
      2.8143330486768193e-002 -1.2152681752949181e-002
      5.5024723522276275e-002 9.7279212959689318e-002
      -3.1787457549445494e-002 -5.4654694607804602e-002
      -9.3323427548259744e-002 8.7647252280155144e-002
      -1.0557440731805771e-001 4.8244086642545543e-002
      -1.3039293660721699e-001 -5.6626458583599285e-002
      1.3458728739645687e-001 -6.4296697583579282e-002
      1.3173220344753228e-001 3.2618242096373450e-002
      1.1358699148281551e-001 6.3659226406525354e-002
      3.5360976934472811e-003 -5.8086138967590330e-002
      -7.7416955605451414e-003 4.5534917039112797e-002
      -2.7654056911851858e-002 -3.7173434811484482e-002
      1.6046899802666565e-002 -4.7454868106462191e-002
      -1.5664362961940925e-001 -6.3175274863966374e-002
      -1.0268602974585604e-001 4.1184958860340185e-003
      5.3487676865386878e-002 -2.7866697620331945e-002
      -3.1701872757049263e-002 1.6422648560199808e-002
      -1.0699856470095115e-001 -7.7310973223632243e-002
      2.2208424245551993e-002 3.9677244664377255e-002
      -3.6067345559323956e-002 1.0598529191803062e-002
      1.0221391176340823e-001 1.6016515159763555e-002
      7.9929382655199679e-002 -3.0256336239639709e-002
      2.0071122073772336e-002 -9.9014358547143185e-003
      -4.8867916321448560e-002 6.9942207308122381e-002
      1.1201301179855916e-001 -2.9297474648534581e-002
      7.1012806584772270e-002 -1.1230190073453078e-001
      9.9288371815027129e-002 1.6907716427962186e-002
      -5.2024750450316390e-002 -1.3834904976755861e-002
      5.6785504487371151e-002 -7.2547436466891023e-006
      1.4336523766124268e-001 6.4669760359151160e-002
      2.2462654182752980e-003 -8.7867885608228058e-002
      -5.4816622465003108e-002 -5.3054768049027680e-002
      -9.3675219426802864e-003 -2.7567533594140745e-002
      8.0452248019480962e-002 -2.8200058976486239e-002
      -6.1880832045236736e-003 -4.0295194911421618e-002
      -7.6884871576574684e-002 -9.7292323799007180e-002
      -6.6394603231710869e-002 -2.7905247162951525e-002
      2.5126580009281113e-002 6.2408375110451992e-003
      6.0847155192551357e-002 -1.1869102143816644e-002
      -2.5975240263014347e-002 -4.1984037445315876e-002
      4.0843454488053182e-002 -4.2526623972191230e-002
      -5.7265006715639050e-003 7.6945088262296304e-002
      6.1662153476802400e-002 -9.2370015752748849e-003
      -3.0301160951692247e-003 -7.1809786205773357e-002
      1.2934221115814856e-001 1.2588524042600668e-001
      -2.2906577566724998e-002 -6.0588665944007400e-002
      -1.1159940759405062e-002 -5.4946139569992926e-002
      2.7114184149331980e-002 4.2783909682737997e-003
      -5.0210495435875052e-002 7.0855927996957085e-002
      -1.2847898313081644e-002 -4.6432266014408988e-002
      -9.3923153850963045e-002 1.9071126432919885e-002
      2.7935231431391126e-002 1.0927549761631537e-002
      -6.5894688443280364e-002 1.0394133576119581e-002
      3.5496389041380872e-003 1.2016699768614467e-001
      1.0395801748237139e-002 -4.2299009242014352e-002
      -2.6908973812573493e-003 -6.6675692097090872e-002
      -3.0057747676089406e-002 2.0132556970365745e-002
      -7.2028165220746065e-002 -9.7552425177056187e-003
      2.7271000372397023e-002 -1.3554325596403569e-001
      -6.2092241380060129e-002 6.0580316909737433e-002
      -1.3441765533290339e-003 5.3471226921294218e-002
      -1.3739279745577138e-002 1.0725285332555856e-001
      -6.8100421846621429e-003 -5.5809884206851589e-002
      6.4231852094442363e-002 -3.1047640420060817e-002
      2.5525066965898884e-002 -5.0577110158885746e-002
      3.1900095958103093e-002 -6.0158771971095424e-003
      5.0697782020085146e-002 -4.2630789739120187e-003
      -9.7359199280656950e-002 -4.9468600964477976e-003
      -3.1006614676183784e-002 5.9575082261250224e-002
      5.2589296729681184e-002 2.6833038719224173e-002
      7.0000718942576576e-002 1.3233073077483420e-002
      -9.1865318391382289e-002 4.1996775440116069e-002
      3.3569085459474908e-002 -4.5804217804105950e-002
      -5.6041519899790372e-002 7.5546144747089206e-002
      -9.6637702280197052e-004 -4.0723441867588417e-002
      5.6482583413116488e-002 -3.6578670540989748e-003
      -7.1589064308951534e-003 1.2453663568901281e-001
      -3.7949642645454203e-002 -6.6216931725445712e-003
      -6.4367366560266273e-002 6.8015216697775382e-002
      1.7961578164723022e-002 5.8438168988743404e-003
      -5.8640965565178498e-002 -9.3922501727906754e-002
      3.8947306514362040e-002 3.9838041573220649e-002
      7.1295562936237204e-003 1.0254077981215769e-001
      -2.6553272004692638e-002 -5.5552394280357215e-002
      -6.3874389715551774e-002 1.2187390131660881e-002
      7.7094800063728245e-003 -2.0504413369747850e-002
      -2.3822414840332429e-002 7.3286702150683822e-003
      4.0451652712551562e-003 -1.3028097579198809e-002
      -5.6606175267746528e-002 -2.0222518136186439e-002
      -5.3773576848326239e-002 7.4185753505313687e-002
      8.0568309845882452e-003 2.4082069915983089e-002
      -1.0838721745885014e-002 -6.8193306964029574e-002
      8.1956438887413278e-003 4.2037468549495222e-002
      -2.6869644849234153e-002 -7.3370286459487066e-002
      -4.8030955681256947e-002 5.0492843436853847e-002
      -1.0306721300598411e-001 3.6202579437287191e-002
      -1.4667102822918218e-002 4.5484291589236357e-002
      -4.1968933217710121e-002 -7.4447051096315414e-002
      -2.0264688651808277e-002 7.1118286362116964e-002
      -1.6712551741731457e-002 -1.3163864249404492e-001
      1.0732402941907616e-001 2.0677430420584137e-002
      4.0110918665051072e-002 -4.0751806181858946e-002
      2.2301799895926202e-002 9.3879794441254896e-002
      -3.8046659596020806e-002 -5.9328351751834964e-002
      -4.7176318893403991e-002 6.0009963915749878e-002
      -3.0049245754972104e-002 -6.1532234713091861e-002
      -4.3418798847568970e-003 -6.9470578088338938e-002
      6.4189320829063706e-003 -1.1485156908088363e-002
      -7.4971621242321054e-002 2.5558793044090700e-002
      -1.3181608322464714e-002 -3.1638257846402569e-002
      6.3068557950474280e-002 -3.2752687904482700e-002
      -5.0251679938608164e-002 1.1704142694397545e-002
      -6.4710664623447767e-002 -9.4988959591619550e-003
      -4.7118351388873457e-002 3.5883418002162250e-002
      -6.6806486789439679e-002 3.1457922889788138e-002
      1.9497442398409535e-002 -5.9476494973785321e-002
      -7.7048254243238634e-002 3.4809423565809391e-002
      1.0319094735159455e-001 6.7777762245671669e-002
      -7.4338404405274991e-002 -1.2561783577963039e-002
      7.2420666214839988e-002 -5.5318760574251509e-002
      -8.7138412399043776e-003 2.2031763760391697e-002
      -7.0037393737475834e-002 6.8744143334511523e-002
      -4.0239593325263348e-002 -3.7376629346728224e-002
      -5.8694430090754875e-002 -1.1676099723450300e-002
      1.3194218385283866e-002 -4.2341003619485916e-002
      4.7596857363670961e-002 -5.6074247835957700e-002
      -7.7049323443643125e-002 -4.2044472910340205e-002
      -2.5342023806928172e-002 6.2315553039761530e-002
      -1.1964127478726124e-003 2.3633875167936694e-002
      -5.3768196805047089e-002 7.2413323442706333e-004
      -3.8932743411946697e-003 -4.1787972632748114e-003
      4.7898503507381653e-002 6.7036123285308100e-002
      6.7565716948956800e-002 1.0541110336795048e-002
      -3.8424485333976299e-002 -2.1566455684359317e-002
      -4.0491053618441970e-002 -3.2507074470143602e-002
      -4.2130735509585945e-002 4.0663576183957252e-002
      -2.2824880388459552e-002 1.2725552486466704e-003
      1.2823927956003325e-001 -4.3703451324227684e-003
      -9.9726888889098128e-002 5.5397751904439118e-003
      -5.3458288396345553e-002 5.7714833972634931e-002
      -2.2671472089400527e-002 -9.6642604512957753e-002
      4.7414889819226307e-002 1.0134453957329803e-001
      3.1641636023147256e-002 -2.6315233423133896e-002
      2.6206677619568700e-002 2.4879072739794880e-002
      -5.9573413847445404e-002 2.6660685281046963e-002
      2.5370496412879306e-002 1.4137520539045935e-002
      6.0652451316225285e-002 -6.1343447453074719e-002
      9.1528515685050549e-002 5.4467505360410715e-002
      -8.8339347471602714e-002 -2.3902012576890432e-002
      -1.1884076717342028e-001 3.6326630725584425e-002
      -5.1255923622118248e-003 1.2138235768598887e-002
      1.9379515756769005e-002 5.5419274164824332e-002
      -2.2885823932941741e-002 -3.2029626711527932e-002
