<?xml version="1.0"?>
<opencv_storage>
<my_nn type_id="opencv-ml-ann-mlp">
  <layer_sizes type_id="opencv-matrix">
    <rows>1</rows>
    <cols>3</cols>
    <dt>i</dt>
    <data>
      12 12 4</data></layer_sizes>
  <activation_function>SIGMOID_SYM</activation_function>
  <f_param1>6.6666666666666663e-001</f_param1>
  <f_param2>1.7159000000000000e+000</f_param2>
  <min_val>-9.4999999999999996e-001</min_val>
  <max_val>9.4999999999999996e-001</max_val>
  <min_val1>-9.7999999999999998e-001</min_val1>
  <max_val1>9.7999999999999998e-001</max_val1>
  <training_params>
    <train_method>BACKPROP</train_method>
    <dw_scale>1.0000000000000001e-001</dw_scale>
    <moment_scale>1.0000000000000001e-001</moment_scale>
    <term_criteria><epsilon>1.0000000149011612e-001</epsilon>
      <iterations>5000</iterations></term_criteria></training_params>
  <input_scale>
    1.5452882670057195e-002 -2.4698567339477973e+000
    2.3874327120889480e-002 -4.1301513102444307e+000
    2.2929237883938643e-002 -3.9978744630776721e+000
    1.9850958766129651e-002 -1.5873816788801729e+000
    2.9262960772582426e-002 -2.0854441297913207e+000
    2.7416905167093011e-002 -1.9568061694068677e+000
    1.2651966241530140e-002 -1.9011546587555215e+000
    3.9409081278918880e+000 -9.9086653854819773e-001
    6.2647297687445658e+000 -4.7109703095490865e+000
    1.1929864482902315e-002 -1.8960047461090836e+000
    3.5808240742508595e+000 -1.5997357840097328e+000
    6.0474094987842522e+000 -2.3263685455346548e+000</input_scale>
  <output_scale>
    5.2631578947368418e-001 4.9999999999999994e-001
    5.2631578947368418e-001 4.9999999999999994e-001
    5.2631578947368418e-001 4.9999999999999994e-001
    5.2631578947368418e-001 4.9999999999999994e-001</output_scale>
  <inv_output_scale>
    1.8999999999999999e+000 -9.4999999999999996e-001
    1.8999999999999999e+000 -9.4999999999999996e-001
    1.8999999999999999e+000 -9.4999999999999996e-001
    1.8999999999999999e+000 -9.4999999999999996e-001</inv_output_scale>
  <weights>
    <_>
      1.1926592367253717e+000 -8.8818484609088710e-001
      1.1849555257276017e+000 2.6298718465085075e-001
      5.3798903216609584e-001 1.0486899620747419e+000
      -8.4505672616921754e-002 -1.1475997555123607e+000
      1.4361127336457984e+000 -9.6308155638522089e-002
      2.0893023962316165e-001 8.7264884410794955e-002
      -3.1737250511350273e-001 -5.2336895274058570e-001
      1.1920350765532504e+000 -7.0337237346856829e-001
      -3.0884586869907776e-001 7.0373824907201188e-001
      7.9594627380977179e-001 -5.7567170624981190e-001
      1.4181106143945332e-001 3.1810788627292597e-001
      3.5214531883642369e-001 1.0300290445583626e+000
      -1.6287419332155613e-002 5.8208343744118027e-002
      7.2614590812808522e-001 -2.6046227696736768e-001
      -2.2629881078057629e-001 2.7025520410225501e-001
      5.6236270736781402e-001 3.0669787196834979e-002
      5.2964337267170335e-002 1.0743990585352670e+000
      -1.5812118198971870e-001 1.0158370812628272e+000
      -2.5066573999736792e+000 -4.6528130040780347e-001
      5.7588802904754843e-001 1.5639736864297467e+000
      1.2931063401054402e-001 5.0998641935302416e-002
      -2.0405339454166738e+000 -4.5485981486151111e-001
      -1.6910377553623761e+000 8.9145187151705763e-001
      7.4990118168388387e-001 8.5942040222895666e-001
      -3.1604313883051849e+000 4.6004131952768107e-001
      2.1196248074436488e-001 -3.5694076308122025e-001
      8.8480512713838180e-002 3.3528000971917221e-001
      4.4686283078015276e-001 -3.6211095405739890e-001
      -7.6448074908476971e-001 5.1321700199519281e-002
      1.1689003598113211e-001 4.1886379073972058e-001
      -1.6008152136971605e+000 2.4795530267183552e+000
      -1.2005418317379677e+000 -8.6427572770720895e-001
      1.6754703626525522e-001 1.0522658216384053e+000
      9.0926359193872719e-001 -1.2419425125645163e-001
      1.6022057089522475e+000 -3.6267835078215194e-001
      -5.4530293282001974e-001 -9.2215915447806707e-001
      3.5074859160992927e-001 -1.8617224199879205e-002
      1.5565088195566568e-001 2.7122371170299925e-001
      6.8125786541844868e-001 7.6978385121109794e-001
      -4.9200169715237335e-001 -8.2867717651329886e-001
      -5.0756095568798391e-002 -1.3612006923567970e+000
      2.9608761209196982e-001 -3.3937563614457106e-001
      -4.3570667137700960e+000 1.0414539404834064e+000
      -1.0067022504600593e+000 -3.3489885354320076e-001
      -1.2494030726046192e+000 -7.0455560917704541e-001
      2.0897940297109238e-001 1.1972900003275437e+000
      -2.2052687673488265e+000 -1.1828611474341705e-001
      7.4764083700213410e-002 5.8643203034619296e-001
      -1.4844474078859682e+000 -3.5675958467277412e-002
      4.8777067192259399e-001 9.3765275972174794e-002
      -4.9906789844214516e-001 8.0521901815632080e-001
      1.7028442168607535e-001 -5.1566956683622100e-001
      2.3166931700592067e-001 8.4505168571622213e-001
      4.1033088536248430e-001 8.6912387390278123e-001
      5.3263744601795104e-001 5.2745873819064393e-001
      3.6070435783288918e-001 4.7392184487261774e-001
      2.6916138607365869e-001 5.9049266352230401e-001
      -5.9274474099302499e-001 -7.1254077343637989e-001
      -5.5108483209249037e-001 -1.2718571290995675e+000
      6.1080609756610316e-001 2.0310910774322891e-001
      -3.2294707833263634e+000 1.2540487474848192e+000
      -1.4446438736065330e+000 7.8351660905153964e-001
      -1.0660754737173552e+000 -2.1488695322081683e-001
      -1.4378883462950887e+000 7.8983120383673677e-001
      -1.7771272017534374e+000 3.8573329932479689e-001
      4.0093345969829924e-001 2.3451419936096540e-001
      -4.3072434668780115e+000 1.2873427164100726e+000
      -5.4871751752237774e-001 1.1964650040244376e+000
      -1.2934095259921766e-001 3.8805944734385356e-001
      -2.0006299191870167e+000 -7.5354955506509960e-002
      -1.4060176233748600e+000 8.4500018828679502e-001
      5.5036943639824931e-001 2.4169699590814833e-001
      6.0987599345003956e+000 8.3752776501176140e-001
      -1.8923412411552923e-001 -1.3550100187639719e-001
      1.4693539663982260e+000 -4.7736618305760925e-002
      9.3252022758383735e-001 -1.0571206993767450e+000
      1.3961172074110140e-001 -8.9919561328643829e-002
      -1.3765286740566296e+000 4.8756083162642300e-001</_>
    <_>
      -1.0561945826777121e-001 2.3374971079975287e-001
      2.2021186496043718e-002 -1.4466650604015352e-001
      -7.0810861333568265e-001 -1.1578529034954282e-001
      4.4810638554676507e-001 2.2644114154162970e-001
      1.0331410428382566e-001 2.0899765666601927e-002
      -3.5755204901541149e-001 2.0230582621891277e-001
      -2.9104757741551440e-001 5.1151048924826525e-001
      -1.2181269889329183e-001 -5.2562861938307348e-001
      2.2763179685130691e-001 1.3701769493216726e-001
      -1.2205364356115178e-001 -5.3992091661960906e-001
      -2.6231421935461408e-001 1.2192093328828570e-002
      1.6947537415643804e-001 9.4773065006395929e-002
      4.1457015958451077e-001 -8.7565925342799644e-001
      1.7724738524087891e-001 4.6316798166229350e-001
      -3.1369576094890017e-001 3.5752690246871821e-001
      -1.7808828097883178e-001 1.4006114424609520e-001
      4.4054185299223642e-003 -2.4495816241126722e-001
      9.9696310753975992e-001 -6.1394243332454623e-001
      1.8632964553163811e-001 4.7119996508266382e-001
      -2.0658684341376393e-001 -4.6209278766863565e-001
      1.6423080119195846e-001 3.3011910564724245e-002
      6.5980881711430173e-001 2.7806829152490581e-001
      -5.1287972455775488e-001 6.4287933351177398e-002
      1.1979331061601041e-001 -1.4706676933144691e-001
      -1.3346421377848585e+000 -8.6663743449245281e-002
      -1.1554645740790630e+000 -8.3298031814645579e-001</_></weights></my_nn>
</opencv_storage>
