<?xml version="1.0"?>
<opencv_storage>
<my_nn type_id="opencv-ml-ann-mlp">
  <layer_sizes type_id="opencv-matrix">
    <rows>1</rows>
    <cols>3</cols>
    <dt>i</dt>
    <data>
      192 192 39</data></layer_sizes>
  <activation_function>SIGMOID_SYM</activation_function>
  <f_param1>6.6666666666666663e-001</f_param1>
  <f_param2>1.7159000000000000e+000</f_param2>
  <min_val>-9.4999999999999996e-001</min_val>
  <max_val>9.4999999999999996e-001</max_val>
  <min_val1>-9.7999999999999998e-001</min_val1>
  <max_val1>9.7999999999999998e-001</max_val1>
  <training_params>
    <train_method>BACKPROP</train_method>
    <dw_scale>1.0000000000000000e-002</dw_scale>
    <moment_scale>1.0000000000000000e-002</moment_scale>
    <term_criteria><epsilon>9.9999997764825821e-003</epsilon>
      <iterations>5000</iterations></term_criteria></training_params>
  <input_scale>
    1. 0. 1.6639002683835625e+002 -4.2328671541257163e+000
    1.2323904000500016e+002 -4.3080896205117334e+000
    1.6547015202719516e+002 -4.5522801884720296e+000
    1.2411420026096854e+002 -4.1910157041967402e+000
    1.6377826750924282e+002 -4.4781912861447424e+000
    1.1813876409846746e+002 -4.1757947382390315e+000
    1.5975445797567917e+002 -4.4011019374966400e+000 1. 0.
    1.3237230799100365e+002 -4.3781317889020963e+000
    1.1808211316547469e+002 -4.4452919723474054e+000
    1.3936880662444005e+002 -4.9880907793730183e+000
    1.3071598754545047e+002 -4.6687360881992577e+000
    1.3809863815667063e+002 -5.0875328015946524e+000
    1.3267125365505942e+002 -4.7677618814476128e+000
    1.3455668673924197e+002 -4.7330876986454724e+000 1. 0.
    1.2647134781028237e+002 -4.1614890793709023e+000
    9.8667616096113363e+001 -3.8444970903535700e+000
    1.3377333229110289e+002 -4.5536437960009346e+000
    1.2140599304084131e+002 -4.2155919889182840e+000
    1.3260063293650330e+002 -4.6632648613569883e+000
    1.1838545097581985e+002 -4.2928891098919850e+000
    1.3005149508259143e+002 -4.4582642350460047e+000 1. 0.
    1.2271029847492342e+002 -4.0911367211836902e+000
    1.0602644883296854e+002 -4.0497195116728841e+000
    1.3151172002037382e+002 -4.6150985437658294e+000
    1.2500582958590547e+002 -4.2631512891161369e+000
    1.2506763406196545e+002 -4.4356584750175161e+000
    1.1823108139902379e+002 -4.4030602399106442e+000
    1.2953858203915991e+002 -4.4951912892969910e+000 1. 0.
    1.2896284496300044e+002 -4.2599044877547927e+000
    9.9524031766467417e+001 -3.8769345475139207e+000
    1.3181646507891858e+002 -4.5485086440548272e+000
    1.2562341971457074e+002 -4.3393781661780739e+000
    1.2636324695794161e+002 -4.5390836491859599e+000
    1.1333547300801490e+002 -4.2434883370351510e+000
    1.3194105560139667e+002 -4.5963110953405542e+000 1. 0.
    1.2335965278802865e+002 -4.0718022527204303e+000
    1.0069583540934308e+002 -3.9165441002686263e+000
    1.2323632550041222e+002 -4.2567724770361659e+000
    1.1901944554396026e+002 -4.1365836877731637e+000
    1.2871317961756176e+002 -4.5246725609275780e+000
    1.0904613862802285e+002 -4.0404600186760762e+000
    1.2967058680987680e+002 -4.4750233068604164e+000 1. 0.
    1.3222541429578010e+002 -4.3839818649838502e+000
    1.1639796169293503e+002 -4.3304749343257836e+000
    1.2626961167539447e+002 -4.4722781949960266e+000
    1.1996268889529972e+002 -4.1245070360420026e+000
    1.2426289661297696e+002 -4.5456631069289219e+000
    1.2414363568842268e+002 -4.4571690276944249e+000
    1.2900693105269818e+002 -4.5257794038186541e+000 1. 0.
    1.5400167410257541e+002 -3.9218840384431428e+000
    1.1701291598885916e+002 -4.1692647744458542e+000
    1.5626520567134037e+002 -4.2328706532997975e+000
    1.1773503159032576e+002 -3.9463200569642396e+000
    1.5021482283709653e+002 -4.0915878606070928e+000
    1.1348269451054985e+002 -3.9906547223129918e+000
    1.5500071649260533e+002 -4.2601838081475405e+000
    1.9784419454095401e-002 -2.2692513805775976e+000
    1.8300801943505581e-002 -2.6369043523914586e+000
    1.6519555848090346e-002 -2.3644658015914328e+000
    1.3896002397364106e-002 -1.9800139928653357e+000
    1.5629712690057376e-002 -2.2952091340675529e+000
    1.8540672308287272e-002 -2.6636287606796523e+000
    1.6920697334179800e-002 -2.1042145445676588e+000
    1.9170804374034903e-002 -1.6274598863898055e+000
    2.0336268428759196e-002 -2.6412853633073028e+000
    1.6896589692210109e-002 -2.9795613798957303e+000
    1.5560460926939548e-002 -2.6782432034612200e+000
    1.3223045704323491e-002 -2.1515957964194126e+000
    1.4418965176382218e-002 -2.4519459000071078e+000
    1.6699760561437176e-002 -3.0038204625249549e+000
    1.7225861447714416e-002 -2.7394410353386744e+000
    1.9558951755834574e-002 -1.9516617386254229e+000
    2.0634692610259603e-002 -2.6028456541269325e+000
    1.7261787661725123e-002 -3.0143923741939802e+000
    1.9899468103876210e-002 -3.0533291488575136e+000
    1.7017495428408337e-002 -2.2246702209845872e+000
    1.7844984700333764e-002 -2.5245194123488379e+000
    1.7852358467215279e-002 -3.0551192210957558e+000
    1.6385500265283997e-002 -2.7386332842421970e+000
    2.0077290044903228e-002 -2.1163454442253857e+000
    1.7967660258997830e-002 -2.1693331742109638e+000
    1.5705951606434981e-002 -2.6148301370750140e+000
    1.7460050614663901e-002 -2.4211875411121877e+000
    1.3437373766050883e-002 -1.5101235856003898e+000
    1.3762712577195482e-002 -1.6985384028917252e+000
    1.5803860873205521e-002 -2.4041704570303088e+000
    1.4582356795653086e-002 -2.3121763775782265e+000
    1.8698554573390477e-002 -1.9335933356248853e+000
    1.7752449345957870e-002 -2.1553362521159052e+000
    1.5453007433546325e-002 -2.5608679073385860e+000
    1.6597992526728861e-002 -2.2705732654581494e+000
    1.2668882425606928e-002 -1.4661466312987272e+000
    1.2466738355558067e-002 -1.5501145486231580e+000
    1.4889894148310654e-002 -2.1314406348524439e+000
    1.3845287542951350e-002 -2.0793646382946944e+000
    1.7287673777223372e-002 -1.7478151749965887e+000
    1.7914413326288684e-002 -2.1218247052647690e+000
    1.4902439067199140e-002 -2.4841771269048514e+000
    1.7470192842326183e-002 -2.4868682199983030e+000
    1.3373529432312419e-002 -1.7129275757166784e+000
    1.3220902556353843e-002 -1.7613215709144918e+000
    1.5915388296882198e-002 -2.2504897904115873e+000
    1.3164898042434613e-002 -1.9163061189710542e+000
    1.6389657235751143e-002 -1.6191673347256397e+000
    1.8692755382271602e-002 -2.0879333097108592e+000
    1.4708529532522033e-002 -2.4311296278975996e+000
    1.7988026627359821e-002 -2.7242833700727815e+000
    1.4634355683410349e-002 -2.1471625754699457e+000
    1.4608788801618509e-002 -2.2458919503802859e+000
    1.7910822254850557e-002 -2.7703558908294013e+000
    1.4080251279699132e-002 -2.0966702979947045e+000
    1.6982183133996857e-002 -1.6653546061594817e+000
    1.8618093853975008e-002 -1.9116437415706071e+000
    1.4031383908343973e-002 -2.2226255042237733e+000
    1.6162672757533681e-002 -2.5529635423284902e+000
    1.4451372226383177e-002 -2.3623677400366341e+000
    1.4524559363160487e-002 -2.5340842410654187e+000
    1.6212177331310522e-002 -2.7888630486683952e+000
    1.4140774770937281e-002 -2.1705114637159051e+000
    1.7594079935287395e-002 -1.6952268322847552e+000
    1.7900360756364624e-002 -1.7543392498088972e+000
    1.3271287954705252e-002 -2.0259944982151716e+000
    1.5648974023476144e-002 -2.3363823604147687e+000
    1.3764340490107227e-002 -2.0746406226843579e+000
    1.3641486776316285e-002 -2.2360359748905223e+000
    1.6484853323161314e-002 -2.7361786785599209e+000
    1.3659770305701596e-002 -2.0968226419661700e+000
    1.6871696501478774e-002 -1.6776994669362857e+000
    1.8144884001383827e-002 -1.7664647942106575e+000
    1.2993971843330865e-002 -1.9513300483208167e+000
    1.6355944492771717e-002 -2.1936466178076941e+000
    1.3737616385040988e-002 -1.6771785742267165e+000
    1.3131200889956587e-002 -1.7495586532303122e+000
    1.6646889077174511e-002 -2.3860930176101069e+000
    1.3343948722993481e-002 -1.9413751178393344e+000
    1.6243344260768126e-002 -1.6721884574636752e+000
    1.8779258977706371e-002 -1.9283324262817769e+000
    1.4089408767488739e-002 -2.2121257676995905e+000
    1.6796698538145621e-002 -2.2575047180829424e+000
    1.2737695348938084e-002 -1.4456467899577381e+000
    1.2304987501644144e-002 -1.4956228738606616e+000
    1.4906521379477141e-002 -2.0628246313716208e+000
    1.3786439983051344e-002 -2.0240160937438971e+000
    1.5679004516708620e-002 -1.7221348380606176e+000
    1.9546698026342256e-002 -2.1012109486600079e+000
    1.5854135478148557e-002 -2.5981419817981131e+000
    1.8093849571073115e-002 -2.5679482684479109e+000
    1.3201834169302130e-002 -1.5250145833064519e+000
    1.2239711315647007e-002 -1.4763252666322146e+000
    1.4416329471414174e-002 -2.0096955973843049e+000
    1.3970239852614762e-002 -2.0858936406396480e+000
    1.5398269859514875e-002 -1.7524013116251387e+000
    1.9446060867474264e-002 -2.0766370804244132e+000
    1.5614694499711765e-002 -2.5834634777118035e+000
    1.8480499873883290e-002 -2.7277351892448158e+000
    1.5345468690485569e-002 -1.8654374807489376e+000
    1.3322326028910826e-002 -1.6563630231601381e+000
    1.6231023649300069e-002 -2.2919461481703540e+000
    1.3913969613956190e-002 -2.0874016503727195e+000
    1.6213977289685880e-002 -1.8213256757809735e+000
    1.9872061342891777e-002 -1.9874127845038680e+000
    1.5492480712337423e-002 -2.4962713831498866e+000
    1.7457241087313426e-002 -2.7839254454918034e+000
    1.7368829800758729e-002 -2.4284396353520803e+000
    1.5571712366676420e-002 -2.1598962997870923e+000
    1.8198512904186483e-002 -2.7843284634266157e+000
    1.4129126120094803e-002 -2.2477372396779982e+000
    1.8819376607167274e-002 -2.1210006341253549e+000
    1.9822794148951214e-002 -1.6867543923784958e+000
    1.5523672875416755e-002 -2.2156392057016219e+000
    1.5038783880765936e-002 -2.4581192301399750e+000
    1.3481179697115703e-002 -2.1911334661619448e+000
    1.2621643936314556e-002 -2.0210502740296477e+000
    1.4538389574073080e-002 -2.4020091686665292e+000
    1.4674315441879946e-002 -2.3062700664680542e+000
    1.8352206927929621e-002 -1.9960188686088969e+000
    2.0547871738067613e-002 -1.4402194617550625e+000
    1.7037119960266408e-002 -1.8621015886536207e+000
    1.7076226224973203e-002 -2.2343508997202122e+000
    1.4480382276023482e-002 -2.0329406143666882e+000
    1.2941887918299045e-002 -1.8219674317058252e+000
    1.5662470653877023e-002 -2.1053542294082610e+000
    1.7317952660194126e-002 -2.1075634277069430e+000
    1.8012746921904469e-002 -1.6454720546066899e+000</input_scale>
  <output_scale>
    5.2631578947368418e-001 4.9999999999999994e-001
    5.2631578947368418e-001 4.9999999999999994e-001
    5.2631578947368418e-001 4.9999999999999994e-001
    5.2631578947368418e-001 4.9999999999999994e-001
    5.2631578947368418e-001 4.9999999999999994e-001
    5.2631578947368418e-001 4.9999999999999994e-001
    5.2631578947368418e-001 4.9999999999999994e-001
    5.2631578947368418e-001 4.9999999999999994e-001
    5.2631578947368418e-001 4.9999999999999994e-001
    5.2631578947368418e-001 4.9999999999999994e-001
    5.2631578947368418e-001 4.9999999999999994e-001
    5.2631578947368418e-001 4.9999999999999994e-001
    5.2631578947368418e-001 4.9999999999999994e-001
    5.2631578947368418e-001 4.9999999999999994e-001
    5.2631578947368418e-001 4.9999999999999994e-001
    5.2631578947368418e-001 4.9999999999999994e-001
    5.2631578947368418e-001 4.9999999999999994e-001
    5.2631578947368418e-001 4.9999999999999994e-001
    5.2631578947368418e-001 4.9999999999999994e-001
    5.2631578947368418e-001 4.9999999999999994e-001
    5.2631578947368418e-001 4.9999999999999994e-001
    5.2631578947368418e-001 4.9999999999999994e-001
    5.2631578947368418e-001 4.9999999999999994e-001
    5.2631578947368418e-001 4.9999999999999994e-001
    5.2631578947368418e-001 4.9999999999999994e-001
    5.2631578947368418e-001 4.9999999999999994e-001
    5.2631578947368418e-001 4.9999999999999994e-001
    5.2631578947368418e-001 4.9999999999999994e-001
    5.2631578947368418e-001 4.9999999999999994e-001
    5.2631578947368418e-001 4.9999999999999994e-001
    5.2631578947368418e-001 4.9999999999999994e-001
    5.2631578947368418e-001 4.9999999999999994e-001
    5.2631578947368418e-001 4.9999999999999994e-001
    5.2631578947368418e-001 4.9999999999999994e-001 1. 0. 1. 0. 1. 0. 1.
    0. 5.2631578947368418e-001 4.9999999999999994e-001</output_scale>
  <inv_output_scale>
    1.8999999999999999e+000 -9.4999999999999996e-001
    1.8999999999999999e+000 -9.4999999999999996e-001
    1.8999999999999999e+000 -9.4999999999999996e-001
    1.8999999999999999e+000 -9.4999999999999996e-001
    1.8999999999999999e+000 -9.4999999999999996e-001
    1.8999999999999999e+000 -9.4999999999999996e-001
    1.8999999999999999e+000 -9.4999999999999996e-001
    1.8999999999999999e+000 -9.4999999999999996e-001
    1.8999999999999999e+000 -9.4999999999999996e-001
    1.8999999999999999e+000 -9.4999999999999996e-001
    1.8999999999999999e+000 -9.4999999999999996e-001
    1.8999999999999999e+000 -9.4999999999999996e-001
    1.8999999999999999e+000 -9.4999999999999996e-001
    1.8999999999999999e+000 -9.4999999999999996e-001
    1.8999999999999999e+000 -9.4999999999999996e-001
    1.8999999999999999e+000 -9.4999999999999996e-001
    1.8999999999999999e+000 -9.4999999999999996e-001
    1.8999999999999999e+000 -9.4999999999999996e-001
    1.8999999999999999e+000 -9.4999999999999996e-001
    1.8999999999999999e+000 -9.4999999999999996e-001
    1.8999999999999999e+000 -9.4999999999999996e-001
    1.8999999999999999e+000 -9.4999999999999996e-001
    1.8999999999999999e+000 -9.4999999999999996e-001
    1.8999999999999999e+000 -9.4999999999999996e-001
    1.8999999999999999e+000 -9.4999999999999996e-001
    1.8999999999999999e+000 -9.4999999999999996e-001
    1.8999999999999999e+000 -9.4999999999999996e-001
    1.8999999999999999e+000 -9.4999999999999996e-001
    1.8999999999999999e+000 -9.4999999999999996e-001
    1.8999999999999999e+000 -9.4999999999999996e-001
    1.8999999999999999e+000 -9.4999999999999996e-001
    1.8999999999999999e+000 -9.4999999999999996e-001
    1.8999999999999999e+000 -9.4999999999999996e-001
    1.8999999999999999e+000 -9.4999999999999996e-001 1. 0. 1. 0. 1. 0.
    1. 0. 1.8999999999999999e+000 -9.4999999999999996e-001</inv_output_scale>
  <weights>
    <_>
      -9.4774394706927459e-003 -9.7805219828911334e-003
      -2.0921956870595290e-004 2.4404954239721638e-003
      1.7826149343995246e-003 -4.0739546956759512e-003
      -1.8086671299757412e-003 4.9711256335304189e-003
      -8.0258741567577879e-003 3.8228825866447661e-004
      -1.9748438002816318e-003 -4.5561885684176637e-003
      -2.9975330284229564e-003 3.1486997294390825e-003
      7.1306952547383750e-004 -2.2670657843549533e-003
      5.0370871195420316e-003 8.3227771892789831e-004
      -2.5485483660139530e-003 -2.5002280115775491e-004
      -5.0968104100118641e-003 4.2008445609326983e-003
      -7.5285901558527447e-003 6.1644744656508691e-003
      -3.8553584354916290e-003 9.6616773526332304e-003
      5.0609761704699793e-003 -1.1293055072537396e-003
      -7.9841650000755451e-003 5.1188453096344174e-003
      7.0869217660411872e-004 -9.1729505242223470e-003
      7.5197821958013266e-003 3.8650389908641497e-003
      -1.3554520088649265e-004 6.9280949925869563e-003
      -7.7265310219992315e-003 2.4390471210455505e-003
      -4.6105022292075868e-003 -4.1998577343580054e-003
      -7.7206269581526739e-003 9.9766978577998551e-003
      4.2544577578334328e-003 1.3754517380714702e-003
      7.1796435332770539e-003 -3.6314002586833017e-003
      7.1302042362966882e-003 5.9848411933615987e-003
      -8.7012957274677314e-003 -7.1911688818492407e-003
      3.5753906382966408e-004 -7.8206324736721719e-003
      7.7840334160302673e-005 -9.7247046973899017e-003
      6.5906532945043820e-004 -6.6883423836866093e-003
      1.0267470172397101e-002 2.4589843309896263e-003
      4.2177802259136879e-003 -2.5745004564537138e-005
      -9.1245559952410783e-003 4.6682843740123679e-003
      -3.2086970244528438e-003 -8.6643351054055979e-003
      -4.4314902091338479e-004 -8.0917907515533228e-003
      -4.7106191796082537e-003 5.4813280656156316e-003
      -2.1113643434525519e-004 -7.1603200584857002e-003
      -1.9313744214374390e-003 8.0881452445791969e-003
      -5.7626970373238790e-003 3.2385791708325500e-003
      -9.0264538523999859e-003 -8.3071699634805346e-003
      6.7234290194826728e-003 -5.2206927062768763e-003
      9.4966577799442207e-003 -7.4237071929381592e-003
      -5.7398595433081779e-003 -2.0103225189369886e-003
      8.8759822239327171e-003 1.3590891472343594e-003
      4.2237535617746019e-003 2.9836713601291928e-003
      3.5702107009188372e-003 1.8901887388650806e-003
      9.1388047665465610e-003 3.8644142153306856e-003
      -8.5457007598703349e-003 4.4538058287786611e-003
      9.4856801867413357e-003 2.8557089696693398e-003
      2.8982475581529957e-003 -6.1692684888342113e-003
      7.3143594555870918e-003 -4.1482498175634524e-003
      3.3752444836027528e-003 -7.4452395656556397e-003
      -6.1845268364962300e-003 6.0264122627934659e-003
      -8.4815390293495399e-003 4.0147813343026474e-003
      4.3837645794166848e-003 3.8368163650613590e-003
      -8.6385474387302586e-003 -9.9415775626384446e-003
      7.5109333721571385e-003 -9.5411738712115005e-003
      -3.4234751243589117e-003 -6.3589078712151977e-003
      -7.7230079999872818e-003 -5.1571929445438803e-003
      3.8867623092827793e-003 8.4313922739099843e-003
      -6.6865057053254783e-003 -2.5348848451417455e-003
      3.7118882088317934e-003 -6.6618591861344672e-003
      -7.3443811874468953e-003 -2.5576058866699451e-003
      3.1610320554713066e-003 6.9403163434145062e-003
      9.1255242269702667e-003 -8.7392895667056745e-003
      -7.9585156868439556e-004 -5.2494145688038851e-003
      -8.0898733159987697e-003 2.1927887959098463e-004
      -9.8332158042401651e-003 -8.9059142405920142e-003
      8.9704192336094463e-003 2.2753640837821255e-003
      1.4789415735889002e-003 -7.5156762652871627e-003
      -8.5957154756025871e-003 -4.2846266567992753e-003
      5.1558259987878521e-003 3.7180267592480453e-004
      -8.2661007363254188e-004 -9.5016089234157570e-003
      5.4214194731074770e-003 7.5946995821700438e-003
      -9.5358673566572887e-003 4.0276062510767128e-003
      -7.9922091987431089e-003 -1.9233252445361767e-003
      -6.0736589670730761e-003 6.9899055328251835e-003
      1.0045558859734034e-004 -2.3930381159207072e-003
      -6.1498343560791027e-003 9.1869368739552031e-003
      -5.0312480841038214e-003 -5.0576352806115795e-003
      -7.1358628471272483e-003 -9.6478922676524886e-003
      2.1329996454838495e-003 2.7190032651601965e-003
      5.2443130122763418e-003 -9.0053141158247044e-003
      -3.2104946150842092e-003 3.3401647501044088e-003
      2.8177639379689343e-003 -4.4751893211692527e-003
      3.0455839087828742e-003 -6.5405593841857722e-003
      -2.0932315025789963e-003 3.7954907859074397e-003
      -5.4419576138871415e-003 -1.0389572524830911e-002
      6.9966178861906715e-004 7.9927233867555635e-003
      5.0507399638574776e-003 -6.1690568077717610e-006
      -3.3827172239549036e-003 -1.0073950853355173e-002
      -3.8259064801943474e-003 -1.0450919271156848e-002
      -9.7928840153109192e-003 8.5487957745100859e-003
      -2.5400033143762779e-003 5.0165710185769690e-003
      7.8777970024318956e-003 4.8212059431027281e-003
      -3.7233622833704092e-004 -9.1814154631758571e-003
      -1.7251515388112776e-003 -5.2734601102399341e-003
      -5.3371935619845223e-004 -4.0506534619315126e-003
      7.4289028606334739e-001 8.9645540722191729e-003
      2.6646532551621409e-002 -4.0406551189401278e-002
      -1.3448039407433169e-002 -3.1280269221704515e-002
      3.7901577942221591e-002 -2.2372377065557948e-003
      -8.1107360949209187e-002 -6.0546545435572474e-003
      1.7045481108202781e-002 -5.4466823943164953e-002
      2.7295995964527150e-003 5.6125201510413156e-002
      2.8803385642991463e-002 8.6230479106559191e-002
      -6.5199469113674052e-002 2.0245685212931697e-003
      3.4878279573794121e-002 -1.4311742640985474e-002
      -1.8453157441544615e-002 7.3502787643325452e-003
      2.8710767172425406e-004 1.4970453391121972e-002
      1.8686963222296866e-002 1.0877105323854391e-001
      -1.3064730333349392e-001 -7.9883669753268733e-003
      -3.2358456796985229e-002 -2.1853431943030365e-002
      -2.0459184437525906e-002 -5.7490394726634197e-002
      -4.7117450187223513e-002 1.5908119714205464e-002
      1.0851029522798930e-001 8.8312228572339349e-002
      9.5000028138907622e-002 8.4403945988576604e-002
      8.5328056336893859e-002 6.4675518866128693e-003
      1.1597515537053853e-001 -4.0731195627337465e-002
      4.9893509159714626e-002 8.3339190575380653e-002
      1.0497201086122657e-001 7.4302466156655173e-002
      2.7653955809965672e-002 -1.0431347866272382e-002
      4.4262285017082938e-002 -5.0056977536254071e-002
      6.9566630103231372e-002 -1.5355638493493001e-002
      8.3362466907490815e-002 3.4938659264199159e-002
      7.2939821308035269e-003 -6.5714038744884420e-002
      9.4942175480044438e-002 -1.5508189692821231e-002
      -2.2940498009149643e-002 -3.5861643068096881e-002
      2.3736444509175541e-002 -4.9930006502377909e-002
      1.3526644596004772e-001 -6.3493824611953031e-003
      -3.1245327043019900e-002 -1.9812711480839504e-002
      -3.6698467955380246e-002 1.7102790047230258e-002
      -7.6430879065320159e-002 -8.1113418499690434e-002
      -2.5690999616997702e-003 1.7499858265999760e-002
      -3.1318128435310885e-002 1.8467016460800553e-002
      1.5425754769568629e-002 2.5658053314197488e-002
      9.5032979223366090e-003 -4.0278936620912024e-002
      3.6144343765361145e-002 2.5200715036381282e-002
      6.9047038929439747e-003 3.2959143110606791e-002
      -1.1279494375614402e-002 1.0376687143161976e-002
      -2.3057900411464733e-002 6.8546622498219550e-002
      -4.1456470839692595e-002 3.4157698281861763e-002
      1.1228319728519862e-001 8.7329451038608355e-002
      6.6291172310245150e-003 2.8841119715528565e-002
      -6.2510216776312882e-002 3.6635718330094817e-002
      2.0834843549594338e-002 1.0883086854155867e-001
      -8.7212294237228524e-003 -7.4876585024492778e-003
      5.6345455172225362e-002 -8.7915418771623809e-003
      3.8521774938879191e-002 -1.1801884286165741e-002
      8.4752960752695811e-002 -4.4608430833087291e-002
      2.9303580091136705e-002 5.1910125035803951e-002
      4.7443009243635864e-003 1.2740881980515857e-002
      -2.5157548411984636e-002 -4.1312589448424038e-002
      3.4411343173413725e-002 -3.0462288786463409e-002
      -5.6609902960569773e-002 3.2624874980651510e-002
      -5.1841405687594017e-002 -2.5896519920140987e-002
      2.3928010433414280e-002 -4.6057711760282317e-002
      6.8232455833690892e-002 4.4704104011511221e-003
      9.6779731319957384e-003 -6.3214610519699038e-002
      -8.4203084574265646e-002 -1.5589850846039942e-002
      1.0077502050158157e-001 -3.2749777946341513e-002
      1.0005148713083546e-001 2.4407528925600563e-002
      -2.2909100033427294e-002 -1.3300221341030985e-001
      -2.2879444031464177e-002 -2.9728109038615089e-002
      3.1416720234159312e-002 -6.6585338817585927e-003
      -6.5353488211221375e-002 2.5841692003288428e-002
      -7.3247826052751180e-002 -5.6596503773003693e-003
      3.2045331457697120e-002 -5.4273893432770753e-002
      -4.3412757708720849e-002 -5.9037971993126607e-003
      -5.2575171571645263e-002 2.3160504538008584e-002
      1.0230864902018610e-001 -3.9807022435215049e-002
      -5.4361519053474382e-002 9.1053395599505343e-002
      -3.5469065363961459e-002 -2.8008732285592031e-002
      -1.0332283764685250e-002 -5.1443588057284911e-002
      3.9676564849676813e-002 -6.3513344159471033e-003
      -2.6420707377593582e-003 -6.6777120423562847e-002
      -3.7072816841097853e-002 7.0770715687444113e-002
      8.9014825850623688e-002 -1.0764614958040578e-001
      -4.2039883972729460e-003 -3.3470818006908994e-002
      1.4066026744804852e-002 -5.3073519224462018e-002
      -7.7879641681449965e-002 4.1264229806907048e-002
      -2.3990317543340620e-002 6.9595827672812235e-002
      -7.6827390433198112e-002 -1.4689024709450523e-002
      -1.7787741090382621e-002 -1.3536945178074218e-002
      4.5905039772758206e-002 -6.7302769148181937e-002
      2.1185934783825668e-002 9.8270232219647390e-003
      1.0954131124045976e-002 2.4450120348990561e-002
      -5.4799998365210510e-002 7.5967964213006667e-002
      -2.4091821279085147e-002 3.9004823804640477e-003
      5.6356860412991622e-002 -8.2316540790797879e-002
      4.6908827470453017e-002 -2.5063695951216401e-002
      5.2768169361544796e-003 2.5648362838985635e-002
      3.1794315741447165e-003 -9.0170650117507967e-002
      1.2960162386153750e-002 1.4296028641668278e-002
      5.2268600861048020e-001 2.3370207952681205e-002
      1.4861411610806283e-001 -4.4497783137657357e-002
      -1.2792302765026028e-001 5.3271516905681882e-002
      2.0768309777624321e-002 -1.5416178610663664e-001
      -3.0213915556508514e-002 2.6048317017572927e-002
      8.3971641221800480e-002 -1.5418886345788774e-001
      3.7971270683712199e-002 1.0299883639101658e-001
      1.0992105669152644e-001 6.7573552647025414e-002
      -1.3440999036229048e-001 -9.2443741327803863e-002
      1.0595505915281969e-001 8.4074044411853954e-002
      -8.8309928154663112e-002 -4.0774521213159831e-002
      -2.2043722522400253e-002 1.9682206512912184e-001
      -6.2929953590852225e-002 -5.0909567221711652e-002
      -1.0740457862722058e-001 4.6670714710982997e-002
      -9.9810298377115927e-002 -8.4585459405093807e-002
      -5.6424657079462932e-002 -1.3731181381448718e-001
      -1.3640383914268392e-001 -6.2509440742827244e-002
      1.0861460790964324e-001 1.3550119892392776e-001
      1.0053992064894185e-001 1.2795883645383924e-001
      3.7807751695874157e-002 -1.0043467641471403e-001
      1.6242770180922281e-001 -6.8233178714248149e-003
      7.6613890036890592e-002 1.4891785661125939e-001
      9.8310710514421501e-002 9.0808846607090404e-002
      -2.8990852763409326e-002 -8.5725113072762607e-002
      1.5832474758075693e-001 2.2805409141593591e-001
      1.5121365946587323e-001 -4.0684389056434601e-003
      1.8166244894510904e-002 6.0436969362669374e-002
      7.5248895893379728e-002 -7.4815473222322681e-002
      1.2506692532382643e-002 7.2795562097801719e-002
      -5.1483213832677219e-002 4.9380226604639664e-002
      9.6945490205577495e-002 -4.2977502954424457e-002
      9.1551406095958410e-002 1.0236291301423196e-001
      -3.5474122879459814e-002 5.6844662487855635e-002
      -4.6728207481097149e-002 1.9946944018510947e-002
      -8.3883371085481800e-002 -7.9077404421768513e-002
      -3.6083852668003277e-002 5.6567088924043461e-002
      -3.2749346398424230e-002 -2.3224679840829462e-001
      5.5873385743025555e-002 3.1793284117037537e-002
      1.2740411618908548e-001 -8.8776364188326698e-002
      -1.3050551514384234e-001 -4.7985813157016582e-002
      1.4237400708196360e-001 1.4854944418450974e-001
      -1.0048543122013737e-001 1.4783583603309886e-001
      -1.5148620551798905e-001 1.2696834165968193e-001
      -1.4068670408192618e-001 1.4496818485130519e-001
      1.4952323101963294e-001 1.0464976794659847e-001
      -8.4273439232430136e-002 1.0027248313158791e-002
      1.9211304249642908e-001 5.0485853454176999e-002
      -6.9223229728053483e-003 1.9387933300121099e-001
      -1.5060497712240009e-001 1.3669347062412987e-001
      1.1593933470656402e-001 -2.7686864277036712e-002
      1.4404091059395885e-001 -1.5021464873584288e-002
      8.9562019872194851e-002 4.3497684177475369e-002
      1.5658020055066710e-001 1.9222352353590716e-001
      -1.6363061758637160e-001 -9.5661282737468604e-003
      -1.6786233900935232e-001 -1.5016652740589656e-001
      1.7461353137434502e-001 1.1598575087578102e-001
      -1.4650032941876204e-001 1.0350064330321915e-001
      -9.9194486587893496e-002 -4.6199913832906548e-003
      -9.6352479100573721e-002 -1.0142124373739618e-001
      4.1397916581250624e-002 1.6303003574146777e-001
      1.3587959379879200e-001 -1.4912760707589418e-001
      -1.4150647423474302e-001 5.1804515986256593e-002
      1.9195715655149509e-001 -1.7862977326845091e-002
      1.7968978516604298e-002 5.3029315658739341e-002
      -2.6711009410694372e-002 -1.2481632561339984e-001
      -2.5344072570928671e-002 -1.1068749276972994e-001
      -1.9324536372382994e-001 -1.7865414890940334e-001
      -1.1163569760705039e-001 4.8476631543140344e-002
      -1.1789140796484367e-001 -1.2160563982337659e-001
      -1.2814330978028238e-001 -1.3509848367118585e-001
      -4.1261605943517868e-002 1.2394066541569097e-001
      -1.4186970641591704e-001 3.6330898643917253e-002
      1.8062044879717055e-002 -1.0982755371703948e-001
      -2.1285780254056252e-001 1.8865498188704394e-001
      -1.4809802359492585e-001 -1.3277237403734110e-001
      1.4178290451756298e-001 6.6703108402456954e-002
      1.0348764576720319e-001 -1.9649753786472161e-002
      4.7275846534231156e-002 -8.2029681100954280e-002
      -9.4876441610779516e-002 1.5227295047050898e-001
      9.3734532815272317e-002 -1.0569891461525675e-001
      1.3310646461563044e-002 -6.1677641490287968e-002
      -1.3786579014711081e-001 -1.0568012078943917e-001
      -9.2441778077585149e-002 5.8956256270404413e-002
      1.1518280449927369e-001 1.2872671341352920e-001
      -5.4756195985137771e-002 -1.4310050344756028e-001
      1.8042885574903231e-002 -1.1886656635513664e-001
      1.3814453445899408e-001 -2.5533216656625671e-002
      -1.9660851800218256e-002 1.3989597864473066e-001
      -3.2799022084720304e-002 -8.9134891117121764e-002
      -7.2354023745401869e-002 1.0000304705585578e-001
      -4.7081037168082797e-002 1.6891614512991402e-002
      -9.3676248470988752e-002 -9.1285107325120518e-002
      5.8686798269540305e-002 -1.4621199966293935e-001
      6.8909000564583808e-002 1.7507919863144653e-001
      -8.9872452651738363e-002 -1.6785573576082871e-001
      2.7234533357651529e-003 -7.3464530145942675e-002
      2.1869405839274748e-002 -1.3784506313361828e-002
      -1.7129479565091107e-001 6.4660437723221054e-002
      1.1142030714418595e-001 -3.9858854022804147e-002
      4.7214509058785166e-003 1.7670182845483046e-001
      3.4490736094684532e-002 -2.7557438401719411e-002
      -8.7280227449535439e-002 -4.0976073561690300e-002
      -1.5271165318451546e-002 -2.1550090101070529e-001
      -1.0647126113614633e-001 -1.0580549700837821e-001
      3.9170233553355485e-002 3.4813920047137910e-002
      -1.4297553435715271e-001 -8.6935394181028622e-002
      1.3933838566684359e-001 -5.9362271947927439e-002
      -2.6149163573423801e-002 -1.6611704648332301e-001
      4.7242075687842083e-002 -2.0512588536373354e-002
      1.8188773278696599e-001 -4.3021538964357633e-002
      1.5638872740181728e-001 1.3253039567979516e-001
      7.4860905634005201e-002 1.7186250671600034e-001
      9.7291801817626887e-003 4.3492171701427759e-002
      -9.0319580553296572e-002 -1.0704098402329676e-001
      -1.0447028921387139e-001 -1.0429964832782952e-001
      -1.3386694493853352e-001 1.3693671374502051e-001
      -1.8307955870400053e-001 8.7355222208335123e-002
      -6.9604029296954709e-002 -7.0107440414512431e-002
      -1.0708598911543235e-001 -1.0975830526518054e-001
      -4.0438066650937347e-002 7.6903294066648031e-002
      -1.6449341142585830e-001 -1.8082174479515520e-001
      -1.0909462365870543e-001 -9.7185457212795087e-003
      5.5235792569498891e-002 -1.1490271652167194e-001
      -1.1734296740632280e-001 8.3549837289765685e-002
      -1.4285147250446442e-001 2.6532659105649802e-002
      4.3959557800341359e-002 -7.4563270103481349e-002
      -3.3364214141552828e-002 4.3373469771723717e-002
      -5.4029783489157310e-002 -1.5054244126642313e-001
      1.2878667266598437e-001 -1.0436435210056963e-001
      3.3042171262863275e-002 8.5674348450317794e-003
      4.5430013524954266e-002 9.7454107786630093e-002
      -2.1197607465510995e-002 -2.1314119038236540e-001
      2.8736804497138693e-002 2.1120813739591546e-001
      -5.7830146692963116e-002 4.8764097621130414e-005
      -4.8587749925038122e-002 7.8785620636210640e-002
      7.9062301947074157e-002 6.6779859620385434e-002
      -4.5216152402640923e-002 -1.6504104373026623e-001
      -8.2789599638125445e-004 -7.1279979364013119e-002
      1.0019420368961472e-001 -1.0986099926112952e-001
      9.5578714223429700e-002 -1.7895693876306301e-001
      -6.4750312322116088e-002 -9.9642257013128857e-002
      8.5892163850664852e-002 5.4750324281124689e-002
      -9.4230723117183460e-002 -1.8879875395338944e-001
      -1.2691604399871162e-001 -1.1487194079919508e-001
      1.2664936873976884e-001 -1.0770505944312481e-001
      -1.5274768315423085e-001 1.4249278721445835e-001
      -1.2509468578651631e-001 3.3034760089575864e-002
      -1.2328463945489074e-002 3.3085181087145352e-002
      -1.0357983146902847e-001 -2.0053509398017255e-001
      8.9735114609362093e-002 -3.4882524500719762e-002
      1.3620882584670707e-001 9.0204052815468713e-002
      -1.1324144446998537e-001 -2.9946443616887156e-002
      1.2019642502993645e-001 -3.2785030493009050e-002
      1.1877232204290188e-001 2.2713112511042986e-002
      8.9505879425459109e-002 1.7847843506284977e-001
      -1.2175964360298411e-001 -1.9947757551635709e-001
      -8.8479715031256942e-002 1.1117482568748169e-001
      1.2419761635607444e-001 -7.0081934146644695e-002
      -1.3280539691065493e-001 1.9298964885987379e-002
      -5.3227392810920329e-002 -2.9023214681380183e-002
      1.8012081980247541e-001 1.3132741406886400e-001
      -1.1539591699643206e-002 1.2682867701055869e-001
      5.8163801524911740e-002 6.5324431024773297e-002
      1.2794488671495746e-001 -1.7793114592896392e-001
      1.8982880200266719e-001 2.2401314863241245e-001
      7.4180369061999388e-002 1.5023620173351457e-001
      -3.9459034721463872e-002 -9.6934462713634678e-002
      1.3092704338871752e-001 -3.9738487101395555e-002
      -1.3526633198569149e-001 1.0835155513689679e-001
      8.1808731362026987e-002 -7.6834280891313514e-002
      9.2722879229932470e-002 1.4122104811707437e-001
      -1.1364437054508575e-001 -4.8296520066704658e-002
      -1.1055830611572537e-001 -4.1944470088751372e-002
      5.0626868085096944e-003 1.5376160398037575e-001
      4.2433750668270862e-002 -1.5563996849222361e-001
      -8.9207324594712464e-002 1.1019370922454721e-001
      2.0007982645553290e-004 1.7426947159518005e-001
      1.6485913747726841e-001 1.2803118824829271e-001
      9.8493845953153122e-002 -4.2711326532202852e-002
      -2.1043957792972684e-001 -1.1912779129573584e-001
      1.2123885418607298e-001 1.1417369049036884e-001
      1.5607219977016693e-001 6.9741932094809805e-002
      -1.1484091869739656e-001 -2.8836013556102283e-002
      6.3440097526956285e-002 -1.6904975576732822e-001
      1.4051933004946807e-001 2.0042481838046369e-002
      9.1313849427154717e-002 -1.5194439897013776e-001
      -2.3182211626460267e-002 -4.1153370741751114e-002
      1.0271845390116860e-001 1.3989072670154604e-001
      -1.2447477522896039e-001 -2.6289790555118295e-003
      -1.9363857413575303e-001 -1.5124714661686228e-001
      5.7802384665447924e-002 7.3431165329975216e-004
      -3.2189197229535401e-003 4.1768025200014602e-002
      3.7761154603121549e-001 -1.9872239464037055e-002
      -1.9083113436467743e-002 -2.5871398676059712e-002
      3.8020473396016281e-002 -2.4248379513914151e-002
      -1.0861287519797352e-002 8.2563144783282694e-002
      5.7915192685503152e-002 -4.9706707371382074e-002
      -4.4092224891730744e-002 8.6868536745395797e-002
      -2.1574059788808102e-002 -5.9428254330859402e-002
      9.4940875483035855e-002 -1.7803647490783860e-002
      -2.2304162250688479e-002 1.4077886825324180e-002
      -7.2628078321675060e-002 1.7340238515223087e-002
      2.0210323737105837e-002 -1.9371268187155778e-002
      2.5150426684702326e-002 -2.4548802225600529e-002
      -9.5407697678910039e-002 7.0392446778898707e-002
      -1.9997590234766688e-003 1.3497525649180617e-002
      -5.7073514307120231e-002 -3.8487857912700450e-002
      3.2917004035429978e-002 -4.3187932659642742e-002
      3.3938081068449741e-002 3.1771597835336236e-002
      1.3755116127219266e-002 -3.3833354763343426e-002
      -9.0159739858197974e-003 5.5342234219285712e-002
      -9.1448821774136130e-002 -1.6967148775200530e-002
      -1.2241763227817733e-001 -8.3636218826998052e-002
      3.7913870737079666e-003 -6.5767359800662619e-003
      2.8172038489642129e-002 -6.1035433883441632e-002
      8.1972883223477899e-002 -3.2442849238013154e-002
      -4.4868647986482137e-002 -8.0319894381078016e-004
      1.5389625101451228e-003 -2.4493902931248552e-002
      -3.7768276902545410e-002 -5.4019808968392813e-002
      -3.8122242753481458e-002 -6.2977667742025928e-002
      -3.1097724619355036e-002 -8.2410166859305120e-002
      -2.8561625503483377e-002 3.7397221724111696e-002
      -2.0984003402538177e-002 8.4950731757232015e-002
      -1.0709080091204280e-002 -1.0516061945519688e-001
      4.7680769643811648e-002 3.7635682754674242e-003
      8.0602700349518663e-002 -1.4269791336659766e-002
      -4.5629341490593658e-003 4.0317490509133927e-002
      6.2232630707009434e-002 -1.2552535917156535e-001
      -8.7637524687177726e-003 2.6182699448011219e-002
      -4.9503644596871788e-002 -1.2724114258334078e-002
      6.0981045703409238e-002 5.9108556032165971e-002
      7.1921617371880422e-002 4.8175532795076893e-002
      -4.3018524495457393e-002 -7.7250327960908693e-002
      -5.3231723508407415e-002 -1.4100117495976346e-002
      2.1239291424284055e-003 -1.6490681381638957e-002
      1.6744958000735093e-002 -7.4167985124758737e-002
      -2.3978471035512795e-002 -2.6154060982369207e-002
      -2.8333793053254945e-002 6.5044827640129060e-002
      -2.2479301460003674e-002 5.0756644304560034e-002
      -5.0711085659036960e-002 -1.0110124039954108e-001
      1.0070455895286129e-002 -8.5928964531596222e-002
      1.7809061241867128e-002 -1.9262456766595382e-002
      3.6933634614183641e-002 3.8728029751981828e-002
      -3.6327281412575463e-002 4.6663378370672824e-002
      -4.1619101967345709e-002 -1.4507525587121395e-002
      7.8990316956443068e-002 6.6983436551310855e-003
      7.7979043905274633e-003 -1.0699914158602180e-002
      -2.2296264933001957e-002 6.2852323663989676e-003
      4.5041384868204061e-002 -1.6188228511417886e-002
      1.9419971484311366e-002 6.4978516149704846e-002
      3.9304750213264295e-002 -4.7079668194331542e-003
      4.4727641381223149e-002 -1.9505950432837281e-002
      3.4079962087960304e-002 -5.3496012249200690e-002
      1.0961335376031556e-001 -8.2301097923517981e-003
      1.4260681918612883e-002 5.5140700523996347e-002
      3.2700092072037494e-002 -3.5821445081220010e-002
      9.0516472801762983e-003 6.6314954531734707e-002
      -8.3243423704647504e-002 4.6357551781042831e-002
      -1.5080227166930286e-003 -3.0457202387658960e-002
      -8.3761339859667175e-002 -4.9958065477050173e-002
      9.0269812267109742e-002 6.4858647668312300e-002
      1.3294943296467677e-002 1.2753172559005846e-001
      1.1401317099090330e-001 -1.0397470047856711e-002
      7.6759613725186512e-002 -1.5122695232057386e-003
      -9.4264052070429011e-002 2.8410239886254525e-002
      -9.3890225306626652e-003 3.0548024335985565e-003
      2.3261824959688124e-002 -1.7441266518574854e-002
      -9.1673117602350224e-002 4.7569518576027495e-002
      -1.0022158315804379e-001 -8.5273699422231022e-002
      8.1799393880453583e-002 -2.9834614038136639e-002
      2.1240790559445551e-002 -3.2878913846639789e-002
      -1.4922845551223552e-002 -2.6047033555677414e-002
      -4.1420115583173350e-002 6.6482638799996024e-002
      -1.4308312194402456e-002 -1.8303996541266101e-002
      -1.4986190086751144e-002 -6.9864196413103069e-002
      -1.2164750915643603e-001 -8.1003579399854586e-002
      4.3026930791949879e-002 -9.5195971019534337e-002
      7.1895573101058491e-003 1.1199594034409992e-002
      -1.9032130236119271e-002 1.3238801886410986e-002
      -2.2402011982750668e-002 -7.1330819590788071e-003
      -6.3027526386059463e-002 -4.0895811599342491e-003
      2.0500153522540036e-002 4.4948391291723400e-002
      2.4329242438065012e-002 4.7002894397441299e-002
      6.3013566150883937e-002 4.4396072817855389e-002
      -3.5231587275055397e-002 -1.8458124615978660e-002
      -2.6725438089279883e-002 5.4393196479008879e-002
      7.7950739539439984e-002 -1.1430730069766977e-002
      5.9621891835343870e-003 1.9480610502848154e-002
      -1.0802434179602123e-001 3.5364408859770075e-002
      5.6218530550964756e-002 2.9458450424942446e-002
      1.4729205870437578e-002 6.5946586203932261e-002
      -2.8690552340860410e-002 -1.5248970350031742e-002
      -1.0520047168406592e-002 -2.6236929672155674e-002
      -1.1629410063091351e-002 1.6756399567196725e-002
      -7.2031914201356696e-003 7.7752837489623888e-002
      1.6748246963063949e-002 -6.6879219530546097e-002
      5.7401301992167406e-002 -2.3903925185605752e-002
      -3.7669952253868405e-002 -1.0107350811512390e-002
      3.2604242772968028e-002 -1.2860776057742915e-002
      2.0622527701378440e-002 -1.6332812370240667e-002
      -1.6197046264971086e-002 8.7479220190965941e-003
      2.1956643608900910e-002 2.4763858182807134e-002
      1.4460104902666623e-002 9.5941355451244145e-002
      -8.3346474249887045e-002 1.1343699650049870e-001
      -3.3224147863063214e-002 -5.2776922480473019e-002
      -3.9252831719808139e-002 3.5387772774327572e-002
      9.4922093849503036e-002 -3.2117199306888719e-003
      -4.0341243371512805e-002 4.9486926532328925e-002
      1.3943246686964480e-002 2.4851826010320512e-002
      -1.8819146681472525e-003 1.7190662144303558e-002
      5.2636985282779838e-002 -4.3084306682541493e-003
      2.2708312019663751e-002 5.0484794312776915e-002
      4.4743224561370323e-002 4.3783414175088749e-002
      -4.7767457675126170e-002 2.2694594458768060e-002
      7.6309555523126488e-003 3.8082129943388776e-002
      4.1740168204218310e-002 -3.9408968711148205e-002
      -3.1867233170366799e-002 1.2637179352522389e-003
      4.0008275301986342e-002 1.4504989172864744e-002
      1.8956059554970772e-002 7.3752763029292373e-002
      -2.6787117841020128e-002 -8.7959026321608277e-002
      -4.8655829180353286e-003 1.9433003829592951e-002
      8.2020215316214909e-002 2.4824876768605814e-002
      9.4377308796665491e-002 3.4290432646518598e-002
      -5.1835582923626340e-002 -3.8488004853893514e-003
      -1.4576964517113442e-002 8.6317058708118857e-002
      1.3522731590425946e-002 3.1202218282413681e-003
      -7.5825600303224883e-002 4.6884997465213817e-002
      5.0927554518541647e-002 2.9613321791217926e-002
      3.7927855646493605e-002 -3.5893672376072591e-002
      -5.6363242526330286e-002 -4.8162148027717129e-002
      7.0402998852471643e-002 -7.4918705800495075e-002
      4.1916245464051732e-002 -4.1011462305957591e-002
      -8.2179523120358006e-002 5.7679927073296992e-002
      7.4687189643743254e-002 3.4313877649769280e-002
      9.1995670809970759e-003 -2.2850561885220860e-002
      2.2652073238228626e-002 -3.8069824991011116e-002
      -1.2307127184480776e-001 2.0190004730785652e-002
      -1.7254476422656480e-002 3.1449586221069754e-002
      -2.1423441207304876e-002 2.4163949144393754e-002
      1.3570061270770810e-002 3.8871096762456557e-002
      -6.2649708965474296e-002 3.3071176841290108e-002
      1.0942302188038551e-001 3.0863704140572330e-002
      5.5931024587004441e-002 2.0164607217901517e-002
      1.3449510473672240e-002 -7.9944394216780283e-003
      -5.8552789423241054e-002 5.2747230997121104e-003
      7.7509160130423152e-002 -5.2121826842112695e-002
      -3.5247753449810862e-002 -1.9198621897274913e-002
      -8.2032462185682470e-002 -1.5298589445247529e-002
      -1.5880258804515664e-002 1.0139579657590056e-001
      2.2467816504428265e-002 -4.5385313023137135e-002
      -1.0626510486888481e-001 6.2372799809890724e-002
      -6.9753399790147982e-002 4.6145232056620189e-002
      5.1359673843798088e-002 1.7163119098860490e-002
      5.6278002045973899e-002 6.3248516753516754e-002
      4.0598708633419120e-002 1.4215464610978503e-002
      5.1379829011991202e-002 2.0404565386419136e-002
      5.6518420429404463e-002 1.3340981334163914e-002
      -4.3684541562856484e-002 2.0111409709548757e-002
      8.3320560652368605e-002 -1.2153742224249831e-002
      2.8596452328807115e-002 1.3385905220313673e-003
      -1.8210639715220429e-002 5.1541762158468798e-002
      6.6588520328971043e-002 3.8486626180994035e-002
      -2.5222422353214480e-002 7.0522342456385972e-002
      2.1051426442761697e-002 5.5225680401834515e-003
      -3.4320115344085855e-002 -3.4093075569857870e-002
      -1.5494779279694526e-003 6.8369639093926682e-002
      3.1090417940923482e-003 -6.3875476722638561e-003
      -2.1570090249146555e-003 1.9094659351527033e-002
      2.7019424986670034e-002 5.7957763149858482e-002
      2.2032826139568546e-002 -2.6798777491101187e-002
      1.6776993866904528e-002 1.4892228568861039e-002
      2.5542083875434347e-002 -5.8589465842456868e-002
      7.8769030401898577e-003 5.0964402276917994e-002
      -6.7259439187895842e-002 1.4224562531106431e-002
      4.1441292452774836e-002 4.3681630671350148e-002
      -3.5315042871067598e-002 -5.8556300778189352e-002
      -8.1907153812040764e-002 -1.8711660386539132e-003
      8.8808151469435631e-002 -1.0724024334121458e-002
      4.9543405633815443e-002 5.8355200634822288e-002
      -3.7102090675332121e-002 8.7913822166961780e-002
      -1.7439721980127280e-002 2.8171364735069555e-002
      1.1430036663468883e-003 -5.2985290776824396e-004
      -7.1542785593159852e-002 3.1234502441044601e-002
      -2.9737333756060928e-003 -2.0487759266210347e-002
      -1.4132477847582195e-001 3.2216926087598304e-002
      -4.0568010948655947e-002 1.2782320380773232e-002
      1.3334442111704146e-002 2.2930928228241214e-002
      -4.8337419592312025e-002 3.9763052439637493e-002
      2.8197581901100163e-002 -8.8798801356093100e-003
      -8.7174248234850801e-002 1.1706874409183830e-001
      1.4287340914614517e-002 -1.2379594979242380e-001
      -4.6141468910272610e-003 5.9778669648125190e-003
      3.3760153291454605e-002 4.7761511027084043e-002
      -9.0070114561335832e-002 5.1121223777359668e-003
      -2.1255990508004332e-002 -7.2457664167958014e-002
      -1.9285365228493712e-002 -4.9744640742926213e-002
      -6.3448712022322485e-003 3.7034918846366961e-003
      3.4077878519278092e-002 -3.5568235005414305e-002
      6.7384764567031256e-004 7.9121846316907621e-002
      -1.0413558725868579e-002 5.5289314450966930e-002
      7.9958007825550029e-002 3.3638175403693536e-002
      -7.8712895655144166e-002 -2.0143984631253668e-002
      -9.1989021490237285e-002 -3.5643977308404670e-002
      -7.2565056581780224e-002 5.1142985680363962e-002
      -9.4403485655835409e-002 4.2130568110131647e-002
      -3.9689759628157288e-002 3.5489472441939309e-003
      -1.0053509410578493e-001 -6.1487600062125232e-002
      1.1511523667581088e-003 5.5403155438603663e-002
      2.6840263895927478e-002 -4.2394422884530950e-002
      -9.3274192990001441e-003 7.4716415524330809e-002
      -4.3439834897836573e-002 2.3820641969442384e-002
      -7.4678223007500044e-002 2.3092226666789981e-002
      4.1522664736705628e-003 -2.9860814451057874e-002
      1.9243850808393269e-002 -7.7774594602828248e-002
      2.0933011099596298e-002 6.5778918314260776e-002
      6.5714667522357370e-003 -8.8628054042511908e-002
      8.7597595976871730e-003 -3.3299854838780472e-002
      9.1511157137958182e-002 1.3331949107166818e-002
      3.0966992741852223e-003 3.1016860620984195e-002
      1.0480923815507492e-001 -1.1470329765532923e-002
      6.4370597944007180e-002 3.1214320223423304e-002
      -7.7375641135682724e-002 -9.8416136908337031e-004
      -2.5427897484667165e-002 3.6285454764152000e-002
      2.0100687909834804e-002 -1.8368988061281906e-002
      -5.9339815833072788e-002 -9.2261903280570740e-002
      -4.7364470733506601e-002 -6.9241827194254424e-002
      3.1227710140434923e-002 -1.6854431908073904e-002
      1.5455894432735301e-001 -4.2650646455069913e-002
      -1.2729913993783962e-001 -3.6212248763659943e-002
      -1.5430000965562459e-002 3.3302690169827426e-002
      -5.1471018688424519e-002 -7.1501574866212017e-002
      -1.2457423411218417e-001 -5.0742668104537432e-003
      -6.8695047594562700e-002 -4.3268492008179657e-002
      -8.2333579894527525e-002 1.5425212423994672e-001
      -5.5483429142531314e-002 3.8962546311388603e-002
      3.5546684693492314e-002 5.5167354482395917e-002
      2.5771779209777093e-002 -4.4422772071706258e-002
      3.6122757236525652e-002 -2.2315775148758113e-002
      2.8641913945637199e-002 4.9583596850852158e-003
      -4.5756263386187622e-002 5.0037737328141379e-003
      4.9107351025328150e-002 -4.9774838978777325e-002
      1.5761533764704461e-001 6.1009928918170690e-002
      2.3902178414744013e-002 -1.0993322568221567e-002
      2.6235503759950551e-003 -1.0119535785239556e-001
      2.3327048586362323e-002 4.5700962352501193e-002
      -6.9983397509154922e-003 -1.8444392606184251e-001
      -6.2462254729337197e-002 3.0565794957023551e-002
      -1.0167076471435171e-001 -2.3061054181340541e-002
      4.0966073658232939e-002 1.6200910891293599e-001
      8.5861636013367174e-002 2.4037593516012531e-002
      -2.7760807984523080e-002 1.2745719324282015e-001
      1.7063477299823229e-002 1.4853303372002198e-002
      1.9225183752885799e-002 3.3883752916725962e-002
      5.2603551886188225e-002 5.2300511922709764e-002
      9.4751780368643859e-002 -1.0840817492978695e-002
      2.0272160886137792e-002 -1.3096043904553016e-002
      -1.0002660193252294e-003 7.7306934749934997e-002
      1.4692040431426040e-001 -3.1533925467410059e-002
      2.8753172439192478e-002 4.1392061310972256e-002
      -7.6017403159680558e-002 5.3581462905571829e-002
      -5.0712462613750467e-002 -5.2219503996480413e-002
      6.0468819140793995e-002 3.8075007253403079e-003
      7.0371218340905664e-002 -1.2552093751089599e-002
      -4.5009015993390585e-002 1.0118530659754610e-001
      1.1845916321181760e-003 -1.2627922741559402e-002
      5.9107056643337361e-002 5.3409619396345295e-002
      5.1277109642753518e-002 -3.5532231208542840e-002
      -1.6755839486561011e-001 -6.6657318002951951e-002
      6.8925386349280734e-002 3.7855091833978306e-003
      1.1639638225104314e-001 1.7348170999756669e-002
      -7.8348594155164902e-002 2.0103112415312901e-002
      1.0025975847984005e-001 -5.9895321299467093e-003
      6.5493307437723844e-002 -4.1998092359232728e-003
      4.5390438982894146e-002 -4.7498928733352354e-002
      3.0007774529258964e-002 -6.4918065724831386e-002
      3.8658798427347501e-003 7.6026061039240422e-002
      -4.3408651422720802e-002 5.3985666101745960e-002
      -1.4301401670399594e-001 -2.7254521351040444e-002
      1.8716361069426309e-002 9.9309847475858637e-002
      -1.2300103378605058e-002 1.5015186811959801e-002
      -4.2814436877144479e-001 1.7732370535677420e-002
      3.7216120405074667e-002 -1.2750550688864895e-002
      3.2841936552097890e-002 6.9897131177582450e-002
      1.9221906752152237e-002 -7.1162864890126368e-002
      1.1393839705637055e-002 1.5597824553224975e-004
      1.4776672130673131e-002 -4.6853501106055906e-002
      9.2915661000077376e-003 3.1229094348913872e-002
      -2.7388534295803384e-002 6.8727886060601113e-003
      -5.0020834455772142e-002 9.4190484227775428e-002
      1.5110133831250051e-002 3.7084674354103821e-002
      -5.6721744965361892e-002 2.8213102218281463e-002
      -2.1902290163616993e-002 4.1282260052938453e-002
      -3.4252284644275502e-002 -1.0817375709841013e-002
      2.4217654287697340e-002 -5.3308444541800247e-002
      -4.8309812135765511e-002 -2.3779115578681714e-002
      1.1727216247516169e-002 -7.4120307324600870e-002
      -9.2613867978336133e-003 4.1064330293037091e-002
      8.7089810779317663e-003 1.0064181007401374e-001
      6.8342895401825740e-002 4.1151575792604381e-002
      -5.8325119269974281e-002 8.0373164778020506e-003
      1.1144694351517473e-001 -4.6760379244075369e-002
      5.8390659292176093e-002 2.9527951828410282e-002
      -2.8577574549673267e-002 -8.8529989008622176e-002
      -5.2812999072002838e-004 -6.3567700224275254e-003
      9.8186004731009843e-002 2.4916461921358296e-002
      -1.2151966738329587e-002 -3.1564303811606319e-002
      2.2629041954098069e-003 1.3002332088359476e-002
      -1.2451908518706634e-002 -1.7059652308896219e-002
      6.7105230566663371e-002 -8.2688307806011427e-002
      -1.9846418896998310e-002 3.5138572069409325e-002
      -3.6169222727391412e-002 -2.0066982855787573e-002
      7.7153717313673917e-002 6.1412822578471485e-002
      -4.0909079465912285e-003 3.9561587968533117e-002
      7.8724850661040617e-003 5.8808781906469910e-002
      -2.2878945768941626e-003 -8.2175657122588480e-002
      1.9258152757708535e-002 6.5667541803382037e-002
      3.0548856380146266e-003 -5.8666015860835558e-002
      -3.6902470598637174e-002 3.1192764389786111e-002
      2.4554894246678234e-002 2.0016666901584254e-002
      2.9449934237650830e-002 -2.6908723712397983e-002
      2.2885080951914015e-002 -3.3265102011499216e-002
      -2.4735763927333124e-002 -2.6723307369232115e-002
      -4.3666041732694116e-002 1.9336934646829302e-002
      -3.3225460746587082e-002 4.4953366920763519e-003
      8.1626839727853465e-002 -1.4342349654491207e-002
      1.5037988683197726e-003 6.2965828515394303e-003
      -6.3220961411130736e-003 1.1615465732249891e-002
      6.5768404170867392e-002 2.1036197648195035e-002
      3.3677560035845218e-002 -8.8865192125078402e-003
      2.5311608773099931e-002 1.3657585731888796e-002
      1.6000160318095660e-002 2.0916451063810890e-002
      -4.7799998185756649e-002 -1.9950963686769071e-002
      7.3418607408290218e-002 2.2536899812802574e-002
      -3.3967828450426102e-004 -2.6868124649846847e-002
      -6.9306790284099223e-002 4.0070824095404495e-002
      -1.9472863822746593e-002 3.4454196707978148e-002
      4.8710523705040733e-002 2.7514421611338005e-002
      -1.1995729721667101e-002 -4.2561799770540837e-002
      -3.3809387092680554e-002 -3.8294760682101678e-002
      -8.2784171850924741e-003 4.4849785948460494e-002
      2.0195942304799659e-002 1.2261739355641003e-002
      4.3479024554907132e-002 -1.2259398585572628e-002
      3.2247563690579496e-002 -5.3918514393264420e-003
      -2.8686115334157540e-002 -5.5501486007546258e-002
      -2.4436065675610054e-002 5.1344724885209414e-002
      1.1686716540301203e-002 -4.9625065399282992e-002
      -1.7837299937031321e-002 -2.3586195774236037e-002
      -8.6609502996937010e-002 4.9497525979273108e-002
      -6.9828804479357645e-002 6.8211225517335272e-002
      -2.7832712385414023e-002 1.1603717611448806e-002
      -1.1745183273821454e-002 7.4459308349844031e-002
      6.2150976392919423e-002 -1.4937973613993074e-002
      6.3495475894452147e-002 1.0708263955677821e-002
      -7.5259255060202562e-003 -1.6682574050888337e-002
      -2.3538087826634038e-002 8.9757400725837183e-002
      -1.1170416293061229e-002 2.5040348688816903e-002
      3.1048711978154876e-002 -1.6565196475127789e-002
      -1.3671048066668421e-003 4.5461945370625263e-002
      2.1042258365967525e-002 2.4088038007779988e-002
      -3.3880050112574944e-002 -6.0355193097895339e-003
      -2.4820279964499800e-002 -1.1289062639448298e-001
      -2.1834087687732522e-002 -6.3415290497557134e-002
      -6.6794484854937511e-002 2.6436905193439324e-002
      2.1047749102147309e-002 2.7984213599049963e-002
      3.1874939351883298e-002 -4.9859513087088636e-002
      6.2650251408104360e-002 -1.3758847809960770e-001
      5.6396439359153165e-002 -1.1989293653402424e-002
      -9.4864615472961988e-002 -4.2464137592457742e-002
      -1.7160325281595494e-002 -2.2600725751210009e-002
      -4.8567802418546767e-002 -7.7563422730620113e-002
      3.0181678658930698e-002 8.5400074090233209e-003
      -3.4278726821375949e-002 2.0848164611145210e-002
      4.8406449532509194e-002 8.1750087051814316e-003
      4.0790323474518594e-002 8.1185366476280607e-002
      -1.6974979778169787e-002 -8.8259397127000497e-003
      2.3362289786199312e-002 -4.1204187453970347e-003
      -1.9036119039094381e-003 5.0928765345436078e-003
      3.3976846532656783e-003 -9.6307312388558327e-003
      8.7618278966860566e-004 -7.4929469503565334e-004
      4.3028733322259417e-003 -4.6174103055564835e-003
      -5.0243034617089878e-003 4.9164454044062526e-003
      -7.7404082065187412e-003 -7.4930674187775386e-003
      6.4339377500017680e-003 -1.0249067598700149e-002
      -9.7199076358318731e-003 -6.2840798383600877e-003
      -2.4693631986130583e-003 2.5571188699942105e-003
      -4.7997865082905480e-003 -6.1760355151996901e-003
      9.4624460660269714e-003 8.1235187724211701e-003
      7.0765683225005585e-003 4.9675376420954664e-003
      8.6332120947426889e-003 1.8127942481816644e-003
      -9.9802339239919409e-004 1.0905323333965237e-002
      6.6450579072904383e-003 -5.7787412621494406e-003
      -3.8027940099316111e-003 -1.0040033245665159e-002
      -6.7707802530220292e-003 1.2857913738343553e-003
      -8.8117123751824192e-003 -6.0832977297283473e-004
      6.7106294209710602e-003 4.6521707145532193e-003
      8.7850007346562103e-003 6.7175619040486610e-003
      1.8783345810083711e-003 4.4313210829874435e-003
      -9.7247608235000189e-003 6.1026071237459088e-003
      -9.4535085672311763e-003 -9.8141661722331627e-003
      6.8988174487772426e-003 2.1207394604121424e-003
      -5.6388524969387581e-003 1.0796162371533673e-002
      5.2110457235924786e-003 -6.1267492105398606e-003
      9.2751419765964224e-003 -7.0594236170570474e-003
      1.8224208235541341e-003 -4.6849011884824024e-003
      1.7926329089055996e-003 -8.8695806539368927e-003
      -7.3927441834929957e-003 -5.8979470136793482e-003
      -1.1319529825442127e-003 -3.2825713880609226e-003
      7.0965192685047513e-003 8.9259599104669438e-003
      -6.3066233693328463e-003 -2.8247770804946701e-003
      6.7454022530445317e-003 -1.0599055262547105e-005
      5.4289662664442906e-003 -8.4362128755776245e-003
      1.0520879335919626e-003 4.8913385318549100e-004
      5.6996417498903279e-003 -4.7564389920075481e-003
      -9.0168350861027525e-003 -4.1871716037676583e-004
      -5.7445154638083463e-003 2.0568433349091794e-003
      -2.9743094734201460e-003 -4.0279705088277088e-003
      2.7131630292582991e-003 6.3098904729737141e-004
      -1.7679571083467711e-003 -3.9517232403715082e-003
      -4.7816694652116501e-003 1.8938396392028151e-004
      5.9055141575970124e-003 8.7072657622701190e-003
      -1.2897668101217671e-003 3.9040813931868054e-003
      4.2862897199121670e-004 -8.1668190821933186e-003
      -6.0325617281681504e-003 2.3250247359099144e-003
      6.9255599146952748e-003 9.3922577406753745e-003
      -6.6758946596164673e-003 8.6703180572702632e-004
      1.6973685835790279e-003 3.2982301998318248e-003
      -7.9443188645930366e-003 -1.6500742110033923e-003
      -1.5339843336143149e-003 -8.6613951669302063e-003
      -9.0910654542119933e-003 -2.0660247563159756e-003
      8.8878781777671466e-003 6.9884524123242312e-003
      -7.4573252527929115e-003 3.3401159018095275e-003
      3.4230551930663818e-003 -3.6422073164002308e-003
      9.3399271452854725e-003 -4.7086313785963084e-003
      3.2049836077634067e-003 1.7988452121976224e-003
      4.0564193465544279e-003 4.3073525097104730e-003
      2.6862189569708795e-003 7.2963862264340418e-003
      1.8359561515716913e-003 5.2861147524464226e-003
      4.4436802513233070e-003 -8.7307044582460320e-003
      1.4817730019927422e-003 1.0961364021802188e-003
      -5.9370169381947700e-003 -7.0445441850092846e-003
      4.9569756843653359e-003 -6.7625224618853771e-003
      6.4327121987654131e-003 -3.8885740762368108e-003
      -6.4870768216066287e-003 -6.4183339640380118e-003
      -3.7335727750158415e-003 5.7403264480069931e-003
      9.0790255240448640e-003 -4.8269277481782832e-003
      5.6610569969260073e-003 9.2023480677284122e-003
      6.9710486583941507e-004 2.0509418873920697e-003
      -2.0756838578598891e-003 6.4560886669436284e-003
      1.0063617021621514e-002 2.5074619367356729e-003
      -1.2123109072075453e-003 -1.0113253473857067e-002
      7.5485149623311983e-003 -4.0752366588651849e-003
      -6.6319147392033479e-003 4.5016144719902005e-003
      3.7146900780751438e-004 -2.6774715603792450e-003
      -7.2929534474365900e-003 -9.0083288847944507e-003
      -4.6842206041632474e-003 -5.6858097635323658e-003
      -8.6484624414254318e-003 -6.5644920412236017e-003
      -7.9681122466713859e-003 -5.6173946887944654e-003
      -4.4950649741422842e-003 2.3303300290609093e-003
      5.1088348683784503e-003 -8.7515711720763598e-003
      -3.8513691631232808e-003 -1.2818272605237735e-003
      5.0291132899430296e-003 1.6008984824318160e-003
      -3.3587878929641920e-003 -5.9637499528404749e-003
      1.0567208886209057e-002 -3.7788138373922712e-003
      -8.0005714526079248e-003 3.3479654522165316e-003
      -4.0903113030689468e-003 8.8561550368456265e-003
      3.2426543192735097e-003 -3.2159055843531906e-003
      -4.6343275242074202e-003 -1.8107379611075928e-003
      3.9773476333540970e-004 -3.6084208457910095e-003
      -9.0239731569742160e-003 1.1009937959556655e-003
      5.2136992195162832e-003 7.2074510864608837e-003
      5.2823373650158593e-003 7.6135404604556122e-003
      2.5108605961490088e-003 -5.3684217951314051e-003
      8.1567986850699978e-002 2.0717429894712522e-002
      6.5114626451640900e-002 -2.4960143745222849e-002
      -6.0983004416271233e-002 3.0259762207577232e-002
      6.2743908307945490e-002 -3.4507428965306175e-002
      -6.6070155572761869e-003 5.0232012309439798e-003
      3.7976439053115603e-002 6.7748421038072118e-002
      1.5146249306725139e-002 3.8013237831050085e-003
      9.7496984779268589e-002 2.2484655439398518e-004
      -1.4521521790666631e-001 -2.5125212152895413e-002
      1.1268699016736891e-001 9.3247809879937027e-002
      -3.2451318355948305e-002 7.0093367088021413e-002
      -4.6833794792432326e-002 2.5363641993919758e-002
      -8.3072651791162175e-002 1.2378586232180950e-002
      -1.1971174648702530e-001 8.2443612975931682e-002
      -1.0353886419930142e-001 -7.3308891466445411e-002
      3.4040959496665898e-002 -7.0754533242947906e-002
      -3.2751301349769800e-002 -1.6278851008976858e-002
      7.7311663953318899e-002 6.9823645225714687e-002
      4.9719991036139909e-002 6.2779701134661151e-002
      6.4503918580918806e-002 -7.1477783991659577e-002
      2.2080498513156750e-002 -9.8095097885392293e-002
      2.4431919571907317e-002 5.1853066505614713e-002
      2.7663996635995300e-003 7.3725072938442909e-002
      1.4228932359731180e-002 -2.0649319120194933e-002
      9.3951856850552698e-002 3.2136932286032011e-002
      1.0305756550433941e-001 1.3766005671069052e-002
      8.7940509474037937e-003 5.1417074128853220e-003
      3.3096499475561578e-002 -7.4294374516918033e-002
      3.6248914615070037e-002 5.0772239323720013e-002
      -2.4459646159782692e-002 6.0912723313255028e-002
      8.8041456267171692e-002 -2.8616990957856952e-002
      2.0575141903205519e-002 1.4160292529289622e-002
      -6.5310327585042224e-002 7.5441829835100158e-002
      -3.3287203731689863e-002 3.1255511982450782e-003
      -7.8954493883700114e-002 -1.1753779247232905e-001
      -6.6887584540317746e-005 3.4783337611173346e-002
      4.0271308555510130e-002 -8.6974358490320397e-002
      1.0207126068512123e-002 3.2727194607156396e-002
      -1.9170399097582596e-002 -3.2225872323191934e-002
      -3.9660777867051376e-002 -1.0344511035190536e-001
      6.6219698317205811e-002 4.6742826888927766e-002
      -7.6672721674922353e-002 5.4922914680763359e-002
      -1.5015982402474534e-001 4.4649917201086527e-002
      -6.1481794795349674e-002 1.4027432286025429e-001
      1.0996603356707432e-001 2.5600311926568427e-002
      -5.0057620260040549e-002 -2.8057581410581008e-002
      6.7128865455916481e-002 7.4733698270116916e-002
      2.8385584015581920e-002 5.2816204389239792e-002
      -5.6595503691314705e-002 8.8230972638895538e-002
      -2.7064204562116693e-003 -2.1440982094493369e-002
      8.1436910554158567e-002 -6.5468807089511624e-002
      -3.3294259047063138e-002 -3.6054885960458194e-002
      -4.8977943252244104e-003 1.5534688764079013e-001
      -5.2865282283673903e-002 2.8536815159664875e-002
      -9.6772031125658797e-002 -3.0159264652745755e-002
      5.3753535523846423e-002 2.9758832859435497e-002
      -6.4607278670878662e-002 2.4776169970025562e-003
      -1.2832343755216353e-002 4.8387950397673629e-002
      3.2294291658404336e-003 -8.2887560951934641e-002
      -1.9412891656572694e-002 -2.9836614339025632e-005
      2.5957023354192563e-002 -1.4560166861532520e-001
      -6.8531884047816974e-002 9.4364693947490488e-002
      1.0495272717288066e-001 -5.0524915037312733e-002
      4.9467457089852916e-002 3.6434354392664687e-003
      -7.7205081259011252e-002 -5.8345105874028830e-002
      -4.3393469293878252e-002 -1.0504180065606003e-001
      -7.4715258103101853e-002 2.8674528153016500e-002
      -4.1482455176499955e-002 6.1388381753677307e-002
      -1.0397762695725009e-001 -6.0900825362765497e-002
      3.5379831652592414e-003 -9.0417575231400843e-002
      -1.7918113188132519e-002 6.0112698495651956e-002
      -1.1823511613590468e-001 1.4205978590557031e-002
      6.0673606168071888e-002 -2.4002227523837179e-002
      -1.4591501102364399e-001 1.5065075760005070e-001
      -2.4191064697272752e-002 -1.0039987556220405e-001
      3.0116208325046759e-003 7.4290102097874860e-004
      5.1516219983709963e-002 6.4708450580966762e-002
      2.3235846650250844e-002 -2.8263794070108553e-002
      -4.0172097823974878e-002 7.7429488656546003e-002
      8.0915890332862631e-002 -4.6162535523912335e-002
      -7.7587500162510431e-003 -3.6841114267721721e-002
      -4.2511142172942419e-002 -1.6150521977161828e-002
      -4.4287349785196550e-002 1.7726189947206861e-002
      5.3463254140396738e-002 5.3058409364708140e-002
      -4.1009948464418973e-002 -8.7800099306102039e-002
      -2.0127242882311176e-002 -9.8132829375074060e-002
      2.9000838673651472e-002 6.9620014833841296e-002
      -7.7666933884948081e-002 -4.7761135955174177e-003
      -9.3213388284420121e-002 -6.1884753262868627e-003
      -7.5755099752978269e-002 9.8024820901938953e-002
      -6.5548079900709599e-002 5.3086583835962112e-003
      -3.1275153340960295e-002 -1.0104102068355300e-001
      7.7640457893477524e-002 1.1969758237603150e-003
      3.4284161693330067e-002 5.1866665072770449e-002
      -1.1902872987358624e-001 1.9675044545984077e-002
      3.2940529969396354e-003 -2.3205796697479821e-002
      1.1266404238893517e+000 3.6153093196766031e-002
      1.1415904190595112e-001 -6.4707726883598909e-002
      -1.7594373581338288e-001 2.2947403970499244e-001
      9.6550629956861471e-003 -6.3836347090490617e-002
      -1.2036262847748828e-001 2.9864026104664636e-002
      1.0835953489208681e-001 -3.3779000387028843e-002
      -9.8073861561738824e-003 8.5824988509294611e-002
      1.1022491473928354e-001 7.5855497162435545e-002
      -1.2643343292276257e-001 -5.3842350437665970e-002
      1.5059658144402702e-001 9.7691070756259685e-002
      -1.3877273515507271e-001 6.2775567336841212e-002
      5.2311324610431406e-002 1.3131370739140574e-001
      -6.9454612967959878e-002 -3.6308069566280916e-002
      -1.5418940282747079e-001 6.8848403693686319e-002
      -1.0338731198815906e-001 -9.9574534338230367e-002
      -6.4978646244472069e-002 -8.5127434623100989e-002
      -9.9870583118525716e-002 -8.7176894042207770e-002
      1.0944728608937339e-001 1.6464986802338588e-001
      1.3919333289617863e-001 1.1146576253855103e-001
      3.5458461747516018e-002 -7.4904986039989754e-002
      1.1374378970618924e-001 -6.6293097517045679e-002
      1.4948313730777710e-001 1.5452567208608070e-001
      1.1849109213845010e-001 1.1416255186648208e-001
      1.6138063327463217e-002 -7.1499181467180317e-002
      1.3619448402866741e-001 9.4810825389068168e-002
      1.9069015524671171e-001 -5.3998505392714467e-002
      5.9154602537956819e-002 1.1043570144578571e-001
      1.2173628571770877e-001 -1.0335436536795781e-001
      1.1301809009397638e-001 1.7791742303905483e-002
      -3.9218472021279351e-002 1.4516792604609052e-001
      1.5121238901621151e-001 -1.1902383435985237e-001
      -8.9100586269959554e-003 1.1214893245828512e-001
      -1.3826998751879122e-001 1.5322577719098254e-001
      -8.1471088717021661e-002 2.8477528181027313e-002
      -6.3422383132536828e-002 -1.2921413265201254e-001
      -6.3135078925376708e-003 1.2968481990415417e-001
      -4.7515180109954945e-002 -1.7988166541484835e-001
      6.9880126825410269e-002 -7.1853687171964817e-002
      7.1266037109144600e-002 -6.6795192191329400e-002
      -9.7411419085065190e-002 -1.0261611671467838e-001
      1.3723248401021718e-001 7.3348689233111025e-002
      -1.3931377785697463e-001 1.3008727318606075e-001
      -1.3900512935920328e-001 1.3252063741716891e-001
      -1.9161048510027553e-001 8.7379828553861533e-002
      5.8259461251168314e-002 1.0524824117094957e-001
      -1.0222679774265837e-001 -1.0256932566532637e-001
      1.2352163821337916e-001 5.4735960028215618e-002
      1.6417014302874791e-001 1.7848020806120135e-001
      -1.3398321551059855e-001 1.3603513594693781e-001
      8.2828398922352484e-002 -5.9901593997151226e-002
      1.4592036326791274e-001 -1.5296746904598322e-002
      5.6597267150566032e-002 -8.9899604666795530e-002
      9.1836390925829597e-002 1.5745178029970475e-001
      -8.6211390080351849e-002 -4.6029864349412100e-002
      -1.1644129164997620e-001 -9.9442465796234086e-002
      1.2061795962505716e-001 5.3606554217484189e-003
      -1.7868590880358562e-001 4.4884909565154271e-002
      -9.2277146300822968e-002 -8.5980312553669100e-002
      -1.9262119526546545e-001 -1.1685168641883205e-001
      3.4930504709092737e-002 3.6686117318541919e-002
      7.0689736228882916e-002 -4.3683716248768691e-002
      -1.1605090871753100e-001 8.6183399743035710e-002
      1.2595176608277739e-001 -7.6965808714910711e-002
      4.6418485649217994e-002 9.5823317289556439e-002
      -1.7973494657138528e-001 -1.4409261314938132e-001
      2.0247073388545984e-002 -1.3102529516460351e-001
      -1.6598270506941135e-001 -1.0408440109612736e-001
      -9.8707824027078298e-002 8.0921072039562753e-002
      -1.8991182915296559e-001 -1.8076305700943951e-001
      -1.3418961693818576e-001 -7.3750242862531568e-002
      -1.1408257313163231e-001 1.9194763100613429e-001
      -1.6152736100588092e-001 3.4718383458075604e-002
      1.2276726410956916e-001 -6.9871606395093322e-002
      -1.0848682872007670e-001 1.1227839693723286e-001
      -3.5667774159779772e-002 -1.2302061056826494e-001
      1.5736576774702926e-001 1.5858972523379700e-002
      8.6060568493632708e-002 9.4926458893381679e-002
      -4.1498667565282213e-002 -2.4905905541572964e-003
      -6.4131050379368171e-002 1.4698177026140288e-001
      1.6412023346941096e-001 -1.4842894989147412e-001
      -3.8887673245888196e-002 -9.5685231592677847e-002
      -7.6406151815667483e-002 -1.2801985992572371e-001
      -1.1839044329099428e-001 1.3158591229311017e-001
      1.0413695654208710e-001 1.7564597554360828e-001
      -1.3738933680269919e-001 -1.1427617301111288e-001
      -6.1763314681819982e-002 -1.6956206805456922e-001
      7.5059411352497857e-002 4.5911595280108873e-002
      -1.3452286812868079e-002 1.5654533008416641e-001
      -1.1314106223475878e-001 6.9012449732624307e-003
      -4.9694681399136860e-002 4.5476867912101558e-002
      -5.6550634120143002e-002 7.1177905685319107e-002
      -5.6738764849097491e-002 -1.2642335698526069e-001
      1.1185309981726826e-001 -8.4733356184902089e-002
      1.1267515830683122e-002 1.0248117841030134e-001
      -1.2549870295040663e-001 -2.0285963932729448e-001
      -2.2911822274353646e-002 1.4224710209944426e-002
      -4.0480244104955587e-001 -3.1214022203640803e-002
      -1.1326606453858090e-001 4.0264598683358813e-002
      9.8455176124033178e-002 -1.2072643921626602e-001
      -5.5963613453437158e-002 1.4493045458306061e-001
      -2.6811263168426278e-002 -5.1513537864863089e-002
      -3.5085283422831579e-003 1.5077893255054289e-001
      3.0376798990350732e-002 -1.3576042648134107e-001
      -1.2701678492870901e-002 -6.8873782468086606e-002
      1.1184805970187754e-001 4.8002319088210385e-002
      -6.1497291714275752e-002 2.0550043619457743e-002
      3.2415851495116069e-002 -3.9808211909955774e-002
      5.3607927369977007e-002 8.1418432846068062e-003
      1.8175502589574791e-002 1.4607941510095673e-001
      7.9937989953687838e-002 -2.6604908847793415e-002
      1.0674524113795954e-001 1.2791826233788128e-001
      2.9595119557674368e-002 5.3269775623163818e-002
      1.0708829452747186e-001 6.0702046270393863e-002
      -1.0856902463688671e-001 -7.9413304898636364e-002
      -5.7312850038808615e-002 -7.0707554619980642e-002
      -9.1565223856137953e-002 1.5916709196696317e-002
      -5.1447153350203612e-002 1.5926828757864939e-001
      -7.1967485231672748e-002 -6.4241624168888484e-002
      -1.3809380930096350e-002 -1.1443873278040831e-001
      6.3397339754640430e-002 7.0217747365072580e-002
      -1.8713668228711458e-001 -9.3218746814317577e-002
      -7.2221675030839996e-002 2.1266986284980603e-002
      -2.5783961204798440e-002 -1.4639760599507332e-001
      -9.1347370269471692e-002 6.2444389987259950e-002
      -6.8625592267522795e-002 -5.2809339439316039e-002
      8.8460733535391939e-003 -4.9811235757342399e-002
      -7.7126410091820655e-002 6.7240877371093952e-002
      -6.4144456358198751e-002 -8.0360018335833519e-002
      1.1697334315522809e-001 -1.0940514313875610e-001
      8.9596118693207161e-002 1.0486729729684761e-002
      2.1935434516230628e-002 4.2428767572021041e-002
      4.0811014109479543e-002 -1.0632066350333531e-001
      5.2318570982160952e-002 6.1613263267859021e-002
      -3.1069915509059423e-002 6.6941828792926067e-002
      -1.8716783924140726e-001 1.2354924511899598e-001
      6.1278473333354934e-002 6.9184866996024455e-002
      -5.4707424414314511e-002 -4.7633821556924499e-002
      6.8127951650162583e-002 -1.0452263337933818e-001
      6.8842637536293522e-002 -8.9793460490498064e-002
      4.8085974850217192e-002 -8.3325050339765755e-002
      -1.5053087139129240e-001 1.1806921517984865e-002
      1.2186665077123369e-001 4.1432216455335937e-002
      -4.6872771067141612e-002 -1.4261667217523358e-001
      6.1653189977125726e-003 -8.7418210904211549e-002
      1.3061460768754596e-001 -1.1446772255315099e-001
      -4.2976765211531376e-002 5.9953739962124462e-002
      -1.3681425816676385e-001 -4.9409105908645220e-004
      -5.8366690403227547e-002 1.6039842279396442e-002
      -3.1368053747806011e-002 -5.2944497657049769e-002
      7.0582526215482125e-002 -6.3825568256663419e-003
      1.9062497697649400e-001 9.1970574987861528e-002
      -1.4187293034605747e-001 -6.3923078843378181e-002
      9.4619010826578587e-002 -3.5634993688695971e-003
      6.6210407807964000e-002 1.1369872682288448e-002
      8.0959617613902496e-002 1.0723735462298002e-001
      -3.7905575069034645e-003 -7.0287269483031878e-002
      -6.2107788784953065e-002 4.6302620355021903e-002
      1.3114245340188088e-001 -1.1469404423036447e-001
      -6.3064238737793613e-002 8.9846756239133227e-002
      -8.5037722519042097e-002 -4.2316633793469220e-002
      2.2069741040430184e-002 9.4354575275003280e-002
      -2.5271951957411134e-002 3.0041238243395489e-002
      1.0606299455189662e-001 3.3171089670706054e-002
      2.8828830828138075e-002 -6.2594708831897730e-002
      1.6281433336270124e-001 5.9936003670183910e-002
      7.5911501337726742e-002 1.1644051900212654e-001
      4.3700260193423697e-003 -8.6915537393601722e-002
      6.1966550844432859e-002 -1.9858132753283627e-002
      -4.0814953839156967e-002 7.6784391142904945e-002
      3.4793215336977719e-002 -3.6595346140731892e-002
      5.1817261652144786e-003 6.8070628088431978e-002
      -9.5489098237584308e-002 -2.1055994474268046e-002
      -6.9296344087444450e-002 -3.8653823047872328e-002
      2.8271657930149269e-002 1.0236347924653637e-001
      7.7803694308306776e-002 -9.2894291077485619e-002
      -3.5935896441690582e-002 9.0654964561859730e-002
      -7.9767126281859072e-002 4.0810508350780220e-002
      3.8016223390739033e-002 1.5026869263793119e-002
      3.8453564099471572e-002 -8.1345404128242246e-002
      -1.4486415833833646e-001 -1.4931941918269115e-001
      1.6692674550786388e-001 1.0349826476182829e-001
      1.0196870144867594e-001 6.8906580742676860e-002
      -1.7282050014848538e-001 -1.6965832101458005e-002
      5.8940148776978056e-002 -1.7568589213183552e-001
      6.4417952429021666e-002 3.4631482737535781e-002
      6.8593020320730863e-002 -1.4368230444719687e-001
      4.2733658865878044e-002 -4.1508853557061041e-002
      7.1672532594394076e-003 8.0440214679279962e-002
      -5.0565277180763500e-002 1.2756378596173848e-001
      -5.6569642577472157e-002 -2.7873730602318715e-002
      1.2804739904450194e-001 6.6761748194491738e-002
      7.8791374958517135e-003 4.3803825158090628e-002
      -3.1276609220776952e-001 -2.5365185891532919e-002
      -2.3498965535120774e-002 2.7963389278587571e-002
      7.2727662607097579e-002 -1.1178523783023839e-001
      -1.0076298711390498e-002 6.8256073242462384e-002
      5.6293825070683409e-002 4.4949156458565058e-002
      -1.5085740322592939e-002 8.2947894518314216e-003
      4.5524941940610639e-003 3.3829774390693394e-002
      -3.7665821613431877e-002 -8.8490229719616051e-002
      1.2201010861641740e-001 3.1331552932378812e-002
      -1.1892869791593343e-002 -8.0744225436432074e-002
      9.1571662794769693e-002 -1.0164002651046557e-001
      -5.1921271795602859e-002 -5.6526565929381996e-002
      5.9557053225997602e-004 -5.2992260152089604e-002
      5.8936540456225178e-002 -4.3827220181642042e-002
      -1.2840570499977907e-002 1.8042667559738698e-002
      -2.3285218855337408e-002 6.2800226332725195e-002
      3.8978144637935273e-002 -1.9980267364679803e-002
      -3.0862190064080364e-002 -2.5061124600623593e-002
      -2.2471386201718513e-002 -6.4849163304823224e-002
      -4.5302636188185315e-002 8.5454844843462482e-002
      3.3729713348018116e-002 -3.6413088644964398e-002
      -1.4279189467463075e-002 -6.4794670295371101e-002
      -4.5096290324384398e-002 -7.4502670874021681e-002
      -2.4395178056451677e-002 -3.9439519830875111e-002
      -8.6371976047061441e-002 -5.4940062739625019e-002
      -1.6091053618257904e-002 2.0913975959347363e-002
      -2.5976832439901440e-002 -5.4146864508457668e-002
      -1.6497923922636629e-003 4.5692220961250689e-002
      -5.9794582848752206e-002 -1.0003497979259059e-001
      1.5265290911536711e-002 -1.2416070730292791e-001
      -2.0918608648857868e-002 -2.7051336202777560e-003
      -1.3123660378235770e-002 3.7015557138481130e-003
      2.6228384380052198e-002 -9.2566708711976656e-002
      1.7404309468740452e-002 -8.4932218558446987e-002
      -8.2574934096350347e-002 8.5415934814968113e-003
      1.9824885000981628e-002 2.4606423545658149e-002
      4.4441643107918805e-003 7.5511839033242156e-002
      -1.4557337004804192e-002 -2.7735305003059572e-002
      1.2031864115999847e-002 4.9573548252172861e-002
      2.7597470598576822e-002 2.0800247566690539e-002
      2.2727049203127968e-002 -3.1401162278019847e-002
      -5.7463039290733743e-002 -2.4030778251658339e-002
      4.6108445546306269e-002 -7.6154153279468256e-002
      3.2189756644335696e-002 -1.2764062406355201e-003
      3.1072148827453423e-002 -3.8051752748085817e-002
      8.8138945261658098e-003 9.2686207411385377e-002
      -1.2812472697839206e-001 -8.3604913735881553e-002
      -1.9843366418654373e-002 -8.9660732046068971e-003
      1.0508755919442352e-001 3.4747716943934180e-003
      -3.2317306740405629e-003 -1.2768676786533803e-002
      -1.8120491872861088e-002 1.1680719453980380e-002
      -1.5675637623186699e-002 -4.6393057784941015e-003
      1.7370894016289138e-002 -3.0109044185474696e-002
      3.5018662605722076e-002 1.9493290784361149e-002
      3.6400744599633120e-002 3.6120290709151487e-002
      5.0458615860501266e-002 2.8192542938933373e-002
      3.1905884321379381e-003 -3.4911742608008597e-002
      3.6030376436291790e-002 -5.4830331094617817e-003
      7.6820175919207936e-002 9.8890574572788894e-004
      -7.0114926729478236e-002 -4.9378079881229019e-002
      -1.3681922744020046e-002 3.5216673392796341e-002
      8.9223610908738496e-002 2.9352127984735570e-002
      -1.2912074093915310e-001 -1.6794499388263433e-002
      -5.1424537573271686e-002 1.9620938082171274e-002
      4.7823074237094781e-002 -1.4142865245025917e-002
      -2.5048045036961241e-002 6.7224518023455887e-002
      1.1161868459127608e-001 -7.4272887640037866e-002
      3.6283496836181935e-002 -5.5285438227407079e-002
      9.7178698716999259e-002 2.7329298123438296e-002
      -2.9611478886579508e-002 3.4901563076101177e-002
      -1.1410499973379307e-002 -6.3164337914679416e-002
      -6.7126238304637932e-003 2.3450016753656065e-002
      -1.7943208171231604e-003 3.6513691728231904e-003
      7.9636224857771831e-002 -9.0894752301026352e-002
      -3.7241138000724393e-002 4.0524247660973907e-002
      -4.7011590975237355e-002 -5.1722852011307843e-002
      -3.8424626183182868e-002 -5.5618153417223259e-002
      5.6134094420787371e-003 5.4163161278062665e-002
      -2.3125115119357706e-002 -2.0708071705449700e-002
      -4.1228432496011762e-002 1.1001073897166217e-003
      -3.5265922273767514e-002 -9.0472394635237267e-003
      -2.3203929423582077e-002 6.6942496027253107e-002
      1.5752046671706248e-002 5.4220509368421935e-003
      -7.7795779453742903e-003 -1.1237997828223362e-001
      7.7574456759223268e-002 3.9681567666604266e-002
      5.4270545942345393e-002 1.1002846317251364e-002
      -9.5695755256265849e-002 -6.8261972069853828e-003
      9.6346542520254611e-002 -1.1039074352567955e-001
      -1.2769493384159324e-002 -9.1250018372956748e-004
      1.7145503204805027e-002 1.7187192100383684e-002
      1.8977518465981971e-002 1.0303321315087148e-002
      -9.3700604375175689e-002 5.4033564399366150e-002
      1.4093937729552142e-002 -9.4776699121636637e-002
      -3.8704547486895280e-002 -1.2224839433820633e-002
      3.7155098574211592e-002 2.6915571739295112e-003
      -1.8871576424617363e-002 2.3117892427700635e-003
      5.8209772986153618e-001 4.4614018738711007e-002
      1.6429430680201706e-001 -4.3064593413223041e-003
      -9.8726110585581089e-002 6.0261160528692882e-002
      3.4516512696031988e-002 -1.3825991789113923e-001
      -7.3691365469421691e-002 8.0800373256124144e-002
      9.0133533223956758e-002 -1.2659357187801212e-001
      1.4170837280852975e-002 1.4662464821025167e-001
      1.4858347668003014e-001 7.9421337863104235e-002
      -1.5039316207025522e-001 -8.6357613201042654e-002
      1.1978966109201597e-001 5.6713953383724112e-002
      -1.2761294689290731e-001 9.7110820673484352e-002
      3.9677397909047528e-003 1.4534540218221093e-001
      -3.4189146847118379e-002 -5.8866531055546109e-002
      -1.0262081774857656e-001 4.6011512837165841e-002
      -1.0518099846875416e-001 -1.7754026642770290e-001
      -4.9981478516590523e-002 -1.0568914529579414e-001
      -1.1606911757200820e-001 -1.2970337934150916e-001
      1.2901622030572399e-001 1.3010095532640562e-001
      1.8076861781376510e-001 9.9899619074896279e-002
      2.6035216060752539e-003 -1.3866259672764758e-001
      1.7833873636529726e-001 -1.5801915312795434e-001
      1.5077402765661443e-001 1.1709001190760253e-001
      1.3882948083113672e-001 9.9558378602181419e-002
      -5.0448808904410168e-003 -1.7334530874599696e-001
      6.5837374934596737e-002 1.2818554272505431e-001
      1.4096380897337260e-001 -7.9954706037827193e-003
      1.8593917337922129e-002 4.7439715457027097e-002
      1.3174736449793434e-001 -1.6103667619727760e-001
      1.6247169711096243e-001 6.5905854280899998e-002
      -5.2643695273237569e-002 2.0352869303457766e-001
      1.3213889174017021e-001 -4.8781943732306099e-002
      1.3650999912388104e-001 6.1802326608887563e-002
      -1.3725739810386842e-001 1.9046126074392233e-001
      -1.2002054185483287e-001 1.1349758631460648e-001
      -4.0822299119136908e-002 -1.3852377648945785e-001
      -6.8731925293998866e-002 1.3349721179498952e-001
      -9.8389638381587430e-002 -6.7755217101043000e-002
      9.5589463235355540e-002 -6.7399752358007201e-002
      4.1416946260330583e-003 -1.0024363700795007e-001
      -8.9957771475273340e-002 -1.4432284868731826e-001
      1.2589496158857452e-001 1.1748479046667604e-001
      -7.0693583951361813e-002 1.8700329768952359e-001
      -5.8926544433382050e-002 2.0488613215278637e-001
      -1.2146438868861988e-001 1.7655483397814364e-001
      1.3628772070032874e-001 4.5124225411435327e-002
      -1.0675051784602839e-001 -9.5160719168120841e-002
      1.7465769346987406e-001 1.8359572142514857e-001
      1.4336962580336227e-001 1.1609517411933258e-001
      -1.0303451778396369e-001 1.7638562418626225e-001
      9.2659724082323841e-002 -5.8318784694560429e-002
      1.2726653536578933e-001 -4.6963769824658420e-002
      1.3946664591675534e-001 -4.5116244984127099e-002
      1.0165092733576729e-001 1.3735538490825208e-001
      -1.0445421724733976e-001 2.9115841611528474e-002
      -1.6447684605752894e-001 -1.3709073502328617e-001
      1.0890589470219027e-001 7.3284658789093127e-002
      -1.4118339312998238e-001 1.7086757865256200e-001
      -1.4824754242905486e-001 -3.6898650001341800e-002
      -9.4051463148950923e-002 -1.1743438868163013e-001
      4.6717015084194853e-002 5.8628303255675009e-002
      1.6829742546617932e-001 -1.5170433970059050e-001
      -7.7737284265639861e-002 1.8649718533425483e-001
      1.7222721966611643e-001 -1.1289490112108996e-001
      6.9271098811229920e-002 7.0021475525757160e-002
      -8.0440371119557402e-002 -1.0819780597442663e-001
      1.5109209456088987e-003 -8.4817989177869604e-002
      -1.9030639920464884e-001 -1.3790806901859509e-001
      -2.4741240528737111e-002 1.3644298320077664e-001
      -2.3566916022600906e-001 -1.6829644259805657e-001
      -2.1495483760158274e-001 -1.2471637778375538e-001
      -7.2914214511355463e-002 1.9386722512044210e-001
      -1.8364671116382308e-001 9.5185809503871607e-002
      1.0193737803155706e-001 -1.0450163792408942e-001
      -2.3678434877004673e-001 1.8380240480466079e-001
      -7.2653769776362273e-002 -5.4024132931055319e-002
      1.5125230039113804e-001 2.9826021719673534e-002
      9.8369601577635052e-002 8.2522310608407173e-002
      -8.1260498098459507e-004 -7.9539851821301272e-002
      -1.3679926893238878e-001 8.6894781909287275e-002
      1.0010191507562123e-001 -8.8361707956116711e-002
      2.0933711453744105e-002 -1.0543695862474900e-001
      -9.4584227961970954e-002 -1.2250698895942787e-001
      -1.3087517345291971e-001 1.2349137151059608e-001
      1.6639781811453566e-001 1.7068432577993672e-001
      -9.0486815600560266e-002 -1.0938648242089141e-001
      -1.3591904170849828e-001 -1.0708392083200573e-001
      1.0348161990067542e-001 1.1788529031647590e-001
      -1.1185944466926873e-001 2.2370449620678429e-001
      -1.2137876589186725e-001 -7.1523284392688291e-002
      -1.2193057207186456e-001 9.5443821017947184e-002
      -7.5019320624330574e-002 2.6954991008327590e-002
      -1.2223711731035053e-001 -1.3120556907946127e-001
      1.6353086340269929e-001 -1.4526708881471340e-001
      6.5372448564914309e-002 1.4188355321230922e-001
      -1.9155344829820498e-001 -2.0928957201017101e-001
      2.1416252132087633e-002 -3.4136311284000298e-002
      -8.5479778526203920e-001 -4.9628544807154687e-002
      9.7698611586282836e-003 -3.6297454767503026e-002
      -4.7522543530853084e-002 -2.3688328104904871e-002
      1.5776684099689281e-003 3.8752056130277185e-002
      1.6611538295928496e-002 -4.1677842559697691e-002
      -2.5341356943070711e-002 -1.5942625467104354e-002
      -2.7762008378680546e-002 3.1828003067058672e-002
      -6.4925653416222473e-004 -8.2715807162835497e-002
      6.2938352336135983e-002 6.0934441877610476e-002
      -5.0325539225767983e-002 -3.2234906554183290e-002
      -1.7666618765534239e-003 -1.4307363638717895e-002
      -2.9026735974311359e-002 -1.8130144086741095e-003
      9.0338438937077204e-003 1.2712885704585386e-001
      2.2678436361419779e-002 -1.5742679768865050e-002
      2.4528383115676917e-002 -2.1170769072630384e-003
      5.4601036767041276e-003 -2.4197107033947889e-003
      3.1336860224759754e-002 6.4157003997009548e-002
      -9.7241837711879060e-003 1.6864035492174041e-002
      1.9759913105080944e-002 -7.1335668000694311e-002
      7.2098287011649553e-002 4.5538815042998337e-002
      -5.0155189102828623e-002 -1.5412595824491521e-002
      -1.4180700966545286e-002 -1.3357170054797519e-002
      3.2694026920274427e-002 1.2541863213579243e-002
      4.8917318699453032e-003 4.5760260253839252e-002
      -7.4939641968460646e-002 2.5862122288186899e-002
      -5.1889408748195733e-002 -6.2979908445138198e-003
      -8.3234117327552926e-002 2.0422755768358707e-002
      -2.5253185658446333e-002 2.1721534457564162e-003
      -9.7768480511432609e-003 -6.5904760999892491e-003
      2.1669581375714432e-002 -1.4737264621533163e-002
      5.3095320283903964e-003 6.3134158802596138e-002
      -1.1274433046135808e-001 -2.2620824116170613e-002
      -4.1916398156723600e-002 -9.7785162331436470e-002
      4.7043815074116889e-002 -4.0707621351940747e-002
      1.5668778589447194e-002 4.3740093768943625e-002
      -2.8465138056821587e-002 -3.5879625291828691e-002
      6.5640427041128546e-002 -4.7516418293354006e-002
      -4.6822347916514316e-002 2.5716750185892038e-002
      2.8973906401581324e-002 1.0360883926399255e-002
      -1.4949666641075606e-002 4.1252653568153441e-002
      8.0531760985315618e-003 1.3014713656590134e-002
      -5.0528015829595145e-002 2.8873412953861526e-002
      2.9223863716503342e-002 -2.8663401323819754e-002
      -5.7899928608440964e-003 -3.5100853527827228e-002
      -1.1139640808824840e-001 3.8859823006113160e-002
      4.3895716823606261e-002 1.4389981466223660e-002
      -3.2085720165327396e-002 1.8639235430160495e-002
      6.1191065900738126e-002 -9.4356212551098342e-002
      2.2767724399439686e-002 -2.3449191969059213e-002
      1.0782324497272577e-002 -3.1778769908896616e-002
      -2.2482684214013240e-002 -2.9487087736557633e-002
      -4.5174278763040424e-003 1.1343258346422042e-002
      4.7809721573586157e-002 -2.9414388643653946e-002
      -1.0492028755562705e-002 -5.5775398630845911e-003
      7.5942803754101146e-002 4.6824052712746513e-002
      -2.7348995144501172e-002 -6.2981757427758439e-002
      6.9882891226017818e-002 -3.0594646440512368e-003
      -2.7349236964955672e-003 -3.3648243167496136e-002
      3.5263526071851722e-002 -3.5071530784797057e-002
      2.9841413940951050e-002 -2.9337134787392177e-002
      4.0230273270093216e-002 2.7322386593168865e-002
      1.1166863208924949e-001 -6.2969371666721535e-002
      5.8164628340216136e-002 2.7292490881150815e-002
      -4.6332957844280986e-002 -1.0421267509482177e-002
      1.1552411859544051e-003 -3.4543246389181076e-002
      -1.8251350939793114e-002 1.1820399643050358e-002
      -2.2511748583234948e-002 4.1947006201577867e-002
      -3.0222338572147203e-003 -3.4747478662865601e-002
      -4.7704406231744698e-002 -3.6691573922672242e-002
      1.4075606335944816e-002 -6.6493673439954092e-003
      9.0390100778230745e-002 7.7849198253307106e-002
      1.6980042634740573e-002 -4.1082080270022928e-002
      5.0399832628815068e-002 8.1451019931663947e-003
      -1.1083239227891169e-003 -7.9066596064365627e-002
      1.7857275484551922e-002 -5.4322262571968122e-002
      -7.4313732330222718e-002 -4.5614048672438352e-002
      -7.4011212550566148e-003 1.6629475519572383e-002
      -1.5762352564596290e-002 3.1462890894668284e-002
      6.9802341753519404e-002 3.6496472000500442e-002
      2.0122166671937388e-002 -2.4766346587383092e-002
      1.3367914256076798e-002 1.4351943709090344e-002
      8.0209751236457461e-003 8.2175986107695109e-003
      -2.5121340787641413e-002 3.9664428272136683e-002
      -2.3879941517642281e-002 -7.2688075554232776e-002
      5.4851873555459646e-002 1.9391497700129864e-002
      6.3042110174744120e-002 5.0664823208251712e-002
      -4.4928602993718932e-002 -4.9929838724526304e-002
      2.5087939680116418e-002 -2.2648790082675042e-002
      7.7934205455172587e-003 2.0366184113346036e-002
      4.1318586248304881e-002 -2.1014111747812775e-002
      6.2294734837826972e-002 1.9145877461410821e-002
      1.9386540649281313e-002 7.4709706036313814e-002
      -6.0830759162793921e-003 3.7531862819322227e-002
      -6.5653452193814906e-003 2.5945022411316059e-002
      1.3216010565920011e-002 1.0550563038988204e-003
      -2.8500567950689366e-003 -3.0444749606721600e-003
      1.9447619332928646e-002 1.4297275947697851e-002
      -2.2362068273262356e-002 -7.5919505456628997e-002
      -4.7284523615688204e-002 7.4440563307329758e-003
      1.5554850104251550e-002 -4.6614689447227646e-003
      -3.5818892318112694e-002 -2.3906148673528062e-002
      -3.5211698796256678e-002 -3.6578762169350632e-002
      2.4884802372547515e-002 -4.4398628526849913e-002
      1.3356474423352062e-002 3.1381238199157599e-002
      5.1751541124683047e-002 1.1412888108211129e-002
      -5.4426668171161678e-003 -3.4828784798284954e-002
      1.5902272641146513e-002 3.3048172187738825e-002
      5.5290933212134869e-003 -2.9316334075406821e-003
      -1.2640007698155672e-002 5.0793389351972890e-002
      4.5874460379728137e-002 8.0040339510438190e-003
      -3.3857434860323637e-002 2.1809840228493454e-002
      -6.2252798591576494e-002 1.7775340293878217e-002
      8.5461368043176205e-003 -3.7913768060567850e-002
      1.8546692271545005e-002 7.9215101951617142e-002
      -1.6082572369256032e-002 -1.1107002387729663e-004
      -1.9967675805482886e-002 -4.6646285939566094e-002
      -2.6827104777503757e-002 8.0290698357488824e-002
      -4.0465644201722301e-002 -5.5477802311939391e-002
      -5.8055672676030873e-002 1.5275075030443648e-002
      4.0639091200132833e-003 -2.9609850863143342e-002
      -4.1687151486755327e-003 5.2078628581724531e-002
      -1.1310168970784604e-002 6.3026464626846343e-002
      4.0960430909238663e-002 5.0385347763590889e-003
      -4.5011694043205611e-002 -2.0594009803462161e-002
      -5.4132551101970947e-002 2.9078175249777547e-002
      3.2531364671534641e-002 8.4953047371006882e-003
      -1.4622933400162651e-002 1.7926773478986698e-002
      -3.9918685077230141e-002 -2.1094067026088577e-002
      -3.5770037271898064e-002 2.4233630345698417e-002
      3.8361282046809339e-003 6.7536832437119193e-002
      4.1032192280530420e-002 -7.4659189078077519e-003
      -2.1946313548726799e-002 -5.5178789192266015e-003
      -6.0222867038722407e-002 2.3549053602428909e-002
      3.1830871680475645e-002 3.8255301192227399e-002
      1.4130165419041871e-001 -4.0693355959594939e-002
      4.5878065820739784e-002 1.1755930827309857e-002
      -2.1080037528977157e-002 4.8885922133865320e-002
      -8.1984405177545239e-002 -2.1711903724772320e-002
      -1.6711592838315865e-002 -1.8579821199093807e-002
      4.8199419607476014e-002 6.1351327625393526e-003
      -3.5545094085557581e-002 -8.4368878730772846e-003
      6.3913311255726791e-003 7.1194475600600418e-003
      2.5056694468766592e-002 6.0995823763295362e-003
      -7.1705895754395774e-002 4.6842555675951122e-002
      -1.4493503868775168e-002 2.2102093847827058e-002
      -3.1082829606112403e-002 -9.5661300965091314e-004
      -4.0161202993707276e-002 -3.0136824011503902e-002
      1.5805214192879221e-002 3.7492928368812559e-002
      -1.2228164587656118e-002 9.4335069589067018e-003
      2.3693751745328413e-002 2.2807754065667894e-002
      4.4014189020537206e-003 -3.9768080082375985e-002
      1.3338470765565482e-002 -2.3410441345280766e-002
      -2.6899644884948261e-002 -5.8755826605142135e-002
      1.4672918910730359e-002 -3.2583596608166995e-002
      -7.7149807272322499e-002 9.2374518432548260e-003
      1.1423186143138196e-001 2.8754951055070751e-002
      8.0539282586370678e-002 1.0743234900219362e-002
      1.0074440661072784e-002 3.0481025010796709e-002
      4.6826288193527722e-002 -7.5374475505542576e-003
      1.7185378980717082e-002 -1.1793178529479111e-002
      3.1958582592528428e-002 6.9551255977601090e-002
      3.2947482765814717e-002 4.9039037565023567e-003
      -4.1273785640344816e-003 3.8357372357844949e-002
      -4.5878357784865459e-002 -1.0879542906574982e-001
      9.0081174999368338e-002 8.8148091612354311e-003
      3.9550166970612546e-002 -4.6017623881422706e-002
      -3.9390919392860345e-002 -5.9778566009044166e-002
      -2.0162846185894489e-002 -1.2654881948576557e-002
      -1.9022611099947431e-002 2.5322068763188346e-002
      -4.3950860869997159e-002 -1.4399974278582668e-002
      3.5765330017012750e-002 1.2823103939714335e-002
      -1.2983522588239496e-002 4.1795834134319594e-002
      2.9602064798382909e-002 -6.4143932144886465e-003
      -2.5241145464082260e-003 -2.3539459445359037e-002
      -7.8658888179905205e-003 -6.2987462476189290e-002
      -3.6696112461897940e-002 -3.8813301502275779e-003
      3.3735205837767761e-003 3.9357132884167409e-002
