<?xml version="1.0"?>
<opencv_storage>
<my_nn type_id="opencv-ml-ann-mlp">
  <layer_sizes type_id="opencv-matrix">
    <rows>1</rows>
    <cols>3</cols>
    <dt>i</dt>
    <data>
      192 192 32</data></layer_sizes>
  <activation_function>SIGMOID_SYM</activation_function>
  <f_param1>6.6666666666666663e-001</f_param1>
  <f_param2>1.7159000000000000e+000</f_param2>
  <min_val>-9.4999999999999996e-001</min_val>
  <max_val>9.4999999999999996e-001</max_val>
  <min_val1>-9.7999999999999998e-001</min_val1>
  <max_val1>9.7999999999999998e-001</max_val1>
  <training_params>
    <train_method>BACKPROP</train_method>
    <dw_scale>1.0000000000000000e-002</dw_scale>
    <moment_scale>1.0000000000000000e-002</moment_scale>
    <term_criteria><epsilon>9.9999997764825821e-003</epsilon>
      <iterations>5000</iterations></term_criteria></training_params>
  <input_scale>
    1. 0. 1.6665107036730501e+002 -4.0451639468997964e+000
    1.2841768559600871e+002 -4.4919944307818351e+000
    1.6430418491661527e+002 -4.5283674090545878e+000
    1.2896227769277073e+002 -4.4829957793020636e+000
    1.6495995906890710e+002 -4.5456956464457807e+000
    1.2563506895705592e+002 -4.4113599218099688e+000
    1.6168260320815324e+002 -4.5588897048692516e+000 1. 0.
    1.4242971391042636e+002 -4.5594425205668161e+000
    1.3100832892367572e+002 -4.7181979120989457e+000
    1.4571802977774914e+002 -5.2530571383943290e+000
    1.3337205530386302e+002 -4.6980744592166586e+000
    1.4424987806001153e+002 -5.1765511371359558e+000
    1.2301295006524322e+002 -4.5034288426436868e+000
    1.4589210154651531e+002 -5.2338554040364960e+000 1. 0.
    1.3640319391500131e+002 -4.3832422276991663e+000
    1.2198259761640868e+002 -4.4472269494593286e+000
    1.3330513470682428e+002 -4.8165750554688325e+000
    1.2633949725613051e+002 -4.4644388223593685e+000
    1.3411839984619604e+002 -4.8183572691855847e+000
    1.1374640212253694e+002 -4.1755867631136692e+000
    1.3460075625619518e+002 -4.8352913231240535e+000 1. 0.
    1.3554071645244784e+002 -4.3691039401762275e+000
    1.1103484888858078e+002 -4.0614910011838097e+000
    1.2619440831765708e+002 -4.4981696446425072e+000
    1.2311866377149373e+002 -4.2881210564757763e+000
    1.3010698521915288e+002 -4.6897065957749051e+000
    1.0881008972233903e+002 -3.9925271689873005e+000
    1.2754509606987006e+002 -4.5626432009836373e+000 1. 0.
    1.3563227828113600e+002 -4.3434580371210698e+000
    1.0946174547739675e+002 -4.0636061387646123e+000
    1.3128185851938659e+002 -4.6614690234652265e+000
    1.2146460998141391e+002 -4.2828284493035289e+000
    1.3026730671540972e+002 -4.6887135888917726e+000
    1.1170351091416738e+002 -4.1023764592911682e+000
    1.3118125627375355e+002 -4.6804170663088565e+000 1. 0.
    1.3398530063612245e+002 -4.2501961371066024e+000
    1.0700822487473955e+002 -4.0322801727597719e+000
    1.3033178240244143e+002 -4.4966253362981385e+000
    1.0528431230459348e+002 -3.8519461368922840e+000
    1.2975331951536040e+002 -4.5144374524198962e+000
    1.0206279770562359e+002 -3.8089939356959905e+000
    1.3014070539023433e+002 -4.4909313522836873e+000 1. 0.
    1.3670638806367938e+002 -4.3608702469480480e+000
    1.0862831833406723e+002 -4.0867940390753832e+000
    1.3177894166934422e+002 -4.6056307008359365e+000
    1.0920098794984311e+002 -3.9758997228043920e+000
    1.2775568194840997e+002 -4.5660007005369749e+000
    1.0714701829850016e+002 -4.0490663586880267e+000
    1.3296384355230634e+002 -4.6412103276319092e+000 1. 0.
    1.5779934132065017e+002 -3.8277844391643949e+000
    1.1430168139699215e+002 -4.0436689553608662e+000
    1.5712933953672589e+002 -4.1817733408503912e+000
    1.1741481742250726e+002 -4.0859459521723354e+000
    1.5095319594344775e+002 -4.1605141636696494e+000
    1.1246771715670943e+002 -4.0575126553059313e+000
    1.5654965354075577e+002 -4.2693150653095131e+000
    1.8523061964097344e-002 -1.2176983330307336e+000
    1.7186707509267565e-002 -1.6007854755610946e+000
    1.6478433075014617e-002 -1.6711184129175600e+000
    1.5385153585505053e-002 -1.6369990004491644e+000
    1.5810613029766347e-002 -1.8446104510865955e+000
    1.6257887586147695e-002 -1.9371801843551859e+000
    1.5932942858896147e-002 -1.5590604170435103e+000
    1.8907864235836513e-002 -1.1327895337049516e+000
    1.7442520526674010e-002 -1.6155543284462237e+000
    1.6476927740414971e-002 -2.2375231877805724e+000
    1.5538475430266648e-002 -2.1907365866822248e+000
    1.4899367006638114e-002 -2.1203589802820595e+000
    1.5206013697299041e-002 -2.3803983384861027e+000
    1.6301798111906012e-002 -2.6896511046004279e+000
    1.5645991779995785e-002 -2.2123777382245464e+000
    1.6769088659588267e-002 -1.4666795899605396e+000
    1.7087822127640654e-002 -1.6265289353362085e+000
    1.5710515822576036e-002 -2.1400528618224257e+000
    1.6269565584798938e-002 -2.3154264556245114e+000
    1.6260310745575390e-002 -2.3974438807269562e+000
    1.6332288582761725e-002 -2.6130905441216470e+000
    1.6859093679874624e-002 -2.8002861663497329e+000
    1.6213368529357505e-002 -2.3927910935790924e+000
    1.6704430187203689e-002 -1.6776496819312319e+000
    1.5816269012806451e-002 -1.5747040139619195e+000
    1.4810228659407766e-002 -1.9900685499412607e+000
    1.6395232360798664e-002 -2.3593552802091411e+000
    1.6044951428091706e-002 -2.4570322268044715e+000
    1.6048863109811119e-002 -2.5558513433016805e+000
    1.6320122850418381e-002 -2.6382567195675350e+000
    1.6093271574295367e-002 -2.3974130695160096e+000
    1.6242936414334930e-002 -1.7249586578377027e+000
    1.7066521508469944e-002 -1.7744271274967827e+000
    1.5764785840378569e-002 -2.1416609304705161e+000
    1.7091430969995363e-002 -2.4439540276528784e+000
    1.6520350745023196e-002 -2.5977568511099207e+000
    1.5977103218067702e-002 -2.5538985533854515e+000
    1.6553474908029463e-002 -2.6360231614486125e+000
    1.6264904723687031e-002 -2.4065621173200351e+000
    1.5680468504518430e-002 -1.7028971507628621e+000
    1.7788954943215037e-002 -1.9491634474020185e+000
    1.6836453003015672e-002 -2.4738800931858891e+000
    1.8040115563269486e-002 -2.7223170860936192e+000
    1.6737388218044689e-002 -2.7017078701594106e+000
    1.7420655194774069e-002 -2.8970626416495580e+000
    1.7405101973995737e-002 -2.9304645886865397e+000
    1.6343140690532863e-002 -2.5890435896418360e+000
    1.5976612426664531e-002 -1.8230864880140158e+000
    1.7522951230878079e-002 -1.8655065254227829e+000
    1.6677615171498145e-002 -2.5379726308028321e+000
    1.7848544112500291e-002 -2.8478503333071483e+000
    1.5966570170280081e-002 -2.6370929487679171e+000
    1.6645281826723837e-002 -2.7803805281252405e+000
    1.7939031628584078e-002 -3.0090203807740701e+000
    1.8042299934869114e-002 -2.8192635300101734e+000
    1.6472732529183617e-002 -1.8673140888947422e+000
    1.6726816608453317e-002 -1.5417108712202889e+000
    1.4998533265467434e-002 -2.0878470934561792e+000
    1.7430098117325470e-002 -2.7554621394639933e+000
    1.7495571108772950e-002 -2.9853809844605124e+000
    1.8423927919313944e-002 -3.1613997770611979e+000
    1.8416378552515593e-002 -3.0712631057591344e+000
    1.7877696664584160e-002 -2.6582498943739226e+000
    1.6888594687654083e-002 -1.7949336224116696e+000
    1.6818441967310867e-002 -1.5681352112493405e+000
    1.5710304695844998e-002 -2.3171781404156513e+000
    1.7802885884230416e-002 -2.9968812801908777e+000
    1.9189870103575257e-002 -3.4504190431965842e+000
    1.9215635355491169e-002 -3.4643417722180110e+000
    1.8459957672015082e-002 -3.3082340483025248e+000
    1.7413279560047984e-002 -2.7625774447340290e+000
    1.6735813447086280e-002 -1.7792882113852189e+000
    1.7120154173695390e-002 -1.6515361604919896e+000
    1.6969989449755196e-002 -2.5691890466157381e+000
    1.8010092450049912e-002 -2.9825209516589437e+000
    1.7573745191296425e-002 -2.9360051139307868e+000
    1.7481388047781980e-002 -2.8776311386178168e+000
    1.8111020328357579e-002 -3.1604129833961450e+000
    1.7148790178091587e-002 -2.7670017270508640e+000
    1.6540774640366861e-002 -1.7322057249372327e+000
    1.7198267585441795e-002 -1.7048773493221703e+000
    1.6963750208930824e-002 -2.5565531159691117e+000
    1.7287124586869276e-002 -2.7264997498774650e+000
    1.6950224730506620e-002 -2.6072977711014294e+000
    1.7235789080840589e-002 -2.6241973453993870e+000
    1.6810867996789190e-002 -2.7805639031297829e+000
    1.6361345092104872e-002 -2.5595078544928866e+000
    1.6050439313185994e-002 -1.6983470639302567e+000
    1.6850030673155141e-002 -1.7500419563823815e+000
    1.7046773527916524e-002 -2.6277855121444982e+000
    1.6592776228157097e-002 -2.6187498773230473e+000
    1.6492727179910106e-002 -2.5414837988674224e+000
    1.6902318564551787e-002 -2.6034471702731112e+000
    1.7068656259271679e-002 -2.8496789692436431e+000
    1.6462748792338434e-002 -2.5829562784377029e+000
    1.6055012808090366e-002 -1.7716184447533851e+000
    1.5851548344593420e-002 -1.6496078941506607e+000
    1.6151909028047251e-002 -2.3592703520788230e+000
    1.6672270562482369e-002 -2.4834826735761566e+000
    1.6419174905423280e-002 -2.4082186671343910e+000
    1.6027941533196272e-002 -2.3720894013254119e+000
    1.6901383693737500e-002 -2.7007330348486422e+000
    1.6572025530336720e-002 -2.5148240590431579e+000
    1.5914218712245350e-002 -1.7480584900646197e+000
    1.5376176841868837e-002 -1.6298188010445156e+000
    1.5629522899781621e-002 -2.0956312446397383e+000
    1.6021194933483803e-002 -2.1766409567784288e+000
    1.6564434914087104e-002 -2.2849003435951394e+000
    1.6334410932640514e-002 -2.3038723124364973e+000
    1.5806017463998224e-002 -2.3867713731859701e+000
    1.5736880079352495e-002 -2.3252029763818407e+000
    1.5685809259503011e-002 -1.7659073687848430e+000
    1.5365751966095005e-002 -1.5315656565252951e+000
    1.4991090290235463e-002 -1.7427382121504800e+000
    1.4198909355685022e-002 -1.7090446016601404e+000
    1.4845613105141936e-002 -1.8743200338506791e+000
    1.5929356539409953e-002 -2.0631028182687086e+000
    1.4697455506843433e-002 -1.9819705102398797e+000
    1.4616958084251348e-002 -1.9856081977792261e+000
    1.5315272737950612e-002 -1.6883019703060893e+000
    1.6579613807112419e-002 -1.2860534063864284e+000
    1.6913032387137580e-002 -1.4427525220749537e+000
    1.6109270290414247e-002 -1.4448239345728655e+000
    1.6309718447320522e-002 -1.5478246483389262e+000
    1.6542688872853928e-002 -1.5618286336864011e+000
    1.6404813253398778e-002 -1.5337089614161854e+000
    1.6031014550310092e-002 -1.5920741672934806e+000
    1.6263442167887672e-002 -1.4492251108946537e+000</input_scale>
  <output_scale>
    5.2631578947368418e-001 4.9999999999999994e-001
    5.2631578947368418e-001 4.9999999999999994e-001
    5.2631578947368418e-001 4.9999999999999994e-001
    5.2631578947368418e-001 4.9999999999999994e-001
    5.2631578947368418e-001 4.9999999999999994e-001
    5.2631578947368418e-001 4.9999999999999994e-001
    5.2631578947368418e-001 4.9999999999999994e-001
    5.2631578947368418e-001 4.9999999999999994e-001
    5.2631578947368418e-001 4.9999999999999994e-001
    5.2631578947368418e-001 4.9999999999999994e-001
    5.2631578947368418e-001 4.9999999999999994e-001
    5.2631578947368418e-001 4.9999999999999994e-001
    5.2631578947368418e-001 4.9999999999999994e-001
    5.2631578947368418e-001 4.9999999999999994e-001
    5.2631578947368418e-001 4.9999999999999994e-001
    5.2631578947368418e-001 4.9999999999999994e-001
    5.2631578947368418e-001 4.9999999999999994e-001
    5.2631578947368418e-001 4.9999999999999994e-001
    5.2631578947368418e-001 4.9999999999999994e-001
    5.2631578947368418e-001 4.9999999999999994e-001
    5.2631578947368418e-001 4.9999999999999994e-001
    5.2631578947368418e-001 4.9999999999999994e-001
    5.2631578947368418e-001 4.9999999999999994e-001
    5.2631578947368418e-001 4.9999999999999994e-001 1. 0.
    5.2631578947368418e-001 4.9999999999999994e-001
    5.2631578947368418e-001 4.9999999999999994e-001
    5.2631578947368418e-001 4.9999999999999994e-001
    5.2631578947368418e-001 4.9999999999999994e-001
    5.2631578947368418e-001 4.9999999999999994e-001
    5.2631578947368418e-001 4.9999999999999994e-001
    5.2631578947368418e-001 4.9999999999999994e-001</output_scale>
  <inv_output_scale>
    1.8999999999999999e+000 -9.4999999999999996e-001
    1.8999999999999999e+000 -9.4999999999999996e-001
    1.8999999999999999e+000 -9.4999999999999996e-001
    1.8999999999999999e+000 -9.4999999999999996e-001
    1.8999999999999999e+000 -9.4999999999999996e-001
    1.8999999999999999e+000 -9.4999999999999996e-001
    1.8999999999999999e+000 -9.4999999999999996e-001
    1.8999999999999999e+000 -9.4999999999999996e-001
    1.8999999999999999e+000 -9.4999999999999996e-001
    1.8999999999999999e+000 -9.4999999999999996e-001
    1.8999999999999999e+000 -9.4999999999999996e-001
    1.8999999999999999e+000 -9.4999999999999996e-001
    1.8999999999999999e+000 -9.4999999999999996e-001
    1.8999999999999999e+000 -9.4999999999999996e-001
    1.8999999999999999e+000 -9.4999999999999996e-001
    1.8999999999999999e+000 -9.4999999999999996e-001
    1.8999999999999999e+000 -9.4999999999999996e-001
    1.8999999999999999e+000 -9.4999999999999996e-001
    1.8999999999999999e+000 -9.4999999999999996e-001
    1.8999999999999999e+000 -9.4999999999999996e-001
    1.8999999999999999e+000 -9.4999999999999996e-001
    1.8999999999999999e+000 -9.4999999999999996e-001
    1.8999999999999999e+000 -9.4999999999999996e-001
    1.8999999999999999e+000 -9.4999999999999996e-001 1. 0.
    1.8999999999999999e+000 -9.4999999999999996e-001
    1.8999999999999999e+000 -9.4999999999999996e-001
    1.8999999999999999e+000 -9.4999999999999996e-001
    1.8999999999999999e+000 -9.4999999999999996e-001
    1.8999999999999999e+000 -9.4999999999999996e-001
    1.8999999999999999e+000 -9.4999999999999996e-001
    1.8999999999999999e+000 -9.4999999999999996e-001</inv_output_scale>
  <weights>
    <_>
      -9.4774394706927459e-003 -9.7805219828911334e-003
      -2.0921956870595290e-004 2.4404954239721638e-003
      1.7826149343995246e-003 -4.0739546956759512e-003
      -1.8086671299757412e-003 4.9711256335304189e-003
      -8.0258741567577879e-003 3.8228825866447661e-004
      -1.9748438002816318e-003 -4.5561885684176637e-003
      -2.9975330284229564e-003 3.1486997294390825e-003
      7.1306952547383750e-004 -2.2670657843549533e-003
      5.0370871195420316e-003 8.3227771892789831e-004
      -2.5485483660139530e-003 -2.5002280115775491e-004
      -5.0968104100118641e-003 4.2008445609326983e-003
      -7.5285901558527447e-003 6.1644744656508691e-003
      -3.8553584354916290e-003 9.6616773526332304e-003
      5.0609761704699793e-003 -1.1293055072537396e-003
      -7.9841650000755451e-003 5.1188453096344174e-003
      7.0869217660411872e-004 -9.1729505242223470e-003
      7.5197821958013266e-003 3.8650389908641497e-003
      -1.3554520088649265e-004 6.9280949925869563e-003
      -7.7265310219992315e-003 2.4390471210455505e-003
      -4.6105022292075868e-003 -4.1998577343580054e-003
      -7.7206269581526739e-003 9.9766978577998551e-003
      4.2544577578334328e-003 1.3754517380714702e-003
      7.1796435332770539e-003 -3.6314002586833017e-003
      7.1302042362966882e-003 5.9848411933615987e-003
      -8.7012957274677314e-003 -7.1911688818492407e-003
      3.5753906382966408e-004 -7.8206324736721719e-003
      7.7840334160302673e-005 -9.7247046973899017e-003
      6.5906532945043820e-004 -6.6883423836866093e-003
      1.0267470172397101e-002 2.4589843309896263e-003
      4.2177802259136879e-003 -2.5745004564537138e-005
      -9.1245559952410783e-003 4.6682843740123679e-003
      -3.2086970244528438e-003 -8.6643351054055979e-003
      -4.4314902091338479e-004 -8.0917907515533228e-003
      -4.7106191796082537e-003 5.4813280656156316e-003
      -2.1113643434525519e-004 -7.1603200584857002e-003
      -1.9313744214374390e-003 8.0881452445791969e-003
      -5.7626970373238790e-003 3.2385791708325500e-003
      -9.0264538523999859e-003 -8.3071699634805346e-003
      6.7234290194826728e-003 -5.2206927062768763e-003
      9.4966577799442207e-003 -7.4237071929381592e-003
      -5.7398595433081779e-003 -2.0103225189369886e-003
      8.8759822239327171e-003 1.3590891472343594e-003
      4.2237535617746019e-003 2.9836713601291928e-003
      3.5702107009188372e-003 1.8901887388650806e-003
      9.1388047665465610e-003 3.8644142153306856e-003
      -8.5457007598703349e-003 4.4538058287786611e-003
      9.4856801867413357e-003 2.8557089696693398e-003
      2.8982475581529957e-003 -6.1692684888342113e-003
      7.3143594555870918e-003 -4.1482498175634524e-003
      3.3752444836027528e-003 -7.4452395656556397e-003
      -6.1845268364962300e-003 6.0264122627934659e-003
      -8.4815390293495399e-003 4.0147813343026474e-003
      4.3837645794166848e-003 3.8368163650613590e-003
      -8.6385474387302586e-003 -9.9415775626384446e-003
      7.5109333721571385e-003 -9.5411738712115005e-003
      -3.4234751243589117e-003 -6.3589078712151977e-003
      -7.7230079999872818e-003 -5.1571929445438803e-003
      3.8867623092827793e-003 8.4313922739099843e-003
      -6.6865057053254783e-003 -2.5348848451417455e-003
      3.7118882088317934e-003 -6.6618591861344672e-003
      -7.3443811874468953e-003 -2.5576058866699451e-003
      3.1610320554713066e-003 6.9403163434145062e-003
      9.1255242269702667e-003 -8.7392895667056745e-003
      -7.9585156868439556e-004 -5.2494145688038851e-003
      -8.0898733159987697e-003 2.1927887959098463e-004
      -9.8332158042401651e-003 -8.9059142405920142e-003
      8.9704192336094463e-003 2.2753640837821255e-003
      1.4789415735889002e-003 -7.5156762652871627e-003
      -8.5957154756025871e-003 -4.2846266567992753e-003
      5.1558259987878521e-003 3.7180267592480453e-004
      -8.2661007363254188e-004 -9.5016089234157570e-003
      5.4214194731074770e-003 7.5946995821700438e-003
      -9.5358673566572887e-003 4.0276062510767128e-003
      -7.9922091987431089e-003 -1.9233252445361767e-003
      -6.0736589670730761e-003 6.9899055328251835e-003
      1.0045558859734034e-004 -2.3930381159207072e-003
      -6.1498343560791027e-003 9.1869368739552031e-003
      -5.0312480841038214e-003 -5.0576352806115795e-003
      -7.1358628471272483e-003 -9.6478922676524886e-003
      2.1329996454838495e-003 2.7190032651601965e-003
      5.2443130122763418e-003 -9.0053141158247044e-003
      -3.2104946150842092e-003 3.3401647501044088e-003
      2.8177639379689343e-003 -4.4751893211692527e-003
      3.0455839087828742e-003 -6.5405593841857722e-003
      -2.0932315025789963e-003 3.7954907859074397e-003
      -5.4419576138871415e-003 -1.0389572524830911e-002
      6.9966178861906715e-004 7.9927233867555635e-003
      5.0507399638574776e-003 -6.1690568077717610e-006
      -3.3827172239549036e-003 -1.0073950853355173e-002
      -3.8259064801943474e-003 -1.0450919271156848e-002
      -9.7928840153109192e-003 8.5487957745100859e-003
      -2.5400033143762779e-003 5.0165710185769690e-003
      7.8777970024318956e-003 4.8212059431027281e-003
      -3.7233622833704092e-004 -9.1814154631758571e-003
      -1.7251515388112776e-003 -5.2734601102399341e-003
      -5.3371935619845223e-004 -4.0506534619315126e-003
      -7.9665214640132806e-002 -6.0350897142078556e-003
      1.9467304188681082e-002 2.6098543998093495e-002
      -6.6213740245263733e-002 5.3188374048483415e-002
      -6.1782447283645681e-002 -1.9140014688067791e-002
      -2.9039390190605825e-003 8.8075873243486143e-003
      1.0688652146624707e-002 -1.1078829797460351e-003
      -4.3282048522210542e-002 -3.1018360769546026e-002
      -7.8390249211871849e-002 -5.2925161716113632e-002
      8.5120541560186752e-002 -3.7286492747953107e-002
      9.8923981759663243e-002 -1.4832705191485511e-002
      -4.6881254746494898e-002 -3.4333895312051187e-002
      -8.5755185254867916e-002 -2.8456445762612627e-003
      -1.8136580524895987e-002 4.4685505416448583e-003
      -5.2635470411145371e-002 3.3069872424883601e-002
      -3.2516197454095945e-002 -4.6335057686881481e-002
      -5.1717700993898573e-002 -6.7939683912079274e-002
      9.3310401703501789e-003 -8.3961080222490728e-002
      1.0774194985471463e-003 1.2521648122872375e-002
      -7.6958101719054942e-002 -3.1385080948968962e-002
      -1.2833823302490638e-003 -3.0100208134022255e-002
      2.0917164782582563e-002 -5.0877267435180902e-002
      5.2275457965677952e-002 4.7545395267147503e-002
      1.0051567477238650e-001 -3.9216977145546325e-002
      -5.9269664197643020e-002 -1.0568013871710051e-001
      3.6265901245214505e-002 1.2702771525012768e-001
      6.3300237964456024e-002 -5.4015769633030404e-002
      -1.0089092582961548e-001 9.7206984054816162e-002
      4.2486433051392949e-002 1.4108700951026929e-002
      6.2144085277978343e-003 -1.8348143832022670e-002
      -1.3088088579519049e-002 -1.7500841292014695e-003
      -8.5208956997272461e-002 -7.4727197541548870e-002
      -1.3141609551993425e-002 -8.6180647002651559e-002
      -1.5091911184560556e-002 -3.6163643873938049e-002
      3.5315065356957838e-002 2.8149977483183288e-002
      -1.5634840319045603e-002 -1.6905478854097728e-002
      2.1321179864122138e-002 5.4818306602800383e-002
      -1.2206697311368808e-002 5.5859779329808772e-003
      6.0225199339029423e-002 -1.8573425524438046e-002
      2.6087296776089130e-002 -8.3198562970866016e-002
      8.8677215255651993e-003 -3.4857271239310136e-002
      -2.7712289831955842e-002 3.1935998610394485e-002
      -3.9840034859832195e-002 -6.5417223489551882e-002
      -6.0899619035445926e-002 9.7604082600180088e-003
      1.3110809996415833e-002 -9.4258708732162272e-002
      -3.5010663395480771e-002 -9.5428307852973182e-002
      -2.5983268005934691e-002 3.6076700342734837e-002
      1.9459255149390158e-002 6.1359440681436624e-002
      1.4201125274225530e-002 9.0345842008155625e-002
      -4.0623353850479736e-002 -1.2248490019088048e-002
      2.9540331268039347e-002 -6.2894669180222646e-003
      3.0319052978128997e-002 -1.2852998424734093e-002
      -8.3387299493313985e-002 -6.1130430182096240e-002
      6.4912858912236679e-002 3.2348481409494485e-002
      1.9935117898279810e-004 -1.0339523335097167e-002
      2.0943761810054140e-002 5.1646608245411917e-002
      -5.0497533868477447e-002 3.1533615918175877e-002
      -3.0735967061625125e-002 1.3307584549666940e-001
      -8.3142388257916051e-003 -1.1528451126503187e-002
      -4.7626285794964467e-002 -2.3534341602570123e-002
      4.3736068071397655e-002 -3.2101091678966819e-002
      1.0337763155434622e-001 1.0064851794251516e-001
      4.4917829395147449e-002 -5.4748253631828579e-002
      -1.4058527992530717e-002 -3.2309690961216449e-002
      -4.3042074695817625e-002 -1.4260608364653911e-002
      6.1430569883699743e-002 -4.5302802829511143e-002
      8.0120108235382358e-003 1.6786903220307164e-002
      -3.2920722696566540e-002 -1.1475264961328112e-002
      5.6460137416343578e-002 -4.1591611941154537e-002
      -2.8746716418046589e-002 1.1950760831999738e-002
      -3.8425914580638570e-002 -1.6065422190142720e-002
      -4.3651776754293374e-002 -8.5428885429846030e-002
      -6.6808088733588789e-002 1.3234177880670540e-002
      -1.4039327011051803e-002 5.5587465420919899e-002
      -3.5999321476153659e-002 -1.2845233384207708e-001
      7.9049690737193812e-002 4.0655602649464710e-002
      -7.8893141974585319e-003 3.2474498139946802e-002
      2.1943565445826152e-002 -5.7112781538400402e-002
      2.1202379935079441e-002 -2.4015278921622508e-002
      -2.9146547014423707e-002 -5.5261062714164234e-002
      -4.2117999902370688e-002 4.8034325893318214e-002
      -3.6113364751725253e-002 -1.9564133488378394e-002
      4.6440781845962118e-003 1.4295098550995997e-003
      2.6926468170385159e-002 6.0494886997390834e-002
      4.3459590794741911e-002 3.1099271520673238e-002
      5.4469999558238558e-002 7.0253531404105380e-003
      3.6293422829041515e-002 -1.1519524934051751e-002
      -3.2596879330582113e-002 2.4794488427759123e-002
      -7.9071435459523762e-002 -6.2756475208360141e-002
      -3.5618213088425714e-002 -5.1458475246137857e-002
      -3.0007466460998281e-002 5.4186032642133231e-002
      -8.2356228200819396e-003 -4.0680119041691477e-002
      -3.1562838737651394e-002 4.1944550590401010e-002
      -5.3061520591670172e-002 -6.9350738952404345e-002
      -1.0839294516135826e-002 2.9351801895103832e-002
      -4.7381899666333355e-002 -7.9672297503666792e-002
      -3.4103341064535247e-002 1.4850298100348491e-002
      6.2102784141296512e-003 -4.6909116494762551e-002
      6.5008173077695380e-003 3.2913904437118072e-002
      -1.5451677794412392e-002 -1.8427246621467341e-002
      -2.2148655825549368e-002 2.8615018065020297e-002
      6.8606087863176721e-002 1.6713048272868156e-002
      -7.5263622492883027e-003 1.5662841756667230e-003
      -1.0340755447166647e-001 -3.1263922180317649e-002
      -9.7738582758083670e-002 -3.4399721750076925e-002
      -1.2664861880479968e-002 -7.6316570057194721e-002
      -3.8191718788638675e-002 -1.0837521071411596e-002
      -2.2910459784421144e-002 4.7849609418619595e-003
      3.9602456810104068e-002 -9.9997745169901481e-003
      -2.0621823941194364e-003 6.0234575229756761e-003
      -2.7227390429300120e-002 9.1104757781323903e-002
      -4.7997692871541674e-002 -5.0615664182320830e-002
      -4.6683183455043999e-002 1.4729145572937549e-001
      -4.3275636777947817e-002 -4.7150909947865291e-002
      6.9837502962635217e-002 5.6983833132377704e-002
      3.5482289336700994e-002 8.0564250332699358e-002
      -4.3573399158068439e-002 -4.0043849248574841e-002
      2.7206463886386315e-002 -5.3095422098213080e-002
      5.9612257648098653e-002 -6.1307824156287848e-002
      -2.5739309845404901e-002 6.2472789662947885e-002
      -3.7687633743269992e-002 2.3339651186275911e-002
      -2.5010688668883594e-002 -1.6216797966186028e-001
      -1.0088012643599180e-001 1.5443403505197040e-002
      -6.7550976677509311e-002 -4.7175308587531109e-004
      2.5804967527233529e-002 -6.5622569960394589e-002
      -5.2635865260580783e-002 3.1751727958208957e-002
      -1.0398255275499657e-001 2.3664563127349259e-002
      -1.9034140305022651e-002 -3.6033475437220595e-002
      1.1250709812783848e-002 -1.0965635634402058e-003
      5.1072500571311026e-002 3.5283459945741030e-002
      -1.0011267189227267e-001 7.7111926365785038e-002
      -4.7311848203694176e-002 -9.1278672638352112e-002
      -6.2350212731245677e-002 3.1525605489880079e-002
      2.2440941885354275e-002 -6.4481472195116074e-002
      -6.4669081535449383e-002 8.2153067359764395e-002
      7.3706131624338075e-002 -3.8748864244323465e-002
      -6.5857531367420785e-002 8.3320418819641570e-002
      8.1912187185342822e-002 2.6609399689251578e-002
      -3.3145224569038748e-002 -5.9274661328107763e-002
      -9.8821606080728652e-002 -1.9386280058838283e-003
      2.3825827660314135e-003 2.2924039687026759e-002
      4.3110849291954370e-002 -3.1084897605487910e-002
      -7.2871920615752817e-002 1.4619801573232422e-002
      -3.4338716531798943e-002 6.1911427772864486e-002
      -3.0926509706482391e-002 5.7338667694792605e-003
      4.6217258000409902e-003 2.8474045387366694e-003
      3.4684243806235495e-003 -1.4122709646300699e-001
      -9.6820113189944129e-002 5.0402937674661676e-002
      -1.5837840636345776e-001 1.5893183239610659e-002
      -3.7014460585480552e-002 -8.4931538462878053e-003
      -1.1000847282814754e-002 4.6472123193636819e-002
      -1.7389540602773465e-002 -7.1549062713163761e-002
      4.4040050261332342e-002 -7.9694195364070311e-002
      1.0318427520174107e-001 -9.8974047916003012e-003
      -2.3557240713269478e-002 8.9027680020635172e-002
      7.5871207431679596e-003 4.8278727241070608e-002
      -2.0906478833952576e-002 8.1244670748525136e-002
      -8.1561011348549400e-002 -6.4034940487948486e-002
      -1.4525566464969106e-001 -8.7645323679491849e-002
      -7.5786070843748068e-002 6.2278388343573875e-002
      9.8176678821734045e-002 -6.3016226478645784e-002
      -5.5850965089317861e-002 -1.4548803259492144e-002
      8.0769751260979350e-002 -1.7855010976138744e-002
      -6.3398265347870339e-002 -6.9750225378987382e-002
      2.6924500576905024e-002 3.4799093987727928e-003
      1.8833138702676111e-002 1.1765639602454660e-001
      -3.8341911815386487e-002 6.2221192818800574e-003
      4.3073424851229260e-002 3.0538654061070800e-002
      3.8347076719476424e-002 -1.2889704184651884e-001
      -3.1615779062429052e-002 3.9527737843287379e-003
      8.0642285539370084e-002 3.4092806980965104e-002
      -4.9277886964319555e-002 -4.6211014206608662e-002
      -6.1005279136732999e-003 1.7685307198716971e-002
      -1.9490594376875805e-002 4.9412058005585090e-002
      3.5113767792002142e-002 -1.3490991768241685e-002
      4.8031273649811142e-002 -5.8989050602655822e-002
      1.8257326398959314e-002 -1.6530387803369079e-001
      -3.1031110949429102e-002 3.6867692013129436e-002
      5.1521654065049783e-003 -1.3770551153703434e-001
      1.9361177409419467e-002 -4.4964976181098015e-002
      -2.8758219823620021e-002 -7.3816443667971438e-002
      -5.2818856739824331e-002 -5.7089510244243545e-002
      -2.0641208541887193e-001 1.1159693271178727e-002
      -8.0692851613449537e-002 2.4135421514649716e-002
      8.9371618755411344e-002 -8.0243907986988133e-002
      6.6476044768267156e-002 5.6021979420037032e-002
      5.7932685308176204e-002 -8.1055767393866801e-002
      -2.6325752281012346e-002 8.0210413039154688e-002
      1.0655519254351276e-001 -6.1080021924606091e-002
      9.3793551456447216e-002 7.4480645024023549e-003
      6.3484022957502563e-003 4.7810288706971973e-002
      -9.3386064714261318e-003 -1.0407148833997004e-001
      4.1675892351481274e-002 -3.2589984076552406e-002
      3.7342792178274957e-002 -5.9084723624614789e-002
      -1.3125173789552810e-001 1.0123763108446450e-001
      -4.7626768952182458e-002 -2.9447113447535957e-002
      -2.4295856516779811e-002 9.0079461739084789e-003
      -6.4693149170576253e-002 -4.3940394752374448e-002
      -4.6209076847523664e-002 -7.9441726302868203e-003
      1.0924048971114047e-002 -3.2269175004877998e-002
      -1.1054816195934827e-001 6.9707840931172604e-002
      -2.1398954445509231e-002 1.2525020216593880e-002
      -1.0063275483301290e-002 3.8109800609294205e-002
      -4.6484818926927268e-002 -3.2170673156438151e-002
      4.1488391153576130e-002 -6.5688409335957945e-002
      1.7926896105081205e-002 -2.5044313177328754e-002
      2.9109541704070319e-002 6.7809559626133400e-002
      -5.2459586653900991e-002 -1.1103695102001779e-001
      3.9329137250347368e-002 -1.6731934298267925e-002
      -2.1966336890211796e-002 -8.4916678543573640e-003
      -3.8307693399719144e-002 2.5748936049804565e-004
      -1.0047522911109037e-002 1.0265294008600100e-001
      8.5210735927306658e-002 2.5711956328086774e-002
      2.1317480253905428e-002 -5.4273297497789495e-002
      6.8582330349977835e-002 1.1921978703132554e-002
      1.3357416497909115e-002 -2.9375028530965273e-002
      3.4849348616430437e-002 -6.3217009757232323e-002
      1.8218649922931079e-002 -8.9839493252276276e-002
      -4.8711321438710424e-002 -1.4251818274202076e-003
      -4.5505093504336132e-002 7.0995212552165204e-002
      1.8260170725513787e-002 -2.2183076804633883e-002
      -4.4574230242358591e-002 3.1575742436656493e-002
      -8.5175871259310657e-002 3.7116318092195177e-002
      -5.0542916722821900e-002 -7.1752626740889336e-002
      7.1420611073529455e-002 -3.8523220615798118e-002
      5.5165684605711064e-002 2.2663164980813437e-002
      9.2526365199787547e-002 3.1290954414016289e-002
      1.1257986206497542e-002 6.1960239778835833e-003
      1.4970476528002378e-002 2.1476143714957440e-002
      1.0476897439179202e-001 -9.2320122220886452e-002
      -2.7893085188598281e-002 4.2723216606736336e-002
      3.4146062651570122e-002 5.5285975904853242e-002
      -4.7688999618559151e-002 -3.3350267895009666e-002
      -5.0601956654748224e-002 -7.4863120755592760e-002
      6.5368757024868204e-002 5.9822802570675682e-002
      4.7646619758589678e-002 -4.1915792151649263e-002
      1.0184031598282545e-002 5.9116492513768645e-002
      -6.2251156133417918e-002 -4.0148587983307865e-003
      -6.8932983425996741e-002 -1.4667355723555833e-001
      -1.3965547527875344e-002 -2.8550598188694851e-002
      -5.4134710582580486e-002 -7.8248642649684577e-002
      8.2786138966066861e-002 4.0264936106894952e-002
      -4.1017439855734758e-003 1.8435668409503475e-002
      -1.1278318407531828e-002 1.0532727473169073e-001
      -8.6933579749425227e-002 -2.3689394241287815e-002
      3.5688892116819242e-003 2.4186090882077228e-002
      -5.9156343108281023e-002 -1.1339557184812461e-002
      1.0157011450947129e-002 -7.2895426844852534e-002
      -2.2728950124314192e-002 -1.6917986635607025e-002
      -1.8220238717442935e-002 -1.1423101190390946e-002
      4.5368620375278524e-003 -1.2917489869693460e-003
      3.6985107818508695e-002 1.6993420800297920e-002
      -8.7585779960912810e-002 2.0749514379717962e-002
      5.7485288033270361e-002 1.6327063610839482e-002
      -5.0060507057034513e-002 -6.0155948589177631e-002
      -8.4614908038796649e-002 2.6700122161577543e-002
      3.8658165983384146e-002 9.4475277678247163e-002
      2.8097004369201931e-002 -6.6104247242386616e-002
      -3.9606464070785399e-002 -8.4250913993277139e-004
      -2.3853111091815250e-002 7.8943624766466006e-002
      2.7776521578775373e-002 7.2697677449476330e-003
      -9.4684367628633526e-003 -2.5902184939000147e-002
      -9.8141147383769828e-005 4.2169772383391126e-003
      -3.5083600524321919e-002 5.8692511226539200e-002
      4.4636093059384048e-002 6.1530072721075829e-002
      9.9115665308252068e-003 4.9704904545994986e-002
      6.0855598619990431e-002 -2.8805615303345085e-002
      -1.0380687538709435e-001 -2.6400963069987161e-002
      4.0307841477083767e-003 -2.0521214921296757e-002
      -4.7586599499444902e-002 -6.7720792972196617e-002
      2.0960333328107032e-002 2.6930230419540634e-002
      -2.8808590960823582e-002 9.3572335375352693e-003
      -8.4657030227447860e-002 -4.6403149867797595e-002
      -8.2154127670545377e-002 -1.3976642164371285e-002
      -3.7322970648838431e-002 -2.4331845424206137e-002
      5.2067028304604857e-002 -3.6146038808947165e-002
      3.8179908534040033e-002 3.3590199500990671e-004
      2.6431012906107169e-002 -2.0004359769728440e-002
      4.9724436084513580e-002 -4.0801058156466593e-003
      7.1295522740671136e-003 -7.6544429858560539e-002
      -7.3112195749882161e-002 -6.9555067867247203e-002
      1.3810474645311221e-001 4.3336980896768899e-002
      -1.4004508000215152e-001 -3.1168372893851912e-002
      -7.8454330803157685e-003 1.1676979585502945e-001
      -3.5164168883261709e-002 -4.5661636794113628e-002
      5.8748031324878484e-002 5.9382061708455371e-002
      -7.2596907248758452e-003 2.3803693379377287e-002
      -3.6608189671861135e-002 5.6904832524935549e-002
      2.2544230104720912e-004 1.9879964426873696e-002
      -6.5967977390285065e-002 3.2298467507413407e-002
      -3.3619208692865055e-002 -8.1377495494024069e-003
      9.3284480990490998e-002 3.5839140185093141e-002
      1.0769303684892516e-001 -1.0005467490069764e-001
      -1.4091080807443970e-001 -2.1999186155501473e-002
      6.9412773353807994e-002 1.6557645116463869e-002
      3.0676209165530648e-002 9.8413405685285962e-002
      5.1535297641893761e-002 -4.9808095755927713e-002
      3.9214318139153187e-002 3.3883175090325339e-002
      8.0766907665693291e-002 -1.2359831781040864e-002
      -3.9309655462921294e-003 -7.1661785213617643e-002
      -7.9662977677444818e-002 1.9802056068288509e-002
      -1.1334918639612095e-002 4.1478564994137074e-002
      7.6822399802053118e-002 -8.7643760151493513e-002
      9.3099518986710553e-002 5.1735651605806940e-002
      -3.6289291948660832e-002 1.8387933831223904e-002
      1.7495997543540171e-003 -3.2308792920164149e-002
      -1.7726556575595871e-002 -3.0954892504352953e-002
      -3.0812359219681918e-003 -7.3781200519128357e-002
      -1.0464622582756426e-001 -1.5509219097315738e-002
      -9.0778303105785205e-002 1.9302061902813375e-002
      -5.9832249570773648e-002 -2.9753853606036846e-003
      6.8295215911718171e-003 -4.2816983213493254e-002
      -2.1747925209412350e-002 -8.4527344131952328e-002
      -1.9527837183513228e-002 3.0025198759038524e-003
      6.1183253979077486e-002 2.0388678890005455e-002
      6.0292778579402836e-002 -4.2720628445440363e-003
      1.8633615107203700e-002 3.1412207095265716e-002
      4.1449771741065067e-002 1.1329741225307709e-001
      3.8402208318599911e-002 -9.8474972679760409e-002
      5.1910428770213408e-002 -7.5481934887391411e-002
      -2.1289496601570927e-002 7.8390768071700465e-002
      6.5025799705819218e-002 6.5828085124099683e-002
      -1.3061396426479399e-001 6.9512680741866562e-002
      -6.1527710255662768e-002 4.0424397747987791e-002
      1.7566982226800663e-002 4.4445567910461441e-003
      1.8669842622331709e-002 -2.7186699391828942e-002
      -3.3052302460857219e-002 -3.7674550550485471e-002
      -1.6617958220164548e-002 5.2592140961553402e-002
      4.1032720550380833e-003 6.2774578542832166e-002
      1.0124170156608100e-001 -1.1761772679357034e-002
      5.5739524381992395e-002 8.5677369075153470e-003
      1.4717366189288272e-003 1.1621133605943471e-002
      2.5744778311245151e-002 -3.0199023699864085e-002
      2.0640203558109884e-002 -6.2444038206152805e-003
      -3.9336848253492672e-002 4.5168097695446996e-002
      8.6107438179098730e-002 -1.0188955317910610e-001
      -8.7854405195807575e-002 3.1932674860397415e-003
      -7.8097466641500302e-002 -5.2539756139071839e-003
      -9.4354693190140723e-003 8.1849747413826349e-002
      6.1320479273647782e-002 -8.6976305009621294e-002
      3.5015579216019208e-002 2.4394397503004466e-002
      -2.5273463715904030e-002 3.6696381385014780e-004
      4.0508191768442961e-002 4.2164571226142984e-002
      4.3745816638108663e-002 5.5768223798707009e-002
      3.3737093466386460e-002 -6.9657554575239547e-002
      -3.3241794073162481e-002 -9.4063647314922380e-002
      2.9772582376117074e-002 1.0761389129379071e-002
      1.4170192489946058e-003 5.2809478076080163e-002
      -1.2791592047176096e-002 1.8363569260498321e-002
      -1.1871042683519519e-002 4.5558702962647711e-002
      9.7936267900170151e-003 -9.9716309032967493e-002
      -6.4699897388837788e-002 -5.7381951048529556e-002
      -9.0896609263195774e-002 -7.1243304058397549e-003
      3.1727474635719774e-002 8.9006392317680649e-002
      -6.0376198887044277e-002 3.7072040452998403e-002
      -5.6845200446016729e-002 -1.2544416411424791e-001
      6.1486983846616453e-002 1.2588977625154542e-002
      9.1800625044884381e-003 8.2645912803590335e-002
      -3.2425055897746420e-002 -1.2856578588472070e-002
      2.3038543056943812e-002 -4.2045916081507621e-003
      4.5956714778573562e-002 -2.1681973384166730e-002
      -2.5686674688698601e-002 -1.9626985160691047e-002
      -4.7252337517590455e-002 2.3025666105320960e-002
      1.3209800190951929e-002 -1.5638534754524452e-002
      -3.4002260004591979e-002 -2.5344228646113093e-002
      2.8253141418820179e-002 2.3960013380245901e-003
      -2.9782413082536088e-003 -1.7923379273627950e-003
      3.2072607250705515e-002 -6.7993818118924854e-002
      1.2821583406380291e-001 8.2972892910084788e-003
      -1.0200027424414245e-002 -5.2020964777381641e-002
      5.6571531746395079e-002 5.2116111646357072e-002
      -2.2857490525313981e-002 -1.1713505846831203e-002
      2.1263795820531853e-002 -3.2194721740756039e-003
      9.3061926498670122e-002 -3.4573095157416349e-002
      -2.5655727450147523e-002 3.5365724977133757e-003
      7.0178998678402729e-002 -2.9667482289549515e-002
      5.7853740236758530e-002 -9.1777505920317318e-002
      -7.4264491101479896e-003 -3.7496197130702714e-002
      3.7705766254847090e-002 -2.4854338201567875e-003
      1.0178943721319596e-001 -3.0180090817357665e-003
      2.9538967685641748e-002 -3.1469806540604446e-002
      -4.8056491539152639e-002 -3.8845698481503178e-003
      -6.6934299189130712e-004 9.1123707460264991e-003
      -4.8095043834803170e-003 -1.1416858255099802e-001
      -1.3040919216824081e-002 -5.4693910712323268e-002
      -2.1470280361682048e-001 -3.5473766963217433e-002
      -3.9042574378238923e-002 -1.8899986263066534e-002
      1.1661703400345147e-001 2.8433023474087535e-002
      -9.0259768397077042e-002 1.4349167444329724e-002
      9.6472257909673790e-003 9.6176160276737310e-002
      -6.1033109879278541e-002 -6.9139987215956766e-002
      -6.6092494632627119e-002 6.7694248545484892e-002
      1.0769619839391353e-001 -1.3068436026205025e-002
      7.4360689542666766e-002 -4.2776203572921015e-002
      -5.7234359281986502e-002 -8.4380202216222472e-002
      -5.6899664490839266e-003 3.2429919510148911e-002
      -8.6007671412524937e-004 4.2908443766015734e-002
      -6.6658743448549260e-002 -1.4110342063956638e-001
      3.1906048076960236e-002 4.3249933737921277e-002
      -1.3990140119959862e-001 3.9007001452251576e-002
      -1.0520891559809147e-001 -7.3206932223773322e-002
      -6.6945496676595981e-002 -1.0009477459285927e-001
      1.2460318118756572e-002 -7.9793647369629864e-003
      2.0010319810307230e-002 1.2734589568294244e-002
      4.6322545309049126e-002 1.2681791909409654e-001
      6.4601215435504400e-002 -1.1321854724185623e-001
      2.2308425251055499e-002 -1.0141515121321366e-003
      -8.5184179112453115e-002 -5.4399040864883980e-002
      8.8346864734528241e-002 1.0184570445255779e-001
      1.3990736223195979e-002 8.9056444883278102e-002
      2.1117126502328644e-002 -4.2761146997143264e-002
      -5.9922028032402173e-002 1.4013672668415547e-001
      -5.4019966670860169e-002 -8.0867615559677836e-002
      1.5792081194762719e-002 -3.0813388888384755e-002
      5.2361892413926206e-002 -2.6295753395052891e-002
      -7.8881943827511847e-002 -1.6819293501163981e-002
      -2.0528579327535566e-002 7.2873125071189745e-002
      7.3276564788903806e-002 3.2310796539999763e-002
      3.4719496915266504e-002 -4.9801627705788033e-002
      6.1697104415347558e-002 2.5028077736478662e-002
      8.7148107665020347e-002 -2.9651507850311898e-002
      -3.4735175416784302e-002 -5.4497998314546377e-003
      -1.0393731518043499e-001 -2.3599353680476682e-002
      -4.6560586998092957e-002 -6.3615675890244416e-002
      2.4775255834874568e-002 8.5937594028217545e-002
      6.2508160914214747e-003 -4.7951004066627743e-002
      9.4223358895426948e-002 -2.3009588680752330e-002
      1.7823773708902001e-002 6.1290755661652895e-003
      -2.2434986842491903e-003 4.7968776258721688e-002
      4.5002623758325470e-003 2.4462568377008609e-002
      -7.3763731362715699e-003 -4.5100187962918169e-002
      3.2304678415612978e-002 1.1889030937157872e-002
      3.0505801568596981e-002 2.9538811074719284e-002
      -3.2197547568506478e-002 -5.1998951924321940e-002
      -1.2333348259295396e-001 -9.6807987973545714e-002
      6.0402434204606614e-002 2.7719047281463249e-002
      -3.6496546655249450e-002 9.7932450776020585e-002
      2.0094357921958558e-002 6.8959048480648738e-002
      -1.3799557682582161e-003 -1.9755438641882526e-002
      -3.6621681411119864e-002 -9.7919922574343440e-003
      -5.0254151775640715e-002 3.9069646406627648e-002
      4.0420756566863503e-003 1.6556339787994062e-002
      -3.8855597068873322e-002 7.5404318210506222e-002
      5.8598368114198572e-002 1.0534089142581657e-002
      8.5052537312728049e-002 2.4358485354204724e-002
      -1.4470811558170983e-002 5.5262219673989969e-002
      3.2175188123647273e-002 -4.3336281831104419e-002
      5.7815011405832666e-002 3.4827253021871368e-002
      4.5566733136481033e-002 8.7795030825455497e-004
      -9.6493959131846066e-002 7.1384760797007065e-003
      -2.9532949281593734e-002 -1.9958745707687128e-002
      5.9548796649920258e-002 1.0573831590286474e-001
      -2.7724097474820950e-002 2.3420684638867977e-002
      -5.4511744955575779e-002 -2.3707433879603931e-002
      2.3784104871197559e-002 -3.2210481025190522e-002
      -4.9356107244457048e-002 5.4187272642608770e-003
      -5.4058091271660894e-003 1.5307144109401030e-001
      3.1296774188060025e-002 1.3442108084673118e-001
      -6.8992432267575413e-002 3.8643213141240592e-003
      -6.2079937771666871e-002 -1.0302540280302610e-002
      1.8134330131357620e-002 -1.0502442493725145e-002
      -7.2799028846778982e-003 2.8530557826497323e-002
      4.1246626208672393e-002 -1.0236593212438277e-003
      4.2867067697869451e-002 -8.3629049999163069e-003
      -7.3122084758346848e-002 1.5730692025528077e-002
      9.7935203805919371e-002 -6.1286375540238962e-002
      5.7881234850377432e-002 2.9257415918948967e-002
      3.6820318528589780e-003 1.2210415523252496e-002
      4.2353948417336021e-003 9.5937363790376859e-002
      -1.8314198832889088e-002 -7.1621595290665585e-002
      -1.9309998314998047e-002 4.3258164968200908e-003
      2.8009472320348779e-002 -1.5191488088714139e-001
      2.8253077947247893e-002 2.9073911329122520e-003
      -1.1524213623882942e-001 -4.1628851581517684e-003
      1.7094471105832999e-002 5.0856798771632662e-002
      8.6326067008580774e-003 -1.4699797429768560e-001
      9.9122608945665727e-002 -3.9030359704258132e-002
      -3.8247972981626799e-002 -2.1385139491068381e-003
      -2.0981798562736059e-002 -9.9003207682249225e-002
      2.0676632244987251e-003 -5.8212734369117433e-002
      5.6081627400383000e-002 -8.5261630840953354e-002
      1.7375792429309055e-002 6.6688400645827775e-002
      -4.7414204600276059e-003 -4.7970550687809498e-002
      1.8304779052306475e-002 -2.9707272281751337e-002
      6.7473245391959272e-002 2.0319191338712954e-002
      4.4116895086491401e-002 1.9987375611640504e-002
      9.2169479333190224e-002 -4.9349973017914307e-002
      3.7678954293560656e-002 -4.6999886062532588e-002
      1.9232930053035099e-002 4.4473161158713283e-002
      -4.5859381719054036e-002 -8.5713929138472270e-002
      -2.3645905094883013e-002 4.9729507600600846e-002
      -1.4133523904104955e-001 -2.9588478352820468e-003
      -4.1467965419684852e-002 4.1424935507898268e-002
      -1.1740910115097191e-002 -1.1876731160013336e-001
      2.4575972357559379e-002 -7.9484083129257345e-003
      -3.0176242483560389e-002 -7.8915949218276563e-002
      -2.7133157567210673e-003 -7.4371341808751407e-002
      2.3367882658080937e-002 3.5932653852132249e-002
      5.1761082394524205e-002 -2.5352456477498380e-002
      -5.1785340828979412e-002 3.3776296378667102e-002
      4.2276507483565574e-002 5.9788616985628602e-002
      -1.2581120900467388e-001 -7.8542067911300546e-003
      -7.8479499305853170e-002 -9.8040684258107538e-002
      3.0750262935018095e-002 1.1310874173924597e-001
      1.1132705767126988e-002 1.9009296844294758e-002
      -2.9686303831892288e-002 -6.7966760071190443e-002
      6.7280911351509709e-002 1.2356994636682819e-002
      -5.0284517327147275e-002 1.1214307765614344e-001
      -9.1717448725145770e-002 -4.5421955777485507e-002
      -6.4399904708053166e-002 3.1678957006703694e-002
      -4.8084594873824993e-002 -1.6411409442204108e-002
      -1.9944185266555243e-002 -5.9015202259688267e-002
      -6.0105813111800639e-002 -5.9882965722890466e-002
      -6.0732071469148996e-002 -3.4562732588791986e-002
      -7.3971239252900764e-002 -8.2346488938710525e-003
      -4.6737441016871099e-002 -4.4727501104942363e-002
      6.3440496972323179e-002 -6.4950814128591555e-003
      1.2814219591235071e-002 7.4298084569399403e-002
      9.5715834520104709e-002 -4.9573275843670800e-002
      -1.0555248805968911e-002 -8.1013606550190409e-002
      -3.4301775715276005e-002 3.2317333118711822e-003
      -2.4726523332347049e-002 -3.0778644313485887e-002
      -5.6380883995687782e-002 -3.8401847301495366e-002
      7.3616163725581912e-002 1.5447198437343128e-002
      -3.4040828012716117e-003 -1.3651636446146292e-002
      1.6756897803660079e-002 -8.0413499216882151e-002
      -5.2448182641355222e-002 -1.2646361919046703e-003
      6.1039585959654280e-002 6.0993966665148010e-002
      8.7459983204219612e-003 -8.8267215891016673e-002
      1.4005441055842718e-002 -2.3154594312233302e-002
      -3.8753197845578145e-002 4.5157504574566888e-002
      7.5416937265948253e-002 2.6092742681012766e-002
      1.3745973184721384e-002 -6.8183785033734734e-002
      1.9986389698143660e-003 3.3199552932258014e-002
      -1.1400267412495484e-002 -3.0302691963372205e-002
      -6.4448781664176155e-002 -6.4166558106499280e-002
      -5.1600959989693287e-002 5.5752932018224947e-002
      3.6015404064130784e-003 -5.0476140788921271e-002
      -8.7061275446951109e-002 6.1877995063934911e-002
      9.9937734201926462e-002 7.6428662243262613e-002
      1.8141143719389414e-003 -6.1220551054146678e-002
      -7.1489507875765870e-002 -6.6644832847052818e-002
      6.0139568440387869e-002 6.1205494537272115e-002
      -9.9818502239773177e-002 -6.7832771758722349e-002
      -6.4918074233943093e-002 -3.3870025849004698e-002
      -6.5857557144937684e-003 -5.0280802492586860e-002
      7.4334773782764015e-003 -2.4994071364800776e-002
      3.7323274820050038e-002 7.0103110301671795e-002
      -2.4201517045504935e-002 3.4643560978729684e-002
      -9.9253774817635934e-003 -5.1899253659491884e-002
      8.8040813371805058e-003 -4.8332498076094063e-002
      8.3160092269422090e-003 4.9813246563000416e-002
      3.4010118461903265e-002 8.6751196916956236e-002
      -2.8975827615250822e-002 6.0512322893894403e-002
      9.5856397043993194e-002 -7.7826896534031242e-002
      -1.1510430754714052e-002 -1.5084792868020488e-002
      -9.4886042072384567e-003 4.9827832671860174e-002
      7.9944378648112865e-002 -1.0243082182175921e-002
      2.8330646587954650e-003 4.5167556213870856e-002
      -2.9555785460554117e-002 8.5838544712548065e-002
      -6.5812106789366373e-002 8.4757319419577926e-002
      1.5348675371884531e-002 -7.9843674281262780e-002
      -7.0143355191079323e-002 5.6205929259359452e-002
      -2.2034055213610345e-002 -7.5567874363635018e-002
      2.1815845495091354e-002 -3.8205773873182053e-002
      2.3377852120079260e-002 6.0099492244047537e-002
      4.1006187958119507e-002 -1.4311693728046648e-002
      1.3183407491724718e-002 -3.7462932612892019e-002
      1.6230787940407093e-001 1.3760494240812186e-002
      2.2259624328445686e-002 -9.3251060907200006e-002
      -1.9824407428185326e-002 -3.0811728161187771e-002
      8.3179458318831390e-003 4.1991150440799131e-002
      1.5796183885182936e-004 2.3708267604469909e-003
      2.5664402017653992e-003 4.3438496895435920e-002
      1.1565404545944558e-002 -3.6922816918443867e-002
      -8.7724635331284349e-003 1.0292831019638456e-001
      -3.7848084859515817e-002 3.4473654713714039e-002
      -8.5030281603201072e-003 -7.6685792834950056e-002
      9.1937336580873805e-003 -6.7186486386546118e-002
      -7.3405723934858905e-002 -6.8976583188003565e-002
      3.3870541475043779e-002 -1.3127163975384618e-002
      -4.9739018869498247e-002 1.9608176852562581e-002
      7.6218871188891937e-002 -2.6017080733881384e-002
      -1.0749794853679027e-002 5.3982454801877834e-002
      -7.4794358614349429e-003 -4.9416807914800277e-002
      -5.8911085077613244e-002 9.9564768375268578e-002
      -2.9513266501748334e-002 -1.3301512403904711e-002
      -1.3093406119829579e-002 5.7228975479531180e-002
      -1.6784603481141391e-001 9.0761160408111233e-002
      -2.4205475872981101e-002 2.9669962764030462e-003
      8.1379352371935658e-003 -1.5011836356106142e-002
      2.8905262734887686e-003 -1.0006170454932668e-002
      3.7506552530534726e-002 1.4482239508881245e-001
      4.0148867943190628e-002 -5.4720581364801277e-002
      -4.4295141111652156e-002 -4.5176935065582222e-002
      1.2153139935350245e-002 -1.2935626681606631e-002
      -5.6728038769581463e-002 2.3079284206998323e-002
      1.1961532810410176e-001 7.2307095337974497e-002
      -1.9955541551720520e-002 -3.3896530688386536e-002
      1.0259061590189640e-001 -2.9726810690118455e-002
      1.3790756635534304e-002 3.3859529750731129e-002
      1.3488002811235208e-002 8.9122911509435174e-002
      7.2776269125362045e-002 7.5404954403072884e-003
      -2.2093379166538917e-003 -1.5701212889875981e-002
      1.4886034261634418e-002 4.0422214233505915e-005
      -3.2356817450479525e-002 3.2422851913387334e-002
      1.8194662964491942e-002 3.1034527146222901e-002
      -7.6776169136662881e-002 2.2336289319128594e-001
      1.5067015287765959e-001 1.2221608572250272e-003
      -6.0372865187361326e-002 8.6896806102625748e-002
      -1.3894572446072666e-002 5.5539589787938229e-002
      -3.4002274143013378e-002 -5.7719031676468149e-002
      -1.2221838586139919e-001 2.3004578447813004e-004
      -7.4575054488572878e-003 -1.2661989735584542e-001
      3.1614455544218870e-003 7.5698869449451695e-003
      -8.2364086307229055e-004 -1.2814723882516521e-001
      1.8024396621808256e-002 -1.4896164714115942e-002
      1.2681668973861751e-001 6.9209395012913844e-002
      -3.2783464763600299e-002 6.2932947218161450e-002
      -7.5751964637922720e-002 -1.6836383281300948e-002
      4.9820794236080518e-002 8.8803786746028859e-002
      6.9565958336781586e-002 8.3376622122655397e-002
      3.1009102718272213e-002 7.9203301143360882e-002
      1.5136148934039995e-002 2.7259654172811267e-002
      -2.3539991737433482e-002 1.6162510418846165e-001
      -1.7351084214107997e-003 1.4536184242924547e-002
      7.2976470400525517e-002 5.4976729607432398e-002
      -5.6476188830508076e-002 -4.6470450353289602e-002
      1.9174411243378355e-002 -2.7903362978162007e-002
      1.1724984345849596e-002 1.7601660146104793e-002
      4.9452818803803221e-002 -6.2915707803268633e-002
      1.5165696751375328e-002 1.1229564349733608e-001
      3.2348600445305062e-002 -7.3450873322579296e-002
      -6.1508928895666268e-002 1.7299800345619527e-002
      4.3668302774147218e-002 1.6542998262450693e-002
      -3.3581419934085428e-002 4.6258316370803312e-002
      -2.9152763866660266e-002 5.9095810376162218e-002
      2.4405131400116057e-003 1.1390908423104566e-001
      2.2723171088051455e-002 9.0150759466995828e-002
      2.8363847162726941e-002 9.0651204046110403e-003
      -8.2239528818683818e-003 -3.2454735206976906e-002
      6.4908246102341083e-002 -5.6799055171349401e-002
      -2.1511783568185991e-002 2.1601164238631336e-002
      -4.2036292334009566e-002 5.4916172931150593e-002
      -2.1341675068521773e-002 -2.1716891814495560e-003
      8.7021273197301716e-003 4.7883503363651825e-003
      3.5917669577367216e-002 1.0347279046890585e-001
      8.3740918811596010e-002 -5.9863700384452110e-003
      -6.9783433495740788e-002 1.4054094407789007e-002
      -1.1693323303964129e-001 1.8395839985682631e-003
      -4.9963423130640131e-002 -1.9170051496794648e-002
      1.5815641796400798e-001 -2.7545387671526509e-002
      -5.1905765753203145e-002 2.5339910405391589e-002
      -5.5359810355605818e-002 2.1755588200623203e-003
      -6.7366438460850442e-002 -9.9050075700435336e-003
      1.0701309068475598e-001 -9.4070427821110261e-003
      9.9252786447793742e-002 -8.9346369484865108e-003
      -1.3197291643643775e-002 4.0327588558698382e-004
      1.3618136766816952e-001 3.6153638928937651e-002
      2.8857747459314239e-002 -1.6736233500271754e-002
      -7.0466878078684334e-002 -1.9503058743367420e-002
      6.0264493446791356e-003 -7.0919172327724961e-002
      -2.7932843377259840e-002 2.2222898317532786e-002
      -2.5045543883139447e-002 -3.1692221571508160e-002
      -1.3206496450618344e-001 4.9460025044821582e-002
      2.9881816864586862e-002 7.1931414548699987e-002
      3.9292504647702856e-002 8.3805579926140933e-002
      -1.7143147125003748e-002 -3.2284140515946913e-002
      6.3360576455474563e-002 1.8113580094567740e-002
      2.2787574234817941e-002 -2.3976432067297944e-002
      1.0590092012214645e-002 9.3835214830084637e-003
      -2.3475988491035767e-002 1.1077514768502764e-003
      -1.5784296002469361e-002 -4.4603057424316923e-002
      -1.9036119039094381e-003 5.0928765345436078e-003
      3.3976846532656783e-003 -9.6307312388558327e-003
      8.7618278966860566e-004 -7.4929469503565334e-004
      4.3028733322259417e-003 -4.6174103055564835e-003
      -5.0243034617089878e-003 4.9164454044062526e-003
      -7.7404082065187412e-003 -7.4930674187775386e-003
      6.4339377500017680e-003 -1.0249067598700149e-002
      -9.7199076358318731e-003 -6.2840798383600877e-003
      -2.4693631986130583e-003 2.5571188699942105e-003
      -4.7997865082905480e-003 -6.1760355151996901e-003
      9.4624460660269714e-003 8.1235187724211701e-003
      7.0765683225005585e-003 4.9675376420954664e-003
      8.6332120947426889e-003 1.8127942481816644e-003
      -9.9802339239919409e-004 1.0905323333965237e-002
      6.6450579072904383e-003 -5.7787412621494406e-003
      -3.8027940099316111e-003 -1.0040033245665159e-002
      -6.7707802530220292e-003 1.2857913738343553e-003
      -8.8117123751824192e-003 -6.0832977297283473e-004
      6.7106294209710602e-003 4.6521707145532193e-003
      8.7850007346562103e-003 6.7175619040486610e-003
      1.8783345810083711e-003 4.4313210829874435e-003
      -9.7247608235000189e-003 6.1026071237459088e-003
      -9.4535085672311763e-003 -9.8141661722331627e-003
      6.8988174487772426e-003 2.1207394604121424e-003
      -5.6388524969387581e-003 1.0796162371533673e-002
      5.2110457235924786e-003 -6.1267492105398606e-003
      9.2751419765964224e-003 -7.0594236170570474e-003
      1.8224208235541341e-003 -4.6849011884824024e-003
      1.7926329089055996e-003 -8.8695806539368927e-003
      -7.3927441834929957e-003 -5.8979470136793482e-003
      -1.1319529825442127e-003 -3.2825713880609226e-003
      7.0965192685047513e-003 8.9259599104669438e-003
      -6.3066233693328463e-003 -2.8247770804946701e-003
      6.7454022530445317e-003 -1.0599055262547105e-005
      5.4289662664442906e-003 -8.4362128755776245e-003
      1.0520879335919626e-003 4.8913385318549100e-004
      5.6996417498903279e-003 -4.7564389920075481e-003
      -9.0168350861027525e-003 -4.1871716037676583e-004
      -5.7445154638083463e-003 2.0568433349091794e-003
      -2.9743094734201460e-003 -4.0279705088277088e-003
      2.7131630292582991e-003 6.3098904729737141e-004
      -1.7679571083467711e-003 -3.9517232403715082e-003
      -4.7816694652116501e-003 1.8938396392028151e-004
      5.9055141575970124e-003 8.7072657622701190e-003
      -1.2897668101217671e-003 3.9040813931868054e-003
      4.2862897199121670e-004 -8.1668190821933186e-003
      -6.0325617281681504e-003 2.3250247359099144e-003
      6.9255599146952748e-003 9.3922577406753745e-003
      -6.6758946596164673e-003 8.6703180572702632e-004
      1.6973685835790279e-003 3.2982301998318248e-003
      -7.9443188645930366e-003 -1.6500742110033923e-003
      -1.5339843336143149e-003 -8.6613951669302063e-003
      -9.0910654542119933e-003 -2.0660247563159756e-003
      8.8878781777671466e-003 6.9884524123242312e-003
      -7.4573252527929115e-003 3.3401159018095275e-003
      3.4230551930663818e-003 -3.6422073164002308e-003
      9.3399271452854725e-003 -4.7086313785963084e-003
      3.2049836077634067e-003 1.7988452121976224e-003
      4.0564193465544279e-003 4.3073525097104730e-003
      2.6862189569708795e-003 7.2963862264340418e-003
      1.8359561515716913e-003 5.2861147524464226e-003
      4.4436802513233070e-003 -8.7307044582460320e-003
      1.4817730019927422e-003 1.0961364021802188e-003
      -5.9370169381947700e-003 -7.0445441850092846e-003
      4.9569756843653359e-003 -6.7625224618853771e-003
      6.4327121987654131e-003 -3.8885740762368108e-003
      -6.4870768216066287e-003 -6.4183339640380118e-003
      -3.7335727750158415e-003 5.7403264480069931e-003
      9.0790255240448640e-003 -4.8269277481782832e-003
      5.6610569969260073e-003 9.2023480677284122e-003
      6.9710486583941507e-004 2.0509418873920697e-003
      -2.0756838578598891e-003 6.4560886669436284e-003
      1.0063617021621514e-002 2.5074619367356729e-003
      -1.2123109072075453e-003 -1.0113253473857067e-002
      7.5485149623311983e-003 -4.0752366588651849e-003
      -6.6319147392033479e-003 4.5016144719902005e-003
      3.7146900780751438e-004 -2.6774715603792450e-003
      -7.2929534474365900e-003 -9.0083288847944507e-003
      -4.6842206041632474e-003 -5.6858097635323658e-003
      -8.6484624414254318e-003 -6.5644920412236017e-003
      -7.9681122466713859e-003 -5.6173946887944654e-003
      -4.4950649741422842e-003 2.3303300290609093e-003
      5.1088348683784503e-003 -8.7515711720763598e-003
      -3.8513691631232808e-003 -1.2818272605237735e-003
      5.0291132899430296e-003 1.6008984824318160e-003
      -3.3587878929641920e-003 -5.9637499528404749e-003
      1.0567208886209057e-002 -3.7788138373922712e-003
      -8.0005714526079248e-003 3.3479654522165316e-003
      -4.0903113030689468e-003 8.8561550368456265e-003
      3.2426543192735097e-003 -3.2159055843531906e-003
      -4.6343275242074202e-003 -1.8107379611075928e-003
      3.9773476333540970e-004 -3.6084208457910095e-003
      -9.0239731569742160e-003 1.1009937959556655e-003
      5.2136992195162832e-003 7.2074510864608837e-003
      5.2823373650158593e-003 7.6135404604556122e-003
      2.5108605961490088e-003 -5.3684217951314051e-003
      -4.1071242253483263e-002 -1.3332875711306466e-001
      -5.8831936899253853e-002 -5.3468599696139735e-002
      9.3943766257368749e-002 -3.3515416201710273e-002
      -1.5371258619771183e-002 -2.3854833661728327e-002
      7.6969894630658153e-003 -4.5628040855733472e-002
      6.2692004352817549e-002 3.2835471675585148e-002
      -1.1204115004261997e-001 6.5941859954038312e-002
      3.9506651540786031e-002 -3.2035952577152922e-002
      6.0777536870551419e-003 -1.0874232183220851e-001
      -5.1135111783244640e-002 4.8008512921827069e-002
      -3.0597747549901716e-002 4.4896012123499113e-002
      -5.7042113145188617e-002 -6.8259993916474880e-003
      5.6331560204176158e-002 2.3824000459160138e-002
      3.7464283212448490e-002 -5.8775288163266902e-002
      2.9492394359863620e-002 3.7442087241171214e-002
      -2.4133153192609159e-002 -2.8603338651719445e-002
      -3.7082448509265183e-002 8.3990634706946718e-002
      -3.7145620185669199e-002 3.3210529667721575e-002
      -3.8176216403625195e-002 8.1993720371476824e-003
      -4.5236050299884832e-002 -8.5119929439707240e-003
      7.9859621147119648e-003 -2.9051771249432458e-002
      4.1670414113868515e-002 8.7559725142241696e-002
      9.9473879427000658e-002 -9.7691551364120777e-002
      2.0954034983539271e-002 -4.0367569525589203e-002
      4.5875797576541791e-004 7.4040465603611355e-002
      4.4983709719875968e-002 3.6703799811016381e-002
      6.9504857982869463e-003 4.6734261115274268e-002
      -3.7566412147186132e-002 -2.8826887467103192e-002
      -1.4330079908912706e-002 6.3368255719619640e-002
      -2.4422858457040417e-001 -7.5885948773064191e-003
      4.5177131076954730e-002 1.3226768299329958e-001
      4.5243613673478504e-002 -1.0449989860796247e-001
      5.5777486941634542e-002 4.0446854744856049e-002
      -2.6223392331874769e-002 3.0184224448365351e-002
      6.0549928162954188e-003 4.2980896932552225e-004
      -5.7236520084361614e-002 -1.8402542946382508e-003
      -2.1676416439413822e-002 4.7410438623798845e-002
      -5.1063812338919677e-002 -3.7311001188825195e-003
      -3.3633812007888872e-003 1.5764544461382455e-002
      -4.6132914504314476e-002 -4.6768997485551599e-002
      2.9806511341116344e-002 6.3316426379559101e-002
      7.5143138431798248e-002 6.3282132582143644e-002
      1.0716159723955188e-001 -1.6839694294663182e-002
      -9.4216643173415625e-003 -3.3766443622153912e-002
      -3.4604560337659136e-002 7.6890213082631956e-002
      -2.9774291239766514e-002 2.4210744365548247e-002
      1.7454175495379913e-002 -4.6337370077460686e-002
      4.2935909488479078e-002 3.7426991674805746e-002
      -7.6523528489554266e-002 4.8491714951375997e-002
      5.1758641162740281e-002 -2.1193424838829914e-002
      1.1642650888811910e-001 3.0886056387498310e-002
      -4.3421949037339660e-002 3.1391893806931137e-002
      -9.5351418130612778e-002 -1.3358124609052847e-002
      1.0622844211343151e-002 -2.2454727688063125e-002
      -2.3898018342742673e-003 1.5174173274890676e-001
      -2.2509115067816804e-002 1.2303125939844572e-002
      6.2393398490333984e-002 -2.8349711632732245e-002
      -2.3135381007196008e-002 9.7967305037506350e-002
      6.4893832643247593e-002 -3.8291901936175446e-002
      -2.9561262710938233e-002 4.9879971008674452e-002
      -4.2235161365266082e-002 -2.6346183872360530e-002
      -3.0135944523242906e-004 -4.2826748168181682e-002
      -1.5860114959440983e-003 -2.0551276301400311e-002
      4.2982326193542739e-002 -7.3953308880516074e-003
      5.6209953679834069e-003 8.9404012117677178e-002
      -2.4734862725153618e-002 -5.2120427542248493e-003
      5.3765466419998182e-003 1.3255995415003999e-002
      -2.7757444672344922e-002 1.8054295944530674e-002
      2.4690990027103909e-002 -4.3061790081560136e-002
      5.2003225286040879e-002 -1.9505163707976943e-002
      -3.5463330929246271e-002 -7.3025962724989103e-003
      5.9487234392148675e-002 -1.2700153902955399e-001
      -4.6183746062734765e-003 -1.9687785625264159e-002
      2.3203115739344572e-002 5.8026184422747658e-002
      -1.0444613587342609e-001 2.4331000240336128e-002
      -4.3164916363975896e-002 3.9379653849576632e-002
      4.2960688489505794e-002 5.7104621496819781e-002
      -1.2489975842523296e-002 3.9944901251264354e-002
      -2.7623200615547329e-002 2.1495550864398524e-002
      -4.4500989032672758e-002 2.1979119376117753e-002
      6.7112026969958868e-002 2.3545754780831738e-002
      -8.1091623871097057e-002 6.0100521267005692e-002
      -4.8204024440398799e-002 -3.6992874630006820e-002
      -3.3142461190647295e-002 2.0254752227624677e-002
      1.3327874741519419e-001 4.1450622541198634e-002
      1.0104009985268576e-001 5.4512461687183681e-003
      1.2674346883999306e-002 -1.1160924576871800e-001
      5.1507260324809949e-002 3.5933167243456812e-002
      -1.5376671240909551e-002 -4.6829477032483045e-002
      -8.3356038885940037e-002 -3.4535564909713157e-002
      -8.1603427281748131e-003 -6.5579136687269224e-002
      -1.1589602595181767e-001 6.5615621654689631e-003
      -1.9453478454931471e-002 2.5497366427101247e-002
      -4.2891648048034754e-002 -4.9433596423763104e-002
      1.3299634220647292e-002 5.3642462140744897e-002
      2.1145255090142642e-003 2.5601780019121632e-002
      -2.2813097587384326e-001 -1.7485078847474078e-002
      -1.8905359714448285e-002 1.6499618152798882e-002
      -4.2340727893008842e-002 1.1824020392447643e-002
      -8.2752916212941965e-002 -4.9053632291472755e-002
      -2.3333956859376975e-002 -1.7412993531363594e-002
      -1.0267598210657511e-001 6.7131793494703315e-002
      -6.8207016300455420e-002 -2.8465969922396452e-002
      3.1766091903632179e-002 -3.8725767350927295e-002
      1.3444399898114062e-002 4.1474038714031748e-002
      -4.4302709784859597e-002 -3.1001026593431714e-002
      3.7811086166979049e-002 5.4215520770185321e-002
      -1.5033521605868664e-002 2.7916225276041436e-002
      2.8862339266208983e-002 -1.5197566368894177e-002
      -1.4004266025827916e-002 1.0094769547884459e-001
      -5.0691583890298188e-002 -8.1981700102472702e-002
      1.3542448062690223e-002 -6.2146771744425462e-002
      -5.9006125080157026e-002 -1.0459175646176981e-001
      1.7298350732989382e-002 4.9047921308838199e-002
      8.7950084665515182e-002 5.2909133253862026e-002
      1.9655000686222800e-002 -4.9417513527836025e-004
      1.9644622597586266e-002 9.5367536481379994e-002
      8.3703251380400606e-002 -4.5833348563292346e-002
      -4.6512424614740061e-002 -1.7048199472136802e-001
      2.9293752317005834e-002 -2.5528218192927891e-002
      3.4845996896024120e-002 -1.5969934248003456e-003
      1.6155429504447798e-002 2.0442850840190711e-002
      -2.6782587268841578e-002 4.3278360248002246e-002
      4.3876932668277482e-002 -6.7924084492516856e-002
      7.6788369272392173e-003 -4.5198038246875544e-002
      -1.4949620508361064e-001 4.5411351198691823e-002
      -1.1957669981864262e-001 -5.3568432772413160e-002
      -5.5702069900825137e-002 -1.0222015452079233e-001
      1.5644168635061784e-001 4.5403908742576056e-002
      -1.1200664652093149e-001 3.9914148766276601e-002
      -1.8952166202290605e-003 -9.3908680918196374e-002
      -1.3561598492610063e-002 3.4024788468563556e-002
      -6.2524172594649987e-003 7.7263305047229558e-002
      -4.4365452542861152e-002 1.8930686413542640e-002
      -2.3703393706734036e-002 -1.4654600473234034e-002
      -5.0651683374403423e-003 7.6973545308416103e-002
      1.7791487254721090e-002 5.1270446424481059e-002
      -4.5015769788389122e-002 -3.2758329243484298e-002
      -7.1214598918277069e-002 -9.1347427694111180e-002
      7.8484330079013481e-003 3.9576829352676715e-002
      4.6975312148746402e-002 4.6441703010028396e-002
      -1.1900668269111944e-001 2.3880270323309933e-002
      -4.2623813029457266e-002 -1.9599479452504852e-003
      5.8326740736120403e-002 -4.8088502866460429e-002
      -1.0131464271510504e-001 2.5529722553672276e-002
      4.3844311818744458e-002 -4.9905848388696522e-002
      6.3065366295041184e-002 7.3638336130520364e-003
      -7.6730172117534051e-002 -3.7687751820021605e-002
      -3.5337176036923179e-003 -2.6857279312877107e-002
      -1.0216423217530482e-003 6.1365945679122819e-002
      -4.1083069600649551e-002 4.4942068012196898e-002
      7.0239655437437376e-002 -1.3315040681480908e-002
      -1.0535454710177378e-001 2.3219848037544233e-004
      -7.1736262014702096e-002 -2.7313603452422858e-002
      4.9684333757770538e-002 -5.7610433392108841e-002
      3.9945171151617919e-003 -8.3206040543361292e-004
      -5.9644481453722038e-002 1.8157128599726784e-002
      7.5730440713703329e-002 -3.0787792912783871e-002
      -8.0997891143857331e-002 2.1418218719221432e-002
      6.0132314068161601e-002 -3.7490199534406167e-002
      -1.3706164976416702e-001 8.9625991373804698e-002
      9.4905409099016569e-002 -9.2751654008632167e-002
      1.7318899963427031e-002 -1.6640036149000563e-003
      2.8155600773157385e-002 3.7494299067950133e-002
      3.8017760955816667e-002 -4.4698767517979153e-002
      2.6902075109296215e-002 -5.4047322872513508e-002
      -1.2313964478382693e-001 2.3423592217550141e-002
      9.6233922322164447e-002 3.0105707935214783e-002
      -2.4357748517220487e-002 1.1708745650042689e-001
      3.7138736039367945e-002 -1.3301491337849608e-002
      9.6748461642907711e-003 5.6821444422194200e-003
      -9.1585052926887775e-002 -6.0160160537093927e-003
      -8.2594420506249766e-002 -2.9774387950270619e-002
      4.6567477487335342e-002 -2.4259748388349763e-002
      -3.7339352028011898e-002 -1.2920776677305709e-001
      1.3832255217016655e-002 -1.9390287500550296e-001
      2.7261401725020330e-002 1.3107280202804945e-002
      -4.1105740092149685e-002 -4.3144113557499121e-002
      -4.4745328021836936e-002 8.4386639708741301e-002
      1.6662164613944087e-002 3.6927601508524283e-002
      6.6998997089863427e-002 -1.9886518140931599e-002
      -6.2467707319144895e-003 -7.7804349347370180e-003
      -9.9983209406428061e-002 -2.2324691748207993e-002
      1.4157676649868711e-004 6.7345494987260238e-002
      -5.4150233004719696e-002 6.5570343518541852e-002
      2.5437339849853888e-002 6.9563716967207895e-002
      -5.6846453416589907e-002 -5.2961122537355458e-002
      1.0908244831362204e-001 5.2444224686681246e-003
      9.9061170087707349e-003 8.1476522691703024e-003
      4.3123589441515855e-002 -2.2486395136382658e-002
      2.1143262254504250e-002 2.7113915509639503e-002
      4.9616185630312080e-002 -1.0214325850113663e-001
      1.1357332539715277e-001 6.5973992022029429e-002
      2.7778493801128127e-002 4.8598885839928163e-002
      -2.5953136234635372e-002 7.6359208190407576e-002
      -7.9075255905476205e-002 1.1870105036611065e-002
      -5.2281825529793546e-002 2.0148624795323502e-002
      -5.5702353769942897e-002 4.5274566994163851e-002
      4.8019610964425453e-002 4.7678594851470302e-002
      -6.1686349349579318e-002 6.4736034538281959e-002
      6.5684215634643869e-002 1.4899423537263579e-002
      5.2220542555247509e-002 -8.8250219760212904e-003
      6.6863574258117890e-003 -1.1199256901321833e-002
      -9.6233684491608629e-002 6.5302513755178496e-002
      -1.8476553340929156e-002 5.1695074992083329e-003
      2.2634731994308387e-002 3.9016762856374898e-002
      2.8240792977686821e-002 -2.1657947651481560e-002
      -4.5178587628469422e-002 4.1272440061670454e-002
      3.9710740957326914e-002 -1.7737611287967525e-002
      -4.7765081448960175e-003 -5.5143195060017559e-002
      4.7329320608867617e-002 1.1650510328654406e-001
      6.6037541818226384e-003 -7.7413755549190832e-002
      6.2801699979301684e-002 8.3972950661852619e-002
      4.0331918180325867e-002 -7.8029909155753488e-002
      4.7083062035827516e-002 -1.4904565978692794e-001
      5.6348667794535057e-003 -8.0243770615831215e-003
      4.7178292546261325e-002 -1.2416855209890895e-001
      4.9608911995964663e-003 7.4737619701201654e-003
      -4.2617793454511013e-002 -1.0546441939596152e-001
      -6.3378502058332578e-002 -4.8776949032506893e-002
      3.6256418775596093e-002 1.8490344638107482e-002
      4.7235176379439310e-002 -2.2999561010891248e-002
      -2.6171173021223251e-002 1.2329025004730375e-001
      4.6541392932149671e-002 3.8784045834496053e-003
      -4.1723405714193654e-002 -5.4229347518154912e-002
      -5.1500581074345447e-003 1.3509239774782602e-002
      -5.8260789843136478e-002 -1.0097778932397387e-001
      5.5478523494444452e-002 8.0134958450351242e-003
      6.0853868210983637e-003 1.3022742951428586e-002
      -9.0077602040602306e-003 -3.3613411123297132e-002
      7.2606812327644696e-002 1.5506429122983433e-002
      4.1240829052492448e-002 3.9501094327437640e-002
      -5.0000367641193671e-002 2.2520574003420408e-003
      8.6327090292807607e-002 7.4549802704069600e-004
      -2.2980948995659795e-002 -4.0644979203557771e-003
      2.2828567841487552e-004 9.2226381407699676e-002
      6.7700964273612330e-002 -1.7110298579418582e-002
      6.4883961074835239e-002 5.3248201716467332e-002
      -2.8961876485925470e-003 4.2365382797074407e-002
      6.2157947037135779e-002 8.4529582785640392e-002
      -8.1304123613004015e-002 -1.0879413918516543e-002
      3.0265283831587910e-002 -8.6304139935388338e-002
      -1.9958730247640687e-002 1.0094822181618766e-001
      -1.3203216225648762e-002 -4.0977044072095778e-002
      3.4770221651666635e-003 2.9837186732889435e-003
      6.4563879759051909e-003 -3.7458211737345939e-002
      4.3320516506290707e-002 -1.0363672080424395e-001
      1.1802100707279122e-002 1.5807115425918398e-002
      -2.1279500644716450e-003 2.6797337530821464e-002
      -2.8964919809509423e-002 -5.4912174015377631e-002
      1.3253694498082592e-002 5.5935022688465369e-002
      1.0433719763459033e-002 -1.1434902099857097e-002
      -7.7928138790314044e-002 5.5517622518678790e-002
      6.4379523795100077e-002 -4.5684273545732193e-002
      -1.8158636619756648e-002 -3.8382353207269217e-002
      -2.9162183063492612e-002 -8.0765496574988962e-003
      -3.7332808731423403e-002 3.2601622316808285e-002
      5.7513934918392668e-003 2.6969860570311931e-002
      -7.0300821653161732e-002 1.2820622781465488e-001
      5.4621529908654418e-002 -2.1619161208777046e-002
      -7.0177920284427171e-003 -1.4923129914694896e-002
      -7.5087555681679866e-002 -1.7606093282467719e-002
      1.1809521165914947e-002 6.3750113783377135e-003
      -1.4878611489106484e-002 -2.2911390188200672e-003
      7.6328041261688462e-002 5.1369240590648214e-002
      -1.4019184657735545e-002 -1.2632572367284094e-002
      1.1219280561837281e-002 -2.9391731695882764e-003
      2.8100008672140079e-002 1.0435022716743804e-001
      3.5493315383245239e-002 -1.3893407564531087e-003
      -4.0628171437922266e-002 -7.0403531510115164e-002
      -4.4171932432216874e-003 -1.0092505854784446e-001
      -7.6452032729506000e-002 5.0344922812527178e-002
      9.5323930986023528e-002 -8.5756684896722331e-003
      7.5245082072790154e-002 -1.5770489541421243e-001
      -8.2902885128401049e-002 4.1985771637760655e-002
      3.5093339492558828e-002 -4.9970995975723111e-002
      1.2011268262682002e-001 -5.7629905143699742e-002
      -2.0254525691416600e-002 7.4669156664408723e-003
      4.8750904206340324e-002 1.3481116057974456e-002
      9.7657998146607292e-002 2.7151614827390050e-002
      -6.0701610758759558e-002 -7.5172551356265285e-002
      -3.8592872506732635e-002 -3.3169105823839112e-002
      -9.8883567148170745e-003 4.3201200655920417e-002
      6.6332042903165300e-002 1.2949962546429397e-001
      -1.9661667946403446e-002 1.2959061929686589e-002
      -3.6620376098153662e-002 5.4900409156592819e-002
      -3.8886515549990848e-003 3.1865024939637096e-002
      -1.9984686074479924e-002 -2.5665614804119004e-002
      -4.1112770779012313e-002 -6.9177129516299299e-002
      7.5551831665528563e-002 -1.1006357950560064e-001
      3.2461145410907950e-002 -4.1837739640121184e-002
      -3.5695379962850701e-002 -1.2448529512658667e-001
      3.9510149572667193e-002 -8.6781035511893215e-002
      -8.0737065984947051e-003 2.1445066646139523e-002
      -6.0996514176054742e-002 4.8700436563657995e-002
      3.6712706351389256e-002 -4.9442578795030813e-002
      1.3397172730539829e-002 8.6986804684357141e-002
      9.2226126870675780e-003 -5.9836658392119088e-002
      8.6294890800566515e-002 2.4902491555320358e-002
      -1.7148086632573428e-002 5.3038254334329508e-002
      1.6210709597366638e-001 -8.3938581006756760e-002
      -5.1286895090080560e-002 2.1842004994380517e-002
      8.1036123498300680e-002 -6.6573824438249815e-002
      -6.1590490247745641e-002 7.4474980437395245e-003
      -5.5573638943005640e-002 -1.0128184370317123e-001
      2.6624888398933913e-002 -8.7482447673062610e-002
      4.0496276879209099e-002 -1.0877092157001893e-001
      1.4167945515324343e-002 -7.5521342236365474e-002
      -1.9358899242366424e-002 8.8137432535175336e-002
      -1.6125059789920154e-002 7.0867305897955118e-002
      7.8612467030344690e-002 -2.3493982931143718e-002
      -1.2049022362803580e-001 -1.5023064542908801e-001
      3.4035292008423541e-002 -5.1028826843031797e-002
      4.7382636319208374e-002 -6.5772985174189405e-002
      -1.6225030252871125e-002 6.5418538556941991e-002
      -1.5958857718433576e-002 -1.4041537803447832e-001
      2.5458383468772671e-002 -1.4142951962109410e-002
      3.0052495963025457e-002 -6.4400425582208359e-003
      1.6695772272956818e-002 1.8924405586163803e-002
      -1.0182619961544399e-001 -6.8445943145666252e-002
      -3.5506041258566323e-002 -4.2621574347241490e-003
      -6.0520187251561761e-002 -1.4748811029319292e-002
      1.8131440024330977e-002 5.8390213982090142e-002
      -4.2920705049985554e-002 -6.7258459706301357e-002
      5.2053262820528051e-002 -2.7023602503674901e-002
      9.9820183890089627e-003 -2.4855622648961913e-002
      -2.6149359935587025e-002 5.8823569106063317e-002
      6.0551703513372244e-003 3.1416616683510007e-002
      1.0844666733088210e-001 -1.3485022845733661e-002
      -4.4887108225638274e-002 -6.3970859870564417e-002
      4.3911915065854984e-002 -1.0986291582967408e-001
      -2.7929334416543331e-002 -1.6627873937156555e-002
      -3.1406943115553754e-002 -2.7094652723645040e-002
      -1.3063451227083495e-001 -1.1525348541402310e-001
      6.8245187388901452e-002 -4.5889100161043604e-002
      2.0973571082600652e-002 -4.8748336726177890e-003
      -4.5180895392637171e-002 -9.7213261175689483e-003
      2.1301930359356167e-002 -8.7085909668017172e-002
      4.5212823944197414e-003 3.5086882007635681e-004
      6.4943623882398382e-002 -1.2892109242757637e-002
      -1.1444826762090283e-002 6.6935337134807871e-002
      4.4545703821964308e-002 -2.9818549279150529e-003
      -3.1876552028443979e-002 1.5531374565088719e-002
      1.4743190347583399e-002 -4.6476224672652923e-002
      1.1354471242848347e-003 -6.0511839881165617e-002
      -1.0201594270472965e-002 6.0604366712117386e-002
      1.4576223971673238e-002 -1.4387435353285899e-002
      2.8944301228467249e-003 1.7974292545219976e-002
      -9.3542269611946588e-002 5.1958816064896753e-002
      4.7135791528657732e-002 -4.7067944966271069e-003
      -3.3196560375237253e-003 -6.2181293883345451e-002
      -2.2458408998711880e-002 -5.0454900039914527e-002
      6.3819845548225666e-003 1.0666443401447649e-001
      -5.3960305308605114e-003 -4.6052751655295656e-003
      2.0985367454429180e-002 -1.0514689786502772e-002
      -5.6461682146488064e-002 -3.0962386180549559e-002
      -7.8429726039521992e-003 -5.8659223849211748e-003
      -4.5866946939264588e-002 -1.8652754315591605e-002
      -2.6409451867273087e-002 5.8326546155926962e-003
      7.1428131266854881e-003 3.5722514332805558e-002
      -2.1570449730767719e-002 3.9283887333049036e-002
      2.2987617935921720e-002 2.6429153391532970e-003
      1.7279808229961120e-002 8.7321585493448803e-002
      2.2221877885793051e-002 -1.9048837364203687e-002
      -1.2884285413835861e-001 4.3067936603592608e-002
      -4.2660114582762247e-002 -5.0737730843302367e-002
      1.5549844205261863e-002 2.2201091673568943e-002
      -8.4344425101327183e-002 6.2065595040446959e-002
      6.7386410473923603e-002 7.4245896266249611e-002
      4.3862433880120885e-002 5.7307232407181635e-002
      -2.7044300927201264e-002 -4.6253362218908398e-002
      2.0113639551640340e-002 5.6769729906655853e-002
      3.4823848062851171e-003 -9.7541895181372101e-002
      -9.9483177105939534e-003 -3.6698518052436621e-003
      3.0630646613231859e-002 4.4314232997767676e-002
      -2.5066166168384082e-002 5.6527389890096001e-002
      -5.3965983676775454e-003 5.7039711365452120e-002
      5.3040085367872657e-002 -1.9509179263115232e-002
      -1.5131364757096115e-002 -2.8640636565433232e-002
      3.8309626971097931e-002 8.8975545345461607e-002
      -2.3430685577424969e-002 -3.7017267949097030e-002
      3.9230918139320246e-002 -4.8357046875944207e-002
      4.0437096359242503e-002 4.4210605306070919e-002
      1.7856964180758743e-003 -3.3459682825744623e-002
      2.4446244683301802e-001 -1.2339546989712210e-003
      1.1242770793504527e-002 4.1580434025411213e-003
      6.1768737909522420e-002 7.1992387069329922e-002
      -6.4254247850514243e-002 2.7416250490212998e-002
      -5.9993019592988715e-002 5.5585789047044656e-002
      -2.1792316021450108e-002 2.0310615613792354e-002
      -3.6267971842584172e-002 4.1464339594469254e-002
      -2.7999212042061683e-002 -1.1752970748165029e-001
      -4.5412495291625669e-003 -1.5533518446587949e-001
      -2.2895168001898895e-002 -1.8909479026088478e-002
      5.1695615218775220e-002 1.1486459627744973e-003
      -8.2157475526505791e-002 4.0851040623172116e-002
      -9.6370727794251702e-003 1.3262604742109945e-002
      -6.5084283174725199e-002 -7.3375868336729683e-002
      3.3573355316218696e-002 1.2083368977014317e-001
      -5.9321432336060291e-002 1.4598957984188476e-001
      1.4179594301488721e-001 1.1139637384761278e-001
      -7.1998888344273093e-002 -1.0846631845133971e-001
      3.8414492396353909e-002 -2.8801326045549271e-002
      -4.5785280887377468e-002 1.8265065865742416e-002
      6.8265507859554056e-002 4.8654334180712369e-002
      -5.0212640908013431e-002 -4.5164170748525391e-002
      -4.8405821176694029e-002 -1.0062700664626818e-001
      -2.2200673321656712e-002 -1.0158639080835214e-002
      6.0670242992910628e-002 1.5434643074850132e-001
      1.1537517221812749e-002 3.5235383949599075e-002
      -3.9816370129595456e-002 4.9530975795523312e-002
      -1.1796149261024169e-001 8.4821901570303615e-002
      2.5395169853834700e-002 -1.1554670879486569e-001
      7.4596776387446703e-002 9.8260106175921506e-003
      -4.8769167010029292e-002 2.8688661295014132e-002
      6.2743962781050502e-002 -9.4972054376700948e-002
      -4.9156874207791940e-002 8.0095433900267229e-002
      -1.1662164167934204e-001 -6.1237260741752120e-002
      -3.9545202725400561e-002 -4.0369168533185729e-002
      -4.9103000754028890e-003 -6.2212378006892839e-002
      -1.3169256803317386e-002 9.2307665624522695e-002
      -7.1552056855589980e-003 -4.0413795514327631e-002
      7.5896015775726799e-002 1.8405602689092887e-002
      3.3106817132386827e-002 -1.0087484213232856e-002
      1.5317254071132479e-002 5.5394576785249991e-002
      -2.3609693426223710e-002 1.5449155470901794e-002
      3.6759355274744054e-002 -3.8322441159974803e-002
      -2.3792364887379089e-003 -7.9058144405479522e-002
      1.4139781784726672e-004 -8.1051361442888825e-002
      1.0926327505780020e-002 6.9076153916705088e-002
      -4.8066376800133613e-002 -1.5931073194535961e-002
      5.5179883481633683e-002 1.7207564092395374e-002
      -4.1708491923194209e-002 -7.2637587716606672e-003
      -8.4088925360242858e-002 -8.8799653917974466e-002
      1.3475127095122608e-001 8.7433136580884266e-003
      4.5274546706277084e-002 5.0425952819614782e-002
      -5.0921850418072553e-002 -1.1572544149943357e-002
      6.6368075075075427e-003 1.0399678783220605e-002
      2.0511393613164234e-002 6.3726390717140244e-002
      3.1040924730129794e-002 -1.1562613201899477e-002
      -1.8477128132801607e-001 1.2740871682431829e-001
      1.1914111733805140e-002 -7.6736101998911371e-002
      -6.0229052204776676e-003 -1.5350010993885197e-002
      4.7916229927085608e-004 -2.6183152059908708e-002
      -7.9116663888215821e-003 -5.4894470057159694e-002
      -1.3706882921497096e-002 -9.3518610327744556e-002
      -6.4481177118228001e-003 2.3612005610983953e-002
      -5.0542212696104913e-002 -1.0404512799170186e-001
      3.0535145279488106e-002 4.7551072771061832e-002
      -1.4491105648787866e-001 -3.9061050144211851e-002
      -4.3323052287203803e-002 1.6904471912658500e-001
      8.8878492226467889e-002 6.1298030990350375e-002
      3.0147956760219377e-002 3.0110187679473527e-003
      -4.1147707800296494e-002 -1.7140079847613357e-002
      4.9039345436406340e-002 -8.1967977113095891e-002
      -2.5095684678429948e-002 -1.0126144585473130e-002
      -1.6561323499017174e-002 1.8333929059967558e-002
      -4.0974111170047477e-002 -5.3840704042199553e-002
      4.7923546015715260e-002 2.3407028993461303e-002
      6.0414701866016503e-002 -4.9218570151439038e-002
      2.7730308494409318e-003 -2.6563177507401056e-002
      -4.9664771911729973e-002 -1.1130720887713245e-001
      1.1124822288874557e-002 1.0757569102834636e-002
      -9.0901598708528937e-004 8.3675928775894720e-002
      -2.8573932321660115e-002 -2.9027384382393648e-002
      6.7168575239363329e-002 -1.7928380143262652e-002
      -3.4216157573673557e-002 6.6691355992352930e-002
      2.7389071460199265e-002 2.4705424734112094e-002
      -2.3994324314021015e-002 -8.5225108195341265e-002
      1.9986511053374137e-002 -2.3883899380672407e-002
      6.0732318296068441e-002 -9.8404360432759505e-002
      -5.9910745328280290e-003 4.8845248142783057e-002
      -1.9635918563883764e-001 -1.6710742928552718e-002
      -6.9108072324816944e-002 -1.0156220618399096e-001
      5.6597654696293895e-002 -5.0769431167276783e-003
      1.3586913485470400e-001 8.5495604996208660e-002
      -4.9813691492036689e-002 -7.0136142531793011e-002
      -2.7109364641840120e-002 -2.8555832316015165e-002
      -5.0924228878071430e-002 -4.5171065174343357e-003
      -6.8197308994690843e-004 1.0077197133503663e-001
      3.9302116202869236e-001 -5.8990023736756429e-003
      6.7722460085839875e-002 -3.7172594615171119e-002
      6.9678824670148132e-002 1.2980828763040986e-001
      -1.0508110804506721e-001 5.5228696759928968e-002
      4.1325983072346570e-002 -3.6448412102067382e-002
      5.5596973898076898e-002 2.2087555712935584e-002
      -1.0091216112177281e-001 1.2580230271936099e-001
      -1.9272854421216994e-002 -6.9947501128126907e-003
      3.2535758381376761e-002 -1.7769988780993725e-002
      -5.7176934219477588e-002 -9.6322204194650374e-002
      -6.5570364367436670e-002 -5.5544260047225694e-002
      6.5507538793432449e-002 -8.5480931542608107e-002
      -8.9093086266347182e-002 -8.0441699555179602e-002
      1.5673216455854479e-003 2.9821843771025713e-002
      1.4124839315726025e-002 4.6528032924764125e-003
      -4.0655726041371590e-002 5.8280518127862044e-002
      -5.9689730188053604e-002 1.1492967504051264e-001
      6.1971692793554821e-002 8.2040483169928419e-003
      5.9232448091429048e-003 3.4469367523364242e-002
      -1.2372457447661539e-001 -2.3003485826704688e-002
      3.2908539248883741e-002 -7.4882165327975854e-003
      1.2273456170488800e-001 2.3749728988196269e-002
      6.8592745366532447e-003 -5.5170960682005173e-004
      3.2556793317667969e-002 3.5061184731010553e-002
      -3.9026670975905666e-003 1.1427072527452403e-001
      3.6526616905800884e-002 2.3003810089735396e-002
      8.9974249884807941e-003 -5.1636261022756411e-002
      -1.3664964268183468e-002 -1.2299677782595467e-001
      -5.9959248297428280e-003 7.9197745790589250e-003
      -1.0328827205861715e-002 -2.1997390371132176e-002
      -5.7011413717586910e-002 -7.3234476236306356e-002
      1.5868162636050992e-001 7.6529774117788135e-002
      -1.9495185379858906e-002 -8.0109662581133778e-002
      8.6553417418191822e-002 4.1918371896206064e-002
      1.7622334688942578e-003 2.6112848265827264e-002
      6.3984144642184493e-002 -5.5284428418070616e-002
      3.3966180415881370e-002 1.6876041094273302e-002
      7.7791279336539274e-002 -1.1505979513038596e-001
      -1.6677415257976416e-002 -8.8908716671410107e-003
      2.6933739664956716e-002 1.8482942611929364e-002
      4.6539462602967735e-002 -4.6221541139981670e-002
      6.3244764907359363e-002 6.2693762581719714e-002
      5.0305488122414721e-003 2.6928979271955335e-002
      -1.2015640433727544e-001 7.5931807480197301e-003
      1.6911556760727567e-001 6.3663489151560337e-002
      -1.6909551851895646e-002 7.9232956656850470e-002
      3.8552558827648388e-002 -5.6990215334439542e-003
      -5.8125548629026247e-002 3.0773839604645109e-002
      -3.7204986213215802e-002 1.2565513662100044e-002
      -4.8569838185300723e-002 1.6722462155585652e-002
      4.9050369433266260e-002 -3.3051961192290050e-002
      -6.7210057481256691e-002 -1.0035441760462230e-002
      -4.1251138737925526e-002 -3.3856859674870232e-002
      -1.6267420974241779e-002 -1.5571936394008326e-002
      5.8721098765232890e-002 7.5718941692328109e-002
      1.4732466440076574e-004 3.9608840351096707e-002
      -8.6092997189339993e-002 -7.6369311227088774e-003
      5.8738796078786204e-005 -1.2337552176223691e-001
      2.0346825999401519e-002 2.3813008191362450e-002
      8.1048262302942375e-003 5.4636470941931151e-002
      -8.1782115715775885e-003 2.8981763821050405e-002
      1.0081064277962487e-002 3.6667884136060980e-002
      1.5738317515264708e-002 1.3376837344978187e-001
      -8.0349312921648014e-002 -1.1388682660645745e-001
      -4.1806823236199657e-002 4.1307004846669465e-002
      3.9037964278600609e-002 7.8903436071479389e-003
      1.0718999217069722e-001 -5.6610675314787869e-002
      -1.1794472493386539e-001 1.5291512428546544e-002
      -5.3982575694576353e-002 1.9833866498715356e-002
      7.2494701577262136e-002 -2.0920286569933236e-002
      1.3612747423411937e-002 -1.0610139394261427e-002
      5.0611783838984827e-002 -2.8140692608816860e-002
      9.7558430175788968e-003 3.0623222768354458e-002
      1.6956972013710991e-002 -1.2610401816165294e-002
      1.3093016278787265e-002 2.7459907993363578e-002
      -3.8127074946129713e-002 2.3291226047713377e-002
      -3.6695083255252461e-002 -1.4316768974050929e-003
      1.0081932038401904e-001 1.3533160535821988e-002
      -6.6869737286655240e-002 1.9214007200585800e-002
      -6.1291973013845182e-002 8.6112104067001316e-002
      1.2470921452743561e-001 -6.8609697347971454e-002
      -8.5409452377411075e-003 1.3900459687212423e-002
      -4.9166682501051523e-002 5.1304424618830537e-002
      -1.0908855947196650e-002 1.1477563689713106e-002
      -2.0875496662683065e-002 -9.0955213474793892e-002
      1.7259263896681993e-002 -2.0109363432015949e-002
      -8.9285209766020612e-002 -4.2736348267708321e-002
      2.8518493364931900e-002 -1.7553769187688438e-002
      -3.0591603523693049e-002 -1.0407882456222491e-001
      -6.7469648263652985e-003 1.5770542509790500e-001
      -8.0476955922549453e-003 -3.9882931151060910e-002
      5.0874821276857649e-002 3.1816481749321918e-002
      -7.5992194180940234e-002 -3.4495930338826551e-002
      -2.1984549631135077e-002 1.7585012189686673e-002
      8.9303107949423727e-003 -1.4707364269912637e-001
      6.9724467418496250e-002 -8.4717716612349711e-002
      -4.7715592517438392e-002 1.9798182415191535e-002
      4.0135183607276602e-002 1.5536220307936228e-002
      -7.3532403879581029e-002 -3.8770985067586868e-002
      9.1433307376895145e-002 6.5899385260387952e-002
      -5.3158910837949568e-002 4.6431015244589743e-002
      -4.3254166110119535e-002 -1.4103873808710282e-002
      -6.7946985881855326e-002 1.7284938130471852e-002
      -1.1901298799420850e-002 -3.2038468272122748e-002
      -1.6472889403505386e-001 -8.1912076696115346e-002
      -3.8964938552162681e-002 7.2032615728731014e-002
      1.2336481047638875e-002 -5.1709120753464177e-002
      -1.8117087650268170e-002 4.8145624884217510e-002
      -1.4601181682976367e-003 2.3734534752557331e-002
      8.4762380492063805e-002 9.6281792213089648e-002
      9.0602212789796979e-002 3.1752105287137955e-002
      4.2812761891482851e-002 3.4290861982410839e-002
      -8.6098143898731411e-002 4.3602827679105588e-002
      4.6573754635772811e-002 4.5977647924603186e-003
      8.4236797668659033e-002 5.3076560514243164e-002
      -1.0502295883881570e-001 2.4751151706825736e-002
      -1.1474450566497832e-001 1.5325072923292496e-001
      2.2521531960248347e-002 -3.9849616106940766e-002
      -3.2335262060270015e-002 1.4075980628687923e-001
      7.8630680787874219e-002 8.1543999401353859e-003
      -2.5315386135412628e-002 8.1593874984493466e-003
      -4.5909067909306843e-002 6.5572402501728258e-002
      -6.2841298003631835e-002 2.1316192264093311e-002
      3.5216732444532731e-002 -4.0127823073483289e-002
      -7.2847078611832830e-002 -7.5668984611714743e-002
      -3.8732203578348279e-002 6.6301093793033686e-002
      1.1058718650680827e-002 -3.9240485138060041e-002
      1.0068002146525351e-001 -4.9830569469168180e-003
      -9.2478842099379760e-002 3.4555312281908730e-002
      7.2963447306749377e-002 -2.5926040004823580e-002
      -3.0911994440552336e-002 1.8149503002205025e-002
      1.3124768474852375e-001 -8.6774542587897754e-002
      -1.2492268399376666e-002 9.9888669690478729e-002
      -5.3012785657547870e-002 -1.6626973707816135e-002
      -2.1298641376741204e-002 1.7115011618100518e-002
      5.4240759386662014e-002 -6.4046955437411568e-002
      5.1571397987148883e-003 5.5718954994791139e-002
      1.2074088064668545e-001 1.5719014624861938e-001
      -9.8344359298280795e-002 -7.3996782205568143e-002
      6.0306945061834843e-002 -4.9922604208188798e-003
      -4.9139733130335671e-002 4.8620983258171824e-002
      -2.1751521361121546e-003 -4.8435791765904242e-002
      -1.8793472069310070e-002 4.3018430221388765e-002
      5.5773705462126802e-002 -2.7625885899593139e-003
      -1.1838097040141963e-002 1.2421014709726471e-002
      -9.2225405605104852e-002 -4.2546909053992219e-003
      1.4970194898476990e-002 -2.3368915167715984e-002
      -3.1884584379045892e-002 4.4383591961321738e-002
      -9.9027835898684302e-003 4.6704001850430546e-003
      2.3395733892849921e-002 4.2460040557630120e-002
      -5.3698582559102884e-002 -1.9428321031165523e-002
      5.1220187944222395e-002 -6.0339983627353908e-003
      5.7059889981487470e-002 6.6383292612973765e-002
      -4.9633566600216124e-002 -5.3058417859220788e-002
      -7.1415916283608910e-002 -7.9620437657169210e-002
      9.9058906026417287e-003 -1.9300501248438108e-002
      3.0404003127228473e-002 -2.6067625664587583e-002
      -8.8207293078503626e-002 9.5942533814407691e-002
      1.3981485572133816e-002 -2.7958641165204395e-002
      9.3957774383258738e-002 2.8840585317346720e-002
      -1.0066133350724024e-001 -3.8675598680262262e-002
      -1.1672293355662167e-002 -1.1110974620941869e-001
      9.5557273854519856e-002 -4.8327063136109336e-002
      3.1367683946481581e-002 -3.6218492665346949e-002
      3.9799603772720189e-002 2.2111019849840648e-003
      4.2847388201252078e-002 8.7839143935020014e-002
      -3.1207180679663992e-003 -2.6848240939025800e-002
      -5.9753972761873936e-003 -9.6613385737145466e-002
      8.2344179006291318e-002 -1.3008798546089237e-002
      -9.0221959191670511e-004 3.7403807391379156e-002
      -1.2319235815587760e-001 -5.8383094514318883e-002
      1.0969392769360537e-002 -1.9330837799098831e-003
      6.0352270123579252e-003 1.2009729112411166e-001
      5.7623452851423854e-002 9.1985897624746724e-002
      -9.3499537295023936e-003 5.0021525685893286e-003
      -8.9589196208147995e-002 -5.2582415476103067e-002
      3.8446973468646804e-002 1.4956711150915777e-002
      4.0460215632829678e-002 -4.7903150349186983e-002
      1.6055755540268196e-002 -7.4362324028129839e-002
      -3.0098557216789817e-002 2.6842008904586309e-002
      -7.8582007247344918e-002 -3.3869380784683094e-002
      4.9401625119229839e-002 -2.0349464849297855e-002
      -1.6520226485054634e-002 1.3200058114373525e-001
      4.3968269402900242e-003 -7.0171611376691423e-002
      -7.3267724634125527e-003 1.4169680525232053e-001
