<?xml version="1.0"?>
<opencv_storage>
<my_nn type_id="opencv-ml-ann-mlp">
  <layer_sizes type_id="opencv-matrix">
    <rows>1</rows>
    <cols>3</cols>
    <dt>i</dt>
    <data>
      192 192 25</data></layer_sizes>
  <activation_function>SIGMOID_SYM</activation_function>
  <f_param1>6.6666666666666663e-001</f_param1>
  <f_param2>1.7159000000000000e+000</f_param2>
  <min_val>-9.4999999999999996e-001</min_val>
  <max_val>9.4999999999999996e-001</max_val>
  <min_val1>-9.7999999999999998e-001</min_val1>
  <max_val1>9.7999999999999998e-001</max_val1>
  <training_params>
    <train_method>BACKPROP</train_method>
    <dw_scale>1.0000000000000000e-002</dw_scale>
    <moment_scale>1.0000000000000000e-002</moment_scale>
    <term_criteria><epsilon>9.9999997764825821e-003</epsilon>
      <iterations>5000</iterations></term_criteria></training_params>
  <input_scale>
    1. 0. 1.0563748373194460e+002 -2.5832366592254652e+000
    8.0289401749665316e+001 -2.9325527514398075e+000
    1.0966214147174648e+002 -3.1318267508756890e+000
    9.9043141984293797e+001 -3.1990158125172883e+000
    1.1244510725449686e+002 -3.1066431216204293e+000
    8.3488078694935183e+001 -2.9729379364809412e+000
    1.0598880212030049e+002 -3.0447649952768998e+000 1. 0.
    9.0128816639333849e+001 -2.9154051483209513e+000
    6.7687391836035147e+001 -2.8774747698424323e+000
    9.1568184087316027e+001 -3.2441912850968886e+000
    8.8466736421503043e+001 -2.8793828690485093e+000
    9.8607780370650119e+001 -3.4413982622567740e+000
    7.7239030820010498e+001 -2.8850203955563885e+000
    8.7215589932902915e+001 -3.1017606406007232e+000 1. 0.
    8.4415589594475023e+001 -2.6487807643970851e+000
    6.0962466433918848e+001 -2.6741226909126921e+000
    8.3484174116597316e+001 -2.8078046108769121e+000
    7.5585366643523443e+001 -2.3476174154914817e+000
    7.8252158171111247e+001 -2.4686370044652102e+000
    6.5112917559738293e+001 -2.4514988720388109e+000
    8.1298292491686169e+001 -2.7903385647606811e+000 1. 0.
    8.5185125484005951e+001 -2.6341351589093653e+000
    6.8508781477296154e+001 -2.8741661322309251e+000
    8.3651968967292433e+001 -3.0131417947075088e+000
    7.5097606224020780e+001 -2.4791083007608936e+000
    7.1748545682488924e+001 -2.5385551649256102e+000
    6.7335072440185115e+001 -2.5867445820705224e+000
    7.9116047299261936e+001 -2.7922720411834674e+000 1. 0.
    8.2000268370647831e+001 -2.5913407313316110e+000
    7.1194359740140797e+001 -3.1094197618075370e+000
    8.5088608696095719e+001 -3.0674814571235380e+000
    7.5803026967463424e+001 -2.4580314808376529e+000
    7.3455847514944622e+001 -2.5659227849111494e+000
    6.7615120884210555e+001 -2.6156373121715353e+000
    7.9979571911694364e+001 -2.8052053839306934e+000 1. 0.
    7.6531390246145151e+001 -2.5265721443855269e+000
    6.5747980231379358e+001 -3.0564840148788135e+000
    7.7388904687243425e+001 -2.7029683312596195e+000
    7.1628075365866920e+001 -2.2864319368306707e+000
    7.3543479648455246e+001 -2.3408278035670627e+000
    6.3451531843899026e+001 -2.4080809495452260e+000
    8.0748736707986140e+001 -2.7073791176605666e+000 1. 0.
    7.5229736637936327e+001 -2.5313940176665093e+000
    7.0550717448408008e+001 -3.2786154763259043e+000
    7.0576736992581147e+001 -2.6290903052903225e+000
    7.9274071395947786e+001 -2.6075387020556975e+000
    6.1271749401310998e+001 -2.2141124249160504e+000
    6.9831042492815513e+001 -2.5131842080699642e+000
    6.7365497919200180e+001 -2.3736491000195494e+000 1. 0.
    9.5392616041330299e+001 -2.4052111957922628e+000
    8.0518155299508436e+001 -3.2349594723567545e+000
    9.1395784251821084e+001 -2.6716994082971670e+000
    8.9073590004155847e+001 -2.8718895536886802e+000
    7.5204143001404063e+001 -2.1513170223492444e+000
    6.8165175197997712e+001 -2.3486182099592061e+000
    7.1752473019722117e+001 -2.0561684359437322e+000
    1.3059988863123914e-002 -1.3149465458822949e+000
    1.4439919382818718e-002 -1.6068701857426397e+000
    1.2803541294622986e-002 -1.3011491290913735e+000
    1.1174434181116834e-002 -1.1185993015833782e+000
    1.1405936925398005e-002 -1.1149663772183391e+000
    1.3857081217277883e-002 -1.2883915031885917e+000
    1.4850041332109969e-002 -1.3867360637015456e+000
    1.2879986994153415e-002 -1.0855747630173074e+000
    1.3553338554977243e-002 -1.6194119831047806e+000
    1.5732086225805325e-002 -2.2472190220361590e+000
    1.3693507282212195e-002 -1.5204782997309174e+000
    1.2119502729709745e-002 -1.0648485966388495e+000
    1.2088087485131615e-002 -1.0925667981151395e+000
    1.3488101339820310e-002 -1.5456263506364747e+000
    1.6157528725362452e-002 -2.1696691501060150e+000
    1.3524477365924005e-002 -1.3409952091589359e+000
    1.4116656316101116e-002 -1.7703433292883666e+000
    1.4935966144313402e-002 -2.1274407815226715e+000
    1.6235715166487735e-002 -1.3776952484530567e+000
    1.7031900479061453e-002 -7.9755144118097232e-001
    1.7331237474880287e-002 -8.5242166371300898e-001
    1.6446655832007499e-002 -1.4749716197910296e+000
    1.4456744470967781e-002 -1.9865035708347980e+000
    1.4646876038990436e-002 -1.5358116621942979e+000
    1.3313809877729102e-002 -1.6818111148026424e+000
    1.4128708189931900e-002 -1.9146891901482428e+000
    1.4710978857098485e-002 -1.0701536875945550e+000
    1.5643263288746719e-002 -6.5863832593460792e-001
    1.5567284291046337e-002 -6.8314660884044609e-001
    1.5014461092792700e-002 -1.0792598830170255e+000
    1.3766661078011349e-002 -1.6740122204251020e+000
    1.3300882833899703e-002 -1.3614741105954666e+000
    1.2837002562171384e-002 -1.6002258227533157e+000
    1.4253417551267876e-002 -1.8836296091058953e+000
    1.4055303329564738e-002 -1.0453255169234541e+000
    1.3130336457312139e-002 -7.1202453241870656e-001
    1.2835735417919271e-002 -7.1247984042486234e-001
    1.4233125046714369e-002 -9.7236041854137256e-001
    1.3717684107370589e-002 -1.4168792892778292e+000
    1.2403114379875043e-002 -1.1308936435511228e+000
    1.2725016640098267e-002 -1.5424420230022216e+000
    1.4215602477611725e-002 -1.8508202664161273e+000
    1.4959935699479763e-002 -1.1519575350773283e+000
    1.2122343686896403e-002 -8.0318721630021017e-001
    1.1853687681667297e-002 -7.8567901470366286e-001
    1.4951216369433713e-002 -1.0336092841976559e+000
    1.3260659888565882e-002 -1.2476843499608574e+000
    1.2031640674338328e-002 -9.8220250518398255e-001
    1.2594140342771096e-002 -1.4685744944961698e+000
    1.3586329980332816e-002 -1.7959796773661911e+000
    1.5150088735082520e-002 -1.3424051245565556e+000
    1.2650866797743104e-002 -1.0734655184929114e+000
    1.2467559639621819e-002 -1.0630913558870572e+000
    1.5311893426844339e-002 -1.2809378812734609e+000
    1.3332244559520401e-002 -1.3113809064657218e+000
    1.2456917000782164e-002 -9.6627707243051209e-001
    1.2236504479896890e-002 -1.3786649340419188e+000
    1.2655834259554894e-002 -1.7302008696586761e+000
    1.2900469091382863e-002 -1.3871920855652722e+000
    1.1891763469509894e-002 -1.3146173274149227e+000
    1.1760468021269252e-002 -1.3443165194126874e+000
    1.2796339156079648e-002 -1.4016751614073275e+000
    1.2880984537952063e-002 -1.4418340347344272e+000
    1.2559942825513277e-002 -9.8235332020043498e-001
    1.2090406441375342e-002 -1.3419001860567772e+000
    1.2292486082640290e-002 -1.6406279641067825e+000
    1.2875146093596721e-002 -1.2998191289784007e+000
    1.1978371692393269e-002 -1.1882578258294862e+000
    1.1890457291504916e-002 -1.2389994427052704e+000
    1.3417815810898535e-002 -1.3676833327312121e+000
    1.3022582024517592e-002 -1.4097132566721446e+000
    1.2410216949543924e-002 -9.5554947446403349e-001
    1.2061227910053195e-002 -1.3388329641487511e+000
    1.2895923836545774e-002 -1.6631584103299146e+000
    1.4303432665130835e-002 -1.1779786498052744e+000
    1.3034443873794363e-002 -8.9399496610519880e-001
    1.2552463108309287e-002 -9.3162473215479058e-001
    1.4384919016248891e-002 -1.1460142758059528e+000
    1.2595482183015930e-002 -1.2493892061920597e+000
    1.1939547018126355e-002 -9.5208240315567028e-001
    1.2051626832507963e-002 -1.3516502073999306e+000
    1.3654377082387911e-002 -1.7714839274636767e+000
    1.4513974411977069e-002 -1.0841602161540513e+000
    1.3353300407068117e-002 -7.2526635112135118e-001
    1.2798174421230468e-002 -7.7446821499936369e-001
    1.3389315307642549e-002 -9.9950810313461791e-001
    1.2462371253424032e-002 -1.2687765699913458e+000
    1.1514876738141725e-002 -9.9810260673608187e-001
    1.2645765896821525e-002 -1.4788201438448310e+000
    1.4600422719171014e-002 -1.9700934391886216e+000
    1.4610806796556316e-002 -1.0814708795193113e+000
    1.4146728744612919e-002 -6.8997104476205873e-001
    1.3598507390084601e-002 -7.4915373880626390e-001
    1.2982841791994260e-002 -1.0020863561654654e+000
    1.2306111156313760e-002 -1.3618075511577294e+000
    1.1316859187773297e-002 -1.0494367968980634e+000
    1.3427690791288738e-002 -1.6860168419655346e+000
    1.5467522263128168e-002 -2.2416108655553528e+000
    1.5197792007140096e-002 -1.1813438258887687e+000
    1.4094642381071148e-002 -6.6381142572144114e-001
    1.3800700535780414e-002 -7.2347246810315236e-001
    1.3179154813405708e-002 -1.0774628561023687e+000
    1.1756578780864583e-002 -1.4252345269202227e+000
    1.1847447302579426e-002 -1.1112114160339688e+000
    1.3400493632118137e-002 -1.6638192258771654e+000
    1.5131655639834471e-002 -2.3063851106103379e+000
    1.6317106714989708e-002 -1.5116924774518039e+000
    1.5073825340447003e-002 -8.5659725785651375e-001
    1.5266249724829452e-002 -9.2357330130280924e-001
    1.4784945528390865e-002 -1.4186876739832821e+000
    1.1870782482372211e-002 -1.5691783185989128e+000
    1.3705430027056664e-002 -1.2216060946016416e+000
    1.2745922697039029e-002 -1.3860849342301664e+000
    1.4991606810572235e-002 -2.1706947165299963e+000
    1.3140678267132538e-002 -1.5452796377048428e+000
    1.1695136482744182e-002 -1.1597425956458149e+000
    1.1773781210573210e-002 -1.1894222282844891e+000
    1.2717871073987473e-002 -1.5187340797611057e+000
    1.3431991809118917e-002 -1.7572784752847204e+000
    1.3740100680371419e-002 -1.1289394338859282e+000
    1.2697065208904549e-002 -1.0905768328058378e+000
    1.4214194237145887e-002 -1.5314446784911013e+000
    1.2559469588690548e-002 -1.3750177638728107e+000
    1.0415632415483969e-002 -1.2151580872654886e+000
    1.0435378317246663e-002 -1.2106967305919156e+000
    1.2380318246103790e-002 -1.3052034697118993e+000
    1.3641635078166445e-002 -1.3113867500262342e+000
    1.2503267761334261e-002 -9.0693352942116878e-001</input_scale>
  <output_scale>
    5.2631578947368418e-001 4.9999999999999994e-001
    5.2631578947368418e-001 4.9999999999999994e-001
    5.2631578947368418e-001 4.9999999999999994e-001
    5.2631578947368418e-001 4.9999999999999994e-001
    5.2631578947368418e-001 4.9999999999999994e-001
    5.2631578947368418e-001 4.9999999999999994e-001
    5.2631578947368418e-001 4.9999999999999994e-001
    5.2631578947368418e-001 4.9999999999999994e-001
    5.2631578947368418e-001 4.9999999999999994e-001
    5.2631578947368418e-001 4.9999999999999994e-001
    5.2631578947368418e-001 4.9999999999999994e-001
    5.2631578947368418e-001 4.9999999999999994e-001
    5.2631578947368418e-001 4.9999999999999994e-001
    5.2631578947368418e-001 4.9999999999999994e-001
    5.2631578947368418e-001 4.9999999999999994e-001
    5.2631578947368418e-001 4.9999999999999994e-001
    5.2631578947368418e-001 4.9999999999999994e-001
    5.2631578947368418e-001 4.9999999999999994e-001
    5.2631578947368418e-001 4.9999999999999994e-001
    5.2631578947368418e-001 4.9999999999999994e-001
    5.2631578947368418e-001 4.9999999999999994e-001
    5.2631578947368418e-001 4.9999999999999994e-001
    5.2631578947368418e-001 4.9999999999999994e-001
    5.2631578947368418e-001 4.9999999999999994e-001
    5.2631578947368418e-001 4.9999999999999994e-001</output_scale>
  <inv_output_scale>
    1.8999999999999999e+000 -9.4999999999999996e-001
    1.8999999999999999e+000 -9.4999999999999996e-001
    1.8999999999999999e+000 -9.4999999999999996e-001
    1.8999999999999999e+000 -9.4999999999999996e-001
    1.8999999999999999e+000 -9.4999999999999996e-001
    1.8999999999999999e+000 -9.4999999999999996e-001
    1.8999999999999999e+000 -9.4999999999999996e-001
    1.8999999999999999e+000 -9.4999999999999996e-001
    1.8999999999999999e+000 -9.4999999999999996e-001
    1.8999999999999999e+000 -9.4999999999999996e-001
    1.8999999999999999e+000 -9.4999999999999996e-001
    1.8999999999999999e+000 -9.4999999999999996e-001
    1.8999999999999999e+000 -9.4999999999999996e-001
    1.8999999999999999e+000 -9.4999999999999996e-001
    1.8999999999999999e+000 -9.4999999999999996e-001
    1.8999999999999999e+000 -9.4999999999999996e-001
    1.8999999999999999e+000 -9.4999999999999996e-001
    1.8999999999999999e+000 -9.4999999999999996e-001
    1.8999999999999999e+000 -9.4999999999999996e-001
    1.8999999999999999e+000 -9.4999999999999996e-001
    1.8999999999999999e+000 -9.4999999999999996e-001
    1.8999999999999999e+000 -9.4999999999999996e-001
    1.8999999999999999e+000 -9.4999999999999996e-001
    1.8999999999999999e+000 -9.4999999999999996e-001
    1.8999999999999999e+000 -9.4999999999999996e-001</inv_output_scale>
  <weights>
    <_>
      -9.4774394706927459e-003 -9.7805219828911334e-003
      -2.0921956870595290e-004 2.4404954239721638e-003
      1.7826149343995246e-003 -4.0739546956759512e-003
      -1.8086671299757412e-003 4.9711256335304189e-003
      -8.0258741567577879e-003 3.8228825866447661e-004
      -1.9748438002816318e-003 -4.5561885684176637e-003
      -2.9975330284229564e-003 3.1486997294390825e-003
      7.1306952547383750e-004 -2.2670657843549533e-003
      5.0370871195420316e-003 8.3227771892789831e-004
      -2.5485483660139530e-003 -2.5002280115775491e-004
      -5.0968104100118641e-003 4.2008445609326983e-003
      -7.5285901558527447e-003 6.1644744656508691e-003
      -3.8553584354916290e-003 9.6616773526332304e-003
      5.0609761704699793e-003 -1.1293055072537396e-003
      -7.9841650000755451e-003 5.1188453096344174e-003
      7.0869217660411872e-004 -9.1729505242223470e-003
      7.5197821958013266e-003 3.8650389908641497e-003
      -1.3554520088649265e-004 6.9280949925869563e-003
      -7.7265310219992315e-003 2.4390471210455505e-003
      -4.6105022292075868e-003 -4.1998577343580054e-003
      -7.7206269581526739e-003 9.9766978577998551e-003
      4.2544577578334328e-003 1.3754517380714702e-003
      7.1796435332770539e-003 -3.6314002586833017e-003
      7.1302042362966882e-003 5.9848411933615987e-003
      -8.7012957274677314e-003 -7.1911688818492407e-003
      3.5753906382966408e-004 -7.8206324736721719e-003
      7.7840334160302673e-005 -9.7247046973899017e-003
      6.5906532945043820e-004 -6.6883423836866093e-003
      1.0267470172397101e-002 2.4589843309896263e-003
      4.2177802259136879e-003 -2.5745004564537138e-005
      -9.1245559952410783e-003 4.6682843740123679e-003
      -3.2086970244528438e-003 -8.6643351054055979e-003
      -4.4314902091338479e-004 -8.0917907515533228e-003
      -4.7106191796082537e-003 5.4813280656156316e-003
      -2.1113643434525519e-004 -7.1603200584857002e-003
      -1.9313744214374390e-003 8.0881452445791969e-003
      -5.7626970373238790e-003 3.2385791708325500e-003
      -9.0264538523999859e-003 -8.3071699634805346e-003
      6.7234290194826728e-003 -5.2206927062768763e-003
      9.4966577799442207e-003 -7.4237071929381592e-003
      -5.7398595433081779e-003 -2.0103225189369886e-003
      8.8759822239327171e-003 1.3590891472343594e-003
      4.2237535617746019e-003 2.9836713601291928e-003
      3.5702107009188372e-003 1.8901887388650806e-003
      9.1388047665465610e-003 3.8644142153306856e-003
      -8.5457007598703349e-003 4.4538058287786611e-003
      9.4856801867413357e-003 2.8557089696693398e-003
      2.8982475581529957e-003 -6.1692684888342113e-003
      7.3143594555870918e-003 -4.1482498175634524e-003
      3.3752444836027528e-003 -7.4452395656556397e-003
      -6.1845268364962300e-003 6.0264122627934659e-003
      -8.4815390293495399e-003 4.0147813343026474e-003
      4.3837645794166848e-003 3.8368163650613590e-003
      -8.6385474387302586e-003 -9.9415775626384446e-003
      7.5109333721571385e-003 -9.5411738712115005e-003
      -3.4234751243589117e-003 -6.3589078712151977e-003
      -7.7230079999872818e-003 -5.1571929445438803e-003
      3.8867623092827793e-003 8.4313922739099843e-003
      -6.6865057053254783e-003 -2.5348848451417455e-003
      3.7118882088317934e-003 -6.6618591861344672e-003
      -7.3443811874468953e-003 -2.5576058866699451e-003
      3.1610320554713066e-003 6.9403163434145062e-003
      9.1255242269702667e-003 -8.7392895667056745e-003
      -7.9585156868439556e-004 -5.2494145688038851e-003
      -8.0898733159987697e-003 2.1927887959098463e-004
      -9.8332158042401651e-003 -8.9059142405920142e-003
      8.9704192336094463e-003 2.2753640837821255e-003
      1.4789415735889002e-003 -7.5156762652871627e-003
      -8.5957154756025871e-003 -4.2846266567992753e-003
      5.1558259987878521e-003 3.7180267592480453e-004
      -8.2661007363254188e-004 -9.5016089234157570e-003
      5.4214194731074770e-003 7.5946995821700438e-003
      -9.5358673566572887e-003 4.0276062510767128e-003
      -7.9922091987431089e-003 -1.9233252445361767e-003
      -6.0736589670730761e-003 6.9899055328251835e-003
      1.0045558859734034e-004 -2.3930381159207072e-003
      -6.1498343560791027e-003 9.1869368739552031e-003
      -5.0312480841038214e-003 -5.0576352806115795e-003
      -7.1358628471272483e-003 -9.6478922676524886e-003
      2.1329996454838495e-003 2.7190032651601965e-003
      5.2443130122763418e-003 -9.0053141158247044e-003
      -3.2104946150842092e-003 3.3401647501044088e-003
      2.8177639379689343e-003 -4.4751893211692527e-003
      3.0455839087828742e-003 -6.5405593841857722e-003
      -2.0932315025789963e-003 3.7954907859074397e-003
      -5.4419576138871415e-003 -1.0389572524830911e-002
      6.9966178861906715e-004 7.9927233867555635e-003
      5.0507399638574776e-003 -6.1690568077717610e-006
      -3.3827172239549036e-003 -1.0073950853355173e-002
      -3.8259064801943474e-003 -1.0450919271156848e-002
      -9.7928840153109192e-003 8.5487957745100859e-003
      -2.5400033143762779e-003 5.0165710185769690e-003
      7.8777970024318956e-003 4.8212059431027281e-003
      -3.7233622833704092e-004 -9.1814154631758571e-003
      -1.7251515388112776e-003 -5.2734601102399341e-003
      -5.3371935619845223e-004 -4.0506534619315126e-003
      1.0404027219574462e-001 -4.6598881167913345e-002
      7.9024593218688072e-002 -2.8867970997134985e-002
      -4.0637738350624064e-002 -1.1479013818857522e-001
      3.6381759899273572e-002 -3.8053649296707062e-003
      -2.9998521200429167e-002 2.1652360190122181e-002
      -3.7838983618305233e-002 -8.8347747163691620e-002
      -1.3935110921456928e-001 -7.7414330241430976e-002
      -2.1525143253633781e-002 -1.1048620211653341e-001
      -4.4092628769228960e-002 5.0645367001074512e-002
      5.0723507295401156e-002 2.2355486284199862e-002
      -8.8768704291244865e-002 -9.4957894204254822e-002
      -7.1062759905078654e-002 -5.1465067140484391e-002
      3.8788753604416373e-002 6.4301891701396510e-002
      4.8032339904215994e-002 -1.0787778079405842e-001
      1.4213199041740747e-002 8.3451707307120288e-002
      2.4193214931127867e-002 -5.3092785148727638e-002
      8.7198259196599209e-002 -4.7394267910470626e-002
      -3.5014802531461907e-002 -5.1313837060099399e-002
      -3.4190529620690024e-002 1.1271614581015747e-001
      -5.3983178695198877e-002 2.8787200037604755e-002
      4.0577365293977506e-002 9.3833261662812820e-002
      6.3125941044047035e-002 5.5542951018622798e-002
      3.7580671387110312e-002 -8.6536630781399948e-002
      -8.6719031096016558e-002 -1.3727011802906816e-002
      9.4379312224607357e-003 -2.2366450388380044e-001
      -8.0257756018693102e-002 -1.5672311029675652e-002
      -5.2246923579564543e-002 -1.0587413917058154e-001
      -1.9167956900540354e-002 4.8019088808125467e-003
      -6.8466094954888632e-002 -2.1933475741851633e-002
      3.6989392967019898e-002 -7.4028810360496841e-002
      4.5931135685267167e-002 2.9082909698987143e-002
      -9.3170223775010858e-002 3.7842333370993055e-002
      6.3602706917497698e-002 1.5810330605409198e-001
      -8.8061348174931484e-002 4.6122561893395489e-002
      1.0306357691595487e-001 -1.0172903638231846e-001
      -2.1833809586733987e-002 -2.5987889957305325e-002
      1.7463842093189692e-002 2.3170666918256755e-002
      -8.9046451687497474e-002 9.1325676223781224e-002
      8.3861531372900755e-002 4.7587408978800497e-002
      8.0167817819940229e-002 9.8762711213668822e-002
      8.0388057393784060e-002 -7.6165357597675634e-002
      -2.9687507196743457e-002 1.2441231404623648e-001
      1.9129512188217342e-002 1.7182713029936156e-002
      -2.0023500321792526e-002 1.7006833043533259e-002
      5.5539674468633879e-002 6.5660242131658345e-002
      1.0828051175565548e-002 -4.2981261023770478e-002
      6.2900233444287696e-004 9.3623942918762720e-002
      5.6020612289668318e-003 -8.3608999753559010e-002
      1.0715516621533732e-003 2.3406198437817969e-002
      3.1959968957858090e-002 5.5807711901280149e-003
      9.5172642523898808e-003 4.7669476960084363e-003
      7.3261383307951780e-003 1.5151750504113395e-001
      4.0177912188226972e-002 -1.3094076986480249e-001
      -4.6327169832997915e-002 5.6283685706140146e-002
      -1.6946050624290093e-001 8.1798134796187361e-002
      -6.9342410369283417e-002 -8.1270879505404833e-002
      4.4182292531771139e-002 4.8363403170187860e-003
      3.9376561027026948e-002 4.3002916734755120e-002
      2.6364233523893488e-002 6.8423788942804500e-002
      2.1503214983758335e-002 -8.6241006184198790e-002
      -1.3663457522948505e-001 -6.6224363998083097e-002
      6.4633974727446059e-002 1.1375983755037899e-002
      6.1593127796693105e-002 7.0803813960858122e-002
      -1.0254966896673832e-001 -8.2250870806190882e-002
      -1.0439862986779705e-001 5.6991081393695221e-002
      1.2234360290482884e-002 1.6885678744040553e-001
      1.5763101327193465e-002 -3.9638649928331028e-002
      3.0503564182564918e-002 -2.6456284725584086e-002
      -2.8770467236077082e-002 -6.1402105464476678e-002
      4.4939177832805210e-002 -1.7525769334099631e-001
      -2.0430122818134761e-003 -9.6477126605516106e-002
      1.2606644641105292e-002 -1.0632680050325931e-001
      5.1108365242468430e-002 6.6123219587051418e-002
      -2.2604696975724791e-003 2.5893819808781162e-002
      7.4582605884313868e-002 1.2512894603786687e-004
      -7.3477872911764566e-002 1.3610190971335479e-001
      -2.9054188248685994e-002 -5.6495139085056802e-002
      -3.7705568090065839e-002 3.1782689267192479e-002
      -4.9959065097753962e-002 -3.3926951183926565e-002
      7.3105492993688542e-002 -7.3377880601986897e-002
      7.8044036120205901e-003 -1.5184836369656951e-001
      -2.9890760596753076e-002 -6.9982775433953481e-002
      1.3203992759083970e-005 -4.2733851311388772e-002
      -5.4378756010249718e-002 -8.8970395587298218e-002
      3.0640867645826724e-002 4.4094337690325787e-002
      -8.4959726001970673e-002 -4.6879222576492213e-002
      8.5135587328387344e-002 -1.8284812807286208e-002
      -3.2067310600379026e-002 -5.9574503921465100e-002
      1.8333456087969786e-002 9.1644358731574241e-002
      1.6008534957885151e-002 4.7138785663388617e-002
      5.1655043565497230e-002 -8.2859979767206202e-002
      1.1665085379940869e-001 -4.8293234142343044e-002
      -2.5201803667581027e-002 -3.5467624577509876e-002
      -1.2446628563706087e-001 -2.9423919772515177e-002
      3.6763938001313883e-002 3.7130628225608447e-002
      -7.9571850392336524e-002 -2.9020755060241890e-002
      -2.3352087317365791e-001 8.4982605166592229e-003
      -3.6056813089089994e-003 -5.6176900861340036e-002
      -4.8065823018374670e-002 -7.3350957103029607e-002
      2.3727318871918392e-002 -4.2479481308600242e-002
      -6.4213748434384810e-003 -1.0862801114734143e-001
      2.6596408572724830e-003 -4.9536430036061507e-002
      -8.3070404688176641e-002 -1.5743908731019045e-002
      2.5883332280156445e-002 -1.1114396610840821e-001
      -1.5303483713668924e-002 -8.7726151226563513e-003
      -6.4374198236951527e-003 2.1878018586799081e-002
      -9.2682117186761767e-002 -3.7305961985427474e-002
      -4.0093710169277770e-002 -3.2630590137945198e-002
      1.3812048498282378e-001 -2.6408194651716843e-002
      -1.3967354987076104e-002 6.2832541315885379e-002
      -2.6922824391810710e-002 1.8746497280236481e-002
      1.4709612585392081e-002 -9.7069108224771605e-002
      4.1666693032127500e-002 -6.8462090449065816e-002
      -9.9308027363703449e-002 3.2846752400041278e-002
      2.5791172129319331e-002 7.6130112373812925e-002
      -4.1219116846708315e-002 -1.7921797438822520e-002
      1.4904307931456187e-001 1.7346109124869501e-004
      -9.0286270425179657e-003 1.0288833552630825e-002
      4.8843748893274835e-002 -5.6986112835128805e-002
      -5.6294907128782899e-002 2.7631760380117791e-003
      4.3839484994573318e-002 1.6311011217267794e-002
      -6.6116633931785740e-002 -5.9337093174833188e-003
      -1.9991414093968558e-002 -6.8505948188850155e-002
      -8.7333386503799064e-003 -5.6459678676266833e-002
      2.3014482012458922e-002 -4.1082017856321346e-002
      9.4280984924715094e-002 2.0599295592532596e-002
      3.3529131513963188e-002 5.8803000093189013e-003
      -8.5073637632907220e-002 1.0144336861220256e-001
      -1.1812864839100558e-003 1.0739116379588869e-001
      -7.6494888531336109e-003 3.1527715511217178e-002
      4.8698426504594550e-002 -3.4354877671784266e-002
      -2.7350752098642187e-002 1.5986753441955080e-002
      2.6459543446348092e-002 -1.1958546540481696e-002
      -1.2462826502744657e-001 5.8093915634643166e-003
      2.0682983986527407e-002 2.4228970748527548e-002
      1.4631245973035691e-002 6.2007921412952312e-002
      6.3008182269040980e-002 -3.1656207322508859e-002
      -6.5127026772659649e-002 2.9600211049389522e-002
      9.2163307191581986e-002 3.0136773352748454e-002
      -2.3842268380421808e-002 3.7938175213785390e-002
      -3.1060544799441640e-002 4.3450793622950769e-002
      2.6820777075848997e-003 -4.1768091137447144e-002
      -6.3211585194224325e-003 1.0511507381471062e-001
      -5.3218665662875114e-002 -2.6522149693700394e-002
      2.5485974172190801e-002 4.7016449646114768e-002
      3.7711404727209283e-002 2.1098644117052237e-003
      -8.3427275548051821e-002 7.6098234341263928e-003
      7.9383347302605295e-002 1.1244427664039512e-001
      3.8186139661364284e-002 -4.5600471362313134e-002
      -1.2505164392681992e-003 -1.0538912660246605e-002
      -1.2443131244844104e-001 2.9311650469581729e-002
      -9.0692949014191782e-002 -4.4134111740801861e-002
      -3.5307522227409509e-002 -6.0254468401970121e-003
      5.6965604835031373e-002 3.5911310491911978e-002
      2.0115244368837872e-003 5.9387089360250153e-003
      1.5505925276373822e-002 -9.6780725091640554e-002
      -1.8440411965955309e-002 -3.7519046448343425e-002
      8.1614189376900986e-002 3.0562297452859613e-002
      2.1446958521327341e-002 4.1394340478917754e-002
      -1.0172803880288145e-001 -8.5989875327830909e-002
      -5.1983168228394661e-002 -1.8257891715067080e-002
      -4.6351215577199005e-002 1.3636911468348278e-001
      -1.6056577078192861e-002 -3.2858146733864479e-003
      -1.6867705412792370e-002 3.1338601150291308e-002
      -5.0100119205753518e-004 -1.3260976617567647e-002
      9.8849735758422291e-002 -1.1162514776967401e-001
      -7.8331022175286997e-003 -4.3771209852795111e-002
      1.8352796741124101e-002 -1.2616318092633530e-001
      1.1125701136106195e-001 -8.7994656210404754e-003
      -8.5434191017490675e-003 2.4174150442136454e-002
      4.3820784430342406e-003 -1.1801618472378345e-001
      -6.1867488310015012e-002 9.2292647041177317e-002
      -9.9400200207988409e-003 -6.6085173134775542e-003
      -9.4312742431079205e-002 5.2132232215299862e-002
      2.8811400459105990e-003 -5.1743852930697304e-002
      5.4457550486306718e-002 -7.0452019850505462e-002
      -3.6875307434274425e-002 -9.0956657060663679e-002
      -2.4650018263789684e-002 -3.6450941789570386e-003
      -1.9233977713782411e-002 6.5412919323476716e-003
      -4.4919971011984597e-002 3.5319514110248615e-003
      1.0959386179025159e-002 6.8170617983282999e-002
      -3.1039726303777399e-002 -1.9620978615175699e-002
      7.1428108104211782e-002 5.8337652714491066e-003
      3.6742121237803980e-002 -2.9857998715410706e-003
      -2.6954510738410407e-003 4.9421828705043268e-002
      -1.5395161906821744e-002 5.8342111351048914e-002
      1.0057177378650030e-001 3.0863613168088541e-002
      8.6267099760302373e-003 -9.3332589445081160e-002
      -3.7319162344762444e-002 -3.4186734291147421e-003
      -4.5951621419118828e-002 -1.4610021574725365e-002
      2.0500662052375034e-002 4.4584694025703690e-003
      2.0933923861941373e-002 -4.1949175549776521e-002
      -1.2131069639303187e-001 -7.4186649781214489e-002
      3.9784339490759657e-002 -3.7884727244089471e-002
      -7.8712696285822715e-003 -1.1888702454941567e-001
      1.8282916159374836e-002 3.0005762213840052e-002
      9.5606142806908267e-002 -7.4919684731389144e-002
      3.3240341827480736e-003 -1.2430059176257552e-001
      -4.0022352569769548e-002 -6.0873953130829876e-002
      4.8225862137129955e-002 -9.4555722757953889e-002
      -6.5284032537054658e-003 3.1289436171858163e-002
      -2.9179198536245718e-002 4.4637376277012197e-002
      -3.7001528668519329e-002 -2.5215765581299752e-002
      2.7641360348312251e-004 -4.6200777461038360e-003
      7.4807885878759875e-002 9.6548607596425515e-002
      7.2961439752999999e-002 -4.8705828438039354e-002
      -8.1352032333029539e-002 6.6377874955222899e-003
      -4.9815296730214209e-003 -5.7659176402462028e-002
      4.7600540634187345e-002 -1.1372881373545174e-001
      6.4209936329339655e-003 -5.0583914874970493e-002
      -3.8351412569350230e-003 1.1361447804689030e-001
      -4.0787897856607455e-002 -2.1621165804464978e-002
      8.8352781427171734e-002 -1.7790127524905781e-002
      2.2446765354589275e-002 3.3857550689688418e-002
      -3.7150345796786742e-002 -5.1848710109665588e-002
      -7.6990410942822829e-002 5.5135603401398149e-002
      3.1256609438020513e-002 5.0713124167117256e-002
      -4.1627969345675593e-002 1.7416213381776943e-002
      5.9920466006759016e-002 -2.6494269329966902e-002
      -1.3646053278146244e-002 -3.5109349676606061e-002
      -1.1227292263976030e-002 -8.1035753237565289e-002
      6.7360252749933611e-002 1.1556606108664439e-002
      1.1600898672736922e-002 -1.7533208162123264e-002
      -1.0041706459054536e-001 1.6890154661188669e-001
      5.8622798615650770e-002 1.3639744313644461e-001
      -1.1471016732690912e-002 2.6956719589799630e-002
      5.0988068643041097e-002 -7.6558875352850206e-002
      -3.6987440196992669e-002 -5.8029647711298361e-003
      -6.0877826502644568e-003 3.3640875602642513e-002
      -5.9130067887714785e-002 -4.3579793457535605e-002
      6.4179855275429118e-002 2.5380239984203634e-002
      4.8238070756290968e-002 -3.3951416089101551e-002
      1.1920619437621421e-001 -6.0943199623358802e-003
      -6.5733050508089780e-002 6.7849383796769663e-002
      8.0795176845418162e-002 -2.9399534422875344e-002
      -1.1101696729837655e-002 6.5881675234828629e-002
      -5.5127405435812342e-002 -7.4088489148401646e-003
      -1.4783645720979640e-002 -5.2618761668708589e-002
      -3.6468691872000025e-002 1.0813240287093163e-001
      -8.0056517037731326e-002 -7.6467400029577401e-002
      1.2030900221597461e-002 4.0645886976391418e-002
      7.5450000499322462e-002 1.4793088796235049e-002
      -6.7647519888830568e-002 3.7636061724504524e-002
      7.2540703463374212e-002 4.2427115715494616e-002
      6.0449993095874170e-003 -4.0136269524995903e-002
      -2.8935272735632091e-002 -2.0947661505462799e-002
      -2.9716729074040292e-002 2.1437097903967368e-002
      -1.5145125373099330e-001 -1.0176811961622806e-001
      -2.1208701665104648e-002 -3.3696987791482468e-002
      5.7927669661331796e-002 8.9614940758025494e-002
      2.1299402141077381e-002 2.8714901110094743e-002
      9.2660469162110640e-002 -3.7993415197268905e-002
      -1.4460186096980087e-002 -4.6257170425163148e-002
      5.9253978310082236e-002 -1.4662538844532107e-002
      3.5301939683127385e-002 1.0359438870938459e-001
      -5.0005764887313772e-002 -3.8721360290561058e-002
      -6.7277628496971040e-002 1.0103220414167524e-001
      -4.5725293944989531e-002 9.4653440900156871e-002
      -7.5717527912653002e-002 -9.4034037095524117e-002
      3.3957821275393832e-002 -4.6403858377118464e-003
      2.2957370785719661e-002 -1.1413702013524534e-003
      1.1692897132855164e-001 -2.8958033741391876e-002
      -3.1134377928059228e-002 -2.9175705690520748e-002
      4.1993698508739165e-002 -4.5853362774725910e-002
      -4.9917359304398837e-003 7.4442176283768688e-002
      2.7138486832327863e-002 2.7821385638928997e-002
      2.7627986689316954e-002 -8.5597735962566715e-002
      -2.1117739679201671e-002 7.6680884558325335e-002
      -4.8650741657766700e-002 -2.1787063908372224e-002
      -1.0277408946035697e-001 3.6597984518400843e-002
      -1.8427574766149337e-002 -1.3985131823980806e-001
      2.6752442538630451e-002 -2.4393715521047955e-002
      2.5412359207472924e-003 -4.2912881899462178e-002
      -4.5043755687322849e-003 -5.0365087814778067e-002
      -8.7179143774786222e-002 3.4658513840211638e-002
      -1.1532414670064984e-002 -3.7990832926759852e-002
      -2.4854500996666171e-003 7.5706508954932028e-002
      2.2690233765655276e-002 -2.7134804566033066e-002
      4.2401291110674005e-002 7.6783439509867296e-002
      4.4931944678307405e-002 -2.0383523602480243e-002
      2.6975855846801187e-003 6.1133710529308861e-002
      -1.9665505572442593e-002 6.7393115407228199e-002
      1.5136084462369126e-001 -7.5282938086780826e-002
      7.3637606537010403e-002 -1.0947394534716780e-001
      -1.4304911751044900e-003 -2.0372511318858984e-002
      -6.3570915747083651e-002 -4.5436581740331453e-002
      -5.1686157774036518e-004 6.6971449061741439e-003
      -8.3610919761959293e-002 6.6903169961699043e-003
      3.3458446418060239e-001 -4.0419361406018935e-002
      3.7019635758480260e-002 -7.9101285485540823e-002
      -3.2972576556281614e-002 -3.5524063868681260e-002
      -1.0689338155230092e-001 1.0366997128072961e-001
      -1.0305846915823445e-001 -5.2991304425612090e-002
      8.3839912626408913e-002 -3.5869055338564437e-002
      1.4768877748127313e-002 -1.8292721190008316e-002
      7.3675915283558857e-003 4.9404379171091566e-003
      1.1594199073748541e-001 7.9534928627158510e-002
      -5.2511758895092346e-002 -6.0506199874140340e-002
      9.1066589419593839e-003 -5.4542788656474731e-002
      -5.1600890008775969e-002 -7.2850789269017543e-002
      1.9300038558670671e-002 2.9592430613715349e-002
      4.0824539439223255e-002 -1.4752109048887003e-002
      -1.4899843392092417e-002 2.9525920418243600e-002
      -1.1718834485524386e-001 -3.6738139748408040e-002
      2.8889348649340368e-002 3.1858121391209165e-002
      1.2130000849136766e-001 -3.1399081771289847e-002
      7.9789877129345974e-002 -3.4784455477462180e-002
      -4.9101870055162332e-002 1.2137485198594943e-001
      3.1388636300621990e-002 7.2552503184696970e-002
      5.3855191783268648e-002 3.1901775027084738e-002
      -1.1892250311119174e-001 -6.2238522112392190e-003
      -1.1116347308653976e-001 7.6861880448254385e-002
      -8.6625021188666454e-002 -2.7182571598774748e-002
      -4.4991376632175568e-002 4.0077244889891025e-003
      5.0250454753356960e-002 1.0756391162367396e-002
      -3.3412480239237353e-002 -3.4392036238173988e-002
      -2.3876155849264037e-002 -4.1232251751789550e-003
      -1.5882575647156699e-002 -8.7097544634481522e-002
      4.4325298902670951e-002 -7.0281661363583811e-002
      5.4376543685753630e-003 5.9629882589221795e-003
      7.4418582381994461e-002 -1.5284041570006781e-002
      -1.0225443651974335e-001 -2.8201018579371031e-003
      5.3699793195996097e-002 4.7385489998154506e-002
      -2.6004373392821988e-002 -3.0765892700285645e-002
      -8.6276485055941002e-002 2.6831060194598820e-002
      4.4254903464098938e-002 -4.5558669280956532e-002
      -2.4884078576349777e-002 3.7802067774832644e-002
      3.5827639584898908e-002 5.1647117794956961e-002
      -2.1213083615829076e-002 -2.2062629354594934e-002
      -9.0752975833617369e-002 -1.5428274998080855e-002
      2.4108271036822351e-002 -9.5609849468315120e-002
      4.9475536200351104e-002 1.1485082525463833e-002
      1.2289057508673769e-001 5.5313486297121739e-002
      -8.2154421145511747e-002 -7.5620559290702875e-003
      -6.2860457303070869e-002 -3.4772594884555988e-002
      -3.3016661254320553e-002 -2.2735364422403776e-002
      5.6073337572126472e-002 -7.1478020397798658e-002
      -2.2359114015926249e-002 7.8842485924825179e-002
      -8.1114138854559061e-003 7.9649458531115894e-002
      -7.5810895073014375e-002 -9.0971701773198230e-002
      3.2546551461964876e-002 1.3180845553462149e-004
      -4.2492959867740279e-002 9.8066353904600612e-002
      1.5379720777473529e-003 9.2451109170589310e-002
      -5.2063045393343542e-003 1.2726113122555316e-002
      -5.1099727821213220e-002 -8.1700182166685592e-002
      1.7043211318880029e-002 6.1798663167413745e-003
      -1.3039283553025577e-001 4.0731203829632912e-002
      3.4190322404976915e-002 3.6892304257772367e-002
      8.5688646514436514e-003 -2.9279224438584779e-002
      -1.1115573851356701e-001 -7.6157758343115028e-002
      3.4439793450573245e-003 4.4065175997517796e-002
      3.5496726894422070e-002 -1.9302322063192105e-002
      2.7631598203807796e-003 4.7047264603313085e-002
      -2.3295369567945617e-002 -4.4894383308760069e-002
      -1.7700259003153855e-002 -7.2829223533481688e-002
      5.2437936805906950e-002 7.6256038634573281e-002
      1.0407200424767357e-001 9.5419158711040064e-002
      2.4686609119942915e-002 6.0473399109341464e-002
      -5.0834339264872005e-002 -4.9638313419771610e-002
      2.4671319343722430e-002 3.1386895498069847e-002
      5.0985580891466473e-002 -2.9200137577136801e-002
      -7.8995046708224395e-002 5.2926461164864935e-002
      7.4082965869888565e-002 3.2504302188547204e-002
      -5.4262988736602367e-002 2.6078428343383978e-003
      -2.7908737707701328e-002 8.8522085179013610e-002
      -6.0773618527307956e-003 -9.8246457400638601e-002
      -8.8125210103755805e-002 -2.4513930848102583e-003
      2.1137903304705753e-002 -3.4783244248929583e-002
      -2.0453256295547298e-002 -2.3697287850333756e-002
      9.8497638605882801e-002 -1.9934573918777097e-002
      -2.0404525465875251e-002 6.4836011381488617e-002
      -9.2784757531679904e-002 -1.1433827769494708e-002
      3.0278451155466242e-002 3.6085322389801042e-002
      -3.8616067464376860e-002 -5.6850293424037255e-003
      4.8972198726934354e-002 -2.4719542973076707e-002
      2.9295912250267449e-002 -7.0733098533418970e-002
      -5.8914781432379999e-002 6.8355357644311693e-002
      7.9642127637902155e-002 6.3039603720176793e-002
      2.4115860953626157e-002 2.6465762736564334e-002
      -2.8945387152537246e-002 -5.1833023179385283e-002
      5.9550314013660531e-002 -8.5723720114208053e-003
      6.6076874955969221e-003 -5.1479855796663934e-002
      -4.0136893538284334e-002 -7.9312337983671113e-002
      -9.4102278402021816e-002 3.8446788631042728e-002
      4.0997344692874205e-001 -8.6863073871177629e-002
      2.7689038265706338e-002 -1.0185697436784730e-001
      -7.2263764222489889e-003 5.5018947726040678e-002
      -5.8506749024751517e-002 9.7579246766268307e-002
      -3.2302422094246767e-002 -5.5547915449917891e-002
      1.1152921152219182e-001 -5.7935272440945915e-002
      4.2220468057318619e-002 -3.0388344812932585e-003
      5.6898502088285119e-002 -1.8807265058045218e-003
      8.5804016356484977e-002 -6.2291425043055001e-004
      -5.1340688317113047e-002 -6.6984681330664375e-002
      3.2406516066824792e-002 -7.4930233659374679e-002
      -1.9548819969683797e-002 -3.5826131650268829e-002
      1.8058414234871867e-002 7.2564403658579774e-002
      8.2755546200124458e-002 2.5668296000537143e-002
      -3.9540348688306859e-002 -4.9020075543695441e-003
      -7.1402016873462412e-002 -1.7774564600877753e-002
      -2.9934781716891241e-002 -4.1273113989945466e-002
      9.3224963962929522e-002 -4.3320864230871017e-002
      8.2844081254379781e-002 -9.5882099004280005e-002
      -3.6800483076566061e-002 1.3750111763496081e-001
      8.1875018795510901e-002 3.2581379919899303e-002
      7.8349717898854476e-002 1.4359346655480814e-002
      -9.4939171637316758e-002 8.5661494191499807e-003
      -9.1813679974065171e-002 6.7164402914158261e-002
      -9.6982999504028278e-002 9.7381644055479097e-002
      -7.0023621422285479e-002 -1.0839211462231329e-002
      7.4668134110013024e-002 3.2231976787105869e-002
      -3.5944486776085936e-002 -4.3542250441968709e-002
      -3.5584207968013211e-002 -3.9337510326780838e-002
      3.4976821861559801e-002 -1.9757486311944784e-002
      4.6231260791169723e-002 -1.0240334012013391e-001
      4.9289260192850202e-002 -4.1210882953345756e-003
      5.5723577219283955e-002 -1.0634832406756524e-001
      -9.2894294406258727e-003 8.8919254538229863e-003
      3.6385159891936796e-002 -8.0370782234215038e-002
      -7.2340823731418275e-003 -5.4621012296969786e-002
      -1.0241931567146507e-001 4.4972812445605463e-002
      1.3688964137634310e-002 -1.0398693352064946e-001
      8.5591349036069631e-002 4.7701430987225679e-002
      -3.5362505427038405e-003 -4.0888006490818977e-003
      6.3897242213200676e-003 -6.7099640839491746e-003
      -4.0169998993701377e-002 -4.3555900717884469e-002
      4.4661031113650447e-002 -3.6740966993107319e-002
      3.4348034100616334e-002 2.0032935592789149e-002
      8.7970798288564585e-003 5.1167030840670296e-003
      -2.7381675636462176e-002 -3.5042181500471663e-002
      -1.6162887985937135e-002 1.7252106859035499e-002
      -1.1769012964671170e-002 -3.5478666853665540e-002
      3.9644841515225661e-002 -1.0515951504409912e-001
      5.1792664310239836e-002 3.3868007387031031e-002
      2.1892795612410317e-002 6.1733930202654483e-002
      -6.8453645156146103e-002 -6.6378845931496693e-003
      4.0763760021831387e-002 2.6068926215811385e-002
      -1.0169223048699162e-001 -3.6124255742498910e-003
      1.7086233737454885e-002 -2.0917981964268207e-003
      -3.4514139118503373e-002 -7.0116245917366843e-002
      -5.1041012436507709e-002 -7.6303426939917041e-002
      -1.9453897319012238e-002 6.2666228426937184e-002
      -7.6410639976146222e-002 2.1079108862274456e-002
      8.8351131995269672e-002 9.9917441566897747e-002
      4.4178896378394145e-002 -3.3905613816375517e-002
      -1.3207417410959865e-001 -5.0871507035797368e-002
      1.2326762168570048e-002 4.3185095113412897e-002
      9.8352490671891279e-002 -2.6727977657889618e-002
      -1.0071277044681376e-001 4.7709892183099255e-002
      -7.6289380995457595e-002 -4.9824367574810680e-002
      -5.8065111071462519e-002 -6.4429501829664504e-002
      1.2813145043659857e-002 9.6419342767678065e-002
      9.5261023797250682e-002 6.8382638385495950e-002
      1.0013744308503606e-002 4.2708873587547228e-002
      -5.0898662748612856e-002 3.8460467519041757e-003
      4.2827457147773432e-002 4.8319748558438048e-003
      -2.1349372465464967e-002 5.7089348146592521e-003
      -4.9761613030110514e-002 -3.8223499815312263e-002
      1.6657835587939263e-002 -3.7269358867434710e-002
      2.7677168149562573e-002 -4.4939882455196686e-002
      -4.1661815805557778e-002 1.0856397504037417e-001
      -1.7463965165620796e-002 -1.2172529741370061e-001
      -2.5503598071637320e-002 -3.7051382254880617e-002
      -9.7655998151482248e-003 2.6641359778702474e-002
      4.9085428489826520e-002 2.1598053731589396e-002
      1.3263217361164464e-001 1.4164198931858952e-002
      -7.7149974682094599e-002 4.0455926310958797e-002
      -1.2800577806379709e-001 -4.9702182634335113e-003
      4.5493208483880831e-002 2.1616840438243932e-002
      2.6853178735507993e-002 2.8529998212193229e-002
      3.1475083497990454e-003 4.5532603294800307e-002
      6.0760127540041758e-002 -1.6251216964198990e-002
      -7.7525453333541119e-002 1.0746826181166656e-002
      1.2417887004024121e-001 6.3130735770316844e-003
      1.8872379728373939e-002 -1.5789263103226751e-002
      -3.9008910092122664e-003 -4.3893495148270976e-002
      6.3708756809715647e-002 2.6542692844434050e-002
      3.9764875185984823e-002 -5.6014156610871356e-002
      -2.3304320080981437e-002 -1.3853735517214366e-001
      5.0408611132558394e-002 6.4183810054916246e-002
      -7.0495232398709376e-002 3.5231344088352913e-002
      -6.4042737983608836e-002 8.6047172390976458e-003
      5.9648854866312523e-002 1.2175804014939323e-001
      -2.5186189678148167e-002 2.7535971605560955e-002
      -9.8700922263126878e-003 -3.0614403681291334e-002
      1.9487598905545703e-002 -3.7950588119068313e-003
      9.4878693887490456e-002 7.6224178258722589e-002
      -1.3623992954410562e-002 9.8989227808038302e-002
      -3.1612748324951262e-003 -8.4115285270629322e-002
      3.4298211244162796e-002 -1.8558284690812620e-002
      1.3344426329464373e-001 6.9639594979397618e-002
      7.1342076272895641e-002 3.3231789576755995e-002
      -3.6347086286284511e-002 -1.1178229751158966e-001
      -3.8809217476746220e-004 4.1063394813376231e-002
      5.1295346578431392e-002 -1.3318534337175626e-002
      -3.6835279412669147e-002 7.3673745846789415e-002
      -5.2322829126489959e-002 4.5923273709119965e-002
      -4.2128034977916486e-002 8.1545221595180059e-002
      1.1710555057307545e-002 -1.0858698754743053e-001
      8.5022283369782722e-002 3.7031772078780403e-002
      -6.6832376630198753e-002 3.4812385126700450e-002
      -4.4297440278155839e-002 -6.9270579243912431e-002
      -2.6590432380689949e-002 8.1906992499501979e-002
      -3.4898161442508034e-002 -6.1349649841207061e-002
      2.3500012265133496e-002 -3.8447622701446506e-002
      5.7089534093472831e-002 5.0549020766676910e-002
      2.4802915001277352e-002 7.8577944452183121e-002
      -8.7546006398770346e-003 2.7196999091222581e-002
      2.7875990070926455e-002 1.9911970933432162e-002
      -4.8669156276972193e-002 7.1724575401223511e-002
      -3.4728644996184885e-003 -1.1162283280390385e-002
      1.4442082658686431e-001 -2.9434947797588708e-003
      -7.8642720953695899e-002 -8.7031749047922144e-002
      5.8509127616700775e-002 -2.0049926591250145e-002
      -9.8251178215229787e-002 4.0143788990056890e-002
      5.5747659320598490e-002 2.7544805393438638e-002
      1.3039582130297763e-002 -8.3853432402209282e-003
      1.1598036149891863e-001 4.3524463001411544e-002
      -1.7546064926035419e-002 -3.7924758829956128e-002
      -3.5983645065806598e-002 -1.2101422965645647e-002
      -3.4408240707362016e-002 8.4948275253948477e-002
      1.1036262030188906e-001 -6.7712961612481193e-002
      -5.3530984857123973e-002 5.6223327971326904e-003
      -8.8434063793013107e-003 1.7520187858279173e-002
      -5.1153243776653923e-002 -5.8415794582835252e-002
      -2.4523719236946732e-002 -3.1016187571613982e-002
      3.5593304174292982e-002 -1.1933590018552953e-002
      5.5892288180318939e-002 3.7376164397724954e-002
      -1.1619204506927942e-003 -8.3155171412014721e-003
      -7.2156651712652675e-002 5.7258500047878053e-002
      7.9691717511943580e-002 -6.0309952762343231e-004
      -1.2009572717991739e-002 -1.1350261429455413e-001
      -8.7534796521636718e-002 1.0185526202071080e-001
      9.4843850473093853e-003 -3.7677543648871277e-002
      1.4510110962541317e-001 -4.5637646765178765e-002
      3.8010461436907242e-002 1.5938969212033374e-002
      4.9183174363958762e-002 3.1537206132912998e-002
      -4.0372477140025183e-002 -8.2746316575800824e-002
      -2.8147789168380469e-003 -1.6119758643364106e-002
      -2.8569862087236317e-002 1.3439419509042930e-001
      -3.6357799271197100e-003 6.5245923573732961e-002
      -2.5498156411867208e-002 -4.5140115648085680e-003
      -5.5753756510522418e-002 -1.2250306482023406e-002
      5.9013860280458796e-002 1.3952816145538804e-001
      3.7644776230233407e-002 7.6796970453056439e-003
      3.1016836234012704e-002 -6.2912584205911379e-002
      8.0253305427979163e-002 3.6825942808854359e-002
      -9.6099194728384421e-002 1.8105119646508239e-002
      2.5181862025910183e-002 1.2797452735984356e-002
      -6.0037462835399763e-002 1.0087614407179545e-001
      5.4172570671786768e-002 1.0354766070166192e-001
      -2.1024555043095527e-002 1.6650223366116340e-001
      -6.8017265172273392e-003 -2.3822597551331020e-002
      -6.2400305513557264e-003 -1.2714688679472353e-002
      -6.0835383327613735e-002 2.7796910033358480e-002
      1.8084858559111211e-002 -1.6705687875262182e-001
      1.3398855736367066e-001 2.9625084618559915e-002
      3.4302293749925501e-002 -2.5785965072501358e-003
      6.6360545148609243e-002 -6.6170236623408867e-003
      -4.0277533723556608e-002 7.6279686124965468e-002
      -1.6802310998101335e-002 1.5989201416747942e-001
      5.9041199569335543e-003 4.8455935960503467e-002
      1.6720899138727631e-002 1.8618231306934064e-002
      -7.9023252373491681e-003 5.5940411784792976e-002
      -1.1463641120432558e-001 -1.7510949290678708e-002
      1.2117815170524491e-002 4.5142334077772073e-002
      -9.2274397104639763e-002 -6.8528981746944065e-002
      -4.3861781888976013e-002 5.1555766233197894e-002
      3.0663517780721804e-002 -7.8320073200990853e-002
      7.1858538514360569e-004 -7.4854856684395982e-002
      -6.1488561979685691e-002 9.4217872427767316e-002
      -6.5296872239400797e-002 7.8176345043658460e-002
      -3.8676113475344713e-002 2.0525870024157927e-002
      7.1374370335487922e-002 7.6061384509686261e-002
      5.2338422382348454e-002 1.3004093712415885e-002
      -2.0486154154080866e-002 1.8957555155183290e-003
      -1.0033338872586796e-001 3.4285765952773425e-002
      -6.3503175338335105e-002 2.4594146843117174e-002
      1.3563036705873515e-002 1.3901916646876269e-001
      -1.5003974001323955e-002 3.4996753806447824e-002
      -8.8732709202426860e-002 6.7955921174676512e-002
      9.3454989167654316e-004 7.2121127715738670e-002
      8.3038897873875306e-002 9.5512146443824178e-002
      -3.0365098315606010e-002 1.2482545978141786e-001
      -6.2719507100893225e-003 -8.4522706382463564e-002
      5.0995929004585709e-002 -5.2243674834901522e-003
      1.3861836940717068e-001 1.0958336539806370e-001
      1.7045222340925512e-002 7.9981215341432196e-002
      -3.8760048716794275e-002 -1.0613018543113971e-001
      -6.9765672559685729e-002 1.1756983875171893e-001
      4.9901278536474275e-002 -3.8581285791544434e-002
      -3.7825036985446203e-002 7.5149607337341329e-002
      -6.2828130821893757e-002 9.6427349386414007e-002
      -2.7046441629968446e-002 8.3018761117705869e-002
      3.8080514280201982e-002 -1.0275798510722554e-001
      7.1210637814341490e-002 2.2241152946966929e-002
      -4.0179518900608967e-002 8.4448887822653224e-002
      -3.2885393464168453e-002 -6.4082956631375115e-002
      5.1297309986872040e-003 1.0955435324038246e-001
      5.4560297243242406e-002 -7.8229176212207836e-003
      5.1878752052801277e-002 1.4087823182156040e-002
      1.1820491884490049e-001 -6.6624945126097911e-003
      3.9586184046579424e-002 8.8819321757726818e-002
      -6.1644220026624754e-003 1.8165979734306451e-002
      6.0825549338244488e-002 4.1149435852428778e-002
      -7.4955500967120003e-002 7.1559566256401697e-002
      -6.9285872515393185e-002 -5.3347944591855219e-002
      1.5358695958930688e-001 -4.7453551472220475e-002
      -1.1789832474825149e-001 -1.1965581858919740e-001
      7.5898342048551351e-002 -3.1766735830201565e-002
      -7.5442613890593674e-002 2.8783586119206846e-002
      3.7199620078560723e-002 8.5762965260004709e-002
      -5.7014026800606174e-002 -6.5065506347137370e-002
      1.1735181264999373e-001 3.6917986850426777e-002
      -2.4075859920208408e-002 -8.7527233751020977e-002
      -1.7652420488607871e-002 -1.8650739752961134e-002
      -9.2900883559373731e-002 5.7227994644207941e-002
      1.0357938333068407e-001 -8.5086974249798622e-002
      -7.9625868661983137e-002 -1.6541957211735108e-002
      4.5734009299298849e-002 -8.6206509457701502e-002
      -6.2368264797307435e-002 -4.7552221230998296e-002
      -4.3219326791009158e-003 7.2116230623671881e-002
      2.6682131157266722e-003 -7.4320788346647459e-002
      3.5150223425020159e-002 4.2056538458738316e-002
      -5.7066179432274940e-002 1.2616031889985013e-002
      -5.3359299421882986e-002 2.8046806872078559e-002
      3.7483280938746671e-002 -5.0017265423580731e-002
      -3.9973655191883929e-002 -9.9567705034097911e-002
      -8.8022276296848695e-002 1.2244927996525712e-001
      -4.0318146743909553e-003 -9.3859650178166693e-002
      1.1654240482150750e-001 -8.2554427668614636e-002
      6.1713245339967353e-002 7.5565295306617292e-002
      7.9126263773105516e-003 1.3700957257094519e-002
      -6.0713532023274258e-002 -2.1594545970838923e-002
      -6.9906020641411666e-003 -6.3868726467909934e-002
      -7.9922354586676236e-002 1.2959375948260782e-001
      5.9331444788626141e-002 9.7167242697705700e-002
      7.8789681207061448e-003 2.0921803977465393e-002
      -6.0623654409792567e-002 -1.9168726603434723e-002
      1.0532350293417614e-001 7.0242042168648697e-002
      9.2255559432884767e-003 -5.6731807710879156e-002
      6.5555935718318942e-002 -1.1214712670538510e-001
      1.0987696488394037e-001 1.7213619115910395e-002
      -7.0295752373816869e-002 -1.5710312630633074e-002
      -1.7279606572870872e-002 7.0641499932520418e-002
      -1.3089902764148340e-001 1.0517516041476291e-001
      -2.2512373973909119e-002 1.0809098753624184e-001
      -7.0100974980508018e-002 1.6578382944529296e-001
      4.6332944171695849e-003 -4.5601817412838926e-002
      4.5952960118655919e-002 1.5137711431669732e-003
      -1.2943784115999551e-001 6.5478783443520677e-002
      1.3625380666273315e-001 -1.5389717455712595e-001
      1.7047312986675578e-001 1.8753897643062060e-002
      8.3719211734213012e-002 -1.8866058891944384e-002
      4.3280789481649644e-002 3.0145957753003993e-002
      -8.7216072754187274e-002 5.9162730353034480e-002
      -6.7939097538293330e-002 1.5754760380902103e-001
      -2.3025645749389216e-003 1.2853098432516968e-001
      2.8739474312685018e-002 4.5046743084623149e-002
      2.2871930171074212e-002 5.3435601466860702e-002
      -9.1592089630363763e-002 -2.0632170502632781e-002
      5.2639210213654093e-002 7.6337211541602792e-002
      -7.4982447733413296e-002 -8.7759360923507390e-002
      1.1273500789315006e-002 4.5864898613002920e-002
      -2.8750264855277978e-002 -1.0508746597806172e-001
      -4.9585906655867798e-003 -5.3890074578667431e-003
      -7.3504734337683300e-002 2.6427054004227710e-002
      -9.5195354667949469e-002 9.5812666375700378e-002
      1.9827896092486631e-002 -1.1267930977597082e-003
      1.1699893580331702e-001 8.2229309249995247e-003
      -4.1338284386570360e-003 1.0902281501910048e-002
      1.1491088741277236e-002 -9.8554766989518063e-003
      -1.9036119039094381e-003 5.0928765345436078e-003
      3.3976846532656783e-003 -9.6307312388558327e-003
      8.7618278966860566e-004 -7.4929469503565334e-004
      4.3028733322259417e-003 -4.6174103055564835e-003
      -5.0243034617089878e-003 4.9164454044062526e-003
      -7.7404082065187412e-003 -7.4930674187775386e-003
      6.4339377500017680e-003 -1.0249067598700149e-002
      -9.7199076358318731e-003 -6.2840798383600877e-003
      -2.4693631986130583e-003 2.5571188699942105e-003
      -4.7997865082905480e-003 -6.1760355151996901e-003
      9.4624460660269714e-003 8.1235187724211701e-003
      7.0765683225005585e-003 4.9675376420954664e-003
      8.6332120947426889e-003 1.8127942481816644e-003
      -9.9802339239919409e-004 1.0905323333965237e-002
      6.6450579072904383e-003 -5.7787412621494406e-003
      -3.8027940099316111e-003 -1.0040033245665159e-002
      -6.7707802530220292e-003 1.2857913738343553e-003
      -8.8117123751824192e-003 -6.0832977297283473e-004
      6.7106294209710602e-003 4.6521707145532193e-003
      8.7850007346562103e-003 6.7175619040486610e-003
      1.8783345810083711e-003 4.4313210829874435e-003
      -9.7247608235000189e-003 6.1026071237459088e-003
      -9.4535085672311763e-003 -9.8141661722331627e-003
      6.8988174487772426e-003 2.1207394604121424e-003
      -5.6388524969387581e-003 1.0796162371533673e-002
      5.2110457235924786e-003 -6.1267492105398606e-003
      9.2751419765964224e-003 -7.0594236170570474e-003
      1.8224208235541341e-003 -4.6849011884824024e-003
      1.7926329089055996e-003 -8.8695806539368927e-003
      -7.3927441834929957e-003 -5.8979470136793482e-003
      -1.1319529825442127e-003 -3.2825713880609226e-003
      7.0965192685047513e-003 8.9259599104669438e-003
      -6.3066233693328463e-003 -2.8247770804946701e-003
      6.7454022530445317e-003 -1.0599055262547105e-005
      5.4289662664442906e-003 -8.4362128755776245e-003
      1.0520879335919626e-003 4.8913385318549100e-004
      5.6996417498903279e-003 -4.7564389920075481e-003
      -9.0168350861027525e-003 -4.1871716037676583e-004
      -5.7445154638083463e-003 2.0568433349091794e-003
      -2.9743094734201460e-003 -4.0279705088277088e-003
      2.7131630292582991e-003 6.3098904729737141e-004
      -1.7679571083467711e-003 -3.9517232403715082e-003
      -4.7816694652116501e-003 1.8938396392028151e-004
      5.9055141575970124e-003 8.7072657622701190e-003
      -1.2897668101217671e-003 3.9040813931868054e-003
      4.2862897199121670e-004 -8.1668190821933186e-003
      -6.0325617281681504e-003 2.3250247359099144e-003
      6.9255599146952748e-003 9.3922577406753745e-003
      -6.6758946596164673e-003 8.6703180572702632e-004
      1.6973685835790279e-003 3.2982301998318248e-003
      -7.9443188645930366e-003 -1.6500742110033923e-003
      -1.5339843336143149e-003 -8.6613951669302063e-003
      -9.0910654542119933e-003 -2.0660247563159756e-003
      8.8878781777671466e-003 6.9884524123242312e-003
      -7.4573252527929115e-003 3.3401159018095275e-003
      3.4230551930663818e-003 -3.6422073164002308e-003
      9.3399271452854725e-003 -4.7086313785963084e-003
      3.2049836077634067e-003 1.7988452121976224e-003
      4.0564193465544279e-003 4.3073525097104730e-003
      2.6862189569708795e-003 7.2963862264340418e-003
      1.8359561515716913e-003 5.2861147524464226e-003
      4.4436802513233070e-003 -8.7307044582460320e-003
      1.4817730019927422e-003 1.0961364021802188e-003
      -5.9370169381947700e-003 -7.0445441850092846e-003
      4.9569756843653359e-003 -6.7625224618853771e-003
      6.4327121987654131e-003 -3.8885740762368108e-003
      -6.4870768216066287e-003 -6.4183339640380118e-003
      -3.7335727750158415e-003 5.7403264480069931e-003
      9.0790255240448640e-003 -4.8269277481782832e-003
      5.6610569969260073e-003 9.2023480677284122e-003
      6.9710486583941507e-004 2.0509418873920697e-003
      -2.0756838578598891e-003 6.4560886669436284e-003
      1.0063617021621514e-002 2.5074619367356729e-003
      -1.2123109072075453e-003 -1.0113253473857067e-002
      7.5485149623311983e-003 -4.0752366588651849e-003
      -6.6319147392033479e-003 4.5016144719902005e-003
      3.7146900780751438e-004 -2.6774715603792450e-003
      -7.2929534474365900e-003 -9.0083288847944507e-003
      -4.6842206041632474e-003 -5.6858097635323658e-003
      -8.6484624414254318e-003 -6.5644920412236017e-003
      -7.9681122466713859e-003 -5.6173946887944654e-003
      -4.4950649741422842e-003 2.3303300290609093e-003
      5.1088348683784503e-003 -8.7515711720763598e-003
      -3.8513691631232808e-003 -1.2818272605237735e-003
      5.0291132899430296e-003 1.6008984824318160e-003
      -3.3587878929641920e-003 -5.9637499528404749e-003
      1.0567208886209057e-002 -3.7788138373922712e-003
      -8.0005714526079248e-003 3.3479654522165316e-003
      -4.0903113030689468e-003 8.8561550368456265e-003
      3.2426543192735097e-003 -3.2159055843531906e-003
      -4.6343275242074202e-003 -1.8107379611075928e-003
      3.9773476333540970e-004 -3.6084208457910095e-003
      -9.0239731569742160e-003 1.1009937959556655e-003
      5.2136992195162832e-003 7.2074510864608837e-003
      5.2823373650158593e-003 7.6135404604556122e-003
      2.5108605961490088e-003 -5.3684217951314051e-003
      -1.6337814325831337e-001 -5.5239270418097848e-002
      4.8582182817768743e-002 5.7056023619537100e-002
      -6.0555928594315904e-002 -1.3038474941756825e-001
      1.9324736688239027e-002 -2.5037558840826406e-002
      5.7676267047061927e-002 -7.1214547327934918e-002
      -1.1272942425996172e-002 -1.1343714997399140e-001
      -1.0567952162479888e-001 -9.2364860650505073e-002
      5.7053491745661801e-002 -1.4272084170896929e-001
      6.0086376500363397e-003 8.7045730203824376e-002
      -3.7987676467308461e-002 -1.2635966055937560e-002
      -1.2312013525028874e-001 -9.4665398476195081e-002
      -2.3983114364626006e-002 -6.8399780507442956e-002
      4.4834674822365653e-002 9.5332179596214026e-002
      7.0057692953750389e-002 -8.0021837327364898e-002
      6.6955165202477391e-004 3.0486623597583806e-002
      5.4048726615035979e-002 -4.2736655989146735e-002
      2.3912795998991761e-002 -4.4065467426445355e-002
      3.6468482967525664e-003 -8.4208039097764573e-002
      5.1775217996006635e-003 1.2647422275605255e-001
      -9.2393121300857695e-002 -8.4077711410283449e-003
      8.6872964055598287e-002 -1.4994481404403277e-002
      5.7200234488858283e-002 8.0254685907495127e-002
      1.7301225878320097e-002 -7.3293837094905778e-002
      -1.2157409008792762e-001 -1.4441275201778627e-002
      1.1052875802698831e-002 3.2539429897343909e-002
      -9.9916021332542779e-002 2.3224120771439070e-002
      -5.8482144278717910e-002 -7.3116179166307152e-002
      2.7354695832340563e-002 -1.9586102223339254e-002
      -8.1706091537508962e-002 -3.0369075406988275e-002
      1.0429086611020968e-001 -3.7646317896131924e-002
      4.6409990284280549e-002 9.2787708240345573e-002
      -1.2575534213028827e-001 4.8006495630795287e-002
      8.9483143825061798e-002 1.4089515419422718e-001
      -6.8151017902215213e-002 1.1522087440715657e-002
      1.1514213920736942e-001 -6.3429778465975986e-002
      2.7411789470981305e-002 -7.2470137887598138e-002
      2.2592832564030430e-002 7.1490573781015448e-002
      -8.2295577180770574e-002 -6.5614391588371387e-002
      3.1011108680278142e-002 6.4626162850713884e-003
      4.8269069358097848e-002 2.7192111684274940e-002
      3.9283113755495036e-002 -4.0193862703381170e-002
      -7.7459071713878960e-002 8.8040235384988771e-002
      7.4774637053313164e-002 7.5608882084352944e-002
      -2.0967366055917532e-002 3.7379339536542985e-003
      4.6109889897044516e-002 4.0834153763923749e-002
      7.0834303918710755e-003 -9.1487891366157564e-002
      -4.2625004602930290e-002 8.0077242827960443e-002
      -2.8265619700777126e-002 -7.3343344157340729e-002
      6.8970777168270115e-003 4.4987738291388336e-002
      4.8079382467376246e-002 -4.6827543417076777e-003
      -1.1660268632286575e-002 2.5517209996194997e-002
      2.7540263449741330e-002 9.0740122221384570e-002
      7.6323682987062033e-002 -8.0905369192175822e-002
      9.5059735119553150e-004 2.7556282266585738e-002
      -1.4105024089758222e-001 5.9883275345147188e-002
      -9.1594142356965363e-002 -8.2318740979765534e-002
      -3.4696363011286112e-002 -6.4839617219810911e-003
      1.2982735447627068e-002 9.7008910408223140e-002
      -1.4836043387104651e-002 4.5047435299707124e-002
      1.0694734996880147e-001 -7.4025628749372602e-002
      -3.3921106361375471e-002 -1.0408607622961900e-001
      5.8686869369659563e-002 4.2259827845265406e-002
      6.9405579130195863e-002 5.1068720223472121e-002
      -1.1010572275922940e-001 -7.0672408599552317e-002
      -1.0021999013533704e-001 5.6787768566587599e-002
      -5.3947207741963120e-002 9.5657024325485812e-002
      -5.1739109273018592e-002 -8.7344676557362305e-002
      8.2906911901290181e-002 1.8753651253306344e-002
      -6.4166694338408672e-002 -3.2497770191775244e-002
      8.1295990315944172e-002 -1.2772634402425770e-001
      6.4639832042245909e-002 -1.1345140119601770e-001
      6.0946199870686467e-002 -1.2897323873033237e-001
      -3.8294677230046904e-002 2.7108042288563290e-002
      -7.2245777781234991e-003 -5.5182513147491070e-002
      8.4511803679244782e-002 -7.9132242129742680e-002
      -1.0042937671748699e-001 1.5358362901589936e-001
      -6.4270487124906892e-002 -4.1700057928553247e-002
      -3.3329203939197125e-002 1.5655542005911922e-002
      -1.0654151801890518e-001 -3.3889255514330245e-002
      4.6555848536032791e-002 -6.3210935850188096e-002
      -9.2950669199269934e-003 -1.1757385482996166e-001
      4.0358640438419094e-003 -9.7532064862119003e-002
      -5.3699740674307272e-002 -5.9599213199022276e-002
      -6.9080988450273773e-002 -2.0164783595056589e-002
      9.4240702132849630e-002 7.7949386678967447e-002
      -3.3338975896184925e-002 -7.0189288031738059e-002
      8.3477364925540545e-002 2.1868435626294876e-002
      1.1975165537479310e-002 -2.9753004308173313e-002
      3.3716379571025981e-002 6.8067989462904196e-002
      -4.3147006518368967e-002 4.7858003493983177e-002
      5.2854160084402968e-002 -4.5116590698669141e-002
      8.3670463612836823e-002 -7.2979142936237043e-002
      1.5326726032441769e-002 7.0284134717138425e-004
      -9.6633662195091674e-002 1.3879143924611962e-002
      2.6453203315549800e-002 1.9887161982790075e-003
      -9.1846802857816684e-002 -2.5132476142757470e-002
      2.6647573097732979e-001 -7.9384333018607825e-002
      -1.5790652093030176e-002 7.5622017473015125e-003
      -8.0368831960318923e-002 -7.8279682918269318e-003
      2.9463820949554007e-003 1.2229833868876645e-002
      3.9629401734911163e-003 -6.1905490035389726e-002
      -2.1347470977132379e-002 -6.8677299586974133e-002
      -6.6490144678503921e-002 -6.7871660456995234e-002
      1.9222497059039632e-002 -9.0955977447086792e-002
      2.0780448873374994e-002 8.2731773632448283e-002
      -3.3345661081613923e-002 6.7033723153976515e-002
      -4.2414212672172637e-002 -5.4437751931746367e-002
      -8.1159886315293694e-002 -8.7966526910065609e-002
      3.7318271597110250e-002 1.3893038028157309e-001
      2.6367707545891652e-002 1.9185798751022012e-002
      -2.4631633507477522e-002 5.1734638735934882e-002
      4.7394419019697355e-003 -1.0012233825995182e-001
      2.6279196792127681e-002 -9.5891689540893943e-002
      1.8864577961448126e-002 -2.4185387686357390e-002
      -4.5035547520201384e-002 7.3719017691542058e-002
      -5.3923919595329502e-002 3.1604795096814957e-002
      -9.3430651733326708e-002 2.1045987135239766e-002
      -4.6294733293055709e-002 1.3038143990364368e-001
      -1.8623119776961135e-002 -1.1036967289279215e-002
      3.4420669765553878e-002 -1.9583399143890397e-002
      -4.8028692790810783e-002 9.7147493631628001e-002
      -1.1066938633555419e-001 -1.0995004129775666e-001
      -4.0433896474877471e-003 -5.1978818340986756e-002
      -5.0227690788606685e-002 -1.1280501923665382e-002
      -1.6805721868188971e-002 -1.1228239963761533e-001
      1.2009144120017902e-001 -1.6410707276626690e-002
      -2.7423891261361334e-002 1.0719390144131331e-002
      -8.7860068988588003e-002 7.6806980096435676e-002
      7.4792879542525073e-002 7.9664384031281052e-002
      -1.0040156446567784e-002 -6.9403807229247286e-002
      9.9605585377708264e-002 -1.6007074508550326e-001
      4.4770914716652919e-002 -8.0424020603238749e-002
      -4.2114759831501307e-002 8.4705424752148414e-002
      -3.8629427954271274e-002 -2.6684568638800733e-002
      -4.9158492277730031e-002 3.4937228544183685e-002
      3.2768887185847424e-003 -4.4093568915887608e-003
      8.8093461317959074e-002 -1.4772178334221095e-001
      -1.4283703204560905e-001 3.3210477256565410e-002
      2.6677391969855122e-002 2.4151763588790903e-003
      -2.8048899798232925e-003 -3.7075262744158198e-002
      -3.7636193743821246e-002 8.0249902397255810e-002
      -3.6749957924182557e-002 -1.0404964361045592e-001
      1.8201495388393267e-002 8.3987320140301622e-002
      -2.9013861616328435e-002 -6.3700377521343263e-002
      -3.4529789425635775e-002 -7.5473337490941012e-002
      1.1323259097418632e-001 -3.1780732924642702e-002
      2.9720676309191858e-002 -7.5492053093972524e-003
      -2.8513773378464745e-002 5.6602883313220990e-002
      1.0683690916377121e-002 -9.4343461653541905e-002
      -2.3717726663845688e-002 6.1145324894877895e-003
      -6.3627370031696176e-002 4.1935343712772889e-003
      -9.0506243812186499e-002 -3.9962594041930546e-002
      -3.0195558357527769e-002 -5.3886082773335958e-003
      6.6607264266308024e-003 1.3746436320340849e-001
      -4.7215071093429798e-003 1.5025176828500030e-002
      6.8979571239058984e-002 -2.9744954038341265e-002
      -8.1529234509210170e-003 -6.1414069611433079e-002
      -5.3614248752705859e-002 -3.2089427904290112e-002
      4.8777404343400575e-002 8.2381487069148510e-002
      -1.0215570530730508e-002 -9.5014124658854823e-002
      -1.5971389515235204e-001 5.6148214911743446e-002
      -7.1999691787207998e-002 5.9577018128854256e-002
      -9.3839149266584765e-002 -4.0952140983024861e-002
      -9.3381261445475618e-003 -2.7721841364735180e-002
      5.2689880925159825e-002 8.0959807172563420e-003
      8.5492476519807625e-002 -3.9612644033699553e-002
      -1.0871905626073210e-002 -3.4898198283678912e-002
      5.3725578554987177e-002 -9.0386509237599486e-002
      -1.4416129334719809e-002 2.5048478880201903e-002
      2.8658444516378546e-002 3.8933669775556567e-002
      6.5350260525994172e-002 -2.9836667822137033e-002
      1.9050576007809902e-002 7.3912559526609259e-002
      -5.7078329810334796e-002 -5.2600567029465082e-003
      -5.3133907268048106e-002 -1.0412638360379556e-001
      -2.5401262342302375e-002 3.5569967475216090e-002
      4.6939412772383199e-002 -5.7385517239413479e-002
      2.9466631335420441e-004 -7.6911454861540204e-002
      8.9690292926474957e-002 9.7125844480820178e-002
      -4.1737618906406759e-002 6.7984787775784098e-003
      1.1897601946683639e-001 -1.5797422289658625e-002
      2.2165023434896670e-002 1.1883751477989250e-002
      -5.4580951276103507e-003 -5.4626052596092739e-002
      5.5708967154232777e-002 -2.5902827053759987e-003
      5.4585838873983258e-002 -1.0936965367569941e-001
      2.9876458607747840e-002 9.6716729828570561e-002
      -9.9065684412166746e-002 2.6812462826843506e-002
      7.4712405323915265e-002 -1.0640950029717913e-001
      2.5009618073590156e-002 -3.5690427585214922e-002
      3.1504518003131532e-002 -7.5984591148152911e-002
      -6.4586449472609622e-002 1.3015570025322503e-002
      3.5778841237005893e-002 -2.8287523929312147e-002
      -3.3397782487061739e-002 -1.5330444017544829e-002
      -1.1508689677089214e-002 -8.3390039488111675e-002
      4.0173869151868220e-002 4.7066220098912086e-002
      -4.1204840979942627e-002 -9.9861444843097752e-002
      2.2818099330134192e-002 -5.2378245644591752e-002
      1.3460473047348719e-002 -6.8074659801314150e-002
      3.5331269718794642e-003 -1.3415387723333938e-001
      -7.5594656474511343e-002 -7.0896749906662518e-002
      1.3569810656506649e-002 -1.3783529741362183e-001
      -3.1485905456686752e-002 2.7003861227312020e-002
      -1.6753018594567619e-002 -9.4529967478826620e-004
      -9.7878900039191155e-002 -5.2384098866948899e-002
      -1.7170439575957045e-002 -1.6525352225185731e-002
      4.1538534706360097e-002 2.8660550830925370e-002
      3.4694308999245894e-002 3.8071320774900083e-003
      -5.8047723689844503e-002 3.4653390757222548e-002
      3.2611107907410203e-002 -1.5628260207505801e-001
      3.8314188610229651e-002 -6.9740947891712896e-002
      -4.6445617872467725e-002 -2.7948719409900537e-002
      -2.3220607592898637e-002 1.0633114952907127e-001
      -3.4516835212893740e-002 -3.6363188396768567e-002
      1.2575364444919884e-001 1.1201297294999791e-002
      6.1862593770947751e-002 3.7507481681762850e-002
      6.7346587377005621e-002 -7.1718199487610657e-002
      -6.3997803886497881e-002 -1.5110363275584618e-002
      -1.7248652491238466e-002 3.7589410144089821e-004
      -4.3546703441104465e-002 3.7015957687671401e-002
      3.1221777001090710e-002 -8.3412108696663531e-002
      2.4461520779310412e-002 1.1121974511375889e-002
      -2.0735545112934926e-002 -5.6071179417227730e-002
      1.7088454189439775e-001 4.4252236562898242e-002
      7.7804618659806160e-002 3.9813421503834386e-002
      -1.3656660028321216e-001 9.8224072803437881e-002
      1.6441229200666676e-002 1.3769555276781989e-001
      -3.3383293947981764e-002 6.1045138294998635e-002
      4.7358283609120672e-002 -1.9973358031003311e-002
      -1.9641713713711977e-002 -8.7226231245080364e-003
      5.5779887390142745e-002 6.7163682002655670e-002
      -9.8583533199422951e-002 -2.0947253261911020e-002
      8.0149988602748926e-002 6.7490021181167079e-002
      3.2456377745246658e-002 2.5135001436011599e-002
      1.1234969094212606e-001 1.5316163079581877e-002
      -6.8214789605021142e-002 1.2292196535574690e-001
      5.7308491359808915e-002 3.5948253157238194e-002
      -1.8081032287287087e-002 5.3159393200543477e-002
      -1.9281733985488148e-002 2.1738114718249428e-002
      4.8072677508718145e-002 -1.6379697507672552e-002
      -4.8767669812686326e-003 8.0578349841660901e-002
      -7.6272875717120367e-002 -3.4411859661310384e-002
      8.3732848679821656e-002 3.9526957943807291e-002
      9.8399315602799922e-002 -2.0091700096306852e-002
      -2.6769437496958512e-003 9.7343847730576461e-003
      3.3376685752643333e-002 8.0615265016605847e-002
      5.5956695427044741e-002 -7.9485972819821171e-002
      4.0657819220055375e-002 2.0380770251464016e-002
      -7.6090763293025096e-002 -2.6411556700781215e-003
      -9.9793227007899388e-002 -8.1791584285533792e-002
      -2.8606504293451317e-002 3.2113834355334631e-002
      3.3038153460572185e-002 2.3392483624857782e-002
      -6.0828435161782192e-003 1.8138779551621687e-002
      2.5653269026838121e-002 -1.2048326594767365e-001
      -5.9423979449413286e-002 -6.4156509289833241e-002
      1.2111611966972627e-002 1.0064868133821772e-002
      4.2498764287459349e-002 5.8586235188239841e-003
      -1.1902977226143381e-001 -4.0418029318072271e-002
      -2.4820393507180754e-003 7.2907528039537345e-002
      -2.1733751997095433e-002 1.5724686295500701e-001
      -7.5225238690657004e-002 -3.2431540518288497e-002
      -1.4436648026022543e-002 -4.1812172025597512e-003
      -2.0068296648495916e-002 -3.9707657618263101e-002
      1.3003859411566035e-001 -9.8289837694836332e-002
      5.0217448716494285e-002 -3.9636547581361530e-002
      5.9278430330022072e-002 -7.6573599565314301e-002
      7.1589412595425658e-002 -2.0468299174816369e-002
      2.1550987102893215e-002 1.7699535948443768e-003
      3.9631625723931245e-002 -1.0351766165404069e-001
      -5.1920489550569451e-002 9.4234352019442122e-002
      -6.8914935954368289e-002 -2.0115735150136257e-002
      -5.0244872974221449e-002 1.0577780955434503e-002
      1.5035934290824253e-002 -3.0783464252057791e-002
      5.0629597575968521e-002 -4.6809256267084688e-002
      -8.7000641328414570e-003 -8.7149543390556777e-002
      -3.4942220589108383e-002 -6.4875844610376945e-002
      -5.4087454510540148e-003 2.0601927669523450e-002
      -9.3680359436574351e-002 -2.6962799281355251e-002
      2.9607749981359038e-002 8.1631369926458253e-002
      -5.7635892563954759e-002 -7.8242658203539886e-002
      3.8728176470371488e-002 1.9166340210871206e-002
      5.6176183116579733e-003 -3.7898683688808034e-002
      6.2109942988136026e-002 4.6767746650167384e-002
      -1.5382343006432077e-002 9.1698907798376098e-002
      1.0114471525715285e-001 -1.0886856949161761e-001
      6.7760381252367080e-002 -1.2198362664623848e-001
      -4.1906958883186379e-002 -3.4275640706010364e-002
      -1.1319253618180777e-001 4.1679415103680513e-003
      3.9577248703790424e-002 4.5746514048970550e-003
      -2.3630528908668298e-002 7.6637046116415119e-004
      3.6944229472114926e-001 5.5922701969697924e-002
      1.9753808540432039e-003 -1.6690474001191145e-002
      1.2893389525059354e-002 7.0851830956046189e-003
      -1.0939878728125910e-002 -1.3965536322583089e-003
      -2.8523510158544547e-002 9.8765191225674065e-002
      6.2840969367982035e-003 6.5541211436428853e-002
      -1.4136108689407978e-002 -3.6742833082940976e-002
      -3.6480766956301564e-002 -4.9952041114147964e-002
      2.4046310644388912e-002 3.0572148297459550e-002
      2.4155169145857767e-002 -3.6248562910524101e-003
      -6.7307188499319826e-002 -2.2305159384459532e-002
      -3.5637915145964469e-002 -4.8822481247791545e-002
      -8.3783186068651955e-002 -4.2555624470500646e-002
      -5.1781476264403506e-002 3.9179862405995481e-003
      5.3475460189360627e-002 4.6602708276969253e-002
      -2.5613151420752430e-002 6.4883744229074350e-002
      2.3625926646275702e-003 7.4845712099681216e-002
      2.1196948372095781e-002 -3.5359406904101248e-002
      3.1894906517464419e-002 5.7564111586711736e-002
      -4.6684438389859141e-003 -9.7669770347117452e-003
      -7.8086770378296963e-002 3.6274166600217205e-003
      -7.1544140560820813e-002 4.2459040792057472e-002
      -2.9282872542804230e-002 -2.5702810394242281e-002
      5.0123427618496148e-002 1.9811951478009841e-002
      -4.6860417240933996e-002 -8.5742004921331508e-002
      4.8372824695895732e-002 3.1171590095128484e-002
      2.8072196729339950e-002 1.3684720021235493e-003
      -1.3368593784071774e-002 3.5186350510402285e-003
      -1.4544298139762686e-002 8.4202525498397601e-002
      -1.0621854838741268e-001 -1.2493208237295284e-001
      -2.8937151753566929e-002 -9.4396757427151097e-003
      -8.9631948048597865e-002 -7.0461678687195828e-002
      8.3406632019209545e-002 1.9541083876103843e-002
      -1.1702078133089516e-001 1.7568142190586232e-003
      9.4135291516713009e-003 7.9546603170080110e-002
      -5.2318128161721197e-002 3.8233187827368093e-002
      -1.2429649908719134e-002 -6.8830981973138791e-002
      -8.4719433066150568e-002 3.7075340658321722e-002
      -4.9236831499073402e-002 -2.1235092887901756e-002
      4.5057520778603146e-003 9.7588451788864175e-002
      -6.7885384460692810e-002 -5.5134628745393988e-002
      -1.0459368781191686e-001 -6.9649888480304498e-003
      -4.2824483945889467e-002 -7.0287357343827794e-002
      6.1201172440324851e-002 2.7711439179936737e-002
      1.0641972775524741e-001 1.6267812415744643e-002
      1.1609748287585013e-002 4.1052644014587268e-002
      -3.2495042376237369e-003 -1.2709282402096839e-001
      3.8024150869446938e-002 6.6401832014528858e-002
      -1.9478327396383409e-002 -6.2101566221838524e-002
      -8.2739496137397228e-002 -4.8187599453677612e-003
      7.1271846432080614e-003 1.1973305542773373e-002
      -1.5638837255295322e-002 2.8788689907345951e-002
      4.6546688623622483e-002 -3.7931251064498059e-002
      8.7701826327762147e-003 1.4315046994030486e-001
      -7.2869022629161215e-002 7.6220585184866338e-002
      8.9120344859882836e-002 8.8216395779677978e-002
      -9.5875231625830344e-003 1.0822126059913305e-002
      1.3801647670367690e-002 -5.4785646211500297e-002
      -2.4543064156719295e-003 -3.4111954129916015e-003
      -8.6012403901552847e-002 -5.8026428000111617e-002
      -5.7206435738841419e-002 -6.7416718739545037e-002
      -2.3410245183535246e-002 -5.4039883989028719e-004
      2.1965510152553713e-002 -1.0021986517835077e-001
      2.6888646523240490e-003 -3.3591147221432742e-002
      3.8212578816808500e-002 -4.4994258639880401e-002
      3.8320673735597187e-002 2.8441341547634992e-003
      3.1272785571237645e-002 8.7918537007077288e-002
      1.1160056522722829e-001 1.6834572200009886e-002
      2.3912302468437410e-002 2.4137369158691632e-002
      -1.1992658052907017e-001 -5.0798440160816243e-002
      3.4176575067786333e-002 -3.9851786225143855e-002
      -5.1456021333086403e-002 -7.1344454293037804e-002
      8.4426894257613155e-002 -1.0041849857852118e-002
      -3.9346244996696558e-003 3.1296539835053479e-003
      1.6043983054908190e-002 1.3383027442121226e-001
      -2.1798757341244351e-002 4.3730534019925868e-002
      -7.7467809508240434e-002 7.7831598313581621e-002
      2.2250222553145675e-002 -3.6984989822610177e-002
      -1.4222153190075245e-002 7.3454242163105699e-002
      3.7615893703197498e-002 -5.3989799911887473e-002
      -1.6393793620904255e-002 -5.9076280591176200e-002
      2.1718764091362960e-002 2.8581475057818807e-002
      6.8660836117125285e-002 4.8481549014229394e-002
      1.7316343002175598e-002 1.9342210476533998e-002
      7.6161930251697034e-003 -1.2314590774426010e-001
      -8.8332218864249357e-002 -2.9104709918473942e-002
      3.4715903223125413e-002 -3.3134817544671083e-002
      2.4157441344732210e-002 1.2385001073915602e-002
      -4.8434093198682304e-002 5.6775310180059727e-002
      6.0156671087171695e-002 -8.7407030494929053e-002
      -1.2054940134389021e-001 -2.2728561287592576e-002
      3.3706054013800266e-002 8.0965303219183507e-002
      -9.9413809512494764e-003 -1.4712228590087660e-002
      -1.9602668072207313e-002 -4.5666457818969372e-003
      -3.0228148484158238e-002 -3.5917081154059435e-002
      6.9752190709791467e-002 2.4170550623193083e-002
      -3.0823585786193271e-002 4.4315368529540322e-002
      -4.1222298825189975e-005 -2.7731514451464493e-002
      -1.6679758536551736e-002 -3.8781289327621815e-002
      -2.9832390116439709e-002 -4.4075231106409846e-002
      -2.6185810189054710e-002 2.7992710837131739e-002
      -6.6971227997738442e-003 3.7124574778486207e-002
      1.7799295785405844e-002 -2.9865646434752209e-002
      -1.9075331588428186e-002 -7.9448998455813755e-002
      -1.6099806055602378e-002 5.2261098974435705e-002
      8.5569840619137260e-003 -5.1346147746552856e-002
      -2.7611496155575437e-002 -1.2150052173261424e-002
      -5.0897174801135543e-002 5.7756995270244350e-003
      -6.3949313759192994e-002 -4.8445496584874390e-002
      -3.1897950099900277e-002 -3.3964588272689042e-002
      2.5756506907160501e-002 4.9046786992244754e-002
      -5.5504561698664840e-004 -2.6362206705919832e-002
      -8.1250916576544666e-003 9.2629871007766373e-002
      -2.1548818018286339e-002 -1.9169194381576510e-002
      6.9290148606679647e-002 4.3304272721564861e-002
      -2.7838887569439008e-003 -7.8609512698618201e-003
      -7.1829164573446069e-002 5.2502852255036613e-002
      2.3957373423647123e-003 3.1846709037947063e-003
      2.8287880417767627e-002 -5.5198715924840809e-003
      7.2713539757550766e-002 5.3555065579235269e-004
      -4.3509026836306031e-002 -1.7518154616110410e-001
      5.4395821507714458e-002 1.2581754344472855e-002
      5.0805079284729458e-002 -2.1441813660130669e-002
      -5.9325213933368780e-002 -3.3323431970191136e-002
      1.4321444456037835e-002 4.1481602277145126e-002
      -2.9656255499635617e-002 -5.3242342899489356e-002
      2.6967309729161709e-002 -5.4459632468315290e-002
      -3.2921580769909801e-002 -6.0582466333218503e-002
      5.3605557028912593e-002 5.9956957221716990e-002
      -4.7319082218588160e-002 -3.5110250305426569e-002
      9.5088744113822898e-003 1.7025212792713466e-002
      -3.4309786652743625e-002 7.3525686720070024e-002
      -8.8389344464381691e-003 -4.4121028366950858e-002
      -1.2000656571374016e-002 -6.6549243304241737e-003
      -6.7773078754374952e-002 -4.1836764974768292e-002
      -2.5903430060044280e-002 6.2846539170359039e-002
      -7.4445492432123700e-002 -1.2849396720147795e-002
      -3.3556719876703833e-002 2.3400606056212879e-002
      -5.5770522509118819e-002 -3.1048212955536976e-003
      5.4885554031516244e-002 -1.0625143283176521e-002
      7.0102098262937410e-002 1.5424003990641377e-002
      6.0756115934789716e-003 7.2296252284035079e-002
      3.0614959042424538e-004 -6.9296062015958615e-002
      5.3626002799373025e-002 4.0303491201896642e-002
      3.1236708813257713e-002 -2.1170058283313802e-002
      -3.3186541168957487e-002 1.7883496207197775e-002
      1.0470571047395322e-002 2.3024185425087034e-002
      -1.9819348604842888e-002 -6.7761131510920586e-002
      7.8145146478611274e-002 -7.1736228258356622e-003
      -2.7048672981364954e-002 1.0226368228841189e-001
      -3.6403869515080033e-002 5.7733844211588149e-002
      9.6638473873497166e-002 4.2735509429399340e-002
      2.2535739791051407e-002 -1.7517626798782625e-002
      -2.5782736565036841e-002 -1.0316216303954752e-002
      -5.2672577535047650e-002 2.8820327079582864e-002
      -1.2535815273837561e-001 -3.1788046062979344e-002
      -6.1167249342377793e-002 -7.5697639969361467e-003
      -2.0653654309186583e-002 -6.0532097214417213e-002
      -2.0373596122780727e-002 -1.0427411669438938e-001
      -4.2953949686319194e-002 -3.4210940251176700e-002
      1.8973203833034000e-002 -6.0419875310976048e-002
      4.7666565375372012e-002 2.6005474609312761e-003
      3.0530816516325620e-002 5.4464043962223430e-002
      6.5225026508701087e-002 2.9005267731170514e-002
      1.2226058720825902e-002 -3.4676672291412002e-003
      -1.2405134582240629e-001 -5.0187441106516059e-002
      -7.8199662496682924e-003 -7.2351590620416628e-002
      -6.9397317365968200e-002 -2.3953615991446790e-002
      -7.1359001060357615e-003 5.1863768610669776e-003
      -3.6302488418614359e-002 -4.3019807440586547e-002
      1.4446824724038127e-002 4.3495519830816981e-002
      -1.3019905704243592e-001 -5.2052407374157108e-003
      -3.7685956501492882e-002 4.4373242738012502e-003
      3.4888857889921208e-002 1.4644475303284110e-002
      -3.7213568196925340e-002 3.0218483811537574e-002
      2.0456955650942511e-002 -5.8223112349142063e-003
      -6.9451701587848219e-002 -1.9055591684458154e-002
      -2.9626647630236363e-003 -7.3947740019815772e-002
      7.1399210740724056e-002 4.9070801343518822e-002
      -8.9506782802705562e-002 -4.4479475892188640e-002
      6.6953878861790050e-002 -4.9290409109109909e-002
      -7.0681673352163160e-002 9.6541686318740248e-003
      2.0962964896286913e-002 -1.5116751924870813e-002
      -2.2782139860033631e-002 -3.1492761489966312e-002
      -1.4073023830328485e-002 6.7601003847500910e-002
      3.9717235659522308e-002 -2.5274412322139617e-002
      -8.8119969936083245e-002 2.1699929169467929e-002
      3.2663312834450252e-003 5.8786009308087056e-002
      6.1025132080419564e-003 2.8687335561585717e-002
      3.1267455572376907e-004 1.9913625428407574e-002
      -1.2624846384348600e-002 -2.3285779208101300e-002
      5.2793170109531010e-002 2.1700832352732759e-002
      -8.1195979605707055e-002 9.6082205516262315e-002
      -2.6330523367536225e-002 3.2495023236471493e-002
      9.2948316602571260e-002 1.0575869665066011e-001
      1.1265197344593591e-002 -1.0955718512806088e-003
      2.3698616465385122e-002 4.5503655970640725e-002
      -3.9481472327426978e-002 1.0339671212991855e-001
      5.6535723547390400e-002 6.3299627954872789e-002
      -1.8309393146035816e-002 5.2255796918600050e-002
      -4.3764923040526954e-002 -5.8682446710568895e-002
      2.7852531806818150e-002 2.8111665489392177e-002
      4.2992339086754837e-002 1.0943516379765185e-001
      1.0043898593208175e-001 8.4916469867335115e-002
      -6.2873241057865445e-002 -5.9374217938612861e-002
      -1.0419913288099150e-001 -2.1455646809614894e-002
      4.6933579818076436e-002 -6.3142603573005648e-002
      5.3816219917419472e-002 9.6477767777582268e-002
      -5.4172368247654293e-003 6.9249668595232752e-002
      1.4785968817746691e-003 4.7363459934881010e-002
      -1.2181803577584367e-002 -9.2194272782561704e-002
      7.9681154298987630e-002 -5.0898145814264509e-002
      -1.1561213812859464e-003 1.1501488873561333e-002
      -5.2550571808925271e-002 -6.2939383994578005e-002
      6.8063758456491749e-002 1.0294102786322898e-001
      1.0646066069223974e-001 -2.1004506595404537e-002
      6.6641363578398019e-002 -5.9276572010169011e-002
      5.8076625759450516e-002 2.1695155381762189e-002
      -3.0275933960845762e-002 7.5661791601509293e-002
      4.8469030646159691e-002 2.3507846850844862e-002
      4.3863807912963106e-002 9.5022819781697118e-002
      -9.2114507336456972e-002 1.1195791391200921e-002
      -5.9840854523202529e-002 1.8667706365561672e-003
      6.6591533526660002e-002 -1.0011564871866184e-001
      -1.1682771097213206e-001 -1.1572260416328789e-001
      -8.8576725429869510e-003 -2.4892678676446980e-002
      -9.9102567850358508e-002 7.8752556047542808e-003
      1.1792574205462919e-002 1.3940049157127748e-002
      3.6004247251553712e-002 -5.2696793257913842e-002
      7.1769827907055536e-002 4.0553454606155309e-002
      1.5469914374499015e-002 -1.1670093323188994e-002
      -2.5542528268573395e-002 3.7189780213328222e-003
      -7.2613054752812198e-002 7.2407368217670839e-002
      1.0149032844806627e-001 -6.2608144111510042e-002
      -8.0755090531922785e-002 4.6794572249959015e-004
      -6.0880298987094905e-002 1.4087450291425094e-002
      -4.3480154589475867e-003 -8.3991545521783451e-002
      4.0208607063491643e-002 6.4491138001909573e-002
      -3.1986593818198412e-002 -9.4223467848434370e-002
      2.6763750701755771e-003 3.1790746923893130e-002
      -6.7564225612445322e-002 4.8597666841789011e-002
      -9.6846079903633350e-002 8.9890270283162731e-003
      2.3196650476173697e-002 -3.4389244646481104e-002
      1.5857200495238696e-002 -1.0684447625319395e-001
      -8.4810425217757168e-002 8.4071684497446508e-002
      5.0317361780001457e-002 -1.3014400483491499e-002
      4.0229720030726050e-002 -1.6497772555030748e-002
      8.4210387619242891e-002 1.0001714698640669e-001
      1.9399076910024567e-002 6.1881166773979949e-003
      -3.5097157842555411e-002 -4.5623379137977912e-002
      2.6852442444554727e-002 -2.7778025344204378e-002
      -8.1979348622061105e-002 8.1623863717064760e-002
      1.8515217100256345e-002 6.1428242049486485e-002
      -3.3885602408930605e-002 -8.1917771130995222e-005
      -4.9683596388629875e-002 -6.0538963853745326e-002
      5.1204386609858099e-002 6.3285903012958195e-002
      3.9035252931480691e-002 -8.4011797880837416e-002
      9.0915699305118308e-002 -7.7138071668169342e-002
      3.2637802477598912e-002 3.4214329322114802e-003
      3.9910358301678092e-002 2.9320586771929880e-002
      -4.7918795919474608e-002 1.2588186946597229e-002
      -1.0890993106500636e-001 7.2033049718623635e-002
      2.3880498892527094e-002 5.5839353150625312e-002
      -6.1116588683750882e-002 8.8022295856850674e-002
      -1.3990676455435062e-002 9.0894906911367174e-002
      2.3831448453652898e-002 -4.0507177967515566e-002
      -5.0054066341679804e-002 5.9557981818509867e-002
      -2.4046426111932421e-003 -3.9710316995974972e-002
      6.3708738519807517e-002 -3.3425624446032240e-002
      2.7671419433169350e-002 2.6904347760415007e-002
      9.0342937820397304e-002 -2.5614786149971490e-003
      -9.5459824804597138e-002 9.5166126395804337e-002
      -1.0918139900239631e-002 4.8929848025999562e-002
      -4.7764893558088682e-002 2.4374488105720588e-002
      6.4481487208960644e-002 -1.8737879657328035e-002
      4.9344084940513719e-002 3.6209173804719184e-002
      -4.3280721053942470e-002 -7.9500712580269819e-002
      -5.9149216903641774e-003 4.3155020053535276e-002
      -6.8081481117664461e-002 -4.1714833832029161e-002
      -1.8578487024902904e-002 4.6250875425845772e-002
      3.5187737694311626e-002 -6.2116790844814411e-002
      -2.1724875043195681e-002 -4.3692656486553773e-002
      -9.2856806377344184e-002 2.7746113481175016e-002
      -5.5478943469892877e-002 7.6148700373161154e-002
      -1.0589331435656166e-002 5.1442035097126346e-002
      8.8281694948110154e-002 2.3338237376157742e-002
      1.9164546344284990e-002 4.0446374149696956e-002
      -5.7168928494209154e-002 -2.0989925731663119e-002
      2.0734310493347502e-001 5.9962888519162476e-002
      -3.7522207793520758e-002 1.4053523087174684e-002
      5.9936949278309101e-002 1.0465129326250892e-001
      -3.9606298086388887e-002 3.4077441849913258e-002
      -1.0877687438140754e-001 8.5557100410376410e-002
      -1.5802841233957626e-002 1.0365658372310581e-001
      6.4188482054806331e-002 6.7174935394095539e-002
      -3.7750608365553787e-002 9.8324627334587369e-002
      3.5672748675947296e-003 -1.0568601957902621e-001
      3.6274355050507710e-002 -7.7046540254734827e-003
      1.0614206139319153e-001 6.5680378594672267e-002
      5.9342633693701824e-002 1.0225225991399835e-001
      -3.4137209018542815e-002 -3.0945587255743208e-002
      -7.7212305060169392e-002 4.3730949987410582e-002
      4.3415486013411456e-002 -6.3491022068069350e-002
      -2.5146632786820038e-002 1.1645905041386380e-001
      -5.6308905318294418e-002 1.0693574878220789e-001
      2.9730505730858222e-002 5.7873882371910004e-002
      2.7152052500010737e-002 -8.9642538533744265e-002
      9.1735118636876778e-002 4.8280423838791275e-002
      -4.3161578870393000e-002 4.0460034159926252e-002
      -3.8027650006287159e-003 -4.3695356726821795e-002
      -5.4882236645913875e-003 1.1732943067956485e-001
      8.3635043700030429e-002 -2.1835665495657092e-002
      -4.6916850198666149e-002 3.3044702916772847e-002
      5.2158182001858053e-002 4.0368995844205571e-002
      -1.0639255490674075e-003 8.5357728451765702e-002
      -5.2433353938087582e-003 6.5027209528588523e-002
      4.6946822373475895e-002 5.6953237500846160e-002
      -9.8531432803908581e-002 4.4129966685773618e-002
      -3.5624777453841336e-002 -2.9404368182913570e-002
      1.4219182277822121e-001 -9.6335290499377391e-002
      -7.8195940464537525e-002 -1.0949661689403735e-001
      1.4878470484565171e-002 -4.2393481168560378e-002
      -7.8578250663235608e-002 7.5564590237873541e-002
      1.9433872592843023e-002 1.7001839259135811e-002
      -9.3388317808489035e-003 -3.5706452865428666e-002
      1.1698007151983349e-001 4.6058218087858406e-002
      -5.2385062521037563e-002 -5.0246492030403531e-002
      -2.8699946831041375e-002 -3.9740560770285670e-002
      -9.8314614022591687e-002 5.8894306479141408e-002
      1.0464126500505992e-001 -6.4438575359190342e-002
      -3.5070967889803233e-002 -4.4391651697053905e-002
      8.1314162601976731e-003 5.1274693913228569e-003
      -1.3666180470255496e-002 -4.0887959331989236e-002
      6.7480790852864452e-003 4.1796569698507924e-002
      4.0102811768235942e-002 -1.0494799736760523e-001
      7.9855027991496144e-002 2.8256718168716870e-002
      -5.5897957912784645e-002 -4.7309216309335281e-002
      -9.0422699835248393e-002 1.0807890595542765e-002
      3.8369932121870516e-002 -1.8175083165351763e-003
      -4.6316131794320793e-002 -1.2279736200872074e-001
      -5.1669175697276103e-002 1.0038597957650115e-001
      2.1057648581781399e-002 -5.0902155991506298e-002
      8.6477263642473184e-002 -9.5966520793107045e-003
      8.3645752506335005e-002 8.7271753758465340e-002
      3.8844893099392895e-002 9.3537941510258051e-003
      -3.7449382591938460e-002 -1.8505350329221921e-002
      1.4188643245227542e-002 -4.3206061476113763e-002
      -7.5904507758087755e-002 8.7955095201597291e-002
      4.0904917097818884e-002 8.0201189704097842e-002
      -4.8003454987699624e-002 1.2176074970174880e-002
      -7.9166377948547431e-002 -4.4960218848374020e-002
      7.9469370947093054e-002 6.3149572782838129e-002
      8.2789496964222539e-002 -6.5186209557458200e-002
      3.0894301553988493e-002 -1.1320348435332865e-001
      5.2928140199428646e-002 -2.9680932627219312e-003
      -2.0952682980436600e-002 1.8730600276281779e-002
      2.7514613326722160e-002 5.8932678821167015e-003
      -1.4210201271243716e-001 1.6302847288822742e-001
      -2.0300249799161330e-002 1.0579492976208518e-001
      -3.0065049710275429e-002 1.1343815530949984e-001
      -1.4492045579540126e-002 -5.1288483874806688e-002
      2.3553599103790551e-002 -5.9033184183226742e-002
      -7.9709579853623730e-002 1.0041121100979333e-001
      9.1583181098927824e-002 -1.2313170654845033e-001
      7.7141286570242842e-002 9.0323372782800081e-003
      1.9148160015147617e-002 -3.2466256244625576e-002
      6.4052198080802522e-002 3.6579967857765856e-002
      -4.6545888094619146e-002 6.4911652690254909e-002
      -7.0569448812555211e-002 1.0286520735156904e-001
      1.9158817521381995e-002 9.6652196918122893e-002
      4.0275391796851405e-002 2.9229135107746117e-002
      4.8834780392703107e-002 1.2694234864029208e-003
      -3.6771099608425707e-002 -3.5948885284052108e-002
      2.4656835264030681e-002 8.3434306202587349e-002
      -6.5126804955850090e-002 -4.1876159421074477e-002
      2.4689002593986754e-002 4.4959349767781841e-002
      1.1020565928442416e-002 -9.9673187197837784e-002
      4.0955710990119888e-002 -1.4247431655678586e-001
      -8.4835855704603919e-002 3.5062977153488710e-002
      -1.0571362781161317e-001 9.0838585865907304e-002
      2.3073543685229993e-002 4.1698933033917944e-003
      8.1510900904480071e-002 3.0069479020550623e-002
      1.6583178223300361e-002 -2.7981683098499448e-002
      9.1958334189689198e-002 2.8987364176755643e-002
      -9.5504566378474989e-004 -9.6340484382745097e-003
      4.2682455408873587e-003 7.4054031248763849e-003
      4.9434146516857923e-003 -9.2759686539287262e-003
      -5.4123594737046843e-003 1.0362453341081049e-002
      7.4336250961077877e-003 -3.3472802961985240e-005
