<?xml version="1.0"?>
<opencv_storage>
<cascade>
  <stageType>BOOST</stageType>
  <featureType>HAAR</featureType>
  <height>30</height>
  <width>60</width>
  <stageParams>
    <boostType>GAB</boostType>
    <minHitRate>9.9900001287460327e-001</minHitRate>
    <maxFalseAlarm>5.0000000000000000e-001</maxFalseAlarm>
    <weightTrimRate>9.4999999999999996e-001</weightTrimRate>
    <maxDepth>1</maxDepth>
    <maxWeakCount>100</maxWeakCount></stageParams>
  <featureParams>
    <maxCatCount>0</maxCatCount>
    <featSize>1</featSize>
    <mode>ALL</mode></featureParams>
  <stageNum>9</stageNum>
  <stages>
    <!-- stage 0 -->
    <_>
      <maxWeakCount>2</maxWeakCount>
      <stageThreshold>-2.1223719418048859e-001</stageThreshold>
      <weakClassifiers>
        <_>
          <internalNodes>
            0 -1 25 1.1281633749604225e-002</internalNodes>
          <leafValues>
            -9.7422856092453003e-001 8.1282860040664673e-001</leafValues></_>
        <_>
          <internalNodes>
            0 -1 11 -2.0337879657745361e-002</internalNodes>
          <leafValues>
            7.6199138164520264e-001 -9.8221069574356079e-001</leafValues></_></weakClassifiers></_>
    <!-- stage 1 -->
    <_>
      <maxWeakCount>3</maxWeakCount>
      <stageThreshold>-1.2222844362258911e+000</stageThreshold>
      <weakClassifiers>
        <_>
          <internalNodes>
            0 -1 6 -3.4221742302179337e-002</internalNodes>
          <leafValues>
            7.1047228574752808e-001 -9.5420366525650024e-001</leafValues></_>
        <_>
          <internalNodes>
            0 -1 30 5.9281527064740658e-003</internalNodes>
          <leafValues>
            -9.1167920827865601e-001 7.0092260837554932e-001</leafValues></_>
        <_>
          <internalNodes>
            0 -1 20 -5.3481617942452431e-003</internalNodes>
          <leafValues>
            6.4359843730926514e-001 -9.2924255132675171e-001</leafValues></_></weakClassifiers></_>
    <!-- stage 2 -->
    <_>
      <maxWeakCount>4</maxWeakCount>
      <stageThreshold>-2.1829895973205566e+000</stageThreshold>
      <weakClassifiers>
        <_>
          <internalNodes>
            0 -1 13 2.1316044032573700e-002</internalNodes>
          <leafValues>
            -9.3726038932800293e-001 5.7129001617431641e-001</leafValues></_>
        <_>
          <internalNodes>
            0 -1 17 2.6467428542673588e-003</internalNodes>
          <leafValues>
            -9.2447656393051147e-001 5.1686888933181763e-001</leafValues></_>
        <_>
          <internalNodes>
            0 -1 0 3.9040930569171906e-002</internalNodes>
          <leafValues>
            -8.6544984579086304e-001 5.9475743770599365e-001</leafValues></_>
        <_>
          <internalNodes>
            0 -1 14 2.9325990471988916e-003</internalNodes>
          <leafValues>
            -8.9714837074279785e-001 5.7498520612716675e-001</leafValues></_></weakClassifiers></_>
    <!-- stage 3 -->
    <_>
      <maxWeakCount>5</maxWeakCount>
      <stageThreshold>-1.4473544359207153e+000</stageThreshold>
      <weakClassifiers>
        <_>
          <internalNodes>
            0 -1 9 1.8213603645563126e-002</internalNodes>
          <leafValues>
            -8.6710524559020996e-001 6.2325578927993774e-001</leafValues></_>
        <_>
          <internalNodes>
            0 -1 22 -4.1958034038543701e-002</internalNodes>
          <leafValues>
            5.4232537746429443e-001 -9.0804708003997803e-001</leafValues></_>
        <_>
          <internalNodes>
            0 -1 3 -1.0289356112480164e-002</internalNodes>
          <leafValues>
            6.8052345514297485e-001 -8.3472126722335815e-001</leafValues></_>
        <_>
          <internalNodes>
            0 -1 2 1.7010748386383057e-002</internalNodes>
          <leafValues>
            -9.0085172653198242e-001 5.5929398536682129e-001</leafValues></_>
        <_>
          <internalNodes>
            0 -1 26 1.0077043436467648e-002</internalNodes>
          <leafValues>
            -8.4714728593826294e-001 6.3967770338058472e-001</leafValues></_></weakClassifiers></_>
    <!-- stage 4 -->
    <_>
      <maxWeakCount>4</maxWeakCount>
      <stageThreshold>-2.0491693019866943e+000</stageThreshold>
      <weakClassifiers>
        <_>
          <internalNodes>
            0 -1 18 6.6680153831839561e-003</internalNodes>
          <leafValues>
            -9.2005711793899536e-001 4.3533697724342346e-001</leafValues></_>
        <_>
          <internalNodes>
            0 -1 36 -2.2326443344354630e-002</internalNodes>
          <leafValues>
            7.0820188522338867e-001 -7.7075308561325073e-001</leafValues></_>
        <_>
          <internalNodes>
            0 -1 7 -5.4546028375625610e-002</internalNodes>
          <leafValues>
            5.5647534132003784e-001 -9.1904431581497192e-001</leafValues></_>
        <_>
          <internalNodes>
            0 -1 5 1.0095696896314621e-002</internalNodes>
          <leafValues>
            -7.9470872879028320e-001 5.9189963340759277e-001</leafValues></_></weakClassifiers></_>
    <!-- stage 5 -->
    <_>
      <maxWeakCount>5</maxWeakCount>
      <stageThreshold>-2.6568324565887451e+000</stageThreshold>
      <weakClassifiers>
        <_>
          <internalNodes>
            0 -1 1 -1.7435662448406219e-002</internalNodes>
          <leafValues>
            8.0968278646469116e-001 -7.8309601545333862e-001</leafValues></_>
        <_>
          <internalNodes>
            0 -1 24 7.7442917972803116e-003</internalNodes>
          <leafValues>
            -8.3448845148086548e-001 5.2391415834426880e-001</leafValues></_>
        <_>
          <internalNodes>
            0 -1 28 3.6376789212226868e-002</internalNodes>
          <leafValues>
            -8.8430684804916382e-001 5.1393699645996094e-001</leafValues></_>
        <_>
          <internalNodes>
            0 -1 31 2.2455237805843353e-002</internalNodes>
          <leafValues>
            -7.4314427375793457e-001 6.2228542566299438e-001</leafValues></_>
        <_>
          <internalNodes>
            0 -1 12 7.8052757307887077e-003</internalNodes>
          <leafValues>
            -8.7622797489166260e-001 5.8820319175720215e-001</leafValues></_></weakClassifiers></_>
    <!-- stage 6 -->
    <_>
      <maxWeakCount>5</maxWeakCount>
      <stageThreshold>-2.7694849967956543e+000</stageThreshold>
      <weakClassifiers>
        <_>
          <internalNodes>
            0 -1 37 1.6332115978002548e-002</internalNodes>
          <leafValues>
            -8.1515246629714966e-001 6.8567454814910889e-001</leafValues></_>
        <_>
          <internalNodes>
            0 -1 15 2.5026062503457069e-002</internalNodes>
          <leafValues>
            -7.6893275976181030e-001 6.1526006460189819e-001</leafValues></_>
        <_>
          <internalNodes>
            0 -1 16 -4.6988800168037415e-003</internalNodes>
          <leafValues>
            5.0967985391616821e-001 -9.0416157245635986e-001</leafValues></_>
        <_>
          <internalNodes>
            0 -1 19 -2.0938215311616659e-003</internalNodes>
          <leafValues>
            3.9168831706047058e-001 -9.4321447610855103e-001</leafValues></_>
        <_>
          <internalNodes>
            0 -1 4 -6.8702264688909054e-003</internalNodes>
          <leafValues>
            5.2770644426345825e-001 -7.5186532735824585e-001</leafValues></_></weakClassifiers></_>
    <!-- stage 7 -->
    <_>
      <maxWeakCount>5</maxWeakCount>
      <stageThreshold>-2.7292172908782959e+000</stageThreshold>
      <weakClassifiers>
        <_>
          <internalNodes>
            0 -1 29 -5.0191991031169891e-003</internalNodes>
          <leafValues>
            5.4744523763656616e-001 -8.2846003770828247e-001</leafValues></_>
        <_>
          <internalNodes>
            0 -1 10 -2.1064162719994783e-003</internalNodes>
          <leafValues>
            4.3193465471267700e-001 -8.5957121849060059e-001</leafValues></_>
        <_>
          <internalNodes>
            0 -1 33 -3.8530386518687010e-003</internalNodes>
          <leafValues>
            4.7470924258232117e-001 -7.8608202934265137e-001</leafValues></_>
        <_>
          <internalNodes>
            0 -1 34 8.9088650420308113e-003</internalNodes>
          <leafValues>
            -8.8947004079818726e-001 4.0173086524009705e-001</leafValues></_>
        <_>
          <internalNodes>
            0 -1 35 -2.1325068082660437e-003</internalNodes>
          <leafValues>
            6.1022037267684937e-001 -6.5713983774185181e-001</leafValues></_></weakClassifiers></_>
    <!-- stage 8 -->
    <_>
      <maxWeakCount>5</maxWeakCount>
      <stageThreshold>-1.4324263334274292e+000</stageThreshold>
      <weakClassifiers>
        <_>
          <internalNodes>
            0 -1 21 -3.8586608134210110e-003</internalNodes>
          <leafValues>
            4.8034933209419250e-001 -8.5120642185211182e-001</leafValues></_>
        <_>
          <internalNodes>
            0 -1 27 1.0806853882968426e-002</internalNodes>
          <leafValues>
            -7.4168246984481812e-001 5.9016358852386475e-001</leafValues></_>
        <_>
          <internalNodes>
            0 -1 23 6.0722660273313522e-003</internalNodes>
          <leafValues>
            -8.6914587020874023e-001 4.5260334014892578e-001</leafValues></_>
        <_>
          <internalNodes>
            0 -1 32 2.3735143244266510e-002</internalNodes>
          <leafValues>
            -8.0168694257736206e-001 4.0646141767501831e-001</leafValues></_>
        <_>
          <internalNodes>
            0 -1 8 4.8710773698985577e-003</internalNodes>
          <leafValues>
            -6.2904727458953857e-001 6.2314701080322266e-001</leafValues></_></weakClassifiers></_></stages>
  <features>
    <_>
      <rects>
        <_>
          0 0 60 6 -1.</_>
        <_>
          0 3 60 3 2.</_></rects>
      <tilted>0</tilted></_>
    <_>
      <rects>
        <_>
          2 14 6 12 -1.</_>
        <_>
          4 14 2 12 3.</_></rects>
      <tilted>0</tilted></_>
    <_>
      <rects>
        <_>
          3 0 11 8 -1.</_>
        <_>
          3 4 11 4 2.</_></rects>
      <tilted>0</tilted></_>
    <_>
      <rects>
        <_>
          3 12 52 3 -1.</_>
        <_>
          3 13 52 1 3.</_></rects>
      <tilted>0</tilted></_>
    <_>
      <rects>
        <_>
          4 9 7 6 -1.</_>
        <_>
          4 12 7 3 2.</_></rects>
      <tilted>0</tilted></_>
    <_>
      <rects>
        <_>
          4 10 40 3 -1.</_>
        <_>
          4 11 40 1 3.</_></rects>
      <tilted>0</tilted></_>
    <_>
      <rects>
        <_>
          6 11 50 6 -1.</_>
        <_>
          6 13 50 2 3.</_></rects>
      <tilted>0</tilted></_>
    <_>
      <rects>
        <_>
          7 2 27 8 -1.</_>
        <_>
          16 2 9 8 3.</_></rects>
      <tilted>0</tilted></_>
    <_>
      <rects>
        <_>
          7 18 6 3 -1.</_>
        <_>
          9 20 2 3 3.</_></rects>
      <tilted>1</tilted></_>
    <_>
      <rects>
        <_>
          11 5 6 22 -1.</_>
        <_>
          13 5 2 22 3.</_></rects>
      <tilted>0</tilted></_>
    <_>
      <rects>
        <_>
          14 13 12 1 -1.</_>
        <_>
          17 13 6 1 2.</_></rects>
      <tilted>0</tilted></_>
    <_>
      <rects>
        <_>
          15 0 8 6 -1.</_>
        <_>
          15 0 8 3 2.</_></rects>
      <tilted>1</tilted></_>
    <_>
      <rects>
        <_>
          15 8 11 4 -1.</_>
        <_>
          15 10 11 2 2.</_></rects>
      <tilted>0</tilted></_>
    <_>
      <rects>
        <_>
          15 8 29 4 -1.</_>
        <_>
          15 10 29 2 2.</_></rects>
      <tilted>0</tilted></_>
    <_>
      <rects>
        <_>
          18 12 8 3 -1.</_>
        <_>
          22 12 4 3 2.</_></rects>
      <tilted>0</tilted></_>
    <_>
      <rects>
        <_>
          20 12 9 16 -1.</_>
        <_>
          23 12 3 16 3.</_></rects>
      <tilted>0</tilted></_>
    <_>
      <rects>
        <_>
          22 2 8 1 -1.</_>
        <_>
          22 2 4 1 2.</_></rects>
      <tilted>1</tilted></_>
    <_>
      <rects>
        <_>
          23 5 4 4 -1.</_>
        <_>
          25 5 2 4 2.</_></rects>
      <tilted>0</tilted></_>
    <_>
      <rects>
        <_>
          23 5 2 10 -1.</_>
        <_>
          23 10 2 5 2.</_></rects>
      <tilted>0</tilted></_>
    <_>
      <rects>
        <_>
          23 10 10 4 -1.</_>
        <_>
          23 10 5 2 2.</_>
        <_>
          28 12 5 2 2.</_></rects>
      <tilted>0</tilted></_>
    <_>
      <rects>
        <_>
          24 24 12 4 -1.</_>
        <_>
          27 24 6 4 2.</_></rects>
      <tilted>0</tilted></_>
    <_>
      <rects>
        <_>
          25 6 3 3 -1.</_>
        <_>
          24 7 3 1 3.</_></rects>
      <tilted>1</tilted></_>
    <_>
      <rects>
        <_>
          25 6 30 4 -1.</_>
        <_>
          35 6 10 4 3.</_></rects>
      <tilted>0</tilted></_>
    <_>
      <rects>
        <_>
          28 25 15 3 -1.</_>
        <_>
          33 25 5 3 3.</_></rects>
      <tilted>0</tilted></_>
    <_>
      <rects>
        <_>
          29 9 8 6 -1.</_>
        <_>
          29 9 4 3 2.</_>
        <_>
          33 12 4 3 2.</_></rects>
      <tilted>0</tilted></_>
    <_>
      <rects>
        <_>
          30 6 8 10 -1.</_>
        <_>
          30 6 4 5 2.</_>
        <_>
          34 11 4 5 2.</_></rects>
      <tilted>0</tilted></_>
    <_>
      <rects>
        <_>
          31 13 9 8 -1.</_>
        <_>
          34 13 3 8 3.</_></rects>
      <tilted>0</tilted></_>
    <_>
      <rects>
        <_>
          36 8 9 4 -1.</_>
        <_>
          36 10 9 2 2.</_></rects>
      <tilted>0</tilted></_>
    <_>
      <rects>
        <_>
          37 0 22 12 -1.</_>
        <_>
          37 6 22 6 2.</_></rects>
      <tilted>0</tilted></_>
    <_>
      <rects>
        <_>
          37 5 3 4 -1.</_>
        <_>
          38 6 1 4 3.</_></rects>
      <tilted>1</tilted></_>
    <_>
      <rects>
        <_>
          41 7 8 3 -1.</_>
        <_>
          45 7 4 3 2.</_></rects>
      <tilted>0</tilted></_>
    <_>
      <rects>
        <_>
          42 5 9 22 -1.</_>
        <_>
          45 5 3 22 3.</_></rects>
      <tilted>0</tilted></_>
    <_>
      <rects>
        <_>
          43 0 16 8 -1.</_>
        <_>
          43 4 16 4 2.</_></rects>
      <tilted>0</tilted></_>
    <_>
      <rects>
        <_>
          44 9 10 6 -1.</_>
        <_>
          44 9 5 3 2.</_>
        <_>
          49 12 5 3 2.</_></rects>
      <tilted>0</tilted></_>
    <_>
      <rects>
        <_>
          45 0 7 8 -1.</_>
        <_>
          45 4 7 4 2.</_></rects>
      <tilted>0</tilted></_>
    <_>
      <rects>
        <_>
          45 26 4 4 -1.</_>
        <_>
          45 28 4 2 2.</_></rects>
      <tilted>0</tilted></_>
    <_>
      <rects>
        <_>
          46 12 12 16 -1.</_>
        <_>
          49 12 6 16 2.</_></rects>
      <tilted>0</tilted></_>
    <_>
      <rects>
        <_>
          54 13 6 15 -1.</_>
        <_>
          56 13 2 15 3.</_></rects>
      <tilted>0</tilted></_></features></cascade>
</opencv_storage>
