<?xml version="1.0"?>
<opencv_storage>
<my_nn type_id="opencv-ml-ann-mlp">
  <layer_sizes type_id="opencv-matrix">
    <rows>1</rows>
    <cols>3</cols>
    <dt>i</dt>
    <data>
      192 192 32</data></layer_sizes>
  <activation_function>SIGMOID_SYM</activation_function>
  <f_param1>6.6666666666666663e-001</f_param1>
  <f_param2>1.7159000000000000e+000</f_param2>
  <min_val>-9.4999999999999996e-001</min_val>
  <max_val>9.4999999999999996e-001</max_val>
  <min_val1>-9.7999999999999998e-001</min_val1>
  <max_val1>9.7999999999999998e-001</max_val1>
  <training_params>
    <train_method>BACKPROP</train_method>
    <dw_scale>1.0000000000000000e-002</dw_scale>
    <moment_scale>1.0000000000000000e-002</moment_scale>
    <term_criteria><epsilon>9.9999997764825821e-003</epsilon>
      <iterations>5000</iterations></term_criteria></training_params>
  <input_scale>
    1. 0. 1.6668049755459336e+002 -4.0456237381651707e+000
    1.2846568113829619e+002 -4.4929875685596166e+000
    1.6428378255413361e+002 -4.5285035686884676e+000
    1.2896794811203983e+002 -4.4835724926017591e+000
    1.6468920879474570e+002 -4.5377602904128258e+000
    1.2574617942995860e+002 -4.4170610512035351e+000
    1.6173931091361783e+002 -4.5602400845670994e+000 1. 0.
    1.4254879412147875e+002 -4.5644813617080437e+000
    1.3095941405831127e+002 -4.7170404965981856e+000
    1.4557660103411183e+002 -5.2481290014279462e+000
    1.3340284433340554e+002 -4.6997800397583038e+000
    1.4419741193155414e+002 -5.1744179925688876e+000
    1.2298227969617584e+002 -4.5034469515748112e+000
    1.4586166220290173e+002 -5.2347507946699015e+000 1. 0.
    1.3637918409357454e+002 -4.3821571297707038e+000
    1.2181485641894304e+002 -4.4425041675682193e+000
    1.3319153131195978e+002 -4.8128043433411687e+000
    1.2631391790603615e+002 -4.4646964541222012e+000
    1.3411206937405950e+002 -4.8180745101818001e+000
    1.1381994104620722e+002 -4.1782244819182495e+000
    1.3455887695975349e+002 -4.8337284550521344e+000 1. 0.
    1.3574993765839784e+002 -4.3736356476741012e+000
    1.1093760179316375e+002 -4.0586957082273818e+000
    1.2625672355556033e+002 -4.5008098057321924e+000
    1.2303442145257232e+002 -4.2848094970509365e+000
    1.2998932403804329e+002 -4.6862754807069456e+000
    1.0883610310563556e+002 -3.9941029826174943e+000
    1.2767187362134746e+002 -4.5685579328526238e+000 1. 0.
    1.3570932275197421e+002 -4.3439863748502985e+000
    1.0951078953002084e+002 -4.0659854990711555e+000
    1.3140699656598437e+002 -4.6644617396738681e+000
    1.2141612591383402e+002 -4.2824883148031772e+000
    1.3037648647238146e+002 -4.6943467532027361e+000
    1.1157327398915558e+002 -4.0974961924032192e+000
    1.3118567754426036e+002 -4.6798810252556322e+000 1. 0.
    1.3408557465888157e+002 -4.2529765008424620e+000
    1.0698121787670907e+002 -4.0318108510240762e+000
    1.3033758577072359e+002 -4.4975541043660199e+000
    1.0511591002673416e+002 -3.8468972114738538e+000
    1.2962816213502651e+002 -4.5109409281452661e+000
    1.0199588077781937e+002 -3.8071830918788354e+000
    1.3029020243969470e+002 -4.4960940954811290e+000 1. 0.
    1.3683246841441149e+002 -4.3629340168976505e+000
    1.0856595257317011e+002 -4.0844388352121452e+000
    1.3178319916639444e+002 -4.6065252158043490e+000
    1.0899110803592905e+002 -3.9687319138249788e+000
    1.2784462776872587e+002 -4.5691968944239374e+000
    1.0714379608093230e+002 -4.0480208645561380e+000
    1.3302474333130675e+002 -4.6429833420142792e+000 1. 0.
    1.5796931014437189e+002 -3.8314013689106492e+000
    1.1441107493335024e+002 -4.0474178878388027e+000
    1.5730193143457112e+002 -4.1871698570611180e+000
    1.1739224900788496e+002 -4.0855086567985959e+000
    1.5079262844285222e+002 -4.1565405621425109e+000
    1.1252499667443898e+002 -4.0580387690212936e+000
    1.5659569651834775e+002 -4.2715029750826510e+000
    1.8462453854171501e-002 -1.2171947746715794e+000
    1.7143237988465319e-002 -1.5966875424048446e+000
    1.6459249631414766e-002 -1.6665652614113455e+000
    1.5357872312531221e-002 -1.6321269780109806e+000
    1.5775015460738791e-002 -1.8391476569726333e+000
    1.6230508166626349e-002 -1.9314412086586348e+000
    1.5896601113606676e-002 -1.5543370574639057e+000
    1.8869092893437571e-002 -1.1303293974104471e+000
    1.7420818454464710e-002 -1.6148349631302321e+000
    1.6453430593364456e-002 -2.2312430107823396e+000
    1.5530016290399443e-002 -2.1850698675793141e+000
    1.4889874815822896e-002 -2.1156098870067219e+000
    1.5200545265185101e-002 -2.3774541029478331e+000
    1.6265014618493532e-002 -2.6795562517424343e+000
    1.5624112564913140e-002 -2.2067896233223019e+000
    1.6747426248018900e-002 -1.4637527510331605e+000
    1.7076032782185984e-002 -1.6279954535039398e+000
    1.5700809473879942e-002 -2.1377301250126646e+000
    1.6254825791727490e-002 -2.3117964502941382e+000
    1.6256268502159582e-002 -2.3953208367765333e+000
    1.6319934752797267e-002 -2.6102179215537906e+000
    1.6840256178505771e-002 -2.7952467249114870e+000
    1.6212008252036579e-002 -2.3926725638644357e+000
    1.6679490986887195e-002 -1.6739110512553665e+000
    1.5797182288506878e-002 -1.5759457154177325e+000
    1.4802016082483677e-002 -1.9885423343234148e+000
    1.6370475434178754e-002 -2.3547078885900756e+000
    1.6026654745019690e-002 -2.4544954266706132e+000
    1.6030877797428494e-002 -2.5527202172587442e+000
    1.6286550020091287e-002 -2.6307518799763088e+000
    1.6095246738942619e-002 -2.3974979116796358e+000
    1.6216259857118075e-002 -1.7199480119877164e+000
    1.7052516174899390e-002 -1.7760110991612195e+000
    1.5756610929888747e-002 -2.1412956298068444e+000
    1.7073095747917332e-002 -2.4403100933723563e+000
    1.6492795643437048e-002 -2.5926620199788522e+000
    1.5969287086728980e-002 -2.5523040735021021e+000
    1.6532215773646126e-002 -2.6314912945177515e+000
    1.6275188788689381e-002 -2.4076477132011345e+000
    1.5676240369216853e-002 -1.7012419494579352e+000
    1.7749239012239928e-002 -1.9468860433366246e+000
    1.6827900897026078e-002 -2.4739389149184916e+000
    1.7999153373592161e-002 -2.7156098622960001e+000
    1.6722446070628068e-002 -2.6976937619834778e+000
    1.7399336176689695e-002 -2.8928343507993515e+000
    1.7396780297622538e-002 -2.9299266093553484e+000
    1.6365850355438138e-002 -2.5942669623518397e+000
    1.5968727142438702e-002 -1.8231744024445868e+000
    1.7499818754143880e-002 -1.8650234071912157e+000
    1.6667577896718747e-002 -2.5376359782851488e+000
    1.7832072138237398e-002 -2.8458886144710966e+000
    1.5973093254411961e-002 -2.6377793613440770e+000
    1.6643567188864245e-002 -2.7789178766124993e+000
    1.7907524042916408e-002 -3.0010246179758098e+000
    1.8044668258979331e-002 -2.8192874297447941e+000
    1.6456620055270692e-002 -1.8651247326941389e+000
    1.6702560743155237e-002 -1.5418986444456884e+000
    1.4986135297767728e-002 -2.0867672935480175e+000
    1.7403074802628395e-002 -2.7508082883587854e+000
    1.7480254719730262e-002 -2.9823550174293665e+000
    1.8416518121555602e-002 -3.1594724672490169e+000
    1.8370093581813927e-002 -3.0610976072210332e+000
    1.7860920367078134e-002 -2.6564623661943654e+000
    1.6873522530588818e-002 -1.7935177778938445e+000
    1.6808905171202527e-002 -1.5683598080904193e+000
    1.5692932687327001e-002 -2.3151937581596895e+000
    1.7748041006022792e-002 -2.9851852750809380e+000
    1.9142393397824805e-002 -3.4386344462155445e+000
    1.9167466845571229e-002 -3.4536436270315165e+000
    1.8394822499448626e-002 -3.2939570115955874e+000
    1.7419329695812492e-002 -2.7642997408746623e+000
    1.6741824335718861e-002 -1.7800878548796999e+000
    1.7100526022842955e-002 -1.6507305569940276e+000
    1.6930625838781684e-002 -2.5641647498983864e+000
    1.7939470910175222e-002 -2.9676612044798651e+000
    1.7543113316614883e-002 -2.9280771375381209e+000
    1.7459292628172918e-002 -2.8728640411047275e+000
    1.8071441796270318e-002 -3.1504500374536297e+000
    1.7165094260822977e-002 -2.7691100994136817e+000
    1.6558692967872178e-002 -1.7333829666912881e+000
    1.7178773198713779e-002 -1.7032649455353166e+000
    1.6919143272399132e-002 -2.5502073557397349e+000
    1.7260337355532871e-002 -2.7204194686361212e+000
    1.6938943926167769e-002 -2.6043374163282280e+000
    1.7230802553702726e-002 -2.6235464188134432e+000
    1.6794267946254535e-002 -2.7765739148528121e+000
    1.6373490978801933e-002 -2.5620415495990199e+000
    1.6059487095897468e-002 -1.6995417005932798e+000
    1.6833485696790593e-002 -1.7479338473816630e+000
    1.7024629949551496e-002 -2.6244715289826401e+000
    1.6582476087382916e-002 -2.6151168121347381e+000
    1.6487600828184908e-002 -2.5395976985031070e+000
    1.6908224274437982e-002 -2.6037323164169490e+000
    1.7065460900626651e-002 -2.8484248663052680e+000
    1.6467425298195421e-002 -2.5844525571966948e+000
    1.6051699502746455e-002 -1.7718120756195308e+000
    1.5845571928782779e-002 -1.6489614937773491e+000
    1.6129538402605517e-002 -2.3552949497524627e+000
    1.6643863172257477e-002 -2.4758306157626881e+000
    1.6390352585293699e-002 -2.3996777293344222e+000
    1.6024670341848804e-002 -2.3676618273927525e+000
    1.6875560114862784e-002 -2.6939980435361424e+000
    1.6560858518742640e-002 -2.5127405366855635e+000
    1.5907396265285183e-002 -1.7473406642933822e+000
    1.5367605673350030e-002 -1.6277801678611732e+000
    1.5624637719906064e-002 -2.0940373755650290e+000
    1.5992339460869521e-002 -2.1702151244346233e+000
    1.6526365408539967e-002 -2.2756914493019789e+000
    1.6309021135945997e-002 -2.2962058845160715e+000
    1.5787394735937470e-002 -2.3804310369987465e+000
    1.5719641176071133e-002 -2.3222398867183416e+000
    1.5682999510991644e-002 -1.7656550244383102e+000
    1.5354729625534028e-002 -1.5279344166854312e+000
    1.4998920847649528e-002 -1.7409315228942304e+000
    1.4194170518034014e-002 -1.7053427325638648e+000
    1.4827624006537896e-002 -1.8685078618399722e+000
    1.5913800497211257e-002 -2.0579333783003371e+000
    1.4677909616406139e-002 -1.9767033791289623e+000
    1.4608770146927245e-002 -1.9830124992395652e+000
    1.5303981750531695e-002 -1.6859757200725769e+000
    1.6569120233992995e-002 -1.2823731803062255e+000
    1.6912028213731872e-002 -1.4405505275849710e+000
    1.6086490437120834e-002 -1.4423658120767731e+000
    1.6283683328600179e-002 -1.5438314203028187e+000
    1.6526063870571470e-002 -1.5578666718405831e+000
    1.6390534579517356e-002 -1.5296525127577554e+000
    1.6014238891089449e-002 -1.5869263240003744e+000
    1.6252121445481407e-002 -1.4457883654191011e+000</input_scale>
  <output_scale>
    5.2631578947368418e-001 4.9999999999999994e-001
    5.2631578947368418e-001 4.9999999999999994e-001
    5.2631578947368418e-001 4.9999999999999994e-001
    5.2631578947368418e-001 4.9999999999999994e-001
    5.2631578947368418e-001 4.9999999999999994e-001
    5.2631578947368418e-001 4.9999999999999994e-001
    5.2631578947368418e-001 4.9999999999999994e-001
    5.2631578947368418e-001 4.9999999999999994e-001
    5.2631578947368418e-001 4.9999999999999994e-001
    5.2631578947368418e-001 4.9999999999999994e-001
    5.2631578947368418e-001 4.9999999999999994e-001
    5.2631578947368418e-001 4.9999999999999994e-001
    5.2631578947368418e-001 4.9999999999999994e-001
    5.2631578947368418e-001 4.9999999999999994e-001
    5.2631578947368418e-001 4.9999999999999994e-001
    5.2631578947368418e-001 4.9999999999999994e-001
    5.2631578947368418e-001 4.9999999999999994e-001
    5.2631578947368418e-001 4.9999999999999994e-001
    5.2631578947368418e-001 4.9999999999999994e-001
    5.2631578947368418e-001 4.9999999999999994e-001
    5.2631578947368418e-001 4.9999999999999994e-001
    5.2631578947368418e-001 4.9999999999999994e-001
    5.2631578947368418e-001 4.9999999999999994e-001
    5.2631578947368418e-001 4.9999999999999994e-001 1. 0.
    5.2631578947368418e-001 4.9999999999999994e-001
    5.2631578947368418e-001 4.9999999999999994e-001
    5.2631578947368418e-001 4.9999999999999994e-001
    5.2631578947368418e-001 4.9999999999999994e-001
    5.2631578947368418e-001 4.9999999999999994e-001
    5.2631578947368418e-001 4.9999999999999994e-001
    5.2631578947368418e-001 4.9999999999999994e-001</output_scale>
  <inv_output_scale>
    1.8999999999999999e+000 -9.4999999999999996e-001
    1.8999999999999999e+000 -9.4999999999999996e-001
    1.8999999999999999e+000 -9.4999999999999996e-001
    1.8999999999999999e+000 -9.4999999999999996e-001
    1.8999999999999999e+000 -9.4999999999999996e-001
    1.8999999999999999e+000 -9.4999999999999996e-001
    1.8999999999999999e+000 -9.4999999999999996e-001
    1.8999999999999999e+000 -9.4999999999999996e-001
    1.8999999999999999e+000 -9.4999999999999996e-001
    1.8999999999999999e+000 -9.4999999999999996e-001
    1.8999999999999999e+000 -9.4999999999999996e-001
    1.8999999999999999e+000 -9.4999999999999996e-001
    1.8999999999999999e+000 -9.4999999999999996e-001
    1.8999999999999999e+000 -9.4999999999999996e-001
    1.8999999999999999e+000 -9.4999999999999996e-001
    1.8999999999999999e+000 -9.4999999999999996e-001
    1.8999999999999999e+000 -9.4999999999999996e-001
    1.8999999999999999e+000 -9.4999999999999996e-001
    1.8999999999999999e+000 -9.4999999999999996e-001
    1.8999999999999999e+000 -9.4999999999999996e-001
    1.8999999999999999e+000 -9.4999999999999996e-001
    1.8999999999999999e+000 -9.4999999999999996e-001
    1.8999999999999999e+000 -9.4999999999999996e-001
    1.8999999999999999e+000 -9.4999999999999996e-001 1. 0.
    1.8999999999999999e+000 -9.4999999999999996e-001
    1.8999999999999999e+000 -9.4999999999999996e-001
    1.8999999999999999e+000 -9.4999999999999996e-001
    1.8999999999999999e+000 -9.4999999999999996e-001
    1.8999999999999999e+000 -9.4999999999999996e-001
    1.8999999999999999e+000 -9.4999999999999996e-001
    1.8999999999999999e+000 -9.4999999999999996e-001</inv_output_scale>
  <weights>
    <_>
      -9.4774394706927459e-003 -9.7805219828911334e-003
      -2.0921956870595290e-004 2.4404954239721638e-003
      1.7826149343995246e-003 -4.0739546956759512e-003
      -1.8086671299757412e-003 4.9711256335304189e-003
      -8.0258741567577879e-003 3.8228825866447661e-004
      -1.9748438002816318e-003 -4.5561885684176637e-003
      -2.9975330284229564e-003 3.1486997294390825e-003
      7.1306952547383750e-004 -2.2670657843549533e-003
      5.0370871195420316e-003 8.3227771892789831e-004
      -2.5485483660139530e-003 -2.5002280115775491e-004
      -5.0968104100118641e-003 4.2008445609326983e-003
      -7.5285901558527447e-003 6.1644744656508691e-003
      -3.8553584354916290e-003 9.6616773526332304e-003
      5.0609761704699793e-003 -1.1293055072537396e-003
      -7.9841650000755451e-003 5.1188453096344174e-003
      7.0869217660411872e-004 -9.1729505242223470e-003
      7.5197821958013266e-003 3.8650389908641497e-003
      -1.3554520088649265e-004 6.9280949925869563e-003
      -7.7265310219992315e-003 2.4390471210455505e-003
      -4.6105022292075868e-003 -4.1998577343580054e-003
      -7.7206269581526739e-003 9.9766978577998551e-003
      4.2544577578334328e-003 1.3754517380714702e-003
      7.1796435332770539e-003 -3.6314002586833017e-003
      7.1302042362966882e-003 5.9848411933615987e-003
      -8.7012957274677314e-003 -7.1911688818492407e-003
      3.5753906382966408e-004 -7.8206324736721719e-003
      7.7840334160302673e-005 -9.7247046973899017e-003
      6.5906532945043820e-004 -6.6883423836866093e-003
      1.0267470172397101e-002 2.4589843309896263e-003
      4.2177802259136879e-003 -2.5745004564537138e-005
      -9.1245559952410783e-003 4.6682843740123679e-003
      -3.2086970244528438e-003 -8.6643351054055979e-003
      -4.4314902091338479e-004 -8.0917907515533228e-003
      -4.7106191796082537e-003 5.4813280656156316e-003
      -2.1113643434525519e-004 -7.1603200584857002e-003
      -1.9313744214374390e-003 8.0881452445791969e-003
      -5.7626970373238790e-003 3.2385791708325500e-003
      -9.0264538523999859e-003 -8.3071699634805346e-003
      6.7234290194826728e-003 -5.2206927062768763e-003
      9.4966577799442207e-003 -7.4237071929381592e-003
      -5.7398595433081779e-003 -2.0103225189369886e-003
      8.8759822239327171e-003 1.3590891472343594e-003
      4.2237535617746019e-003 2.9836713601291928e-003
      3.5702107009188372e-003 1.8901887388650806e-003
      9.1388047665465610e-003 3.8644142153306856e-003
      -8.5457007598703349e-003 4.4538058287786611e-003
      9.4856801867413357e-003 2.8557089696693398e-003
      2.8982475581529957e-003 -6.1692684888342113e-003
      7.3143594555870918e-003 -4.1482498175634524e-003
      3.3752444836027528e-003 -7.4452395656556397e-003
      -6.1845268364962300e-003 6.0264122627934659e-003
      -8.4815390293495399e-003 4.0147813343026474e-003
      4.3837645794166848e-003 3.8368163650613590e-003
      -8.6385474387302586e-003 -9.9415775626384446e-003
      7.5109333721571385e-003 -9.5411738712115005e-003
      -3.4234751243589117e-003 -6.3589078712151977e-003
      -7.7230079999872818e-003 -5.1571929445438803e-003
      3.8867623092827793e-003 8.4313922739099843e-003
      -6.6865057053254783e-003 -2.5348848451417455e-003
      3.7118882088317934e-003 -6.6618591861344672e-003
      -7.3443811874468953e-003 -2.5576058866699451e-003
      3.1610320554713066e-003 6.9403163434145062e-003
      9.1255242269702667e-003 -8.7392895667056745e-003
      -7.9585156868439556e-004 -5.2494145688038851e-003
      -8.0898733159987697e-003 2.1927887959098463e-004
      -9.8332158042401651e-003 -8.9059142405920142e-003
      8.9704192336094463e-003 2.2753640837821255e-003
      1.4789415735889002e-003 -7.5156762652871627e-003
      -8.5957154756025871e-003 -4.2846266567992753e-003
      5.1558259987878521e-003 3.7180267592480453e-004
      -8.2661007363254188e-004 -9.5016089234157570e-003
      5.4214194731074770e-003 7.5946995821700438e-003
      -9.5358673566572887e-003 4.0276062510767128e-003
      -7.9922091987431089e-003 -1.9233252445361767e-003
      -6.0736589670730761e-003 6.9899055328251835e-003
      1.0045558859734034e-004 -2.3930381159207072e-003
      -6.1498343560791027e-003 9.1869368739552031e-003
      -5.0312480841038214e-003 -5.0576352806115795e-003
      -7.1358628471272483e-003 -9.6478922676524886e-003
      2.1329996454838495e-003 2.7190032651601965e-003
      5.2443130122763418e-003 -9.0053141158247044e-003
      -3.2104946150842092e-003 3.3401647501044088e-003
      2.8177639379689343e-003 -4.4751893211692527e-003
      3.0455839087828742e-003 -6.5405593841857722e-003
      -2.0932315025789963e-003 3.7954907859074397e-003
      -5.4419576138871415e-003 -1.0389572524830911e-002
      6.9966178861906715e-004 7.9927233867555635e-003
      5.0507399638574776e-003 -6.1690568077717610e-006
      -3.3827172239549036e-003 -1.0073950853355173e-002
      -3.8259064801943474e-003 -1.0450919271156848e-002
      -9.7928840153109192e-003 8.5487957745100859e-003
      -2.5400033143762779e-003 5.0165710185769690e-003
      7.8777970024318956e-003 4.8212059431027281e-003
      -3.7233622833704092e-004 -9.1814154631758571e-003
      -1.7251515388112776e-003 -5.2734601102399341e-003
      -5.3371935619845223e-004 -4.0506534619315126e-003
      3.3686863994425366e-002 -1.1949362187166307e-002
      2.9877131939794126e-002 2.1408399325238168e-002
      2.8576299551743834e-002 4.0306890932307285e-002
      4.0098358442960939e-002 -3.0645839882965303e-002
      2.3832767673002270e-002 6.2187414942582848e-002
      5.0487955559784831e-002 -7.3535373811738263e-003
      -3.0114950242409438e-002 -4.8607744889415286e-002
      -5.3430852182133955e-002 -3.3647261040029457e-002
      9.7492893839981748e-002 1.0422851856189327e-001
      4.7984073914540057e-002 -8.1953389745588676e-003
      -5.9887413077495733e-002 -4.4561694242872513e-002
      4.0124825579568611e-002 5.8468033681464117e-002
      -3.3082321718734299e-002 -4.0129434639535833e-002
      -9.2340099574242079e-002 2.8335107526669796e-002
      6.8516377948496410e-002 -2.4625750359236646e-002
      -2.0971686973802851e-002 -7.3858087766505917e-002
      -6.5127491728607850e-002 -6.5726810180771422e-002
      -1.3943019821782622e-002 4.0670170294536824e-002
      2.2163262935542469e-002 -3.1938271772780934e-002
      8.1032858737224954e-003 2.7156061599162229e-002
      5.4857364038708081e-003 4.2168166315621883e-002
      -1.7826773687154399e-001 2.7705513599237005e-002
      8.6176213738612603e-002 6.8129522973609719e-002
      -1.9450592016908932e-002 -6.5369016287260481e-002
      5.0479754174505452e-003 -1.6326002878506069e-002
      1.0289806375951872e-001 1.2876491017500165e-002
      -6.2093712832174623e-002 4.5612844253199995e-002
      -5.2068201182617999e-002 3.6274645111110462e-002
      6.8322761267903251e-002 -4.8975955649622038e-002
      -8.0844058886508655e-002 9.6313709212217075e-002
      7.2865319628602085e-002 5.0307146701045059e-002
      6.3101241505852057e-002 1.0209133552564816e-001
      7.6530056229125218e-002 7.9157648069031000e-002
      5.4119991956699622e-002 -2.2555973814133254e-002
      9.0899789666006509e-002 4.6658555471636122e-003
      1.4972467866765789e-002 -2.5308091516360845e-003
      6.6086651961704643e-002 -7.3019152107412583e-002
      3.9585385146944964e-002 6.0595827043138602e-002
      -6.0482944287258117e-002 -3.8185527508908058e-002
      -6.7554414481787131e-002 3.7908380233630738e-002
      -8.2963988139779371e-002 -4.5727657442356351e-002
      -1.2445198568159664e-003 6.1937076322349065e-002
      4.5234266083164013e-003 6.3765041790631499e-002
      -4.2917650884340471e-002 -4.8923961346509580e-002
      4.6162442094953727e-003 -9.0931561832916605e-002
      1.6969364502523121e-002 -6.8796777984471702e-002
      3.4825111251181436e-002 -2.9132083007701176e-002
      -1.5583585224442406e-001 1.1616276132312300e-001
      3.4247502984592240e-002 2.9299099715859957e-002
      -2.9749597367104832e-002 3.7322855198854088e-002
      9.5830797133884177e-002 3.7399751400433882e-002
      -4.9183686821289943e-002 2.2292371880358871e-002
      5.9489810343441116e-003 4.1116861375574604e-002
      6.0809516404215037e-002 3.9591940029574800e-002
      -3.2325642418399459e-003 -2.2713116550358826e-002
      -7.1400335838281273e-002 -6.7790322103955997e-002
      -7.5248634144170759e-003 -4.8573790568571442e-003
      -4.2821883849348385e-003 -3.6941209498326667e-002
      -3.7125800944032734e-002 6.7333961633057521e-002
      1.6849887757856740e-002 -4.8042523335708340e-002
      4.9973235098092143e-002 3.0067827469424786e-002
      -2.7736918564781766e-002 -7.0714222023982249e-003
      5.1859429767556101e-002 4.3455402533868440e-002
      -1.3369676703938927e-002 7.7951282960668738e-004
      5.6907854785831762e-002 -6.9476688852892571e-002
      -5.7909547466881935e-002 2.5137180585525744e-002
      -7.5439163510119006e-002 2.8300450905786284e-002
      -1.9958784638909925e-002 -1.9257738897435359e-002
      2.7301346840159561e-002 1.6526450266240512e-003
      -6.6051214358760033e-002 2.2872468254921695e-002
      2.6927041920143578e-002 6.7209417241747962e-002
      -7.7653920549085917e-002 -5.6844893080585282e-002
      -5.5283847758326773e-002 5.1026852295281465e-003
      -6.5964577737443297e-002 -1.9866388661373312e-002
      2.9157514882650924e-002 4.0353544358211924e-002
      -2.2133320319763738e-002 1.6053679947161621e-002
      -2.3000927740793119e-002 6.4997270064922633e-002
      -4.4874035572937065e-002 1.1961044794007816e-003
      -1.7770458706396680e-002 -2.5019538746894294e-002
      -2.0784970395096067e-002 -1.5008561813315014e-002
      3.4427210185854776e-002 -7.0884344388385701e-002
      6.2903302566408970e-002 1.6629410389105748e-002
      -3.1883376690082947e-002 1.1327461545764821e-001
      2.6663896553613991e-002 2.6329908872871396e-002
      1.9992927953822622e-002 -5.0406643794473703e-002
      -7.0773451223298950e-002 8.6239655094041811e-003
      -2.4438544417606331e-002 -6.2987151733918431e-002
      1.3647533191070834e-002 2.4458795720641791e-002
      9.1639332611372238e-003 -7.9954672805449781e-002
      -4.1591972793809592e-002 7.3912145331756468e-002
      2.9251039519787923e-003 4.5159461872088962e-002
      1.0003835256345402e-002 1.4323836912876470e-002
      -4.2321661293518560e-002 5.0047105622176673e-002
      -6.7497559902915019e-002 4.3831043960064216e-002
      1.0716522887721588e-002 -1.0822328376598835e-002
      -4.9680408495133679e-002 1.3869985716244072e-002
      2.3467473840135350e-001 -5.3634820399524080e-002
      -6.7297430997092761e-002 -3.6268929233949178e-002
      5.4313431205915016e-002 8.4706583717242337e-003
      -4.4489007073871573e-002 9.9524994057961758e-004
      1.4054329832376156e-001 -4.5506195056191662e-002
      1.5674120124128322e-002 -1.8664279424452049e-002
      -3.0174085513746046e-002 6.8101177808980423e-002
      -1.0427086557661286e-001 -5.5979677206016286e-002
      3.3555738761644839e-002 -1.1817483689198195e-001
      1.8154005285115501e-001 1.4563254452266977e-001
      1.2835111685641144e-002 -1.5677499424541167e-002
      6.9694487473419303e-002 -2.2348904928493174e-002
      9.9055379001212404e-002 -6.4549996573248808e-002
      -6.2507311089363471e-002 1.1745057316337303e-001
      -8.7389519302958060e-002 -1.0050928890129389e-001
      -1.4556592839945429e-001 -6.2933720985560937e-002
      1.5315095570281262e-002 -2.6342566026249245e-003
      4.5308982633168217e-002 8.6654203418168027e-002
      1.0032574074489636e-002 1.4531374884832052e-001
      7.3570129070285012e-002 5.0781912389654153e-003
      -8.2898468476748852e-002 -1.5942128836903973e-002
      3.8266459669421445e-002 1.1785918976462552e-001
      -1.1219839286127416e-002 -4.0216389718057598e-002
      -1.8386550138278145e-004 2.5019338404272083e-002
      4.1581096835809996e-002 -4.9686918282101290e-002
      -2.7148968810506297e-002 -2.2828529180223049e-004
      1.1621391098224897e-002 1.8314552076632965e-002
      8.5684396862751241e-002 -1.5860861263790656e-002
      -6.6020974547132815e-004 -2.6675028491281897e-002
      -5.6797878340061218e-002 9.5166761762772115e-003
      -3.5943416755865277e-003 -2.2118779869040994e-002
      -2.0731578938457382e-002 3.9893133519306567e-002
      -5.4699469830095979e-002 -6.6216851329091178e-002
      -4.1301420567959132e-004 -8.6893344890917101e-002
      -6.5273075017171903e-002 -9.0651784948578590e-002
      -2.9707925182526213e-003 -6.7584268927215488e-002
      -2.1181949798876193e-002 1.5499943781479333e-002
      -3.4178877166196803e-002 -1.2160461510993594e-002
      -8.0289340504831663e-002 8.3389595389487647e-002
      -4.4798552325385960e-002 -1.8063631109610088e-002
      2.3901021613446906e-002 1.2454377927937292e-001
      1.0550206039780816e-001 -1.6665961320137476e-001
      9.4984956684184847e-003 -4.6421524275706880e-002
      6.6476962679696994e-002 2.9591172426990643e-002
      7.2369032215034860e-003 2.7516931751789400e-002
      3.0785132702471223e-002 4.9780619089919549e-002
      -4.9170303838693599e-002 4.4538245757243272e-002
      5.6748224580364902e-002 -6.7492720896284442e-002
      5.2193485627891195e-003 1.3351771318486241e-002
      8.6406867936314274e-002 -4.8556242033107169e-002
      -7.2595250267486006e-002 8.2032896932902680e-003
      -3.0475519160875590e-002 -1.4286213126447003e-001
      8.2845390981694925e-002 5.3556478772457485e-002
      -4.0105270333153989e-002 2.9301397739496401e-003
      2.4584425102724482e-002 -1.3431206149640674e-002
      1.5166974587347412e-002 1.0722304529906464e-002
      -3.2496800751765600e-002 -5.0153933861811439e-002
      -5.4769787403102267e-002 3.3472503396011946e-002
      -1.4102575715320370e-002 -4.8132421040662628e-002
      4.9710435352341653e-002 4.7941791704446445e-003
      6.9919387759556292e-002 -4.2053175906999758e-002
      -1.8621385533567281e-002 3.7535400939945320e-002
      3.6941569140449032e-003 8.2131248280129493e-002
      6.9512498115804330e-002 1.9168033855100422e-002
      2.7451324821119939e-002 3.7774419038254424e-002
      8.7105766926920708e-002 3.6476521940870477e-002
      -2.9976042662670118e-002 -2.1536914523021127e-002
      -1.2215197101036049e-001 -1.9328427804622107e-002
      4.3365367839312011e-002 -3.5904831119225281e-002
      5.5119676454051395e-003 -5.1749403708155367e-002
      1.2964594820878378e-001 5.2326186451120294e-003
      6.9159010015598210e-002 8.1531750648378615e-002
      -2.7758460159229930e-002 -3.1271778068691698e-002
      1.1097509130189222e-002 2.5350290889482482e-002
      9.8006278279956019e-002 -2.8649388762569169e-002
      9.6651849579209193e-002 -6.1873550880132855e-002
      -1.0577463869796271e-001 -8.4347356113859295e-002
      -4.3373791693731033e-002 6.6717004163589944e-002
      -5.8078583976903610e-002 2.9957385758163955e-002
      -8.4065057996869114e-002 6.3246366246734492e-002
      -2.5780753304837558e-002 4.9161298331976855e-002
      3.4863502378325189e-003 -1.0835703245213071e-001
      -8.4132276806317366e-002 -3.6469418857720599e-002
      5.8568656753737458e-002 -8.4670485090200011e-003
      4.7615835425976416e-002 1.1782857026701234e-002
      -3.5106780581887202e-002 -2.4775283091984176e-002
      -1.0945644356164924e-001 6.7980936708063239e-002
      1.7983788643978135e-003 -1.1968435092223753e-001
      -5.3367652579880367e-002 -5.8001393448652232e-002
      4.4806452576243751e-003 2.5700901593451404e-002
      -2.6972577538839252e-002 9.0408093383651467e-002
      -1.1868276658743114e-002 -2.3073951842402570e-002
      -9.3931946066059507e-002 9.0682454841466184e-002
      5.0230046363285999e-002 -6.9565199347388182e-002
      -2.3584376012574060e-002 2.3437547466696233e-002
      -5.5031233450490401e-002 5.3964883245017550e-003
      1.1598381679612242e-001 -6.7113219969590465e-002
      -1.0358513097288535e-001 -2.4921437089330849e-002
      -1.7908189755226733e-002 1.0467491673331342e-001
      -5.0452434963479009e-002 5.8943641559717298e-002
      -3.4847718302438130e-002 -8.7964834019800091e-003
      1.7765372135622445e-002 -1.5855566907564674e-002
      7.9786883204640724e-002 1.2935798113368162e-002
      1.5871078216732046e-002 7.8449833089149337e-002
      6.1600389357887746e-002 3.4115545938070671e-003
      -3.3783254542690301e-002 3.7129317067990907e-002
      -3.1879904887951754e-002 -4.0395373649210572e-002
      2.6922706886047868e-002 3.5859310805747509e-002
      1.1996835714909102e-002 -5.3524264478193383e-002
      5.7939774124016068e-002 7.7320535399456297e-002
      3.7341914283657962e-002 -3.1028704932186076e-002
      1.0426781895907949e-001 1.1077765958165882e-001
      2.8594350622178303e-002 -2.8796763042766939e-002
      -1.7948010553124127e-002 5.7930722170790060e-002
      -5.5626316449887567e-002 -4.5884566847668048e-002
      6.5789350300299740e-002 -5.8117986163914385e-002
      -5.1348136787851786e-002 -3.2240785868370710e-002
      -8.9372254810696619e-002 2.9313129515487549e-002
      1.0306042030148559e-001 -4.2608178107582939e-002
      -2.3338266544579562e-002 2.3090911321142250e-002
      1.5175512741901747e-002 -1.8775724762822302e-002
      -1.3265621565851829e-002 -5.8567540268363860e-002
      -3.8395790457285715e-002 5.4517905813176393e-002
      4.6277291308539352e-002 -4.2404842496123564e-002
      1.3461547414858366e-001 -1.2656138407902483e-002
      -5.8961932584088800e-002 -5.1205415031695116e-002
      -5.9587811007298139e-002 -3.9945266747098217e-002
      3.0526246747028155e-002 6.8404700273560298e-002
      9.2203499462313779e-002 -1.0160114059365705e-001
      5.8199618319524624e-002 -6.2963491820552345e-002
      8.1758773236663251e-002 6.3850014255128318e-002
      2.9412152756113485e-002 -5.4821314464304971e-003
      8.7050559256072454e-002 -4.3833945745675354e-002
      -4.4769299972678825e-002 7.7208698258259517e-002
      9.9966318770550261e-002 4.8517760334362267e-002
      5.8525857088191170e-002 9.8102083375579588e-002
      -5.4014342550770304e-002 -8.8212918354897266e-002
      6.5621957419854729e-002 -2.2591726250992275e-002
      5.1206829248930191e-002 -5.4534917625508751e-002
      -3.8088413555373429e-002 -2.9185251503539174e-002
      2.0459385304215680e-002 -3.0771595373029755e-002
      -8.3780190151241203e-004 7.6964922020855923e-003
      -4.5092893615438494e-002 -7.0174145756060985e-002
      1.3614995371732165e-002 -7.5233576640489463e-002
      -1.0863997687190468e-002 3.5000111882326546e-003
      1.8171841087362930e-002 1.1509578943830828e-001
      -1.0254067358016958e-002 -2.1428067844324005e-002
      -1.4643896341030986e-003 5.8121503021609310e-002
      9.3839169417048091e-002 1.1585325564120249e-002
      -2.3066874681832430e-003 6.8139873544983218e-003
      3.6446095414689635e-002 2.1724888962942605e-002
      -2.0990992481260903e-002 -6.6050753162788925e-002
      -8.9758058417712089e-002 -2.2930611167487618e-002
      3.2156908139885053e-002 7.6289714242292611e-002
      -5.0461764506836522e-003 -9.3590416333510992e-003
      -8.8042502382093671e-002 -1.6673258955345376e-002
      4.6861301760353392e-002 1.2766503384835456e-001
      -1.7749952545535051e-002 -2.3537101243150664e-002
      1.2441738323975934e-002 -1.3276390790180571e-002
      -3.1458992957323864e-002 2.1131321799558810e-002
      5.0447646829954486e-002 1.9762778481392930e-003
      1.7902879738554835e-002 1.9347535281846209e-002
      -1.0658288948075721e-001 5.8485879361491216e-002
      -7.5382803656035682e-002 -4.6840770721878866e-002
      -4.3979930485576905e-002 -1.3763396358271490e-001
      -2.7043426973852286e-002 -9.3174375863490935e-002
      7.0709335334189286e-002 8.0998360507514161e-002
      -1.0201646906069926e-001 -8.8849824613470955e-003
      -4.7008503636314758e-002 6.7207802165678565e-002
      6.3736058156240810e-002 9.9524826830600360e-003
      1.7093614226456275e-001 4.7545008983291732e-002
      1.7277271480800663e-002 -3.9408735859183513e-003
      3.4202675662290821e-002 -3.8138365116899428e-002
      -3.4661737676657735e-002 1.5199911294825412e-002
      2.5322328681778788e-002 1.6928209816410418e-002
      -1.6900356370259678e-001 6.8466764226062848e-002
      3.5477125207862392e-002 2.7172739070651528e-002
      1.4285108954370651e-002 -2.9407877116802601e-002
      -4.4526858415440206e-002 1.2120974931262814e-001
      5.4373564349762128e-002 -4.7241248013233407e-003
      2.0470197336713444e-002 -9.2937006735552847e-003
      -1.0820571179294415e-001 1.2014317299461808e-002
      -7.5056288279692338e-002 2.3087803437288945e-002
      3.6355115941816174e-002 -4.9119554422659112e-002
      -3.3765522196569135e-002 2.9620292892013695e-002
      -5.1812095544735627e-002 -1.6131226163989092e-002
      -4.8924540378931569e-002 -4.8167933398477261e-002
      -1.0760632888053838e-001 1.3453357097448783e-002
      -8.5467420992195356e-002 6.3473298032794053e-003
      3.6880114932495538e-002 -1.2340739075583806e-002
      -6.1494097744724863e-002 1.1022793776528761e-001
      1.2511870330526557e-002 1.0347804907379700e-001
      2.5268940764311026e-001 9.4294394767619139e-002
      5.5918871665632155e-002 1.0183389916919368e-002
      -1.2299031193998134e-002 -1.0871735274280727e-002
      -6.0527372864727456e-003 3.9196119017767456e-002
      -1.0229198548299064e-002 -3.6701467405681844e-002
      9.7230121513767198e-002 -4.0625407542397296e-002
      -7.7386585697026217e-003 1.8436771934217076e-002
      8.4022379137079689e-002 -5.5438703001699438e-002
      3.5588800339783219e-002 1.8980555850122077e-002
      1.3515929497850531e-002 -1.0152546076107015e-001
      1.7739129569073573e-003 1.8600053935629798e-002
      2.4700103301156937e-002 -4.2497147979068152e-002
      2.3710336709098737e-002 3.2519248733267024e-002
      7.1974387135333405e-003 8.9202330000040537e-003
      6.0714032726924105e-002 9.4777342087923253e-003
      -4.2418645062860125e-002 3.5416037699074927e-002
      1.4886393887530433e-001 -2.8231273346072703e-002
      6.6474168502740225e-002 -1.7911772719709347e-002
      -3.6161578440535344e-002 -1.1531245459387862e-001
      -2.3477632339440498e-002 6.4716070429441011e-002
      4.6792385674182674e-002 6.7233986761182515e-002
      -9.4879912475458162e-004 -8.2609077306682627e-002
      -8.2320779749630688e-002 -5.9056743758240382e-002
      9.2185539296570553e-003 -1.4536287142295208e-003
      2.8530170825556384e-002 5.2257187547494754e-002
      8.0688004362497734e-002 -2.1190344248812866e-002
      9.2775598215387931e-002 -3.9902826017998633e-002
      -5.9262495438340453e-003 -1.0806418686043649e-002
      6.8706140811143623e-002 7.0458369295972753e-002
      -4.7012336056036275e-002 -6.0831008127754438e-002
      1.3775984451416712e-001 -2.5324173651058639e-003
      -5.2935185394898290e-002 -9.7525614279524858e-002
      4.1022304578359984e-003 -6.6772219825148249e-002
      -6.8206979882556959e-002 -9.4024195202653163e-002
      -6.2897139613758521e-002 1.2922810186767251e-002
      -1.8709888700999246e-002 -2.3522514300651932e-002
      -6.7966749623641520e-002 -8.9943533851386329e-004
      1.3058591895534310e-002 -5.7011353540760930e-002
      4.9862168220731459e-002 5.6552915464163099e-002
      3.3321631317102252e-002 -9.6753481211923811e-003
      4.8000077618478340e-002 -1.3533788094125556e-002
      -7.4039839633324098e-002 -2.4068267776862953e-002
      1.0890615750873002e-001 3.8412236983353873e-002
      4.6986052175029505e-002 1.2806838569172826e-001
      2.5323928829393882e-002 -3.9091603948875994e-002
      -8.7373176254186627e-002 -2.1867240256971097e-002
      3.9064141093191201e-003 1.4914353766240189e-002
      2.4145777113889749e-002 5.6840823084181993e-002
      2.3556967431176409e-002 5.1981598195536174e-002
      6.4626937980504590e-002 7.1129765754993857e-002
      6.8345816886468229e-003 -1.3005108400145585e-002
      9.7297667463690403e-003 1.1126126017039661e-002
      1.2092816375248221e-002 1.1948574247835143e-001
      -9.0336175171067415e-002 5.2869133472928903e-002
      -7.0510520628944459e-002 5.1889523579705762e-002
      1.7617554398744850e-002 2.7925147255531607e-002
      2.3124872843887740e-003 6.0593838696005639e-002
      1.3912887281810854e-001 7.0051909418396091e-002
      -3.2730832849266499e-002 5.0452356181372365e-002
      -2.1247964485712950e-002 -1.0713485363947598e-002
      -2.6518352463925438e-002 1.4930191760088817e-002
      -2.2045622793004583e-002 -2.8141017500973448e-002
      7.2741624495896526e-003 -2.2727212336965764e-002
      3.1510023237882302e-002 -2.0012740095536032e-002
      -2.4213149721870015e-002 1.1479990342606969e-001
      -1.0673793267278364e-001 2.4654963961486993e-002
      2.2016008685781855e-002 -6.0834524037947334e-002
      1.6754501192036014e-002 -8.5629424950105330e-003
      -2.7711226998550328e-002 8.9369648228503962e-002
      -6.4635572903923300e-002 1.2250976554369256e-001
      -6.9278113979380652e-003 -5.6533262579744697e-002
      -1.0669141693547583e-001 -9.7393857025748862e-004
      1.7852573769475300e-002 7.4144281566312836e-002
      -2.7064343455404380e-003 4.3620737602905225e-002
      -2.0186485465914464e-002 2.1259615437918926e-002
      4.8734113384159866e-002 4.2161667971539536e-002
      3.1572706478734995e-002 -5.4350225246315893e-002
      -5.4886223407216515e-002 1.9010190411593873e-002
      -1.3231145856495393e-002 -7.0280549003756757e-002
      1.1567595897320029e-001 3.3763159746341427e-004
      3.9896347673700892e-002 -4.7970507641244345e-003
      -4.1425837418620937e-002 -3.7777868015162759e-002
      3.6546051258142816e-002 -1.3772026925571130e-002
      -4.2543442321708157e-003 7.5211444208820560e-002
      -6.4480659145611630e-002 7.6276805542736317e-002
      -8.5112955604951607e-002 2.2227710495957578e-002
      1.7086199920582964e-002 5.3525532451050427e-002
      -6.8507751259425209e-002 1.1593561008851668e-003
      4.1205374843605598e-002 5.8086393032236956e-002
      1.5139060109810758e-003 5.6153609696569812e-003
      6.6208260222441764e-002 -1.1437021184741884e-002
      5.2362472223902556e-002 -4.6081403753511413e-002
      -3.8222767926482812e-002 -1.4162529057178049e-002
      6.8577958386757093e-002 -5.2928867890348348e-002
      2.1163860368489044e-002 -9.0753558647961641e-002
      7.8719139117595163e-003 8.2243796259507146e-002
      -1.6177094234942829e-001 -3.9554206223833564e-002
      -3.9796661225902447e-002 -3.7356372819906628e-002
      -5.9039641238397604e-002 2.2526170751321385e-002
      1.2710228187993167e-001 3.5533198305434080e-003
      2.2257833013329540e-002 3.0285294198862025e-002
      -1.1079260858167223e-001 -4.2478497162658162e-002
      3.8972463348167156e-003 -4.9337450821920682e-002
      8.5441235336689639e-003 4.2969370392124152e-002
      7.9489004828529497e-002 1.2760424211747293e-001
      -1.1849876786271528e-001 -2.4057065627185872e-002
      2.3300525876591462e-002 3.3493372200962448e-002
      8.0489949949579032e-002 1.4797701252894752e-002
      -3.3380692891542919e-002 -4.5594793112424745e-002
      8.9715517538339531e-003 -4.4160173259528883e-003
      5.4604921338021285e-002 1.4543580637577236e-001
      7.1111769045526338e-002 -6.7437429631672763e-002
      8.5561756761675156e-002 -1.4016952392501955e-002
      1.4711964990946643e-002 2.7361705194502928e-002
      -2.1291057294922398e-002 2.9894879002117188e-002
      -8.7791824597179796e-002 -3.3517689876770021e-002
      1.1836229701326077e-001 2.3362607499527552e-002
      -1.2747187440976179e-001 -3.5158943562623071e-002
      9.4517373589988948e-002 2.3983236048725716e-002
      2.9398274954791810e-002 -3.8014238919782159e-002
      -5.7406765043509785e-002 -3.9413499103403922e-002
      5.6290088639254839e-002 3.5542210835349163e-002
      7.5354554237403268e-002 5.6318807783557620e-002
      -7.1502764450873876e-002 4.1433193669659765e-002
      -2.2594601105658890e-002 -2.3223097031252020e-002
      5.8466784647251059e-002 -6.2195899774300900e-002
      -9.7425823338140646e-003 7.7206188551273452e-002
      3.7575249826142187e-002 8.4617629901381775e-002
      3.7151418709021583e-002 4.5799812736125906e-002
      -1.7811229670683291e-002 -2.8864759325613748e-002
      4.1520085908986142e-002 -4.0025023750962507e-002
      7.2657054845134766e-002 3.1818707761637886e-002
      -3.1445019802354382e-002 -5.0984099016133710e-002
      1.2754398122104625e-002 -2.6163636358558239e-002
      2.4515848450637374e-002 2.4416913738287693e-002
      6.2793257319344042e-002 -1.8732651804714548e-002
      -6.6430020645190574e-002 -1.7779527348726393e-001
      -6.7012522383397499e-002 -8.7952687740220029e-003
      -6.5431582018376927e-002 6.9020370213297919e-002
      -9.5931898751654171e-002 -7.3128509553441520e-003
      2.2463702679558026e-002 2.9624759534731288e-002
      -3.0174212599892877e-002 -7.3452140033497034e-003
      -9.1365899524564587e-002 -1.0875547077691108e-001
      -1.0528443623094573e-002 8.5946210722262911e-002
      4.4488007967874298e-002 -1.0252187717297377e-002
      -1.7366296524244901e-002 -7.4610433009486374e-002
      3.0941745250430402e-002 -2.2950494134499400e-002
      5.3990457164718425e-002 2.4996213661872459e-002
      -5.4608714705141392e-002 -1.3049614504874588e-001
      6.4397331151045401e-002 -5.0309882595921691e-003
      3.6916502098246033e-002 8.2456029328838332e-002
      -7.7892411604274223e-002 3.5628736898729023e-002
      -1.3765908696001593e-002 1.0230849729461068e-001
      1.2986960027971328e-001 2.5190508678785025e-002
      -6.4993658365689053e-003 9.9045505075965962e-002
      -4.8079913979946716e-002 6.1357690016161891e-003
      -1.8711511122543514e-001 1.0558967035308453e-001
      -6.1183468758026893e-003 -1.1896178437471162e-001
      -1.1162837277528878e-002 1.8399636504808536e-002
      -7.5786089958649730e-002 -2.1940612096956576e-002
      8.1200882581915546e-002 -1.0316194698622533e-001
      -5.9020395843395024e-002 7.3700170354732031e-002
      5.3491324613570229e-002 8.2762980583580836e-003
      1.2432373655901950e-001 1.2173029311793681e-002
      -2.9197573848189627e-002 -9.8756815907123333e-002
      2.3675706192732855e-002 -7.0676309227032483e-002
      -9.6870298091641160e-002 1.1366503637547770e-001
      8.4724760086982612e-002 -2.1932072123149654e-002
      1.1153990693881916e-003 5.2157935219641238e-002
      -5.2073308145802362e-002 -1.3022458413303881e-001
      5.0577141201662061e-002 -3.0334900278638850e-002
      -9.4591061388390893e-002 -1.2494949737285481e-001
      5.5018469452562495e-002 1.5827502932266266e-001
      8.6731705954599739e-002 3.3433819662558692e-002
      -5.0019757240050471e-002 7.4706569245351420e-002
      -4.4694176210624773e-003 -8.2614959533545088e-003
      -2.3493230305787323e-002 2.3302477709252847e-003
      -1.1126388071465140e-002 1.2721009191340857e-001
      4.0401771296474801e-003 -2.4220273214214444e-003
      -1.1792711368910285e-002 3.8133508173458563e-002
      4.1307795801541189e-002 6.3376165676696239e-002
      -3.2988095911448767e-003 -4.5808268631721646e-002
      -1.7691324988229982e-003 -2.3661257423010434e-002
      -1.0751558445949093e-001 9.3763280579597347e-002
      -1.3614573970941349e-003 4.5903489272700097e-002
      -5.6196469364899970e-002 5.9684872966508609e-002
      1.0243893119157482e-001 5.6994325609908934e-003
      7.2245780578898994e-002 -6.5411974649673313e-002
      2.8990492963001151e-002 3.6811995175577046e-002
      -4.0245134504919435e-002 -1.9382147664192596e-002
      3.9359420689617182e-002 -1.1952951991992719e-001
      3.8672285598339615e-002 1.3631241617337822e-001
      2.1722928780955131e-001 3.0649045137503814e-002
      -4.7379445605771536e-002 -7.6700573594704932e-002
      8.2035926490479971e-002 -8.4209833096108327e-002
      -7.4801603681376505e-002 6.7868361787128007e-003
      1.2969230805790305e-001 -2.0646603860403914e-002
      4.5468571075591990e-002 2.9832838709835299e-002
      3.8179983882711807e-002 1.2168998572772862e-002
      -4.9677765228805758e-002 6.1906819604369605e-002
      -4.2424093198352532e-002 -7.3392782766425177e-002
      1.0543230508514111e-001 2.3951266357868681e-002
      7.6139825696996330e-002 -3.2939209891645338e-002
      8.8351811755453993e-002 4.4409536933034725e-002
      -9.6611946671363563e-003 5.1693696252573640e-002
      6.0557012251145945e-002 -1.0882746366204020e-003
      2.8740576759164568e-002 8.6158105436223528e-002
      4.8347544477778177e-002 -2.9062766688785342e-002
      -3.3101078687782559e-002 6.6214934878268961e-002
      -1.4939142295371093e-002 -4.2916520655611870e-002
      6.2926615832526067e-002 -5.1047775865133246e-002
      4.5769466076342337e-002 -1.0264717414957727e-001
      -2.9521279339998659e-002 -5.9662028429531576e-002
      -2.1891109820057514e-002 2.0714881580598477e-002
      -1.7343193071768497e-002 -6.4845645488608550e-002
      -2.7760194372185003e-002 9.4063571265249835e-002
      -1.1727262406396179e-001 -3.8650258708813044e-003
      1.8039161207469886e-002 -5.0814046818301165e-002
      -8.1794580347521517e-002 1.4446052977991786e-002
      -1.0314180033658302e-001 -1.1842670500624654e-001
      -1.5463402525781862e-002 1.3044449618797051e-003
      -5.0496763673665318e-002 -6.4792092341409160e-002
      -2.4859819336915952e-002 1.9134360706356369e-002
      1.4676316284887223e-002 3.2590276469078250e-002
      -2.3098246730111884e-002 4.4271239492096187e-002
      -6.3917856725661124e-002 -9.7354799179349735e-002
      3.9838260884105192e-002 8.0566532927149291e-003
      2.6531682907799486e-002 7.6858476796695677e-002
      7.0986894182707941e-002 7.3257489675370810e-002
      -3.0566294007874462e-002 3.4170483115300181e-003
      -4.5303601248232579e-002 8.0255233036224061e-002
      8.4979120489011253e-002 -3.7616588137104005e-003
      -4.8907952362492089e-002 -4.4156094055153500e-002
      -8.5668337139113357e-002 8.2765407796895132e-002
      6.3392945207882767e-003 2.5628471040824594e-002
      3.6588063795650903e-002 4.5173513246226147e-004
      -3.5725974891019238e-002 3.9982067294933671e-002
      -1.0494583265615595e-001 1.7980255752475197e-002
      1.7406300145281106e-002 -3.3938727400496346e-002
      6.6973064512301965e-003 -3.6510338903903199e-002
      -7.2744820773058466e-002 -2.6792596410237169e-002
      -6.0663760499046475e-002 5.3577900712144990e-003
      -7.6840126916018603e-002 -1.4239485176326757e-002
      6.4212597973987012e-002 -9.2662869659495717e-002
      9.7100045585576632e-003 -4.5438311986117662e-002
      3.0637696216250607e-002 3.9316363549843698e-002
      9.5143480088568100e-003 3.5276810862471732e-002
      6.5153366832764034e-003 3.0974221027749386e-002
      -7.0596770514806811e-002 6.4578309629256564e-002
      -1.2887273243379765e-001 1.1753327355702352e-001
      -4.3925827157603799e-002 6.0161635852821534e-002
      1.2144538386103066e-002 7.3376240945792107e-002
      -8.1409499601054428e-003 -9.1005714989980058e-002
      3.3078284552332110e-002 2.2211255087006723e-003
      3.4341766284455240e-002 -8.5207582481785851e-002
      3.3194014081805182e-002 3.1333006416581002e-002
      2.0730293544976082e-002 -7.2973752813265930e-002
      -5.2001094111136410e-002 -6.0833005638313786e-002
      -3.7305225025686929e-002 -1.0275765177879799e-001
      6.6101238475113067e-002 -3.2343300298600525e-002
      -2.4240041547087400e-002 -1.5667448585508868e-002
      7.8180505679620510e-002 -4.2124968207774699e-002
      -8.1768353819096543e-002 6.9073650660127203e-002
      -4.0763909625374774e-002 1.1345050962909656e-001
      -1.1688821031426452e-002 -8.3666292399976375e-002
      7.5491769122646685e-002 1.1977092544500806e-002
      -5.6842451259196902e-002 6.7403967678542056e-003
      -3.6416825888337882e-002 2.0512966945246324e-003
      -4.3365442729175634e-002 -1.6988233677956127e-002
      3.1677268879720936e-002 -1.3951448322704021e-002
      6.6969883428017227e-002 7.2181461227748836e-002
      4.3940637315324972e-002 5.7286517424268964e-003
      2.6022914572337255e-002 5.5744339707906959e-002
      -1.2403856588953072e-001 2.9432676974122305e-002
      -8.7203991987534882e-002 -1.9357696287568833e-003
      -1.1730846704617368e-002 1.6989545716377372e-002
      8.5397200249644298e-002 -1.8222515498380901e-002
      -3.3745269418184065e-002 -2.2580489380089896e-002
      4.0701592477345588e-002 3.7431261943907802e-003
      6.1142309865712931e-002 -1.7432043745606322e-003
      -2.5914780476530213e-002 2.5099489169616518e-002
      -8.4029251470480751e-002 5.4618357037641098e-002
      5.1593050650744800e-002 4.8194410545138018e-002
      1.3445042828783461e-002 -4.8809653702399321e-002
      2.4168759051172678e-003 -2.9296554119882436e-002
      4.0887923543165339e-002 -6.0893175820672298e-003
      1.1771230160202210e-002 1.1282411967423511e-001
      -1.2915200945595093e-002 -1.5890614358648004e-002
      -2.6356300081699807e-001 -3.7440915451128702e-002
      -4.0541017512548655e-002 5.5837658592664492e-002
      -5.2294195386807019e-002 -1.5571611217473568e-002
      3.2486034731679603e-002 -3.1502251639361961e-002
      -5.8905509557441470e-002 6.4680074900538134e-002
      4.1502231621940069e-002 1.7647215925502294e-002
      -5.5871159792520005e-002 4.1476565170258321e-002
      -2.1151993145326141e-002 -4.6888495964259001e-002
      -3.8635119456109389e-002 -1.0135655059036834e-001
      -5.4559670315917061e-002 -6.0182635662258864e-002
      -7.5747023953640483e-002 4.1510013993438025e-002
      -7.0810767085378784e-002 3.8439106913568111e-002
      1.2876067324440393e-001 -1.0457945985937982e-001
      9.8161984476641512e-002 -1.9655052826560285e-002
      -3.5258248382808578e-003 6.3367461579130258e-002
      1.2584547120620673e-002 -7.1930719211582325e-002
      1.3655541343875097e-003 -1.3325606386753789e-002
      -4.6094578559589244e-003 -1.3935646201638474e-002
      -3.0430288571097936e-002 1.8856708233558096e-002
      2.1177977681780539e-002 1.8237195296960444e-002
      5.4496647194625304e-002 -2.2495067383977281e-002
      -5.1192441186061956e-002 -2.1399496678238547e-003
      8.3936171349686006e-002 6.6987364618073378e-002
      -1.0754669601264966e-001 -5.2323259969512599e-002
      -1.0158983421810073e-002 -8.7451522836461001e-002
      2.7381623797444275e-002 -1.9795501901252961e-002
      2.6920205104151048e-002 2.5973459279065990e-002
      -1.4660660801747062e-002 1.1845213675908021e-002
      -3.0246087120493290e-003 1.7315848993239562e-002
      -3.0475625652439980e-002 5.2097448897992671e-002
      -6.6230545363142643e-002 3.7020777950334212e-002
      6.2162942945966845e-002 -2.9248105256884420e-002
      6.1544603813564955e-003 -4.5147663713632685e-002
      1.0100790281602848e-001 3.9380565302807195e-002
      6.4562134720119208e-002 -6.8507189175496530e-002
      1.2323581295232645e-001 -6.6868421686721580e-003
      -5.8669334797240319e-002 -4.3971251911891017e-002
      3.9805387770305907e-002 -4.1931329403132989e-002
      9.7925929980349144e-002 -5.1908196977254295e-002
      -2.5176887705059013e-002 1.8373392056051558e-002
      7.1754869867828655e-003 3.1447340569736908e-002
      -4.3307987046284968e-002 1.1529444810242671e-001
      -3.4396091172280360e-002 1.4948506376469691e-002
      5.7387894673757205e-002 -2.7846835172846848e-002
      4.9960704019610558e-002 2.8185010316817798e-002
      4.2130121769061252e-002 -1.4564640879798155e-002
      2.9499297580593612e-002 -5.5958449271246505e-003
      1.0975764872035285e-001 -2.4478129968142346e-003
      4.4115413741655445e-002 5.0027902463813008e-002
      -2.3105856676516388e-003 1.9919110652082957e-002
      6.9689025055100051e-002 -1.9884504001357790e-002
      9.8887895744179194e-002 1.6287427398475066e-002
      -4.7853655157468616e-002 -1.5066158077525021e-001
      -4.2197094464642065e-002 7.4415721402170495e-002
      -1.9750561839232808e-002 2.2835851819961304e-002
      -4.2417996649634339e-002 -1.9239122789332187e-002
      4.4990100848835209e-002 -5.8796434634529340e-002
      3.6601457638609440e-002 4.9259765282387100e-003
      2.6528869720614943e-002 4.1606045731680689e-002
      7.5535270289684306e-002 -3.2428047334840018e-002
      -4.9090757322619867e-002 2.3305040278895631e-002
      -2.0208958564081517e-002 -2.1493776780985883e-002
      1.3990914318298983e-002 7.1495317809531320e-002
      -3.4848063624103781e-002 -2.2415438567609872e-002
      1.7324228449248517e-002 1.0974146793850826e-002
      -9.1751564536048921e-002 8.5514754524091241e-002
      8.7674074725888992e-002 7.8719263237490567e-002
      -1.1100497328622920e-001 -3.9257713783846012e-003
      -1.2520344581744220e-002 4.0284083863042608e-002
      2.6124779351056678e-002 3.6608317289178342e-002
      -1.7814308840862558e-002 -4.2521796718815820e-002
      5.0233142384110564e-002 -9.3344535771473607e-003
      -1.0464903583457598e-001 7.7813206050088013e-002
      -2.8752434052935542e-002 4.9299798025929688e-002
      -8.2215827722988938e-002 1.4904393796367430e-002
      -6.6269698580937814e-002 -2.2702053073043505e-002
      -7.2541980261128340e-003 -4.5068724405469975e-002
      -1.8628759138708803e-002 7.0412401784660392e-002
      -4.7010893895528955e-002 1.2973521509951713e-001
      -7.5990160932001685e-002 -8.2410060105447380e-002
      -1.2267752371066013e-002 -1.8063101454103517e-002
      6.3336654907592257e-002 -6.2320599699586931e-003
      3.5007301696945922e-002 -1.0809667620186788e-002
      -4.5473486507686539e-003 6.1148285229479751e-002
      -3.3838387156737953e-002 2.7057428303690144e-002
      6.2625529815025741e-002 -2.9723041263168080e-002
      -3.0611721376520223e-002 2.1421036128217448e-002
      2.5013948328703101e-002 7.3519776601334505e-002
      -3.0098574202605616e-002 -1.9247171483610440e-002
      -1.4975859504238243e-002 1.1794878232577442e-001
      -1.1268277084800102e-001 6.0435069374356765e-003
      -1.1602010702321214e-002 -5.4447902743582431e-002
      -1.1497971492703814e-001 -2.5048625387264999e-002
      -3.5063898402833533e-003 4.9378755561030968e-002
      -4.2595141751730504e-003 -7.3923352248764548e-002
      -2.6640364610327583e-002 3.9668833649666108e-003
      -1.9036119039094381e-003 5.0928765345436078e-003
      3.3976846532656783e-003 -9.6307312388558327e-003
      8.7618278966860566e-004 -7.4929469503565334e-004
      4.3028733322259417e-003 -4.6174103055564835e-003
      -5.0243034617089878e-003 4.9164454044062526e-003
      -7.7404082065187412e-003 -7.4930674187775386e-003
      6.4339377500017680e-003 -1.0249067598700149e-002
      -9.7199076358318731e-003 -6.2840798383600877e-003
      -2.4693631986130583e-003 2.5571188699942105e-003
      -4.7997865082905480e-003 -6.1760355151996901e-003
      9.4624460660269714e-003 8.1235187724211701e-003
      7.0765683225005585e-003 4.9675376420954664e-003
      8.6332120947426889e-003 1.8127942481816644e-003
      -9.9802339239919409e-004 1.0905323333965237e-002
      6.6450579072904383e-003 -5.7787412621494406e-003
      -3.8027940099316111e-003 -1.0040033245665159e-002
      -6.7707802530220292e-003 1.2857913738343553e-003
      -8.8117123751824192e-003 -6.0832977297283473e-004
      6.7106294209710602e-003 4.6521707145532193e-003
      8.7850007346562103e-003 6.7175619040486610e-003
      1.8783345810083711e-003 4.4313210829874435e-003
      -9.7247608235000189e-003 6.1026071237459088e-003
      -9.4535085672311763e-003 -9.8141661722331627e-003
      6.8988174487772426e-003 2.1207394604121424e-003
      -5.6388524969387581e-003 1.0796162371533673e-002
      5.2110457235924786e-003 -6.1267492105398606e-003
      9.2751419765964224e-003 -7.0594236170570474e-003
      1.8224208235541341e-003 -4.6849011884824024e-003
      1.7926329089055996e-003 -8.8695806539368927e-003
      -7.3927441834929957e-003 -5.8979470136793482e-003
      -1.1319529825442127e-003 -3.2825713880609226e-003
      7.0965192685047513e-003 8.9259599104669438e-003
      -6.3066233693328463e-003 -2.8247770804946701e-003
      6.7454022530445317e-003 -1.0599055262547105e-005
      5.4289662664442906e-003 -8.4362128755776245e-003
      1.0520879335919626e-003 4.8913385318549100e-004
      5.6996417498903279e-003 -4.7564389920075481e-003
      -9.0168350861027525e-003 -4.1871716037676583e-004
      -5.7445154638083463e-003 2.0568433349091794e-003
      -2.9743094734201460e-003 -4.0279705088277088e-003
      2.7131630292582991e-003 6.3098904729737141e-004
      -1.7679571083467711e-003 -3.9517232403715082e-003
      -4.7816694652116501e-003 1.8938396392028151e-004
      5.9055141575970124e-003 8.7072657622701190e-003
      -1.2897668101217671e-003 3.9040813931868054e-003
      4.2862897199121670e-004 -8.1668190821933186e-003
      -6.0325617281681504e-003 2.3250247359099144e-003
      6.9255599146952748e-003 9.3922577406753745e-003
      -6.6758946596164673e-003 8.6703180572702632e-004
      1.6973685835790279e-003 3.2982301998318248e-003
      -7.9443188645930366e-003 -1.6500742110033923e-003
      -1.5339843336143149e-003 -8.6613951669302063e-003
      -9.0910654542119933e-003 -2.0660247563159756e-003
      8.8878781777671466e-003 6.9884524123242312e-003
      -7.4573252527929115e-003 3.3401159018095275e-003
      3.4230551930663818e-003 -3.6422073164002308e-003
      9.3399271452854725e-003 -4.7086313785963084e-003
      3.2049836077634067e-003 1.7988452121976224e-003
      4.0564193465544279e-003 4.3073525097104730e-003
      2.6862189569708795e-003 7.2963862264340418e-003
      1.8359561515716913e-003 5.2861147524464226e-003
      4.4436802513233070e-003 -8.7307044582460320e-003
      1.4817730019927422e-003 1.0961364021802188e-003
      -5.9370169381947700e-003 -7.0445441850092846e-003
      4.9569756843653359e-003 -6.7625224618853771e-003
      6.4327121987654131e-003 -3.8885740762368108e-003
      -6.4870768216066287e-003 -6.4183339640380118e-003
      -3.7335727750158415e-003 5.7403264480069931e-003
      9.0790255240448640e-003 -4.8269277481782832e-003
      5.6610569969260073e-003 9.2023480677284122e-003
      6.9710486583941507e-004 2.0509418873920697e-003
      -2.0756838578598891e-003 6.4560886669436284e-003
      1.0063617021621514e-002 2.5074619367356729e-003
      -1.2123109072075453e-003 -1.0113253473857067e-002
      7.5485149623311983e-003 -4.0752366588651849e-003
      -6.6319147392033479e-003 4.5016144719902005e-003
      3.7146900780751438e-004 -2.6774715603792450e-003
      -7.2929534474365900e-003 -9.0083288847944507e-003
      -4.6842206041632474e-003 -5.6858097635323658e-003
      -8.6484624414254318e-003 -6.5644920412236017e-003
      -7.9681122466713859e-003 -5.6173946887944654e-003
      -4.4950649741422842e-003 2.3303300290609093e-003
      5.1088348683784503e-003 -8.7515711720763598e-003
      -3.8513691631232808e-003 -1.2818272605237735e-003
      5.0291132899430296e-003 1.6008984824318160e-003
      -3.3587878929641920e-003 -5.9637499528404749e-003
      1.0567208886209057e-002 -3.7788138373922712e-003
      -8.0005714526079248e-003 3.3479654522165316e-003
      -4.0903113030689468e-003 8.8561550368456265e-003
      3.2426543192735097e-003 -3.2159055843531906e-003
      -4.6343275242074202e-003 -1.8107379611075928e-003
      3.9773476333540970e-004 -3.6084208457910095e-003
      -9.0239731569742160e-003 1.1009937959556655e-003
      5.2136992195162832e-003 7.2074510864608837e-003
      5.2823373650158593e-003 7.6135404604556122e-003
      2.5108605961490088e-003 -5.3684217951314051e-003
      1.0307311077883188e-001 -4.7287142016666971e-002
      1.1718853291742666e-001 2.1205906111917396e-002
      -9.2458609781239168e-002 -1.3347193074701252e-002
      2.3940459359526142e-002 4.2893763724046241e-002
      7.1689767822434039e-002 -6.4488911125373805e-002
      -1.8596445597898484e-002 -4.2878424692018448e-002
      -2.8921053296373637e-003 -4.0565633586552512e-002
      1.8008809781867225e-003 -4.9083954316271793e-002
      6.1725721551848849e-002 1.5137518346068789e-002
      1.1777449626510712e-001 -5.8849520093406209e-002
      5.8626296304807778e-002 5.0096406957433892e-004
      8.6209075947409536e-002 -1.2636897602723601e-002
      1.1523147416072389e-001 1.6778446851539831e-002
      5.5503249150257013e-002 -3.1292214251672869e-002
      5.7944116920271113e-002 4.1108727506797130e-002
      2.5695209886828080e-002 6.1368948750959565e-002
      -6.0507958268438550e-002 -4.1671354436704560e-003
      3.4104485477870018e-002 2.8596780635553390e-002
      -2.9376469318781628e-002 7.8930267560746951e-003
      -4.3420006404553166e-002 -7.2610295677500700e-002
      4.2398188568774579e-002 5.5845017468490035e-002
      7.9506638071204797e-002 5.0483426653680580e-002
      8.0052537790293782e-002 3.4947287934879868e-002
      7.8207716777826508e-002 -4.9987303488969277e-003
      -4.4875929386857208e-002 -3.2541285401480546e-002
      -2.8722094370848043e-002 -2.1351303666485400e-002
      3.0577482113886556e-002 2.6875689072927790e-002
      1.6851217451310194e-001 -6.1231827484448297e-002
      -1.9608986847816732e-002 -2.4649745644991974e-002
      -6.4703702650879005e-002 -5.4862998360393156e-002
      -6.8669391007731784e-002 -4.1415251318046360e-002
      1.0668302231477658e-001 8.8587328052164294e-002
      7.5511322973807207e-002 1.2785209370954660e-002
      9.1760556555979492e-002 -6.0363123475891435e-002
      -1.8786111221968195e-002 9.4100446854134198e-002
      -9.6308711039440206e-002 -3.5938278231834493e-002
      2.3076053504893269e-002 -1.6789004938953835e-002
      3.7843509890094343e-002 7.5242720547725002e-003
      1.9454084237017874e-002 -7.1077969750568501e-002
      2.4799140007694402e-003 -3.5549076319435727e-002
      4.5377590095767913e-003 6.2878689063974993e-002
      6.2112771258427853e-002 -2.4051768446941724e-002
      -1.0198905410131472e-001 3.4662794648132405e-003
      -2.2920187769014996e-002 7.8824140319874836e-002
      -4.1175490192947597e-002 -1.1331397576551300e-002
      -7.4664523700376838e-003 -1.1383499478219068e-001
      -1.3946777955463702e-002 -1.8231368807168101e-002
      2.3770031976411827e-002 -3.4225782330773627e-002
      6.5271314600076638e-002 -5.0438900097081844e-003
      -3.0691288878807756e-002 -4.5395509007484590e-002
      -2.2873254705041573e-002 -1.0123730926439578e-003
      8.3387624649240308e-002 -2.4987289168136612e-002
      6.5109274905441064e-002 -4.2741459175445487e-002
      2.2452541811123234e-002 4.2084580855041832e-002
      2.7636344645823693e-002 2.7346612405505358e-002
      -7.8091381508660102e-002 -8.8059329494513401e-004
      -5.3943511272019542e-003 3.1494757360258689e-002
      -7.2086909186895892e-002 4.4848398986868043e-002
      1.8148114560779523e-002 -1.0626090060599414e-001
      3.3852644193022377e-002 -6.5592861164448374e-002
      6.2266832439960597e-002 -3.2824943385492800e-002
      -5.3011915313525282e-002 -1.7249432806766645e-002
      3.1952406327420295e-002 -5.9203446866462180e-002
      -1.0905976272468659e-001 -1.1165210561516219e-001
      7.2715530045434282e-002 1.3035350835491438e-002
      5.6621916029356477e-002 -1.9926444267926943e-002
      1.1843523570553771e-002 7.8514131077255966e-002
      -6.3667702057431984e-003 2.3380572844291993e-002
      -1.2481809810474644e-002 -5.9447300509818550e-002
      7.3052415969925164e-002 4.2396286754847155e-002
      8.6760692283918112e-002 -3.1993530697096671e-002
      3.7917993150346628e-002 -2.6961518329897020e-002
      -2.3621187574111083e-002 -1.3594075783603915e-002
      -6.4748030585947192e-002 -3.9588146320608808e-002
      -1.7972526109636896e-002 -2.5855224102195332e-002
      4.1148148127356059e-002 3.5468292726901642e-002
      8.3102876950182258e-002 1.4081598106709703e-002
      -4.0244353719714132e-002 -2.0058356649137663e-002
      2.4327718071166002e-002 7.5675830511999706e-002
      2.1753747570104284e-002 1.2490094467984143e-001
      1.1054223277108453e-002 -4.0239649815036860e-002
      -2.7846395799237247e-003 5.4130285404387427e-002
      8.5447713178599491e-002 -4.6633603465290233e-002
      4.5385983910807948e-002 -1.4283026394809892e-002
      -3.5714473362478912e-002 3.4338700816496905e-002
      -6.3369500607135865e-002 9.9709587374910390e-003
      3.8642991800011177e-002 -2.1809903611571656e-002
      6.7681297674767632e-002 4.4885368326203143e-002
      6.2155868226478991e-002 -7.6994422208398238e-003
      4.7124769036426914e-002 4.3342879357467024e-003
      -8.6859440849399047e-002 4.8614832898589609e-002
      -8.0141144333749276e-002 -9.9664334954671311e-003
      1.8541974534358928e-002 2.8844229631787219e-002
      -4.2691599325593299e-003 -1.2747653155871950e-002
      9.7911242137449315e-003 -3.7625427062266507e-002
      5.8223000526650998e-002 1.6725995056404996e-002
      -2.6418427239328113e-001 -3.7336977110784139e-002
      4.6149509741560901e-002 4.6231977055401607e-002
      -2.4900459077120213e-002 -2.1620904451091879e-002
      -2.8833218525364444e-002 -8.9879954530503431e-002
      2.2594275339473446e-002 -9.1690488792753166e-003
      4.2061774510423748e-002 3.0474320508904064e-002
      2.3425460164855964e-002 -2.9877584264907317e-002
      -9.5542893126636746e-002 -8.8963128138897382e-002
      1.3439158049109803e-003 6.5307918486575064e-002
      -3.9795225615363999e-002 9.9540768142551989e-003
      2.6896185412979352e-002 -2.8013951175578960e-002
      -4.8771177105220644e-002 -2.1375750541644149e-002
      9.3305173629268032e-003 -6.2568824649564495e-002
      1.5038583707846253e-002 -9.6567440967868026e-002
      -1.1897880168287025e-002 1.0581566257796961e-001
      1.9114987334249048e-003 -9.2611648788765322e-002
      3.2470555103959339e-002 -6.7327773651366218e-002
      -2.0754979495218515e-002 7.6993283377265895e-002
      -3.3817179762848100e-002 -9.0379296264748721e-002
      3.0135206830985535e-002 -2.3179277737867956e-002
      -3.2249027466658781e-002 -1.2085962231621396e-002
      -2.1573574727753479e-003 -8.2190771296560355e-002
      -2.4175362878717608e-002 6.2719730740975435e-002
      6.5629842372749141e-003 3.5575442645006910e-003
      -6.0404111145430053e-002 9.7556384705542037e-002
      -6.6160391362598287e-003 2.0426075794989347e-002
      5.9234201765935718e-002 2.8694536688261340e-002
      7.3235384282818589e-002 2.7293071811932343e-002
      1.2055977026237530e-002 1.2470186872487983e-001
      -8.8514401164170808e-002 -7.0290924926214693e-002
      1.1500324141185759e-002 -6.2955340818613870e-002
      -3.5992255683782351e-002 6.0255184227369946e-002
      1.0410963621006503e-001 -5.3478275516760973e-002
      -3.5948480571696598e-002 5.2966398101338776e-002
      -6.8382323355584029e-002 -1.4069846913232922e-001
      -3.8918345261871205e-002 -3.9855053797092047e-002
      -7.2349944029176522e-003 -2.3175783494023300e-002
      6.7746465818565471e-002 -4.4821315182579390e-002
      9.3086749330364205e-002 6.7372746293516084e-002
      1.8267313540434180e-002 1.1541434552857895e-001
      1.2941172766314249e-001 1.5064170855412751e-001
      -7.4821454238312574e-002 -1.0176311247615538e-001
      2.2091727403803621e-002 -5.2587689768539628e-002
      3.8966538060489803e-002 4.1453790456086673e-002
      -4.2920321702806671e-002 1.0505995414928669e-001
      2.1170751421531256e-002 2.2423300700437940e-002
      9.1942271699559427e-003 -1.2087789182997801e-002
      1.2092351472550399e-001 6.2280898942337730e-003
      8.7766808647705516e-002 -2.0861535691845567e-002
      5.3823203996508785e-002 -3.1854663020961252e-002
      3.9381137635332707e-002 -3.4676780859197655e-002
      -7.1874062054545704e-002 -6.8709430961724577e-002
      3.0701989675510095e-002 3.3055019211681042e-003
      1.1035857663321122e-001 -4.6456412112385652e-002
      -1.6759950662520624e-002 2.7397769980246230e-002
      1.7731923122663466e-002 3.5816353061878581e-002
      -1.4255868281795829e-002 -4.4304854358086260e-002
      5.1978451074628951e-002 -5.6597740042627111e-003
      1.6509864422631037e-002 -4.8067405815380437e-002
      1.3922611700726083e-002 4.1577904632358088e-002
      1.2714645090977536e-001 8.2380334862640334e-002
      -3.8576386654231676e-004 2.7569570054022302e-002
      -8.0830015930520513e-003 6.9366430994878395e-002
      5.2374565076388352e-002 -2.8550849421460039e-003
      6.8322342191073806e-004 4.0151250822158579e-003
      3.7379961898211869e-002 -7.8323099227213158e-002
      -5.4447673635235373e-002 1.1763968239920457e-001
      -2.5745764174603225e-002 -2.1020805160014939e-002
      1.9572191120604068e-002 5.2728496446475898e-002
      6.3379814304657764e-002 -1.3455542967927165e-002
      5.2570578705348717e-002 8.6733342361879795e-002
      -2.2914742700622642e-002 -1.0657395163623502e-001
      5.4356391158426491e-002 1.3078471598378597e-001
      1.5045981718094216e-002 -9.7571553756000989e-002
      -6.5529879498546828e-002 6.4528917076329018e-002
      -2.5639108380170667e-002 3.3655503028335457e-003
      -5.4788538460957173e-002 1.2370112684861931e-001
      1.1225119191828366e-002 1.7912882909428024e-002
      -7.6417676041868984e-002 5.7057669152190266e-002
      1.0550376160677512e-001 5.1469851428967053e-002
      -6.4878507019614673e-002 -6.2664665212807565e-003
      5.5321811166787895e-002 -1.3116547638189412e-002
      -1.5552912674927945e-002 3.2608714469332563e-002
      1.2825429593522973e-002 -3.2765898887132769e-003
      -7.0543557928117132e-002 -3.1476141398495472e-002
      7.4581070648225955e-003 -3.8175107398736571e-002
      1.7323905827246569e-001 9.5644423038975940e-002
      -7.9719741870532143e-002 -2.8625802879530169e-003
      -1.2885882058115345e-002 1.0236871948844617e-002
      -1.9558392520818865e-002 -1.5903720459599438e-002
      -5.7798968673866191e-002 -1.2608768037012461e-001
      9.3661985404397560e-002 4.1026118192822876e-002
      -5.0010593455528392e-002 -2.0260701516629780e-002
      1.1822298325672930e-002 3.9091910484419887e-002
      -8.8606070608006505e-003 4.3191325795523171e-002
      4.6006477380466065e-002 -6.3472655436058012e-002
      2.9576307960102877e-001 -2.1508542908454914e-002
      -6.8219217536175839e-002 -2.6714692590464349e-002
      6.0858087214555871e-002 7.9692960044322733e-002
      9.2308860275337017e-003 -1.8092978799767907e-002
      7.7504106654440359e-003 5.8751782926330036e-002
      4.3079700209150612e-002 3.9006390864425790e-002
      -1.9203821633922681e-002 6.9797316687191649e-002
      3.1325351380924280e-002 -8.1225184069471899e-003
      1.1176031521398176e-001 -2.8578270767341037e-002
      1.6471236632567825e-002 -6.0354302136738508e-002
      -1.3406036232888109e-002 -3.2881994501893653e-003
      6.9971398468685692e-002 3.8821189733551156e-002
      -9.2721919952806375e-002 -1.0894174322816549e-001
      -3.5650712566160314e-002 3.5224022517365834e-003
      1.6369018290572940e-002 -5.4656810441615009e-002
      -9.9429946626397148e-002 -3.1154696543556487e-002
      9.0772225283295829e-002 8.7119424599908471e-002
      2.4392984737790332e-002 7.2659473562720362e-003
      -2.9242929309471158e-002 -5.4884194730054556e-002
      -2.9247026452240938e-002 2.4460571709239293e-002
      -1.5347549081273221e-002 -4.3307747816496024e-002
      -9.5565568612972690e-002 -1.4695009083820385e-002
      -4.6039926140582103e-002 -2.5337090610480079e-002
      -7.3760378923334001e-003 7.4711255436403987e-002
      2.1059289216266236e-002 -7.3765855931480620e-002
      2.7205278181801979e-002 -2.9000250492405621e-002
      -6.1313289521199604e-002 -2.8790771338191780e-002
      -1.0312416632859006e-002 7.3165998668904247e-002
      6.8601831044558673e-003 5.7844027939231782e-002
      -7.6065105382829512e-002 -1.0813705578091311e-002
      1.6700490852370119e-003 -2.0412548843839376e-002
      4.0430420877104946e-002 -2.0951304919033430e-002
      -1.3713950380360612e-001 -9.0297561611507121e-002
      1.1662404409495382e-001 -4.9161371307637904e-002
      2.7612181324159272e-002 1.0781766364082350e-001
      -5.8267915379627368e-002 4.9769153282735880e-002
      -6.0265538380606817e-002 4.1404154333776982e-004
      1.3119561886226938e-001 -1.2630668338224590e-001
      3.8631668946714937e-002 2.2176165243075695e-003
      5.6352844666618565e-002 3.3657288493563781e-002
      3.7799390517627332e-002 6.6835852119455863e-002
      -4.4825014099938484e-002 1.6109062792292447e-002
      1.9711875009792938e-002 3.6561512086646167e-003
      3.6063110520317507e-002 -5.9673745160585779e-005
      -8.9451715019716483e-003 3.9374031045893924e-002
      6.2173027268966410e-002 -7.5715617478749594e-002
      -1.3122647098661733e-001 4.6305734984724747e-002
      -1.6364038725324083e-002 -1.2600079866896610e-003
      1.7461808460549802e-002 -4.1546430319786144e-002
      8.7311056507364412e-002 3.6035969510221012e-002
      -2.6818636602067319e-002 2.0543014903720284e-002
      -5.0636439169794628e-002 -7.2981626127676363e-002
      -1.4202211270089185e-002 5.7909466713016250e-002
      2.2149530245684723e-002 -6.3273147190017111e-003
      -5.0329731649429955e-003 -5.7010061952690550e-003
      -1.1721457925162521e-002 -6.1197554018231098e-002
      -4.7566937318021555e-003 -2.4319222631805186e-002
      -5.1927525357152761e-002 -1.1430205732512994e-002
      8.4745050329698299e-002 8.7177905107950718e-002
      1.8523686076993943e-002 -3.3246310209397417e-002
      -5.6710843452519900e-002 -7.2535433128084151e-002
      -1.8308717295849892e-002 -3.4388833154372682e-002
      2.8505688531441527e-002 -2.0559964058246373e-002
      9.7649129710741814e-002 4.0088079403325809e-002
      1.5142835475361818e-002 1.8124985704483541e-002
      -3.5404786952923366e-002 9.8651199550528673e-002
      1.7387962610255852e-003 8.3361539049001801e-002
      5.3732880956022709e-002 -6.5269185788114262e-002
      3.4003838804408257e-002 2.1826924432650063e-002
      1.7998944825799449e-002 -1.5385806947358149e-001
      -1.3807658658585450e-002 -1.2630841528550023e-002
      -3.8710970807904643e-002 -8.3270243119066105e-003
      6.6378814434005534e-002 1.0463554271864421e-001
      -6.5657176071153194e-003 4.6844958324722179e-002
      2.8352030207593686e-002 -5.8927941114332874e-002
      4.6976317486932762e-002 2.5302645102026462e-002
      7.3904776165049965e-002 4.0132533881695659e-002
      -1.3608654803478228e-002 1.7203025530747328e-002
      6.3483970926928396e-002 -1.0079002013902899e-001
      -7.8175213955145543e-003 -8.7361181657927583e-002
      -5.0312855265114816e-002 -5.5252003108866257e-002
      9.4037282774902226e-002 -3.3055422446883934e-002
      -3.3278425962696485e-002 7.7524919625366062e-002
      2.1567201686043293e-002 6.8788532788441013e-003
      3.3337963781305269e-002 2.8149993736269429e-002
      -3.5103074799299958e-002 -1.2684595790893554e-002
      5.0108118274482784e-002 8.7607834465754913e-003
      1.4964203262964840e-002 2.5541392487278994e-002
      -5.9850702565202592e-002 -4.0210899360024560e-002
      -1.5361434611799450e-002 -3.6735294180594721e-002
      -6.6570023451575255e-002 -1.0550252238281206e-001
      -7.9391916228654921e-002 1.0675469665188092e-001
      -1.6042021060403582e-002 8.4387243063530609e-003
      -3.9913610285763297e-002 -5.4990075917728184e-002
      -4.2498784270023356e-002 4.7004800649970507e-002
      5.5223847251124657e-003 2.6141110116974189e-002
      -4.4648830069934636e-001 -4.9073130317972792e-003
      1.4508678721858770e-001 -9.8496251244519235e-003
      -9.6654395142642319e-002 -5.3487957490026564e-002
      7.7664775329063088e-002 -2.9033275007547540e-002
      2.7578370704775011e-002 -5.6016347144131270e-002
      -1.4657251868220375e-002 -3.1217964100256328e-002
      -3.7187612286475005e-002 1.3545666238175852e-002
      -1.8388988266184198e-002 -9.1666825654922152e-002
      1.5675243920090848e-001 -5.0977332359950549e-002
      6.5686960689257121e-003 -9.7745536018626900e-003
      1.1094896429868510e-001 1.1345515855260040e-002
      9.4737158874483821e-002 -1.3700705090533202e-001
      1.7203950350130084e-001 1.4372410311099204e-002
      -5.9526306732729404e-003 1.3475203589020029e-002
      -1.0454942613256329e-002 -8.6843172055601506e-002
      2.4211641136538821e-002 -3.2144778771612842e-002
      -2.8037950348471750e-003 -1.8046658470511456e-002
      2.1222431323326719e-002 -2.7461416776663583e-002
      -9.1888401740792713e-002 2.5322991672651139e-002
      2.3405697583548858e-002 1.1361756992882447e-002
      1.2642964761491500e-002 2.1671481799320769e-003
      -5.4377642253954792e-002 9.4781411349347013e-003
      5.6801135903834163e-002 3.4660083841333678e-002
      1.2203861494619821e-001 3.3004283304008966e-002
      -1.9053715769621195e-002 2.0769829130515331e-002
      -4.2624845757661428e-002 5.0991830770308638e-002
      3.8888717400982396e-002 8.0297179248638075e-004
      -1.0833997162354091e-001 -8.5887480155105861e-002
      3.0387226109853806e-002 5.3048544575779004e-002
      -2.5945353185825824e-002 1.0487531741398526e-001
      -3.0870514099037374e-002 7.3820440752957639e-004
      -4.2301128970763900e-003 5.2232822573415605e-002
      -2.2817712002978784e-002 5.2542608647696085e-003
      6.8733196543060103e-004 -2.4562612157845696e-002
      4.9313344617548306e-002 -2.8845565439161683e-002
      3.0019233190658488e-002 6.8644716214108073e-002
      1.5465053917045985e-002 -1.9520676021260557e-002
      -5.6487734808655633e-002 -8.4582962100754486e-002
      -2.4759077657453461e-002 6.6531754794890569e-002
      6.9487537882464111e-003 2.7597035612682728e-003
      4.7970381063906560e-002 3.9516755632385111e-004
      7.6699883091564863e-002 -1.4487775645109344e-002
      5.2746808148688859e-002 1.4594943391214319e-003
      1.2659980327696504e-001 -6.1516943415503171e-002
      8.8808778134234038e-003 -4.5768469983501613e-002
      -1.8213776810152817e-002 6.1503577061248753e-002
      -2.6235985434149910e-002 4.2434048616024640e-003
      4.6191471198222901e-002 3.4510625095537997e-002
      1.3826454611626751e-002 -3.4838356087921483e-002
      8.1790032931929463e-002 -2.9182244016811805e-002
      -3.6348111322525960e-003 5.2535668684263494e-003
      2.7732391824363866e-003 1.5547294219497148e-002
      -4.6973586026778119e-002 -7.8503190475471704e-002
      3.7999188762642584e-002 -5.8057630191423663e-004
      -2.6632592407683450e-002 1.0241993444597183e-001
      3.6024250637316658e-002 -8.6685163960423389e-002
      -8.3900929994761529e-003 -5.0110367376999504e-002
      1.8170352794669102e-002 -5.9483082879040361e-002
      6.5996195674942942e-002 5.6291036523829557e-003
      2.1517720823101747e-002 7.4447781994748904e-005
      3.2064390633129776e-002 2.5342517901002594e-002
      2.3181491998844606e-002 -3.5804154800597982e-002
      -3.6140580430931817e-003 3.2899170766656320e-002
      -4.2223234822195343e-003 -1.1570149611910184e-001
      -5.1888315464395041e-002 -1.8818603791377904e-002
      -1.0307816824214130e-001 7.4415148704406200e-002
      1.0741439040563212e-001 1.3348551782672151e-002
      -6.1304287877806514e-002 -2.3771967979982090e-003
      -1.7709586964370330e-002 1.8882750467471513e-002
      4.0438185315124421e-002 -1.4999718781997139e-002
      -6.7485096461175648e-002 -3.4093976831560902e-002
      -7.1294970422055820e-002 -8.1978126325973358e-002
      4.2334172550861110e-002 3.8260981272697739e-002
      4.2930150466779761e-002 -6.5299654321838624e-002
      -1.0455557363912453e-002 5.0626453927639148e-002
      6.1750400661435704e-003 -1.1331537589649885e-002
      1.8959199921483458e-002 -1.4438960842336514e-002
      -8.9395644181639755e-002 -1.9084260666208764e-002
      -6.3613542674387505e-003 3.4251096061702527e-002
      -4.3292835881464313e-002 2.9507353326324773e-002
      -4.0336014680300347e-002 -4.8291642118592701e-002
      2.3040843042038690e-002 8.5573447137755471e-002
      2.7592771160684940e-002 -1.5005196977190756e-002
      -1.7976071104518244e-002 -4.0755307213083218e-004
      -1.0180222592366679e-002 -4.1602927127817740e-002
      -2.7289587606741706e-002 -2.6975268708681648e-002
      7.1798861507122872e-003 -5.2460772945630355e-002
      7.9234910978235984e-002 7.7579407220670395e-003
      5.6573903933669532e-002 -4.5071660443696621e-002
      2.1287846113387625e-002 2.7834890225684864e-002
      4.6960901875463305e-002 2.8870105770344989e-002
      4.8670512591288143e-002 -4.5271944709503062e-002
      -1.4448521804054162e-002 -2.2568189207178461e-002
      5.0988737432492805e-002 -5.3912018922319171e-002
      -2.9219851695769433e-002 1.6439293713018600e-002
      4.5613109707081628e-002 -1.0385907681637056e-002
      -1.5048892876114701e-002 1.3169204652269969e-002
      -1.3487750808957437e-002 4.5131286025329211e-003
      -5.6794767164971872e-002 -4.0420202597748842e-003
      5.1672399633732463e-003 5.4129310028448910e-002
      -1.0133254928814804e-002 3.1289902761970467e-002
      -2.8794570482381338e-002 2.2901338670810328e-002
      7.2822796445096288e-002 7.0634640524397371e-002
      6.4559930951570879e-002 7.7191461715357096e-002
      6.0020878021408699e-004 -6.6343766178841856e-002
      -1.2178788933812097e-001 2.0298008468043135e-002
      -9.0313532133922715e-003 2.1016191375326516e-002
      -4.0041855392951839e-002 1.4815687411153990e-002
      -7.8949695903638099e-003 -9.8141990038691312e-002
      -4.5894785856563057e-002 -1.1208773469736234e-001
      2.4326625286057328e-002 -2.1666157134090842e-003
      -4.3861188489262605e-002 -3.3675273540696077e-002
      -7.7741682782240832e-003 -5.1039037358563168e-002
      -4.7199418079522867e-002 -3.1991065544692318e-002
      -4.2361791666199938e-002 3.7426775483659760e-002
      -7.1579326135530735e-004 6.2131493537883407e-002
      6.5755599185557914e-002 1.2508835587745303e-002
      5.4464195098775361e-004 -3.9453274806571993e-002
      -4.1619506001568822e-002 -1.1055393366910167e-001
      1.3335839682105102e-001 -5.8762359726209495e-002
      -1.5616284358254638e-003 1.4420464966260316e-002
      1.7191574261220899e-001 -1.9849820690630661e-002
      3.0511442093644876e-002 -5.5300976311346180e-002
      -5.4612196966932799e-002 1.2594702926751353e-001
      -5.8396235691998059e-004 -3.5297683414578743e-002
      -7.9351506526080893e-003 -3.3802465104670124e-002
      3.2138163274043188e-002 -8.8088899946697496e-002
      6.9432901927378513e-002 -1.6966534402599892e-001
      -4.5877036128938516e-002 -3.5783530610633177e-002
      -1.6231062851081443e-001 5.8892061430508034e-002
      -1.4417897684028111e-001 1.5573057214657446e-002
      3.8335166619518538e-002 -2.1658694157052721e-002
      -7.5120584732523740e-002 -1.6819432320257825e-003
      -2.0921967507201232e-002 -9.0266376383131199e-003
      -1.4080124357965906e-001 -5.6441850039677971e-002
      -4.2055663999034973e-002 6.1050245969451480e-002
      -5.1074330185262529e-002 6.9475626488955888e-002
      -3.5110271853341410e-002 -7.9547970228832393e-002
      -5.6174607159857767e-002 9.4645161944735989e-002
      9.2578064529324489e-002 -9.2490779917533388e-003
      1.1839210572763409e-002 -7.7078108564586176e-002
      -2.1915932730032863e-002 -6.0252682241477673e-002
      -3.2951574389636147e-002 8.8398065323396655e-002
      3.3755210318189878e-002 -1.2454623866483260e-002
      7.8548034207578544e-003 1.8410247876063050e-002
      4.0137689943893301e-002 6.4773025434009715e-002
      -6.0410335362136910e-003 1.4118857426419471e-002
      3.4323528752602757e-002 1.1830113650873431e-002
      5.8787536343563570e-003 1.1402635462788079e-001
      9.9098307250788290e-002 9.8515697078015815e-002
      -1.2175347896675504e-001 2.2267114880094654e-002
      -8.5703715489946364e-003 3.7494172560950716e-002
      7.7643447878554317e-002 9.2540546035429314e-002
      2.4373629215651088e-002 -6.5451438192743946e-002
      4.3520567729724499e-002 3.5212154225183818e-002
      1.4482464337330861e-001 -8.8360052877662267e-003
      5.1859161689452753e-002 8.5837227214600326e-003
      1.8502722407182925e-002 -1.1167612614324249e-001
      -3.9357187419880590e-002 1.4715456385908378e-002
      1.1941659409243627e-002 2.1531828241430368e-002
      -2.1313563893093593e-002 3.0420574172692290e-002
      1.8640543751394187e-001 -4.3965556966336403e-002
      4.9336234114918970e-002 -2.7109958231552198e-002
      1.2311972437516742e-001 3.5640900465262949e-002
      9.3049610863151465e-003 -1.2060854077497530e-002
      -3.7301901747612824e-002 8.3704414634263716e-002
      -1.0462671078263830e-001 -1.4423737515910119e-002
      -2.4938039893481665e-003 1.0893834265884060e-001
      -2.1021979934454021e-002 1.1411629750863878e-001
      -3.1326323403179035e-002 1.0346312175040502e-001
      2.2402211989826165e-003 -3.1848502363274217e-002
      -8.5291879830602949e-002 -1.4976913007318784e-002
      1.3276881790356335e-001 -2.1352872271351558e-002
      -5.5589685024424587e-002 5.4092510362567167e-002
      -2.3321941512624948e-002 -4.5602737181866145e-002
      -2.6089684338301770e-002 -2.3983136510270380e-002
      -6.5267143801574695e-002 1.6608534215633224e-002
      -6.5026401927711624e-003 7.6533996239991908e-002
      -1.4274555758394571e-002 -9.7335296541713918e-003
      -1.4993514078846157e-003 -2.6430067380564404e-003
      4.5031733737404739e-002 -4.2039236999984629e-003
      -1.5523790156222819e-002 1.3364256772297326e-002
      3.8488587929560406e-002 -1.2986399630534272e-002
      2.5824023498451060e-002 -1.2453298540361110e-003
      2.1054924860487507e-002 1.1480565892498550e-001
      -7.0630291427952229e-003 -4.1396839717042104e-002
      5.5248845438716422e-002 6.8812528713382115e-002
      -1.2285830266772180e-001 6.5713094956685980e-002
      7.4052678811122680e-002 5.5738438983211403e-004
      5.8202854697655517e-003 1.8238420593613532e-002
      -4.8045407637332928e-002 6.5358949292448213e-003
      7.2513869444720311e-002 1.5281309128242573e-001
      -6.9770564534190047e-002 3.2243250117146113e-002
      4.4381171725484655e-002 -2.6369697889407104e-002
      2.6800103874811614e-002 5.8454477320309166e-002
      -1.0010928698898114e-001 -4.6318748578758666e-002
      -8.4940921443593498e-002 -3.9442379670030898e-002
      5.7737243562669349e-002 8.9257667115754200e-003
      2.1767076436111185e-002 9.1028060477276365e-002
      -6.1317717150181431e-002 1.0439833967087341e-003
      -4.0772682409261985e-003 4.1218024302479707e-002
      -1.4205574781336614e-002 -7.1498961317819021e-002
      -2.2216990255035530e-002 8.6209643597169421e-003
      8.2159445990073673e-003 1.6109515336780157e-002
      -1.4227788399630883e-001 -1.0554420429833665e-002
      -8.5222495510453564e-002 5.6570011486173598e-002
      -5.8100555308027511e-002 1.6748097358845946e-002
      -1.5029059065265582e-001 -2.5892276335046316e-002
      8.0326074773893003e-002 2.4099070731935242e-002
      -8.2585803275175257e-002 5.8138178790169026e-002
      3.8907476857606774e-002 1.9202945741960079e-002
      2.3221510475351717e-002 -3.1826164760967515e-002
      3.7356706296830224e-002 7.6547838622577580e-002
      7.1003466230844456e-002 -2.4884464676542001e-002
      -3.9668645699324290e-003 4.1469961846030655e-003
      2.6064921255947494e-002 -4.2509282472893963e-002
      -4.1403107202777199e-002 -5.1202840255884688e-002
      3.0816880238836815e-003 -1.0335848541494972e-002
      7.0117834291244949e-002 5.2224268385222448e-002
      -9.2702408530371969e-002 -9.4997598218286416e-003
      8.2994657983922568e-002 -9.2932003511389458e-002
      5.3946675365247790e-002 9.5352429628052626e-002
      8.7126557834941457e-002 1.7701921528271655e-002
      1.6305244283414233e-001 1.2184842302020281e-001
      -2.6589152410176942e-002 2.8514789037269624e-002
      3.1169105709537601e-002 6.4202885843439889e-002
      -8.7514042270508227e-002 -2.3143167987268155e-002
      -1.3523547926077459e-001 4.7720178050699516e-002
      4.9925854244592609e-002 2.2456899919283662e-002
      -1.9225983295329870e-002 -4.0002365010721713e-002
      -8.5389390410726511e-003 3.4737575938085241e-002
      -4.6120685486059063e-002 5.7521404345183595e-002
      2.9328878432976588e-002 -7.3328828490510950e-002
      -5.4344841224847180e-002 -1.9369001756723951e-002
      1.1449356261094791e-001 -2.5328400388673095e-002
      2.3175560163277396e-003 9.8052932998972081e-002
      7.0847619236863021e-003 6.4096675940256392e-002
      4.5186869983866999e-002 5.9883033749334423e-003
      8.8594145580542807e-002 -2.6730044425901572e-002
      -4.7397751141327209e-002 6.7112255498326862e-002
      2.0801295125294321e-002 -9.3831024704457370e-003
      -5.5411744668117050e-003 1.0096133339651460e-001
      2.9019067699684802e-002 2.3484665645629615e-003
      -3.3945014454541941e-002 1.4129634207605171e-002
      -3.5880944953098119e-002 -1.2282023974665818e-002
      -5.5124180451335575e-002 -1.9789707435569397e-002
      -1.2101753537419166e-001 8.9913357653000195e-002
      -2.4802541677454531e-002 -1.9134132522267967e-002
      1.2127929070081174e-001 -2.9437674494542904e-002
      6.0600926846088130e-002 -2.9162941373348458e-002
      -4.5372535654392504e-002 3.7317841156840358e-002
      6.6620196165667486e-002 3.3786959985745393e-002
      3.4801509596397419e-002 4.5832148704183489e-003
      4.7567015473620484e-003 -3.9205334188656030e-002
      6.1222216183312764e-002 -2.8378485398625436e-003
      -3.1785322920262433e-002 5.1699234666565480e-002
      5.8226871278114954e-002 -5.7293801014945281e-003
      1.1064363823193900e-001 1.1423719327204640e-001
      2.2020628910419140e-002 5.4538842832513298e-002
      5.0887768369703344e-002 -1.9457653266841908e-002
      -2.5491646293762781e-002 6.5477255529585957e-002
      -2.7676094981563610e-002 4.1274956581481378e-002
      -9.5952862784071488e-002 -3.5916219144338179e-003
      -2.3494934462866005e-002 1.5573941666445700e-003
      -6.4487125546998397e-002 3.0482526902786574e-002
      2.8412421905448782e-002 -5.2591532518921277e-002
      7.0132856806973509e-002 -2.3578812096493047e-002
      4.8529157712333279e-002 -4.4013424587922342e-003
      3.7513132698620145e-002 -1.6839083075048607e-002
      -4.4084227109866390e-002 1.9113705343517313e-002
      -7.3829731610146360e-002 -3.2262947292239316e-002
      6.6242048875128343e-002 -1.3753444311001170e-001
      -2.1176947602258547e-001 -1.2481063039604917e-002
      -6.4731467839351398e-003 7.2096642319555510e-002
      1.1033183738698001e-002 3.1309952150787648e-002
      3.7381965048826987e-002 -1.0523156659362584e-002
      6.3334861696905706e-002 5.3684504486758045e-002
      6.1489411971039640e-003 3.6452919329035757e-002
      -1.2722055391790715e-001 5.0109469571502752e-002
      -1.0934273039123787e-001 9.1865514231857348e-002
      -4.6708061980558636e-002 1.5580446968831558e-002
      5.2510095647139874e-003 1.3624500379703916e-001
      6.1193989290715478e-003 3.5182716727919969e-003
      4.7065241199675679e-002 7.5845103299575167e-002
      -5.7214425389066847e-002 -5.0485559971000397e-002
      4.4026065898982551e-002 -2.8005699786545987e-002
      -5.4445634653826087e-003 -1.0903187009338855e-001
      5.2472443515920175e-002 -7.2589076964017549e-002
      2.1685755355294694e-002 6.6189144445649314e-002
      1.5758766489385831e-002 1.9269544876597440e-002
      1.4269161451071291e-001 8.0113908758619526e-002
      -4.1647524487092691e-002 3.1010124912708302e-003
      3.7456019415221108e-002 -2.5573105614452529e-002
      -7.7389468628245505e-003 2.7888394373091166e-002
      8.0041911308546279e-002 -6.2618421977549913e-003
      -8.7470576184025851e-003 6.4545457946157707e-003
      -3.1853731219456977e-002 -7.6685202842981276e-002
      5.8949058803172430e-002 8.1974153563626959e-003
      3.8215117789252859e-003 -5.5648532087449257e-002
      -2.6315098115834500e-002 4.6127734531155513e-004
      1.6114233197855141e-002 1.0727073851016247e-002
      1.8514449026479401e-002 -9.7924456646398973e-003
      -6.3203691552367658e-002 -8.1767459430252612e-002
      -1.2523816259048385e-002 -4.9594228331402958e-002
      1.9102581499446863e-002 1.1253233274189983e-002
      7.2308725169688823e-002 -1.1804279830954984e-002
      1.8106761542800338e-002 9.5481476488203904e-002
      -8.9264258535045285e-002 -6.1622055268671571e-003
      -1.1287983831229455e-001 -3.5675042113345462e-002
      7.9574367779943339e-002 1.3952015247396052e-001
      -8.2326220997481228e-002 -3.6770599685303440e-002
      -5.3104831705439890e-003 -8.8750114654993773e-002
      -5.5895080837149932e-003 6.3835474908526701e-002
      -7.5063212774330743e-002 -4.6902777871801180e-002
      1.6835190911270270e-003 -1.5373951290431545e-002
      6.9095479196766812e-002 2.8586995631160707e-002
      -9.1299195683681597e-002 8.0705932962500518e-002
      3.8767124865102761e-003 -9.8981845847998878e-002
      6.8710961359573414e-002 -6.2894290578041342e-002
      -9.0732659111934275e-002 -6.6863388646113478e-002
      -1.8609945368344608e-002 -5.7104973284757242e-002
      -3.4390728159219675e-002 -1.1141567378160645e-001
      -7.8426293783389528e-002 5.4233820120254163e-002
      1.3253921765336544e-002 7.7029139546566120e-003
      3.6494424503484717e-002 -1.7263640272405810e-002
      2.9503429135310840e-002 1.2392308505758587e-002
      -3.8625522002891312e-003 5.1963563701724474e-002
      3.8020731545644997e-002 -5.3970314132488817e-002
      6.8206940907879585e-002 7.3390822288424168e-002
      1.0915170037192749e-001 -8.0158726212779682e-002
      -3.5972983308888297e-002 4.1476660036214490e-003
      1.0253228757279961e-001 3.2793414496346034e-002
      -4.6101639475263190e-002 1.3728470720641653e-001
      6.2695668746233155e-002 6.6768800586857052e-002
      2.7294727973912310e-002 7.1584777435505526e-003
      4.1779361596428401e-002 -9.5701442286379473e-002
      -4.1215891428385242e-002 -1.7522519953616013e-002
      8.0781814247232325e-002 -1.0552442776355021e-001
      1.2276710535120550e-002 -1.6420167500014592e-002
      -5.1022102830388626e-002 -1.3962603160490750e-001
      8.8904513648690206e-004 5.4189385182271128e-002
      1.2841263301271626e-003 -1.2511658700906103e-001
      3.5155222395745318e-002 -9.9257036646115349e-002
      3.9883590365989534e-002 1.3195897349850765e-002
      3.0646270642864668e-002 -8.8427551077983248e-003
      -7.2727831589469175e-002 -8.2699288904729135e-003
      -6.0065266530970732e-002 -1.8097458768800416e-002
      1.5314574347546808e-002 -2.7170924859773921e-002
      -6.1615835769874165e-002 -5.9606570554663701e-002
      -1.0101217816520425e-002 7.4180419937390496e-002
      1.2886740260537146e-002 -7.1804684390952569e-002
      4.2750858796522864e-002 -5.0805067483217893e-003
      1.0983390421865107e-001 8.5448240229797690e-002
      -4.1869758945278307e-002 -5.9806476335738906e-002
      4.8149968899166545e-003 -5.6977956794933726e-002
      -6.5871899592228778e-002 -3.0990629654965543e-003
      -3.3195189139647981e-002 -5.7910828779080749e-002
      1.7036994117713235e-002 -4.3714616486062952e-002
      1.3093171102168050e-001 -8.7213768297260311e-002
      6.6259240391662783e-002 6.1766730451080887e-002
      -3.6784018100975056e-002 -1.0781422047623930e-001
      -2.1090263127030707e-002 3.3382975331915005e-002
      -5.8952369363839532e-002 -1.2327442750793692e-003
      1.1868222661064858e-001 6.6980189923764574e-002
      -1.1350627177355208e-001 -3.3775316796383799e-002
      3.4556016382114883e-002 -4.1698852600549367e-003
      6.1616887992223843e-004 -3.9275114774068760e-003
      -9.8172557332057552e-003 1.5025729510738113e-002
      8.2304856408080499e-003 7.0299617791866970e-002
      6.0344318711791953e-002 4.7518824683610078e-003
      -5.0288475836624012e-002 -1.0376248875282197e-001
      -3.5285547114864993e-002 4.5334114790442611e-003
      -6.5925269795088365e-002 7.4846049903650846e-002
      -2.5517193804638832e-002 1.8620739921891203e-002
      1.2009479193950015e-001 -5.5549151232982409e-002
      1.0943185584214113e-001 -4.9559128444743104e-002
      -7.1363588812817638e-002 2.4497690385265208e-002
      -6.2501501916141455e-002 -6.5999289198511862e-002
